{"ent_embeddings.weight": [[0.05141323432326317, -0.020163722336292267, -0.04671178758144379, -0.058035433292388916, 0.0016681700944900513, 0.039010994136333466, -0.034905318170785904, -0.06228886917233467, 0.03518690913915634, 0.05540196970105171, 0.054156675934791565, 0.0027988532092422247, 0.025962762534618378, 0.05773752182722092, 0.04699217155575752, -0.07179824262857437, -0.059730738401412964, 0.0024474961683154106, -0.04380800202488899, 0.06069637089967728, 0.007555882912129164, 0.07285545021295547, 0.04864748939871788, 0.04236190393567085, 0.05205004662275314, 0.008471343666315079, -0.052988361567258835, 0.0638105645775795, 0.0027080553118139505, 0.0030252428259700537, -0.0451396182179451, 0.05233294516801834, 0.06005401164293289, 0.05002613738179207, -0.006093840580433607, 0.05839170515537262, 0.05418326333165169, -0.03389881178736687, -0.058066923171281815, 0.06568039208650589, -0.03481461852788925, -0.018548447638750076, 0.010346085764467716, 0.0330849252641201, 0.0009612147114239633, -0.05015707015991211, 0.06137298792600632, 0.010081029497087002, 0.04065585881471634, -0.02836593985557556, 0.031863220036029816, 0.031821154057979584, -0.020377619192004204, 0.020815497264266014, -0.07163959741592407, 0.04305477440357208, 0.0277255792170763, -0.014987464062869549, 0.04018451273441315, 0.06109148636460304, -0.023355048149824142, 0.03229936584830284, 0.0013919667107984424, -0.0036935925018042326, 0.03606528043746948, -0.027304790914058685, -0.05371015518903732, -0.007102320436388254, 0.05949447304010391, -0.019569111987948418, 0.0652436837553978, 0.0553751066327095, 0.05246492475271225, 0.02466624416410923, 0.040398962795734406, -0.023350007832050323, 0.0010285928146913648, 0.06077194586396217, 0.06858766078948975, 0.040242113173007965, -0.047985486686229706, -0.002655499614775181, -0.05172662064433098, 0.019045988097786903, -0.057052694261074066, -0.03272145986557007, 0.007685396354645491, 0.050481438636779785, -0.06793831288814545, 0.05450749024748802, -0.03728573024272919, -0.06883580982685089, 0.02299434319138527, 0.025285381823778152, -0.06762473285198212, 0.01180063746869564, 0.017456024885177612, -0.0037314852233976126, 0.04442855715751648, 0.05381104350090027], [-0.023561730980873108, -0.06378976255655289, -0.04954952374100685, -0.05202173814177513, -0.062170885503292084, -0.03718951344490051, 0.006542534101754427, 0.05208175256848335, 0.07164709270000458, 0.04929906129837036, -0.06315918266773224, 0.01826736517250538, -0.02679555118083954, 0.02200491726398468, 0.00805695727467537, 0.04904299974441528, 0.031692709773778915, -0.026845255866646767, 0.03685132786631584, 0.052495989948511124, 0.06698796898126602, 0.03927658498287201, 0.07344801723957062, -0.06588137149810791, 0.010858912952244282, 0.055334966629743576, 0.035589758306741714, 0.05573941394686699, 0.057375065982341766, -0.036843329668045044, -0.04929593205451965, 0.06904962658882141, 0.062366001307964325, -0.009750409051775932, 0.020784849300980568, -0.039064694195985794, -0.059261567890644073, -0.07247407734394073, -0.05844227969646454, 0.029785944148898125, -0.05524503439664841, -0.06810932606458664, 0.06810396164655685, -0.023023664951324463, -0.046188559383153915, 0.04024972394108772, 0.042376287281513214, 0.03562306612730026, 0.05456385388970375, -0.015617020428180695, -0.02896898239850998, -0.04003413766622543, 0.016057802364230156, -0.01788540743291378, 0.07028544694185257, 0.06700253486633301, -0.02194477617740631, 0.002307760762050748, 0.02614501677453518, -0.005255788564682007, -0.00593428872525692, -0.06592822819948196, -0.025935236364603043, -0.07082829624414444, -0.02062724158167839, -0.014237507246434689, -0.051806241273880005, -0.03396620228886604, -0.024158548563718796, 0.05357339233160019, -0.05990913510322571, -0.0057797483168542385, 0.0009955264395102859, -0.017650920897722244, -0.03732488304376602, 0.016446446999907494, -0.06367446482181549, 0.031541574746370316, -0.022836187854409218, 0.010459099896252155, 0.04503041133284569, 0.03321753814816475, 0.04164949432015419, -0.05986618250608444, 0.03408108279109001, 0.025491544976830482, 0.04105153679847717, 0.07315747439861298, -0.04922609031200409, 0.012655503116548061, -0.019334640353918076, 0.04632372781634331, 0.006645080633461475, 0.05317709967494011, -0.06764724105596542, -0.018423661589622498, 0.002652829047292471, -0.02393762208521366, -0.007078500930219889, -0.07177881896495819], [0.0240574199706316, 0.06262845546007156, -0.009913631714880466, -0.06309479475021362, -0.03321559727191925, -0.05291401967406273, 0.023776866495609283, 0.0586668998003006, 0.015697753056883812, 0.044050183147192, -0.028694400563836098, 0.026843218132853508, 0.046401627361774445, -0.056511878967285156, -0.04294627159833908, -0.0496465303003788, -0.021223880350589752, 0.023243501782417297, 0.06176729127764702, -0.03967485576868057, 0.014602649956941605, -0.0219107773154974, -0.06519598513841629, 0.07243075966835022, 0.03326999396085739, 0.057394370436668396, -0.01138478796929121, 0.026223188266158104, 0.07084815204143524, -0.036899399012327194, -0.07206326723098755, 0.011152253486216068, 0.05679395794868469, 0.011430157348513603, 0.06107669696211815, 0.02113926224410534, -0.048744916915893555, -0.0015881238505244255, 0.07116369158029556, 0.020380089059472084, 0.07176080346107483, -0.03711409866809845, -0.04371719807386398, 0.054124414920806885, -0.020135361701250076, -0.052613817155361176, -0.06469117850065231, -0.00675545958802104, -0.055122699588537216, -0.010436423122882843, -0.06311354786157608, 0.031289372593164444, 0.0341348759829998, 0.017224181443452835, -0.004337599966675043, 0.0010870345868170261, 0.03432881832122803, -0.03157796338200569, 0.0139335747808218, 0.023845689371228218, 0.0658591091632843, -0.02625421993434429, 0.05708994343876839, 0.06672513484954834, -0.02351166307926178, -0.02442569099366665, 0.07017378509044647, -0.03429058939218521, 0.00400876346975565, 0.04293151572346687, -0.01766464300453663, -0.007803372573107481, 0.05400755628943443, -0.06963971257209778, -0.04503479227423668, -0.050783924758434296, 0.03884236142039299, 0.04799326881766319, 0.07001844793558121, -0.069104865193367, 0.03897012397646904, 0.005016791634261608, 0.050287481397390366, -0.06296345591545105, -0.03037012368440628, 0.047051962465047836, -0.05655771121382713, 0.05728204920887947, 0.06029065325856209, -0.04358290508389473, 0.010353298857808113, -0.01631121151149273, -0.04511984437704086, -0.04879291355609894, 0.059964414685964584, -0.008914253674447536, -0.04935574531555176, -0.07139061391353607, -0.024612806737422943, 0.018204927444458008], [0.021469563245773315, -0.03699490800499916, 0.05612307786941528, -0.03493179753422737, -0.013052654452621937, -0.034003257751464844, -0.02096957340836525, -0.018015017732977867, -0.022027239203453064, -0.021555067971348763, -0.056062426418066025, -0.04922763258218765, -0.020169200375676155, -0.07247991859912872, 0.03222718834877014, 0.060435254126787186, 0.038064852356910706, -0.007058308459818363, 0.004820479080080986, 0.0204806849360466, -0.03170344606041908, -0.027121052145957947, -0.01664194092154503, -0.0307832732796669, 0.04964836314320564, 0.005962826777249575, 0.016544939950108528, -0.019766176119446754, -0.023832028731703758, -0.06489114463329315, 0.042392194271087646, -0.03937022387981415, 0.038177698850631714, 0.023804079741239548, 0.05903223529458046, 0.03166602551937103, -8.59345673234202e-05, -0.028333446010947227, -0.01342142466455698, -0.03524620458483696, 0.050672587007284164, 0.014810464344918728, 0.051879748702049255, 0.007743083871901035, 0.012227963656187057, -0.06288236379623413, -0.04862893372774124, 0.013177336193621159, 0.05936814472079277, -0.00010009454854298383, -0.04714767634868622, -0.07125060260295868, -0.029407287016510963, 0.05821041762828827, 0.015013506636023521, 0.03262756019830704, 0.03429584205150604, -0.03322465345263481, 0.025178808718919754, 0.0462905690073967, 0.019112415611743927, -0.02758120559155941, -0.05118049681186676, 0.02021210640668869, -0.040445007383823395, -0.01944943144917488, 0.042549457401037216, 0.02875763177871704, 0.045662909746170044, -0.06114193797111511, -0.016640789806842804, 0.025556404143571854, -0.05557532235980034, -0.057025957852602005, 0.06952209025621414, 0.06661751121282578, -0.041259825229644775, 0.06395848840475082, 0.009219598956406116, 0.05293991416692734, -0.004846661351621151, -0.035162582993507385, -0.06509961187839508, -0.016555245965719223, -0.01350732147693634, 0.06626655161380768, -0.0020246130879968405, 0.027477413415908813, 0.014862274751067162, 0.0060590594075620174, 0.0412735715508461, -0.04301201179623604, -0.04554268717765808, 0.019443821161985397, -0.03917974233627319, 0.041701409965753555, -0.010724201798439026, -0.011237096041440964, 0.042782459408044815, -0.044029995799064636], [0.005923926830291748, -0.04654973745346069, -0.06442739814519882, -0.06850242614746094, 0.004147280007600784, -0.05106239393353462, 0.03596945106983185, 0.0048613217659294605, 0.058471329510211945, 0.006728369742631912, 0.0010649265022948384, 0.029103057458996773, -0.04962742328643799, 0.009175197221338749, 0.06622041016817093, 0.05966949462890625, -0.01110002025961876, 0.028987513855099678, 0.033721789717674255, -0.06603305041790009, -0.019947607070207596, -0.03735586255788803, -0.024860655888915062, -0.06873597204685211, -0.07058122754096985, -0.033098433166742325, -0.05853436142206192, 0.0039280252531170845, 0.011083674617111683, -0.027438245713710785, 0.048485808074474335, 0.03574737161397934, 0.0604044608771801, -0.0044990479946136475, -0.02337963879108429, -0.028648020699620247, -0.017564456909894943, -0.02134569361805916, -0.03622306138277054, -0.026909703388810158, 0.029115086421370506, -0.06448013335466385, 0.03025921620428562, 0.03503850847482681, -0.033254966139793396, 0.023779643699526787, 0.0531604029238224, -0.018544409424066544, 0.03960747271776199, 0.024860069155693054, 0.04675785452127457, -0.05498352274298668, 0.0329824723303318, 0.06718309968709946, 0.06640582531690598, -0.010724885389208794, -0.04001760482788086, -0.00864601880311966, -0.05932825058698654, 0.041975583881139755, 0.0671674907207489, 0.012772702611982822, 0.034612592309713364, -0.001984226517379284, 0.0731939971446991, 0.03540568798780441, -0.03416122496128082, -0.052971672266721725, 0.06171221286058426, 0.057076260447502136, -0.035898078233003616, -0.06995539367198944, 0.021205773577094078, 0.07302644103765488, 0.011672384105622768, -0.017146697267889977, -0.06822315603494644, 0.011793124489486217, -0.03216024860739708, -0.04461614415049553, -0.040854405611753464, 0.026910454034805298, 0.026811016723513603, -0.06837832927703857, -0.0022548679262399673, -0.0007479863706976175, 0.03272132948040962, -0.05219932273030281, 0.03790430352091789, -0.02513195015490055, 0.06013191491365433, -0.06287059187889099, -0.009439933113753796, 0.027118807658553123, 0.04902413859963417, 0.010299179702997208, -0.005881769582629204, -0.03675103932619095, 0.0049896533600986, 0.05741966515779495], [0.0526106022298336, 0.001240480225533247, 0.045983679592609406, -0.0032843053340911865, 0.05913688614964485, -0.02229079231619835, -0.06390833109617233, 0.05641874298453331, 0.017439404502511024, -0.05185990035533905, -0.03484698385000229, -0.007314105052500963, -0.0073418752290308475, 0.0653088390827179, 0.01398677472025156, 0.024621574208140373, -0.030446605756878853, 0.07047753781080246, -0.04125182703137398, -0.054567575454711914, -0.03218476101756096, 0.02121645398437977, 0.05840865150094032, 0.033478282392024994, -0.0655449703335762, -0.031452033668756485, 0.02098454348742962, -0.07325433939695358, -0.007069632411003113, 0.06121967360377312, -0.005795298144221306, 0.06548824906349182, 0.033838577568531036, 0.056497711688280106, 0.013320310972630978, -0.015565699897706509, -0.026605743914842606, -0.0009942676406353712, -0.0711488276720047, -0.022022424265742302, -0.059582602232694626, 0.03213084116578102, -0.06098848581314087, 0.07302872091531754, 0.03662758693099022, 0.05526433140039444, 0.022006278857588768, -0.04790540412068367, -0.042254190891981125, 0.03492249548435211, 0.010507340542972088, 0.02791515924036503, -0.016059136018157005, 0.02519448846578598, 0.036866430193185806, 0.0721304789185524, 0.011375334113836288, 0.04419899731874466, 0.0270825382322073, 0.048116497695446014, 0.004699141252785921, -0.022296221926808357, -0.057478003203868866, -0.007324368227273226, -0.07194595783948898, -0.0730300322175026, -0.056185245513916016, 0.060220882296562195, 0.050756994634866714, -0.05428716540336609, 0.010306566022336483, -0.038086920976638794, 0.0339825414121151, 0.05571764335036278, -0.04438052326440811, 0.06163609400391579, -0.019625673070549965, 0.024290569126605988, -0.06308233737945557, 0.0293276384472847, 0.06362970918416977, 0.0029646395705640316, 0.01981317438185215, 0.06265273690223694, 0.013402714394032955, 0.019335193559527397, 0.0046179089695215225, 0.05991688743233681, -0.04372744634747505, -0.03563626855611801, -0.024765457957983017, 0.01836743764579296, -0.017499927431344986, 0.0013338897842913866, 0.06547927856445312, -0.06823862344026566, -0.02231852151453495, 0.07010401040315628, -0.037787921726703644, 0.0640910267829895], [0.04480847343802452, 0.023714939132332802, 0.04612644016742706, -0.030971860513091087, -0.04997875541448593, 0.045594654977321625, 0.0354904942214489, 0.02040424570441246, -0.0361584909260273, 0.03360026702284813, 0.028434263542294502, -0.025464890524744987, 0.06250210851430893, 0.024644948542118073, 0.01585126668214798, -0.004493026528507471, -0.02601347677409649, 0.04336931183934212, 0.041606321930885315, 0.015248647890985012, -0.028548385947942734, -0.0697808712720871, 0.061132170259952545, 0.020149026066064835, 0.007411554921418428, 0.000710022053681314, -0.02657359652221203, 0.06991375982761383, -0.05930226668715477, -0.043402109295129776, 0.005641128867864609, 0.04593649506568909, -0.011002056300640106, 0.067344531416893, -0.04168655350804329, -0.047389592975378036, 0.053864140063524246, -0.06470800191164017, 0.029378021135926247, -0.020339181646704674, 0.05389125645160675, 0.06494727730751038, -0.03363042324781418, -0.036548350006341934, -0.00861239992082119, 0.05099586024880409, 0.05607137084007263, 0.011971376836299896, 0.05353444814682007, 0.015048006549477577, 0.03334428369998932, -0.050526492297649384, -0.03256712481379509, 0.04610402509570122, 0.07345659285783768, -0.053245313465595245, -0.017368020489811897, -0.036493007093667984, -0.014665096066892147, -0.04218173027038574, -0.04798765480518341, -0.03535529226064682, 0.0007353129331022501, 0.00842906441539526, -0.010019303299486637, 0.01953449659049511, 0.0710408017039299, -0.07098131626844406, 0.05996298789978027, -0.04805707186460495, -0.06131777912378311, -0.014974122866988182, -0.0001221178099513054, -0.03797866776585579, -0.007759235333651304, -0.038188476115465164, -0.024927277117967606, 0.06994671374559402, 0.03360013663768768, -0.056013885885477066, -0.00078076112549752, 0.04270455986261368, -0.031084589660167694, 0.05523457005620003, -0.04587635397911072, -0.0643831342458725, -0.02721640095114708, -0.06215425208210945, 0.03666089475154877, 0.07114432007074356, -0.023319991305470467, -0.03209482878446579, -0.032836996018886566, -0.057118009775877, 0.06569962203502655, 0.009429912082850933, -0.027188077569007874, 0.027375338599085808, 0.00950238760560751, -0.061611998826265335], [0.06352248042821884, -0.0026711926329880953, -0.016516998410224915, 0.032277099788188934, -0.055016376078128815, 0.0467786006629467, -0.05789058655500412, -0.012924036011099815, -0.03552870824933052, -0.0231305081397295, -0.0010840457398444414, 0.034098610281944275, -0.07389764487743378, 0.020099779590964317, 0.057133998721838, 0.017824318259954453, -0.04242487624287605, 0.02165059559047222, -0.04373392462730408, -0.005158027168363333, -0.0690438374876976, -0.004676040727645159, 0.006714152172207832, -0.03997572138905525, -0.021406136453151703, -0.02743721380829811, -0.06245719641447067, 0.009899762459099293, -0.015483365394175053, -0.020168917253613472, -0.05448341742157936, 0.03277746960520744, 0.06598479300737381, 0.05405953526496887, -0.0012778285890817642, -0.06186657398939133, 0.009334876202046871, 0.05805996432900429, -0.03602293133735657, -0.00520548177883029, -0.06662958115339279, 0.06797848641872406, -0.009868256747722626, 0.006486761849373579, 0.008952733129262924, -0.017632808536291122, 0.061521973460912704, 0.039276398718357086, 0.06604889035224915, 0.029569990932941437, -0.025808444246649742, -0.015800485387444496, 0.057949796319007874, 0.06093015894293785, -0.002890997100621462, 0.023877130821347237, -0.051496636122465134, 0.06489138305187225, 0.048865802586078644, 0.004823483061045408, 0.01114419661462307, 0.07240590453147888, -0.07170029729604721, -0.0737437829375267, -0.02118980884552002, 0.0021143609192222357, 0.023343894630670547, 0.008715498261153698, 0.04262757673859596, 0.022054534405469894, 0.01629018224775791, -0.05433790758252144, -0.052778005599975586, 0.01735622249543667, 0.044876400381326675, -0.01593085378408432, 0.02506186068058014, -0.0272403284907341, 0.06422357261180878, 0.005829901900142431, 0.028628434985876083, -0.07335826009511948, 0.059704896062612534, -0.025918472558259964, 0.04164009913802147, 0.0009289929294027388, 0.04455839842557907, -0.06287811696529388, -0.05542896315455437, -0.03965388983488083, 0.03635641932487488, 0.021883176639676094, -0.02172967419028282, 0.01427349541336298, -0.06727238744497299, 0.038223035633563995, -0.0023973446805030107, -0.00038936632336117327, -0.021003250032663345, -0.0017487588338553905], [-0.019459571689367294, 0.023956269025802612, -0.06377777457237244, -0.037574946880340576, 0.06842684000730515, -0.031532466411590576, 0.03518025949597359, 0.03687634319067001, -0.00023578462423756719, 0.02987552247941494, -0.06326340138912201, 0.03782948851585388, 0.06607145071029663, -0.06661251187324524, 0.06891690939664841, -0.005824902094900608, 0.035340435802936554, 0.013427802361547947, 0.02031649462878704, -0.07169585675001144, 0.045254699885845184, -0.04666508734226227, 0.0651145875453949, -0.007566309068351984, 0.012304461561143398, -0.0048897722736001015, 0.035657718777656555, -0.048594340682029724, -0.027538057416677475, 0.0035303665790706873, 0.008566591888666153, 0.02558385767042637, -0.036791544407606125, -0.05169674754142761, -0.04114503413438797, -0.0536203533411026, -0.019319061189889908, 0.002485649660229683, 0.016591239720582962, -0.06935002654790878, -0.04240626096725464, 0.008628129959106445, -0.06664540618658066, -0.010847440920770168, 0.031327687203884125, 0.0627627968788147, -0.02720583789050579, -0.041311994194984436, -0.006000867113471031, 0.04587705060839653, -0.06810448318719864, 0.04122495651245117, 0.06196222081780434, -0.013394460082054138, -0.05683751776814461, 0.06219736114144325, 0.0327417217195034, -0.02526535838842392, -0.007917092181742191, -0.03900517150759697, -0.009687632322311401, 0.049912769347429276, -0.05549198016524315, -0.06449724733829498, -0.0032696975395083427, 0.06664928793907166, 0.03923988342285156, -0.004391126800328493, 0.031866155564785004, -0.034007832407951355, -0.01932520978152752, -0.04902078956365585, 0.01194531749933958, 0.03821144998073578, -0.027761776000261307, 0.060650359839200974, -0.013178722001612186, 0.01620810106396675, 0.016471104696393013, -0.00898994505405426, 0.010595218278467655, 0.04883018881082535, -0.06371437013149261, 0.06137722358107567, 0.004427243955433369, 0.05499766394495964, 0.043417010456323624, -0.037998080253601074, 0.008255408145487309, -0.04619678482413292, -0.001600621035322547, -0.029315145686268806, 0.02260691486299038, -0.04363241791725159, -0.016780799254775047, -0.04857856407761574, -0.0010125557892024517, -0.0454583577811718, 0.008114254102110863, -0.029668431729078293], [0.06575842201709747, 0.021315518766641617, -0.03269944712519646, -0.06223471462726593, 0.05044923350214958, 0.03813692927360535, 0.02130942977964878, 0.0706947073340416, -0.031141482293605804, 0.0537845715880394, 0.0400107279419899, 0.03765375539660454, 0.03340631723403931, 0.04904428869485855, -0.05941981449723244, 0.07182828336954117, -0.050850044935941696, 0.03977559134364128, 0.0668129250407219, -0.0705287903547287, 0.03797650337219238, 0.009150771424174309, -0.041616566479206085, 0.005646785721182823, 0.04961903393268585, -0.04125671088695526, 0.02649577334523201, 0.049110252410173416, 0.01487652212381363, -0.05891169607639313, -0.056379858404397964, 0.042667098343372345, 0.05209100618958473, 0.0068119242787361145, 0.015611264854669571, 0.029712824150919914, -0.02432113140821457, 0.012931044213473797, -0.07191140204668045, 0.014889983460307121, -0.037316836416721344, -0.04672548547387123, -0.03376329317688942, 0.03097608871757984, 0.03170860931277275, 0.06773725152015686, -0.00045639104791916907, 0.03564945608377457, 0.007599755190312862, -0.03131299465894699, -0.010056686587631702, -0.031015247106552124, 0.03205763176083565, -0.062770314514637, -0.04975062981247902, 0.007845801301300526, 0.023894498124718666, -0.011931690387427807, 0.041938964277505875, 0.0022720005363225937, 0.07366522401571274, -0.0045490022748708725, -0.012864155694842339, 0.06550734490156174, 0.04519964009523392, 0.05886459723114967, -0.06835045665502548, 0.021016033366322517, 0.009176111780107021, -0.014697641134262085, 0.0497756265103817, -0.07065606862306595, -0.03415248170495033, -0.03095167502760887, -0.0713224783539772, 0.019449526444077492, 0.03205811604857445, -0.04226580634713173, 0.04990019276738167, 0.010706906206905842, 0.0002571030054241419, -0.0645984560251236, 0.024790890514850616, -0.062320973724126816, 0.04535123333334923, 0.04277825355529785, -0.048481497913599014, -0.02796071395277977, 0.044073332101106644, -0.010328700765967369, 0.03175782039761543, -0.07030407339334488, -0.041840631514787674, 0.06332530081272125, 0.0617317333817482, -0.04875795543193817, -0.027653777971863747, -0.03914749249815941, 0.04146377742290497, 0.02832168899476528], [0.056190233677625656, -0.033209122717380524, 0.006497488822788, -0.00465124798938632, -0.03733895719051361, 0.02121829241514206, -0.01674233190715313, 0.057788606733083725, 0.0408012792468071, 0.06288114935159683, -0.023538565263152122, -0.03942679241299629, 0.06827092170715332, 0.006362927611917257, -0.00765793165192008, 0.01786506175994873, 0.004902753047645092, -0.052873868495225906, -0.07392807304859161, 0.04834775626659393, 0.023455360904335976, -0.00030748083372600377, 0.07042145729064941, -0.020096899941563606, -0.004638062324374914, -0.02529616467654705, 0.018667032942175865, 0.0522543340921402, 0.03155335783958435, 0.05875541269779205, 0.014390399679541588, 0.045905232429504395, -0.0035881991498172283, -0.06797376275062561, 0.03743563964962959, -0.042576126754283905, 0.033357035368680954, 0.033166419714689255, -0.02054968662559986, -0.02501319907605648, -0.0402933731675148, -0.026472020894289017, -0.0397554375231266, -0.03288930281996727, -0.01388552226126194, 0.03806579113006592, -0.06235000491142273, -0.011486334726214409, 0.058267269283533096, 0.03710891306400299, -0.043659187853336334, 0.07147914916276932, -0.00930972583591938, -0.0686427429318428, 0.008391031995415688, 0.05315736308693886, -0.06987706571817398, -0.01937456615269184, 0.06425957381725311, 0.07003480195999146, 0.06467840075492859, -0.011397491209208965, -0.05800896883010864, 0.04646684229373932, 0.0015563832130283117, -0.011629749089479446, 0.05442861095070839, 0.04081586003303528, -0.050837114453315735, 0.04106736183166504, -0.013826553709805012, -0.013056167401373386, -0.052964989095926285, 0.01640525460243225, 0.05749482661485672, 0.057881373912096024, 0.031927283853292465, 0.05077767372131348, -0.019621215760707855, 0.07036662846803665, -0.03842119127511978, 0.02962055429816246, -0.054074402898550034, 0.05560977756977081, -0.018114015460014343, 0.05219949781894684, -0.05095381662249565, 0.06579439342021942, -0.03761603310704231, -0.0004619226965587586, 0.035358723253011703, -0.0407208688557148, -0.0030094569083303213, -0.04884904623031616, -0.07074685394763947, -0.030071312561631203, 0.05728264898061752, -0.07019088417291641, 0.04916901886463165, -0.014543382450938225], [-0.044908639043569565, 0.03569420427083969, -0.06853710860013962, -0.057851944118738174, -0.005679514724761248, -0.03953694924712181, 0.025126948952674866, 0.07134772092103958, 0.043006714433431625, 0.0536067970097065, -0.05946843698620796, -0.03155500069260597, -0.05821719020605087, -0.05744980648159981, 0.03333157300949097, -0.04481686279177666, 0.05149098485708237, -0.06145249679684639, -0.001345317461527884, 0.029092691838741302, 0.036343954503536224, 0.033274680376052856, 0.05987124517560005, -0.02937915548682213, 0.03719954937696457, 0.04130606725811958, 0.01731547899544239, 0.06718812137842178, 0.06559193879365921, 0.044643111526966095, 0.019903192296624184, -0.04613840952515602, 0.061234164983034134, -0.01678679697215557, 0.0713982954621315, -0.005670884624123573, 0.0709351897239685, -0.03295335918664932, 0.04883156716823578, 0.006891242228448391, 0.021794190630316734, -0.06934335082769394, -0.06405742466449738, 0.05412285029888153, -0.07237982749938965, 0.07199793308973312, -0.016581078991293907, 0.05260126665234566, -0.040392450988292694, 0.04686599597334862, -0.02830292098224163, 0.062253907322883606, -0.01100214384496212, 0.029601242393255234, -0.03019319288432598, 0.023878052830696106, -0.03989740461111069, 0.0011099838884547353, 0.07303091883659363, 0.06126055493950844, -0.06196752190589905, -0.017563339322805405, 0.0493326410651207, 0.050836388021707535, 0.052857160568237305, -0.04130135476589203, 0.022897735238075256, -0.021593432873487473, 0.01921810209751129, 0.01615574210882187, 0.0721757709980011, -0.050732970237731934, 0.07171747833490372, 0.002843195805326104, -0.05036356300115585, 0.05465082824230194, -0.0433277003467083, -0.05523102357983589, 0.033220671117305756, 0.06701778620481491, -0.03339959681034088, -0.04775321111083031, -0.07134761661291122, 0.02563369832932949, -0.048905450850725174, -0.041118323802948, -0.011323172599077225, 0.025990670546889305, -0.01373834814876318, 0.005834680050611496, -0.017048900946974754, -0.04732833802700043, 0.022799117490649223, -0.009989582002162933, 0.023561840876936913, -0.07147802412509918, -0.03151034191250801, 0.05144783481955528, 0.004945081193000078, -0.006217271089553833], [0.007305373903363943, 0.010678468272089958, -0.024711614474654198, 0.023328011855483055, 0.028806230053305626, -0.03676237165927887, -0.05721171945333481, -0.05789458006620407, 0.0014192558592185378, 0.05830591171979904, 0.02566933073103428, -0.034008100628852844, 0.017204519361257553, 0.06613007187843323, -0.06783152371644974, 0.028834933415055275, -0.03172466531395912, 0.049612365663051605, -0.03033481165766716, -0.017999107018113136, -0.03434374928474426, 0.042889613658189774, 0.05245660990476608, 0.023101862519979477, -0.05963843688368797, 0.008495052345097065, -0.056167904287576675, -0.05356505885720253, 0.024210505187511444, 0.009700723923742771, -0.018616801127791405, 0.055875834077596664, 0.06713349372148514, -0.039966512471437454, -0.009637534618377686, -0.0295253973454237, 0.06728783249855042, 0.053510770201683044, 0.012774346396327019, 0.03279292583465576, 0.001401416608132422, 0.031941574066877365, 0.0529060885310173, -0.06951262056827545, 0.05157436057925224, -0.017698626965284348, -0.021493887528777122, 0.07263296097517014, 0.05851791054010391, -0.012995820492506027, 0.06011814996600151, -0.004586165305227041, 0.0016656030202284455, 0.04109923541545868, 0.035852424800395966, 0.012312783859670162, 0.002206834265962243, 0.006933171767741442, -0.03144293278455734, 0.01932615041732788, -0.04239783436059952, -0.01324078906327486, 0.036906056106090546, -0.06206580996513367, -0.006058382801711559, -0.06021381542086601, 0.05582018569111824, -0.022638576105237007, 0.04139004275202751, 0.0707392692565918, -0.07190463691949844, 0.00811300240457058, -0.0539473257958889, 0.06075739115476608, -0.013572058640420437, 0.0028253502678126097, 0.04677676409482956, -0.014086665585637093, 0.06484054774045944, -0.0653054341673851, -0.05051456764340401, 0.021668007597327232, -0.021881988272070885, 0.019985197111964226, 0.06538897007703781, -0.048247553408145905, -0.024741310626268387, -0.05216626450419426, -0.07377172261476517, 0.029711753129959106, -0.0010166142601519823, -0.024721937254071236, -0.0010963197564706206, 0.015538571402430534, 0.030712677165865898, 0.0025219616945832968, -0.025952940806746483, -0.040706831961870193, 0.010938678868114948, -0.06373821198940277], [0.06508041173219681, 0.07257448881864548, 0.028033895418047905, -0.032306451350450516, 0.007951692678034306, -0.014198721386492252, -0.032349735498428345, 0.04996372014284134, -0.042521990835666656, 0.01766044832766056, 0.019229190424084663, 0.0664975494146347, -0.016399957239627838, 0.06623967736959457, 0.008221224881708622, -0.0030630407854914665, 0.07060545682907104, -0.00746740959584713, -0.0593121238052845, -0.019504785537719727, 0.009784572757780552, 0.0194894727319479, 0.03631867095828056, 0.05338234081864357, 0.03776642307639122, -0.05188940092921257, -0.0339834988117218, -0.06577323377132416, 0.033326130360364914, 0.05704263597726822, -0.03465478494763374, 0.005668580997735262, -0.03835700452327728, 0.04099814221262932, -0.03502625599503517, 0.0594627670943737, -0.044936299324035645, 0.003708652686327696, -0.018604891374707222, -0.01237033773213625, 0.0034760187845677137, 0.011948383413255215, -0.047224950045347214, -0.020079711452126503, -0.05277114734053612, -0.017248326912522316, -0.008526845835149288, 0.008032206445932388, -0.06525112688541412, 0.0330972746014595, -0.021602828055620193, -0.06352689117193222, -0.043883513659238815, -0.03664087504148483, 0.053354863077402115, -0.01254280935972929, 0.008417089469730854, 0.018737373873591423, 0.010853787884116173, 0.06099935993552208, 0.039381399750709534, -0.018425509333610535, 0.004471262451261282, 0.018083345144987106, 0.00035325836506672204, -0.021188849583268166, -0.052205588668584824, -0.013347277417778969, -0.01053297333419323, 0.029760219156742096, -0.06370242685079575, 0.04598917067050934, -0.03766273334622383, -0.04756921902298927, 0.025921043008565903, -0.06006517633795738, 0.022155221551656723, -0.01798046939074993, -0.022684359923005104, 0.00933742243796587, 0.05177045986056328, 0.018018197268247604, -0.012802032753825188, -0.06405751407146454, -0.03402434289455414, -0.04055541381239891, -0.04173566401004791, 0.0010356890270486474, -0.025627905502915382, -0.06411342322826385, 0.07174008339643478, 0.05708549916744232, 0.030809562653303146, 0.06006857752799988, -0.03408472239971161, -0.039839670062065125, -0.030612314119935036, 0.07174043357372284, -0.018913911655545235, -0.027442455291748047], [-0.056955594569444656, -0.03686704859137535, 0.031397804617881775, 0.01176436897367239, 0.04143675044178963, 0.04965383559465408, -0.01681067980825901, 0.040892571210861206, 0.0285134669393301, -0.07248618453741074, -0.010666790418326855, -0.06772708147764206, 0.04766106233000755, -0.044093530625104904, 0.006213137414306402, 0.048007264733314514, -0.026636669412255287, 0.002162269316613674, 0.02210504747927189, -0.057186368852853775, 0.02429948002099991, -0.06673828512430191, 0.034029945731163025, 0.05067715048789978, 0.04815549775958061, 0.05244892090559006, 0.053896624594926834, 0.0411771759390831, -0.06391429901123047, -0.031096799299120903, -0.04255273565649986, -0.0076364935375750065, 0.058438245207071304, -0.028703808784484863, -0.051805876195430756, 0.05464063957333565, 0.07262657582759857, 0.01387245487421751, 0.06873701512813568, -0.006818774621933699, 0.007264961488544941, -0.044351425021886826, 0.05047677457332611, 0.03004278615117073, -0.011087261140346527, 0.0036634800489991903, -0.002396441763266921, -0.03301863744854927, 0.05432926118373871, -0.00012974614219274372, 0.028945399448275566, -0.06909165531396866, 0.025009645149111748, -0.023549053817987442, 0.011729334481060505, 0.06523959338665009, 0.006453646346926689, -0.03652585297822952, 0.020085442811250687, -0.03267921879887581, 0.0666276216506958, -0.055393293499946594, -0.05661004036664963, 0.026445461437106133, -0.02442977949976921, 0.020389821380376816, 0.036278046667575836, 0.0214421134442091, 0.059747032821178436, -0.006419049110263586, 0.07220128923654556, 0.04241906851530075, 0.011171755380928516, -0.057823728770017624, -0.010703202337026596, -0.04717644304037094, -0.037365444004535675, -0.03730195015668869, -0.04631390795111656, -0.04170502349734306, -0.031153634190559387, -0.044564396142959595, 0.0728699192404747, -0.02157510258257389, 0.06545575708150864, 0.04877335950732231, -0.029737329110503197, 0.01155011635273695, 0.06078774482011795, 0.06547505408525467, -0.02671927586197853, -0.0730191320180893, 0.004236002452671528, 0.06312316656112671, 0.06419029831886292, -0.03341679647564888, -0.02972766011953354, 0.019613973796367645, 0.05255504697561264, -0.06295973807573318], [-0.07306253165006638, 0.06504160165786743, -0.05169656127691269, -0.06462422013282776, -0.035881198942661285, -0.02730470336973667, 0.05454527214169502, 0.016228923574090004, 0.0042496491223573685, 0.03513080254197121, -0.042111024260520935, -0.04443545266985893, 0.04070836678147316, -0.04190155118703842, -0.04229845479130745, 0.06790965795516968, 0.005478076171129942, 0.015831226482987404, 0.013774868100881577, 0.0024071880616247654, -0.017931628972291946, 0.01746477745473385, -0.00941992923617363, -0.05882062390446663, 0.04414095729589462, 0.037755899131298065, -0.00521545484662056, 0.02733364701271057, -0.03660936281085014, 0.04560361057519913, 0.0364474318921566, 0.06571414321660995, -0.05318090319633484, 0.03668202459812164, 0.0412462018430233, 0.00024413599749095738, 0.0627221018075943, 0.030070653185248375, 0.06476160138845444, -0.0073340400122106075, 0.0002796997141558677, 0.013887046836316586, 0.025604724884033203, -0.027087930589914322, -0.01707122102379799, 0.06793735921382904, -0.0626058429479599, 0.04735720157623291, 0.04892842099070549, 0.04194096103310585, -0.03492966294288635, 0.006749005056917667, -0.04907144606113434, -0.06944477558135986, -0.00828545168042183, -0.047200266271829605, 0.07242986559867859, -0.004962195176631212, 0.03435416519641876, 0.03790029138326645, -0.00856480561196804, 0.015325733460485935, -0.038314707577228546, 0.04404797405004501, 0.06778299808502197, 0.04227457568049431, -0.06919098645448685, 0.038472980260849, -0.06469889730215073, 0.04875493794679642, -0.005099802277982235, 0.06876859068870544, 0.003645643824711442, 0.07033420354127884, -0.0615713894367218, 0.03988270089030266, -0.024593060836195946, 0.06799755245447159, -0.024781350046396255, 0.065538689494133, 0.030772222205996513, -0.03079223819077015, 0.05060821771621704, -0.07085803896188736, -0.003759588347747922, -0.06054707616567612, -0.0014403583481907845, -0.00878305546939373, -0.04595824331045151, -0.06510316580533981, 0.06171181797981262, -0.04105682298541069, -0.001720265718176961, -0.04526204243302345, -0.04947318136692047, 0.0601901151239872, -0.019941607490181923, 0.011875963769853115, -0.05282788351178169, -0.0301298126578331], [-0.06680496782064438, -0.012120510451495647, 0.06410469859838486, 0.038641419261693954, -0.027409028261899948, 0.047338519245386124, -0.060909587889909744, -0.004011370707303286, 0.015287939459085464, -0.004280921537429094, -0.05628307908773422, -0.06574907898902893, 0.015981698408722878, 0.0394991971552372, 0.03774068132042885, 0.031424447894096375, 0.06509869545698166, -0.04759703204035759, -0.07220621407032013, 0.0024430404882878065, 0.06207936257123947, -0.05534524843096733, -0.005537224467843771, 0.05731024965643883, 0.04973655939102173, -0.035548433661460876, 0.05585182458162308, 0.035643044859170914, 0.021346095949411392, -0.04248053953051567, 0.0354125015437603, 6.239546200959012e-05, -0.0216281246393919, -0.046650875359773636, 0.05625167489051819, 0.05075870081782341, 0.03677934780716896, 0.01601060852408409, 0.06276895850896835, 0.03840232267975807, 0.05117424577474594, 0.04335445165634155, -0.031912270933389664, 0.03894473612308502, -0.04975264146924019, -0.04391910880804062, 0.0005316436290740967, 0.011409403756260872, 0.02726738341152668, -0.002976181684061885, -0.03914244472980499, -0.0509297251701355, -0.04970922693610191, -0.0695815458893776, -0.05996372923254967, 0.05470798909664154, 0.01910652592778206, -0.03784272074699402, 0.04266001656651497, 0.06594668328762054, -0.01943846419453621, -0.036700163036584854, -0.039501793682575226, -0.018067913129925728, -0.04044458270072937, 0.054566241800785065, -0.02689308486878872, 0.0487137995660305, 0.00514880008995533, 0.005349000450223684, 0.010337910614907742, -0.01007892657071352, -0.02428886853158474, 0.019176248461008072, 0.0024100227747112513, -0.05832340940833092, -0.032811082899570465, 0.008237093687057495, 0.04054839909076691, -0.04031934589147568, 0.030855923891067505, -0.01802302524447441, 0.06898901611566544, 0.0733073353767395, 0.04845481738448143, 0.03184055536985397, 0.012204093858599663, 0.044948216527700424, -0.02169186994433403, 0.015156632289290428, -0.01226739026606083, 0.01713898964226246, -0.003262239508330822, 0.025892503559589386, 0.014088342897593975, -0.06561971455812454, 0.03554437682032585, -0.02490813098847866, -0.06551860272884369, -0.03818811848759651], [-0.0009570355177856982, -0.02570858970284462, -0.06941498070955276, -0.011953146196901798, 0.04655517637729645, -0.0610317699611187, -0.017661243677139282, -0.03907216712832451, 0.0006381204584613442, 0.016156887635588646, 0.006659900303930044, -0.030009381473064423, -0.04708852618932724, 0.034539200365543365, -0.05748341977596283, -0.04165877401828766, -0.029866691678762436, 0.022329380735754967, 0.050944358110427856, 0.01829434372484684, 0.0651751309633255, -0.027478879317641258, 0.05864282697439194, -0.049277957528829575, 0.06591159105300903, -0.06401970982551575, 0.03373109921813011, -0.012465326115489006, -0.05583677440881729, -0.007295961957424879, 0.058059465140104294, -0.06151321157813072, -0.01643216237425804, -0.07069800049066544, 0.07219048589468002, -0.0629281997680664, 0.061974819749593735, 0.048341721296310425, 0.026061179116368294, 0.018338916823267937, 0.022563524544239044, 0.0627295970916748, 0.03614059090614319, 0.05395113676786423, 0.05112705007195473, 0.05356486141681671, 0.023787982761859894, 0.010421227663755417, 0.01647667959332466, 0.06926184892654419, -0.07021843641996384, -0.04241792857646942, -0.021649586036801338, -0.04143877699971199, 0.007310240529477596, 0.022092079743742943, -0.007276725023984909, 0.017541393637657166, -0.05879984423518181, 0.017978612333536148, -0.045949093997478485, -0.05291478708386421, -0.030779585242271423, 0.02358742244541645, 0.006120800506323576, -0.023455657064914703, -0.03195837512612343, -0.06709173321723938, -0.05244721844792366, -0.03137284517288208, -0.005262539256364107, -0.061475493013858795, 0.06304758042097092, 0.06707806140184402, -0.0685468539595604, 0.021222595125436783, -0.055245544761419296, 0.051952581852674484, -0.024076594039797783, -0.0372246690094471, 0.037340130656957626, -0.029719030484557152, -0.005451072007417679, -0.058282721787691116, 0.06373725086450577, -0.006098736077547073, -0.03311321511864662, -0.028240134939551353, -0.015933146700263023, -0.030942965298891068, -0.018638042733073235, 0.026286564767360687, -0.0062372684478759766, 0.061325326561927795, 0.019734736531972885, 0.001762322848662734, -0.05917159467935562, 0.03710637614130974, 0.0029697720892727375, 0.03773115202784538], [0.04901109263300896, 0.024162564426660538, -0.06858721375465393, -0.03814196214079857, -0.03183428570628166, 0.03158405423164368, 0.010122873820364475, -0.044227566570043564, -0.0034504965879023075, 0.06432843953371048, -0.003640434704720974, 0.04419355094432831, -0.01275611575692892, -0.039905522018671036, -0.049768030643463135, -0.037994131445884705, -0.07360830903053284, -0.04776186868548393, 0.018454693257808685, 0.06962764263153076, -0.05379083752632141, -0.023999053984880447, -0.07180566340684891, 0.060513872653245926, -0.02813315950334072, 0.0025645033456385136, 0.0641748458147049, -0.007186446338891983, -0.06313078105449677, 0.0547337681055069, 0.009207422845065594, 0.030584851279854774, 0.05423698201775551, -0.0691574290394783, 0.015870342031121254, 0.030030302703380585, 0.0033839454408735037, -0.014710171148180962, 0.01371511910110712, 0.015393957495689392, -0.007910024374723434, 0.0002122494188370183, 0.03646502271294594, -0.021839668974280357, 0.01810467429459095, 0.01914394460618496, 0.028897421434521675, -0.036901429295539856, -0.05588257685303688, -0.06936854124069214, 0.04795127362012863, 0.06709913164377213, 0.02557050995528698, 0.006816396955400705, -0.04330930858850479, -0.00026713154511526227, 0.06824463605880737, -0.0658588707447052, 0.01870799995958805, -0.07137445360422134, 0.010361545719206333, 0.03412049263715744, -0.04554586112499237, -0.010239089839160442, -0.006487489212304354, -0.0635758712887764, 0.007218059618026018, -0.06995644420385361, -0.07281798869371414, -0.03796808421611786, -0.006603782530874014, 0.015504810959100723, 0.059233296662569046, -0.023268869146704674, -0.0028368006460368633, -0.006578805390745401, 0.004954212345182896, 0.04244957119226456, 0.0556756816804409, 0.042650170624256134, 0.03158241882920265, -0.06798256188631058, 0.07169066369533539, 0.07197093218564987, -0.01470534410327673, 0.02508963830769062, -0.02181842178106308, -0.03863198682665825, 0.019809313118457794, -0.010893396101891994, -0.03240708261728287, -0.037205494940280914, -0.027963783591985703, 0.0003006033948622644, -0.022084660828113556, 0.00882283877581358, -0.04483664408326149, 0.017528647556900978, 0.03915379196405411, 0.07056710869073868], [0.026509124785661697, 0.028297215700149536, 0.06259625405073166, -0.020976239815354347, -0.03449006378650665, 0.012677428312599659, -0.05860264226794243, -0.05958983674645424, 0.011282361112535, 0.014143198728561401, 0.04309488832950592, 0.014664079993963242, 0.018641134724020958, 0.028508538380265236, 3.76526550098788e-05, -0.06583061814308167, 0.01764371618628502, 0.041743628680706024, 0.047512855380773544, -0.06887657195329666, -0.003847610205411911, 0.02347649447619915, 0.003513634204864502, -0.013355677947402, 0.01195578370243311, -0.04300467669963837, -0.03205925226211548, -0.01666358858346939, 0.055976152420043945, 0.0521702840924263, 0.0042227269150316715, -0.047764815390110016, 0.0037303545977920294, -0.03404410555958748, -0.0539376363158226, 0.026370910927653313, 0.05410449206829071, 0.041791871190071106, 0.046355247497558594, 0.005284606013447046, 0.044008877128362656, -0.0677347332239151, -0.010175744071602821, 0.02395094558596611, -0.03429548814892769, -0.024801034480333328, -0.02151220664381981, 0.063778817653656, 0.04280245676636696, -0.027204668149352074, -0.013609876856207848, 0.037819743156433105, -0.06324111670255661, 0.07003864645957947, 0.01360946986824274, -0.0033521142322570086, -0.04478270933032036, 0.0157023835927248, -0.042887043207883835, 0.019299769774079323, -0.062438253313302994, 0.05669769272208214, 0.0272541381418705, 0.030495379120111465, -0.004265114665031433, -0.049190618097782135, 0.07144442200660706, -0.017893753945827484, -0.028720466420054436, 0.007682100869715214, -0.06829716265201569, 0.0531935915350914, -0.03441927209496498, -0.06450243294239044, 0.018649866804480553, -0.01648350991308689, 0.05429459735751152, 0.07215593755245209, 0.04576545208692551, 0.05053171142935753, -0.06009471043944359, -0.03563591465353966, 0.0577741414308548, -0.021501878276467323, 0.03339280188083649, 0.005907830782234669, -0.014775007031857967, -0.01003727875649929, 0.05754248425364494, 0.0700020045042038, -0.002064848318696022, 0.004974734969437122, 0.019427703693509102, -0.026066182181239128, -0.020777370780706406, -0.06137174367904663, -0.009309899061918259, 0.04889233782887459, 0.010366179049015045, -0.020161695778369904], [-0.01998322084546089, -0.03913867473602295, 0.0015706258127465844, 0.009755728766322136, 0.02019491232931614, -0.06470195204019547, 0.007088659331202507, 0.05004691705107689, -0.06043650954961777, 0.07315624505281448, -0.03554825484752655, 0.04657888785004616, -0.0029909485019743443, 0.0655018761754036, 0.045187484472990036, -0.029884420335292816, 0.05500057712197304, -0.0009447011398151517, -0.03927170857787132, 0.035105276852846146, 0.02262393943965435, -0.06326475739479065, 0.05692620947957039, -0.011687112040817738, -0.028384748846292496, 0.01576538383960724, -0.06033562123775482, 0.04679584503173828, -0.03984685242176056, 0.06879321485757828, 0.019465360790491104, 0.05390295758843422, 0.03470972180366516, 0.07046182453632355, 0.0033454783260822296, 0.002280707936733961, 0.048701055347919464, 0.06534092873334885, 0.031072422862052917, 0.04089030995965004, 0.021274354308843613, -0.016688436269760132, -0.0708766058087349, 0.02491300366818905, 0.05179528146982193, -0.03733470290899277, 0.02253786474466324, -0.05223593860864639, 0.025884030386805534, -0.062067706137895584, 0.04854842647910118, 0.020840130746364594, -0.004744399804621935, 0.070232093334198, -0.06677082926034927, 0.05233081057667732, 0.06763646006584167, 0.030904440209269524, 0.054617989808321, -0.04147154837846756, 0.03692465275526047, -0.020843468606472015, -0.0008398144273087382, 0.0650726854801178, -0.0129271624609828, -0.033907532691955566, -0.06156693026423454, -0.0014640680747106671, -0.06650203466415405, -0.051296696066856384, 0.021299149841070175, -0.0383470244705677, -0.036369021981954575, 0.004067237954586744, 0.03177856653928757, 0.0736614316701889, 0.007244591135531664, 0.06658931076526642, -0.016213662922382355, 0.005678993184119463, 0.035755693912506104, 0.05865294858813286, 0.0557502880692482, 0.0010991771705448627, -0.06536683440208435, -0.0007729746284894645, -0.0303697157651186, -0.01903454400599003, 0.01364352460950613, -0.05028127133846283, 0.023058071732521057, -0.04590565338730812, 0.006242848001420498, -0.0652737244963646, 0.07098750025033951, -0.04960115626454353, -0.01011104229837656, -0.013487475924193859, 0.020311392843723297, 0.007659388706088066], [0.005291180219501257, 0.004743704106658697, 0.01963895931839943, -0.03632430359721184, 0.05266592279076576, 0.04969049245119095, 0.06782519817352295, -0.06003442779183388, 0.04121404513716698, 0.01804041489958763, -0.07227174192667007, 0.05743538960814476, 0.012942088767886162, 0.04390135779976845, 0.04504508525133133, -0.019159434363245964, 0.030818641185760498, 0.054743442684412, -0.025031279772520065, 0.008442905731499195, -0.028553292155265808, -0.029322121292352676, 0.005758229177445173, 0.06041864678263664, -0.06793589890003204, 0.06370647251605988, -0.048810362815856934, 0.0444357767701149, -0.01573146879673004, -0.04538724943995476, 0.01723424345254898, 0.030268218368291855, -0.021029934287071228, 0.0635744258761406, -0.05305894836783409, 0.018717801198363304, -0.06393105536699295, -0.053181204944849014, -0.046734172850847244, -0.06666263937950134, 0.017117835581302643, 0.0330602191388607, 0.025258881971240044, 0.001195511780679226, -0.01975657418370247, 0.06898778676986694, -0.055950045585632324, 0.006556712090969086, 0.014541286043822765, 0.0241228099912405, 0.010643166489899158, -0.04649551585316658, -0.005059823393821716, -0.02791132777929306, 0.004397125449031591, -0.05756203830242157, -0.04103735089302063, 0.05895759537816048, -0.03600611910223961, 0.03205046430230141, 0.03145158290863037, 0.013197262771427631, 0.0708497166633606, -0.008429626934230328, 0.03426392003893852, 0.011989004909992218, -0.06853050738573074, 0.037234701216220856, -0.048043299466371536, 0.06139229238033295, -0.029935581609606743, -0.011899839155375957, -0.055130984634160995, 0.012530086562037468, -0.005561038386076689, -0.00612964341416955, -0.028672046959400177, -0.03464304655790329, -0.051352858543395996, -0.0011765934759750962, -0.02170928567647934, -0.037906475365161896, -0.009253857657313347, -0.025222402065992355, -0.06997479498386383, -0.009047993458807468, -0.060023047029972076, 0.016215261071920395, 0.01787560246884823, -0.04116780310869217, -0.06818079203367233, 0.03748047724366188, -0.04260402172803879, 0.022774631157517433, 0.02851547859609127, 0.02626616694033146, 0.06597352027893066, 0.020471790805459023, -0.018639760091900826, 0.034890443086624146], [-0.031740766018629074, -0.014971954748034477, 0.04167252033948898, 0.017533468082547188, -0.025942087173461914, 0.06738120317459106, 0.06378385424613953, -0.0006676841876469553, -0.03831608220934868, 0.016625160351395607, 0.04488222673535347, -0.024882972240447998, -0.022628847509622574, -0.03121054172515869, -0.03238504379987717, -0.034355245530605316, 0.03319110348820686, 0.010942970402538776, 0.0028390262741595507, -0.07244830578565598, -0.02336738631129265, 0.012656954117119312, 0.015843158587813377, 0.05547798424959183, -0.008186777122318745, 0.028702350333333015, -0.048837948590517044, -0.05443350970745087, 0.014875805005431175, 0.0503104105591774, -0.022573595866560936, -0.027635173872113228, 0.04098152741789818, -0.027033351361751556, 0.029420118778944016, 0.04233599826693535, 0.010228118859231472, -0.05152088776230812, 0.054134175181388855, -0.02479136548936367, -0.011231556534767151, 0.025978930294513702, -0.06304200738668442, 0.048155777156353, 0.048386100679636, -0.0026884679682552814, -0.027943795546889305, -0.05166289582848549, 0.05775686725974083, -0.04298079386353493, 0.015429436229169369, -0.0413520485162735, 0.022520137950778008, 0.008406457491219044, 0.027925271540880203, -0.039088282734155655, 0.0037871350068598986, 0.05941697210073471, 0.03393241763114929, 0.008841385133564472, -0.052266139537096024, 0.020301731303334236, 0.0732601061463356, 0.06484583020210266, 0.061301339417696, 0.016364511102437973, 0.06899712234735489, 0.06055217236280441, 0.04467933624982834, 0.06147915497422218, 0.06911483407020569, -0.035707615315914154, 0.0037154550664126873, -0.009909551590681076, -0.01950795017182827, 0.0668780505657196, 0.030020607635378838, -0.07187408953905106, 0.0492577888071537, 0.018404630944132805, 0.046539273113012314, 0.014665910974144936, 0.003104271600022912, 0.0351765938103199, -0.0635456070303917, 0.004085779655724764, 0.048707012087106705, 0.010301603935658932, 0.007312886882573366, -0.019695382565259933, 0.0642160102725029, -0.07231534272432327, -0.05664216727018356, -0.028679633513092995, -0.007478324230760336, -0.024431917816400528, 0.025810740888118744, -0.02100256271660328, -0.05420529842376709, -0.007524540647864342], [0.07023712992668152, -0.002354060299694538, -0.009094923734664917, 0.0339452289044857, -0.0026792138814926147, 0.02472132444381714, 0.03360672667622566, 0.028956035152077675, -0.041393980383872986, -0.050520654767751694, -0.041380759328603745, -0.04758971184492111, 0.008202851749956608, 0.011509308591485023, -0.03352633863687515, -0.04501229152083397, -0.036845773458480835, 0.008471728302538395, 0.005313923116773367, 0.03731979802250862, -0.023383667692542076, 0.020463498309254646, -0.05798152834177017, 0.014114178717136383, 0.028751322999596596, 0.0733308494091034, -0.05536655709147453, -0.05103522539138794, -0.07057928293943405, 0.03790014982223511, 0.02483776956796646, 0.048559583723545074, 0.056214433163404465, -0.001018921728245914, -0.02233598195016384, -0.06863371282815933, -0.03902779147028923, -0.0033993024844676256, 0.003035802859812975, -0.03993324935436249, 0.06518041342496872, 0.024125264957547188, 0.022630667313933372, -0.0448826439678669, -0.022976454347372055, 0.03166600316762924, -0.0205940380692482, -0.019707782194018364, 0.050721827894449234, -0.046314604580402374, -0.05647706985473633, 0.031138069927692413, -0.06294357776641846, 0.04281475022435188, -0.06425943225622177, -0.0005282362690195441, 0.07058613002300262, -0.03506562113761902, 0.005589376203715801, 0.029323507100343704, 0.049802232533693314, 0.02140028215944767, -0.04453815519809723, -0.06273749470710754, -0.04168625548481941, 0.010087449103593826, 0.06145545095205307, -0.0032972064800560474, -0.0652698278427124, 0.05371081456542015, -0.058214221149683, 0.06889397650957108, 0.06295887380838394, 0.05626482889056206, -0.040400777012109756, -0.021914582699537277, 0.011980713345110416, 0.04374050348997116, 0.03895295411348343, -0.01959029585123062, 0.02016223594546318, 0.04513883218169212, -0.06793584674596786, -0.027311719954013824, -0.017309529706835747, 0.020483503118157387, 0.017464637756347656, 0.01014257688075304, 0.0398424006998539, -0.039698559790849686, -0.0008779451018199325, -0.028758402913808823, 0.04445231333374977, -0.07078230381011963, -0.03175906464457512, 0.07117282599210739, -0.06820186972618103, -0.07287268340587616, -0.018254900351166725, -0.01752857118844986], [-0.009280400350689888, -0.047551028430461884, -0.02809501439332962, 0.0668700635433197, 0.03146103769540787, 0.05038053169846535, 0.06432178616523743, -0.012517922557890415, 0.031423911452293396, -0.015171951614320278, 0.01953759230673313, -0.03912922367453575, 0.03148365020751953, 0.008490086533129215, 0.04952652007341385, -0.002801910974085331, -0.06535622477531433, 0.06888750940561295, 0.052286211401224136, -0.05210971087217331, -0.00903257168829441, -0.03826066106557846, -0.026095304638147354, -0.027990862727165222, 0.06480623036623001, -0.0700409859418869, 0.028323765844106674, 0.05716056004166603, -0.0025786161422729492, 0.06570769846439362, 0.0067613194696605206, -0.02117682434618473, -0.029684189707040787, 0.04413355141878128, 0.027367105707526207, -0.007172254845499992, -0.030286451801657677, 0.00439588725566864, -0.06129208207130432, -0.051842913031578064, -0.020204775035381317, 0.026893051341176033, -0.005265624262392521, -0.029034515842795372, -0.004932734649628401, 0.054846297949552536, -0.04999523609876633, 0.00904797576367855, -0.02053016610443592, 0.05874238163232803, -0.04232475534081459, 0.0649324506521225, -0.002955238102003932, -0.05137280002236366, 0.012403422966599464, 0.02548186294734478, 0.06934116780757904, -0.029592661187052727, 0.04284874349832535, -0.04722829908132553, 0.0413498617708683, 0.026020199060440063, 0.056288961321115494, -0.02032606489956379, -0.012519771233201027, -0.0025698512326925993, -0.045681241899728775, 0.0449884831905365, 0.06360841542482376, 0.07243844121694565, 0.045573629438877106, 0.031601034104824066, 0.029726246371865273, 0.000405214901547879, -0.0006259077345021069, -0.04898726940155029, -0.07093159109354019, -0.012815289199352264, 0.004677447024732828, 0.037417344748973846, 0.073640838265419, 0.02242955192923546, -0.009165042079985142, 0.04487793147563934, 0.007239373866468668, -0.022026922553777695, 0.05494662746787071, 0.07175497710704803, 0.07357078790664673, -0.0645361840724945, 0.023125842213630676, -0.020573092624545097, 0.0038705221377313137, -0.035838641226291656, 0.036510057747364044, 0.014196363277733326, -0.04127989709377289, -0.007063159253448248, -0.05659182369709015, -0.0649920180439949], [-0.07061608880758286, -0.06693458557128906, -0.056908559054136276, -0.06319545954465866, 0.0012963477056473494, -0.04065525904297829, -0.024257084354758263, 0.03110964223742485, -0.030616210773587227, 0.038909249007701874, 0.057985126972198486, 0.05399857088923454, 0.007253910414874554, -0.0737738311290741, -0.05254673957824707, 0.06371968239545822, -0.014662455767393112, 0.047455690801143646, -0.0008970398339442909, 0.036821093410253525, 0.004593535792082548, -0.03557244688272476, 0.025910191237926483, -0.014373162761330605, -0.03856454789638519, -0.0031137452460825443, -0.06977207213640213, 0.057125259190797806, 0.05832119286060333, -0.05905259773135185, 0.004079613834619522, 0.01746246963739395, 0.009013360366225243, 0.0017205540789291263, -0.024276267737150192, 0.07051602005958557, -0.04874718189239502, 0.06768228858709335, -0.000829520751722157, -0.05825832113623619, -0.05644190311431885, 0.05403280630707741, -0.0016635896172374487, -0.05707624554634094, -0.008420564234256744, 0.03170324116945267, -0.006732138339430094, -0.07091813534498215, 0.05478048697113991, 0.028678370639681816, 0.05281860753893852, 0.04607817530632019, 0.000273371406365186, 0.013577191159129143, -0.07091768831014633, -0.0483429953455925, 0.024821629747748375, 0.007274020463228226, 0.0030826511792838573, 0.029347306117415428, -0.042733535170555115, -0.06890549510717392, -0.07221803814172745, -0.07067691534757614, -0.06948114931583405, 0.013474388979375362, 0.06254283338785172, 0.06249438598752022, -0.037315770983695984, -0.053484268486499786, -0.022589994594454765, 0.04740920290350914, 0.0643499344587326, -0.06420949846506119, 0.01925458200275898, 0.038517065346241, -0.036835215985774994, 0.06637974828481674, 0.016247885301709175, -0.019021982327103615, -0.05503253638744354, -0.038512926548719406, 0.06296215206384659, 0.051399167627096176, 0.04471270740032196, -0.044756222516298294, 0.011738200671970844, 0.04476088657975197, 0.04247719421982765, 0.005661891307681799, 0.04204059764742851, -0.01661727763712406, 0.05484066158533096, -0.02271045371890068, 0.025629263371229172, 0.045785482972860336, 0.0715787336230278, -0.01792900264263153, -0.030692467465996742, 0.005581082310527563], [-0.04500780999660492, -0.06149390712380409, -0.057294245809316635, -0.046527113765478134, -0.003483833046630025, -0.008797720074653625, -0.06260409951210022, -0.0229862742125988, -0.008562617003917694, 0.04525061324238777, -0.020573046058416367, -0.052933480590581894, -0.0030627648811787367, 0.022570334374904633, 0.008247140794992447, 0.006316961720585823, 0.04597683623433113, 0.04920760169625282, -0.040353141725063324, 0.06886403262615204, 0.03353229910135269, -0.029108764603734016, 0.0033864392898976803, 0.03712698817253113, 0.017251206561923027, 0.018460003659129143, 0.06617851555347443, 0.05091943219304085, 0.014585821889340878, 0.0016282795695587993, -0.052345626056194305, -0.014187467284500599, 0.035768043249845505, -0.05265572667121887, -0.012734366580843925, -0.03440341353416443, 0.07051112502813339, 0.035162728279829025, -0.031628090888261795, 0.05275215208530426, -0.06110898405313492, -0.012781938537955284, -0.059750668704509735, 0.0681149810552597, -0.021436946466565132, -0.0017915397183969617, -0.04088437557220459, -0.05884435400366783, -0.025903981178998947, -0.0025112167932093143, -0.016115840524435043, 0.052226707339286804, -0.02389240637421608, -0.022178035229444504, -0.024052102118730545, 0.06615837663412094, 0.03421122580766678, -0.06901667267084122, -0.035464514046907425, 0.03656094893813133, -0.06403020024299622, -0.07200101763010025, 0.04075762256979942, -0.04310894384980202, -0.03414047509431839, -0.05736847221851349, -0.06753373891115189, 0.04170400649309158, -0.018329637125134468, -0.014267747290432453, 0.022130224853754044, 0.0609559491276741, -0.05302834138274193, -0.06690935790538788, 0.033039193600416183, 0.043074507266283035, -0.06130414083600044, -0.0434282124042511, -0.014543549157679081, -0.02373681217432022, 0.06769589334726334, 0.06549298018217087, -0.04946829006075859, -0.027832865715026855, -0.007416233420372009, 0.034660402685403824, 0.003480818821117282, -0.0197167806327343, 0.04784705117344856, -0.0487036257982254, -0.01815517619252205, -0.004158392082899809, -0.051641423255205154, -0.029206233099102974, 0.026131128892302513, -0.021310152485966682, -0.053094539791345596, -0.053028952330350876, 0.042656682431697845, -0.050520457327365875], [0.03361460193991661, 0.011083056218922138, -0.018295595422387123, 0.0026369839906692505, -0.05025408789515495, 0.058372750878334045, -0.03753641992807388, -0.030694978311657906, -0.039341241121292114, 0.05039529502391815, 0.05763138830661774, -0.04552523419260979, -0.015994571149349213, 0.0006996095762588084, -0.05462383106350899, 0.06536587327718735, -0.003073142608627677, -0.013448215089738369, 0.054381027817726135, 0.051866840571165085, -0.0005372835439629853, -0.06935456395149231, 0.0540599599480629, 0.05801692605018616, 0.0663456842303276, -0.0022400834131985903, 0.0279558002948761, 0.07167328149080276, -0.07026024162769318, -0.03656552731990814, 0.05120168253779411, 0.011531894095242023, -0.04051658511161804, 0.03570031374692917, -0.045901454985141754, -0.04808909073472023, 0.04270581528544426, 0.06083659082651138, 0.02709170989692211, -0.06830131262540817, -0.007485941983759403, 0.06438019126653671, 0.04513440653681755, -0.009644011966884136, 0.01070728525519371, 0.0663619339466095, -0.009264044463634491, -0.06590959429740906, -0.030108792707324028, -0.0421050563454628, -0.06699268519878387, 0.026436712592840195, 0.022671854123473167, 0.013191107660531998, -0.020218342542648315, 0.04882780835032463, -0.07285089045763016, 0.010499817319214344, 0.030847538262605667, 0.006529694423079491, -0.0026224625762552023, -0.040552590042352676, 0.0076928893104195595, 0.05726443603634834, -0.002103290054947138, 0.03903188183903694, -0.06103844568133354, -0.05564091354608536, 0.07191088050603867, -0.06737020611763, 0.04776826128363609, -0.05803990736603737, 0.017425168305635452, 0.03189440071582794, 0.020876165479421616, -0.02273615077137947, -0.027125703170895576, -0.012285389937460423, 0.03134159743785858, 0.02984887920320034, -0.06187557801604271, -0.05484559014439583, 0.015044518746435642, -0.032523855566978455, 0.050194527953863144, -0.043341442942619324, 0.04482218623161316, 0.01656412146985531, 0.020808542147278786, -0.016121435910463333, 0.03784651309251785, 0.0003441391745582223, -0.014138472266495228, 0.000818505184724927, -0.0529308021068573, -0.029269924387335777, 0.021355101838707924, -0.038011178374290466, -0.05636920779943466, -0.04954754188656807], [-0.05544041842222214, -0.057971324771642685, -0.05929236114025116, 0.042277995496988297, 0.002210324862971902, 0.06746997684240341, -0.005763303954154253, 0.01593720354139805, 0.03080567717552185, -0.04212699085474014, -0.005910112522542477, 0.04820927977561951, -0.0676828920841217, -0.03654308617115021, -0.07116326689720154, -0.0656738132238388, 0.07144591957330704, -0.012087591923773289, -0.041884660720825195, 0.01230950839817524, 0.05005950480699539, 0.06894807517528534, -0.06486769765615463, 0.060391657054424286, -0.04232141748070717, 0.0034172507002949715, 0.016529342159628868, 0.06409609317779541, 0.03151820972561836, -0.05735626816749573, 0.020730817690491676, -0.043095458298921585, 0.06728495657444, -0.024920444935560226, -0.06358609348535538, 0.052414894104003906, 0.00211167149245739, -0.05931363254785538, 0.04747488349676132, -0.039899058640003204, -0.03280198946595192, -0.0005306461825966835, -0.0021587798837572336, 0.00538258720189333, 0.014575648121535778, 0.0076113189570605755, -0.008851943537592888, 0.013958700932562351, -0.02020612545311451, 0.006905543152242899, 0.0635278970003128, -0.03958551958203316, 0.045695286244153976, 0.033956557512283325, -0.06355803459882736, -0.06678619980812073, 0.028510985895991325, 0.0536276251077652, 0.0011005511041730642, 0.02221466228365898, -0.029437897726893425, -0.034292057156562805, 0.03167993947863579, 0.07315732538700104, 0.06086583063006401, -0.011568699032068253, -0.027705129235982895, -0.03664975240826607, -0.054010871797800064, -0.03661691024899483, 0.04392936825752258, -0.01664719358086586, 0.05904912203550339, -0.004268360789865255, -0.0017868484137579799, -0.01391545869410038, -0.054660551249980927, 0.047664713114500046, 0.010340224951505661, -0.058283235877752304, 0.033495157957077026, -0.010844210162758827, -0.05422160029411316, 0.026384983211755753, 0.015244136564433575, 0.04464879259467125, -0.0683758333325386, 0.05848093703389168, 0.016895582899451256, 0.016630001366138458, -0.01967592164874077, -0.05933303385972977, 0.06485280394554138, 0.06937114149332047, 0.03347836434841156, 0.06480755656957626, 0.03321326896548271, -0.061165425926446915, -0.013344739563763142, 0.03367626667022705], [0.0038214486557990313, 0.058206573128700256, 0.006352937780320644, -0.028757931664586067, -0.005643806420266628, 0.0367208793759346, 0.017577795311808586, -0.017533913254737854, 0.028922686353325844, 0.001379475463181734, 0.008809410035610199, 0.027899080887436867, -0.0033038249239325523, -0.07298572361469269, 0.018346695229411125, -0.05945710837841034, -0.007873189635574818, 0.0091299032792449, 0.006542053539305925, -0.02054828777909279, -0.06933604180812836, 0.03027428686618805, -0.03487580269575119, -0.007791717536747456, 0.02275049313902855, 0.018756156787276268, -0.06956122815608978, -0.04024403914809227, 0.05251431092619896, -0.028813665732741356, 0.0029899401124566793, -0.01480549294501543, 0.0706702321767807, 0.05030151456594467, 0.009975351393222809, 0.06961000710725784, -0.03157009556889534, 0.06160921975970268, -0.04815009981393814, -0.043987322598695755, -0.04260920733213425, -0.04717421904206276, -0.04841003939509392, 0.02198348566889763, 0.06585920602083206, 0.0009611357818357646, -0.06501071900129318, -0.04262058436870575, 0.018093762919306755, -0.0707385465502739, -0.052593257278203964, -0.01926223188638687, -0.05392543226480484, -0.012578723952174187, 0.022714780643582344, -0.027565857395529747, 0.01954806037247181, 0.008775584399700165, -0.018934866413474083, -0.05271816626191139, -0.05859246104955673, 0.046510469168424606, 0.061223309487104416, 0.03886505961418152, 0.04155437648296356, 0.035691048949956894, -0.05369072034955025, -0.062406912446022034, 0.0035197969991713762, 0.04738020524382591, -0.03466678783297539, 0.07064133137464523, -0.02493983693420887, -0.004884003195911646, -0.02326386235654354, -0.04440703243017197, 0.04959043487906456, -0.0386924110352993, 0.005578606389462948, 0.03663237392902374, -0.019465403631329536, 0.013128649443387985, -0.03683982789516449, 0.02834230661392212, 0.0145182516425848, -0.0020642189774662256, 0.04105065390467644, 0.024311913177371025, 0.01405277382582426, -0.05675828456878662, 0.052369989454746246, 0.018332742154598236, -0.01181966345757246, 0.005337751004844904, -0.0706188827753067, -0.06156304478645325, 0.006639864761382341, 0.01836908981204033, -0.005216768477112055, 0.0209615807980299], [-0.006308184936642647, 0.03157588467001915, -0.05986457318067551, 0.05289826542139053, -0.07014545798301697, -0.01748022623360157, -0.04551542177796364, -0.05931934714317322, 0.055526185780763626, -0.05758456140756607, -0.039451245218515396, 0.030819399282336235, -0.013068486005067825, -0.05105740204453468, 0.03961554914712906, -0.002478972775861621, 0.04171537235379219, -0.006838833447545767, -0.04762601479887962, -0.001877311384305358, -0.05351386219263077, 0.024302423000335693, 0.05549532547593117, -0.053894683718681335, 0.07160837203264236, 0.007370057515799999, -0.06789130717515945, -0.055006496608257294, 0.020446138456463814, -0.004314502701163292, 0.034680288285017014, -0.01329917460680008, -0.005392915103584528, -0.022117791697382927, -0.06116300821304321, 0.04602748528122902, 0.049364104866981506, 0.006262603215873241, -0.02440468594431877, -0.06672747433185577, -0.017004700377583504, 0.03759856894612312, 0.05046758055686951, 0.013441796414554119, -0.040602028369903564, -0.05960341542959213, 0.05084753409028053, -0.06094858795404434, 0.02688007615506649, -0.022715015336871147, 0.017119213938713074, -0.047614045441150665, 0.011736509390175343, -0.046219415962696075, -0.057442545890808105, 0.05709017813205719, 0.05243390053510666, -0.020087385550141335, -0.04105633124709129, -0.05526299402117729, -0.010966797359287739, -0.009930001571774483, -0.05787388235330582, 0.06315862387418747, 0.005211792886257172, -0.0363447442650795, 0.016985587775707245, -0.0415777824819088, -0.03511927276849747, 0.056597575545310974, -0.011784756556153297, -0.03189530968666077, -0.04678187519311905, -0.04748016223311424, -0.014003735035657883, 0.052770163863897324, -0.025105943903326988, 0.04169395938515663, -0.010236297734081745, -0.044864483177661896, -0.004641370847821236, -0.0715116634964943, 0.060170285403728485, 0.057607363909482956, -0.04477144405245781, -0.06235843896865845, -0.06294984370470047, -0.001106573035940528, 0.03408469632267952, 0.05607786402106285, 0.021407898515462875, -0.013422911986708641, 0.03570153936743736, -0.04515770077705383, -0.017045842483639717, 0.00420446926727891, 0.06408128142356873, -0.0665607675909996, 0.052825212478637695, 0.02789781428873539], [0.022988567128777504, 0.07234320789575577, 0.034630533307790756, 0.05016982555389404, 0.03380463644862175, 0.02138955146074295, -0.019991131499409676, 0.053057461977005005, 0.009169746190309525, 0.02703736163675785, 0.04312320798635483, -0.015306604094803333, -0.0004692130605690181, 0.030355965718626976, -0.05735113099217415, -0.008587568067014217, 0.033733267337083817, -0.016981925815343857, -0.006407660432159901, -0.06615752726793289, -0.015989162027835846, 0.051708877086639404, 0.071605384349823, 0.05772727355360985, -0.02181580848991871, -0.012777986004948616, -0.07273047417402267, 0.0702366754412651, 0.03630277141928673, 0.02556379698216915, 0.01686456799507141, 0.07285542786121368, -0.07370959967374802, 0.054453495889902115, 0.042484838515520096, 0.014495911076664925, 0.0015596961602568626, -0.01769403927028179, -0.037112027406692505, -0.012479489669203758, 0.009380760602653027, 0.00945461355149746, -0.0037635175976902246, -0.03966895490884781, 0.0232485830783844, 0.06104126572608948, -0.05625292286276817, -0.06018036976456642, -0.06775304675102234, 0.0542757473886013, 0.034799974411726, -0.03136473894119263, 0.007345991674810648, -0.022110899910330772, -0.05339566245675087, 0.04516201093792915, 0.057453930377960205, 0.02512115240097046, 0.038907647132873535, 0.07234705984592438, 0.0037460143212229013, 0.03513330966234207, -0.024449719116091728, 0.06745821982622147, -0.006901959422975779, 0.03929941728711128, 0.04373042657971382, 0.06335167586803436, -0.0012097121216356754, -0.063618503510952, 0.07283692061901093, 0.029084406793117523, 0.044389382004737854, 0.06956785917282104, -0.05482764169573784, 0.03836291655898094, -0.06568355858325958, -0.031935758888721466, -0.017286894842982292, -0.052458200603723526, -0.04152091592550278, 0.06988398730754852, 0.06369911134243011, -0.02514706738293171, -0.04481055215001106, 0.05543503537774086, 0.00940083246678114, -0.0339299812912941, -0.023926623165607452, 0.0008619791478849947, 0.006723187398165464, -0.047823354601860046, 0.018172822892665863, 0.04056296870112419, 0.05956317111849785, -0.008262308314442635, 0.031334616243839264, 0.027176761999726295, -0.04091444984078407, -0.014425132423639297], [-0.017835009843111038, -0.03204017132520676, 0.06464805454015732, 0.00533734867349267, 0.056379590183496475, 0.003467590780928731, -0.050535399466753006, 0.04277243837714195, 0.07067728042602539, 0.003925973083823919, -0.0093458266928792, -0.0041658347472548485, -0.038322705775499344, 0.008568803779780865, -0.0032910716254264116, -0.06971282511949539, 0.06292262673377991, -0.05091963708400726, -0.053561534732580185, -0.05753553658723831, 0.0198330357670784, 0.06314628571271896, 0.03625548630952835, 0.020364928990602493, 0.004829624202102423, 0.04063044860959053, 0.024257972836494446, 0.04233924299478531, -0.032065462321043015, 0.05600782483816147, 0.05499156564474106, 0.003129702527076006, 0.024224141612648964, -0.0320780910551548, -0.051079440861940384, 0.07296903431415558, 0.023687947541475296, -0.054463084787130356, 0.021921012550592422, 0.06487659364938736, -0.057263124734163284, -0.01897372491657734, -0.047026924788951874, 0.06664712727069855, -0.03477756306529045, 0.06130129098892212, 0.03631654009222984, 0.04762856289744377, 0.004440204240381718, 0.04071800783276558, -0.029515640810132027, -0.027394885197281837, -0.014462664723396301, -0.005127175245434046, 0.05377664789557457, -0.044133421033620834, 0.026022711768746376, 0.05629827082157135, 0.0013923251535743475, -0.009614897891879082, -0.03444218635559082, -0.029886282980442047, 0.07165031880140305, -0.04432983323931694, -0.009392392821609974, 0.06669089943170547, -0.002381980884820223, -0.028331389650702477, -0.024582993239164352, -0.0690387561917305, 0.06312038749456406, -0.0570925734937191, 0.057974908500909805, -0.0013958668569102883, 0.043282803148031235, 0.04044504836201668, 0.05106700211763382, -0.02064990997314453, 0.01795795001089573, 0.006039311643689871, -0.012328891083598137, 0.06788410246372223, -0.01666400209069252, 0.042523160576820374, -0.049725718796253204, -0.021439511328935623, 0.027602147310972214, -0.026849566027522087, 0.03478185087442398, 0.007783818058669567, -8.625279588159174e-05, 0.0002774154127109796, -0.06849228590726852, 0.0035860321950167418, -0.05049140378832817, -0.03834771364927292, 0.006083446554839611, -0.03267316892743111, 0.05909394472837448, 0.011354384943842888], [0.04984024167060852, 0.05238409340381622, 0.06417214125394821, 0.06576815247535706, -0.02219492197036743, -0.030651669949293137, -0.03391977772116661, -0.07060497999191284, 0.06454776227474213, -0.03484630584716797, 0.04003489017486572, -0.05873594433069229, 0.0027507313061505556, 0.00047321419697254896, -0.07373394072055817, -0.02581312321126461, 0.016635699197649956, -0.0027701735962182283, 0.07102923095226288, 0.031560469418764114, -0.03601334989070892, 0.0003185176756232977, 0.055931542068719864, -0.05397970601916313, -0.05299678444862366, 0.0051260157488286495, 0.04745514318346977, 0.054032567888498306, 0.010849668644368649, 0.0703335627913475, 0.038010112941265106, 0.03649197891354561, -0.05081472918391228, -0.01661013625562191, -0.020712552592158318, 0.05065572261810303, -0.06863905489444733, -0.040843963623046875, 0.06331752985715866, -0.012813281267881393, -0.06555735319852829, 0.0601777546107769, -0.01003157440572977, -0.019282987341284752, 0.0420723557472229, -0.0026542290579527617, -0.069573312997818, -0.024254437536001205, 0.07180799543857574, 0.04697148874402046, -0.06711068749427795, -0.0701739490032196, 0.030417198315262794, 0.008400683291256428, -0.06475352495908737, 0.05828019976615906, 0.0024619728792458773, -0.06577128916978836, 0.02801184169948101, -0.028851760551333427, -0.05182092264294624, 0.06675925850868225, -0.031809400767087936, 0.04547642171382904, 0.022326424717903137, -0.007501999381929636, -0.055796217173337936, 0.03129313141107559, -0.00949698407202959, 0.003612599102780223, 0.044147081673145294, 0.07048269361257553, 0.05162936821579933, 0.06839457154273987, 0.015524063259363174, -0.006457365583628416, 0.058404892683029175, 0.0373401902616024, -0.0453113354742527, -0.013026279397308826, -0.010020923800766468, 0.0062962681986391544, 0.067401222884655, 0.011579133570194244, 0.06854382902383804, 0.002604609588161111, -0.013692423701286316, 0.0032833099830895662, 0.05006410926580429, -0.007263636216521263, -0.002718208124861121, -0.07223242521286011, -0.019415613263845444, 0.05001867190003395, 0.04753585159778595, -0.028655484318733215, -0.022601887583732605, 0.029490603134036064, -0.07037205249071121, -0.02180362306535244], [0.019244935363531113, 0.016357049345970154, -0.05303021892905235, -0.054186973720788956, 0.0718880370259285, -0.028816670179367065, 0.05573967471718788, -0.032464608550071716, -0.06648300588130951, -0.0639667883515358, 0.059682756662368774, -0.06478653103113174, 0.04822889715433121, -0.0032659920398145914, -0.03638181835412979, -0.026689259335398674, 0.005373496096581221, 0.027379458770155907, -0.002877091756090522, -0.05666414648294449, 0.01722227782011032, 0.011993172578513622, 0.07006421685218811, 0.0197089035063982, 0.011801482178270817, -0.008771040476858616, 0.06443128734827042, 0.06922939419746399, 0.03031880594789982, 0.0466814748942852, 0.021271634846925735, -0.04623080790042877, -0.007294544484466314, -0.046292856335639954, 0.010650747455656528, 0.060660555958747864, 0.034286968410015106, -0.020969843491911888, -0.0025967699475586414, 0.02017427422106266, 0.01904655247926712, -0.06480525434017181, -0.026841819286346436, 0.001873676897957921, -0.010273885913193226, 0.01587313786149025, -0.02350565977394581, 0.042607005685567856, -0.03855043277144432, -0.004563634283840656, 0.06720545887947083, -0.0004999238299205899, -0.0051660081371665, 0.024832168594002724, -0.02978508174419403, -0.02938159741461277, 0.06149345263838768, 0.061875153332948685, -0.010373199358582497, -0.03744179382920265, -0.03416861221194267, -0.03622251749038696, -0.038051992654800415, -0.02523927204310894, 0.011799420230090618, -0.017913440242409706, 0.005769649520516396, -0.07367722690105438, 0.05037336423993111, 0.05727708339691162, -0.00388799118809402, -0.012078795582056046, 0.009832086972892284, -0.0037879287265241146, -0.02317439578473568, 0.06938406825065613, -0.020312102511525154, 0.012081727385520935, 0.03700454160571098, 0.0662442296743393, -0.052797768265008926, 0.04080401360988617, 0.003304338315501809, 0.00016635168867651373, 0.017245352268218994, 0.0323433093726635, -0.029178334400057793, -0.030502649024128914, 0.027379309758543968, -0.03197871521115303, 0.07059269398450851, 0.017222829163074493, -0.06328184902667999, 0.009348041377961636, -0.017235778272151947, -0.0068842750042676926, 0.006775291636586189, -0.052626654505729675, 0.02306678146123886, -0.05176771059632301], [-0.052916400134563446, -0.023020578548312187, 0.04511618986725807, -0.05006866902112961, 0.010106012225151062, -0.04458066076040268, -0.04712327569723129, 0.057005107402801514, -0.047185979783535004, 0.03178376331925392, -0.029685433954000473, 0.0027335805352777243, -0.044391606003046036, -0.00820766482502222, -0.06963194906711578, -0.06254994869232178, 0.0260461438447237, 0.06191461533308029, 0.05539413169026375, 0.00946857314556837, -0.0691201239824295, 0.036711130291223526, 0.02111613191664219, -0.023876894265413284, 0.027545031160116196, 0.043250665068626404, 0.005478879902511835, -0.03978034481406212, -0.05228881910443306, -0.04090914502739906, -0.004784062970429659, 0.047410983592271805, 0.06233081594109535, -0.018910294398665428, 0.0724862590432167, -0.04285028576850891, 0.020488644018769264, -0.06734451651573181, 0.0167586300522089, 0.06387696415185928, -0.07125791907310486, 0.04899405688047409, -0.03973652422428131, -0.04284048080444336, 0.03313311189413071, -0.0064676119945943356, 0.013329721055924892, 0.0369485542178154, -0.043058644980192184, 0.05038641765713692, 0.01827305555343628, 0.07296118140220642, -0.016212472692131996, 0.05955684185028076, -0.024945581331849098, 0.017335450276732445, 0.06897266209125519, 0.0543694794178009, 0.009552320465445518, -0.00046128692338243127, -0.023377327248454094, -0.013706675730645657, -0.06209930032491684, -0.047320522367954254, 0.040121931582689285, 0.02355305664241314, -0.008999982848763466, -0.05469200760126114, 0.008819409646093845, -0.053359974175691605, 0.028485065326094627, -0.045811526477336884, -0.07120351493358612, -0.014029749669134617, 0.010366714559495449, 0.05588391050696373, 0.015965288504958153, 0.017146144062280655, 0.01936034858226776, 0.053156811743974686, 0.0029131874907761812, -0.03489581122994423, -0.010399124585092068, -0.063559889793396, 0.04270495846867561, -0.07294730842113495, -0.04471292346715927, 0.07290342450141907, -0.05100644379854202, -0.049521371722221375, -0.05173578858375549, 0.00799753051251173, 0.002791457576677203, -0.008299477398395538, -0.03358648344874382, 0.04690738767385483, 0.029963256791234016, 0.03737789765000343, -0.015470500104129314, 0.021264325827360153], [0.06227543205022812, 0.01108337752521038, 0.04514544829726219, -0.036302484571933746, -0.029256630688905716, -0.0565597340464592, -0.053341981023550034, 0.0402417853474617, -0.0064970445819199085, 0.02638787403702736, -0.02717815898358822, -0.05945000797510147, -0.036720383912324905, -0.03913396969437599, -0.06830275803804398, -0.0700761154294014, 0.015279233455657959, 0.01392725296318531, 0.053656138479709625, 0.022539697587490082, -0.017279397696256638, -0.0454271174967289, 0.0468292161822319, -0.0062585738487541676, -0.007622130680829287, -0.04555012658238411, 0.00911779422312975, 0.06805871427059174, -0.0652732104063034, 0.044296812266111374, -0.05789565294981003, -0.030717238783836365, -0.0017540175467729568, -0.046705298125743866, -0.058003004640340805, 0.028372569009661674, -0.02175496518611908, 0.06369145959615707, 0.04899821802973747, 0.04408302530646324, -0.006579237058758736, 0.04775957763195038, 0.036146897822618484, 0.04580632597208023, -0.00635887635871768, 0.05472809076309204, 0.05177144706249237, -0.032929256558418274, 0.07222199440002441, 0.01668483391404152, 0.012472088448703289, 0.00883467122912407, -0.05890995264053345, 0.05369711294770241, -0.03745902329683304, 0.06557616591453552, -0.011217319406569004, 0.03469380736351013, 0.026567166671156883, -0.01501372829079628, 0.04581308737397194, -0.047513917088508606, -0.003658823436126113, -0.04365771263837814, 0.03913131356239319, -0.040786322206258774, -0.00226793484762311, 0.02610929310321808, -0.04843652993440628, 0.06074286624789238, 0.004828641191124916, 0.060897231101989746, -0.04147583991289139, 0.05750562250614166, 0.011218894273042679, 0.031214969232678413, 0.007049955427646637, 0.04231973737478256, -0.05331777036190033, 0.07085229456424713, 0.03207475692033768, -0.005334746558219194, -0.021075785160064697, 0.013171602040529251, 0.041672710329294205, -0.008245304226875305, 0.06392792612314224, -0.015402240678668022, -0.00934663787484169, 0.043544210493564606, 0.03489411249756813, 0.043366651982069016, 0.024348609149456024, 0.023257555440068245, -0.010494924150407314, -0.022142523899674416, 0.059799764305353165, 0.056315865367650986, -0.0004729581705760211, 0.02500811219215393], [-0.00284922169521451, 0.02651534043252468, 0.03656396642327309, -0.019371148198843002, -0.027381790801882744, 0.07071671634912491, -0.05501478537917137, 0.01374008134007454, -0.03044118918478489, 0.02496686950325966, 0.034702327102422714, 0.020537856966257095, -0.02960754558444023, -0.006041079759597778, -0.0347372367978096, 0.0531344898045063, 0.032451316714286804, 0.05623117461800575, -0.04562646895647049, 0.029744436964392662, 0.06283088028430939, -0.005355361383408308, 0.028794700279831886, -0.011486371979117393, 0.0066878823563456535, 0.06442299485206604, -0.060659147799015045, -0.022645018994808197, -0.03747382387518883, -0.00479109538719058, 0.04241717606782913, 0.022066818550229073, -0.05330019071698189, 0.046447157859802246, -0.06446054577827454, 0.04689473658800125, -0.039628710597753525, 0.008544928394258022, 0.020497554913163185, 0.05796035751700401, -0.0264257974922657, -0.06494396179914474, -0.023509250953793526, -0.011132288724184036, -0.020619641989469528, -0.003973964136093855, 0.05900861322879791, -0.04713805392384529, -0.047838758677244186, 0.011080746538937092, -0.05752614885568619, -0.049741122871637344, -0.057183921337127686, -0.03195296227931976, -0.02591581456363201, 0.014735943637788296, 0.039934705942869186, 0.0023186365142464638, 0.006110471207648516, 0.04354587197303772, -0.037055402994155884, -0.05907297506928444, -0.039500366896390915, -0.04967574402689934, -0.05807556211948395, 0.007607855834066868, 0.038098473101854324, -0.015196161344647408, 0.021367572247982025, 0.01844359189271927, 0.05849502235651016, -0.04058348387479782, -0.014969462528824806, 0.06348244845867157, -0.05392639338970184, 0.04047105088829994, -0.07039488852024078, -0.04510090872645378, 0.06802072376012802, -0.0013940146891400218, 0.055256180465221405, -0.007136038038879633, 0.056332848966121674, -0.013634316623210907, -0.026715142652392387, 0.05927944555878639, -0.05482574179768562, -0.04065072163939476, -0.023983493447303772, -0.046847011893987656, -0.026723332703113556, -0.013012992218136787, 0.06958083808422089, 0.034998685121536255, -0.010527029633522034, 0.03850224241614342, 0.051225584000349045, -0.05254776030778885, 0.028639856725931168, 0.044439155608415604], [-0.03650730475783348, 0.046313848346471786, 0.06381190568208694, -0.004134390503168106, -0.054372891783714294, 0.01317246537655592, 0.0528903603553772, 0.06848054379224777, -0.014279307797551155, -0.00864221528172493, -0.019353708252310753, 0.023004915565252304, -0.049437373876571655, -0.05425998941063881, -0.050188098102808, -0.01929757371544838, -0.03425738215446472, -0.03410651534795761, 0.05383807048201561, 0.05948677286505699, -0.01770796626806259, -0.004747365601360798, 0.0667639747262001, -0.06079968437552452, 0.029324639588594437, 0.04065776988863945, 0.03674143925309181, 0.029896771535277367, 0.04020775482058525, 0.039745934307575226, -0.020262446254491806, 0.03151777759194374, -0.04276006668806076, -0.010816550813615322, 0.06487936526536942, 0.014575932174921036, 0.013784102164208889, 0.0588773675262928, 0.04785668104887009, 0.0353081151843071, -0.0020936434157192707, 0.033477578312158585, -0.06476407498121262, 0.038864608854055405, 0.047472041100263596, 0.04984524846076965, -0.014566846191883087, 0.022665653377771378, 0.06266804784536362, -0.013565528206527233, -0.01850837841629982, 0.05681677907705307, 0.05192211642861366, -0.03733557090163231, -0.044722020626068115, 0.03382178023457527, 0.05445515736937523, 0.05376682057976723, 0.02790619060397148, -0.03679279237985611, -0.0690532997250557, -0.06291993707418442, 0.033594388514757156, 0.006712107919156551, 0.0517088882625103, -0.004883776418864727, 0.03114822693169117, 0.012630777433514595, 0.003396320855244994, 0.06811073422431946, 0.03579278662800789, -0.06032136082649231, 0.0032252143137156963, 0.01169762946665287, 0.01943722367286682, -0.05717600882053375, 0.00796521920710802, -0.059381403028964996, -0.038563985377550125, -0.05509594827890396, 0.05463305115699768, 0.054294515401124954, -0.007848947308957577, 0.029393479228019714, 0.04069951921701431, -0.03048962913453579, 0.006688891444355249, -0.009022587910294533, -0.01979706436395645, -0.04829499125480652, 0.04837137088179588, -0.07150000333786011, -0.054264359176158905, 0.0055913170799613, 0.06485427170991898, 0.031896982342004776, 0.01411917619407177, 0.00961544644087553, -0.04994140565395355, 0.07289222627878189], [0.07119093090295792, 0.071539968252182, -0.04183007404208183, 0.005778967402875423, -0.041908785700798035, -0.049201641231775284, -0.05856139585375786, 0.05034802109003067, 0.014385965652763844, -0.0272124744951725, 0.023120710626244545, 0.05483875796198845, -0.009049098938703537, 0.006417873781174421, 0.005225059576332569, -0.0677328035235405, -0.06980033963918686, -0.03993196785449982, 0.03940273076295853, 0.03641136363148689, 0.07172106206417084, 0.00484689325094223, -0.04478074610233307, -0.05428849160671234, -0.06000404432415962, -0.04768157750368118, -0.04084469750523567, -0.011660516262054443, -0.0229144636541605, -0.05139116197824478, 0.07238643616437912, 0.007878649979829788, -0.016892066225409508, 0.04632968828082085, -0.024754948914051056, 0.06022479757666588, -0.02501414343714714, 0.03687921166419983, -0.05391303822398186, -0.007952259853482246, 0.0492679663002491, 0.05555136129260063, -0.014296220615506172, 0.06941107660531998, 0.041685305535793304, -0.043214645236730576, 0.03221957013010979, -0.0019859252497553825, -0.046883635222911835, -0.02385754883289337, 0.04727315530180931, -0.013353408314287663, -0.027326799929142, 0.0208202563226223, 0.032356008887290955, -0.0001543373946333304, -0.037183746695518494, -0.05686661973595619, 0.05935027450323105, -0.052038829773664474, -0.04688330367207527, -0.057512324303388596, -0.04486216604709625, -0.0320340134203434, -0.00938267633318901, -0.020791132003068924, -0.006733529735356569, -0.06837552785873413, 0.00554799335077405, 0.03226979076862335, -0.017948726192116737, 0.06252362579107285, 0.0009152066777460277, -0.006769224535673857, 0.05951468273997307, -0.06655809283256531, 0.021585354581475258, -0.05846105515956879, -0.05693696811795235, -0.0487484410405159, 0.04003778100013733, 0.051198430359363556, -0.030665535479784012, 0.04413898289203644, 0.04763554036617279, -0.02261686883866787, -0.009681069292128086, -0.0603579580783844, 0.04247089475393295, -0.07249955087900162, -0.07156606763601303, 0.027218537405133247, 0.006484005134552717, 4.536860797088593e-05, -0.06620443612337112, 0.04816083237528801, 0.037265170365571976, 0.040273070335388184, -0.0651947632431984, 0.051412273198366165], [-0.056853387504816055, -0.03248800337314606, -0.020197371020913124, 0.06301513314247131, -0.0356295183300972, 0.0069945394061505795, 0.054306596517562866, 0.04269807040691376, -0.03987114131450653, 0.0038178751710802317, 0.04952812194824219, -0.009497955441474915, 0.03690163791179657, 0.026896053925156593, -0.04884453862905502, 0.05753447487950325, 0.0296027734875679, 0.04384370893239975, -0.03867204114794731, -0.02887740172445774, 0.0226764939725399, -0.025133732706308365, 0.04803510382771492, 0.07260587811470032, -0.05478797107934952, -0.029253415763378143, -0.05279294028878212, -0.03370692580938339, -0.011344719678163528, 0.00041850924026221037, -0.06577526032924652, -0.01459822990000248, -0.002848489675670862, 0.015340154059231281, -0.039509985595941544, -0.060952700674533844, -0.05136776715517044, -0.04493136703968048, -0.05041956901550293, 0.014453628100454807, 0.054147277027368546, -0.0013549948344007134, -0.013183585368096828, -0.03246414661407471, -0.05860234051942825, 0.06576894223690033, 0.025140540674328804, 0.04081441089510918, -0.040297042578458786, -0.05992840975522995, -0.06924030184745789, 0.013107271865010262, -0.02444322779774666, -0.05673537775874138, -0.003591777291148901, 0.04327382147312164, 0.06842339783906937, -0.050291355699300766, 0.052025243639945984, 0.04606226459145546, -0.054019443690776825, 0.03118440881371498, 0.07122277468442917, -0.021819261834025383, 0.00220179813914001, -0.014728820882737637, 0.011192753911018372, 0.06459774821996689, 0.02853689342737198, -0.01110545452684164, 0.06604371964931488, 0.03414797782897949, -0.03622748330235481, 0.034680332988500595, -0.05561932921409607, 0.00440018018707633, -0.05704353749752045, 0.07208743691444397, 0.00950456690043211, -0.028673386201262474, 0.06058827415108681, 0.06204809620976448, 0.03390346094965935, -0.037107862532138824, -0.04034661129117012, -0.020053168758749962, -0.012525366619229317, -0.0033617340959608555, 0.013576238416135311, 0.022425027564167976, 0.038065411150455475, -0.0524652823805809, -0.06362146139144897, -0.02380288392305374, 0.020793188363313675, -0.0023996601812541485, -0.03531760722398758, 0.05042797699570656, 0.02301289141178131, -0.022107096388936043], [-0.008556315675377846, 0.028952481225132942, -0.035814691334962845, 0.0531342588365078, 0.020520823076367378, 0.05648686736822128, 0.05543432757258415, 0.016277417540550232, 0.055456388741731644, -0.03456800803542137, 0.07320470362901688, -0.07087571918964386, -0.06822971254587173, -0.017280612140893936, -0.02966807782649994, -0.012665481306612492, 0.002009348012506962, 0.03876149281859398, -0.03388354554772377, 0.04068433865904808, 0.025021199136972427, -0.04358849674463272, -0.01352145615965128, -0.039572592824697495, -0.012744612991809845, -0.03361359238624573, -0.053509026765823364, 0.06640084087848663, -0.059611640870571136, 0.029799915850162506, -0.06322217732667923, 0.052125751972198486, -0.02053268440067768, 0.028515370562672615, 0.04319704324007034, 0.06356640160083771, 0.04631789028644562, 0.016744308173656464, 0.03954282030463219, 0.07281053066253662, 0.01986093632876873, -0.03333715721964836, -0.007309307344257832, 0.06343576312065125, -0.006394645199179649, 0.06008131057024002, 0.029967334121465683, -0.05498481169342995, 0.049879271537065506, -0.006088549271225929, 0.04164768010377884, -0.05767028033733368, -0.038663964718580246, -0.056950218975543976, -0.05365594103932381, -0.022314392030239105, -0.014755066484212875, 0.04172864183783531, 0.012161140330135822, 0.024580910801887512, 0.04081585258245468, -0.062375400215387344, 0.03435792401432991, 0.014997417107224464, -0.020349567756056786, 0.006848576478660107, -0.06076720729470253, 0.026249391958117485, -0.03267917037010193, 0.02789998985826969, -0.025212666019797325, -0.015661578625440598, -0.03242236375808716, 0.056517791002988815, -0.02815372124314308, 0.003277168609201908, -0.04016726836562157, 0.06147672235965729, 0.03572716936469078, 0.03551778197288513, 0.042809780687093735, -0.06533682346343994, 0.014053226448595524, 0.028713852167129517, -0.03622398525476456, -0.04475091025233269, -0.06250519305467606, 0.029752209782600403, -0.036162205040454865, 0.005043895449489355, -0.03344901651144028, 0.03809960186481476, 0.045880191028118134, -0.06012532487511635, -0.042055174708366394, 0.037099797278642654, 0.01010933704674244, 0.013393421657383442, 0.06514442712068558, -0.01013907603919506], [-0.05370058864355087, -0.028527330607175827, 0.054616283625364304, 0.028509637340903282, -0.04814612865447998, 0.0631406158208847, 0.06344178318977356, -0.010877512395381927, -0.03679263964295387, -0.008319852873682976, 0.05012015625834465, 0.0006454780232161283, -0.05673911049962044, -0.005770244635641575, -0.06342466920614243, -0.07205154746770859, 0.04750841483473778, -0.07080527395009995, -0.07279820740222931, -0.04045184329152107, 0.032397497445344925, -0.0682002380490303, -0.04245195537805557, 0.023922376334667206, 0.023081183433532715, -0.02696332521736622, -0.027324486523866653, -0.004187381360679865, 0.07233171910047531, 0.0018321591196581721, -0.03341643884778023, 0.004216569010168314, -0.03934762254357338, -0.0694655030965805, 0.016937389969825745, -0.025732653215527534, -0.07101703435182571, -0.06582891941070557, -0.03967539221048355, -0.0496295765042305, -0.028876477852463722, -0.022167576476931572, -0.04258453845977783, 0.01736512780189514, 0.06712043285369873, -0.021618252620100975, -0.06784490495920181, -0.000604853848926723, 0.033726371824741364, 0.017350733280181885, -0.022413907572627068, -0.049229856580495834, 0.033850934356451035, 0.008536813780665398, 0.003004300408065319, 0.020484918728470802, 0.01818942464888096, -0.026176629588007927, -0.05933478847146034, 0.06076487526297569, -0.07184266299009323, -0.020259195938706398, -0.05924244597554207, 0.01424969732761383, -0.005718505010008812, -0.04610578343272209, 0.04818982258439064, -0.06502541154623032, 0.006433738395571709, 0.06466661393642426, 0.037857722491025925, -0.0027933642268180847, -0.032110705971717834, -0.02841004729270935, 0.054754599928855896, 0.03255564346909523, 0.03498934209346771, 0.05428922176361084, 0.07326436042785645, 0.0629580169916153, -0.03590024635195732, -0.024286184459924698, -0.006604671943932772, -0.05147045850753784, 0.030834294855594635, -0.06367012113332748, 0.06845531612634659, 0.04321838170289993, -0.012103868648409843, -0.0661570355296135, -0.0642770454287529, 0.011804917827248573, 0.013288808986544609, 0.0038077975623309612, 0.0176222026348114, 0.024355430155992508, -0.004963975865393877, -0.06685885041952133, 0.07333169132471085, 0.04803900793194771], [-0.04990113154053688, -0.056811925023794174, -0.04415754973888397, -0.062194786965847015, -0.05307776480913162, 0.04801267385482788, -0.04657259210944176, -0.0464329831302166, 0.019535336643457413, 0.02472970448434353, -0.06090942770242691, -0.02224733494222164, 0.06251895427703857, 0.03160064294934273, 0.04757529869675636, -0.005744678433984518, 0.039120156317949295, 0.011786469258368015, -0.005882721859961748, -0.031504351645708084, -0.05816476792097092, 0.00830880831927061, -0.02051537297666073, 0.061060212552547455, -0.05166228115558624, -0.06002010777592659, 0.07267645001411438, -0.02944408915936947, 0.037208642810583115, -0.030158819630742073, -0.028723323717713356, -0.017241600900888443, -0.05915834754705429, -0.014529479667544365, 0.03807007893919945, -0.006549936719238758, -0.06197316572070122, -0.007949534803628922, 0.06298089772462845, 0.06744702905416489, 0.034036289900541306, -0.07354272902011871, 0.0707893893122673, -0.014380315318703651, 0.007427987642586231, -0.06918472796678543, 0.05368645861744881, -0.028148239478468895, 0.04676580801606178, 0.016066960990428925, -0.029480434954166412, 0.010304288938641548, 0.018834317103028297, 0.06563907116651535, 0.03576624393463135, -0.0005097258253954351, -0.02638515643775463, -0.029493270441889763, 0.061200473457574844, -0.024341128766536713, 0.06115072965621948, -0.022681433707475662, 0.049976564943790436, -0.04868333786725998, -0.055416516959667206, 0.015002046711742878, -0.014949836768209934, 0.07275833189487457, -0.01992614194750786, 0.03470618650317192, -0.009372699074447155, -0.0633753314614296, -0.011398661881685257, 0.02835436724126339, -0.0357263907790184, -0.02632812038064003, 0.002919492544606328, -0.01970968209207058, -0.006657276768237352, 0.049284253269433975, 0.05734711140394211, 0.049139831215143204, 0.01035261619836092, 0.03767099976539612, -0.00945623405277729, 0.038802407681941986, 0.04859410226345062, -0.008769641630351543, 0.01609310880303383, 0.0402333028614521, 0.039561592042446136, 0.07221685349941254, 0.05753999575972557, 0.012161063961684704, 0.014695851132273674, -0.03797968849539757, -0.05764005333185196, 0.065211221575737, -0.0664282813668251, 0.05074616149067879], [0.06461041420698166, 0.022271541878581047, -0.07279837131500244, 0.04934877157211304, -0.06752272695302963, 0.004165836609899998, -0.0465608648955822, -0.040974922478199005, -0.04654809832572937, -0.04383625090122223, -0.028993206098675728, 0.0338735431432724, 0.002925011096522212, 0.06241564080119133, 0.04942968115210533, 0.05346231535077095, -0.007485475391149521, 0.008339110761880875, -0.018651267513632774, 0.05408380180597305, 0.024884460493922234, 0.06716079264879227, 0.023633407428860664, -0.01672511175274849, -0.029871955513954163, -0.02277318201959133, -0.050338901579380035, 0.04441826790571213, -0.010163683444261551, 0.006131095811724663, -0.029116973280906677, -0.028215786442160606, -0.016567377373576164, 0.04975325986742973, -0.04420189559459686, -0.02540287747979164, -0.006161452271044254, 0.055796898901462555, -0.03350032866001129, 0.06316612660884857, -0.06770966202020645, -0.0656416118144989, 0.01661842130124569, 0.06271267682313919, 0.03663396090269089, 0.040146876126527786, -0.05192107334733009, 0.041766565293073654, 0.01432156190276146, 0.004774813540279865, 0.00798006635159254, 0.050366051495075226, 0.02304651029407978, 0.009390275925397873, 0.00998328160494566, -0.06250365823507309, -0.04220820963382721, 0.059628792107105255, -0.01388652715831995, -0.031298793852329254, 0.027127401903271675, 0.0128262834623456, 0.05902394279837608, -0.06811777502298355, -0.04352937266230583, -0.06676198542118073, -0.06150170415639877, -0.009635260328650475, 0.04833685979247093, -0.06706038862466812, -0.03506072610616684, 0.010440121404826641, -0.05169948190450668, 0.0085182785987854, -0.07366466522216797, -0.06110897287726402, -0.024104313924908638, 0.05465828627347946, -0.017662907019257545, -0.022358901798725128, -0.04654812440276146, 0.02770158462226391, 0.06884865462779999, -0.04690954461693764, 0.050277795642614365, -0.04252849146723747, 0.06138789653778076, 0.03933442011475563, -0.03739536926150322, 0.03092953935265541, -0.06666569411754608, 0.016148505732417107, -0.05558209493756294, -0.07205957174301147, 0.05796003341674805, 0.06360640376806259, 0.06527980417013168, -0.035532865673303604, 0.04538654908537865, 0.04866623505949974], [-0.03229999914765358, 0.04595551639795303, -0.01469262782484293, -0.06397191435098648, 0.0569889172911644, 0.022286374121904373, -0.05779971182346344, -0.05811317265033722, -0.017042065039277077, -0.020149368792772293, 0.029028289020061493, -0.03969405218958855, -0.022221511229872704, 0.030367165803909302, -0.04372067376971245, 0.03725426644086838, 0.0333247035741806, -0.051322001963853836, -0.04729674756526947, -0.04463484510779381, -0.014661340974271297, 0.039703164249658585, -0.0544692762196064, 0.006935304030776024, -0.009649845771491528, 0.04564956575632095, -0.06026242673397064, 0.04279274865984917, 0.007013138849288225, 0.046626050025224686, 0.031269386410713196, -0.04739515483379364, 0.033575769513845444, -0.04973737150430679, -0.04807105287909508, -0.03780629485845566, 0.0649622455239296, -0.05484706163406372, 0.017062822356820107, 0.05616310238838196, -0.005348113365471363, 0.048940155655145645, 0.0064349183812737465, -0.07146108150482178, 0.05574999377131462, -0.01679529808461666, -0.04607932269573212, -0.03326360881328583, -0.06415944546461105, -0.04818391054868698, 0.07270239293575287, 0.038424354046583176, 0.02857077121734619, -0.006934739649295807, -0.0013576237251982093, -0.00045637961011379957, 