{"ent_embeddings.weight": [[0.06733352690935135, 0.13806793093681335, -0.10769101977348328, 0.22849787771701813, -0.057441346347332, -0.05510389432311058, -0.18425777554512024, -0.10667593032121658, -0.2597925364971161, 0.17067228257656097, 0.143864706158638, 0.1665346622467041, -0.0042318557389080524, -0.11977510899305344, 0.1651594042778015, 0.1051555871963501, -0.13024653494358063, 0.09374414384365082, -0.0026673530228435993, 0.19074301421642303, -0.08836466819047928, -0.10817796736955643, -0.006075956393033266, -0.08330772072076797, 0.38629859685897827, -0.2349177598953247, -0.036634594202041626, 0.31117215752601624, 0.021453460678458214, 0.14763480424880981, 0.1243884488940239, 0.262615829706192, -0.08074013888835907, -0.05130445584654808, -0.16383540630340576, 0.19555814564228058, 0.003968438599258661, -0.1782446652650833, 0.13193145394325256, -0.0493125356733799, -0.07671047747135162, -0.06606875360012054, -0.0572575107216835, -0.11103995889425278, 0.20941007137298584, 0.18779921531677246, -0.008616207167506218, -0.046664249151945114, -0.17723841965198517, 0.05324762687087059, 0.4562946557998657, 0.17084099352359772, -0.2969043254852295, 0.15445737540721893, 0.16053473949432373, 0.07196328043937683, -0.018377969041466713, -0.03176549822092056, -0.019968800246715546, -0.22826701402664185, 0.06227975711226463, 0.02912042662501335, -0.01908973790705204, 0.17209628224372864, -0.05407314747571945, 0.003468272043392062, -0.030918633565306664, -0.32119670510292053, 0.13879439234733582, -0.16301536560058594, -0.18263906240463257, -0.006889236159622669, 0.23186756670475006, 0.05579217150807381, 0.25248244404792786, -0.05670220032334328, 0.04522518068552017, 0.20354998111724854, -0.1984507143497467, 0.04270291328430176, -0.09137776494026184, 0.08208205550909042, 0.16225798428058624, -0.22893522679805756, -0.24974244832992554, 0.17294715344905853, 0.0749475434422493, 0.15860308706760406, 0.0832068994641304, 0.029122546315193176, 0.16269952058792114, -0.12331331521272659, 0.062302008271217346, 0.27109161019325256, -0.2329230010509491, -0.12019911408424377, -0.03032979555428028, 0.01951909065246582, -0.027740171179175377, -0.07010757178068161], [-0.005698559805750847, 0.10677764564752579, -0.07851982861757278, -0.09999445825815201, 0.3339807391166687, 0.03930463641881943, 0.09557827562093735, -0.07796384394168854, -0.2914586067199707, 0.3400617241859436, 0.022334149107336998, -0.015004439279437065, 0.004526847042143345, -0.10905320197343826, 0.21444617211818695, 0.3319877088069916, 0.20511355996131897, 0.1519177109003067, 0.29296985268592834, -0.2748996317386627, -0.11459790170192719, 0.4214984178543091, -0.2362983375787735, 0.04672557860612869, -0.08494424819946289, -0.06847532838582993, -0.009073946624994278, 0.1519192010164261, -0.24377237260341644, 0.15813057124614716, -0.023370817303657532, -0.18653394281864166, 0.0887405276298523, 0.2931220829486847, -0.11680533736944199, -0.1362200528383255, 0.019555939361453056, -0.1363973766565323, 0.19188523292541504, -0.02949586510658264, -0.15023542940616608, -0.1639980673789978, -0.21947045624256134, 0.08032672107219696, 0.2571359872817993, 0.20393116772174835, -0.19770179688930511, -0.1602066606283188, 0.109187550842762, 0.3707314729690552, -0.037831321358680725, -0.0713343471288681, -0.38519400358200073, -0.02344864048063755, -0.10768743604421616, 0.07253710180521011, 0.39020225405693054, -0.142348051071167, 0.19187580049037933, -0.3770010471343994, 0.25315454602241516, -0.09918826073408127, -0.31370651721954346, 0.04143314063549042, -0.1141982227563858, -0.11763530969619751, 0.17241832613945007, -0.006903601810336113, 0.04664595425128937, -0.03430742397904396, 0.09799069911241531, 0.23630845546722412, 0.12813901901245117, 0.07188321650028229, -0.10043855756521225, 0.1552703082561493, -0.15023493766784668, 0.2905774712562561, 0.14775900542736053, -0.2101927548646927, -0.03730795904994011, 0.3349969685077667, -0.3172505497932434, 0.18409982323646545, 0.10115596652030945, 0.047465648502111435, 0.1614575833082199, -0.06456540524959564, -0.10852473229169846, -0.00015744486881885678, -0.23019032180309296, -0.05354787036776543, 0.11920449882745743, 0.22192063927650452, 0.0135780218988657, 0.20377694070339203, -0.02059267833828926, 0.01254053320735693, 0.2648874521255493, -0.022295420989394188], [-0.03171006962656975, 0.07378502935171127, 0.1712646484375, 0.2113625854253769, 0.06695052236318588, 0.17216068506240845, -0.40770336985588074, -0.04061730578541756, -0.23052005469799042, -0.03271494805812836, 0.07302345335483551, -0.31176644563674927, 0.08896218985319138, 0.06457606703042984, 0.1659945398569107, 0.04713336005806923, 0.030817927792668343, 0.05374781787395477, 0.07819455862045288, -0.050126317888498306, 0.029700031504034996, -0.14691466093063354, -0.0804828479886055, 0.07352615147829056, 0.10230246931314468, -0.19653746485710144, 0.3950618803501129, -0.03673700988292694, -0.45758092403411865, -0.1940179020166397, -0.24362878501415253, -0.1600857675075531, -0.2104119211435318, 0.08319728821516037, -0.10132931172847748, 0.24797660112380981, -0.2733306884765625, -0.14282439649105072, 0.08318708091974258, 0.04246574267745018, -0.24730649590492249, -0.05166080966591835, -0.14373822510242462, -0.22940394282341003, 0.12622201442718506, 0.25251278281211853, -0.3374306857585907, -0.11475754529237747, -0.18495818972587585, 0.149772509932518, -0.08762124925851822, -0.10681673139333725, -0.19415849447250366, -0.1196788102388382, 0.08876421302556992, -0.09084206074476242, -0.2316356897354126, -0.2714640498161316, 0.4062405228614807, 0.009649624116718769, -0.15281012654304504, 0.12784838676452637, -0.010552939027547836, -0.09938998520374298, -0.24892261624336243, 0.03173742815852165, -0.16303396224975586, -0.2545243799686432, 0.23292843997478485, -0.19929008185863495, -0.27253055572509766, 0.2090471088886261, 0.20112940669059753, 0.14019925892353058, -0.07369891554117203, -0.26651427149772644, 0.006112188100814819, 0.06608705967664719, 0.29901522397994995, 0.21939074993133545, 0.07582592964172363, -0.05587020143866539, -0.02032923698425293, -0.12242268770933151, -0.2447499930858612, 0.03449876606464386, -0.055408719927072525, 0.2381059229373932, -0.07972590625286102, -0.07677534967660904, 0.14898206293582916, -0.15089502930641174, 0.06870364397764206, -0.029552213847637177, 0.012983118183910847, -0.12354647368192673, 0.1866413652896881, 0.02287466637790203, -0.11047228425741196, -0.2550715208053589], [0.2681940197944641, 0.12392979860305786, -0.09386002272367477, -0.208818718791008, -0.11184050142765045, 0.026722174137830734, 0.1467180997133255, -0.04972134158015251, -0.057320717722177505, 0.4718262553215027, 0.13794644176959991, -0.14979004859924316, 0.2837457060813904, -0.20994888246059418, -0.06688492745161057, 0.04860241711139679, -0.3731333017349243, -0.061592500656843185, 0.15745864808559418, -0.1609930694103241, -0.10285267233848572, -0.2967451512813568, -0.04738133028149605, 0.13071316480636597, 0.14157341420650482, -0.05098418518900871, 0.4417278468608856, 0.13133369386196136, 0.07660795003175735, -0.007122159935534, -0.09138080477714539, -0.17713774740695953, 0.11934629827737808, 0.009394414722919464, 0.05179647356271744, -0.017361672595143318, 0.2704436779022217, -0.0750894621014595, 0.09621494263410568, -0.17888936400413513, -0.45441535115242004, 0.07623712718486786, 0.21427060663700104, 0.14112071692943573, -0.02074120193719864, 0.19957304000854492, 0.09166746586561203, -0.18553611636161804, 0.04286307096481323, -0.2892283499240875, -0.20438320934772491, 0.12730473279953003, -0.011442680843174458, -0.03274446725845337, -0.007551992777734995, 0.02261776477098465, -0.18779970705509186, -0.10734706372022629, -0.24351423978805542, -0.22566132247447968, -0.16598358750343323, 0.27928635478019714, -0.10236057639122009, -0.06899858266115189, 0.16445346176624298, -0.20126944780349731, -0.3713580071926117, -0.06015835702419281, -0.005384210031479597, -0.2505354881286621, 0.3294766843318939, -0.08573552221059799, 0.31093987822532654, 0.08056174963712692, -0.3770192265510559, -0.009704167023301125, -0.12114474922418594, -0.05229507014155388, 0.022629670798778534, 0.13641828298568726, -0.13334301114082336, 0.20801149308681488, -0.23089981079101562, 0.14898724853992462, 0.3382906913757324, -0.32696816325187683, 0.16247954964637756, 0.3242035210132599, 0.26169484853744507, -0.10578743368387222, 0.23762373626232147, -0.19888073205947876, 0.07416435331106186, 0.20884397625923157, 0.14500629901885986, -0.05538976565003395, 0.06411267817020416, -0.06439515203237534, 0.12042054533958435, -0.3202328085899353], [-0.15987569093704224, 0.16592839360237122, -0.036723002791404724, -0.25277045369148254, -0.2579875886440277, -0.14992013573646545, -0.10496537387371063, 0.004510355647653341, 0.1506805568933487, -0.0018181309569627047, -0.009316259063780308, 7.832090886950027e-06, -0.2154792994260788, 0.006539822556078434, 0.016965467482805252, -0.10682211071252823, -0.15623033046722412, 0.34423917531967163, 0.06865163892507553, 0.0337776318192482, -0.20852519571781158, 0.15304827690124512, 0.019666114822030067, 0.11161430925130844, -0.03150962293148041, 0.06641845405101776, -0.16085687279701233, -0.05073464661836624, 0.11505253612995148, 0.14658251404762268, -0.06170688942074776, -0.17381620407104492, 0.13366085290908813, -0.2788059711456299, 0.08573482185602188, -0.17287364602088928, -0.16387006640434265, 0.25755470991134644, -0.0005218353471718729, -0.1756448894739151, 0.05095440894365311, -0.06872441619634628, 0.06380487233400345, -0.03903301805257797, 0.09961167722940445, -0.03029760532081127, 0.22458362579345703, -0.31179213523864746, 0.05663182958960533, 0.010219801217317581, -0.4301576316356659, -0.07174275815486908, 0.26980242133140564, -0.03811357915401459, -0.3619685769081116, 0.22352948784828186, -0.03156641125679016, -0.004372038412839174, 0.08586782217025757, -0.10802919417619705, 0.22648541629314423, -0.23263685405254364, 0.39630788564682007, -0.24495258927345276, 0.0421171672642231, -0.006793656386435032, -0.0011728202225640416, -0.05840747803449631, 0.25739553570747375, 0.10473725199699402, -0.09430492669343948, -0.17834623157978058, 0.028640741482377052, 0.11899856477975845, 0.004029722884297371, -0.13449278473854065, -0.23664972186088562, 0.025149358436465263, -0.10884721577167511, 0.33377915620803833, 0.3348120450973511, 0.165925070643425, 0.045166026800870895, -0.07759782671928406, -0.3212999105453491, -0.15455032885074615, -0.16119562089443207, -0.0034681789111346006, 0.06968057155609131, 0.17822463810443878, -0.08416327834129333, 0.21042363345623016, -0.10299000889062881, -0.12771981954574585, -0.2496991753578186, 0.01783548668026924, -0.05330536514520645, -0.323321670293808, 0.25171032547950745, -0.07512979209423065], [-0.11307661235332489, 0.017353344708681107, -0.10183760523796082, 0.11008055508136749, 0.03167343512177467, -0.09405812621116638, -0.15930739045143127, -0.0254889577627182, -0.03883516415953636, -0.20583629608154297, 0.06884446740150452, -0.09693754464387894, -0.2341073751449585, -0.0418693907558918, 0.1790383905172348, -0.3294161856174469, 0.13206066191196442, 0.17783035337924957, -0.18016591668128967, -0.04989733174443245, -0.051901254802942276, 0.34896841645240784, 0.149595245718956, -0.05928051471710205, 0.19625461101531982, -0.07560116797685623, 0.03150494024157524, -0.03924323245882988, 0.1355792135000229, -0.23790517449378967, 0.257437139749527, -0.10695786774158478, -0.09085340052843094, 0.12154026329517365, 0.32596299052238464, -0.03217228874564171, 0.11126254498958588, -0.4540877640247345, -0.16282019019126892, 0.35865598917007446, 0.14688937366008759, -0.11616998165845871, -0.05021367967128754, -0.251675546169281, -0.1281062513589859, -0.054420601576566696, 0.4506490230560303, 0.32273679971694946, -0.07304081320762634, 0.019191164523363113, 0.2903611660003662, -0.025451339781284332, -0.058470387011766434, 0.09392106533050537, -0.09148938208818436, 0.029812902212142944, 0.19810059666633606, 0.24087505042552948, -0.3212393522262573, 0.2140967696905136, -0.16303719580173492, 0.02311859466135502, 0.15300241112709045, -0.07503636181354523, 0.13015061616897583, -0.1720990091562271, 0.03968255966901779, -0.10348454862833023, -0.11080840229988098, 0.19757860898971558, 0.20021773874759674, 0.01476893201470375, -0.3414275646209717, -0.16266588866710663, 0.0021608334500342607, 0.21184185147285461, 0.22987277805805206, -0.05295981466770172, 0.26426589488983154, -0.34334424138069153, 0.06723184138536453, -0.4320294260978699, 0.31012070178985596, -0.45063337683677673, 0.05405621975660324, 0.2587128281593323, -0.09599688649177551, 0.1091812252998352, -0.16023242473602295, 0.28339001536369324, -0.2558286190032959, 0.05091399699449539, 0.26090967655181885, 0.00909724272787571, 0.10749676823616028, -0.2193046510219574, -0.033680472522974014, 0.06173740327358246, -0.19294464588165283, -0.016465598717331886], [0.05048142001032829, -0.0165699515491724, -0.27428966760635376, -0.2206287980079651, -0.2263028472661972, -0.016805551946163177, 0.1347646713256836, 0.14413917064666748, -0.10081422328948975, 0.24210265278816223, -0.16082721948623657, 0.0061592706479132175, -0.34213075041770935, -0.2198525369167328, 0.10108887404203415, -0.08481497317552567, 0.1319400817155838, -0.037988536059856415, -0.32992884516716003, -0.11302500218153, -0.19839276373386383, -0.21816107630729675, -0.18337953090667725, 0.009973463602364063, -0.34384971857070923, -0.044085606932640076, 0.11518990993499756, -0.009586053900420666, 0.0016247098101302981, 0.2085409313440323, 0.3001636564731598, 0.15070345997810364, 0.26516401767730713, 0.03835179656744003, -0.01699136197566986, -0.15979455411434174, -0.11149678379297256, 0.07814092934131622, -0.025497768074274063, 0.0044638775289058685, 0.002047178568318486, 0.0348643995821476, -0.2988002300262451, 0.00850207544863224, -0.12278284877538681, 0.37742868065834045, 0.24539750814437866, 0.10142439603805542, 0.07749073952436447, 0.14714545011520386, 0.16185149550437927, 0.20996764302253723, -0.100309818983078, -0.03457221761345863, -0.1797008216381073, 0.4000769257545471, -0.15570080280303955, -0.05779614299535751, 0.09627241641283035, 0.12395419180393219, 0.20749694108963013, -0.10929013788700104, -0.08727512508630753, -0.04510926827788353, 0.17524802684783936, -0.06485439091920853, 0.23887290060520172, 0.08235583454370499, 0.05349328741431236, 0.09116315096616745, -0.20112226903438568, 0.11319292336702347, -0.18457235395908356, 0.05136817693710327, -0.2088720202445984, -0.04558167606592178, -0.17265179753303528, 0.2317245751619339, -0.030238434672355652, 0.07613424211740494, -0.13416601717472076, -0.15235619246959686, -0.005203729961067438, -0.18893000483512878, -0.2787277102470398, -0.15346433222293854, -0.14124853909015656, -0.04729580879211426, -0.16178593039512634, 0.349021315574646, 0.21764937043190002, -0.07121355831623077, 0.1871567815542221, 0.37174224853515625, -0.12655898928642273, -0.03705868497490883, -0.18704554438591003, 0.002172027714550495, -0.05754435434937477, 0.09754102677106857], [0.17905187606811523, 0.07296080887317657, 0.21465624868869781, -0.1716519147157669, -0.4268156886100769, -0.20790840685367584, 0.08635713160037994, 0.03378157690167427, -0.1166471615433693, -0.08390337973833084, -0.05731034278869629, -0.059251900762319565, -0.17489071190357208, 0.024296453222632408, 0.381593257188797, -0.058263372629880905, -0.19261178374290466, 0.25386354327201843, -0.15361718833446503, -0.17192745208740234, -0.21542903780937195, 0.03258801996707916, 0.019248710945248604, 0.14154668152332306, -0.03557850420475006, 0.44629859924316406, 0.06304031610488892, 0.05897248163819313, 0.008407955057919025, 0.1139155924320221, 0.19466112554073334, 0.24749891459941864, 0.18488000333309174, -0.16921961307525635, 0.2539050281047821, -0.4455988109111786, -0.30738040804862976, 0.0018465310567989945, 0.08984700590372086, -0.1940404772758484, 0.009594083763659, 0.07544931769371033, 0.15935543179512024, -0.07271530479192734, 0.15925386548042297, 0.1305384486913681, 0.10844158381223679, -0.09550820291042328, -0.12883788347244263, -0.11973917484283447, -0.036893393844366074, -0.007726912386715412, -0.054207976907491684, 0.25863221287727356, -0.2043745517730713, 0.06876856833696365, 0.05216585472226143, 0.05581195279955864, 0.11412248015403748, -0.2804838716983795, -0.0009867276530712843, 0.09461144357919693, 0.34278780221939087, 0.16059355437755585, 0.3697877824306488, -0.3636278510093689, 0.10212685912847519, 0.13339389860630035, -0.10673592984676361, 0.1030585840344429, 0.08798383176326752, -0.008850266225636005, 0.23974111676216125, -0.08975379168987274, -0.15089839696884155, 0.240037739276886, -0.3341926038265228, -0.39178466796875, 0.32521262764930725, -0.19648949801921844, -0.004640810191631317, -0.19505831599235535, 0.0517374724149704, 0.06241098418831825, 0.23839065432548523, -0.11361551284790039, 0.05384206399321556, 0.26165613532066345, -0.08354542404413223, 0.20621198415756226, -0.027369121089577675, -0.15323467552661896, 0.08568685501813889, 0.16533337533473969, -0.06466831266880035, -0.0020762511994689703, -0.30339106917381287, -0.06710724532604218, 0.04745525121688843, -0.06465157866477966], [-0.05397888645529747, 0.27614209055900574, 0.09765926748514175, -0.039589062333106995, -0.10000084340572357, -0.3095211088657379, 0.17888249456882477, 0.357856422662735, -0.02624397538602352, 0.15746499598026276, -0.04313996061682701, 0.06935460865497589, 0.011635193601250648, -0.2081199586391449, 0.09729623794555664, 0.17766627669334412, 0.15351548790931702, 0.38154667615890503, 0.1879958212375641, -0.3512004315853119, -0.0834629163146019, 0.28425905108451843, 0.10217557102441788, -0.2533390522003174, -0.2104722410440445, -0.275139719247818, -0.10128284245729446, 0.18171174824237823, 0.21901071071624756, 0.30535244941711426, 0.11154859513044357, 0.1791372448205948, 0.3162384629249573, -0.0023917541839182377, -0.004274553153663874, 0.21054601669311523, 0.08178313821554184, 0.30583131313323975, 0.0125455092638731, -0.34553632140159607, -0.2211483269929886, 0.0696156844496727, 0.029023248702287674, -0.009239171631634235, 0.15181191265583038, 0.21130019426345825, 0.4240822494029999, -0.02667185291647911, 0.021972201764583588, -0.014939484186470509, -0.1543896645307541, -0.12909522652626038, -0.027064131572842598, 0.09809619933366776, 0.0015099078882485628, 0.018558962270617485, -0.28312572836875916, 0.16850687563419342, 0.026088109239935875, 0.17412927746772766, 0.10923616588115692, 0.09095289558172226, 0.13285699486732483, 0.20692884922027588, 0.376371830701828, -0.31992724537849426, 0.02024054154753685, 0.22478817403316498, 0.0007712868973612785, 0.2440776228904724, 0.16185516119003296, -0.152652770280838, -0.24206876754760742, 0.19236913323402405, -0.005084170959889889, 0.26769620180130005, -0.22035261988639832, -0.08010641485452652, 0.26005804538726807, -0.1410861313343048, 0.08703059703111649, -0.09984686225652695, 0.1320115029811859, -0.11691994220018387, -0.06639568507671356, -0.1492481678724289, -0.043239712715148926, 0.07205022871494293, 0.026370517909526825, -0.009887190535664558, 0.14992202818393707, 0.06820591539144516, 0.20051459968090057, 0.24235662817955017, 0.14603768289089203, 0.19507499039173126, -0.26293814182281494, -0.2510705292224884, 0.15742994844913483, -0.24098478257656097], [-0.1603706032037735, -0.18660716712474823, 0.07942786067724228, 0.10822959989309311, 0.10900753736495972, -0.23667480051517487, 0.006573452614247799, 0.08438238501548767, -0.027992557734251022, -0.3965354561805725, 0.2493400126695633, 0.1614866554737091, -0.16027244925498962, -0.3003326654434204, 0.11966812610626221, -0.17194941639900208, -0.21453644335269928, 0.17967039346694946, -0.2676008641719818, -0.19827698171138763, -0.11216931790113449, 0.2063276171684265, 0.1541128158569336, -0.0908208116889, 0.0054734027944505215, 0.13782264292240143, -0.21947737038135529, 0.09860795736312866, 0.01621813140809536, -0.07646095752716064, 0.3819224536418915, 0.16721178591251373, -0.13566942512989044, -0.2970685064792633, -0.20985186100006104, -0.1593201905488968, 0.04096097871661186, -0.04512089490890503, -0.04365954175591469, -0.12723258137702942, 0.1634531468153, -0.0340920053422451, -0.2885631024837494, -0.03205724060535431, -0.055979859083890915, 0.05423390865325928, 0.29853320121765137, -0.04147762432694435, -0.1432902216911316, 0.21124407649040222, 0.048412393778562546, -0.003422613488510251, 0.058595575392246246, 0.15230417251586914, -0.1231207326054573, 0.05737372115254402, 0.13063444197177887, -0.2584383487701416, -0.05163683369755745, -0.14200682938098907, 0.09643322229385376, -0.2640843689441681, 0.10211172699928284, -0.14336495101451874, -0.2763722240924835, -0.06269381940364838, 0.25050199031829834, 0.11254841834306717, 0.2607435882091522, 0.22534549236297607, -0.11947141587734222, -0.2392435073852539, 0.14379291236400604, 0.1346777081489563, -0.2177240550518036, 0.10614508390426636, 0.09785634279251099, 0.06104346364736557, 0.18901020288467407, 0.08783756196498871, 0.1984575241804123, -0.24714629352092743, 0.14446677267551422, 0.023239795118570328, -0.002190573140978813, 0.04505365341901779, -0.2740059494972229, 0.11448010057210922, -0.26589664816856384, 0.4488881826400757, -0.07326919585466385, 0.1429380476474762, 0.16199228167533875, 0.060973942279815674, 0.13869710266590118, 0.0353323332965374, -0.009017501026391983, -0.0142044173553586, 0.16608789563179016, 0.2527107000350952], [0.33771735429763794, 0.16317401826381683, 0.09435119479894638, -0.02508039027452469, 0.052101705223321915, -0.05173175409436226, 0.14904899895191193, 0.20936086773872375, -0.2389698624610901, 0.1595369279384613, 0.3443499207496643, -0.06233278289437294, 0.04227839782834053, -0.17645172774791718, 0.23502463102340698, 0.23193325102329254, -0.03172959387302399, -0.1918279528617859, -0.33134955167770386, -0.2408953607082367, -0.1693873405456543, 0.005471199285238981, 0.056516241282224655, -0.03770751506090164, -0.10801436752080917, -0.24669381976127625, 0.3211815059185028, 0.007965288124978542, -0.077002614736557, 0.16294986009597778, 0.14241240918636322, 0.22601772844791412, 0.17314450442790985, -0.01907179318368435, -0.15881720185279846, 0.12525181472301483, -0.1447734534740448, 0.06299898028373718, -0.001462743617594242, 0.02819378860294819, -0.14533531665802002, -0.08988229185342789, -0.026822928339242935, 0.31716710329055786, -0.1922239363193512, 0.04753722995519638, -0.27617597579956055, -0.0728767067193985, -0.26481595635414124, 0.006400256883352995, 0.255336731672287, -0.09615279734134674, -0.18173111975193024, -0.1282316893339157, -0.0798051506280899, -0.07081511616706848, 0.022979848086833954, -0.11750762164592743, 0.05603743717074394, -0.028743116185069084, -0.3050192594528198, -0.03551055118441582, 0.015774672850966454, -0.21962372958660126, 0.20301222801208496, -0.15906013548374176, -0.011764631606638432, 0.43298375606536865, 0.034005071967840195, 0.06941784173250198, -0.08466026186943054, 0.30051758885383606, -0.0606982558965683, 0.2668895423412323, -0.08255716413259506, -0.026673363521695137, -0.05408068746328354, -0.06952061504125595, -0.1667363941669464, -0.12164165824651718, -0.19177009165287018, 0.020758142694830894, 0.20750081539154053, -0.024117808789014816, 0.1701943725347519, 0.1340048909187317, 0.025796515867114067, 0.24037586152553558, -0.1761937439441681, -0.09457796066999435, 0.3123193383216858, -0.1172243058681488, 0.015268598683178425, 0.041844651103019714, 0.264445036649704, 0.02062428928911686, 0.011610752902925014, -0.0016009242972359061, -0.22037683427333832, -0.17546473443508148], [-0.13853807747364044, -0.08062881231307983, 0.1479712575674057, -0.10838880389928818, -0.1140362098813057, -0.22939318418502808, -0.29207658767700195, -0.0954679623246193, -0.06714320927858353, 0.03890111297369003, 0.11497758328914642, 0.03515738621354103, -0.09724217653274536, -0.012140494771301746, 0.14922553300857544, 0.15053007006645203, 0.08324690163135529, 0.2144092619419098, 0.0052413335070014, -0.23871387541294098, 0.06335006654262543, 0.15969613194465637, -0.11852291226387024, 0.029979057610034943, -0.010593404062092304, 0.09538277983665466, 0.18322494626045227, 0.1572193056344986, 0.1649903953075409, -0.08514350652694702, 0.1145804151892662, 0.1042575016617775, -0.07426073402166367, 0.07364697009325027, -0.03673592582345009, 0.0022584644611924887, -0.28583577275276184, 0.0510362908244133, 0.10066911578178406, -0.15858952701091766, 0.1617881804704666, 0.03201692923903465, -0.018830642104148865, 0.20518943667411804, 0.09076101332902908, 0.06555939465761185, -0.09212838858366013, -0.27146461606025696, -0.21627011895179749, 0.31867486238479614, -0.16163355112075806, 0.1700797826051712, -0.0068083941005170345, 0.11225830763578415, 0.026724277064204216, -0.1943652629852295, 0.11302920430898666, -0.26465752720832825, 0.029911518096923828, 0.07187265157699585, 0.08155139535665512, 0.07884559035301208, -0.1854056715965271, 0.09620030224323273, -0.20825795829296112, 0.03279687091708183, 0.050762586295604706, 0.13373327255249023, 0.0354456789791584, 0.21802225708961487, -0.1466146558523178, -0.15742705762386322, -0.0952918604016304, 0.07533939927816391, -0.1912481188774109, -0.004778319038450718, 0.015805812552571297, -0.0071865469217300415, 0.034957051277160645, 0.03613272309303284, 0.040290217846632004, -0.043140169233083725, 0.3542128801345825, 0.006672524381428957, -0.1927059441804886, -0.1412593573331833, -0.08927131444215775, 0.296903520822525, -0.25137385725975037, 0.33960798382759094, 0.03394780680537224, 0.031985051929950714, -0.04543999955058098, -0.07015763223171234, 0.004915687255561352, -0.07391972094774246, -0.018652893602848053, 0.1239553838968277, -0.004119808319956064, 0.0563509501516819], [0.35586047172546387, 0.1398450881242752, -0.04078329727053642, 0.15377172827720642, 0.05324995145201683, -0.21678444743156433, -0.3237955868244171, 0.06370317935943604, 0.15703023970127106, 0.0609641931951046, 0.0824550986289978, -0.4327842891216278, 0.17514155805110931, 0.09967049956321716, 0.3356279730796814, 0.03953617438673973, -0.19061090052127838, -0.44954803586006165, 0.07051671296358109, -0.022383786737918854, 0.20066364109516144, -0.12529467046260834, -0.29308539628982544, -0.3710675835609436, 0.07428289949893951, -0.049229416996240616, 0.0016365526244044304, -0.2137158215045929, -0.11338670551776886, 0.15960504114627838, -0.011544661596417427, 0.17920084297657013, -0.1546286791563034, 0.013005740940570831, -0.21612274646759033, 0.2280949205160141, -0.007673520129173994, -0.04654601961374283, 0.03729652613401413, 0.024014081805944443, -0.05477483570575714, 0.041316919028759, 0.02942061610519886, -0.020272979512810707, -0.111407570540905, 0.0795702114701271, -0.1922977864742279, 0.28763246536254883, 0.10716729611158371, 0.008710556663572788, 0.08175013959407806, -0.11561856418848038, -0.0987495630979538, -0.05528934299945831, 0.2415948510169983, 0.34545832872390747, -0.018931904807686806, -0.3934136629104614, 0.0814228355884552, 0.0630781427025795, 0.0014197482960298657, 0.35771894454956055, -0.38891518115997314, 0.17747068405151367, -0.10470382124185562, -0.07900506258010864, -0.12957003712654114, -0.11339881271123886, -0.11217932403087616, -0.2542664110660553, 0.003853600239381194, 0.4734872579574585, 0.5355225205421448, 0.35310375690460205, 0.21948492527008057, 0.1942126452922821, 0.515198290348053, 0.2185080349445343, -0.07268216460943222, 0.07745256274938583, -0.1355263888835907, -0.050699781626462936, -0.005277398508042097, -0.19066841900348663, 0.25919216871261597, 0.35617607831954956, -0.10723850131034851, -0.09645006060600281, -0.05538707226514816, -0.1442359834909439, 0.12674063444137573, 0.1923249512910843, -0.39570799469947815, -0.15536096692085266, -0.026174675673246384, 0.21642743051052094, -0.011782590299844742, 0.22131016850471497, -0.04966787248849869, 0.028513478115200996], [0.10585393756628036, 0.32404571771621704, 0.009050644002854824, -0.11103697121143341, 0.3169189393520355, -0.02763346955180168, 0.13768145442008972, -0.1263674795627594, -0.012893359176814556, -0.035575930029153824, 0.036641184240579605, 0.14346784353256226, 0.108883798122406, -0.4213826060295105, -0.09434323757886887, -0.24590766429901123, -0.22482764720916748, 0.10348155349493027, 0.061535608023405075, 0.011071249842643738, 0.032466962933540344, 0.08763614296913147, -0.1479022204875946, 0.19170108437538147, 0.08144121617078781, 0.21338312327861786, 0.0583796463906765, 0.23469001054763794, 0.0561673603951931, -0.38273510336875916, -0.3110947012901306, 0.00811867043375969, -0.37431424856185913, 0.014199585653841496, 0.2171468883752823, 0.01512913964688778, 0.17562898993492126, -0.15923266112804413, 0.13025429844856262, 0.08759012073278427, -0.038612935692071915, -0.07225850969552994, 0.028330743312835693, -0.1875063180923462, 0.28564080595970154, -0.29593193531036377, -0.2234000563621521, -0.21968871355056763, -0.025585032999515533, -0.4089975357055664, -0.22607921063899994, 0.263288676738739, 0.05621270462870598, -0.18461304903030396, 0.042417291551828384, -0.27563944458961487, 0.008278029970824718, -0.13510353863239288, -0.2849476635456085, -0.19204480946063995, -0.29073017835617065, 0.37058091163635254, 0.3769415318965912, -0.1369827836751938, -0.16643068194389343, -0.008868122473359108, -0.11181402206420898, -0.0459202416241169, 0.19914257526397705, 0.24165259301662445, 0.3952828049659729, -0.044196244329214096, 0.2052406221628189, 0.07679407298564911, 0.0870358943939209, -0.2311214953660965, -0.15061847865581512, 0.20485693216323853, -0.3749801814556122, 0.2484804391860962, 0.26693880558013916, 0.28698819875717163, -0.16845247149467468, 0.2663653492927551, -0.2206564098596573, 0.12108850479125977, 0.25101813673973083, 0.07089889794588089, 0.3252534568309784, -0.24358071386814117, 0.1731014996767044, -0.16468119621276855, 0.043672528117895126, 0.30736610293388367, 0.00765248155221343, -0.04840486869215965, 0.25946202874183655, 0.037681881338357925, 0.06595239043235779, -0.433461457490921], [-0.21829064190387726, -0.011796990409493446, 0.11975051462650299, -0.014140701852738857, -0.235759437084198, -0.03439593315124512, 0.028138790279626846, -0.46337953209877014, 0.01813385635614395, 0.2559201121330261, 0.3340591490268707, -0.29589900374412537, -0.2837945520877838, 0.015177574008703232, 0.19851356744766235, 0.16856421530246735, -0.18337906897068024, 0.14035272598266602, -0.10876767337322235, 0.08584323525428772, -0.09364499151706696, -0.1707056611776352, -0.018311431631445885, 0.26205867528915405, -0.0273269135504961, 0.08021369576454163, -0.11901794373989105, 0.1571626216173172, 0.04417547211050987, -0.09404387325048447, 0.11486805975437164, -0.3514586091041565, 0.09213823080062866, 0.011960916221141815, 0.2955326437950134, -0.00045590579975396395, 0.01143185980618, 0.1510392427444458, -0.1579498052597046, 0.024592503905296326, 0.12408705800771713, -0.32407674193382263, -0.09234798699617386, -0.05641660839319229, 0.15357813239097595, 0.24499288201332092, -0.08310447633266449, -0.1318298578262329, 0.09982844442129135, 0.13033656775951385, -0.07488632202148438, 0.2536238729953766, 0.10529888421297073, 0.08305459469556808, -0.05074349790811539, -0.0433892123401165, 0.10216107219457626, -0.08425632119178772, 0.1152953952550888, -0.07762943208217621, 0.018580662086606026, -0.08527613431215286, -0.07314832508563995, -0.3280307352542877, 0.08061515539884567, -0.08006522059440613, 0.07733134180307388, -0.18299897015094757, 0.05873965844511986, 0.17887265980243683, 0.019636236131191254, -0.0935850664973259, 0.0016625464195385575, -0.12854686379432678, 0.10121367871761322, -0.30525121092796326, -0.2358936071395874, 0.10180850327014923, -0.07465925812721252, -0.16573315858840942, -0.11937152594327927, 0.021234335377812386, 0.15724460780620575, -0.11128512024879456, -0.06352499127388, -0.03607622906565666, 0.09869928658008575, 0.018737461417913437, -0.22987939417362213, -0.047121912240982056, -0.0825437530875206, 0.20316405594348907, -0.37831544876098633, 0.31141218543052673, -0.002647544490173459, -0.2168595939874649, 0.06595273315906525, -0.1830793023109436, 0.05969015881419182, 0.24415497481822968], [0.17336505651474, -0.06757263839244843, 0.22862210869789124, -0.22272813320159912, -0.20370931923389435, 0.08463533967733383, 0.28739312291145325, -0.19570457935333252, -0.08367820829153061, 0.09251623600721359, -0.3759104609489441, -0.043825116008520126, 0.13811129331588745, -0.2638706862926483, -0.08455201238393784, 0.05353379622101784, -0.03776339069008827, -0.30891770124435425, 0.047145113348960876, 0.1704360395669937, -0.11814504116773605, -0.17168886959552765, -0.140447735786438, -0.3580840826034546, -0.10793893039226532, 0.33642324805259705, 0.1617181897163391, -0.25860193371772766, -0.2658631503582001, -0.04141523689031601, -0.0668453797698021, 0.16405077278614044, -0.014650026336312294, 0.13333217799663544, -0.1197628527879715, 0.1923256516456604, -0.0177589263767004, -0.22451664507389069, -0.11872890591621399, -0.05711458623409271, -0.2791302502155304, -0.15313424170017242, 0.32786333560943604, 0.21657003462314606, 0.015849586576223373, 0.15713325142860413, 0.08086705207824707, 0.1164621040225029, -0.2535550892353058, 0.25851401686668396, 0.31782153248786926, -0.21273308992385864, -0.07460876554250717, -0.3904849588871002, 0.08386597037315369, -0.1270320862531662, -0.391427606344223, -0.16368213295936584, 0.1541542261838913, 0.11314812302589417, 0.21472683548927307, -0.33991822600364685, -0.17243126034736633, -0.2586662173271179, 0.07919896394014359, -0.0013250774936750531, 0.10852660238742828, -0.17165593802928925, -0.15589839220046997, 0.1014997586607933, -0.12221623957157135, 0.22949764132499695, -0.04819275811314583, -0.037018150091171265, -0.018390309065580368, -0.05688459798693657, -0.054924096912145615, 0.15701420605182648, -0.22891250252723694, -0.3780916631221771, -0.38339880108833313, -0.010030013509094715, 0.1165672168135643, -0.11849213391542435, 0.2371799796819687, 0.030584312975406647, -0.0955495536327362, 0.27854806184768677, 0.25682803988456726, 0.02867538295686245, 0.0411774143576622, -0.3258441388607025, 0.2640720009803772, -0.1618148684501648, 0.17292535305023193, -0.10034234821796417, -0.22576455771923065, -0.2717643678188324, -0.07036563009023666, 0.27726688981056213], [-0.2440621554851532, -0.07560030370950699, 0.205867737531662, -0.014402516186237335, 0.029035016894340515, 0.05654176324605942, -0.1521146595478058, 0.12962935864925385, -0.08821827173233032, -0.008495145477354527, -0.1160232201218605, 0.17629146575927734, 0.1807355284690857, -0.23105819523334503, -0.16146236658096313, 0.049265533685684204, -0.24949151277542114, -0.0027125084307044744, 0.024345112964510918, -0.08580733090639114, -0.115045465528965, 0.18616971373558044, -0.01786065101623535, -0.11345415562391281, -0.08080121129751205, 0.19582918286323547, 0.12899522483348846, 0.04438671097159386, -0.010937253944575787, 0.00595814548432827, 0.049480099231004715, 0.0036082540173083544, 0.20509402453899384, -0.04902838543057442, -0.0562012605369091, -0.07627145200967789, -0.3012068569660187, 0.03058098442852497, -0.1849241405725479, -0.03830813989043236, 0.07199988514184952, 0.1554637849330902, 0.17528432607650757, -0.031134074553847313, 0.24532827734947205, 0.18034446239471436, 0.2063789665699005, -0.3528856039047241, -0.2679174840450287, 0.08369354158639908, -0.33809953927993774, 0.06988425552845001, -0.06763771921396255, -0.10544561594724655, -0.28192591667175293, -0.21055826544761658, -0.020695563405752182, -0.15880087018013, -0.05327368527650833, 0.05312454327940941, -0.1543939858675003, 0.08996591717004776, 0.05728567764163017, -0.09580349177122116, -0.015625348314642906, -0.010815891437232494, 0.14694185554981232, -0.0950954258441925, 0.04768743738532066, -0.10422274470329285, 0.22839488089084625, -0.23152370750904083, 0.2683850824832916, -0.07307954877614975, -0.005688595585525036, -0.5053852200508118, -0.12772421538829803, -0.2300609052181244, 0.03807791322469711, -0.228353351354599, 0.03308926895260811, 0.05489476025104523, 0.11772488057613373, 0.30068379640579224, -0.26895028352737427, -0.3046109676361084, -0.28041452169418335, 0.32498177886009216, -0.14714878797531128, 0.3273424804210663, 0.17516861855983734, 0.13484755158424377, 0.12984846532344818, -0.040860921144485474, -0.001441917847841978, -0.015462248586118221, -0.06224054843187332, 0.014492101967334747, 0.07270774245262146, -0.16906337440013885], [0.09106209129095078, 0.17483143508434296, -0.15105345845222473, -0.2585916519165039, -0.00886899046599865, -0.1415012776851654, -0.27718585729599, 0.13439157605171204, -0.19836851954460144, 0.136121928691864, -0.022724773734807968, -0.030669260770082474, 0.008126257918775082, -0.056885212659835815, 0.11836975067853928, -0.23018305003643036, -0.2347012460231781, 0.04303045570850372, -0.026330294087529182, -0.47487393021583557, -0.18686507642269135, 0.025254080072045326, 0.16964828968048096, -0.0744256004691124, -0.07898429036140442, 0.27402785420417786, 0.2851988673210144, -0.06867476552724838, -0.22282370924949646, 0.18410390615463257, 0.007738359272480011, 0.014706605114042759, -0.06835240125656128, -0.05250709876418114, -0.009685833007097244, -0.19979576766490936, 0.1948583424091339, 0.05255866050720215, 0.057356055825948715, -0.20514163374900818, -0.13479776680469513, 0.013121584430336952, -0.049801960587501526, 0.1836993545293808, 0.17358382046222687, 0.0002138405543519184, -0.06397581100463867, 0.28521186113357544, 0.031013241037726402, 0.027259066700935364, -0.14918644726276398, -0.02322334796190262, 0.15580876171588898, -0.25411614775657654, 0.04055262729525566, 0.15871725976467133, 0.07456725835800171, -0.19457991421222687, -0.05816562473773956, 0.21079407632350922, 0.18936851620674133, 0.00045372385648079216, -0.16590014100074768, 0.1085348054766655, -0.082056425511837, -0.19171558320522308, 0.27149733901023865, -0.15411916375160217, -0.19304442405700684, 0.24033468961715698, -0.3036130666732788, 0.20803603529930115, 0.07228246331214905, 0.37720224261283875, -0.4144362807273865, 0.11767587810754776, 0.0634898841381073, 0.18225112557411194, 0.2985614240169525, 0.036063313484191895, -0.0226790439337492, -0.08312400430440903, -0.19081304967403412, -0.29515084624290466, -0.1377953737974167, 0.24624739587306976, 0.18607014417648315, 0.00680504459887743, 0.2306770235300064, -0.1433577686548233, -0.2808903753757477, -0.36379075050354004, 0.07682999223470688, -0.1155463308095932, -0.068624347448349, 0.059928588569164276, -0.2405979484319687, -0.2602107524871826, 0.2119661271572113, 0.10384433716535568], [-0.04789063334465027, 0.33560073375701904, -0.08979394286870956, 0.029388070106506348, 0.010919861495494843, -0.06840939819812775, 0.06836576759815216, 0.049700140953063965, 0.029645847156643867, 0.15488304197788239, 0.06060349941253662, -0.04871653765439987, 0.2708495557308197, -0.37034666538238525, -0.07553724944591522, 0.3052297532558441, 0.05921342223882675, 0.2672557234764099, -0.039360977709293365, 0.20038603246212006, -0.14624972641468048, 0.17764981091022491, -0.43401798605918884, 0.11236652731895447, 0.09583976119756699, -0.18245188891887665, -0.1196749359369278, 0.062790647149086, 0.031113114207983017, 0.060448914766311646, -0.014231245964765549, 0.1303524523973465, 0.13310976326465607, -0.11150086671113968, 0.17671437561511993, 0.1811593621969223, 0.07900390774011612, -0.04938122257590294, 0.19278812408447266, -0.13505946099758148, 0.15183360874652863, 0.014896231703460217, 0.16049854457378387, -0.2949052155017853, 0.2590506374835968, 0.28371313214302063, 0.031168989837169647, -0.07073400914669037, -0.09913255274295807, 0.061608653515577316, 0.35744497179985046, 0.24389293789863586, -0.43775448203086853, 0.1493329256772995, 0.13379091024398804, 0.3682731091976166, 0.08259013295173645, -0.016324350610375404, 0.06908352673053741, 0.23654672503471375, 0.23557502031326294, -0.1951749324798584, 0.2554837465286255, 0.18933755159378052, 0.2090831995010376, -0.12811718881130219, -0.22444793581962585, 0.288478821516037, 0.1947333812713623, -0.12336680293083191, 0.24707990884780884, -0.1761932373046875, -0.3538932502269745, 0.02213868498802185, 0.3911425769329071, -0.014628023840487003, 0.28181904554367065, -0.11868395656347275, 0.20215168595314026, -0.2279883623123169, 0.19665680825710297, -0.1447577178478241, -0.06926192343235016, 0.35909438133239746, -0.07937867194414139, -0.03893531113862991, -0.044227853417396545, 0.3220338225364685, 0.2459886223077774, -0.021115010604262352, 0.40083742141723633, 0.12321934849023819, 0.3700433671474457, 0.07346146553754807, -0.4002814292907715, 0.24344758689403534, 0.08404971659183502, 0.19728656113147736, 0.06953980773687363, -0.034735456109046936], [0.12170344591140747, 0.023940563201904297, 0.05489509925246239, -0.23216530680656433, -0.18132558465003967, 0.09964734315872192, 0.20674015581607819, 0.242734894156456, -0.14586715400218964, -0.005692208651453257, -0.06859377026557922, 0.05811406299471855, -0.26655521988868713, -0.10780966281890869, -0.048072610050439835, 0.42938414216041565, 0.3461504280567169, -0.19372816383838654, -0.023126697167754173, -0.21966062486171722, 0.009962103329598904, 0.30651965737342834, -0.1602654755115509, 0.026375209912657738, -0.12554416060447693, -0.018274199217557907, 0.09749758988618851, -0.19245228171348572, 0.02068762481212616, -0.041517287492752075, 0.2140292376279831, 0.1699809581041336, 0.1488114893436432, -0.14159280061721802, -0.033122722059488297, -0.3288688063621521, -0.23164044320583344, 0.1950771063566208, 0.026487451046705246, -0.28415992856025696, -0.03624855726957321, 0.19568772614002228, 0.028031526133418083, -0.03856774419546127, -0.10406874865293503, -0.1006840318441391, -0.03868725150823593, 0.04606541991233826, -0.09749021381139755, 0.09952157735824585, 0.09473981708288193, 0.19324004650115967, -0.010191581211984158, -0.1668563336133957, -0.11741086840629578, -0.04659496992826462, 0.0336463637650013, -0.11284677684307098, 0.07770287990570068, 0.016615916043519974, 0.41726624965667725, 0.009626436047255993, 0.040231045335531235, -0.17475935816764832, -0.07757920026779175, -0.262153297662735, 0.32059380412101746, -0.05596479773521423, -0.1333572119474411, 0.28634899854660034, -0.34805241227149963, 0.009159018285572529, -0.03404468670487404, -0.04075486212968826, -0.08086950331926346, -0.020777679979801178, 0.16450795531272888, -0.20973999798297882, 0.07366149127483368, 0.09681510180234909, 0.29136717319488525, 0.09842313826084137, -0.09356275945901871, 0.16448113322257996, -0.0276387557387352, -0.0762663185596466, 0.10243681073188782, 0.05506143718957901, -0.023352887481451035, -0.15271374583244324, -0.11380703747272491, 0.10213594883680344, 0.10561227053403854, -0.12947840988636017, 0.08022534847259521, -0.2018555998802185, -0.0952848345041275, -0.0876014232635498, 0.11331409960985184, -0.17767035961151123], [-0.28135180473327637, 0.01664092019200325, 0.02009696327149868, 0.10743816196918488, 0.142025887966156, -0.20730794966220856, -0.07597512751817703, -0.007836423814296722, -0.06936664879322052, -0.12279979139566422, 0.31215715408325195, 0.17005279660224915, 0.17534686625003815, -0.16732724010944366, 0.2970416843891144, 0.2285217046737671, 0.06965716928243637, 0.1362846940755844, 0.15781989693641663, -0.18487073481082916, 0.17679986357688904, 0.025543827563524246, -0.3100966513156891, 0.13401852548122406, 0.05286301299929619, 0.024193789809942245, -0.14847446978092194, 0.037818774580955505, 0.1498461365699768, 0.29386624693870544, 0.14449022710323334, 0.18729062378406525, 0.06678218394517899, 0.037603866308927536, -0.24891555309295654, 0.06653163582086563, -0.2418946474790573, -0.04733813926577568, 0.11938991397619247, -0.05239220708608627, 0.29479268193244934, 0.08446558564901352, 0.05425842106342316, -0.1523118019104004, -0.00047368014929816127, 0.13410811126232147, -0.06777285784482956, 0.04991292208433151, 0.04786902666091919, 0.16971588134765625, 0.21346868574619293, -0.09983360767364502, -0.4455723762512207, 0.011321833357214928, 0.14817973971366882, 0.17272520065307617, -0.13923656940460205, -0.08745601028203964, 0.34514155983924866, -0.15783686935901642, 0.22286854684352875, -0.09035666286945343, 0.058018967509269714, -0.19933128356933594, -0.019018227234482765, 0.04233965277671814, 0.05546928942203522, 0.1523553431034088, 0.20852531492710114, -0.11125391721725464, 0.013606935739517212, -0.09856946766376495, 0.05342208966612816, 0.22582854330539703, -0.11893967539072037, 0.01834019087255001, 0.09690483659505844, -0.11022427678108215, -0.34261804819107056, 0.3384399712085724, 0.3248363733291626, 0.06236308813095093, -0.08219343423843384, -0.006822296418249607, -0.2126532793045044, -0.08257656544446945, -0.26948660612106323, 0.12763313949108124, -0.13291141390800476, 0.24097707867622375, 0.35150012373924255, 0.39510050415992737, 0.20708438754081726, -0.0023265238851308823, -0.062317848205566406, 0.09060973674058914, -0.3197792172431946, 0.2720012068748474, 0.16563479602336884, 0.26141270995140076], [0.35446950793266296, 0.11897475272417068, -0.15433984994888306, -0.07202695310115814, -0.0016766958869993687, -0.11428673565387726, 0.08774497359991074, 0.03452872484922409, 0.053629353642463684, -0.3439692556858063, -0.3370717167854309, 0.1862436980009079, 0.2990781366825104, 0.14582869410514832, 0.0543653629720211, -0.0009855886455625296, -0.1958843618631363, -0.07359641790390015, -0.22064541280269623, -0.0338924378156662, 0.4232710599899292, 0.14335685968399048, 0.07488325983285904, -0.188644677400589, 0.237623929977417, -0.03682374209165573, 0.3711937665939331, -0.08837061375379562, 0.09814507514238358, -0.0019026543013751507, 0.22374075651168823, -0.23281674087047577, -0.2856186628341675, 0.029865851625800133, 0.1317295879125595, -0.2289840579032898, -0.0477510467171669, -0.13797633349895477, -0.13386234641075134, -0.0033357443753629923, 0.028043074533343315, 0.16733963787555695, -0.05512964725494385, -0.08456434309482574, 0.20003186166286469, -0.1971718817949295, 0.09062740206718445, 0.21875759959220886, -0.12419483810663223, -0.00364898843690753, -0.11620893329381943, 0.01638719066977501, 0.04603242501616478, -0.19345955550670624, 0.06413751095533371, -0.02210037037730217, 0.34733015298843384, -0.14400042593479156, -0.23653742671012878, -0.26622769236564636, -0.10228829830884933, 0.15256524085998535, -0.20810328423976898, -0.04310700297355652, 0.2025124877691269, -0.1121000126004219, 0.08544813841581345, 0.0018544098129495978, 0.1647641658782959, 0.24642664194107056, 0.1946735680103302, 0.09507093578577042, 0.220534086227417, 0.021344833076000214, -0.15656273066997528, -0.025578198954463005, 0.07307390123605728, 0.1575617790222168, -0.06530676037073135, 0.05182314291596413, -0.10583131015300751, 0.15380901098251343, -0.1602252870798111, 0.16613368690013885, 0.17853179574012756, 0.08471134305000305, -0.06823835521936417, 0.0518309585750103, 0.0528944730758667, 0.0024491730146110058, -0.09330043196678162, 0.07038141041994095, 0.1255243420600891, -0.17237816751003265, -0.039733484387397766, 0.10458597540855408, 0.01700150966644287, 0.10064423829317093, -0.0362827405333519, -0.3907809257507324], [-0.12680822610855103, 0.13736408948898315, 0.05883154645562172, -0.02800765074789524, -0.038129501044750214, 0.28206080198287964, -0.13268715143203735, 0.0008759862976148725, -0.22635164856910706, -0.05007171258330345, -0.2357787936925888, 0.11206661909818649, -0.16668319702148438, -0.09746786952018738, 0.03434958681464195, -0.012939251959323883, 0.2512894868850708, 0.17332303524017334, 0.12056545913219452, 0.17614418268203735, -0.15937645733356476, -0.015545321628451347, -0.038799948990345, 0.16761334240436554, 0.1306852400302887, -0.11608782410621643, -0.294920414686203, 0.22105993330478668, 0.0005628057406283915, 0.09799627214670181, 0.09507138282060623, -0.03366473689675331, 0.19087006151676178, -0.23163048923015594, 0.11758981645107269, -0.17262761294841766, 0.16796910762786865, 0.24878203868865967, 0.016114449128508568, 0.03698744624853134, 0.24986660480499268, 0.03608398512005806, 0.19293297827243805, -0.06581249088048935, 0.0318436361849308, 0.22214354574680328, -0.08887377381324768, -0.03582252562046051, 0.17794951796531677, -0.15796245634555817, -0.1265241652727127, 0.2631089687347412, 0.0790925920009613, -0.06208482384681702, 0.12519612908363342, -0.11751100420951843, -0.06340383738279343, 0.2832880914211273, -0.11317809671163559, 0.19806845486164093, 0.05805809423327446, 0.02119564265012741, 0.2356589436531067, 0.3784487545490265, -0.005452836398035288, 0.22602540254592896, -0.36174023151397705, 0.2586205005645752, 0.021660268306732178, -0.02814328670501709, 0.10787411034107208, -0.2067830115556717, -0.3258502781391144, 0.12917034327983856, 0.12774121761322021, -0.012005629949271679, 0.15254122018814087, -0.535214900970459, 0.33777928352355957, -0.27798032760620117, 0.11339882016181946, -0.1704716831445694, 0.1450248658657074, -0.10206937044858932, -0.09618552774190903, -0.4602970778942108, 0.15504039824008942, -0.153537318110466, 0.16672223806381226, -0.08629757910966873, 0.017857003957033157, -0.22897765040397644, -0.029196280986070633, 0.36046817898750305, -0.09122177958488464, -0.16446104645729065, -0.011918902397155762, 0.08111979812383652, -0.09620343148708344, -0.10268714278936386], [0.13795645534992218, -0.36002570390701294, -0.02868056669831276, 0.45897260308265686, -0.24982427060604095, 0.10690216720104218, 0.06673750281333923, 0.18194900453090668, 0.08869785070419312, -0.24022383987903595, -0.027350686490535736, -0.18402861058712006, -0.19157792627811432, 0.15640048682689667, -0.3762320876121521, -0.12338978052139282, 0.35153505206108093, -0.31059834361076355, 0.045732397586107254, 0.10897641628980637, -0.014002676121890545, 0.11178803443908691, -0.17994095385074615, -0.38918617367744446, 0.06453952193260193, 0.3580425977706909, -0.11947035044431686, 0.15880455076694489, 0.26601848006248474, -0.14568142592906952, 0.15688928961753845, 0.15002375841140747, -0.158525288105011, -0.09435915946960449, 0.257271409034729, 0.02735874429345131, 0.02809831127524376, -0.09557607024908066, -0.1335974484682083, -0.14777792990207672, -0.1387588530778885, 0.20534148812294006, -0.3246120512485504, -0.04567292705178261, -0.0947302058339119, 0.04095768183469772, 0.2399032711982727, 0.2799862325191498, 0.1616925597190857, -0.18923552334308624, 0.2466437965631485, -0.06658698618412018, 0.34450021386146545, 0.07599570602178574, -0.06662777066230774, 0.20499850809574127, -0.2943005859851837, 0.3436022400856018, -0.350786417722702, -0.12175199389457703, 0.094523124396801, -0.1717734932899475, -0.003576413495466113, 0.37391597032546997, 0.0714082419872284, -0.036443110555410385, 0.03183623403310776, -0.176213338971138, -0.05570036917924881, 0.4058090150356293, 0.11243991553783417, 0.2165522426366806, 0.016283588483929634, 0.07803674042224884, 0.08361194282770157, 0.027817679569125175, 0.025649452582001686, 0.1964622288942337, -0.2773507237434387, 0.07357693463563919, -0.09448347985744476, -0.4492636024951935, -0.060397110879421234, -0.10769297182559967, -0.04199926555156708, 0.036635808646678925, 0.2926467955112457, -0.06839536130428314, 0.30033499002456665, 0.14167705178260803, -0.06100441887974739, -0.08187796920537949, 0.3439028859138489, -0.1306384801864624, -0.2560795545578003, 0.35786914825439453, -0.2479439228773117, -0.33239299058914185, -0.2151791900396347, 0.019928745925426483], [-0.058869004249572754, -0.1980619877576828, -0.22544756531715393, -0.2407136857509613, 0.23807615041732788, 0.3503223657608032, 0.046625517308712006, 0.20943696796894073, 0.18168310821056366, -0.32165810465812683, 0.059393949806690216, 0.1918850541114807, -0.2944161295890808, 0.31076475977897644, 0.07361043244600296, 0.003964629489928484, 0.16781343519687653, -0.17746445536613464, -0.11364319175481796, -0.3137039542198181, -0.14189183712005615, 0.20385348796844482, 0.23561878502368927, -0.04558190703392029, -0.18126681447029114, 0.10125548392534256, -0.3750842809677124, 0.1772535890340805, -0.014840198680758476, 0.08210714906454086, -0.05629163980484009, -0.03862397000193596, 0.1981230229139328, 0.3945184051990509, 0.18351435661315918, -0.1687702089548111, -0.09440957754850388, 0.19872605800628662, 0.13176743686199188, -0.06789855659008026, 0.10257600247859955, 0.3499869108200073, -0.2582753002643585, 0.054893963038921356, 0.24864447116851807, -0.21585756540298462, 0.01584872417151928, 0.012366579845547676, 0.06073768809437752, 0.02212081290781498, -0.13038156926631927, -0.2320428192615509, -0.04844322428107262, -0.11920654773712158, -0.04059648886322975, -0.15788312256336212, 0.5736719369888306, 0.13242526352405548, 0.10533694177865982, -0.07834935188293457, 0.11630058288574219, 0.15676072239875793, -0.2822878360748291, 0.06361202150583267, -0.27951571345329285, -0.0848485678434372, 0.034577298909425735, 0.2793046236038208, -0.22855447232723236, 0.20877985656261444, -0.20062193274497986, 0.052007030695676804, 0.0785084068775177, -0.025578400120139122, -0.042445290833711624, 0.09841807186603546, 0.030111942440271378, -0.0011896201176568866, 0.044769901782274246, -0.06966012716293335, 0.007384483702480793, -0.014781657606363297, -0.11196894198656082, -0.031842391937971115, -0.12567654252052307, -0.2209634929895401, 0.09255404025316238, -0.41493794322013855, 0.052402038127183914, -0.13009892404079437, -0.1644495129585266, -0.03369761258363724, -0.0633566752076149, 0.1564810425043106, 0.27087533473968506, 0.1813686341047287, 0.06044253334403038, -0.19406244158744812, 0.12806639075279236, -0.14147290587425232], [-0.21427318453788757, -0.24925833940505981, 0.13287146389484406, 0.1632954627275467, 0.10512800514698029, 0.0294130127876997, -0.1744493842124939, -0.13199108839035034, -0.052391327917575836, -0.2811010777950287, 0.23043154180049896, -0.2651871144771576, -0.2635080814361572, 0.22436951100826263, 0.18436303734779358, 0.2509896457195282, 0.04965204745531082, -0.09188410639762878, 0.09469281136989594, -0.21749795973300934, -0.020880352705717087, -0.20079922676086426, -0.12082304805517197, 0.1323656439781189, 0.008633089251816273, 0.11405401676893234, -0.1218719333410263, 0.020683247596025467, -0.06070946902036667, -0.11651376634836197, 0.0045613995753228664, -0.10086304694414139, -0.03526298329234123, -0.13623584806919098, -0.10172922164201736, -0.0354660265147686, 0.18996404111385345, 0.0939163863658905, -0.06977128237485886, 0.02360573038458824, 0.17866817116737366, 0.0678301751613617, -0.11882026493549347, 0.19955214858055115, -0.28062936663627625, 0.12391380220651627, -0.09432490170001984, -0.044936902821063995, 0.10004963725805283, -0.1258268803358078, 0.005766001995652914, -0.1939385086297989, -0.30735066533088684, 0.16141167283058167, 0.09214802831411362, -0.0312739722430706, -0.03755442425608635, 0.11595062911510468, 0.018481500446796417, -0.04534878209233284, -0.20664803683757782, -0.08394357562065125, 0.08013156056404114, 0.05991821363568306, -0.15645365417003632, 0.13049061596393585, 0.1046377643942833, -0.02271929755806923, -0.06941907852888107, -0.09470154345035553, -0.13622510433197021, 0.04260718449950218, -0.012596254236996174, 0.1353481262922287, 0.027925629168748856, -0.22217488288879395, -0.08046011626720428, -0.14360296726226807, -0.10632876306772232, 0.055781297385692596, -0.01995234005153179, -0.14425425231456757, 0.14150959253311157, -0.10209916532039642, 0.19935989379882812, -0.012979082763195038, -0.02496257796883583, 0.04205617681145668, -0.12832802534103394, 0.1588093787431717, 0.0236224215477705, 0.1323285698890686, 0.08699742704629898, -0.2624635100364685, 0.1665496975183487, -0.0638107880949974, -0.053382180631160736, 0.04112662747502327, -0.22059087455272675, -0.00012878928100690246], [0.05209790915250778, -0.27863502502441406, -0.042892277240753174, -0.34350961446762085, -0.14151723682880402, -0.1431252807378769, 0.1187528520822525, -0.1391458660364151, -0.07064374536275864, -0.0009133441490121186, 0.17142359912395477, -0.21185292303562164, -0.10154396295547485, -0.022487251088023186, -0.08247751742601395, 0.25001996755599976, -0.08443799614906311, -0.06792361289262772, -0.09505084902048111, -0.25676408410072327, 0.1631709188222885, -0.17571799457073212, 0.1910937875509262, -0.2130526900291443, 0.07559659332036972, 0.1763555407524109, 0.14870838820934296, 0.12487448751926422, 0.41338375210762024, -0.017041383311152458, -0.096525639295578, 0.09525183588266373, -0.0033392393961548805, 0.025817615911364555, -0.04861363023519516, 0.03606182336807251, -0.20691026747226715, 0.01322091743350029, -0.11218462139368057, -0.3220697045326233, -0.0172023493796587, -0.16019421815872192, -0.035630159080028534, 0.08916264027357101, -0.21371091902256012, 0.23719431459903717, -0.03628822788596153, -0.3494444787502289, -0.1394915133714676, 0.022224530577659607, 0.010311540216207504, -0.08975620567798615, 0.23181460797786713, 0.02691645547747612, -0.02973288483917713, 0.04713258147239685, 0.19314204156398773, -0.10502294450998306, -0.16749955713748932, -0.040620941668748856, -0.2552526593208313, 0.26788246631622314, -0.3400932848453522, 0.039724089205265045, 0.25817862153053284, -0.10850886255502701, 0.10949999839067459, -0.10879608988761902, 0.07847066968679428, 0.07444879412651062, 0.06977636367082596, 0.15817372500896454, -0.0034158267080783844, 0.05770636349916458, -0.224075049161911, 0.07306327670812607, -0.08282961696386337, 0.1696338653564453, -0.020169321447610855, 0.14468848705291748, -0.049225904047489166, 0.23739168047904968, -0.3414963185787201, -0.004853046033531427, 0.09345979988574982, 0.17106373608112335, 0.08936376869678497, 0.10211603343486786, 0.03833397477865219, 0.03290484845638275, 0.24383698403835297, -0.06942959874868393, -0.2374439388513565, -0.07611756771802902, 0.27164995670318604, -0.18456225097179413, -0.12106169015169144, 0.28310102224349976, 0.24557414650917053, 0.052021563053131104], [-0.09808893501758575, 0.11594465374946594, 0.19187721610069275, 0.16261090338230133, -0.1981056034564972, -0.22421708703041077, 0.049354180693626404, -0.26779648661613464, 0.05661747232079506, -0.0057106357999145985, -0.2236378788948059, 0.10660320520401001, 0.023183202371001244, 0.09406163543462753, -0.019088326022028923, 0.05828436091542244, 0.017690209671854973, -0.039427321404218674, -0.1559997797012329, 0.013316748663783073, 0.042425982654094696, 0.061515819281339645, -0.3842924237251282, 0.17444351315498352, 0.1539250910282135, -0.2598193287849426, 0.06979019939899445, -0.19704024493694305, -0.15168273448944092, -0.021579211577773094, 0.07506803423166275, 0.288347065448761, -0.02003990113735199, -0.017471449449658394, 0.06998156756162643, 0.3709067404270172, 0.13960622251033783, -0.26773378252983093, 0.03150537237524986, 0.003976684529334307, 0.18549391627311707, 0.11402498930692673, 0.21177683770656586, -0.12910287082195282, 0.1123233437538147, -0.15425263345241547, 0.14816927909851074, 0.0809430256485939, -0.29063892364501953, 0.06614657491445541, 0.011292061768472195, -0.2310749888420105, 0.14680379629135132, 0.020708218216896057, -0.07401107251644135, 0.25994643568992615, 0.11240238696336746, -0.20202036201953888, 0.07207175344228745, 0.1852135807275772, 0.04015082120895386, 0.06178785860538483, -0.0871540755033493, -0.1763995736837387, -0.24841023981571198, 0.16762611269950867, -0.3190087378025055, -0.15596432983875275, 0.2216421216726303, -0.14793500304222107, 0.20560689270496368, -0.09047269076108932, 0.09292173385620117, 0.0651898980140686, 0.2202170044183731, 0.3458450138568878, 0.03587472438812256, -0.16121961176395416, -0.04049437865614891, 0.2028891146183014, 0.16518659889698029, -0.12466851621866226, -0.023834986612200737, -0.05158054828643799, 0.10158839821815491, 0.11573462188243866, -0.3165655732154846, 0.3098876178264618, -0.08836469799280167, -0.02732441946864128, -0.09217868745326996, 0.2217872142791748, 0.12202025949954987, -0.18712835013866425, -0.1009531244635582, 0.022550394758582115, 0.11595876514911652, 0.07950042933225632, 0.11874783039093018, 0.07136150449514389], [0.058242250233888626, 0.14975892007350922, -0.24321214854717255, -0.16760534048080444, 0.3447604179382324, 0.24585601687431335, -0.007109911181032658, 0.483671635389328, -0.1921006143093109, 0.19549930095672607, -0.029417678713798523, 0.15593287348747253, 0.3572328984737396, -0.21221214532852173, -0.11103728413581848, -0.08630753308534622, 0.046233221888542175, -0.11814579367637634, 0.5862647294998169, 0.06854240596294403, -0.10975463688373566, 0.33679187297821045, -0.1080324575304985, -0.14063024520874023, -0.1039571464061737, -0.06701634079217911, -0.06958901137113571, 0.031032780185341835, -0.14709718525409698, 0.3885408639907837, 0.26554813981056213, 0.3079536259174347, 0.05409100651741028, 0.17664393782615662, -0.16705040633678436, -0.07718027383089066, 0.11707528680562973, 0.1636056900024414, 0.05382769927382469, 0.004287490621209145, -0.20571433007717133, 0.311507910490036, -0.05451762303709984, 0.11547532677650452, 0.13848929107189178, -0.20889508724212646, -0.01891445368528366, -0.1246107667684555, 0.2906254529953003, -0.17084117233753204, 0.19658507406711578, 0.06030212342739105, -0.2119813710451126, -0.3978053629398346, 0.22919176518917084, -0.20849692821502686, 0.10330174118280411, 0.19930590689182281, -0.21897973120212555, 0.024888547137379646, 0.07833120971918106, -0.22404228150844574, 0.05728083476424217, 0.16667591035366058, -0.13340577483177185, -0.09549418836832047, -0.23818720877170563, 0.08316420018672943, 0.01665051467716694, -0.1394413262605667, 0.24885785579681396, -0.0021336511708796024, -0.13508601486682892, 0.023318292573094368, 0.15051795542240143, 0.3897925615310669, 0.19242505729198456, -0.13082021474838257, -0.02713363990187645, 0.22602714598178864, 0.03890901431441307, 0.18047913908958435, -0.22333236038684845, 0.02810487151145935, -0.11564210057258606, -0.08723819255828857, 0.23698624968528748, -0.28752872347831726, 0.20391035079956055, -0.23176957666873932, 0.22899208962917328, 0.03045053593814373, -0.23791463673114777, 0.2626568675041199, -0.016965962946414948, 0.12265700101852417, 0.02710621990263462, -0.17562150955200195, 0.10551667213439941, -0.267071932554245], [-0.017528148368000984, -0.45316705107688904, 0.09170464426279068, -0.1744704246520996, 0.12493956089019775, 0.00546785444021225, -0.0018640158232301474, -0.36976468563079834, 0.19454962015151978, 0.22052131593227386, 0.015158191323280334, -0.05492664501070976, -0.050374314188957214, 0.3486577868461609, 0.10816984623670578, -0.26903629302978516, -0.08881743997335434, -0.04964261129498482, 0.5242377519607544, -0.2333643138408661, -0.048830583691596985, 0.17639952898025513, -0.24193650484085083, -0.040993545204401016, -0.29603269696235657, 0.1930893212556839, 0.16692571341991425, -0.04456932470202446, -0.2443082630634308, 0.06354250013828278, 0.031221050769090652, -0.26894092559814453, -0.25951969623565674, -0.0980345755815506, -0.07040713727474213, -0.405348002910614, 0.16479308903217316, 0.21128025650978088, 0.06909454613924026, -0.08351269364356995, 0.06778436154127121, 0.2026001363992691, 0.14986176788806915, 0.18379035592079163, -0.04657820612192154, 0.16447500884532928, -0.1731753796339035, 0.03269582241773605, -0.1470327228307724, -0.40266698598861694, 0.10296148806810379, -0.5281096696853638, -0.13132305443286896, 0.18038776516914368, -0.3119388520717621, 0.2535724937915802, 0.10525155812501907, -0.1920190453529358, 0.07872167229652405, -0.24939768016338348, -0.15835797786712646, -0.26208898425102234, -0.02335091307759285, -0.060946639627218246, -0.08986465632915497, -0.14545311033725739, 0.2606343924999237, 0.042646024376153946, -0.24409249424934387, 0.2794402837753296, -0.01626352034509182, 0.15306617319583893, 0.03299378231167793, 0.06998040527105331, -0.07384701073169708, -0.11123016476631165, 0.13301099836826324, -0.03552345186471939, -0.39397335052490234, 0.11080603301525116, -0.009845025837421417, 0.4767554998397827, -0.28640252351760864, -0.3357161283493042, 0.06917588412761688, 0.24603217840194702, 0.15381230413913727, -0.06178843975067139, 0.11283311992883682, 0.1882462352514267, -0.3853136897087097, -0.11715593189001083, -0.024317782372236252, -0.16426333785057068, 0.2323385328054428, 0.003969669342041016, 0.16097299754619598, -0.35218513011932373, 0.20890751481056213, -0.2016003131866455], [-0.21669414639472961, 0.07543360441923141, 0.12875616550445557, 0.02618243917822838, -0.21442225575447083, -0.24735544621944427, 0.013286600820720196, -0.03810195252299309, 0.1665925681591034, -0.2700813412666321, -0.08679553866386414, 0.1745462715625763, 0.21759139001369476, -0.08306063711643219, -0.0785939171910286, -0.15012367069721222, 0.3406387269496918, 0.2849346697330475, 0.07598347216844559, 0.1067204549908638, 0.11839377135038376, -0.002685546875, -0.1623488962650299, 0.12816572189331055, 0.34995168447494507, 0.09523207694292068, 0.13914057612419128, -0.20161038637161255, 0.40548574924468994, -0.3998856544494629, -0.23283524811267853, -0.10128479450941086, -0.15516838431358337, 0.26189154386520386, 0.11474387347698212, 0.12217938899993896, 0.13894972205162048, 0.09951368719339371, -0.07923081517219543, 0.009322725236415863, 0.24436450004577637, 0.271212637424469, -0.11386580020189285, -0.2635669410228729, -0.18138755857944489, -0.20759893953800201, 0.25689128041267395, -0.21571798622608185, 0.05517452210187912, -0.011294355615973473, 0.03710870072245598, 0.19495105743408203, 0.22410504519939423, 0.13469961285591125, -0.03422478213906288, 0.14037080109119415, -0.06849288940429688, 0.09391991049051285, -0.11309247463941574, -0.4018322229385376, -0.10587228834629059, 0.13595706224441528, 0.15845125913619995, 0.33849093317985535, 0.38749927282333374, -0.11551206558942795, -0.3029763102531433, 0.055248238146305084, 0.3555206060409546, 0.2584720551967621, 0.5455095767974854, -0.2170650213956833, 0.15342074632644653, -0.14828979969024658, 0.12108858674764633, 0.04364052414894104, -0.2504943013191223, -0.5166003108024597, -0.04082699492573738, 0.22590352594852448, 0.24075283110141754, -0.30796587467193604, 0.16614346206188202, -0.052800580859184265, -0.15415701270103455, 0.1182139664888382, 0.007634333800524473, 0.15565034747123718, 0.3399432897567749, 0.050379738211631775, 0.2438610941171646, 0.0182721558958292, 0.23533248901367188, -0.08033935725688934, -0.108637236058712, 0.2388623058795929, 0.11106704920530319, -0.0874694287776947, -0.029192522168159485, 0.15343359112739563], [0.11694257706403732, 0.16314996778964996, -0.34257379174232483, 0.02482275478541851, 0.13295741379261017, 0.2971399426460266, -0.0551220066845417, -0.0795195922255516, 0.16011451184749603, 0.14160166680812836, -0.47472965717315674, -0.08310918509960175, -0.11571123450994492, 0.031001638621091843, -0.17244678735733032, -0.30280375480651855, 0.2392304241657257, -0.10510712116956711, 0.256519079208374, -0.03931668400764465, 0.15200452506542206, 0.19649076461791992, 0.039703719317913055, -0.3899502456188202, -0.18970999121665955, 0.24998462200164795, -0.24152706563472748, 0.29833748936653137, 0.1349940001964569, 0.0015052190283313394, 0.22658418118953705, -0.22373013198375702, -0.051326144486665726, 0.24784407019615173, 0.024402935057878494, -0.2701679766178131, -0.020998191088438034, 0.40263813734054565, 0.09817144274711609, -0.39610177278518677, -0.029057467356324196, -0.15126840770244598, -0.13803842663764954, -0.20730097591876984, 0.04479571059346199, -0.2805401086807251, -0.06362880766391754, 0.007241005543619394, 0.30397287011146545, -0.40968814492225647, -0.07104934006929398, -0.10619388520717621, 0.1646146923303604, -0.18488214910030365, -0.0007730410434305668, -0.3608469069004059, 0.23242789506912231, 0.467837393283844, 0.002080160891637206, -0.13640885055065155, 0.43457290530204773, -0.1566552072763443, 0.03287436068058014, -0.13665826618671417, 0.16230256855487823, 0.017577212303876877, 0.2541055381298065, 0.007051668129861355, 0.028000112622976303, 0.30029258131980896, 0.06473898887634277, -0.03767087683081627, 0.09567602723836899, 0.18445438146591187, -0.11597386747598648, -0.01531508844345808, -0.20199190080165863, 0.12524257600307465, -0.16708289086818695, -0.04797150194644928, -0.1360994130373001, 0.17053534090518951, -0.22687704861164093, 0.035949937999248505, 0.12432738393545151, -0.17913436889648438, 0.24553699791431427, -0.14661136269569397, 0.5255613327026367, -0.034074924886226654, -0.11053311824798584, -0.1952512264251709, -0.16682972013950348, 0.25866755843162537, 0.2939577102661133, -0.07824571430683136, 0.037764642387628555, -0.0838979184627533, -0.06690732389688492, -0.15036937594413757], [-0.39382943511009216, -0.01800045184791088, 0.004531491547822952, 0.42058926820755005, 0.09390558302402496, -0.013218477368354797, -0.1193024292588234, -0.07463514059782028, 0.14334231615066528, -0.1624963879585266, -0.12152917683124542, -0.23557190597057343, -0.04933313652873039, 0.36952224373817444, 0.14584355056285858, -0.0732378140091896, -0.056853149086236954, 0.16864332556724548, -0.10970330983400345, 0.037089038640260696, -0.22517570853233337, -0.2648724615573883, -0.2981758415699005, -0.0866466760635376, 0.0817825123667717, -0.07325650006532669, -0.32334935665130615, -0.36952340602874756, -0.0593736357986927, -0.2514556050300598, 0.11201642453670502, -0.07094581425189972, 0.25249332189559937, 0.10943860560655594, 0.00460194842889905, 0.1091836541891098, -0.18305999040603638, 0.08598353713750839, -0.25431427359580994, -0.08834977447986603, 0.24753506481647491, -0.3071022927761078, -0.03831872344017029, 0.06981667131185532, -0.2816694974899292, -0.059911344200372696, 0.05875484645366669, -0.055278681218624115, -0.13360582292079926, 0.36152440309524536, -0.06538046151399612, -0.22178499400615692, -0.0945989340543747, 0.12434537708759308, -0.008040713146328926, 0.24709872901439667, -0.15572908520698547, -0.07339970767498016, 0.23998427391052246, 0.5063326358795166, -0.20547205209732056, -0.0866340696811676, -0.31492215394973755, -0.1096806675195694, -0.06602001190185547, 0.4304395318031311, -0.0504254475235939, -0.09212315082550049, 0.0021017175167798996, 0.06654571741819382, -0.4134395122528076, 0.022214390337467194, -0.2578781843185425, 0.08679740130901337, 0.20519329607486725, -0.34767019748687744, 0.12757670879364014, -0.31669995188713074, 0.02030007354915142, -0.02225639298558235, -0.024188758805394173, -0.19165177643299103, -0.03575529530644417, -0.036579430103302, -0.1969926655292511, -0.0643937885761261, -0.4908258616924286, 0.01293919887393713, -0.21467557549476624, 0.17590248584747314, -0.28067517280578613, 0.6009755730628967, -0.1413394957780838, -0.09979380667209625, 0.3185451030731201, 0.20301075279712677, -0.2875012159347534, 0.1565553992986679, 0.2903920114040375, 0.20233583450317383], [-0.006397174671292305, 0.20933672785758972, -0.10887676477432251, 0.424020379781723, 0.24730271100997925, 0.1504364162683487, 0.13570301234722137, 0.2719406187534332, -0.2190241813659668, -0.19011689722537994, -0.1521565467119217, 0.0031762709841132164, -0.11980785429477692, 0.15152522921562195, -0.10124360024929047, -0.08640917390584946, -0.017414039000868797, 0.14955449104309082, -0.38577303290367126, 0.17569412291049957, 0.43945062160491943, -0.029028000310063362, 0.15227682888507843, -0.2508310079574585, 0.13026125729084015, 0.30033186078071594, -0.10375777631998062, 0.0024083703756332397, 0.2176257073879242, -0.05612023547291756, 0.1240246370434761, 0.3862682580947876, 0.006066605448722839, 0.2543361186981201, 0.08691231161355972, 0.037170637398958206, -0.06868007779121399, -0.402224063873291, -0.1720835417509079, -0.03352457284927368, -0.0019042710773646832, 0.2380547821521759, -0.02053801156580448, -0.16172488033771515, -0.03005208820104599, 0.05077003315091133, -0.1421288698911667, 0.010538622736930847, -0.09175870567560196, 0.11533918976783752, 0.21245437860488892, 0.04025624692440033, 0.08540447801351547, 0.20883521437644958, 0.17026390135288239, -0.2497328370809555, 0.042608972638845444, -0.09839411824941635, -0.23222896456718445, 0.019818345084786415, 0.11377610266208649, -0.0708392933011055, -0.14479497075080872, 0.2200368195772171, -0.28586652874946594, 0.01947452872991562, 0.18621070683002472, -0.0048917788080871105, -0.24481643736362457, -0.03422366827726364, -0.0018515849951654673, -0.193357914686203, -0.1645311862230301, -0.07885783910751343, -0.06276481598615646, 0.1826399266719818, 0.11616643518209457, -0.16419416666030884, 0.2113921195268631, 0.1556844711303711, -0.1950487196445465, 0.033608611673116684, -0.17775888741016388, 0.06800051033496857, -0.29378199577331543, 0.2302263379096985, 0.10924290865659714, 0.07144087553024292, 0.018431074917316437, -0.14541509747505188, 0.14639964699745178, -0.3467218577861786, 0.09704405814409256, -0.030984940007328987, -0.20425833761692047, 0.4536866247653961, 0.053386587649583817, 0.050279825925827026, -0.2156178206205368, 0.07407388091087341], [-0.003020139178261161, -0.14685507118701935, 0.10954026132822037, 0.4057745337486267, 0.0974997952580452, 0.11958838254213333, -0.12811420857906342, 0.21339187026023865, 0.1323602795600891, -0.013840001076459885, -0.057404372841119766, -0.08719100058078766, 0.1126883253455162, 0.33348536491394043, -0.10162527114152908, -0.13047268986701965, -0.2098410725593567, 0.04508548602461815, 0.027621140703558922, 0.3598708510398865, -0.0014297781744971871, 0.05188830941915512, 0.1582312434911728, 0.004055052995681763, -0.29492202401161194, -0.17570199072360992, -0.08867621421813965, 0.04497358575463295, 0.11215727776288986, -0.02180437184870243, -0.2867535948753357, 0.08361318707466125, 0.05677320063114166, 0.05952924117445946, -0.13338696956634521, 0.06173410639166832, 0.12280118465423584, -0.10262548923492432, 0.11018070578575134, 0.040760111063718796, -0.14440327882766724, 0.1398344188928604, -0.18803730607032776, -0.2093632072210312, 0.2994992136955261, -0.10912342369556427, 0.004232966806739569, 0.049410514533519745, 0.029132671654224396, 0.034693095833063126, 0.21332786977291107, -0.31321167945861816, 0.06862122565507889, 0.19033361971378326, 0.12944047152996063, 0.037639569491147995, 0.2500923275947571, 0.3172034025192261, 0.06449480354785919, -0.37685099244117737, -0.11143891513347626, 0.3663741648197174, 0.15869955718517303, 0.027933252975344658, -0.25810980796813965, 0.05885300040245056, -0.34667864441871643, 0.20308136940002441, 0.05762169510126114, -0.41199666261672974, 0.1216496154665947, 0.15703622996807098, -0.10127332806587219, 0.14321540296077728, 0.30001938343048096, 0.17080554366111755, 0.18116869032382965, -0.04861834645271301, 0.052774276584386826, 0.18409231305122375, 0.012133613228797913, 0.16844190657138824, -0.2532767355442047, 0.2839083969593048, 0.09491465240716934, -0.28925758600234985, 0.05578562617301941, -0.32116395235061646, 0.1110261008143425, -0.368674635887146, -0.07018700987100601, -0.01671983301639557, 0.33280906081199646, 0.09245970100164413, -0.09187773615121841, 0.2911853492259979, 0.34629812836647034, -0.13875433802604675, 0.2466149628162384, -0.11443919688463211], [-0.07494135946035385, -0.3521316945552826, -0.4742797911167145, 0.17408084869384766, 0.41845253109931946, 0.22213096916675568, -0.08825618028640747, 0.10257808864116669, -0.10473785549402237, 0.014068720862269402, 0.3424437344074249, 0.3318479657173157, -0.4413480758666992, -0.08589207381010056, -0.24534770846366882, -0.09837803244590759, 0.23447544872760773, 0.0677628219127655, 0.34376826882362366, -0.31325602531433105, -0.11932746320962906, 0.021995142102241516, 0.006466052960604429, 0.227823868393898, -0.17499157786369324, -0.20137566328048706, -0.1281280368566513, -0.0005531303468160331, 0.15282215178012848, -0.2473207712173462, -0.004414893686771393, -0.23385119438171387, 0.21659812331199646, 0.2729012966156006, 0.16228355467319489, 0.04334275424480438, -0.09296911209821701, 0.17114616930484772, -0.08131464570760727, -0.27529585361480713, 0.16912883520126343, -0.08443909883499146, -0.18361896276474, -0.058106087148189545, 0.2729142904281616, 0.012008442543447018, 0.044365715235471725, -0.3351350724697113, 0.19854804873466492, 0.03195827826857567, -0.1484030932188034, -0.02002534084022045, -0.08210321515798569, 0.35780835151672363, -0.2032892107963562, -0.17990460991859436, 0.03999020904302597, 0.14931923151016235, -0.02990688569843769, -0.20141814649105072, 0.08538032323122025, 0.0068605863489210606, 0.17522913217544556, -0.15685972571372986, 0.11421317607164383, 0.055235397070646286, -0.15922075510025024, 0.21557584404945374, -0.06740103662014008, -0.26812055706977844, -0.41253721714019775, -0.17310266196727753, -0.4719850718975067, -0.31647372245788574, -0.15667930245399475, -0.085564523935318, -0.37845590710639954, 0.1615351140499115, -0.2560552954673767, 0.2793228030204773, -0.0640917420387268, 0.09755668044090271, 0.05138422176241875, 0.2236921191215515, -0.35601937770843506, 0.05278107896447182, -0.06196499615907669, -0.11179810762405396, 0.442676305770874, -0.03220116347074509, 0.037324920296669006, 0.09777472913265228, -0.03599563613533974, 0.09632616490125656, 0.046419259160757065, -0.0815916508436203, 0.18456308543682098, -0.1462770402431488, -0.00262874411419034, 0.15950168669223785], [0.2716810405254364, -0.22556401789188385, 0.163523331284523, -0.07400944828987122, -0.23344367742538452, -0.18266209959983826, -0.13647934794425964, -0.1143467053771019, 0.04762376472353935, -0.198201984167099, -0.0458759069442749, -0.06450578570365906, 0.05142528563737869, -0.0029549840837717056, 0.36424675583839417, 0.03538750484585762, -0.18069696426391602, -0.07782582193613052, 0.11938057839870453, -0.12155349552631378, 0.11260627955198288, 0.303352952003479, 0.061897795647382736, 0.05646008998155594, -0.07619763910770416, 0.0401097796857357, -0.046782076358795166, -0.020464664325118065, -0.12378662824630737, -0.019450340420007706, 0.10410195589065552, -0.032056815922260284, 0.14011332392692566, -0.0859026163816452, 0.15633170306682587, -0.12839441001415253, 0.09043407440185547, 0.29201486706733704, -0.20335713028907776, 0.18758198618888855, -0.06091483682394028, -0.186532661318779, -0.009309167042374611, 0.23858092725276947, -0.2634705901145935, -0.17734786868095398, 0.19862471520900726, -0.09360241889953613, -0.20314840972423553, 0.2500642240047455, -0.10722175240516663, -0.26584702730178833, 0.08748135715723038, 0.05133400112390518, -0.22470074892044067, -0.22930574417114258, 0.30332881212234497, -0.03493190184235573, -0.04120413959026337, 0.10496626049280167, 0.16141149401664734, -0.2235916405916214, 0.017151426523923874, 0.01743621751666069, 0.04872707277536392, -0.02886771969497204, 0.27364209294319153, -0.1207459345459938, -0.4992617070674896, 0.04277178645133972, -0.053465310484170914, 0.022647690027952194, 0.21486295759677887, -0.3931433856487274, -0.08166742324829102, -0.15857037901878357, 0.11209319531917572, -0.16802188754081726, 0.3351083993911743, -0.23094142973423004, -0.15168878436088562, 0.08721340447664261, 0.13675391674041748, -0.04173251613974571, 0.3532424867153168, -0.04676536098122597, -0.22977608442306519, -0.2383943498134613, -0.20833399891853333, 0.3025231957435608, -0.16688533127307892, -0.029000837355852127, -0.13381393253803253, -0.09371177852153778, 0.39279642701148987, -0.13054464757442474, 0.01317021157592535, -0.14707112312316895, 0.07738976180553436, -0.08704913407564163], [-0.1928357183933258, 0.18312861025333405, 0.16398653388023376, 0.3694520890712738, -0.44557714462280273, 0.011408480815589428, -0.1708894670009613, -0.1343757063150406, -0.3166649341583252, -0.015062310732901096, 0.08348660916090012, 0.26345422863960266, 0.18152271211147308, 0.02664097771048546, 0.30911698937416077, -0.015622399747371674, -0.14854854345321655, 0.21567358076572418, 0.22599300742149353, 0.06881238520145416, 0.11574375629425049, 0.38036495447158813, 0.07802917063236237, 0.13265956938266754, -0.1774814873933792, 0.23445531725883484, 0.3236491084098816, 0.2297317087650299, 0.4036654233932495, 0.5095825791358948, -0.3484272062778473, 0.08515562862157822, 0.022663643583655357, -0.3654470443725586, 0.23945352435112, -0.20334766805171967, -0.01994544081389904, 0.11223101615905762, 0.19715870916843414, 0.09903626888990402, -0.15528251230716705, -0.020014405250549316, 0.35625120997428894, 0.369742751121521, -0.19746822118759155, 0.27967745065689087, 0.1310528963804245, -0.17027419805526733, -0.03533774986863136, -0.40252992510795593, -0.106913723051548, 0.1625547856092453, 0.3090919554233551, 0.025019459426403046, 0.18080998957157135, 0.2123776227235794, -0.2722795009613037, -0.0222160667181015, 0.23592022061347961, -0.023360474035143852, 0.21891961991786957, 0.011248758994042873, 0.321195125579834, -0.0076311067678034306, -0.4055502414703369, 0.10299724340438843, 0.1389411836862564, -0.05795695260167122, 0.22104954719543457, 0.008109583519399166, -0.08476056903600693, 0.17059989273548126, -0.35909444093704224, 0.29957470297813416, 0.14029641449451447, -0.03277391195297241, 0.3346884250640869, 0.05489099398255348, 0.08838777989149094, 0.06675827503204346, 0.41675955057144165, -0.14063352346420288, 0.22585704922676086, -0.23745174705982208, -0.30195364356040955, 0.27163058519363403, 0.33518359065055847, 0.4966365396976471, 0.03847094625234604, -0.2475636601448059, -0.020000841468572617, 0.08513528108596802, -0.04197608679533005, -0.3029521703720093, -0.05761884152889252, 0.06687233597040176, -0.2787209153175354, -0.32643482089042664, 0.0979173332452774, 0.1233859658241272], [-0.0876384973526001, -0.04405995085835457, -0.2746313214302063, -0.20113979279994965, 0.27304354310035706, 0.10127782821655273, 2.9992499548825435e-05, -0.26548653841018677, -0.1280526965856552, 0.1293083280324936, 0.042516279965639114, -0.1673145890235901, 0.3020526170730591, 0.12007112801074982, -0.21558469533920288, -0.22260789573192596, -0.09162077307701111, -0.2260209172964096, 0.42935875058174133, 0.2315557301044464, -0.18590687215328217, 0.08364539593458176, -0.2686088979244232, -0.109174944460392, 0.16952188313007355, 0.0023050103336572647, 0.0855904221534729, 0.06426350027322769, -0.0810113474726677, 0.3862352967262268, 0.013833952136337757, 0.08606544882059097, -0.20770755410194397, 0.32201075553894043, 0.12483047693967819, 0.032699454575777054, 0.22908306121826172, 0.1109839528799057, 0.05815379321575165, -0.3640914261341095, -0.24019968509674072, -0.20818404853343964, -0.04039072245359421, 0.022141093388199806, 0.0886371061205864, -0.02220306731760502, 0.2847552001476288, 0.2570147216320038, -0.3212077021598816, -0.1769549697637558, 0.2503699064254761, 0.5918099284172058, -0.14466264843940735, -0.10118193179368973, 0.08679531514644623, 0.058487407863140106, 0.03797129914164543, -0.37642717361450195, -0.0652594193816185, -0.038899824023246765, -0.09741020947694778, -0.09974177181720734, -0.3924097418785095, -0.20774522423744202, -0.02718273736536503, 0.25864389538764954, 0.14550717175006866, -0.2640421986579895, 0.036744218319654465, 0.27333030104637146, -0.013044115155935287, 0.447712242603302, -0.2986251413822174, -0.2518370449542999, -0.23623503744602203, -0.024924231693148613, 0.0618426613509655, 0.06576093286275864, -0.23530611395835876, 0.442904531955719, 0.12246237695217133, -0.14821678400039673, -0.06725560873746872, -0.13190104067325592, 0.18735408782958984, 0.06204243004322052, 0.27481213212013245, 0.03850303590297699, 0.06518623232841492, 0.18660429120063782, -0.05741320922970772, -0.16727110743522644, 0.09662081301212311, 0.040787700563669205, 0.20457389950752258, -0.025331275537610054, 0.07565153390169144, -0.3141196668148041, -0.17338472604751587, 0.18078000843524933], [-0.12376636266708374, 0.02497079037129879, -0.010266021825373173, 0.07868872582912445, 0.050993114709854126, -0.08364910632371902, -0.09740205854177475, -0.1592913717031479, -0.10796402394771576, 0.03393714129924774, -0.03186241164803505, -0.009211776778101921, 0.3408745527267456, 0.22842258214950562, 0.12404186278581619, 0.1141393855214119, -0.14741411805152893, 0.20492707192897797, -0.22916428744792938, 0.32220935821533203, 0.10103115439414978, 0.10264907777309418, -0.22556675970554352, -0.033650610595941544, 0.34980854392051697, -0.11872204393148422, 0.09140560775995255, -0.0818396583199501, 0.022030310705304146, -0.009660037234425545, -0.05393920838832855, -0.06662029027938843, -0.06122361868619919, 0.2347724586725235, -0.15477849543094635, 0.1520337164402008, 0.09631489217281342, -0.2964012026786804, 0.24248646199703217, 0.23342163860797882, 0.2743242383003235, 0.14338098466396332, -0.3243204355239868, -0.2870042026042938, 0.06610850244760513, 0.22022755444049835, -0.126388818025589, -0.2074776291847229, 0.1628284454345703, 0.14147403836250305, -0.0002938576217275113, -0.3001651167869568, 0.17635488510131836, 0.15152709186077118, -0.01638306863605976, -0.08819196373224258, 0.13190247118473053, 0.10837144404649734, -0.2715457081794739, -0.03622892498970032, 0.09024094045162201, -0.20402617752552032, 0.10717364400625229, 0.1649375557899475, 0.02098904736340046, -0.03280847147107124, -0.09439121186733246, -0.16805335879325867, -0.06055350974202156, -0.04446437954902649, 0.1901020109653473, -0.33237287402153015, 0.44266048073768616, 0.060801658779382706, 0.10036682337522507, -0.04367027059197426, 0.031033433973789215, -0.0024063633754849434, 0.015586069785058498, 0.3099573850631714, 0.3163035213947296, -0.039814479649066925, 0.015099883079528809, 0.1645689755678177, 0.21260403096675873, -0.19955623149871826, -0.19007183611392975, -0.18794551491737366, -0.17615599930286407, 0.47857388854026794, 0.19888488948345184, 0.15428723394870758, 0.1591569185256958, 0.2331632524728775, -0.4255780279636383, 0.07259032130241394, 0.19563975930213928, -0.02976427599787712, -0.21187153458595276, -0.16871696710586548], [-0.06451936066150665, 0.13845857977867126, 0.022724192589521408, -0.15733645856380463, 0.15734349191188812, 0.024679234251379967, 0.12439041584730148, 0.32492098212242126, -0.15518657863140106, 0.29007387161254883, -0.014694657176733017, 0.17058829963207245, -0.11294515430927277, -0.028848979622125626, -0.08645925670862198, -0.1015326976776123, 0.2390589565038681, 0.034364014863967896, 0.07729868590831757, -0.15668100118637085, -0.16354717314243317, 0.0341590940952301, 0.13528987765312195, 0.3950462341308594, -0.33886459469795227, -0.37319043278694153, -0.021186068654060364, -0.10047890990972519, 0.11243883520364761, 0.29734623432159424, -0.14970558881759644, -0.16024373471736908, 0.13084200024604797, -0.16786500811576843, -0.151839941740036, -0.10875874757766724, 0.2974572479724884, 0.38918888568878174, 0.0999693050980568, 0.11131223291158676, 0.10066475719213486, 0.40040072798728943, 0.12402915954589844, 0.0053871991112828255, -0.03490316867828369, -0.16373832523822784, 0.16653257608413696, -0.028630472719669342, 0.020390762016177177, -0.18597237765789032, -0.17624932527542114, 0.029718250036239624, 0.06300114840269089, -0.19526374340057373, -0.187981516122818, 0.14650560915470123, 0.028828347101807594, 0.23771508038043976, 0.03832225874066353, -0.11921689659357071, 0.1661691814661026, -0.0660969465970993, -0.12096705287694931, 0.08674254268407822, -0.14807343482971191, 0.027062347158789635, -0.1927841752767563, 0.44675421714782715, -0.028851695358753204, -0.198121577501297, -0.09234147518873215, 0.12236744165420532, -0.22076073288917542, 0.12321235984563828, -0.26442068815231323, 0.4002765715122223, 0.08924674987792969, -0.04875725507736206, 0.38219311833381653, -0.28208979964256287, 0.13246166706085205, 0.06910818815231323, -0.04383634403347969, -0.18201515078544617, 0.3204737901687622, 0.03387065976858139, 0.2888058125972748, -0.18537074327468872, 0.17399322986602783, -0.21855343878269196, -0.33628976345062256, -0.14800500869750977, -0.4992166757583618, 0.24568681418895721, -0.011848625726997852, -0.26744163036346436, 0.09206917136907578, -0.041252315044403076, -0.05408520996570587, 0.0033560770098119974], [-0.26494789123535156, 0.021531792357563972, -0.3674802780151367, 0.015430844388902187, -0.26752781867980957, -0.011321498081088066, -0.03374047577381134, 0.021782100200653076, 0.10767807066440582, 0.09494606405496597, 0.017645545303821564, 0.06341471523046494, -0.2384178191423416, -0.09077759087085724, -0.3291589617729187, -0.12711068987846375, 0.07457873970270157, -0.046368394047021866, 0.10177034884691238, -0.2632535398006439, -0.1057393029332161, -0.10446075350046158, -0.3609280586242676, -0.1666450947523117, -0.21678394079208374, 0.11036066710948944, -0.07241307199001312, 0.0642256960272789, 0.07652024179697037, -0.2337656170129776, 0.045648906379938126, -0.2253458946943283, -0.08256051689386368, -0.07603541016578674, 0.377413272857666, -0.05713334679603577, 0.09508249908685684, 0.1278606504201889, 0.07894525676965714, -0.13924621045589447, 0.3340426981449127, 0.2625798285007477, -0.24431195855140686, 0.20374774932861328, 0.013153529725968838, 0.12059365212917328, 0.009196711704134941, 0.20738448202610016, -0.09991995990276337, -0.001789790578186512, 0.10157745331525803, 0.00491122342646122, -0.254152774810791, -0.12894870340824127, -0.03965064510703087, 0.2252800613641739, -0.3209385871887207, 0.012064575217664242, 0.374573677778244, 0.12287120521068573, 0.023358236998319626, 0.09256824851036072, -0.17893780767917633, 0.31940972805023193, 0.010158251971006393, 0.0030097560957074165, -0.18106180429458618, -0.1180536150932312, 0.14011619985103607, 0.07562238723039627, 0.08950638771057129, -0.21347595751285553, -0.15088188648223877, 0.16468924283981323, 0.10265365242958069, -0.08881397545337677, 0.13886982202529907, -0.22399859130382538, -0.3521529734134674, 0.1910383105278015, -0.022909071296453476, -0.00261181709356606, 0.19970563054084778, -0.05696176737546921, 0.027478380128741264, -0.06314974278211594, -0.06781432032585144, -0.08456224203109741, 0.14669078588485718, 0.10879412293434143, -0.21126800775527954, -0.31158018112182617, -0.09812737256288528, 0.03796366602182388, 0.010887102223932743, 0.24990765750408173, -0.2978675961494446, -0.1032661572098732, -0.06737233698368073, -0.04445420578122139], [0.09953977167606354, 0.039213381707668304, 0.1634930521249771, 0.326309472322464, 0.18510092794895172, 0.034680332988500595, -0.3086576461791992, 0.42239198088645935, 0.39465853571891785, 0.07708979398012161, 0.004597850609570742, -0.21434326469898224, -0.017061790451407433, 0.3184873163700104, 0.016167664900422096, 0.24899087846279144, 0.2589136064052582, -0.006325097288936377, 0.0946212187409401, -0.018172085285186768, 0.42490634322166443, -0.08841273188591003, -0.042484037578105927, -0.39458343386650085, 0.497548371553421, 0.005321119911968708, -0.2978113889694214, 0.2548113167285919, 0.027831517159938812, 0.0800548642873764, -0.02536453865468502, 0.1559579223394394, -0.2012302130460739, 0.06280480325222015, -0.11394970118999481, -0.37957528233528137, 0.06298421323299408, 0.018670419231057167, 0.18813958764076233, -0.4051927328109741, -0.004397225566208363, 0.011070610024034977, -0.15300998091697693, 0.023232342675328255, -0.00744240079075098, -0.2299472987651825, -0.1951112449169159, -0.008866975083947182, -0.20053556561470032, -0.21200384199619293, 0.0568963848054409, -0.24967822432518005, -0.23498126864433289, 0.25188225507736206, 0.13755273818969727, -0.19121190905570984, 0.24525222182273865, -0.050336796790361404, 0.038246698677539825, -0.11007262766361237, 0.5091230273246765, 0.05542333424091339, 0.3842184841632843, 0.159488707780838, 0.11235245317220688, 0.023376526311039925, -0.14770683646202087, -0.08160741627216339, -0.08216893672943115, 0.0400019995868206, 0.2235938012599945, -0.33824294805526733, 0.39866358041763306, -0.040494583547115326, 0.377798855304718, -0.0507335439324379, 0.13902772963047028, -0.5722982883453369, -0.17500457167625427, 0.14518345892429352, -0.06757963448762894, -0.022615032270550728, -0.22535118460655212, 0.14443089067935944, 0.13673318922519684, 0.018217315897345543, 0.246022567152977, -0.091112419962883, 0.16137292981147766, 0.14569710195064545, -0.03361118957400322, -0.03884517028927803, 0.07123738527297974, -0.07961435616016388, 0.17412345111370087, 0.09349686652421951, 0.2556476294994354, 0.32193368673324585, -0.022034844383597374, 0.12822353839874268], [0.0651320144534111, -0.2095579355955124, 0.19553367793560028, 0.20809243619441986, 0.09179303050041199, 0.27262651920318604, -0.12238519638776779, -0.07651837170124054, 0.11775491386651993, 0.07791594415903091, -0.21989446878433228, 0.04888011887669563, 0.1896640956401825, -0.012027409859001637, -0.060090385377407074, -0.06478925794363022, 0.06737934798002243, 0.04879709333181381, 0.26337477564811707, 0.10475244373083115, -0.005068385042250156, 0.17948076128959656, 0.10872935503721237, 0.21644523739814758, -0.153878852725029, -0.2600265145301819, -0.16273386776447296, -0.346232146024704, 0.3256996273994446, -0.06306511163711548, -0.37480828166007996, 0.025498896837234497, 0.189890056848526, -0.0399126298725605, -0.22531622648239136, -0.24552640318870544, -0.13267925381660461, -0.004390398971736431, -0.13033552467823029, -0.28542283177375793, 0.17126236855983734, 0.0510847382247448, -0.04012677073478699, 0.18443597853183746, -0.3774329125881195, 0.011245825327932835, 0.055500514805316925, -0.19133616983890533, -0.0027351034805178642, 0.06837671995162964, -0.34873348474502563, -0.06801337003707886, -0.10252577811479568, 0.2176806479692459, -0.14829137921333313, -0.10409093648195267, 0.06375634670257568, -0.23380738496780396, 0.23752529919147491, -0.17289888858795166, -0.3382461369037628, -0.012263103388249874, 0.039345066994428635, -0.21777772903442383, -0.21299901604652405, 0.3658764958381653, 0.005053307395428419, 0.21413452923297882, 0.01949646882712841, 0.0351252481341362, 0.034542299807071686, 0.19182105362415314, 0.003955184947699308, -0.0834057629108429, 0.015358012169599533, 0.0436069518327713, 0.2628810405731201, 0.006945251487195492, 0.13602392375469208, 0.21798917651176453, 0.3431784510612488, 0.2830844223499298, 0.09049505740404129, 0.2554722726345062, 0.1427372395992279, 0.25594866275787354, 0.17538075149059296, -0.19709932804107666, -0.06447233259677887, -0.16921527683734894, -0.160895437002182, 0.3267240822315216, -0.29266199469566345, 0.020653514191508293, 0.17780061066150665, 0.20761941373348236, 0.2956725060939789, 0.05693310871720314, 0.09908666461706161, -0.05083063617348671], [0.1658676713705063, 0.10287116467952728, -0.1436721384525299, 0.0957803949713707, 0.3428363502025604, 0.018878454342484474, 0.013356654904782772, -0.13029031455516815, 0.1980828046798706, 0.010674414224922657, -0.09677416831254959, 0.026018192991614342, 0.12281747907400131, 0.39131930470466614, -0.047527749091386795, -0.10337354987859726, 0.25577688217163086, -0.23479485511779785, 0.1170695573091507, -0.04854248836636543, 0.3877592086791992, -0.22031733393669128, 0.03932571038603783, 0.0012652958976104856, -0.19419142603874207, -0.23414938151836395, 0.11599892377853394, -0.1393229216337204, -0.30469945073127747, -0.040390077978372574, -0.2049771100282669, -0.17606623470783234, -0.2748928368091583, 0.11790759861469269, -0.1597854644060135, 0.10168874263763428, 0.2256661206483841, -0.0323612205684185, 0.01749604009091854, 0.3073667883872986, -0.2535126507282257, -0.20152384042739868, 0.0823722630739212, 0.08923156559467316, -0.023557735607028008, 0.09967347234487534, -0.269910603761673, 0.11668811738491058, 0.33403584361076355, -0.014752974733710289, 0.3585115075111389, -0.25565195083618164, -0.41667288541793823, -0.04724648967385292, 0.2811923921108246, -0.04843679070472717, 0.12305329740047455, -0.2417641133069992, 0.1569736897945404, -0.021061968058347702, -0.26137176156044006, -0.14867953956127167, 0.03865790367126465, 0.20705287158489227, -0.36488258838653564, 0.2090095728635788, 0.05629764869809151, 0.030733201652765274, -0.1892004907131195, 0.10180158913135529, -0.13715748488903046, 0.29089727997779846, 0.17252637445926666, 0.09570930898189545, 0.022123711183667183, 0.22447015345096588, 0.304474800825119, -0.14201653003692627, 0.04835214838385582, 0.35415104031562805, -0.32230305671691895, 0.02573333866894245, -0.01652282103896141, -0.16361795365810394, 0.028243636712431908, 0.2926827669143677, 0.03163112327456474, -0.2964213788509369, 0.07800909131765366, 0.19893763959407806, 0.024110382422804832, 0.10742386430501938, -0.09572092443704605, -0.05755431950092316, -0.014857217669487, -0.11956559121608734, 0.10938135534524918, -0.13993696868419647, -0.07276304066181183, -0.10862205922603607], [0.22731320559978485, -0.27427035570144653, -0.022225214168429375, 0.35131391882896423, 0.24765238165855408, 0.17177553474903107, -0.22958898544311523, -0.09117338061332703, 0.3758707344532013, -0.047897160053253174, -0.12113688141107559, -0.13828864693641663, -0.017479445785284042, 0.018672747537493706, -0.11482783406972885, 0.1337469518184662, -0.2831728160381317, 0.02816055342555046, 0.11879182606935501, -0.1321544051170349, 0.47481295466423035, -0.05366290733218193, 0.10697536170482635, 0.12202752381563187, 0.06274925172328949, -0.16708029806613922, -0.08169453591108322, 0.062106166034936905, 0.06666262447834015, -0.28631070256233215, -0.25031164288520813, -0.2521738111972809, -0.29542532563209534, 0.04547131061553955, -0.20151552557945251, -0.10282501578330994, -0.155204638838768, -0.036059752106666565, -0.1790335774421692, -0.10322325676679611, 0.11720523238182068, 0.23356999456882477, -0.06242048367857933, -0.08497756719589233, 0.07369645684957504, -0.24878226220607758, 0.1350255310535431, 0.0985182672739029, 0.04121663421392441, -0.08383879065513611, 0.009598849341273308, -0.0007381384493783116, -0.05292421951889992, 0.10476134717464447, 0.013903360813856125, -0.17962808907032013, 0.19253785908222198, 0.1968061327934265, -0.25734102725982666, -0.0040191421285271645, -0.1484067738056183, 0.299947053194046, -0.020586898550391197, 0.1527571678161621, -0.046477269381284714, 0.1996290534734726, -0.25228896737098694, -0.018411368131637573, 0.24119946360588074, -0.15126562118530273, -0.0897630825638771, -0.17980588972568512, -0.05265265330672264, -0.34563496708869934, -0.04048272594809532, -0.24022483825683594, -0.11608138680458069, 0.1617611050605774, -0.09347715973854065, -0.015389489941298962, -0.04140543192625046, 0.23727238178253174, -0.17554360628128052, 0.23116463422775269, -0.06149781122803688, -0.06318344175815582, 0.0627988800406456, -0.22669650614261627, -0.11188941448926926, -0.013628385029733181, -0.07275951653718948, 0.07490857690572739, -0.12928643822669983, -0.16154353320598602, 0.014840543270111084, 0.07994460314512253, 0.16553547978401184, -0.05245320498943329, -0.10098672658205032, -0.20487508177757263], [-0.15389400720596313, 0.05918571352958679, 0.2415832132101059, -0.23454363644123077, -0.030895764008164406, 0.2258181869983673, -0.1459418386220932, 0.02837786078453064, -0.06110670417547226, 0.060770850628614426, 0.19109132885932922, 0.1379411220550537, 0.08135177940130234, -0.01086121890693903, 0.005889676511287689, -0.17736144363880157, 0.08025901764631271, -0.12287604063749313, -0.26383888721466064, 0.05262579023838043, 0.0295545794069767, -0.22497797012329102, 0.022379323840141296, 0.20333518087863922, -0.11039634048938751, -0.21321605145931244, 0.02973810024559498, 0.3013400137424469, 0.017633430659770966, -0.18766658008098602, -0.15964850783348083, -0.16638247668743134, 0.24205239117145538, 0.3549416661262512, 0.08730015903711319, 0.30243927240371704, -0.016231892630457878, 0.31314408779144287, 0.102237269282341, 0.28662052750587463, -0.11439202725887299, -0.09954340010881424, 0.18617233633995056, 0.11848720908164978, 0.14438502490520477, -0.30855733156204224, -0.20995837450027466, -0.31922227144241333, 0.07016979157924652, 0.17848491668701172, -0.1194583997130394, -0.24559085071086884, 0.08842135965824127, 0.14497675001621246, 0.19299566745758057, -0.4517802298069, 0.34787172079086304, -0.07160425186157227, 0.21711023151874542, 0.10861101746559143, -0.3043151795864105, 0.11855854839086533, 0.238372340798378, -0.03284704312682152, -0.17407983541488647, 0.20871682465076447, -0.23569749295711517, 0.04799990728497505, -0.1843772828578949, -0.2533266544342041, 