{"ent_embeddings.weight": [[-0.06698068976402283, 0.07157550752162933, 0.029408862814307213, 0.18340860307216644, -0.04993103817105293, -0.11848465353250504, 0.24944402277469635, 0.3153122365474701, 0.10080236941576004, -0.1840081810951233, -0.28036800026893616, 0.1250041127204895, -0.2268119901418686, -0.22369778156280518, -0.30651921033859253, 0.18361422419548035, -0.11087783426046371, -0.08306027203798294, 0.05843518674373627, -0.1526920646429062, 0.32575973868370056, -0.006347456481307745, -0.029699407517910004, 0.017147338017821312, 0.16386930644512177, -0.022929655387997627, -0.044366639107465744, -0.023515334352850914, -0.0303039588034153, -0.3016935884952545, -0.19231928884983063, -0.10260239243507385, 0.12376335263252258, 0.10035797953605652, -0.014712005853652954, -0.1174585223197937, 0.1173006147146225, -0.07723210006952286, -0.22362467646598816, 0.015294653363525867, 0.02821577712893486, 0.007940751500427723, -0.15786366164684296, -0.10885512083768845, 0.25293076038360596, -0.13925081491470337, -0.034611862152814865, 0.26398220658302307, 0.1797226518392563, 0.041529543697834015, 0.21010030806064606, -0.11981688439846039, 0.17168965935707092, -0.19657018780708313, -0.27215835452079773, 0.17575831711292267, 0.04090770706534386, 0.15222762525081635, 0.02096766047179699, -0.1294642686843872, 0.20163509249687195, 0.11676184833049774, 0.15087465941905975, -0.09052668511867523, -0.013927397318184376, -0.059690605849027634, 0.12707161903381348, -0.1871129423379898, -0.025256669148802757, -0.1279161125421524, 0.050496309995651245, 0.021505938842892647, 0.08485157787799835, -0.06597386300563812, 0.10337434709072113, 0.38280653953552246, 0.10511176288127899, -0.2267829179763794, 0.09653434157371521, 0.16974633932113647, -0.1334911584854126, 0.2367294728755951, 0.02704351767897606, -0.05317474156618118, 0.09218791872262955, 0.06669272482395172, 0.0011918751988559961, 0.11496192216873169, 0.126100093126297, -0.02497725747525692, 0.02151612564921379, -0.223426952958107, -0.048740729689598083, -0.03681844845414162, 0.26058104634284973, -0.0007598734810017049, 0.061503227800130844, 0.06531260162591934, -0.12282454967498779, -0.014680223539471626], [0.07687164098024368, 0.0704052522778511, 0.18967615067958832, -0.24204441905021667, 0.22888119518756866, 0.3120543956756592, 0.2634613811969757, 0.24150080978870392, -0.33642005920410156, -0.11326783150434494, -0.29117292165756226, -0.26317155361175537, -0.11492346972227097, -0.1104234978556633, 0.016656652092933655, 0.003790603717789054, -0.18577377498149872, -0.08082721382379532, -0.08719675987958908, -0.17562764883041382, -0.018350105732679367, -0.21283075213432312, 0.29021596908569336, 0.09471382945775986, -0.10924109071493149, -0.10827592015266418, 0.21677644550800323, 0.014951382763683796, -0.12131530046463013, -0.3037142753601074, -0.127318874001503, -0.02955484949052334, -0.028826754540205002, -0.08994699269533157, -0.1410423070192337, 0.31823596358299255, 0.009908800013363361, -0.2134934961795807, -0.367928147315979, 0.13976982235908508, 0.016210604459047318, -0.01966824010014534, 0.20985595881938934, 0.2882941961288452, -0.011234952136874199, -0.06616447865962982, 0.01671666093170643, 0.3811075687408447, -0.23766231536865234, -0.20549429953098297, -0.11176309734582901, 0.045823320746421814, -0.42655277252197266, 0.14291705191135406, -0.07813532650470734, -0.18989694118499756, 0.045494839549064636, -0.2478640228509903, 0.1375570446252823, 0.16493798792362213, 0.3118513226509094, 0.05482257530093193, -0.1319286972284317, 0.021980222314596176, 0.04100276529788971, -0.05296463519334793, -0.1342427283525467, -0.158664271235466, 0.14657793939113617, -0.16222546994686127, 0.14330530166625977, -0.021843591704964638, 0.023255648091435432, -0.0010660687694326043, -0.13277508318424225, 0.06603184342384338, 0.039516616612672806, -0.21059294044971466, -0.2150404155254364, -0.12163690477609634, -0.12862791121006012, 0.1361844539642334, -0.022274931892752647, -0.009162398986518383, 0.2934991717338562, 0.05318354815244675, -0.19830843806266785, 0.26499518752098083, -0.23475490510463715, -0.009332404471933842, -0.019222984090447426, 0.16329139471054077, 0.058523934334516525, 0.19496630132198334, 0.2079397588968277, -0.21423403918743134, -0.1326766014099121, 0.3403080105781555, 0.04969993233680725, 0.1095896065235138], [-0.20442286133766174, -0.058858972042798996, -0.12259994447231293, -0.28474342823028564, 0.09566546231508255, -0.21194273233413696, -0.40463870763778687, -0.2525140345096588, -0.0758693590760231, -0.46699362993240356, -0.38481661677360535, -0.08599385619163513, 0.06303585320711136, -0.3419642448425293, -0.09112396091222763, 0.32297155261039734, -0.4708721935749054, -0.22921064496040344, -0.24709324538707733, -0.042249247431755066, 0.1246107667684555, -0.019579505547881126, -0.10758953541517258, 0.25488704442977905, -0.31293919682502747, 0.47261565923690796, 0.04570480063557625, 0.3207704424858093, 0.15939785540103912, -0.15363477170467377, -0.05593293905258179, 0.06134926900267601, 0.3758750259876251, -0.14935292303562164, -0.1633879542350769, -0.34754252433776855, -0.1934850662946701, 0.08277454227209091, 0.24397829174995422, -0.31140440702438354, -0.21114052832126617, 0.2138303518295288, -0.34402579069137573, 0.3694256544113159, 0.027867158874869347, -0.14812937378883362, 0.02395865134894848, 0.11011189967393875, 0.10888809710741043, 0.03769923001527786, -0.13221995532512665, 0.2835938632488251, 0.18067726492881775, -0.031923774629831314, 0.09764355421066284, 0.26220932602882385, 0.27281269431114197, -0.060537189245224, 0.3427979350090027, -0.17741914093494415, -0.21600055694580078, 0.028629889711737633, 0.05745811015367508, -0.2791367769241333, 0.2255396544933319, -0.22412724792957306, -0.11635098606348038, -0.1127571314573288, -0.052425529807806015, -0.0829925686120987, -0.1320875883102417, -0.3588430881500244, 0.21249282360076904, -0.18857792019844055, 0.40459543466567993, 0.16101543605327606, -0.09758927673101425, 0.3816552460193634, 0.237745001912117, -0.026429491117596626, 0.023714644834399223, -0.04428228363394737, 0.22474095225334167, -0.028248826041817665, 0.11554503440856934, -0.10741046816110611, 0.2796204090118408, -0.09740535914897919, 0.36486658453941345, -0.17415568232536316, -0.4066832661628723, 0.06616004556417465, 0.2635590434074402, -0.26400026679039, 0.42672690749168396, 0.37588804960250854, 0.21689751744270325, -0.38010725378990173, -0.06190440058708191, 0.2674843966960907], [-0.1691632866859436, -0.19455018639564514, -0.0015152612468227744, 0.017129000276327133, 0.20753808319568634, -0.14557930827140808, 0.060665108263492584, 0.023068875074386597, 0.12440378218889236, 0.0857250764966011, 0.5380832552909851, -0.0619923435151577, -0.19057445228099823, 0.213356614112854, 0.037899602204561234, 0.18111272156238556, 0.17787402868270874, 0.12149035930633545, -0.04103685915470123, 0.11648190766572952, 0.04892586171627045, 0.1537012755870819, -0.0519770085811615, 0.031169362366199493, 0.15400247275829315, 0.2528146207332611, -0.2904934585094452, 0.049309633672237396, -0.2848385274410248, 0.15383349359035492, -0.17543315887451172, -0.1465679258108139, -0.044615667313337326, 0.2667728364467621, 0.17623955011367798, -0.02047865092754364, -0.2942231297492981, -0.009704754687845707, -0.053206734359264374, -0.0883677676320076, 0.35316359996795654, -0.1161307618021965, 0.1766766458749771, -0.002824425930157304, -0.2005089968442917, 0.17471934854984283, -0.048284098505973816, -0.028344476595520973, -0.06879004091024399, 0.20402057468891144, 0.3180130124092102, -0.17985908687114716, 0.1862878054380417, -0.15486884117126465, -0.04871362820267677, 0.27171164751052856, 0.1459905207157135, -0.058868374675512314, -0.05080830305814743, -0.3760327398777008, 0.0007735476247034967, -0.10983291268348694, 0.14768177270889282, 0.262237012386322, 0.07556338608264923, -0.013990781269967556, 0.07294581085443497, 0.02220822498202324, 0.271270215511322, -0.0003543663478922099, 0.04115525260567665, 0.09128840267658234, -0.25300970673561096, 0.10877861827611923, 0.11878204345703125, 0.43932515382766724, 0.023582667112350464, 0.14370429515838623, -0.003850301494821906, -0.06153959408402443, 0.17951162159442902, -0.23677627742290497, -0.11907275766134262, -0.04790734127163887, 0.1821918785572052, -0.21239538490772247, -0.03150998055934906, 0.4449501633644104, -0.18273457884788513, -0.04877057299017906, 0.04072216898202896, -0.38844817876815796, 0.058709561824798584, 0.1646389365196228, -0.4304277300834656, -0.1342681497335434, 0.042806077748537064, -0.023759126663208008, 0.05425133556127548, -0.35481712222099304], [-0.03879738599061966, -0.3368017375469208, -0.11742361634969711, 0.04925250634551048, -0.2532969117164612, -0.38664010167121887, -0.02281535416841507, -0.0916619524359703, -0.1691114604473114, -0.20618967711925507, -0.011145425029098988, -0.19122982025146484, -0.03664742037653923, -0.17077992856502533, 0.27838006615638733, 0.0852401852607727, 0.13687947392463684, -0.12536285817623138, 0.12243997305631638, -0.2499915510416031, -0.08658982813358307, -0.028915422037243843, 0.1659172773361206, -0.11580691486597061, 0.2028486728668213, -0.034264739602804184, 0.04089663177728653, -0.12171142548322678, -0.1710570901632309, -0.2752719223499298, 0.09157147258520126, -0.0822632908821106, -0.1659272015094757, -0.0007281370926648378, -0.07767661660909653, 0.10519248247146606, 0.11080703884363174, -0.2051665037870407, 0.09584104269742966, 0.11698512732982635, 0.2679685056209564, 0.2409164309501648, -0.1902494877576828, -0.01096371840685606, 0.15402458608150482, 0.23598383367061615, -0.005990910809487104, 0.004561459179967642, -0.1678818017244339, 0.00830464530736208, 0.11695155501365662, -0.007759725209325552, -0.11696749180555344, 0.016732821241021156, -0.10291776061058044, 0.18534590303897858, -0.045801710337400436, 0.16480682790279388, -0.011687168851494789, -0.008031279779970646, -0.0011630399385467172, 0.24055510759353638, 0.0502474345266819, -0.12362300604581833, -0.12198986113071442, -0.16492734849452972, -0.13405761122703552, -0.15657901763916016, 0.1289692223072052, -0.06194188445806503, 0.16741588711738586, 0.15699157118797302, 0.14798785746097565, -0.2128722369670868, -0.0013256561942398548, -0.13071435689926147, -0.4081503748893738, -0.2527434825897217, -0.09480001777410507, -0.0515134334564209, 0.07864945381879807, -0.1353854387998581, -0.14910130202770233, 0.2878808379173279, -0.08206018060445786, 0.06287884712219238, -0.30106663703918457, -0.17662814259529114, 0.2909647822380066, 0.08008608967065811, 0.06348922848701477, 0.003592906752601266, -0.13416138291358948, -0.1798141747713089, 0.018575292080640793, -0.03863762691617012, 0.23904530704021454, -0.039858896285295486, -0.20934581756591797, 0.011184134520590305], [0.2792404592037201, 0.1476629376411438, 0.24373479187488556, -0.1751914620399475, -0.20909000933170319, 0.006976255681365728, -0.42396247386932373, -0.23338516056537628, 0.17548711597919464, 0.28603395819664, 0.13934999704360962, 0.08781304210424423, 0.21638108789920807, 0.014243029057979584, -0.019853953272104263, -0.17161625623703003, -0.1563858538866043, 0.10912927985191345, 0.06087489426136017, -0.03147384151816368, -0.004537361674010754, 0.08203496783971786, -0.2059187889099121, -0.23629359900951385, 0.06167290732264519, -0.03131652623414993, -0.11364448070526123, -0.5568498969078064, -0.012679187580943108, -0.024935787543654442, -0.037816114723682404, -0.07559667527675629, -0.06355254352092743, -0.06306471675634384, 0.10053813457489014, -0.020188963040709496, -0.2219471037387848, 0.24331942200660706, 0.08876878023147583, 0.23372766375541687, -0.3536384403705597, -0.17948679625988007, 0.07933482527732849, -0.35985642671585083, 0.39458540081977844, 0.007239529397338629, 0.278164267539978, -0.2856621742248535, 0.07393088936805725, 0.03292037174105644, -0.04198261350393295, -0.21834494173526764, -0.16512638330459595, 0.0052690957672894, -0.1504482924938202, 0.06044776737689972, -0.22152003645896912, 0.23303672671318054, -0.11773557960987091, -0.02197456546127796, -0.35823753476142883, 0.04262875020503998, 0.1608871966600418, 0.04061465710401535, 0.0876893401145935, 0.4068205654621124, -0.11967343091964722, -0.26814141869544983, 0.15058912336826324, -0.027272546663880348, -0.2530238628387451, -0.10327663272619247, 0.040009111166000366, 0.23145735263824463, 0.24728187918663025, -0.23424860835075378, 0.2706489861011505, -0.1654389500617981, 0.15278173983097076, 0.025945916771888733, 0.0704992264509201, 0.008668777532875538, -0.03852409869432449, -0.20803406834602356, -0.1087569147348404, 0.1621631681919098, 0.3105510473251343, 0.2586151361465454, 0.03463118523359299, -0.03385366126894951, -0.23309452831745148, -0.25193172693252563, -0.036176521331071854, -0.07805559784173965, -0.3746928572654724, -0.0492851659655571, -0.0881761759519577, -0.11093580722808838, -0.2739592492580414, 0.3539927899837494], [0.1317482590675354, -0.16271322965621948, -0.17607292532920837, 0.12320341914892197, 0.030204225331544876, 0.10425308346748352, -0.014799988828599453, -0.1285112500190735, -0.12858150899410248, 0.17245551943778992, -0.19567342102527618, -0.06233030930161476, -0.03420212119817734, -0.366205096244812, 0.12185188382863998, -0.25286367535591125, -0.052482619881629944, -0.3971976637840271, -0.09222813695669174, 0.3367812931537628, -0.08452422171831131, 0.19782431423664093, 0.05113319307565689, -0.02093452215194702, -0.13279952108860016, -0.11514158546924591, 0.10145420581102371, -0.3671410381793976, -0.065037302672863, 0.23494526743888855, -0.046166203916072845, 0.27492666244506836, -0.4098319411277771, -0.07856637239456177, 0.10814203321933746, 0.1515355110168457, -0.2470913678407669, -0.48764604330062866, -0.3236674666404724, -0.0008674717973917723, 0.22704866528511047, -0.12642788887023926, -0.03590615466237068, -0.14097458124160767, -0.31314343214035034, -0.11443911492824554, 0.08867496997117996, 0.5168134570121765, -0.018267380073666573, -0.2911398410797119, 0.020685110241174698, 0.018842946738004684, -0.15158122777938843, 0.1240326389670372, 0.0923708975315094, -0.11872092634439468, 0.143299862742424, 0.01010169181972742, -0.023512089625000954, 0.2084447145462036, 0.04412126913666725, -0.025404036045074463, -0.14428694546222687, -0.10442687571048737, 0.12167429178953171, 0.07021527737379074, -0.39032337069511414, -0.1465197056531906, 0.07653114199638367, -0.0045632729306817055, 0.20711572468280792, 0.10210403800010681, 0.04291662946343422, -0.2444785088300705, -0.15128831565380096, -0.041351012885570526, -0.11180873215198517, -0.4095677435398102, -0.20238329470157623, 0.15354132652282715, -0.07008874416351318, 0.07186802476644516, -0.0789601281285286, -0.06355194002389908, -0.20671780407428741, 0.31818777322769165, -0.20735593140125275, 0.0003416382533032447, -0.22634711861610413, 0.09899002313613892, 0.27160096168518066, 0.05972149595618248, -0.16245748102664948, 0.1801089346408844, 0.04359445348381996, 0.1455409675836563, -0.10257325321435928, 0.1152101382613182, -0.027148989960551262, 0.2814430892467499], [-0.1741759479045868, -0.02371584251523018, -0.08005015552043915, -0.1714879274368286, 0.3194897770881653, -0.08944155275821686, -0.1290324330329895, 0.21414360404014587, -0.04651269316673279, 0.017185015603899956, -0.28087151050567627, 0.2790707051753998, 0.18880943953990936, 0.007444289047271013, -0.3001597821712494, 0.18813954293727875, -0.3105933964252472, -0.09787219017744064, 0.03725195303559303, 0.276753306388855, 0.09036919474601746, 0.10274603962898254, -0.23730018734931946, -0.14745938777923584, -0.29816117882728577, -0.08698494732379913, 0.1426244080066681, 0.008909017778933048, 0.06413999199867249, -0.09148909151554108, 0.20438170433044434, -0.03170473501086235, -0.28752627968788147, -0.12034700810909271, 0.027497442439198494, -0.03971360996365547, -0.1665092557668686, 0.05319898575544357, -0.08522490411996841, -0.1286160945892334, 0.31775644421577454, -0.26417315006256104, -0.34783288836479187, -0.11317072063684464, 0.18819935619831085, 0.03407275304198265, -0.02063761092722416, -0.03582758456468582, -0.08456390351057053, 0.0918855369091034, -0.1577800214290619, -0.023974867537617683, 0.05886361002922058, -0.02858450636267662, 0.023033475503325462, 0.12052055448293686, -0.07685568928718567, -0.2622653841972351, 0.1472620666027069, -0.11288651823997498, 0.2171335220336914, -0.1218397244811058, 0.01950080879032612, 0.06395456194877625, -0.12251004576683044, -0.1497439444065094, 0.1790667325258255, -0.0653400793671608, -0.16536881029605865, -0.13831011950969696, -0.029277119785547256, -0.03935742378234863, 0.2724715769290924, -0.3991791009902954, 0.03848540037870407, 0.52726149559021, -0.20545151829719543, 0.40555524826049805, -0.0006842960719950497, -0.12408264726400375, 0.1358765959739685, -0.06226298585534096, -0.18557623028755188, 0.5588350892066956, 0.0949864387512207, 0.09301251918077469, 0.05646679922938347, 0.028178712353110313, 0.24720385670661926, 0.03475893288850784, 0.25050631165504456, -0.04701823368668556, 0.3205515146255493, -0.5449783802032471, -0.13858124613761902, 0.1688758134841919, -0.04851612448692322, -0.0651310533285141, -0.015120958909392357, 0.22743850946426392], [0.09476686269044876, -0.29985883831977844, 0.1840805560350418, -0.031089771538972855, -0.2512750029563904, 0.013532420620322227, 0.13002300262451172, 0.15084514021873474, -0.16228890419006348, -0.25171059370040894, -0.2209169566631317, -0.5132163166999817, 0.1542406529188156, 0.0073470911011099815, 0.5496464371681213, 0.09835126250982285, -0.0772823616862297, 0.09444072842597961, 0.00829073041677475, 0.0335136242210865, -0.2890692353248596, -0.02324848808348179, -0.20939309895038605, 0.07568153738975525, -0.04047904536128044, -0.27042731642723083, 0.23848788440227509, -0.1168806254863739, -0.2523379325866699, -0.2618612051010132, 0.05442476272583008, -0.20884700119495392, 0.06164487823843956, 0.03302168846130371, 0.3174687922000885, -0.2387094795703888, -0.1879502683877945, -0.021540630608797073, -0.1935865879058838, 0.35279738903045654, 0.0077670724131166935, 0.10589949041604996, -0.18218578398227692, 0.14420589804649353, 0.029450668022036552, 0.18717403709888458, 0.08263438940048218, 0.1290891319513321, -0.03906919062137604, 0.2463831603527069, -0.15904517471790314, -0.08954586088657379, -0.20226047933101654, -0.07336727529764175, -0.15392175316810608, -0.17207063734531403, -0.2917071282863617, 0.15570244193077087, 0.012116814032196999, -0.1067141517996788, -0.1825166791677475, -0.02920246683061123, 0.1711052656173706, 0.11914058029651642, -0.08103781938552856, -0.04737566411495209, -0.03627919405698776, 0.052123505622148514, -0.37398242950439453, 0.04935026541352272, 0.22181940078735352, 0.0416749007999897, -0.039260659366846085, 0.11710337549448013, -0.10220007598400116, 0.10824108868837357, 0.11528299748897552, -0.045244380831718445, 0.1616165041923523, -0.18872790038585663, -0.04057188332080841, -0.17132176458835602, -0.12807267904281616, 0.20138812065124512, -0.21714124083518982, -0.07559653371572495, -0.13644720613956451, 0.037113290280103683, 0.007330680266022682, 0.18831273913383484, 0.18268372118473053, 0.17786291241645813, -0.028956132009625435, 0.20418639481067657, -0.0005533528164960444, -0.08553098887205124, -0.07295830547809601, -0.11853505671024323, 0.03206314891576767, 0.12798981368541718], [-0.03485599905252457, 0.1791808009147644, -0.06578154116868973, -0.34316205978393555, 0.049990661442279816, 0.1506427824497223, 0.23604242503643036, -0.15252932906150818, -0.02536214143037796, -0.0641225054860115, 0.20600616931915283, 0.00677967444062233, 0.06731168925762177, -0.06749751418828964, 0.20689840614795685, 0.08708040416240692, 0.21419717371463776, 0.14175279438495636, -0.06747455894947052, 0.10828986018896103, -0.005816339515149593, -0.20788206160068512, -0.20916306972503662, 0.013264554552733898, -0.15073266625404358, -0.1354619860649109, -0.048687342554330826, -0.0415584035217762, 0.14467200636863708, 0.08124682307243347, -0.09079686552286148, -0.10964609682559967, 0.016708116978406906, 0.019381573423743248, -0.12579496204853058, -0.13362419605255127, -0.2489725798368454, 0.29975953698158264, -0.08224653452634811, 0.028602536767721176, 0.006354875862598419, 0.17686204612255096, 0.13158181309700012, 0.030320433899760246, 0.13012193143367767, -0.042439937591552734, 0.2601189911365509, -0.18470190465450287, -0.21186497807502747, -0.1234365776181221, -0.21658793091773987, 0.0015372977359220386, 0.1661509871482849, 0.034539200365543365, 0.21611322462558746, 0.09423922747373581, -0.131877601146698, -0.3408377468585968, -0.13194876909255981, 0.041869718581438065, -0.41125839948654175, 0.07638590037822723, -0.0076735615730285645, 0.04778619110584259, 0.23970124125480652, -0.05479328706860542, -0.024257298558950424, 0.00869784876704216, 0.08732664585113525, -0.05942485108971596, -0.2543356418609619, -0.1831493079662323, -0.261360228061676, 0.1459977626800537, 0.12123700976371765, -0.11047961562871933, 0.30016106367111206, 0.26097503304481506, 0.4468986690044403, 0.20357929170131683, -0.02700461633503437, 0.10182827711105347, 0.3947039544582367, -0.23896528780460358, -0.21481233835220337, -0.21526451408863068, 0.1589975208044052, 0.03819255530834198, -0.27471888065338135, 0.09052197635173798, -0.38962242007255554, 0.13245171308517456, 0.06078990548849106, 0.1560966819524765, -0.2987467348575592, 0.2697022557258606, -0.10709714889526367, -0.08589570969343185, 0.37702232599258423, 0.009137984365224838], [0.2947291433811188, -0.1284237504005432, -0.07406497001647949, 0.0033199668396264315, -0.1653505265712738, 0.23914587497711182, -0.0749184861779213, -0.06517606973648071, -0.13190646469593048, -0.08270230889320374, -0.31403666734695435, -0.10877981781959534, 0.12288305908441544, -0.24982261657714844, 0.22126103937625885, -0.003759325249120593, 0.04782334342598915, -0.1891738623380661, 0.14807584881782532, -0.06198772042989731, -0.10714517533779144, -0.06269348412752151, -0.0844055563211441, -0.05590417981147766, 0.07356435060501099, 0.07751190662384033, 0.057652831077575684, -0.24694807827472687, 0.059958603233098984, 0.10709104686975479, -0.004324926063418388, 0.11975917965173721, -0.2276298850774765, -0.0444517582654953, 0.048065077513456345, 0.10831113159656525, -0.15786415338516235, 0.1177692636847496, -0.049484070390462875, -0.11373673379421234, 0.08575304597616196, -0.18191055953502655, 0.05985486879944801, -0.03361295908689499, -0.2518657147884369, -0.04640219360589981, -0.025342904031276703, 0.11852699518203735, -0.2624344527721405, -0.1365826576948166, -0.13204048573970795, 0.34340617060661316, 0.006335057783871889, 0.04541096091270447, 0.0842556580901146, -0.1348581612110138, -0.00910757202655077, -0.15275025367736816, 0.05178326368331909, -0.0515141636133194, 0.20683059096336365, -0.022135326638817787, 0.09013012051582336, 0.1827431619167328, -0.0995439663529396, 0.2811371088027954, -0.14510256052017212, -0.10339659452438354, -0.03622967377305031, -0.11197289824485779, 0.25741472840309143, 0.12183742225170135, -0.14273253083229065, -0.05972197279334068, 0.050679851323366165, -0.28545457124710083, -0.06850024312734604, 0.058328211307525635, 0.010579705238342285, 0.0065111736766994, -0.13182955980300903, 0.021567203104496002, -0.12168414890766144, -0.1342933624982834, -0.030163878574967384, -0.15526853501796722, -0.045603930950164795, -0.12163809686899185, 0.13833382725715637, -0.17681612074375153, 0.1683538854122162, 0.1207805722951889, -0.1494344174861908, 0.03764013573527336, 0.1275280863046646, 0.1663655787706375, 0.2720676064491272, 0.10596176981925964, -0.19330249726772308, -0.06552941352128983], [0.06491246074438095, 0.09012748301029205, -0.008757174015045166, -0.049820929765701294, 0.23597604036331177, -0.03754597529768944, 0.01639631949365139, 0.2722904086112976, 0.18829186260700226, -0.11715321242809296, -0.045791320502758026, 0.0063197012059390545, 0.07925742864608765, 0.06433941423892975, -0.17779862880706787, 0.3185485303401947, -0.1365935504436493, 0.0950738713145256, 0.02837585099041462, -0.04016135632991791, 0.011283607222139835, 0.06381065398454666, -0.19282272458076477, 0.29272928833961487, 0.1631469428539276, 0.2333977222442627, -0.03736410290002823, -0.24835015833377838, -0.032963868230581284, 0.01631421037018299, -0.14494672417640686, 0.1422727108001709, 0.20736713707447052, 0.03336070477962494, 0.1285744160413742, -0.04754992201924324, -0.24193157255649567, 0.339906245470047, 0.02721475437283516, 0.0460161492228508, 0.0070016048848629, 0.006815281696617603, 0.05427950620651245, -0.1453772783279419, -0.012138969264924526, -0.025043245404958725, -0.004704594612121582, 0.07928959280252457, 0.22700488567352295, 0.16862823069095612, 0.026581566780805588, 0.07559269666671753, 0.15042556822299957, -0.11136028170585632, -0.09175395220518112, 0.15670572221279144, 0.10560678690671921, 0.0757083147764206, 0.015862056985497475, -0.26226145029067993, -0.038214538246393204, -0.12914502620697021, 0.2515260577201843, -0.1309431791305542, -0.023411136120557785, -0.04555287957191467, 0.014105129987001419, 0.08506214618682861, -0.07212694734334946, -0.15838508307933807, -0.2685806453227997, -0.14251841604709625, -0.017492422834038734, 0.09415982663631439, -0.019239826127886772, 0.20900404453277588, 0.15532833337783813, 0.13163143396377563, 0.2366558164358139, -0.08719043433666229, 0.09289153665304184, -0.1759895384311676, 0.08040295541286469, -0.03614654764533043, -0.10975022614002228, 0.002030170289799571, -0.0602562353014946, -0.04447098448872566, 0.06182852387428284, 0.03128083422780037, -0.14438943564891815, -0.21334035694599152, 0.21699994802474976, 0.08196202665567398, -0.019937995821237564, -0.12328070402145386, -0.1329416185617447, -0.05134099721908569, 0.1444513350725174, -0.3332269787788391], [-0.25900736451148987, 0.21557249128818512, 0.3042704463005066, 0.20590810477733612, 0.0028294632211327553, -0.21062985062599182, 0.14254550635814667, -0.09514420479536057, 0.08197643607854843, -0.16458411514759064, -0.1455683708190918, -0.13561858236789703, 0.07737413048744202, 0.054603129625320435, 0.2000606656074524, 0.014603090472519398, 0.19118858873844147, 0.004891728051006794, 0.27670755982398987, -0.2036280483007431, -0.26549646258354187, 0.1759743094444275, -0.05608288198709488, 0.1154114305973053, 0.04893713444471359, -0.04597576707601547, 0.18942689895629883, 0.1151081919670105, -0.0018404570873826742, 0.018266813829541206, 0.2551911771297455, -0.2262129932641983, -0.17545996606349945, 0.24015773832798004, -0.0761726126074791, 0.02761949598789215, 0.07635011523962021, -0.21747636795043945, -0.5775238871574402, 0.25417810678482056, 0.1925201714038849, -0.10606649518013, 0.10760713368654251, -0.07487470656633377, -0.13426262140274048, 0.17063471674919128, 0.09287526458501816, -0.20308491587638855, -0.06464365124702454, 0.14819009602069855, 0.28896722197532654, 0.13788318634033203, 0.03621210902929306, 0.20589545369148254, -0.35306477546691895, 0.131169855594635, 0.21613536775112152, 0.009320207871496677, -0.16250301897525787, 0.14824369549751282, -0.0397665910422802, 0.06120605021715164, 0.10306157916784286, -0.11571621149778366, -0.08040390908718109, -0.1798233687877655, -0.17241303622722626, 0.10633191466331482, -0.2099345475435257, 0.19017304480075836, 0.2295338660478592, -0.05181709676980972, 0.0325273834168911, -0.4188975989818573, -0.06916899979114532, -0.12299729138612747, -0.10777146369218826, 0.14743928611278534, -0.19279667735099792, -0.0842745453119278, 0.009803066961467266, -0.27196308970451355, -0.12285035848617554, 0.21682202816009521, 0.21035119891166687, -0.08990032225847244, -0.024209849536418915, 0.0042292713187634945, -0.13450951874256134, 0.17725054919719696, 0.08668020367622375, 0.2965697944164276, 0.040258076041936874, -0.15888534486293793, 0.07191293686628342, 0.17842692136764526, 0.07332900911569595, -0.015229078941047192, -0.022751176729798317, -0.1290270984172821], [-0.09836987406015396, 0.03833949193358421, -0.007307416293770075, 0.06076490879058838, -0.2981165647506714, -0.25746631622314453, 0.20313619077205658, 0.4975971281528473, 0.18942494690418243, 0.14847147464752197, -0.027243705466389656, 0.39805078506469727, -0.33626270294189453, 0.25706785917282104, 0.2069447934627533, 0.28799763321876526, 0.1861909180879593, 0.2922641634941101, 0.13464578986167908, -0.09954856336116791, -0.036903414875268936, -0.13656869530677795, -0.13199062645435333, 0.15375618636608124, 0.11940834671258926, -0.14299935102462769, -0.11229798197746277, 0.31726327538490295, -0.08271390199661255, -0.24914078414440155, 0.11910270899534225, -0.24898028373718262, 0.3207087814807892, -0.18211670219898224, 0.024472404271364212, -0.28612279891967773, 0.0652964785695076, 0.2539142370223999, 0.20249488949775696, 0.21039734780788422, -0.22120265662670135, -0.016643470153212547, -0.010701024904847145, -0.004218213260173798, 0.3547039330005646, 0.09634547680616379, 0.2622692286968231, -0.2187800407409668, 0.20519199967384338, 0.06522675603628159, -0.10735896974802017, 0.03692002594470978, -0.33125489950180054, 0.19374366104602814, -0.05398058891296387, 0.04951180890202522, 0.021923771128058434, 0.09810926765203476, -0.06364481896162033, 0.2930889129638672, -0.15347638726234436, 0.2435714155435562, 0.2856837213039398, -0.026033224537968636, -0.0708031877875328, 0.1832210123538971, 0.33080893754959106, 0.047007568180561066, 0.061990488320589066, 0.30341416597366333, 0.22802092134952545, -0.08252856135368347, 0.15441127121448517, 0.2474432736635208, -0.0902688056230545, -0.14394737780094147, -0.053863298147916794, -0.34116342663764954, 0.07715944200754166, -0.2713538110256195, -0.08273658901453018, -0.14520511031150818, 0.13341881334781647, -0.049998216331005096, 0.07560708373785019, -0.017208566889166832, -0.12147951871156693, -0.08055219054222107, -0.08767956495285034, 0.28686296939849854, -0.25172555446624756, -0.10002429038286209, 0.12906032800674438, -0.07038325071334839, 0.1581895500421524, -0.027007179334759712, 0.20020270347595215, 0.1330614686012268, 0.16737107932567596, -0.25905099511146545], [-0.10453933477401733, -0.06287787854671478, 0.050754837691783905, -0.11876297742128372, -0.051281534135341644, 0.22941158711910248, -0.04633192718029022, -0.26419389247894287, -0.15689612925052643, 0.20805755257606506, 0.16415132582187653, 0.005213744007050991, -0.05212337151169777, 0.06329174339771271, 0.020060591399669647, -0.1661904901266098, 0.3802797794342041, 0.14279991388320923, 0.26205796003341675, 0.17524023354053497, 0.16612432897090912, 0.05099695920944214, 0.08782448619604111, -0.37236288189888, 0.02885330282151699, -0.2966268062591553, -0.02466384507715702, 0.02295401692390442, 0.273398220539093, 0.16911396384239197, 0.17113816738128662, -0.08143842965364456, -0.18854714930057526, -0.2530198097229004, 0.19067664444446564, 0.1932402104139328, 0.3757486939430237, 0.14267581701278687, 0.2789182960987091, 0.028849681839346886, -0.12218612432479858, 0.08083278685808182, 0.04023892804980278, -0.023010892793536186, -0.036911237984895706, -0.05823758244514465, -0.0007400485337711871, -0.342826783657074, 0.00442159129306674, -0.3043210506439209, 0.2388390302658081, -0.3665591776371002, 0.09027384221553802, -0.025365348905324936, 0.3246881067752838, 0.06673742830753326, -0.06477447599172592, 0.045657116919755936, -0.23838497698307037, 0.20714998245239258, -0.32483986020088196, 0.10262307524681091, -0.2890439033508301, 0.2570609748363495, 0.22227947413921356, 0.13396002352237701, 0.06478651612997055, 0.10818900167942047, 0.0817381888628006, 0.25385117530822754, -0.0834069475531578, 0.2513144612312317, -0.13124148547649384, 0.2756975293159485, -0.3624356985092163, -0.15084588527679443, -0.04504191130399704, 0.2568820118904114, -0.24533262848854065, 0.02635921537876129, 0.15459920465946198, 0.15635359287261963, 0.02917412482202053, 0.184648334980011, -0.27878713607788086, 0.14565914869308472, 0.0063979364931583405, 0.05352267995476723, 0.09826210141181946, -0.19965070486068726, -0.3104207515716553, -0.05775623768568039, 0.39632681012153625, -0.055092938244342804, -0.056356459856033325, 0.08589956164360046, -0.15958814322948456, -0.1503719836473465, 0.0835723951458931, -0.24954834580421448], [0.08946365118026733, -0.07481072098016739, -0.07549671828746796, 0.275392085313797, -0.3871787190437317, -0.1802913397550583, -0.039820000529289246, 0.16555434465408325, 0.1694481521844864, 0.2336716502904892, 0.25258320569992065, 0.04775996506214142, -0.05086560547351837, -0.21901407837867737, -0.07910493016242981, 0.18167603015899658, 0.15635378658771515, -0.006518603302538395, -0.30684182047843933, 0.13617528975009918, 0.1054837703704834, -0.000349781388649717, -0.09156731516122818, -0.12611383199691772, 0.043442536145448685, -0.38139763474464417, -0.035233769565820694, -0.17090652883052826, 0.04209104925394058, 0.07133365422487259, 0.10713310539722443, 0.15994147956371307, -0.14930690824985504, 0.2087068259716034, 0.3559948205947876, 0.07349750399589539, -0.24392364919185638, 0.1520608812570572, -0.09624820202589035, -0.09233561158180237, 0.06017710641026497, -0.21222829818725586, 0.1381930112838745, -0.5083615183830261, -0.1327647566795349, -0.031632669270038605, 0.3010077178478241, 0.023572400212287903, -0.15957902371883392, -0.10119505226612091, -0.342550665140152, 0.06962001323699951, -0.3664693534374237, -0.10716087371110916, -0.10552363097667694, -0.17201951146125793, -0.3144455552101135, 0.3439416289329529, -0.1338864415884018, 0.41378864645957947, -0.08238160610198975, -0.08482655137777328, -0.2657090425491333, 0.012969533912837505, 0.3233884274959564, 0.34946122765541077, -0.1302848756313324, 0.1207636222243309, -0.2699873149394989, 0.05670550465583801, 0.031326357275247574, 0.009822089225053787, -0.2256968468427658, -0.22403141856193542, 0.05778002366423607, -0.2244531512260437, 0.06908868998289108, 0.05599405989050865, -0.17418336868286133, -0.16787108778953552, 0.4458855390548706, -0.29425618052482605, 0.07167482376098633, 0.16037927567958832, -0.2618197798728943, -0.17331647872924805, -0.04707687348127365, -0.11102400720119476, -0.03422071784734726, -0.012304788455367088, 0.18471166491508484, -0.3009130656719208, 0.36971229314804077, 0.1965416520833969, -0.21271979808807373, -0.23153887689113617, 0.24897004663944244, 0.2736569046974182, 0.12351192533969879, -0.16049546003341675], [0.13532754778862, -0.045167047530412674, -0.07288552075624466, -0.2528606355190277, 0.04288611188530922, -0.13005752861499786, -0.022194135934114456, 0.14196518063545227, 0.21820402145385742, 0.026387758553028107, -0.08239156752824783, -0.19965218007564545, 0.013941667042672634, -0.059242621064186096, 0.13562828302383423, 0.09859929978847504, -0.02530641481280327, 0.10871761292219162, -0.21830523014068604, 0.16850538551807404, -0.04710736125707626, -0.16224786639213562, -0.13334167003631592, 0.005708394106477499, -0.30159902572631836, -0.0369814895093441, 0.2183278650045395, -0.1596880853176117, -0.03311273455619812, 0.2398865967988968, 0.1977369636297226, 0.034401461482048035, -0.09810890257358551, 0.014723043888807297, 0.11409415304660797, -0.038228340446949005, -0.005904071964323521, 0.20655708014965057, 0.28356921672821045, -0.011587223969399929, 0.12227746099233627, 0.07922977209091187, -0.05934756621718407, -0.0294247604906559, 0.29375073313713074, -0.28937017917633057, 0.16107317805290222, -0.23580385744571686, 0.17306599020957947, -0.20450857281684875, -0.2879289984703064, -0.044652059674263, 0.21741022169589996, -0.2727934420108795, 0.12199375778436661, 0.2511170506477356, -0.015579640865325928, 0.015277394093573093, 0.09206699579954147, -0.0020088038872927427, -0.05571907013654709, -0.04033994674682617, -0.06810027360916138, 0.0777847021818161, 0.1310274302959442, -0.1948331594467163, 0.025049397721886635, -0.020682822912931442, 0.10874725133180618, -0.14480499923229218, -0.1955706775188446, -0.0062252553179860115, -0.2681728005409241, -0.2659781277179718, 0.2041674256324768, 0.12628015875816345, 0.09040237963199615, 0.11198069155216217, -0.01579037867486477, 0.07639004290103912, 0.3934211730957031, -0.11630505323410034, 0.1541706621646881, 0.08583430200815201, -0.3067985475063324, -0.2648735046386719, 0.1454521119594574, -0.2307668924331665, 0.21914854645729065, -0.05216332525014877, 0.05658620968461037, 0.057621147483587265, -0.15704236924648285, 0.12863782048225403, -0.09476672857999802, 0.29987412691116333, -0.034989673644304276, -0.19359949231147766, 0.24512739479541779, 0.013279826380312443], [0.10715647041797638, -0.07401809096336365, -0.10038784146308899, 0.13080307841300964, -0.013703510165214539, -0.07930120825767517, -0.024148834869265556, -0.1346236616373062, 0.058311622589826584, -0.14471791684627533, -0.2026815414428711, -0.07366962730884552, 0.03925425186753273, 0.021108180284500122, 0.11505037546157837, -0.0010319931898266077, 0.1939316838979721, 0.08437897264957428, -0.0013805440394207835, 0.24728506803512573, -0.12753000855445862, 0.17060452699661255, -0.04498156160116196, 0.08119725435972214, -0.15471559762954712, 0.16766873002052307, 0.07274670898914337, 0.07226742058992386, 0.11977327615022659, -0.035652466118335724, -0.12439034879207611, -0.182701975107193, 0.09357836842536926, 0.007372603751718998, 0.18736182153224945, -0.023726394400000572, -0.3219064176082611, 0.26077425479888916, -0.3798009753227234, 0.09981830418109894, 0.1735122799873352, -0.014835674315690994, -0.09621501713991165, 0.3453783690929413, 0.049750521779060364, -0.13431596755981445, -0.17940331995487213, -0.2134520709514618, -0.1828385591506958, -0.06728602200746536, -0.20462840795516968, 0.1809556782245636, 0.08948409557342529, 0.1379147171974182, -0.04397322237491608, -0.04470008984208107, 0.09804891794919968, 0.0681537613272667, -0.10238368809223175, -0.16489069163799286, 0.24279096722602844, -0.09990064799785614, 0.13193607330322266, 0.03484361246228218, 0.057604219764471054, -0.1846848428249359, -0.024158069863915443, -0.03858615830540657, 0.10552863031625748, -0.20485132932662964, -0.1884070634841919, 0.10282175987958908, -0.012646750546991825, 0.11924688518047333, -0.14415200054645538, -0.17176082730293274, -0.02824953943490982, 0.1481156051158905, 0.1080453172326088, 0.10700930655002594, -0.06228318437933922, -0.07335494458675385, -0.09471172839403152, 0.14893904328346252, -0.09129036217927933, 0.1845463067293167, 0.04992818087339401, -0.2577064037322998, -0.10414038598537445, -0.28400346636772156, 0.22171705961227417, 0.02882257103919983, -0.14978545904159546, 0.10375864058732986, -0.03442780300974846, 0.0054347096011042595, -0.07146604359149933, -0.05403931811451912, -0.025059791281819344, 0.06077161803841591], [0.14854273200035095, -0.005843218415975571, -0.06339237838983536, 0.1017974466085434, 0.03706224262714386, 0.005756611004471779, 0.17931649088859558, 0.11658081412315369, -0.23528189957141876, -0.02588408999145031, -0.22292271256446838, -0.10971293598413467, 0.22409537434577942, -0.1552872508764267, -0.054671760648489, 0.10326464474201202, -0.15809665620326996, 0.1074850857257843, -0.007700022775679827, 0.3035896420478821, -0.15527558326721191, -0.010883534327149391, -0.05086171254515648, 0.27349331974983215, 0.11108142137527466, 0.40104806423187256, 0.207099050283432, -0.04617851600050926, -0.3543032109737396, 0.17177249491214752, -0.07895348966121674, 0.21197432279586792, -0.16784261167049408, 0.3057902753353119, -0.2657230794429779, 0.04638884961605072, 0.03598865121603012, 0.2163829654455185, -0.06309545040130615, -0.10846846550703049, 0.1367417573928833, 0.3772996664047241, -0.24344874918460846, -0.2423982471227646, 0.08991075307130814, -0.2846214473247528, 0.1480119228363037, 0.09537502378225327, 0.3383164703845978, 0.016918255016207695, 0.079720139503479, 0.10109633952379227, 0.2975965142250061, -0.14126785099506378, -0.32059958577156067, 0.3646795153617859, 0.22990599274635315, -0.23651470243930817, 0.28214430809020996, -0.3498757779598236, 0.07278439402580261, 0.013109464198350906, 0.017070675268769264, -0.15890491008758545, 0.12905888259410858, -0.26471245288848877, -0.12612393498420715, -0.11051342636346817, 0.2015382945537567, -0.050243813544511795, -0.05773848667740822, -0.3801617920398712, -0.09076698869466782, -0.36153289675712585, 0.0780864730477333, 0.3597163259983063, -0.021925127133727074, 0.46283480525016785, 0.10592497885227203, -0.024557190015912056, 0.06965482980012894, -0.21700963377952576, 0.3127330243587494, 0.030871517956256866, 0.07145575433969498, -0.28584665060043335, -0.10217904299497604, -0.29904496669769287, -0.08158423006534576, -0.051315248012542725, -0.011075468733906746, -0.05774245038628578, 0.21204346418380737, -0.09332764893770218, 0.10563682019710541, 0.2549360692501068, -0.3350449800491333, -0.12205280363559723, 0.2751099169254303, 0.056132759898900986], [-0.3058726191520691, 0.09454827755689621, 0.10571318864822388, 0.2602914273738861, -0.2253694385290146, -0.20057527720928192, 0.154516339302063, 0.3112483322620392, -0.012162151746451855, -0.0016410101670771837, 0.0929485484957695, 0.019676448777318, -0.2108827531337738, -0.06244579702615738, -0.0876600444316864, 0.0896068587899208, 0.0767284482717514, 0.24122297763824463, 0.12580059468746185, -0.11663158982992172, -0.12451827526092529, -0.0653422400355339, -0.14243577420711517, 0.05908156558871269, -0.10259533673524857, -0.1245289295911789, -0.1657654345035553, 0.28128084540367126, -0.07433069497346878, -0.05848938226699829, -0.2974100410938263, -0.29248344898223877, 0.030992845073342323, 0.20345520973205566, 0.13003453612327576, 0.0838518887758255, 0.15544438362121582, -0.12949572503566742, -0.20901986956596375, 0.2647363245487213, 0.09545354545116425, -0.4530181288719177, 0.03131458908319473, 0.005036391317844391, -0.19310103356838226, -0.027388788759708405, -0.23831650614738464, -0.06303443014621735, -0.3109881281852722, 0.17634373903274536, 0.26421722769737244, -0.04130494222044945, 0.0764857679605484, 0.17522192001342773, 0.019358087331056595, 0.17075945436954498, 0.3360179364681244, -0.09191473573446274, -0.06594176590442657, 0.01985541544854641, -0.06332875788211823, -0.005836000666022301, -0.04066164791584015, -0.11789815872907639, -0.017182188108563423, -0.343209832906723, -0.28075456619262695, 0.052424412220716476, 0.14969052374362946, 0.029170457273721695, 0.18284381926059723, -0.03847331181168556, 0.024171888828277588, -0.042635951191186905, -0.11843348294496536, 0.27065616846084595, -0.09668304771184921, -0.18594135344028473, 0.08747872710227966, 0.003773697651922703, 0.03107181377708912, -0.25057607889175415, -0.11935114860534668, 0.01241590641438961, 0.2193257361650467, 0.12342637777328491, -0.14526069164276123, 0.33198586106300354, -0.009139754809439182, -0.16271212697029114, 0.16148963570594788, 0.30159011483192444, -0.07243786752223969, -0.23933976888656616, -0.18603850901126862, -0.2447768896818161, 0.17865967750549316, 0.18051007390022278, -0.1825018972158432, -0.08719867467880249], [-0.17601241171360016, -0.1598711609840393, -0.043516114354133606, -0.004846740514039993, 0.060900382697582245, -0.2651359438896179, -0.05047129839658737, 0.05550011247396469, -0.29795873165130615, -0.08654466271400452, -0.21101213991641998, 0.17234458029270172, -0.05774140730500221, -0.17090730369091034, 0.0665765181183815, 0.030389854684472084, -0.07695683091878891, -0.15845800936222076, -0.04316255822777748, -0.2857666611671448, -0.011731777340173721, -0.1410902440547943, 0.06054012477397919, 0.17968325316905975, 0.07669112086296082, 0.13764388859272003, 0.16887079179286957, 0.1895102560520172, 0.044615861028432846, 0.045438818633556366, -0.22428743541240692, -0.19016435742378235, 0.11886786669492722, 0.0990554466843605, -0.26839157938957214, -0.13541509211063385, 0.10637236386537552, -0.06473121792078018, 0.0829930379986763, 0.1585652232170105, -0.10550142824649811, 0.15091067552566528, -0.09938863664865494, -0.1264781355857849, 0.13668274879455566, 0.15579093992710114, 0.01550257671624422, -0.10664977878332138, 0.03195183351635933, 0.11629295349121094, -0.05349762365221977, -0.019688501954078674, 0.07035357505083084, 0.11683230102062225, 0.005129619501531124, 0.2103504091501236, 0.07253922522068024, -0.17174974083900452, 0.030237676575779915, 0.13638751208782196, -0.0583902932703495, 0.20082047581672668, 0.2346150130033493, -0.2633453607559204, 0.04733690246939659, 0.05871250480413437, 0.18192270398139954, -0.13051792979240417, 0.21372316777706146, 0.0743946060538292, -0.18871203064918518, -0.18874591588974, 0.3420606255531311, 0.10789476335048676, 0.08607730269432068, -0.28300029039382935, -0.22895555198192596, -0.11364013701677322, -0.05709724873304367, 0.027492478489875793, -0.21030092239379883, -0.05026296526193619, -0.12426520138978958, 0.15736229717731476, -0.005372116342186928, -0.14204923808574677, -0.19524919986724854, -0.15663227438926697, -0.08312118798494339, 0.28071221709251404, -0.1670406013727188, -0.01861000992357731, 0.20656466484069824, -0.20526374876499176, -0.16502298414707184, 0.07533946633338928, 0.1254514902830124, 0.1703353375196457, 0.006477201823145151, -0.07495871931314468], [0.16016383469104767, 0.2201438844203949, 0.12087001651525497, -0.0001029519407893531, -0.001151435892097652, 0.055834680795669556, -0.16792969405651093, -0.16012507677078247, -0.06601367145776749, 0.3633871376514435, 0.2350613921880722, -0.008509408682584763, 0.13675522804260254, 0.12756338715553284, 0.12344435602426529, -0.07063677906990051, 0.18548880517482758, -0.11761655658483505, 0.02990957349538803, -0.11528671532869339, -0.08082107454538345, 0.09968777000904083, 0.3208789825439453, 0.061084844172000885, 0.025672342628240585, -0.14278724789619446, 0.09147924929857254, 0.06520712375640869, -0.005160009954124689, -0.1563730686903, 0.05117126554250717, 0.06897415965795517, -0.017059877514839172, 0.002068969886749983, -0.22287282347679138, 0.06436629593372345, 0.08766791224479675, 0.14188247919082642, -0.011956272646784782, 0.06522895395755768, -0.2850762903690338, 0.025284355506300926, 0.2841595709323883, 0.08298654854297638, -0.08551935851573944, 0.15781083703041077, 0.3076615631580353, -0.10145273804664612, -0.20570529997348785, 0.012379310093820095, 0.024436721578240395, -0.26010698080062866, -0.11359290033578873, 0.06343451887369156, 0.18190863728523254, -0.09938374906778336, -0.06896461546421051, 0.40788155794143677, -0.28191885352134705, 0.16084982454776764, -0.1439780294895172, -0.033014144748449326, -0.03788059577345848, -0.02543359063565731, -0.13284622132778168, 0.2448815107345581, 0.14950895309448242, 0.10966505110263824, -0.2259809970855713, 0.17324376106262207, -0.11375728249549866, -0.10370203852653503, 0.02032250538468361, 0.14410434663295746, -0.17102967202663422, -0.16742916405200958, 0.15695415437221527, -0.11541108042001724, 0.13625985383987427, 0.0163610577583313, -0.0366889052093029, 0.13504880666732788, 0.04341220110654831, 0.16446837782859802, 0.014613098464906216, -0.11691128462553024, -0.03458864614367485, -0.11352948844432831, -0.06284589320421219, 0.3642406463623047, -0.17334286868572235, -0.09096831828355789, 0.15832820534706116, 0.10918902605772018, -0.048576802015304565, -0.19474168121814728, 0.10918465256690979, -0.09572092443704605, -0.03950326144695282, -0.09368161112070084], [0.09038048982620239, -0.17271502315998077, -0.3731756806373596, 0.1596911996603012, -0.3283272683620453, 0.2747507393360138, -0.006186251062899828, -0.010942160151898861, -0.025182053446769714, 0.1828528344631195, 0.02573356404900551, -0.008348300121724606, -0.01406340952962637, -0.053955502808094025, 0.13614048063755035, -0.4437781572341919, 0.20266395807266235, 0.06324803829193115, -0.06766610592603683, -0.1637587547302246, 0.01824481599032879, 0.20079199969768524, 0.23721463978290558, -0.20550203323364258, -0.28195109963417053, -0.1394701451063156, -0.17051321268081665, -0.04045940563082695, 0.21668103337287903, 0.06361827999353409, -0.09522947669029236, 0.04920137673616409, -0.4058726727962494, -0.20528289675712585, -0.23067066073417664, 0.030502213165163994, -0.13314205408096313, -0.1447913944721222, -0.06707869470119476, -0.26246190071105957, 0.16958774626255035, 0.08130916208028793, -0.11571740359067917, 0.17327654361724854, -0.1630573272705078, -0.22401484847068787, -0.14202842116355896, 0.06934449076652527, 0.07512974739074707, -0.3307713568210602, -0.148712620139122, 0.06358218193054199, -0.049764469265937805, 0.1255618780851364, -0.07481949031352997, -0.3037490248680115, -0.10431662201881409, 0.04430295154452324, 0.040021661669015884, 0.23833651840686798, 0.1944068968296051, -0.022370178252458572, -0.10054867714643478, 0.19106525182724, 0.0861046239733696, 0.17348302900791168, -0.12275899201631546, 0.05831693112850189, 0.16368240118026733, 0.314301460981369, 0.11874707043170929, 0.22834551334381104, -0.14939802885055542, -0.05154254660010338, 0.023918313905596733, -0.3248406946659088, 0.24581623077392578, 0.06933756917715073, -0.3505342900753021, 0.20546482503414154, 0.2871628701686859, 0.040962424129247665, 0.03818616643548012, -0.2754313051700592, -0.1734158992767334, -0.011022691614925861, 0.10209175199270248, -0.08586732298135757, -0.1304354965686798, 0.11662565171718597, 0.2158624529838562, 0.20794884860515594, -0.19105207920074463, 0.11366232484579086, 0.13465261459350586, 0.15797743201255798, -0.052968479692935944, 0.027310054749250412, 0.19089750945568085, 0.09174860268831253], [0.11280085146427155, 0.12762495875358582, -0.07799850404262543, 0.09544166177511215, 0.16897282004356384, 0.03383107855916023, -0.3814573287963867, 0.18348537385463715, 0.18000133335590363, -0.005959128495305777, 0.06310354918241501, -0.09675684571266174, 0.015353190712630749, -0.1638447493314743, 0.08438059687614441, -0.20401014387607574, -0.07805855572223663, 0.021374814212322235, -0.08942689001560211, 0.12901894748210907, 0.07207377254962921, -0.19367516040802002, -0.2102673202753067, -0.13384485244750977, -0.32685229182243347, 0.2389688938856125, 0.14209631085395813, -0.15386535227298737, 0.253751277923584, 0.36816248297691345, 0.13042564690113068, 0.21114613115787506, -0.09209351986646652, 0.18828754127025604, -0.040610939264297485, -0.17727980017662048, 0.08024857193231583, 0.1726752519607544, 0.0394149012863636, -0.07859790325164795, -0.148342564702034, 0.08346641808748245, 0.003590762848034501, 0.03481169417500496, 0.0655202716588974, -0.3247300088405609, -0.045265424996614456, -0.026356391608715057, 0.0019877373706549406, 0.015697168186306953, -0.3517795503139496, 0.16535240411758423, 0.1305268108844757, -0.13888992369174957, -0.016223343089222908, 0.007067060098052025, 0.10946968197822571, -0.21121150255203247, -0.0573878139257431, -0.0019987185951322317, -0.01759207993745804, -0.1469142585992813, -0.15497812628746033, -0.2058151215314865, 0.19588613510131836, -0.07966785877943039, -0.02963891066610813, 0.2508693039417267, -0.060598213225603104, -0.2141544222831726, -0.22580017149448395, -0.023838920518755913, -0.03602597862482071, -0.07333311438560486, 0.2807775139808655, 0.04861823841929436, 0.28228944540023804, 0.21836650371551514, 0.061862967908382416, -0.20027422904968262, 0.3792929947376251, -0.3236085772514343, -0.06877013295888901, 0.01885194517672062, -0.00033648323733359575, -0.23823656141757965, 0.010693695396184921, 0.07798335701227188, -0.10447624325752258, -0.11922508478164673, 0.11342862993478775, 0.10234721750020981, 0.11479678004980087, 0.309001624584198, -0.21150349080562592, 0.23463431000709534, -0.001970781711861491, -0.06661281734704971, 0.009615962393581867, 0.0016187879955396056], [-0.091664619743824, -0.338725209236145, -0.09756561368703842, 0.1840216964483261, 0.1004483550786972, 0.016112588346004486, -0.2527161240577698, 0.17162348330020905, -0.016528155654668808, -0.32424911856651306, -0.13880100846290588, 0.12358765304088593, 0.17713621258735657, -0.29980388283729553, 0.47156912088394165, -0.09538975358009338, 0.0005325982929207385, -0.1286252737045288, 0.24398045241832733, 0.14270396530628204, -0.4439719319343567, -0.08968394249677658, -0.18478597700595856, 0.16083857417106628, -0.4745327830314636, 0.0198125708848238, 0.10579246282577515, 0.06069345399737358, 0.3439183831214905, 0.006911750417202711, 0.2571885883808136, -0.06589442491531372, -0.1319100558757782, 0.07720694690942764, 0.14451302587985992, -0.31304511427879333, -0.03244064748287201, 0.04169303923845291, -0.31885993480682373, -0.24660420417785645, 0.2542484700679779, -0.25278452038764954, -0.27237725257873535, 0.07843921333551407, 0.02997112087905407, -0.1466568112373352, -0.1410655677318573, -0.1974734514951706, 0.20593945682048798, 0.008431734517216682, -0.225661039352417, 0.23859304189682007, 0.29980722069740295, 0.07687494903802872, 0.0013227701419964433, 0.08051522076129913, 0.16893041133880615, -0.15286533534526825, 0.19191956520080566, 0.03691989183425903, -0.10001696646213531, 0.012154672294855118, 0.11276497691869736, -0.23061847686767578, -0.2748429477214813, -0.27431216835975647, 0.09698716551065445, -0.07667089998722076, -0.09320352971553802, -0.16115407645702362, -0.009683683514595032, -0.12017633765935898, -0.20946742594242096, -0.06028767675161362, 0.3795935809612274, 0.18919983506202698, 0.04222051426768303, -0.040904413908720016, 0.11268840730190277, 0.39732861518859863, 0.5240861177444458, -0.1984078288078308, -0.2482341080904007, 0.05659624934196472, -0.19943225383758545, 0.24528993666172028, -0.04741223528981209, 0.011648339219391346, 0.08186578005552292, -0.14367558062076569, 0.4022229015827179, -0.03128251060843468, -0.20583581924438477, 0.06682633608579636, -0.25775882601737976, 0.33765387535095215, 0.06212358921766281, 0.013567901216447353, 0.07730034738779068, -0.08101058751344681], [0.1886928826570511, -0.04120373725891113, 0.042986199259757996, 0.07712482661008835, 0.0043627372942864895, 0.21405336260795593, 0.3730655610561371, 0.14623026549816132, -0.01714492030441761, -0.12981899082660675, 0.06651122123003006, 0.30509451031684875, 0.12010619789361954, 0.1618276685476303, 0.4448815584182739, 0.1673409342765808, 0.1692543923854828, 0.2915014326572418, 0.2130972445011139, 0.07422436028718948, -0.17231552302837372, -0.026092231273651123, -0.23397059738636017, 0.28255435824394226, 0.12096381932497025, -0.06633175164461136, 0.06311517208814621, -0.1208387240767479, -0.1493149995803833, 0.11424285918474197, -0.07115647196769714, -0.2621467113494873, -0.10945022851228714, 0.13706016540527344, 0.30136343836784363, -0.18314248323440552, -0.23274387419223785, 0.2748890221118927, -0.2779875099658966, 0.11514714360237122, 0.15341246128082275, -0.4633741080760956, 0.04559700936079025, -0.4715711772441864, -0.08931463211774826, -0.11141764372587204, 0.1147623136639595, -0.3903716504573822, -0.18567918241024017, -0.05005732551217079, -0.21474526822566986, -0.12156995385885239, 0.011046412400901318, 0.28310734033584595, 0.025229206308722496, 0.13074469566345215, 0.19464293122291565, -0.2725626826286316, -0.19494226574897766, -0.33406633138656616, 0.15438634157180786, -0.2956540584564209, 0.3115272521972656, -0.15352024137973785, -0.30544695258140564, -0.0723739042878151, 0.34228256344795227, -0.10963506251573563, -0.06248730793595314, -0.10713706165552139, -0.05193813145160675, -0.03470355644822121, 0.17034880816936493, 0.15504831075668335, 0.22382108867168427, 0.17719468474388123, -0.04101381078362465, 0.12213079631328583, 0.3086392283439636, 0.2067970186471939, -0.008852156810462475, -0.003943042829632759, 0.18217794597148895, -0.00719858193770051, 0.21014373004436493, -0.091488316655159, 0.0042331889271736145, -0.012620794586837292, -0.31517115235328674, 0.40199562907218933, 0.20138028264045715, 0.12779521942138672, 0.3029182553291321, -0.1345759779214859, -0.12696242332458496, 0.03018900193274021, 0.3337741196155548, -0.011700671166181564, 0.09514112770557404, -0.12912729382514954], [0.0018606380326673388, -0.10037415474653244, -0.056670792400836945, 0.09557785838842392, -0.1435985267162323, -0.14586342871189117, -0.00013487759861163795, 0.08963335305452347, -0.31567251682281494, -0.13699142634868622, 0.23761151731014252, -0.07462773472070694, -0.13523711264133453, 0.19202283024787903, 0.20506541430950165, -0.24352367222309113, 0.24768655002117157, 0.16379785537719727, 0.05577770248055458, 0.20031240582466125, 0.0516788586974144, 0.37891849875450134, 0.12625868618488312, 0.014776799827814102, 0.02014170214533806, -0.2882000803947449, 0.2798282206058502, 0.11647181212902069, 0.04807909205555916, -0.1599060744047165, 0.09384355694055557, -0.2732616066932678, 0.07099217921495438, -0.038278728723526, -0.24640433490276337, -0.15425027906894684, 0.09915278106927872, -0.20820029079914093, -0.3737020194530487, -0.017464684322476387, 0.05088074505329132, -0.13629406690597534, -0.27690353989601135, 0.10762148350477219, 0.18560382723808289, 0.20939494669437408, -0.0025860355235636234, -0.08665977418422699, -0.40264350175857544, -0.040363188832998276, 0.11174612492322922, -0.5071685314178467, 0.029817692935466766, 0.3025002181529999, 0.04539574310183525, -0.0076959021389484406, -0.23321828246116638, 0.06195417046546936, -0.2349720001220703, 0.2409706860780716, 0.2770911753177643, 0.21680688858032227, -0.08943147212266922, 0.009937286376953125, -0.27504247426986694, 0.12441898137331009, -0.010106966830790043, -0.460563063621521, -0.06412336975336075, -0.18585920333862305, -0.1444714069366455, 0.08697030693292618, -0.11711156368255615, 0.4364180266857147, -0.35491105914115906, -0.2558058500289917, -0.13789978623390198, 0.22044219076633453, 0.2382623851299286, 0.15854071080684662, -0.07791103422641754, 0.04668011516332626, -0.03358221799135208, 0.04474281519651413, -0.1652325689792633, 0.2644501030445099, -0.324725866317749, 0.11079172790050507, -0.015751542523503304, -0.06355573982000351, 0.08011399209499359, 0.03178584203124046, -0.20074710249900818, -0.037793420255184174, 0.3016471266746521, -0.07668149471282959, -0.00904027745127678, 0.06004602462053299, 0.1749543994665146, -0.285141259431839], [0.47634679079055786, 0.28024089336395264, -0.011873703449964523, 0.067442886531353, -0.0004583305271808058, 0.3277953267097473, 0.08044879883527756, -0.3406083881855011, -0.03469723463058472, 0.20376887917518616, 0.05464863404631615, -0.12696461379528046, -0.07205013185739517, 0.06938813626766205, -0.07630191743373871, -0.24905982613563538, -0.10874633491039276, -0.00761413061991334, -0.20812441408634186, 0.3718026578426361, 0.09673020243644714, 0.17902132868766785, 0.05953899770975113, 0.11778737604618073, 0.2956869304180145, 0.11647604405879974, 0.01744788885116577, 0.15539562702178955, -0.21023131906986237, 0.16419923305511475, 0.11231406033039093, 0.15308299660682678, 0.14685389399528503, -0.06507842987775803, -0.22753846645355225, 0.3339909315109253, 0.016965502873063087, 0.14615118503570557, 0.04856882616877556, 0.11083554476499557, -0.1130291000008583, 0.2598467171192169, -0.27216893434524536, 0.3406365215778351, 0.16316206753253937, 0.07118024677038193, 0.14165660738945007, -0.12099409103393555, -0.2325802594423294, -0.1061684787273407, -0.13208219408988953, -0.0911177322268486, 0.08113133907318115, -0.14950846135616302, 0.08476456254720688, -0.050523627549409866, -0.3073979318141937, 0.007240892853587866, -0.0672328993678093, -0.047480009496212006, 0.2281063199043274, 0.13322873413562775, -0.11959635466337204, -0.0007159246597439051, -0.04978874698281288, 0.216093972325325, 0.20033033192157745, 0.19384701550006866, -0.11735542118549347, 0.1858050674200058, -0.17323672771453857, -0.09422917664051056, -0.2666957378387451, 0.06656242161989212, -0.16164714097976685, -0.021701326593756676, 0.07941459119319916, 0.2779971659183502, 0.01879108138382435, -0.09225868433713913, -0.13845792412757874, 0.2322240173816681, 0.16690568625926971, 0.0663677379488945, -0.04545462504029274, 0.004981513135135174, 0.4239528179168701, 0.24512924253940582, -0.3077947795391083, -0.23083052039146423, -0.23455756902694702, -0.057149749249219894, 0.02448384277522564, 0.13478055596351624, 0.27316704392433167, 0.05017606541514397, 0.13675035536289215, 0.06285585463047028, 0.21761751174926758, -0.1187095046043396], [-0.13410153985023499, 0.03289629891514778, 0.07287774980068207, 0.2186378687620163, -0.2601182758808136, 0.06670243293046951, 0.11429506540298462, -0.12428641319274902, -0.1104750782251358, 0.050682567059993744, 0.22783255577087402, -0.07601107656955719, -0.18589521944522858, 0.11673137545585632, -0.2389954775571823, -0.17810063064098358, -0.06217460706830025, 0.08050564676523209, 0.04650428891181946, -0.10226724296808243, 0.20900291204452515, -0.06459993869066238, 0.11909355223178864, -0.21917633712291718, 0.11417771130800247, -0.04442388191819191, -0.16405445337295532, 0.03743560239672661, -0.044595006853342056, -0.13476376235485077, -0.11492735147476196, 0.037405289709568024, -0.08353421092033386, 0.017509041354060173, -0.20722635090351105, 0.30515018105506897, 0.31535154581069946, -0.24712108075618744, -0.11505144089460373, -0.1017363891005516, 0.18412548303604126, -0.04313921555876732, -0.06277738511562347, 0.03597499057650566, -0.2616790533065796, 0.19585847854614258, -0.2362467497587204, 0.3021053969860077, -0.1847575455904007, -0.03605973348021507, 0.01407148689031601, -0.1864044964313507, -0.10065555572509766, -0.06350798904895782, -0.15047289431095123, -0.14415393769741058, 0.11369340121746063, 0.0013513023732230067, 0.03695831447839737, 0.2447231113910675, 0.2324407696723938, 0.28844067454338074, -0.07828421145677567, -0.05473462864756584, 0.03335954248905182, -0.12653036415576935, -0.04443133622407913, -0.03932444751262665, -0.08181513100862503, -0.015950337052345276, 0.012899359688162804, -0.2494666427373886, -0.09340116381645203, 0.1499578207731247, -0.056660450994968414, 0.050831135362386703, -0.34025582671165466, -0.08882247656583786, -0.017342064529657364, 0.2343524694442749, 0.06248723343014717, 0.2870493233203888, -0.2602730095386505, 0.1481969952583313, 0.13562282919883728, 0.22990098595619202, -0.05345775559544563, -0.010626956820487976, 0.001468417001888156, 0.0007002953789196908, 0.1686367392539978, -0.14693039655685425, -0.2269093096256256, 0.028156545013189316, 0.15474765002727509, -0.19480463862419128, 0.056945398449897766, 0.24566125869750977, 0.01545765995979309, -0.036834217607975006], [0.04991527274250984, 0.04689833149313927, 0.07647057622671127, 0.18925286829471588, 0.13378295302391052, 0.29193708300590515, -0.07786912471055984, -0.10113748162984848, -0.09599318355321884, -0.00842320453375578, -0.5096508264541626, 0.0006584377842955291, -0.14758233726024628, -0.06235754117369652, -0.06771423667669296, -0.05051129683852196, -0.3453904688358307, -0.14170050621032715, -0.30296966433525085, 0.06299157440662384, 0.19063721597194672, -0.326999306678772, -0.3047099709510803, 0.09859765321016312, 0.33387815952301025, 0.023723721504211426, 0.14986026287078857, 0.3601329028606415, -0.014631841331720352, 0.15142777562141418, -0.04035471752285957, 0.07863959670066833, -0.10674601793289185, -0.07420839369297028, -0.24320843815803528, 0.1390884667634964, 0.2899446487426758, -0.008669768460094929, -0.023726074025034904, -0.11702198535203934, 0.12291596084833145, 0.3848817050457001, -0.23575221002101898, -0.13511639833450317, 0.2573457956314087, -0.014571478590369225, -0.034542620182037354, 0.1402675360441208, 0.0533212311565876, 0.2437356859445572, -0.5811757445335388, 0.058561258018016815, 0.016162872314453125, -0.03934743255376816, -0.3217445909976959, -0.048002757132053375, -0.21155618131160736, -0.3322758078575134, 0.31533336639404297, 0.19498324394226074, 0.3827212154865265, 0.19225288927555084, 0.15758730471134186, -0.14516472816467285, 0.13373641669750214, -0.013952796347439289, 0.08754763007164001, 0.1049826368689537, -0.11632617563009262, -0.21314239501953125, -0.19810952246189117, -0.17303170263767242, 0.14334416389465332, 0.016370588913559914, 0.08872378617525101, -0.5306708812713623, -0.3133000135421753, -0.22443050146102905, 0.03884271904826164, -0.46411171555519104, -0.10874118655920029, -0.10490929335355759, -0.3170527517795563, 0.3391329348087311, 0.025964975357055664, 0.02812638133764267, 0.10514813661575317, -0.09746895730495453, 0.11266661435365677, 0.07790766656398773, -0.19883933663368225, -0.15198583900928497, 0.051155705004930496, -0.12402718514204025, 0.3260221779346466, 0.03243161737918854, 0.5694108009338379, 0.08670050650835037, -0.4953889846801758, 0.36593276262283325], [0.4718398451805115, 0.18668149411678314, 0.013974063098430634, -0.0031684767454862595, -0.2725640535354614, 0.1458164006471634, 0.010764891281723976, -0.1751682013273239, 0.10121329128742218, -0.18074770271778107, 0.07093122601509094, -0.2456369549036026, -0.18076305091381073, 0.07656632363796234, -0.10258986055850983, -0.012387286871671677, -0.2042524516582489, 0.1324327439069748, 0.042432885617017746, 0.07595627009868622, -0.0737706869840622, 0.0986548364162445, -0.05121494084596634, -0.05059667304158211, -0.1615869104862213, -0.07714587450027466, -0.06669052690267563, 0.16299627721309662, 0.08693723380565643, -0.08807350695133209, -0.01072592195123434, -0.14358218014240265, 0.34069526195526123, 0.19216759502887726, 0.312470942735672, 0.009765373542904854, -0.10297605395317078, 0.05579701066017151, 0.13267076015472412, 0.033504173159599304, -0.49438533186912537, 0.22465242445468903, 0.07047311216592789, -0.04844513162970543, 0.2326073944568634, 0.1349087953567505, 0.08967161923646927, 0.23246164619922638, 0.07806868851184845, 0.18492336571216583, -0.00814316887408495, -0.2076578289270401, -0.08597471565008163, -0.15066958963871002, -0.1350812017917633, -0.1269107460975647, -0.1642279177904129, 0.2895562946796417, -0.06634743511676788, 0.07843852043151855, 0.08249632269144058, 0.11914952099323273, 0.21041111648082733, -0.2790161967277527, 0.15701940655708313, -0.13329170644283295, -0.05418840050697327, 0.001814300543628633, -0.2971397638320923, 0.00861985981464386, -0.2675047516822815, -0.1896182894706726, 0.1215066909790039, 0.19463762640953064, 0.10299600660800934, -0.017248135060071945, -0.022553322836756706, 0.2091362029314041, 0.394275039434433, -0.07277420163154602, -0.14084532856941223, 0.08405335247516632, 0.18846166133880615, 0.043959569185972214, -0.29487186670303345, -0.17561660706996918, 0.16118082404136658, 0.0100002596154809, 0.13414518535137177, -0.06725768744945526, -0.08611778169870377, -0.14872701466083527, 0.1139439195394516, 0.46751677989959717, 0.17657755315303802, -0.08040400594472885, -0.09317278861999512, -0.22944161295890808, -0.0841425359249115, -0.10145679861307144], [-0.5534105896949768, 0.11978399753570557, -0.2871738374233246, -0.4166911542415619, 0.40548670291900635, 0.04102697968482971, -0.16949383914470673, 0.013483795337378979, -0.41228827834129333, -0.10853163152933121, 0.06439027190208435, -0.08905865997076035, -0.1002839207649231, -0.09384363144636154, -0.2142276018857956, -0.19064998626708984, 0.04338892176747322, 0.10839994996786118, 0.3645313084125519, -0.11186284571886063, 0.04830252379179001, -0.00014811828441452235, 0.32140985131263733, 0.06082763150334358, -0.1393323391675949, 0.3278237581253052, -0.39657482504844666, 0.35210540890693665, -0.09871670603752136, -0.12714514136314392, -0.1912357360124588, 0.10121523588895798, -0.04661840945482254, -0.09748687595129013, -0.4656905233860016, -0.035776276141405106, 0.05160125717520714, 0.0013754979008808732, 0.08717835694551468, -0.1687384992837906, -0.0482560358941555, -0.27813348174095154, -0.11956071853637695, 0.1635538786649704, -0.149457648396492, 0.062479209154844284, -0.24529394507408142, -0.07846186310052872, 0.35454443097114563, 0.26269057393074036, 0.33967533707618713, 0.00036394898779690266, 0.39981070160865784, -0.11007888615131378, 0.1301555037498474, 0.05716245248913765, 0.06133808568120003, -0.3408369719982147, 0.07434026896953583, -0.40915924310684204, 0.17158126831054688, 0.23392197489738464, -0.25314778089523315, 0.3248235881328583, 0.13471722602844238, -0.006236590910702944, -0.11056419461965561, -0.028620902448892593, 0.1858000010251999, -0.12266501039266586, -0.1600225865840912, 0.061782706528902054, 0.08377588540315628, 0.048522330820560455, -0.15427786111831665, 0.06579309701919556, 0.1469177007675171, 0.22134265303611755, -0.23049278557300568, 0.07836561650037766, -0.11415255814790726, 0.3799852132797241, -0.005448620766401291, -0.3139187693595886, 0.1466454565525055, 0.1454968899488449, -0.12313836067914963, 0.6208953261375427, 0.08626025170087814, -0.15662595629692078, 0.026168202981352806, 0.11496847867965698, -0.00707833981141448, -0.11009220778942108, -0.07924778759479523, -0.13254959881305695, -0.24652811884880066, 0.4451097846031189, 0.2125100940465927, -0.24943971633911133], [0.26673731207847595, 0.22097523510456085, 0.09752658754587173, -0.042394008487463, 0.08257190883159637, -0.08026232570409775, -0.2430332899093628, -0.3043604791164398, -0.007481978740543127, -0.07874660193920135, 0.04001520574092865, -0.047592755407094955, 0.2704766094684601, 0.1202414259314537, 0.14638188481330872, -0.08669577538967133, 0.02036222629249096, -0.16853520274162292, 0.14761491119861603, -0.19057045876979828, 0.06052988022565842, 0.23945987224578857, 0.2528100907802582, 0.004084642976522446, 0.15715481340885162, -0.08130509406328201, -0.03180648759007454, -0.30674058198928833, -0.1141691654920578, -0.23349164426326752, 0.14030256867408752, -0.04898975417017937, -0.05316103622317314, -0.0341537781059742, -0.06795058399438858, 0.030851447954773903, 0.23121145367622375, 0.09583893418312073, -0.249749094247818, 0.301851361989975, 0.06552469730377197, 0.08783552795648575, 0.05082312598824501, -0.041542764753103256, 0.0932890996336937, 0.3308667838573456, 0.06705120950937271, 0.007985131815075874, -0.20466558635234833, -0.014914645813405514, 0.17266115546226501, 0.02768530137836933, -0.08976557105779648, -0.002135740127414465, 0.023950353264808655, 0.23893539607524872, -0.25431156158447266, 0.021853994578123093, 0.08247913420200348, 0.30283212661743164, 0.25578534603118896, -0.05272550508379936, 0.21385429799556732, -0.04437540844082832, -0.38824665546417236, 0.034056514501571655, -0.23920518159866333, -0.2599690854549408, -0.25486594438552856, 0.01812013052403927, 0.2285509556531906, 0.13412782549858093, -0.015161918476223946, 0.17155243456363678, 0.09496116638183594, -0.02919461578130722, -0.11492674797773361, -0.20318035781383514, -0.17738644778728485, -0.012982352636754513, -0.24896416068077087, 0.22728677093982697, -0.19073376059532166, 0.3137153387069702, 0.2352852076292038, -0.015116947703063488, -0.2098705768585205, -0.31264618039131165, 0.420070081949234, 0.23717761039733887, -0.09927814453840256, 0.13246069848537445, -0.005828485824167728, 0.07036001980304718, 0.2713516652584076, 0.17519035935401917, 0.016666684299707413, 0.025805596262216568, -0.15778249502182007, -0.016338298097252846], [0.1223452016711235, 0.03772389516234398, -0.2523937225341797, -0.22184112668037415, -0.2659194767475128, 0.21634528040885925, -0.014435798861086369, -0.1944398134946823, 0.3013063371181488, 0.11149902641773224, 0.2320384532213211, 0.09486032277345657, 0.0216701477766037, 0.20837034285068512, -0.2146066427230835, -0.11653025448322296, -0.11529052257537842, 0.23365454375743866, -0.3911438286304474, 0.05110732465982437, -0.02359030954539776, 0.26546695828437805, 0.10688842087984085, -0.15324679017066956, 0.12234602123498917, -0.14341962337493896, -0.09299817681312561, -0.04686875641345978, 0.17755760252475739, 0.1424667090177536, -0.21916049718856812, 0.31817135214805603, 0.25140634179115295, -0.34270748496055603, -0.11728012561798096, 0.24000032246112823, -0.24756471812725067, 0.04039260745048523, 0.1578369289636612, -0.17655594646930695, -0.1955888420343399, -0.2311318963766098, -0.23240232467651367, -0.028719864785671234, 0.11678951978683472, -0.13596273958683014, 0.018295465037226677, -0.13020774722099304, 0.09964607656002045, -0.23146414756774902, 0.15012501180171967, -0.11692901700735092, -0.12412751466035843, -0.03131696209311485, 0.21124932169914246, -0.1511038988828659, -0.24834847450256348, 0.05300365388393402, 0.02854328230023384, 0.08525081723928452, -0.21697647869586945, -0.16912581026554108, -0.2578608989715576, 0.041226089000701904, 0.10602961480617523, 0.36843615770339966, 0.23211589455604553, 0.010742811486124992, 0.11398851871490479, 0.42925557494163513, -0.2564302384853363, 0.1469104290008545, -0.2025936394929886, 0.22451095283031464, -0.016920220106840134, 0.06859663128852844, 0.3286348283290863, -0.21637789905071259, -0.11843479424715042, -0.050751943141222, -0.10459697246551514, 0.04744190350174904, 0.12839125096797943, -0.43650975823402405, -0.007620267570018768, -0.10234740376472473, 0.4751381278038025, 0.025874461978673935, -0.24333781003952026, -0.15402191877365112, -0.20143087208271027, -0.25393146276474, 0.22788207232952118, 0.04007868841290474, -0.2712107002735138, -0.209149569272995, -0.043429721146821976, 0.10506255179643631, 0.010550243780016899, -0.21070367097854614], [-0.09755939990282059, 0.05038424953818321, -0.21932603418827057, -0.09030590206384659, 0.19949966669082642, 0.0799354687333107, 0.05628761649131775, -0.004994772840291262, 0.06838920712471008, 0.2655394375324249, 0.10276707261800766, 0.04323036968708038, -0.12051817029714584, -0.0024008755572140217, 0.15680523216724396, -0.13143286108970642, -0.11818667501211166, -0.22465090453624725, -0.15276092290878296, 0.0026686019264161587, 0.19568412005901337, -0.3999987840652466, -0.03062780201435089, -0.07479273527860641, 0.12118839472532272, 0.41301071643829346, 0.09347416460514069, -0.16400393843650818, 0.20158587396144867, 0.3846740126609802, 0.08642333745956421, 0.0020331318955868483, -0.3489207625389099, 0.08614584803581238, -0.030153442174196243, -0.19335424900054932, 0.1533662974834442, -0.09018868952989578, 0.35594916343688965, -0.36946719884872437, -0.17205379903316498, 0.14665727317333221, 0.06575223058462143, 0.14598152041435242, -0.25191184878349304, -0.08988480269908905, -0.2407013475894928, -0.09898712486028671, -0.2559669613838196, 0.1007230281829834, -0.2992737889289856, 0.1480242758989334, 0.16764093935489655, -0.2565900981426239, -0.07055675983428955, -0.09463074058294296, 0.09291793406009674, -0.3389136791229248, -0.011495539918541908, -0.10759014636278152, 0.1166519746184349, -0.08344334363937378, -0.23420019447803497, -0.022787030786275864, 0.2798338830471039, 0.0011475267820060253, 0.11578076332807541, 0.32595792412757874, 0.05874069407582283, 0.17201074957847595, -0.13710279762744904, 0.16297996044158936, -0.19307135045528412, -0.16793175041675568, 0.12209951877593994, -0.001959591405466199, 0.14712008833885193, -0.12318247556686401, -0.09618035703897476, -0.06271079182624817, 0.14384686946868896, -0.03827837109565735, -0.41426581144332886, 0.08821472525596619, 0.10156182199716568, -0.02688678167760372, 0.2086886316537857, -0.14111608266830444, -0.11656498908996582, -0.0704214945435524, 0.08133824914693832, -0.05121566727757454, -0.19257867336273193, -0.11540581285953522, -0.18813858926296234, 0.11189392954111099, 0.18348170816898346, -0.11077311635017395, -0.14844562113285065, 0.1933964043855667], [0.22465085983276367, 0.18602856993675232, 0.2312270551919937, 0.20414046943187714, -0.14326050877571106, -0.021219436079263687, -0.19770307838916779, -0.1385507583618164, 0.24357455968856812, 0.3478181064128876, -0.0562274269759655, 0.2668417692184448, 0.06561948359012604, -0.10955562442541122, 0.12659761309623718, -0.058658670634031296, -0.22787077724933624, -0.09874613583087921, 0.22188228368759155, -0.3292907774448395, -0.0718618854880333, -0.31627997756004333, 0.35053861141204834, -0.12583748996257782, -0.18466569483280182, -0.17699503898620605, -0.0005279212491586804, -0.3132677972316742, -0.17272059619426727, -0.00880377646535635, -0.1880747675895691, 0.44076186418533325, -0.17060460150241852, 0.24706673622131348, 0.11827593296766281, -0.1267789900302887, 0.12322022020816803, -0.039259422570466995, -0.024434830993413925, -0.2605226933956146, 0.20836526155471802, 0.09122870862483978, 0.29919955134391785, -0.07170532643795013, -0.03180398792028427, -0.12225566059350967, 0.32158637046813965, 0.3836807608604431, 0.08593166619539261, 0.12937355041503906, -0.02039947919547558, 0.1131567656993866, -0.23330777883529663, -0.12222319096326828, 0.012061595916748047, 0.10382828861474991, 0.2962096929550171, 0.20080678164958954, 0.21571168303489685, 0.1786574423313141, -0.11294107884168625, 0.21441122889518738, 0.2675328850746155, -0.1437244415283203, 0.19454994797706604, -0.010062579065561295, -0.13439461588859558, -0.03975256532430649, -0.4093158543109894, 0.06696321815252304, 0.24005113542079926, -0.08918582648038864, 0.07877156883478165, -0.12271194905042648, -0.07052768021821976, 0.08834134787321091, 0.043628305196762085, -0.1567901223897934, 0.10219863802194595, -0.1201522946357727, -0.06580743938684464, -0.17343200743198395, -0.3465355932712555, -0.22963379323482513, -0.12444770336151123, -0.13265247642993927, 0.05843009427189827, 0.030905645340681076, 0.04094581678509712, 0.12115225940942764, -0.11182793974876404, 0.18061137199401855, 0.2518400251865387, 0.11433287709951401, 0.03945368900895119, -0.26472964882850647, 0.2560497224330902, 0.08421408385038376, -0.4902699589729309, 0.22332003712654114], [0.03243791311979294, 0.18853992223739624, -0.136219784617424, -0.27552664279937744, 0.2024621218442917, -0.10367799550294876, 0.10947701334953308, 0.2635924816131592, -0.02652045711874962, 0.4107345938682556, -0.0902971550822258, 0.24970000982284546, 0.1147071048617363, 0.23349645733833313, 0.1621880829334259, 0.09328621625900269, 0.042936183512210846, 0.22630271315574646, -0.10670004040002823, -0.04685668274760246, 0.04666562005877495, -0.16936053335666656, -0.014065973460674286, -0.11458142846822739, -0.28572675585746765, -0.28087133169174194, -0.08194631338119507, -0.0012674302561208606, 0.30421724915504456, 0.3520280122756958, -0.2970747947692871, 0.009972350671887398, 0.10465589165687561, -0.1144694834947586, 0.23183172941207886, -0.1466834396123886, -0.08881443738937378, -0.12068990617990494, -0.04072090983390808, 0.07913388311862946, -0.26206648349761963, 0.0467560775578022, 0.31469857692718506, 0.13951760530471802, -0.0666140615940094, -0.027961159124970436, 0.2354111522436142, -0.12037515640258789, -0.1345839649438858, -0.3244335353374481, -0.14145268499851227, 0.30010899901390076, -0.41066956520080566, 0.3409654498100281, 0.08345259726047516, -0.047068290412425995, -0.09337819367647171, -0.028938356786966324, -0.1462610512971878, 0.2701965272426605, -0.12486279010772705, -0.1758873462677002, -0.2578442096710205, -0.2055162787437439, 0.09519126266241074, 0.3481704890727997, -0.27705374360084534, 0.009724091738462448, -0.08486010134220123, 0.20809617638587952, 0.16639970242977142, 0.10192495584487915, 0.25572675466537476, -0.03705991059541702, -0.275145947933197, -0.042880501598119736, -0.13292060792446136, -0.47390615940093994, -0.1758325845003128, -0.0635034367442131, -0.20983077585697174, -0.01809713803231716, -0.018576519563794136, -0.28457075357437134, -0.03896000608801842, 0.00030707355472259223, -0.015301184728741646, 0.053727515041828156, 0.20108841359615326, 0.303053081035614, 0.07572705298662186, 0.09864985942840576, 0.3239439129829407, -0.09559319168329239, 0.1299487054347992, -0.24473640322685242, 0.02307751215994358, 0.1429980844259262, -0.30451685190200806, 0.25413864850997925], [-0.07007267326116562, 0.007222843822091818, -0.18016478419303894, -0.13234952092170715, -0.09725943207740784, -0.14588803052902222, -0.22585666179656982, -0.03414646163582802, -0.0009246878325939178, -0.363090455532074, -0.29807403683662415, 0.09427983313798904, 0.161391943693161, -0.06553258746862411, -0.23585744202136993, 0.19818079471588135, -0.07175309211015701, -0.12616251409053802, -0.12209948152303696, 0.07898343354463577, 0.29336586594581604, 0.03937891870737076, -0.006397985387593508, -0.02715788595378399, -0.18918035924434662, -0.09440746158361435, 0.04062879830598831, 0.1715143620967865, 0.21571101248264313, -0.059568218886852264, 0.03683215007185936, 0.02239190600812435, 0.18209314346313477, -0.35696980357170105, 0.03763878718018532, -0.23926830291748047, -0.18837876617908478, -0.028363002464175224, 0.30190181732177734, 0.047321658581495285, -0.14099016785621643, -0.03682323172688484, -0.5039685368537903, 0.3894316256046295, 0.053404301404953, 0.0448867566883564, 0.1907154619693756, -0.3183148205280304, -0.014835183508694172, 0.14132502675056458, -0.0469062477350235, -0.07423902302980423, 0.274797260761261, 0.1110483929514885, 0.3656575083732605, -0.14733052253723145, -0.05146656185388565, 0.09777633100748062, -0.026074348017573357, 0.16059815883636475, -0.1305345594882965, -0.35119324922561646, 0.13847652077674866, 0.4459824860095978, 0.026501888409256935, 0.3463602662086487, 0.12300215661525726, 0.11029750853776932, -0.3186246156692505, 0.042136020958423615, -0.22417934238910675, 0.3940459191799164, 0.15485811233520508, -0.0992092564702034, -0.042982324957847595, -0.19310949742794037, 0.12131831049919128, 0.3702646791934967, 0.01874566078186035, 0.039370205253362656, -0.13663654029369354, -0.07499981671571732, 0.15782080590724945, 0.1830424666404724, -0.168988436460495, -0.2981240749359131, 0.06164100021123886, -0.33829396963119507, 0.2798588275909424, -0.28085553646087646, 0.03776053339242935, 0.21334236860275269, 0.4265117049217224, -0.16423730552196503, 0.191563680768013, 0.3191118538379669, -0.3065236806869507, -0.564835250377655, -0.019245373085141182, -0.1833917796611786], [-0.018381861969828606, -0.0612015575170517, -0.11479762196540833, -0.012528758496046066, 0.18038052320480347, 0.15335914492607117, 0.2385616898536682, 0.230156809091568, -0.134685680270195, 0.21316377818584442, 0.239549458026886, -0.3056500256061554, -0.2935686409473419, -0.11358720064163208, 0.23008112609386444, -0.08638619631528854, 0.28482288122177124, 0.0663536861538887, 0.008112524636089802, 0.04480963200330734, 0.13300535082817078, -0.007976158522069454, 0.012192298658192158, 0.044966500252485275, 0.23728761076927185, 0.14979103207588196, -0.11178141832351685, -0.17683865129947662, -0.21214519441127777, 0.13618844747543335, 0.1235027089715004, -0.23905876278877258, 0.046164900064468384, -0.2734319567680359, 0.21316839754581451, 0.18761533498764038, -0.2014380395412445, -0.16812407970428467, 0.2240346074104309, -0.23189333081245422, 0.21932819485664368, 0.20791281759738922, 0.0158913005143404, 0.03387885540723801, 0.10183461010456085, 0.10625937581062317, -0.1372254341840744, 0.07266388088464737, -0.34848350286483765, -0.20257122814655304, 0.2082892805337906, -0.0897102802991867, 0.045857835561037064, 0.02366119623184204, -0.14022207260131836, 0.050972823053598404, -0.05031511187553406, -0.02033001184463501, 0.1436602920293808, -0.15468531847000122, 0.2149583250284195, 0.0828668475151062, -0.1079687848687172, 0.2082034796476364, -0.08887769281864166, -0.11672293394804001, -0.05228130519390106, -0.0774267241358757, 0.25222957134246826, 0.25460779666900635, 0.24031108617782593, -0.13995446264743805, -0.2586170732975006, 0.008706099353730679, -0.1919122040271759, 0.15522949397563934, 0.21562960743904114, 0.2600547671318054, -0.3936276435852051, -0.027215832844376564, 0.19444219768047333, -0.04985560476779938, 0.2743706703186035, -0.34952622652053833, -0.02968611568212509, 0.04161011800169945, 0.014919109642505646, 0.24678142368793488, 0.013353648595511913, 0.13934727013111115, 0.2325509637594223, -0.43683767318725586, -0.23944081366062164, 0.1643657386302948, -0.13095086812973022, 0.1635277420282364, -0.3311329483985901, 0.3218379020690918, 0.22766099870204926, -0.19161269068717957], [0.15409213304519653, 0.4138411283493042, 0.28674474358558655, -0.11980388313531876, 0.08074522018432617, -0.0249603483825922, 0.11537212133407593, -0.2928389310836792, -0.016670607030391693, 0.07962752878665924, -0.189854234457016, 0.10014677792787552, -0.16233953833580017, 0.20277836918830872, -0.18721771240234375, 0.010322543792426586, 0.015371236018836498, 0.14253279566764832, -0.16617463529109955, 0.09647256880998611, 0.33103471994400024, 0.246966153383255, 0.05048660561442375, -0.09941665083169937, 0.3449285924434662, 0.1448105275630951, 0.1190548837184906, -0.2784057855606079, -0.10999463498592377, 0.0132352439686656, -0.12403761595487595, 0.3529343008995056, 0.10084819793701172, -0.26868292689323425, 0.019161438569426537, 0.36873552203178406, -0.006508590187877417, 0.2404862493276596, 0.2321145087480545, 0.15910370647907257, 0.0364665761590004, 0.15367667376995087, 0.13947492837905884, -0.26925891637802124, -0.1626795530319214, 0.0017091132467612624, 0.03271554782986641, 0.1500508338212967, -0.04776957631111145, -0.15020634233951569, -0.19183000922203064, -0.06972306966781616, -0.24603122472763062, 0.058451104909181595, 0.08676926791667938, 0.1838117241859436, -0.019067684188485146, -0.0004689115157816559, 0.10831822454929352, 0.14597752690315247, 0.05837246775627136, -0.018683625385165215, 0.03861739858984947, 0.042324669659137726, 0.2697274386882782, 0.05141504481434822, 0.2444724440574646, -0.21296067535877228, -0.05726942420005798, -0.057633597403764725, 0.1663459688425064, 0.05661541596055031, -0.020786868408322334, -0.07188631594181061, -0.21050123870372772, -0.03296080604195595, -0.028842609375715256, 0.214826300740242, 0.047288596630096436, 0.12162324786186218, -0.11370399594306946, 0.022360850125551224, -0.14823292195796967, 0.3043162524700165, 0.21860599517822266, -0.1550111174583435, 0.239715576171875, -0.14046771824359894, -0.037742625921964645, -0.18334992229938507, -0.1804172694683075, 0.15415601432323456, 0.26337242126464844, -0.055669933557510376, 0.1239529624581337, -0.34775662422180176, 0.08177834749221802, -0.15056432783603668, -0.1216273158788681, 0.14469759166240692], [-0.3815702497959137, -0.08211789280176163, 0.01964893378317356, 0.046825990080833435, -0.2868875563144684, 0.045664940029382706, -0.14149761199951172, 0.07214926928281784, 0.11093311011791229, -0.18045850098133087, -0.1840544044971466, -0.003570964327082038, 0.009107677266001701, 0.017464475706219673, -0.1763896942138672, -0.0963091179728508, -0.16870619356632233, -0.20635852217674255, -0.07727722078561783, -0.2610158920288086, 0.10945449769496918, 0.004888562485575676, -0.12808379530906677, 0.027448667213320732, -0.1937054991722107, -0.010083572007715702, 0.09544653445482254, -0.04230893775820732, -0.075843945145607, -0.2670702636241913, -0.06361313164234161, 0.022068345919251442, -0.04077263921499252, 0.019378498196601868, -0.11975039541721344, 0.0898650735616684, 0.10883277654647827, -0.22993284463882446, -0.08740779012441635, 0.0899348184466362, -0.019868072122335434, 0.20092971622943878, -0.1035965159535408, 0.0867091715335846, 0.217703178524971, 0.020546963438391685, -0.16714578866958618, 0.06298725306987762, 0.23055824637413025, 0.16639329493045807, -0.010153891518712044, -0.32858720421791077, -0.24652691185474396, 0.20485202968120575, -0.18664853274822235, -0.4277735948562622, -0.16387581825256348, 0.2980089485645294, 0.18589060008525848, 0.006605518516153097, 0.16530528664588928, 0.30433496832847595, -0.17823854088783264, -0.04809383675456047, -0.23907090723514557, 0.2169274240732193, 0.013977316208183765, 0.01597224548459053, 0.2008635252714157, -0.036739300936460495, 0.09099917113780975, 0.09229498356580734, -0.0072176093235611916, -0.03165854513645172, -0.30047959089279175, -0.0038632804062217474, -0.2645619213581085, -0.08157990872859955, -0.08873850107192993, -0.17513789236545563, 0.19118167459964752, 0.042886845767498016, -0.08296201378107071, 0.1950683444738388, -0.3087977468967438, 0.12784336507320404, -0.13088031113147736, -0.41199880838394165, -0.001506698434241116, -0.09906631708145142, 0.10504696518182755, -0.045030537992715836, -0.02291453815996647, -0.1519186794757843, 0.23454919457435608, 0.10854040831327438, -0.18745453655719757, 0.23665744066238403, -0.11807416379451752, 0.008297089487314224], [0.04318676143884659, 0.05743883550167084, -0.047483205795288086, -0.3090619742870331, 0.11168066412210464, 0.007176388055086136, 0.14468418061733246, 0.13446159660816193, 0.12745657563209534, -0.08570625633001328, -0.0518142394721508, 0.0696253776550293, 0.38659805059432983, -0.22267718613147736, 0.1335267573595047, -0.03259788826107979, -0.178550124168396, -0.033289775252342224, 0.21012422442436218, -0.1508110910654068, -0.2298096865415573, -0.5224076509475708, -0.249334916472435, 0.19952908158302307, -0.02378854528069496, -0.02599969133734703, -0.07620663195848465, 0.1926150619983673, 0.015937265008687973, -0.14826074242591858, 0.2743208408355713, 0.05356909707188606, -0.06516412645578384, 0.15647479891777039, 0.138410285115242, -0.19213712215423584, 0.09108291566371918, 0.3389188051223755, -0.1437952220439911, 0.08158448338508606, 0.17433752119541168, 0.0651034340262413, 0.06011088192462921, -0.26928654313087463, 0.03935462236404419, 0.023773780092597008, 0.2787778675556183, 0.1447930485010147, 0.06281508505344391, 0.2184898555278778, 0.14875322580337524, 0.17563940584659576, 0.22863540053367615, -0.3686787784099579, 0.2591964900493622, 0.1194538027048111, 0.05620884522795677, -0.005863584578037262, 0.22228378057479858, 0.12166490405797958, -0.1348787397146225, 0.21743428707122803, -0.032242391258478165, -0.06340035051107407, 0.011179190129041672, -0.0904698595404625, -0.2000730335712433, -0.12799566984176636, -0.07063963264226913, -0.12687139213085175, -0.015541707165539265, -0.26429328322410583, 0.0763797014951706, -0.21619310975074768, -0.18196935951709747, -0.14444635808467865, -0.08587765693664551, -0.008184924721717834, 0.12644349038600922, -0.22220639884471893, 0.015193852595984936, -0.033715974539518356, 0.08494862169027328, 0.140269473195076, 0.02546064555644989, 0.01910892128944397, 0.14325658977031708, 0.013451829552650452, 0.18210498988628387, 0.17380699515342712, 0.015968795865774155, -0.2685759663581848, 0.09404068440198898, -0.005012177862226963, -0.1785145401954651, 0.028168044984340668, -0.02003825269639492, -0.0780254378914833, 0.06073417514562607, -0.05979419872164726], [0.059751298278570175, 0.17762702703475952, 0.31890374422073364, -0.19017387926578522, -0.3581071197986603, -0.19204583764076233, 0.19365091621875763, -0.02835564687848091, 0.2271011769771576, 0.15706616640090942, 0.4033842384815216, 0.09560216218233109, -0.06961864233016968, 0.3782464861869812, -0.05833003669977188, 0.27473193407058716, 0.33946341276168823, 0.38303014636039734, 0.44197878241539, -0.1576082855463028, 0.12367815524339676, 0.35842809081077576, 0.1668287068605423, 0.19761362671852112, 0.19072912633419037, -0.3122507631778717, 0.09261638671159744, -0.04225405305624008, -0.14509855210781097, 0.412690669298172, -0.20665103197097778, -0.3755092918872833, 0.016597677022218704, 0.048993825912475586, 0.20167428255081177, -0.03636674955487251, 0.2824913263320923, 0.38043785095214844, -0.21505294740200043, 0.061273109167814255, -0.0049856239929795265, 0.07126955687999725, 0.14960330724716187, -0.35871681571006775, 0.19061145186424255, 0.20300471782684326, 0.10424627363681793, -0.28913381695747375, -0.009595642797648907, -0.02624971605837345, 0.0037420394364744425, -0.26280128955841064, 0.1858006715774536, 0.16379845142364502, 0.07113271951675415, 0.061626262962818146, 0.011172357015311718, 0.2131669968366623, -0.24543948471546173, 0.10851255059242249, -0.08374162018299103, -0.1564650982618332, 0.11464561522006989, 0.1280447244644165, -0.13844925165176392, 0.20170505344867706, 0.37748727202415466, 0.0592232383787632, 0.22189819812774658, -0.0326564647257328, -0.13228891789913177, -0.10769115388393402, -0.07244624197483063, 0.21932508051395416, 0.032988883554935455, -0.3000362813472748, -0.1698121428489685, 0.1811171919107437, 0.3344027101993561, 0.3784925937652588, -0.011826785281300545, -0.023582354187965393, 0.13358722627162933, 0.25546711683273315, 0.12028563022613525, -0.17191211879253387, 0.00836590863764286, -0.3888171911239624, -0.09350349754095078, -0.10371451079845428, -0.13932737708091736, -0.16003473103046417, 0.033545609563589096, -0.15460500121116638, -0.047300077974796295, -0.03020687960088253, -0.1799664944410324, -0.3580784797668457, 0.34092313051223755, -0.25155091285705566], [0.466359943151474, 0.1081685721874237, 0.12009712308645248, 0.0982472151517868, -0.010279316455125809, 0.05514031648635864, 0.14992879331111908, 0.06921660155057907, -0.2785133421421051, 0.43135368824005127, 0.08456461131572723, -0.1329326331615448, -0.2696557343006134, 0.17630614340305328, -0.006956551223993301, -0.5000009536743164, 0.10139632970094681, 0.15227928757667542, -0.06650318950414658, 0.15142329037189484, 0.22062630951404572, -0.22074605524539948, -0.007442723959684372, -0.35097479820251465, 0.3742953836917877, -0.11784343421459198, -0.004850948695093393, -0.14963920414447784, 0.031731776893138885, 0.3822793960571289, 0.1716824620962143, 0.048874836415052414, -0.06224944442510605, 0.07177455723285675, -0.019065024331212044, 0.3058984875679016, 0.3050422966480255, -0.1918991506099701, 0.17991627752780914, -0.09953149408102036, 0.12070811539888382, -0.01581699773669243, 0.016681063920259476, 0.00754703301936388, 0.11422508955001831, -0.1203436404466629, -0.11868145316839218, -0.015983328223228455, -0.09738703072071075, -0.20124240219593048, -0.08663757890462875, -0.19310985505580902, 0.0701056569814682, -0.10483114421367645, -0.002510937862098217, 0.020988276228308678, -0.279533326625824, -0.059135377407073975, -0.2883143424987793, 0.2851845324039459, 0.17341963946819305, 0.0897039920091629, -0.2863205671310425, 0.10434453934431076, -0.18564213812351227, 0.19920550286769867, -0.09543371945619583, 0.0477500818669796, 0.29577988386154175, 0.30588409304618835, 0.03540443256497383, 0.2578280568122864, -0.370346337556839, -0.032160066068172455, -0.19065971672534943, -0.24925737082958221, 0.19455578923225403, 0.013762107118964195, -0.0021881829015910625, -0.05955925211310387, 0.08744750171899796, -0.19287896156311035, 0.10069498419761658, -0.19106566905975342, -0.20210742950439453, 0.12409286201000214, 0.11643695831298828, 0.021643141284585, -0.22088472545146942, 0.19055169820785522, -0.15710113942623138, 0.13253089785575867, 0.08799629658460617, 0.1451120674610138, -0.13218991458415985, -0.14631600677967072, -0.10575427860021591, 0.28014251589775085, -0.33448874950408936, -0.021785352379083633], [0.03397812321782112, 0.07792382687330246, -0.04198675602674484, 0.032867249101400375, -0.09639031440019608, -0.007923773489892483, -0.477405846118927, 0.05181850120425224, 0.1708628386259079, 0.2859048545360565, 0.24783754348754883, 0.14997829496860504, 0.03953330218791962, 0.04366058111190796, -0.07772821933031082, 0.06806235015392303, -0.13231921195983887, 0.09321348369121552, -0.10215286165475845, -0.1737210601568222, 0.23327629268169403, 0.03513123095035553, 0.16731922328472137, -0.18399052321910858, -0.023081334307789803, -0.13643020391464233, -0.19005125761032104, -0.2824273407459259, 0.06714148819446564, -0.0926079973578453, -0.17784516513347626, 0.22385679185390472, 0.0870264396071434, 0.07413257658481598, -0.09799890220165253, 0.05917739495635033, -0.041658926755189896, 0.12452463060617447, 0.09362319111824036, -0.3267504870891571, -0.44706571102142334, 0.053938787430524826, 0.024670440703630447, -0.09726172685623169, 0.09152338653802872, -0.06736163794994354, 0.002766453893855214, 0.14559534192085266, 0.08580709248781204, -0.367127001285553, -0.13252249360084534, -0.1611734926700592, -0.33396124839782715, -0.07266825437545776, 0.24925129115581512, 0.07523179054260254, 0.05775660648941994, 0.27515164017677307, -0.1776045858860016, 0.28003445267677307, -0.2792869508266449, 0.008020788431167603, -0.1802082061767578, 0.036442819982767105, 0.12957659363746643, 0.12312525510787964, -0.34262615442276, 0.15663456916809082, 0.1467062383890152, 0.13959901034832, -0.24669410288333893, 0.3168833553791046, 0.09860201179981232, 0.008431418798863888, 0.13344325125217438, 0.027923446148633957, 0.2421911060810089, -0.061206426471471786, 0.1778229922056198, -0.06403142958879471, 0.12280094623565674, 0.31880468130111694, 0.2808731496334076, -0.06674947589635849, -0.21677596867084503, -0.04645633324980736, 0.1437627077102661, -0.028176676481962204, 0.08381069451570511, -0.056075382977724075, 0.1335025131702423, -0.10651794821023941, 0.10514090955257416, 0.13405203819274902, 0.22518710792064667, -0.18956755101680756, 0.15090341866016388, 0.17015446722507477, -0.08696313947439194, 0.39293599128723145], [-0.19765405356884003, 0.08470496535301208, -0.1191590204834938, -0.3887501657009125, -0.06524733453989029, -0.02442977763712406, 0.0367659367620945, -0.07070452719926834, 0.14754091203212738, -0.06017141044139862, -0.11749213188886642, 0.23637884855270386, -0.13990585505962372, 0.08432313054800034, -0.3682843744754791, 0.14585982263088226, -0.009654037654399872, -0.12506930530071259, 0.0400119386613369, 0.20778296887874603, 0.2641521692276001, -0.08845806121826172, -0.23480209708213806, -0.2967967092990875, -0.02064296044409275, -0.2151453197002411, 0.04450312256813049, 0.05657600238919258, 0.12460733950138092, 0.19414250552654266, 0.01867274008691311, 0.0011063417186960578, -0.02462776191532612, -0.07262083142995834, 0.08663119375705719, -0.029567528516054153, -0.08286686986684799, -0.14291924238204956, 0.21346791088581085, 0.0837218314409256, -0.1039896309375763, -0.12250073254108429, 0.053205013275146484, 0.02540510520339012, -0.04541315883398056, 0.01587996631860733, 0.07628318667411804, 0.0019126877887174487, 0.20326215028762817, 0.07889791578054428, -0.09155696630477905, -0.1484489142894745, 0.03155796229839325, -0.020539099350571632, 0.4708777964115143, -0.13838918507099152, -0.23124143481254578, -0.22631362080574036, -0.1029030978679657, 0.0102093406021595, 0.009708967991173267, -0.14447832107543945, -0.36063626408576965, 0.26215484738349915, -0.0769800916314125, 0.20546488463878632, 0.07816275209188461, 0.22342683374881744, 0.19620177149772644, -0.12101036310195923, 0.11050761491060257, 0.36289501190185547, 0.052703484892845154, -0.10540814697742462, -0.10364390164613724, 0.14711856842041016, -0.046819157898426056, 0.05367384850978851, -0.17914853990077972, 0.2612554132938385, 0.1343475580215454, 0.11682114005088806, -0.049877069890499115, 0.04935048148036003, 0.10884454846382141, 0.30983805656433105, 0.08370141685009003, -0.1930607110261917, 0.09355305135250092, 0.03322160243988037, -0.10900133103132248, -0.1397092640399933, 0.14272382855415344, -0.04969726502895355, -0.06996477395296097, 0.03101382777094841, -0.07487676292657852, -0.12805990874767303, -0.1045810878276825, -0.08898255228996277], [0.12789206206798553, -0.1338835209608078, -0.10709187388420105, 0.008666436187922955, 0.037140700966119766, 0.14726288616657257, 0.2554187476634979, -0.0862032100558281, 0.060985907912254333, -0.14092084765434265, -0.15564873814582825, -0.17035874724388123, 0.1847861409187317, -0.03183233365416527, 0.07575403153896332, 0.14803141355514526, -0.1829720139503479, -0.3648388087749481, -0.25003835558891296, -0.17578013241291046, 0.1690497249364853, -0.329573392868042, 0.11991779506206512, -0.047470252960920334, -0.038319822400808334, -0.025446036830544472, 0.029938386753201485, -0.10025633871555328, 0.05668646842241287, -0.1096884086728096, 0.01896669529378414, 0.16159212589263916, -0.2809319496154785, -0.005039513576775789, 0.12112364172935486, 0.12086349725723267, -0.061158616095781326, -1.5179641195572913e-05, 0.19281449913978577, -0.015425927937030792, -0.13286007940769196, 0.19805361330509186, -0.20557686686515808, 0.11623625457286835, 0.01870293915271759, -0.04201769083738327, 0.030553214251995087, 0.34465253353118896, -0.06829175353050232, 0.1857800930738449, -0.10241902619600296, 0.30808016657829285, 0.1771256923675537, 0.136651873588562, -0.3021279573440552, 0.14024131000041962, 0.06980878114700317, 0.20948804914951324, 0.11914768069982529, 0.15343521535396576, 0.16420479118824005, 0.21315911412239075, 0.13669008016586304, 0.049052949994802475, 0.10080400109291077, -0.0042161340825259686, -0.16479811072349548, 0.11698435246944427, 