{"ent_embeddings.weight": [[0.011784764006733894, 0.051494013518095016, 0.06562701612710953, -0.04663628712296486, -0.0069129327312111855, 0.05480532720685005, 0.006562624592334032, -0.00044725945917889476, -0.036810070276260376, 0.02682674489915371, 0.051837049424648285, 0.06199628859758377, -0.049793895334005356, -0.04735059291124344, -0.007783954963088036, -0.04986193776130676, -0.062389932572841644, 0.023935683071613312, 0.062110915780067444, -0.02872147038578987, 0.020491475239396095, -0.06319370865821838, -0.054538339376449585, -0.052207205444574356, 0.0509156659245491, 0.04095936566591263, 0.04330793768167496, -0.05824220925569534, 0.04551111161708832, 0.020734477788209915, -0.000479786453070119, 0.00719565711915493, -0.07167967408895493, 0.06965046375989914, -0.022180762141942978, 0.04917917028069496, -0.027250206097960472, 0.06834506243467331, 0.005446555558592081, 5.684285133611411e-05, 0.05495845153927803, 0.06815873831510544, -0.0032486182171851397, 0.03922028839588165, -0.05148738995194435, 0.053984109312295914, 0.0027312946040183306, -0.061138272285461426, 0.05134284496307373, -0.06915430724620819, -0.05560492351651192, 0.01663678139448166, -0.06968188285827637, -0.004523223731666803, -0.044201336801052094, -0.023933416232466698, 0.04990727826952934, 0.017033619806170464, 0.06627186387777328, 0.05693202093243599, -0.06766938418149948, 0.07320816069841385, 0.05851473659276962, -0.05044874921441078, 0.024202296510338783, 0.041854146867990494, 0.022592179477214813, 0.044564541429281235, 0.05246051400899887, -0.06751611083745956, 0.0022371914237737656, 0.054491885006427765, 0.007717580068856478, -0.021422866731882095, -0.020251218229532242, -0.061488647013902664, 0.05601146072149277, 0.01683630794286728, -0.004036016762256622, 0.07121516019105911, -0.003910913597792387, 0.06229178607463837, 0.07076292484998703, 0.015214379876852036, -0.039479512721300125, 0.022850941866636276, -0.00723227858543396, 0.019692853093147278, -0.03646137937903404, -0.04642073065042496, 0.024063218384981155, -0.06269709765911102, -0.05015774071216583, 0.011268210597336292, -0.03635000064969063, 0.028339341282844543, -0.038160018622875214, 0.04748653247952461, -0.06385179609060287, 0.01251666434109211], [0.010432866401970387, 0.020578304305672646, -0.018772082403302193, 0.02284742332994938, -0.05668696016073227, 0.04819526523351669, 0.0534883514046669, -0.04209369421005249, 0.06870564073324203, 0.05124763026833534, -0.014276969246566296, 0.05903920903801918, -0.043884217739105225, -0.04961320385336876, -0.05325921252369881, 0.06875088065862656, 0.016708364710211754, -0.02634403295814991, 0.04422782361507416, 0.052358295768499374, -0.01128479279577732, -0.0017664303304627538, 0.056658785790205, 0.004158203024417162, -0.0006295116618275642, 0.06784511357545853, -0.05344792455434799, -0.0594489723443985, -0.06348537653684616, 0.021150775253772736, 0.040291789919137955, 0.03586569055914879, 0.04110245406627655, -0.07209249585866928, 0.023038379848003387, -0.0031490956898778677, -0.05789758637547493, -0.05107641592621803, -0.033624496310949326, -0.060637928545475006, 0.014487426728010178, 0.03911244869232178, 0.07171384245157242, 0.07339289039373398, -0.007861833088099957, -0.030284473672509193, 0.02008907124400139, -0.06817377358675003, -0.020547019317746162, 0.008299090899527073, 0.048697199672460556, -0.02473926544189453, 0.07111416757106781, -0.06753655523061752, -0.06289312243461609, 0.04941221699118614, 0.033996887505054474, 0.03335663676261902, -0.003133231308311224, -0.014576835557818413, -0.010655613616108894, -0.046447914093732834, -0.03350520506501198, 0.059224773198366165, 0.04285360872745514, -0.03967299684882164, -0.07023579627275467, 0.0032176028471440077, 0.015028789639472961, 0.01623600907623768, 0.03324272111058235, -0.030260490253567696, -0.009800107218325138, 0.03264816105365753, -8.983285079011694e-05, 0.05351684242486954, 0.010405067354440689, 0.0506424605846405, 0.06856294721364975, -0.03631048649549484, 0.045036930590867996, -0.048233382403850555, 0.0468311607837677, 0.020877547562122345, 0.0221426822245121, 0.0037371795624494553, 0.011266129091382027, -0.06596288084983826, -0.023420795798301697, -0.05604495108127594, -0.03547454625368118, -0.03900133818387985, -0.07287099212408066, -0.022994020953774452, -0.05330914631485939, 0.023841070011258125, 0.07306241244077682, 0.016796495765447617, -0.04110517352819443, 0.0018732802709564567], [0.06860177963972092, 0.026122866198420525, 0.008048709481954575, -0.01281107496470213, 0.06177164241671562, -0.041329506784677505, -0.0430445522069931, -0.03290899842977524, -0.0010986154666170478, 0.02592434175312519, -0.01308648195117712, -0.0372222475707531, -0.014362257905304432, -0.014113295823335648, -0.0687929168343544, -0.033442944288253784, -0.020259622484445572, -0.005756850354373455, 0.014819121919572353, -0.05951857566833496, 0.05091515928506851, -0.05197951942682266, -0.026303069666028023, -0.046999331563711166, 0.01552432868629694, 0.004815710708498955, -0.0737440437078476, -0.05017684027552605, -0.042207591235637665, 0.022947868332266808, 0.0169252660125494, -0.042000334709882736, -3.169410410919227e-05, -0.017177477478981018, 0.07340366393327713, 0.018533650785684586, -0.05760890245437622, 0.04244846850633621, -0.03754356503486633, -0.045338451862335205, -0.023799924179911613, -0.06160566955804825, 0.04165391996502876, 0.02805040031671524, 0.06614458560943604, 0.029999086633324623, 0.04799050837755203, 0.024483080953359604, -0.049343567341566086, -0.06895250827074051, -0.017713231965899467, -0.07180443406105042, 0.048150788992643356, 0.04090510681271553, 0.0007662461721338332, -0.04794718697667122, -0.041790612041950226, -0.07118479907512665, 0.07016520947217941, 0.05580303445458412, -0.05012361332774162, -0.01749102585017681, -0.06950552761554718, -0.07246435433626175, -0.0723678395152092, -0.022421441972255707, -0.05705372616648674, 0.06191660091280937, -0.026059582829475403, -0.007792500779032707, 0.029349416494369507, -0.045654259622097015, -0.06724528968334198, -0.041935525834560394, -0.007498492952436209, 0.031133390963077545, 0.023310648277401924, -0.04404217377305031, -0.009482781402766705, -0.00844828225672245, -0.054667260497808456, -0.03636164590716362, 0.034908685833215714, 0.0064811441116034985, -0.011199609376490116, -0.040780067443847656, -0.00503957737237215, 0.04434628039598465, 0.018320010975003242, 0.003824814921244979, -0.055711209774017334, 0.034002404659986496, -0.06768202036619186, -0.06734085828065872, 0.043178312480449677, -0.06046205759048462, 0.024530185386538506, 0.008624520152807236, 0.03530985862016678, -0.014728452078998089], [-0.014062931761145592, -0.01862889900803566, 0.06508269906044006, -0.05744605138897896, 0.0023290745448321104, -0.06307761371135712, 0.05348379537463188, 0.002190623665228486, -0.022649234160780907, 0.027017854154109955, 0.06302399188280106, 0.019218245521187782, -0.06139242276549339, -0.019457098096609116, 0.053207218647003174, 0.05802048370242119, -0.03154869005084038, -0.017562875524163246, -0.05042978376150131, -0.057101041078567505, 0.042596522718667984, 0.0136069655418396, 0.06855284422636032, -0.0691794604063034, -0.03321328014135361, 0.008162369951605797, -0.023814454674720764, -0.0720948874950409, 0.05417633801698685, -0.030590074136853218, 0.021487383171916008, -0.03538736328482628, 0.05589641258120537, 0.017470140010118484, -0.0032569642644375563, -0.03687469661235809, 0.00408916873857379, -0.02724294178187847, 0.030820311978459358, 0.05867249146103859, -0.07232373207807541, -0.0685054138302803, 0.07134389132261276, 0.0379018671810627, -0.002612929791212082, -0.03524339571595192, -0.012345847673714161, -0.006839468609541655, 0.04012805223464966, 0.016412530094385147, -0.05738668516278267, -0.03173720836639404, -0.0526137612760067, -0.020407775416970253, -0.05341939255595207, -0.021415170282125473, 0.03898751735687256, 0.01765594631433487, -0.015020246617496014, 0.025063488632440567, -0.05135627090930939, -0.014202508144080639, -0.0026326668448746204, 0.007963624782860279, 0.029285313561558723, 0.015310101211071014, -0.04111557826399803, 0.013927244581282139, 0.06297042965888977, 0.053319867700338364, -0.0504026859998703, 0.02663160115480423, 0.055947333574295044, -0.0075936466455459595, 0.032618198543787, -0.06815186142921448, 0.03490098938345909, 0.0016126964474096894, -0.0021951887756586075, -0.027418039739131927, 0.02787111885845661, 0.0009901626035571098, -0.04712222144007683, 0.06143366917967796, -0.0629054605960846, 0.06503447890281677, -0.06739761680364609, -0.015537949278950691, -0.008234534412622452, -0.035968124866485596, 0.0251422468572855, 0.008061508648097515, -0.05288606509566307, -0.06704209744930267, -0.025353850796818733, -0.03327042981982231, -0.023324808105826378, 0.008364998735487461, 0.05567029118537903, -0.05572080239653587], [0.029356207698583603, 0.06337548792362213, 0.047283247113227844, -0.03361784666776657, 0.026361515745520592, 0.04278719052672386, 0.07076653838157654, -0.013862366788089275, 0.019187305122613907, -0.003566958475857973, -0.04163147881627083, -0.011750979349017143, -0.06353519856929779, 0.027019355446100235, -0.028898391872644424, -0.06366803497076035, -0.02532007545232773, 0.06920011341571808, -0.07149872928857803, 0.06250439584255219, 0.0655319020152092, 0.04621240124106407, 0.014514497481286526, 0.022305401042103767, -0.01234608143568039, 0.038348764181137085, -0.06489256769418716, 0.011143611744046211, 0.027366232126951218, 0.03750088810920715, -0.06099247187376022, 0.0717354416847229, -0.008476745337247849, -0.06309369206428528, 0.00475897453725338, -0.056004129350185394, -0.033213358372449875, 0.005294988863170147, -0.01621966063976288, -0.001996755599975586, 0.03456392139196396, -0.06725332140922546, -0.042615946382284164, -0.059300754219293594, -0.05944618210196495, -0.05705420300364494, -0.0004527998389676213, 0.05534554645419121, -0.03407004103064537, 0.03093852289021015, 0.04969295859336853, -0.006868357304483652, -0.07099329680204391, -0.03713013231754303, 0.0174975898116827, 0.018179358914494514, -0.008872207254171371, -0.010964253917336464, -0.043832629919052124, 0.06617771834135056, 0.054906729608774185, 0.06303627789020538, 0.06385736912488937, 0.05430952459573746, -0.05578470230102539, 0.007933707907795906, 0.0009538937010802329, 0.06539022922515869, 0.06219680234789848, 0.05429097265005112, -0.05799334868788719, 0.017770009115338326, -0.01033158227801323, 0.05952749028801918, 0.06730589270591736, -0.04069465026259422, -0.033148881047964096, -0.06894645094871521, 0.002540924120694399, -0.023585375398397446, -0.048701487481594086, 0.018032539635896683, 0.04208887368440628, -0.02870858833193779, -0.05822431668639183, 0.039609767496585846, -0.019250264391303062, 0.04420965164899826, 0.06732270866632462, -0.05116023123264313, 0.06390129029750824, -0.055517155677080154, 0.02747124247252941, -0.07164837419986725, -0.07066038995981216, -0.00897124968469143, -0.00010353430843679234, 0.07287990301847458, 0.05164634808897972, -0.046495698392391205], [-0.05505778267979622, 0.006110373418778181, 0.013093698769807816, -0.034731149673461914, 0.030025558546185493, 0.013839486986398697, -0.053030844777822495, 0.04600553959608078, -0.0057013677433133125, -0.047074560075998306, 0.06426502764225006, -0.02918783761560917, 0.005843542981892824, -0.037801455706357956, 0.07036067545413971, 0.007508221082389355, -0.01039277482777834, -0.015183125622570515, 0.004490430932492018, -0.03825598955154419, 0.03515409678220749, 0.06745336949825287, -0.056361909955739975, -0.05459536239504814, 0.0011480959365144372, 0.035269320011138916, -0.03137438744306564, -0.00628175213932991, -0.044626444578170776, 0.0377999022603035, 0.006702231243252754, -0.07244428247213364, -0.043139226734638214, 0.015677200630307198, 0.016655094921588898, 0.04950442910194397, 0.014928415417671204, 0.05117708817124367, -0.05509353056550026, -0.024570656940340996, 0.061977602541446686, 0.03729860857129097, 0.05576278269290924, -0.0497269406914711, 0.007865255698561668, -0.05685805901885033, -0.06551016867160797, -0.053542930632829666, -0.01679648831486702, -0.059995487332344055, -0.06532236933708191, -0.054097577929496765, -0.06833963841199875, 0.03508683666586876, 0.014299679547548294, 0.02308604307472706, -0.020686687901616096, -0.05927624553442001, 0.026792583987116814, -0.05995072424411774, 0.01604323647916317, -0.0017883755499497056, -0.05492439866065979, -0.016167638823390007, 0.014954387210309505, 0.067099928855896, 0.03979828208684921, -0.028346704319119453, -0.04655049368739128, -0.026447826996445656, -0.04168059304356575, -0.026251697912812233, -0.069083571434021, 0.03883778676390648, -0.04474456608295441, 0.05937671661376953, 0.05086757242679596, 0.010312613099813461, -0.01279511395841837, -0.030805496498942375, -0.02540486678481102, 0.00943650770932436, -0.06505544483661652, 0.006726006045937538, -0.06042969971895218, 0.031123841181397438, 0.022471072152256966, 0.046862807124853134, -0.02516115829348564, -0.06329435855150223, -0.02835761196911335, -0.01878737471997738, 0.046051669865846634, -0.020898330956697464, -0.03379490599036217, -0.01599973812699318, -0.05372857674956322, 0.04525038227438927, 0.004598695319145918, 0.011866935528814793], [-0.03721868619322777, 0.06508650630712509, 0.04019688069820404, 0.021852515637874603, 0.050376564264297485, 0.06890269368886948, -0.06597217917442322, 0.03882140666246414, -0.01402891892939806, -0.03142017871141434, 0.07177816331386566, 0.031170152127742767, -0.000902607454918325, -0.04856722801923752, -0.035761717706918716, -0.028379052877426147, 0.013900414109230042, 0.05291859060525894, -0.061406299471855164, -0.05008460208773613, -0.055540673434734344, 0.067513108253479, 0.04284144565463066, 0.07010573148727417, -0.059119727462530136, 0.022222138941287994, -0.049057018011808395, -0.03163645416498184, -0.05645756423473358, -0.05427610129117966, 0.005141363479197025, 0.01780664175748825, -0.07140553742647171, -0.05501792952418327, 0.06383150815963745, 0.006333056837320328, 0.0733429417014122, -0.04795056954026222, 0.04967799037694931, 0.03576566278934479, -0.06845437735319138, 0.04468377307057381, 0.04701343923807144, -0.027668200433254242, 0.03946072608232498, 0.06921911239624023, -0.002919419202953577, -0.05013186112046242, -0.054502878338098526, -0.029669981449842453, 0.011362957768142223, 0.07282115519046783, -0.029330691322684288, -0.022039052098989487, 0.002890779869630933, -0.02931191958487034, 0.03377268835902214, -0.0726819857954979, -0.048138801008462906, -0.06875136494636536, 0.03241807967424393, 0.05684259906411171, -0.06246434152126312, 0.05464106798171997, -0.03415152430534363, -0.03962964192032814, 0.010815104469656944, 0.060210298746824265, 0.05541056767106056, 0.04943828657269478, -0.020867640152573586, -0.006471302825957537, 0.008234226144850254, 0.014931208454072475, 0.05080621689558029, 0.04152524843811989, 0.06921666115522385, 0.001365973032079637, -0.019037440419197083, 0.06864455342292786, 0.05186616629362106, 0.058047980070114136, -0.03481799736618996, 0.0537533238530159, 0.06234845146536827, -0.05199981480836868, -0.02809131145477295, 0.06681550294160843, 0.054056037217378616, -0.041527364403009415, 0.05865539237856865, 0.04717431217432022, 0.031050456687808037, -0.04763459041714668, 0.0001719216670608148, -0.0327688492834568, 0.02139764465391636, 0.04323353245854378, 0.03898001089692116, -0.0663992166519165], [-0.04397507384419441, -0.06020378693938255, 0.06715527176856995, -0.06101009249687195, 0.05073794722557068, -0.006067679729312658, -0.005907812155783176, 0.06823624670505524, 0.06132129579782486, 0.004424997605383396, 0.01874871738255024, -0.06866131722927094, -0.04333322495222092, -0.0006701784441247582, -0.062273066490888596, 0.029233545064926147, -0.0037808159831911325, 0.007003918290138245, -0.03157248720526695, -0.038330864161252975, 0.009378793649375439, 0.04711810126900673, 0.04243135824799538, -0.02841147780418396, -0.007124667521566153, -0.020173486322164536, 0.038652222603559494, 0.028730031102895737, 0.015009880065917969, 0.03332876041531563, 0.056639332324266434, -0.04474319890141487, -0.046474382281303406, -0.06458058208227158, 0.068729929625988, -0.01568700186908245, 0.07225555926561356, 0.012120026163756847, 0.010938731022179127, 0.04460791498422623, -0.059568580240011215, 0.00958225317299366, 0.04206131398677826, 0.07012292742729187, -0.06633671373128891, -0.0279100239276886, 0.045884668827056885, -0.04406116157770157, 0.0009584988001734018, -0.043624646961688995, -0.07342276722192764, 0.029341332614421844, -0.020746653899550438, 0.04128998517990112, 0.022455884143710136, -0.012457786127924919, 0.0476621612906456, 0.04736023396253586, 0.06238263100385666, -0.012275906279683113, 0.036372046917676926, -0.05499568581581116, -0.06613271683454514, 0.04120141640305519, 0.01947670616209507, -0.0030694245360791683, 0.018104195594787598, -0.06761831790208817, -0.03112294338643551, -0.03246014565229416, -0.0692751407623291, 0.017951907590031624, -0.05192328616976738, 0.02285061590373516, -0.026166364550590515, 0.045035623013973236, -0.04182000458240509, -0.01429179310798645, 0.014812491834163666, 0.013380187563598156, 0.016146492213010788, 0.006103536579757929, 0.057638730853796005, -0.006444217637181282, 0.05704107508063316, 0.044138409197330475, 0.06208370625972748, 0.054264940321445465, -0.057579752057790756, 0.06528528034687042, -0.04342588037252426, -0.06403683871030807, -0.04256019368767738, -0.04906375706195831, 0.00570555729791522, -0.015919413417577744, 0.04658083990216255, -0.028658783063292503, 0.058238524943590164, 0.046586036682128906], [-0.0038153433706611395, 0.04391060024499893, 0.0006700616213493049, -0.027328360825777054, 0.019529404118657112, -0.011004321277141571, -0.01265396736562252, 0.044680893421173096, 0.003061469877138734, 0.05563170835375786, 0.07031331211328506, 0.031454142183065414, -0.021311089396476746, -0.0638369470834732, 0.01854897290468216, 0.0484040342271328, 0.04066246747970581, -0.050645843148231506, -0.06705832481384277, -0.009870078414678574, 0.009166931733489037, 0.029192011803388596, -0.040377046912908554, -0.06619442254304886, 0.030087826773524284, -0.003989884629845619, -0.05695992708206177, -0.07300431281328201, -0.05065762996673584, 0.049168698489665985, -0.0018248988781124353, 0.0026293625123798847, 0.03147120773792267, 0.03579675033688545, -0.023178406059741974, 0.025196854025125504, 0.016940180212259293, 0.05927650257945061, 0.038752660155296326, 0.03081853687763214, 0.0389375165104866, 0.012508039362728596, 0.07292129844427109, -0.004224283620715141, -0.05417506396770477, -0.05859195813536644, 0.06479007750749588, -0.042284563183784485, -0.052939895540475845, 0.06017579138278961, -0.037418998777866364, 0.05574754998087883, -0.013159716501832008, -0.06974776834249496, -0.012420586310327053, 0.0405963733792305, 0.03545001521706581, 0.038701072335243225, -0.05989030376076698, 0.009321348741650581, -0.007330792490392923, 0.0028781015425920486, 0.05634332075715065, 1.1775548955483828e-05, 0.011340388096868992, 0.01695060357451439, 0.03389378637075424, -0.030939888209104538, -0.05915771424770355, 0.04411548376083374, -0.00839034840464592, -0.02542281337082386, -0.051408857107162476, 0.04263605922460556, 0.018417706713080406, 0.041287560015916824, -0.0409843809902668, 0.019805829972028732, 0.05243750661611557, 0.051810383796691895, -0.023248594254255295, 0.0056650047190487385, 0.04768248274922371, -0.016614265739917755, 0.019004445523023605, 0.034178875386714935, 0.05668371915817261, 0.0258332546800375, 0.03142843395471573, -0.046528324484825134, -0.011399430222809315, 0.04569561034440994, 0.017751144245266914, 0.051601774990558624, 0.0560557022690773, 0.06516983360052109, 0.04295055568218231, -0.019878560677170753, 0.0008876460487954319, 0.07241091132164001], [-0.026822129264473915, -0.0705270767211914, -0.012961362488567829, -0.005784587003290653, 0.06524310261011124, -0.03763994947075844, -0.031597673892974854, 0.0440666489303112, 0.07032813876867294, 0.007095948792994022, 0.008585065603256226, -0.06758888065814972, 0.02144440822303295, 0.023552674800157547, 0.05598427727818489, -0.05165877193212509, 0.018875710666179657, 0.005902709439396858, 0.011137486435472965, -0.0035787925589829683, -0.035744644701480865, -0.060386236757040024, 0.02213393710553646, -0.012941580265760422, 0.006163896061480045, -0.01878809556365013, -0.010599558241665363, 0.031185928732156754, -0.006520004011690617, -0.05631953105330467, -0.002993404632434249, 0.046541135758161545, -0.0030183710623532534, 0.011338159441947937, -0.06314864754676819, 0.01832713931798935, 0.009239224717020988, 0.012752645649015903, 0.006881624925881624, -0.023665031418204308, 0.028813565149903297, -0.0027288764249533415, 0.06489580124616623, -0.06706363707780838, 0.060573283582925797, -0.049037620425224304, -0.04967048764228821, -0.06893505156040192, -0.053865011781454086, 0.015528510324656963, 0.050698887556791306, -0.018589377403259277, -0.07212404906749725, -0.02007852867245674, 0.012243764474987984, -0.04522458463907242, -0.030641824007034302, -0.014394087716937065, 0.05000292882323265, -0.01672215200960636, -0.0249639805406332, -0.05065608024597168, 0.02459009364247322, -0.030178464949131012, -0.06908644735813141, -0.012942023575305939, -0.02771264873445034, 0.044574983417987823, -0.020531266927719116, 0.054575979709625244, -0.03764817863702774, 0.013585859909653664, -0.026613749563694, 0.05227762088179588, 0.04711102694272995, -0.016064366325736046, -0.02982727251946926, -0.04247165471315384, -0.006284375209361315, 0.008752002380788326, 0.027330417186021805, 0.042895589023828506, -0.06938900053501129, -0.05611546337604523, 0.023609673604369164, 0.017280450090765953, 0.04874710738658905, -0.02826794981956482, 0.0640094205737114, 0.03424496576189995, 0.05513635277748108, 0.004286986775696278, -0.07032066583633423, 0.053633201867341995, -0.06418832391500473, 0.04310615360736847, -0.03969268128275871, -0.01854598894715309, -0.07016578316688538, 0.011332548223435879], [-0.04136931151151657, 0.012359922751784325, -0.01720348745584488, -0.044394370168447495, -0.042750075459480286, -0.04205755144357681, -0.047573287039995193, 0.040633827447891235, 0.049852579832077026, 0.038213420659303665, -0.009925547987222672, 0.025762321427464485, 0.07190251350402832, -0.03467249125242233, 0.06435465812683105, 0.0488702766597271, -0.0012699100188910961, 0.05753422901034355, 0.06235693022608757, -0.023138368502259254, -0.007576271425932646, -0.07314246892929077, -0.008503451943397522, 0.00921884085983038, 0.01636633463203907, 0.03468281775712967, 0.0311334989964962, -0.019437596201896667, -0.062462784349918365, -0.05140965059399605, 0.027639776468276978, 0.0457322858273983, -0.06557881832122803, -0.017372610047459602, -0.04836801812052727, -0.06924595683813095, 0.02296026423573494, -0.05888814479112625, -0.03178045526146889, 0.002795181004330516, 0.0631638839840889, -0.011028996668756008, -0.04659418761730194, -0.03771857172250748, 0.012585451826453209, 0.0004797751607839018, -0.06663227826356888, -0.04551880434155464, 0.0663929358124733, -0.03282976523041725, 0.040343910455703735, -0.05209937319159508, 0.021844856441020966, -0.07117512077093124, -0.006915158126503229, 0.040974222123622894, -0.002883243141695857, -0.0316021591424942, -0.057702090591192245, 0.03857896849513054, -0.06628213077783585, -0.014409994706511497, 0.0487971156835556, -0.007748049683868885, 0.05839676782488823, 0.005456260405480862, -0.04058939963579178, 0.06786763668060303, 0.06807941943407059, 0.049078211188316345, 0.05454423651099205, -0.010796695947647095, 0.020185478031635284, 0.03648615628480911, -0.03963612765073776, 0.019709719344973564, 0.012213542126119137, -0.06754764169454575, 0.017643854022026062, 0.0013689299812540412, 0.05678889900445938, 0.017300499603152275, 0.06660668551921844, -0.04864361137151718, -0.07072322815656662, 0.06442493945360184, -0.017720649018883705, 0.049074918031692505, 0.05809067189693451, 0.010453607887029648, 0.0029983578715473413, 0.046095676720142365, -0.02870844304561615, -0.0582934208214283, -0.04691310599446297, -0.04408388212323189, -0.012263201177120209, -0.06651036441326141, 0.03421929106116295, 0.04573310911655426], [-0.03136511147022247, -0.01056476216763258, 0.01580977626144886, 0.0162540040910244, -0.04708417132496834, -0.02815955877304077, -0.04257480427622795, -0.0071116602048277855, -0.03436543792486191, 0.008003362454473972, 0.07218565791845322, -0.007555548567324877, -0.022783024236559868, 0.025892263278365135, 0.017388422042131424, 0.057510726153850555, 0.05257637798786163, -0.027339886873960495, -0.07136697322130203, -0.045081231743097305, 0.07285209745168686, 0.052645642310380936, 0.0466071218252182, 0.0643283799290657, 0.06468141824007034, -0.07065049558877945, -0.017645489424467087, 0.037243518978357315, -0.04734252765774727, 0.0034086471423506737, -0.028242262080311775, 0.023786455392837524, -0.0339583083987236, -0.024807054549455643, 0.012614551931619644, -0.07215750217437744, -0.04820072278380394, -0.02123713120818138, 0.02599417045712471, -0.06636957824230194, -0.042196426540613174, 0.011533376760780811, 0.05949189513921738, -0.01760559342801571, 0.03367669880390167, 0.052737027406692505, 0.007706433534622192, 0.06650951504707336, 0.0567401759326458, -0.04805552586913109, -0.0009486505296081305, 0.0014290083199739456, -0.0020072313491255045, 0.019223559647798538, 0.039915844798088074, -0.00545960757881403, -0.018891863524913788, -0.013614819385111332, 0.01667948253452778, 0.013884500600397587, 0.046391043812036514, 0.004533788654953241, 0.04200591519474983, -0.0038055451586842537, -0.0016767948400229216, -0.034396301954984665, -0.03750701993703842, 0.06802938133478165, -0.0193602554500103, 0.035954009741544724, 0.03440219908952713, 0.0353703610599041, 0.0653439462184906, -0.03790910542011261, 0.04451955854892731, -0.06143345311284065, -0.04722222685813904, 0.017258651554584503, 0.06161347031593323, -0.009560657665133476, 0.04529467225074768, -0.02701818197965622, 0.06482714414596558, -0.027926195412874222, -0.07017640769481659, -0.07010351121425629, -0.05657186359167099, 0.00903701689094305, 0.04622878506779671, 0.009134682826697826, 0.06795129925012589, 0.07323538511991501, 0.06808895617723465, 0.05695432424545288, 0.03160117566585541, 0.0008894233033061028, 0.051149990409612656, -0.03416068106889725, -0.06618420034646988, 0.011226826347410679], [0.015145143494009972, -0.007131089922040701, -0.04055233672261238, 0.06402715295553207, -0.07079966366291046, 0.060125842690467834, 0.06678599119186401, 0.06850063055753708, 0.061185259371995926, 0.04741489887237549, 0.024859022349119186, -0.013246550224721432, 0.046431489288806915, 0.008483019657433033, 0.03465333208441734, 0.0006825976888649166, -0.06326151639223099, 0.056474581360816956, -0.0204860121011734, 0.06335030496120453, 0.03727784380316734, -0.03410756215453148, 0.05054749548435211, 0.005251953843981028, -0.07303938269615173, 0.051913999021053314, -0.041723720729351044, 0.03845450282096863, 0.0642695352435112, 0.03855380788445473, -0.029059942811727524, -0.008339707739651203, 0.05547771975398064, -0.008163702674210072, 0.010004773736000061, -0.06326349079608917, 0.013279194943606853, 0.019295457750558853, 0.0667961984872818, -0.0292188860476017, -0.04441171884536743, -0.06736912578344345, -0.013304599560797215, 0.027211245149374008, 0.024874433875083923, -0.060260772705078125, 0.036687757819890976, 0.0012974782148376107, 0.028828702867031097, -0.06450455635786057, 0.056238144636154175, 0.0025891251862049103, 0.029325837269425392, 0.052367981523275375, 0.0555436834692955, -0.022239984944462776, -0.05254874378442764, 0.014873109757900238, 0.07148292660713196, -0.05304248631000519, -0.025693703442811966, 0.06815589219331741, 0.0681961327791214, -0.009806784801185131, -0.008395967073738575, 0.03917399048805237, 0.051612649112939835, 0.04467954486608505, -0.03304017707705498, -0.05094289407134056, 0.06773927807807922, -0.002595922676846385, -0.06977511942386627, 0.020118214190006256, -0.06333020329475403, -0.02239258959889412, -0.041301529854536057, 0.031632088124752045, 0.05502168834209442, -0.002921576611697674, 0.04170157387852669, 0.017179865390062332, -0.009794807992875576, -0.0321430079638958, -0.0167688000947237, -0.040503598749637604, -0.05909350514411926, 0.030687520280480385, 0.037831757217645645, 0.030343255028128624, 0.008392746560275555, 0.04543723538517952, 0.038152001798152924, 0.02507988177239895, 0.041748471558094025, -0.036343205720186234, -0.0012231407454237342, -0.019130954518914223, 0.04209928587079048, 0.05292942374944687], [0.040128812193870544, -0.050147879868745804, 0.016941340640187263, -0.006214010063558817, 0.005599343683570623, -0.03408953547477722, 0.05159728601574898, -0.00621775584295392, -0.040616169571876526, 0.06153316795825958, 0.028965620324015617, 0.039332155138254166, -0.06494779884815216, 0.07187039405107498, 0.02805389277637005, 0.054073527455329895, 0.05932999029755592, 0.02665942721068859, -0.02689203806221485, 0.017976146191358566, 0.0013690799241885543, 0.07308689504861832, 0.07221022248268127, -0.06350809335708618, 0.019244158640503883, 0.021438758820295334, 0.06386163830757141, 0.052958499640226364, 0.026399506255984306, 0.07085906714200974, 0.05733732134103775, -0.033629123121500015, -0.037510067224502563, 0.0386924184858799, -0.0005569882341660559, -0.03094993159174919, -0.02558629773557186, -0.034403059631586075, -0.0040605743415653706, 0.01187673956155777, 0.023958098143339157, -0.02115938812494278, -0.023124778643250465, 0.06923197954893112, 0.05414079129695892, 0.04123085364699364, -0.011034339666366577, 0.0018950902158394456, 0.06507791578769684, -0.015843216329813004, 0.04180486872792244, -0.022744374349713326, -0.07342369854450226, 0.0359296053647995, -0.0026238609571009874, -0.03220879286527634, -0.013831081800162792, 0.047861695289611816, 0.010333041660487652, 0.010791259817779064, -0.034339163452386856, -0.06964872032403946, -0.03456561267375946, -0.052104655653238297, -0.006706743035465479, 0.029437795281410217, -0.007627199403941631, 0.07017027586698532, 0.03929338604211807, 0.02094760350883007, -0.003666090779006481, 0.055713921785354614, -0.054000746458768845, 0.013247154653072357, -0.025228986516594887, 0.021866893395781517, 0.06942573934793472, 0.042529311031103134, -0.025186365470290184, -0.028336333110928535, 0.04702487587928772, -0.02998504973948002, -0.0369744710624218, 0.04167649522423744, -0.010362195782363415, 0.026286881417036057, 0.04912279546260834, -0.009613309055566788, 0.020885776728391647, -0.061846595257520676, -0.03915194794535637, -0.05852770432829857, 0.005985037423670292, -0.037156544625759125, -0.007959960959851742, 0.012132346630096436, -0.013855279423296452, 0.026277421042323112, -0.03715016320347786, -0.03847633674740791], [-0.022090453654527664, 0.02023504674434662, 0.015540043823421001, -0.058868084102869034, -0.0649532824754715, 0.06809785962104797, 0.005687805823981762, -0.0664946436882019, -0.04106256738305092, 0.012232123874127865, 0.043999746441841125, -0.0006046146154403687, 0.07315456122159958, -0.04888056963682175, -0.040019650012254715, -0.00888228788971901, -0.05269039049744606, -0.0590071827173233, 0.051112208515405655, 0.066487617790699, -0.022430891171097755, 0.014157523401081562, 0.013591169379651546, 0.06444716453552246, -0.03745465353131294, 0.05987148731946945, -0.07112790644168854, 0.06789703667163849, -0.06184588000178337, -0.05073435232043266, -0.041086215525865555, -0.020198091864585876, -0.030387721955776215, 0.06515710055828094, -0.06107376888394356, -0.07261406630277634, 0.027127057313919067, 0.05117085576057434, -0.032053910195827484, -0.036818619817495346, 0.010772242210805416, 0.038801949471235275, -0.06196562573313713, 0.038405824452638626, -0.06277593225240707, -0.05044938251376152, -0.006655448582023382, 0.03551091253757477, 0.06333035975694656, 0.0614255890250206, -0.050519078969955444, 0.04881051927804947, -0.01730768010020256, -0.06566507369279861, -0.007219696417450905, 0.022969819605350494, 0.0038924124091863632, 0.0029790562111884356, 0.03941170126199722, -0.02652755379676819, -0.018070083111524582, 0.04489636793732643, 0.027703983709216118, -0.05135900899767876, 0.05905671790242195, -0.008516655303537846, 0.04391896724700928, -0.027343185618519783, 0.061292439699172974, 0.019027799367904663, -0.056885238736867905, 0.038850050419569016, 0.06277074664831161, 0.02346206270158291, -0.06519115716218948, 0.04424693435430527, -0.07068918645381927, 0.07004247605800629, -0.03185831382870674, -0.020602280274033546, -0.05603384971618652, -0.06431150436401367, 0.054911185055971146, -0.03310642018914223, 0.026149390265345573, 0.06778192520141602, 0.011149457655847073, -0.041577816009521484, -0.025332361459732056, 0.07263945788145065, -0.03431505709886551, 0.0634465143084526, -0.026007039472460747, -0.020938128232955933, -0.02022465132176876, 0.009771687909960747, 0.060205306857824326, -0.007376060355454683, -0.02434971183538437, -0.0654858872294426], [0.0699056088924408, -0.007456024177372456, -0.05075414106249809, -0.021362872794270515, -0.017408620566129684, -0.01585284434258938, 0.039881277829408646, 0.057695891708135605, -0.002038598759099841, 0.06204349920153618, 0.04434359446167946, 0.0433221273124218, 0.07044358551502228, 0.054579008370637894, -0.048907071352005005, 0.0007561625097878277, 0.031036164611577988, -0.03426223620772362, 0.04876755177974701, -0.07118925452232361, 0.05534050241112709, 0.04126709699630737, -0.04942301660776138, 0.024159662425518036, -0.0661708191037178, 0.002442573430016637, -0.06726206839084625, -0.0016947229159995914, 0.010032273828983307, -0.03539225086569786, 0.02698608487844467, -0.06323273479938507, 0.06383058428764343, 0.01912934146821499, -0.01905582845211029, 0.04780101403594017, -0.025821082293987274, -0.06523142009973526, 0.056507933884859085, 0.001166149158962071, -0.05702295899391174, 0.025071078911423683, 0.07135561108589172, 0.022962385788559914, -0.035497017204761505, -0.04638953506946564, -0.02641724795103073, 0.003006584709510207, -0.05438963696360588, 0.01559219416230917, -0.014536977745592594, 0.019041508436203003, -0.014804787933826447, -0.046712178736925125, -0.0550822950899601, -0.026449142023921013, 0.06491363793611526, 0.06877549737691879, -0.026085980236530304, 0.0056599779054522514, -0.05717341974377632, 0.017304837703704834, -0.0516979806125164, -0.0632537305355072, -0.04760047420859337, 0.06671469658613205, 0.04355386644601822, -0.021094292402267456, -0.011595603078603745, 0.023763936012983322, 0.055836088955402374, -0.03511250391602516, 0.059046678245067596, 0.041069891303777695, 0.0358983650803566, 0.06457848101854324, 0.05582493916153908, -0.063384510576725, 0.04233447089791298, 0.06597328186035156, -0.039921391755342484, -0.07260695844888687, 0.003920542076230049, 0.07096117734909058, 0.00847494788467884, -0.021584684029221535, -0.0020045156124979258, 0.048238810151815414, -0.04539621248841286, 0.05625678598880768, 0.03711628168821335, -0.04047967121005058, -0.05976967141032219, -0.037517696619033813, 0.02180531807243824, 0.008939803577959538, -0.033080607652664185, -0.039114098995923996, -0.06070318445563316, -0.06672403216362], [0.061962783336639404, -0.014172534458339214, 0.018219472840428352, -0.06787794828414917, -0.01283861044794321, 0.04411281272768974, -0.05453711748123169, -0.009005779400467873, 0.044855743646621704, 0.005998949985951185, -0.015224418602883816, 0.0495697520673275, -0.04919533431529999, 0.07206527143716812, -0.05695933848619461, 0.07115603238344193, -0.010267084464430809, 0.02950409986078739, -0.0265792366117239, 0.03000631555914879, 0.02790702134370804, -0.012544253841042519, 0.048056282103061676, 0.028912164270877838, 0.026819869875907898, -0.020029162988066673, -0.034570034593343735, 0.028733255341649055, 0.001527823624201119, -0.02409973368048668, 0.04595485329627991, 0.03934768587350845, 0.06478749215602875, 0.01057090237736702, 0.006740699987858534, 0.06044243276119232, 0.0169097688049078, 0.062463730573654175, 0.04813792183995247, 0.011892576701939106, -0.039612505584955215, -0.013854937627911568, 0.07274910062551498, -0.013086678460240364, 0.03735223785042763, 0.03256843984127045, -0.016816744580864906, -0.054983075708150864, 0.050270821899175644, 0.013289033435285091, 0.0582263357937336, 0.06318283826112747, 0.006897432263940573, -0.06153923273086548, 0.053032588213682175, 0.06811457127332687, 0.003318050177767873, 0.04686475917696953, -0.006177506409585476, -0.061481326818466187, -0.022398727014660835, 0.006205656100064516, -0.04080585390329361, -0.05493306368589401, 4.201539923087694e-05, -0.058420330286026, -0.052919790148735046, -0.01201379019767046, 0.07106861472129822, -0.036147017031908035, -0.0008594225510023534, 0.004142279736697674, -0.06306731700897217, -0.05787074938416481, 0.003552544629201293, 0.05875493213534355, -0.06627174466848373, 0.016331356018781662, 0.04504729434847832, -0.0012571084080263972, 0.0031803837046027184, 0.014235134236514568, 0.02496727928519249, 0.04127742350101471, 0.02152792364358902, 0.05448721721768379, -0.026549620553851128, -0.022315245121717453, -0.048234302550554276, 0.060318946838378906, 0.0005375283653847873, -0.039658769965171814, 0.013171120546758175, -0.05043249949812889, 0.02560070902109146, -0.02799106389284134, -0.005399141926318407, 0.06705471128225327, -0.06547557562589645, 0.058325015008449554], [-0.014252377673983574, -0.049595002084970474, -0.01791895367205143, 0.03620099648833275, 0.02052040584385395, 0.03401249647140503, -0.0542009137570858, -0.0231828261166811, 0.030393211171030998, -0.04297551140189171, 0.04318336024880409, -0.008763421326875687, -0.04607278108596802, -0.04686080291867256, -0.03279547765851021, -0.06505347788333893, 0.06974483281373978, 0.03016063943505287, -0.04117497801780701, 0.06184665486216545, 0.012644657865166664, -0.07362972944974899, 0.07264738529920578, -0.010196085087954998, 0.030832871794700623, -0.012100926600396633, -0.0610908679664135, 0.01507682353258133, 0.02966785989701748, -0.011471446603536606, 0.027852537110447884, -0.027828680351376534, 0.06332389265298843, -0.0656452402472496, -0.06385273486375809, -0.029749348759651184, 0.06776374578475952, -0.052687738090753555, -0.07278724014759064, -0.027529971674084663, 0.0397845059633255, 0.02041523903608322, -0.050970658659935, 0.038136567920446396, 0.04732904210686684, -0.000518305751029402, -0.022927097976207733, -0.017590675503015518, 0.04465077444911003, -0.0511915385723114, 0.0602865144610405, 0.04647627845406532, -0.049401625990867615, -0.04741420969367027, -0.054443906992673874, 0.05722677335143089, 0.03300514817237854, 0.007510164752602577, 0.06663169711828232, 0.014981100335717201, -0.0037509368266910315, -0.010164548642933369, -0.07248715311288834, 0.005507410503923893, -0.034154780209064484, 0.027340982109308243, -0.0112959248945117, -0.02868177928030491, -0.03629636391997337, 0.025638116523623466, -0.04441038891673088, -0.02567453123629093, 0.06818865984678268, -0.03414634242653847, 0.046130482107400894, -0.012410607188940048, -0.023697927594184875, -0.03646540641784668, 0.06212886795401573, 0.019081762060523033, 0.02162810228765011, 0.0293059591203928, -0.02538091316819191, -0.020182369276881218, 0.05061277747154236, 0.00443257438018918, 0.013069646432995796, 0.052435338497161865, 0.03060055524110794, -0.03897268697619438, -0.023496871814131737, -0.013971420004963875, -0.03286106884479523, 0.011331859976053238, -0.02625058963894844, -0.029757466167211533, -0.0707811564207077, -0.030466996133327484, 0.04852853715419769, 0.04073084518313408], [0.06287172436714172, -0.040551621466875076, 0.059273429214954376, 0.06598026305437088, -0.001582582714036107, 0.016596810892224312, -0.03483324870467186, -0.004367890767753124, 0.018031921237707138, -0.06818293780088425, 0.029994897544384003, -0.015641747042536736, 0.01713578589260578, -0.05391686409711838, 0.032159432768821716, 0.01706952229142189, 0.0013935541501268744, -0.0022846637293696404, 0.05278320237994194, 0.009536683559417725, -0.05928512290120125, -0.01043701171875, 0.057536281645298004, 0.05909110978245735, 0.02484200708568096, 0.0675101950764656, -0.04700285568833351, -0.031140590086579323, 0.06870108842849731, -0.050280556082725525, 0.027928650379180908, -0.06662634015083313, 0.01956934668123722, 0.061192069202661514, 0.04937838390469551, 0.034718263894319534, 0.07163763791322708, -0.030784327536821365, -0.058326371014118195, 0.052131250500679016, 0.006887955591082573, -0.055783502757549286, 0.0034326615277677774, -0.0658612921833992, -0.048476442694664, 0.03445099666714668, -0.02182946167886257, -0.06951145082712173, -0.05157676711678505, 0.06203329563140869, 0.002197353169322014, -0.004734131973236799, -0.01339681725949049, 0.028938349336385727, -0.013368765823543072, 0.052759211510419846, -0.02015693299472332, 0.015691056847572327, 0.01855076476931572, -0.04058890789747238, 0.06421533226966858, -0.07089169323444366, 0.044052768498659134, 0.07113794982433319, -0.006589827593415976, 0.04430446773767471, 0.014514386653900146, 0.07314683496952057, 0.014731147326529026, 0.07299827039241791, 0.025518551468849182, 0.0254050325602293, -0.06914881616830826, 0.0663941502571106, 0.059082336723804474, 0.04502265155315399, 0.07071167975664139, 0.0007025185041129589, 0.037831369787454605, 0.017822572961449623, 0.05339837819337845, 0.013524731621146202, -0.037911493331193924, 0.060900162905454636, 0.03556910529732704, -0.024416711181402206, 0.0046500470489263535, 0.04265965521335602, 0.058415479958057404, -0.027906157076358795, -0.05024803802371025, -0.002746670274063945, -0.020029079169034958, -0.05295970290899277, 0.020469559356570244, 0.035931508988142014, 0.041858188807964325, 0.07279675453901291, 0.03177103027701378, 0.02259225584566593], [0.05820964276790619, 0.05642075464129448, -0.06188424304127693, 0.04952886328101158, 0.06906262040138245, 0.014015909284353256, -0.05923014506697655, 0.06142174452543259, -0.0004443785874173045, -0.007924305275082588, -0.017730064690113068, 0.007673962041735649, 0.05702389031648636, -0.03315769135951996, -0.005068422295153141, -0.06324899196624756, 0.0430147610604763, 0.0723552331328392, 0.0047165327705442905, 0.05604804679751396, 0.005414752289652824, -0.06252866238355637, 0.00448129465803504, 0.01534428633749485, 0.04004261642694473, -0.03276897594332695, 0.06365718692541122, -0.03737892583012581, -0.0038920571096241474, 0.01947358064353466, -0.011066114529967308, 0.04259375482797623, -0.02096536010503769, 0.012770150788128376, -0.022205231711268425, -0.0452045239508152, -0.03993004187941551, 0.03460831195116043, -0.06307640671730042, 0.03507732227444649, 0.0658704861998558, 0.01212638895958662, 0.01470639742910862, 0.05663447827100754, -0.038684092462062836, 0.06668978929519653, -0.062044836580753326, 0.0313185453414917, -0.036690130829811096, 0.03697504103183746, -0.06585842370986938, -0.00026946552679874003, 0.06925397366285324, 0.006238047033548355, 0.052345022559165955, -0.00891130417585373, -0.050773415714502335, 0.013063970021903515, 0.04180433973670006, 0.04418041184544563, -0.0056183673441410065, -0.03811724856495857, -0.03721022605895996, -0.03119957260787487, 0.004216435365378857, -0.06933741271495819, 0.024386467412114143, -0.028538616374135017, -0.03042801283299923, -0.0416189506649971, -0.030534528195858, 0.07063611596822739, -0.04336318001151085, -0.01784832961857319, 0.007340969052165747, -0.04462799057364464, 0.05080881714820862, 0.020135357975959778, -0.06812893599271774, -0.02252541482448578, -0.013027357868850231, 0.018664728850126266, 0.03940625861287117, -0.016434453427791595, 0.0008785886457189918, 0.022297566756606102, -0.07110581547021866, -0.006209016311913729, 0.03640509769320488, 0.043484415858983994, -0.01725720427930355, 0.023821018636226654, 0.06365112960338593, 0.047498948872089386, 0.07324441522359848, 0.015174131840467453, 0.03800245001912117, -0.07147393375635147, -0.039189863950014114, -0.07108377665281296], [0.046261079609394073, 0.056755803525447845, 0.03240804001688957, 0.06750864535570145, -0.012310338206589222, 0.011838150210678577, 0.053585510700941086, -0.04742887243628502, 0.02009936049580574, 0.03369073569774628, -0.012570821680128574, -0.056615520268678665, 0.052932221442461014, -0.06856455653905869, 0.025222213938832283, 0.07221669703722, 0.05415443331003189, -0.05300355330109596, -0.02672596089541912, 0.021609792485833168, -0.01183310803025961, 0.0109316511079669, -0.06935935467481613, -0.00047709778300486505, 0.03866603970527649, -0.010888129472732544, -0.03183256462216377, -0.0638718530535698, 0.04575077444314957, 0.07380235940217972, 0.0727749764919281, -0.041826892644166946, -0.06618334352970123, -0.032915785908699036, 0.058094680309295654, -0.05238443985581398, 0.0007210136973299086, -0.0039032534696161747, 0.05558237433433533, -0.05661299079656601, -0.031106870621442795, 0.0392276868224144, -0.00875902734696865, 0.034670550376176834, 0.04076283425092697, -0.004576848819851875, -0.06614048779010773, -0.06276260316371918, 0.024460675194859505, -0.01675700955092907, -0.056416746228933334, -0.043513961136341095, 0.049081385135650635, -0.013490020297467709, -0.0680205300450325, -0.0019552616868168116, -0.016298042610287666, 0.04137572646141052, 0.010839398950338364, -0.035355791449546814, -0.041184257715940475, -0.04916931316256523, -0.030429333448410034, -0.04392433911561966, 0.030742531642317772, 0.023393023759126663, 0.029308365657925606, 0.011370562016963959, -0.03972063958644867, -0.01751171611249447, -0.016322199255228043, -0.0329810194671154, 0.01797398552298546, 0.05489422380924225, 0.021404702216386795, 0.05144545063376427, -0.006510879844427109, 0.043264973908662796, 0.04031701013445854, -0.017766065895557404, 0.05753879249095917, -0.016611717641353607, -0.06244911253452301, 0.057953596115112305, 0.01523461751639843, 0.023747483268380165, 0.0014821459772065282, 0.05515383183956146, 0.05972586199641228, 0.07129859179258347, 0.033336471766233444, -0.06751707196235657, 0.018319806084036827, 0.02084532380104065, -0.03717486187815666, -0.01468244194984436, 0.06448874622583389, -0.06263892352581024, -0.0015390242915600538, 0.04958213493227959], [0.03382750228047371, -0.026992525905370712, 0.05084177106618881, 0.04770220071077347, -0.0582573339343071, 0.03194216266274452, 0.04151191562414169, 0.0233473964035511, -0.004924910608679056, 0.056932829320430756, 0.057185202836990356, 0.06778474897146225, 0.005549378227442503, -0.0202356968075037, 0.025365257635712624, 0.0030767491552978754, -0.006142109166830778, 0.037074729800224304, -0.054166797548532486, 0.003519408404827118, -0.00749338511377573, -0.06059655174612999, 0.011486849747598171, 0.009349795058369637, 0.07150827348232269, 0.021218810230493546, -0.03391750156879425, -0.0032038933131843805, 0.01878722943365574, -0.05302876606583595, 0.008622550405561924, 0.06520222127437592, -0.009026912972331047, -0.009637774899601936, -0.054573576897382736, 0.07349029928445816, -0.045117925852537155, -0.02485109306871891, 0.010645435191690922, -0.013640865683555603, -0.020048880949616432, -0.012359795160591602, -0.019903400912880898, -0.07350046187639236, 0.072686105966568, -0.015314948745071888, -0.07095291465520859, -0.013768517412245274, 0.02295876294374466, -0.034464433789253235, 0.041685186326503754, -0.05199803411960602, 0.0600227452814579, 0.03670757636427879, 0.027152586728334427, 0.05710654333233833, -0.07182931154966354, -0.02663903683423996, -0.030104076489806175, 0.07278123497962952, 0.013247134163975716, 0.021252863109111786, -0.018908346071839333, -0.008307171054184437, 0.018374154344201088, -0.060223665088415146, -0.039743028581142426, 0.01406977977603674, 0.025175422430038452, 0.04633437097072601, -0.023183010518550873, 0.02247556485235691, -0.004770824685692787, -0.020378826186060905, -0.022376682609319687, 0.06577959656715393, -0.013476213440299034, -0.025925301015377045, 0.003967142663896084, -0.05293863266706467, 0.048324596136808395, 0.07340506464242935, -0.029650777578353882, -0.013663206249475479, -0.04622441530227661, -0.058886583894491196, -0.04502658173441887, -0.009847917594015598, -0.06095288321375847, -0.015968088060617447, 0.02770899422466755, -0.030786331743001938, 0.06470298767089844, -0.050728846341371536, -0.06296892464160919, 0.05376015603542328, 0.04689142853021622, 0.05576299875974655, -0.033889878541231155, -0.024444090202450752], [-0.010440200567245483, 0.038207508623600006, 0.023287400603294373, -0.027012158185243607, -0.042190998792648315, 0.07199709862470627, 0.014099965803325176, -0.038628146052360535, -0.0028196859639137983, 0.05443032085895538, -0.0513506680727005, -0.01712929457426071, 0.04798264056444168, -0.04003603011369705, -0.01367056742310524, -0.07374674081802368, 0.043617039918899536, -0.003096930915489793, -0.03528345003724098, 0.06407933682203293, 0.013654891401529312, -0.06352216005325317, -0.029992947354912758, 0.05871284753084183, -0.013012144714593887, 0.07211069017648697, -0.006204262841492891, 0.04751332104206085, 0.03371608257293701, -0.05077207088470459, 0.05986913666129112, 0.04014540836215019, 0.034346744418144226, -0.012896863743662834, -0.02117687650024891, 0.006720612291246653, 0.054143648594617844, -0.039137180894613266, 0.02829481102526188, -0.06869843602180481, 0.02710670232772827, 0.015976207330822945, 0.000956519041210413, 0.06092073768377304, 0.0020108644384890795, 0.030137313529849052, -0.06107855588197708, 0.07162507623434067, -0.0003529269597493112, -0.02191341295838356, 0.05407019704580307, -0.04680987820029259, 0.015320963226258755, 0.0659414678812027, 0.03223627433180809, 0.06485828012228012, 0.04631667584180832, -0.0449640154838562, -0.05067380517721176, -0.003985736519098282, -0.0015898897545412183, -0.06335490942001343, 0.05005985125899315, 0.04401148110628128, 0.06416472792625427, 0.008789259009063244, -0.06863082200288773, 0.06011703237891197, 0.001690459088422358, -0.03410891070961952, 0.027031484991312027, -0.05259672552347183, -0.03201046213507652, 0.012631702236831188, 0.0544198639690876, 0.015892645344138145, -0.0178480613976717, 0.05055548995733261, -0.015039435587823391, -0.05123438686132431, 0.06512008607387543, 0.04987524077296257, 0.02524588070809841, 0.07081998139619827, 0.005392054095864296, -0.07210388779640198, 0.01413756888359785, -0.03810504823923111, 0.029148725792765617, 0.04973223805427551, -0.0007956448826007545, -0.02238670364022255, -0.03931882977485657, -0.07213208079338074, 0.05072256922721863, 0.011042511090636253, 0.05136934667825699, 0.047483865171670914, -0.019559552893042564, 0.025826023891568184], [0.0025856720749288797, -0.07135579735040665, -0.004895152524113655, 0.02626913972198963, -0.004139889497309923, 0.05704406276345253, -0.03556673601269722, 0.06496822088956833, 0.046886518597602844, 0.021043429151177406, -0.06438736617565155, 0.03670889511704445, -0.02631732076406479, -0.0026287860237061977, 0.0020847071427851915, 0.003214181400835514, -0.029600011184811592, 0.04518667981028557, -0.06357920914888382, -0.0713396668434143, 0.06511920690536499, 0.0013083915691822767, -0.01828186959028244, 0.07351486384868622, 0.032494522631168365, 0.07219552993774414, -0.012574374675750732, 0.06559088081121445, 0.026620151475071907, 0.033941492438316345, 0.03807591274380684, 0.010348612442612648, -0.04694203659892082, 0.04458784684538841, 0.046668391674757004, -0.024545004591345787, 0.032822854816913605, 0.02759725973010063, 0.008583313785493374, 0.0009027792839333415, 0.06827730685472488, 0.05481899157166481, 0.06310747563838959, 0.06468193978071213, -0.051198817789554596, 0.0025139697827398777, -0.03684493899345398, 0.06659737229347229, -0.06044138967990875, -0.003983915317803621, 0.06727128475904465, 0.02196069248020649, 0.061655573546886444, -0.0021332616452127695, 0.05065205320715904, 0.011013232171535492, 0.055848199874162674, 0.0029123607091605663, -0.02453107200562954, 0.06649722903966904, -0.06053692102432251, 0.045330628752708435, 0.007759711239486933, 0.04190501943230629, 0.05546625331044197, -0.02903067320585251, 0.003409630386158824, 0.04969364032149315, 0.003851542714983225, -0.025197148323059082, 0.06579937040805817, 0.07275887578725815, -0.053877830505371094, 0.04329553619027138, -0.041903454810380936, 0.006948034279048443, -0.04110359773039818, -0.0013119940413162112, -0.010279768146574497, 0.019224364310503006, 0.011599510908126831, -0.05463836342096329, -0.0017331554554402828, 0.003633537096902728, 0.04592818021774292, -0.006819638889282942, -0.06842648237943649, 0.02582872472703457, -0.030428772792220116, 0.06856506317853928, -0.03805384039878845, 0.0035620112903416157, -0.010519912466406822, 0.06559383124113083, 0.03683299943804741, -0.045622568577528, -0.043278325349092484, -0.001015239511616528, 0.014810251072049141, 0.06167704984545708], [0.03805406391620636, 0.00048086908645927906, 0.0655471608042717, -0.034060440957546234, -0.00141990021802485, 0.045890241861343384, -0.009555651806294918, -0.0347529798746109, -0.011587237007915974, 0.025588028132915497, 0.03580208122730255, -0.015826130285859108, 0.042554695159196854, 0.02772977016866207, -0.01795245334506035, -0.003214048221707344, -0.03339207544922829, -0.0006215866305865347, -0.07068173587322235, -0.039917394518852234, 0.023760957643389702, 0.00496883736923337, -0.04106222465634346, -0.073084756731987, 0.032639846205711365, -0.06323395669460297, -0.006995865143835545, -0.028996100649237633, 0.033236753195524216, -0.06507477164268494, 0.03304608166217804, 0.07244981825351715, 0.06775683164596558, 0.03152143955230713, -0.053276266902685165, 0.028640618547797203, 0.04702179878950119, 0.008891506120562553, -0.06774596124887466, -0.07388278096914291, -0.060350582003593445, -0.03225523233413696, -0.052449800074100494, -0.061520252376794815, -0.03409929573535919, 0.008928853087127209, -0.03059391677379608, -0.004032274708151817, 0.04450580105185509, -0.050651662051677704, 0.03283793479204178, 0.06751654297113419, 0.015155048109591007, -0.06966689974069595, 0.03935796022415161, 0.0012112761614844203, 0.05368686094880104, 0.06021858751773834, -0.029661431908607483, 0.05960742384195328, -0.04611155390739441, 0.012304115109145641, -0.007309912238270044, 0.019525300711393356, -0.03968749940395355, 0.04410114884376526, -0.034828316420316696, 0.00803455337882042, -0.03469552844762802, 0.04882505163550377, 0.04434998705983162, 0.02123914659023285, -0.03495322912931442, 0.008509675040841103, -0.06372042000293732, -0.04471269249916077, -0.03641565889120102, 0.02053985558450222, -0.051961109042167664, -0.03388933092355728, 0.05150376632809639, 0.057251639664173126, 0.05507747456431389, -0.05368458107113838, 0.06479418277740479, 0.07003264874219894, 0.0416092686355114, 0.03713187947869301, 0.01796157844364643, 0.0253683440387249, -0.04783141613006592, 0.036802586168050766, 0.006701969075948, -0.018809586763381958, 0.03776688501238823, 0.03682975843548775, 0.0694114938378334, -0.06651239097118378, 0.01949395425617695, 0.016773315146565437], [-0.06245724484324455, -0.05804973468184471, 0.02882174216210842, -0.026432659476995468, 0.010811944492161274, -0.03442276641726494, 0.02845742553472519, 0.06923536956310272, -0.059312980622053146, -0.013455788604915142, 0.017125826328992844, 0.0280010923743248, -0.0040644071996212006, -0.014339393936097622, -0.03132818266749382, 0.03035595826804638, 0.05025964602828026, 0.014736969955265522, 0.05654369667172432, 0.01656249910593033, -0.042204368859529495, -0.00515425018966198, 0.05501392111182213, -0.023376712575554848, -0.02517952211201191, -0.034793488681316376, -0.05991785600781441, -0.07125941663980484, 0.06935381889343262, -0.012394767254590988, 0.030141791328787804, 0.051619138568639755, 0.0027764998376369476, 0.05952656641602516, 0.042384251952171326, 0.03656730428338051, -0.018946286290884018, -0.05204086750745773, -0.005992517340928316, 0.06966030597686768, 0.03000878356397152, -0.0611664243042469, 0.041096266359090805, -0.0056752609089016914, -0.03227664530277252, 0.020186757668852806, -0.04365258663892746, 0.07092340290546417, 0.025938622653484344, -0.04087219014763832, -0.021564094349741936, -0.0253127533942461, 0.03365054726600647, 0.04836386442184448, -0.04854118824005127, -0.0471813790500164, -0.003685859264805913, 0.0020802796352654696, -0.06108955293893814, 0.037380922585725784, 0.02541123703122139, -0.014359488151967525, 0.04786234721541405, 0.035242609679698944, 0.07268210500478745, 0.0008926789159886539, 0.009194689802825451, 0.0330515131354332, 0.05259972810745239, 0.04488465562462807, -0.05003461614251137, 0.07102163881063461, 0.025700761005282402, -0.021315541118383408, -0.030919406563043594, 0.04125956818461418, 0.007945104502141476, -0.07307118922472, -0.015162351541221142, 0.0562564842402935, 0.03167823329567909, -0.0289131049066782, 0.023898856714367867, 0.03376218304038048, 0.025423502549529076, 0.006318607833236456, -0.02020987682044506, -0.04365621134638786, -0.06046398729085922, 0.007227861322462559, 0.04483123496174812, 0.061950746923685074, 0.0631536990404129, -0.01785494200885296, -0.04668558016419411, -0.047329146414995193, 0.023611843585968018, 0.00561074772849679, -0.034535203129053116, 0.06268845498561859], [0.07104948163032532, 0.0638430118560791, 0.06521070003509521, -0.04105079174041748, 0.04942120984196663, 0.05723448470234871, 0.0041944608092308044, 0.07324329763650894, -0.06311624497175217, -0.009936564601957798, -0.053392719477415085, -0.0008343709632754326, 0.007219431921839714, -0.005366796161979437, 0.05611659958958626, -0.004233779851347208, 0.012997276149690151, 0.07355685532093048, -0.061711862683296204, 0.03125957399606705, -0.03722561523318291, -0.001525327330455184, 0.037183716893196106, -0.014918413944542408, 0.05680932477116585, -0.0583379901945591, 0.05930941551923752, -0.014850446954369545, -0.04132121428847313, 0.06177029013633728, -0.04789206385612488, -0.04562341049313545, -0.05013560876250267, 0.06903234124183655, 0.02738756313920021, -0.009686823934316635, 0.02168925665318966, -0.03166494145989418, -0.05682229995727539, 0.06397420912981033, 0.02343607135117054, -0.01396543812006712, -0.04134201630949974, 0.022793440148234367, 0.07289861887693405, 0.018929459154605865, -0.02701791375875473, -0.04134487733244896, 0.012872646562755108, -0.05448363721370697, 0.05457601323723793, 0.0014618625864386559, -0.018180694431066513, -0.030071957036852837, -0.07001689076423645, -0.06050673872232437, 0.0300698671489954, 0.05080511420965195, -0.04159654304385185, 0.06872301548719406, 0.04285860061645508, -0.03796115145087242, -0.06565210968255997, 0.034786973148584366, -0.06827578693628311, 0.003242506179958582, 0.043880075216293335, -0.041369933634996414, -0.04983191192150116, 0.060679562389850616, -0.06262008100748062, 0.023044973611831665, 0.04264010488986969, 0.0430791974067688, 0.06404176354408264, -0.04574260488152504, 0.06252643465995789, -0.016402127221226692, 0.022465817630290985, 0.004799069836735725, 0.006479658652096987, 0.06194066256284714, -0.05128194019198418, -0.006943748332560062, 0.059813205152750015, -0.061623889952898026, -0.07012394070625305, 0.01322044339030981, 0.00930328480899334, 0.01736738719046116, 0.04860058054327965, -0.073551706969738, 0.05470564588904381, -0.014359540306031704, 0.0074569000862538815, -0.05663362145423889, -0.04109076038002968, -0.0033756662160158157, -0.07259302586317062, -0.06868948042392731], [0.05842828378081322, -0.05868104100227356, 0.0016330465441569686, -0.012113744392991066, -0.07187439501285553, -0.02789229154586792, -0.06799539178609848, 0.04641110450029373, 0.048865869641304016, 0.06544768065214157, -0.021576128900051117, 0.022093502804636955, -0.03396725282073021, 0.0237403716892004, 0.026946889236569405, -0.001013224245980382, -0.0033370594028383493, 0.05051574110984802, -0.02625148929655552, 0.005458609666675329, -0.006472249515354633, -0.02658155933022499, 0.06637760251760483, 0.04344882071018219, -0.05521082133054733, 0.021238714456558228, 0.023237057030200958, -0.034418076276779175, -0.048365235328674316, 0.033017586916685104, 0.021437792107462883, -0.04634232446551323, -0.03250706568360329, 0.0631280243396759, 0.028768546879291534, 0.054851796478033066, 0.021720966324210167, -0.06444016844034195, -0.06731343269348145, -0.023128166794776917, 0.01878759078681469, 0.03173277899622917, -0.05315416678786278, -0.0030678308103233576, -0.059153176844120026, -0.0663941279053688, 0.04276164993643761, -0.0452762097120285, 0.03635841980576515, 0.06032551825046539, -0.028054101392626762, -0.020702317357063293, -0.00511509133502841, 0.056428611278533936, -0.02153981477022171, -0.02344503067433834, -0.058560676872730255, 0.039993371814489365, -0.007597151678055525, -0.06441475450992584, 0.05283259227871895, 0.06705643236637115, 0.0020969435572624207, 0.04339420422911644, 0.023047713562846184, 0.027562512084841728, -0.02426302246749401, 0.014442749321460724, 0.03557773679494858, -0.07351208478212357, -0.017031894996762276, -0.0671604573726654, 0.06464388221502304, 0.016266673803329468, 0.06676913797855377, 0.05276397988200188, 0.05055887997150421, 0.053371965885162354, -0.03723457083106041, -0.03148755431175232, -0.06122993677854538, 0.01614699698984623, 0.0504220575094223, 0.03145366162061691, -0.036397527903318405, 0.021817488595843315, -0.056591276079416275, 0.04015098512172699, -0.05050371214747429, -0.043083857744932175, 0.06315488368272781, -0.02063964121043682, -0.017256639897823334, -0.04129667952656746, -0.012247230857610703, -0.0398232527077198, 0.013833376578986645, -0.020395619794726372, 0.005044227000325918, 0.03768540546298027], [-0.07134991139173508, -0.05617372319102287, -0.019744884222745895, 0.05074523016810417, 0.026709692552685738, 0.02663213200867176, -0.037348657846450806, -0.05478600412607193, -0.006863039452582598, -0.0493653379380703, 0.06360685080289841, -0.029710916802287102, -0.060083311051130295, -0.04784826934337616, 0.013331204652786255, -0.027838388457894325, 0.05760800093412399, -0.041075192391872406, -0.01832166500389576, 0.03637628257274628, -0.0679723471403122, -0.025933386757969856, -0.014734114520251751, 0.040521059185266495, -0.06323032826185226, 0.06704138964414597, 0.054320115596055984, -0.005874981172382832, -0.02606077678501606, -0.02315392717719078, 0.03740929067134857, 0.034520555287599564, 0.003086081240326166, -0.04042663052678108, -0.03345479071140289, -0.008438187651336193, 0.060964182019233704, -0.058595817536115646, 0.0005086259916424751, -0.023591451346874237, 0.03441917151212692, 0.05404099076986313, 0.040390390902757645, 0.002685395535081625, -0.0011517081875354052, -0.03130463510751724, 0.07156234234571457, -0.03662142530083656, -0.056415338069200516, -0.0537746287882328, 0.06266015022993088, 0.05393628031015396, -0.07346433401107788, -0.06367607414722443, -0.07101801037788391, -0.037073373794555664, -0.0015913845272734761, -0.04411516711115837, 0.06272106617689133, -0.03667481616139412, 0.0303010493516922, 0.03740160912275314, 0.029855361208319664, -0.029370896518230438, -0.01876390539109707, -0.006325757596641779, -0.002570469630882144, 0.057322531938552856, 0.006391958333551884, -0.024088596925139427, -0.035366129130125046, -0.023962439969182014, 0.03682415187358856, -0.053865697234869, -0.05316784605383873, -0.02549491450190544, 0.01123886089771986, -0.06256965547800064, -0.03276162967085838, -0.008249922655522823, 0.009155457839369774, -0.0018361867405474186, -0.06746471673250198, 0.014042031951248646, 0.008357228711247444, -0.06781617552042007, -0.061882469803094864, 0.07317015528678894, 0.008202034048736095, 0.033331774175167084, -0.05363781005144119, -0.004566466435790062, 0.06809686869382858, 0.07272736728191376, -0.047680094838142395, -0.0018142389599233866, -0.051429249346256256, -0.05358467996120453, -0.04351939633488655, -0.02261185459792614], [-0.06889340281486511, 0.05899525806307793, 0.06257779896259308, 0.007748281583189964, 0.04015485942363739, 0.0033334565814584494, 0.057300273329019547, -0.05126727372407913, 0.03769455850124359, -0.002594713354483247, -0.062123313546180725, 0.03316120058298111, 0.008873950690031052, 0.03420373424887657, -0.033159032464027405, 0.03287774324417114, -0.024316484108567238, 0.02581894025206566, -0.06390473246574402, 0.06929361820220947, 0.044941097497940063, -0.07286386936903, 0.04669005051255226, -0.05768553167581558, 0.008563948795199394, 0.007221044506877661, 0.012338646687567234, -0.03641325980424881, 0.04458842799067497, 0.05439836531877518, 0.051937200129032135, 0.06508735567331314, -0.06873815506696701, 0.06942735612392426, -0.03041158802807331, 0.04715777188539505, -0.0313090905547142, -0.04089793562889099, -0.0012682904489338398, -0.008000786416232586, -0.00343481102026999, 0.006493847351521254, 0.050224363803863525, 0.05258006602525711, 0.0006488460348919034, -0.04902735725045204, -0.027740061283111572, 0.009568517096340656, -0.04449476674199104, -0.03577040508389473, -0.031263284385204315, 0.06701298803091049, -0.036897897720336914, -0.0038712548557668924, -0.051201947033405304, -0.026741333305835724, 0.035073187202215195, -0.009289628826081753, 0.018305227160453796, 0.015835771337151527, 0.06411277502775192, 0.01123870350420475, 0.05490892380475998, 0.07317209243774414, 0.06202341988682747, -0.05994778126478195, 0.02148858644068241, 0.0002445613208692521, 0.000785367505159229, -0.04595763236284256, -0.05800066143274307, -0.044667791575193405, -0.011363856494426727, 0.05630479380488396, 0.042986735701560974, -0.06020665913820267, 0.03128565847873688, 0.0036367643624544144, -0.00027678205515258014, 0.05206925794482231, -0.0025584714021533728, -0.06762559711933136, -0.028659740462899208, -0.06941742449998856, 0.016620857641100883, 0.06113961338996887, -0.06217559799551964, -0.02417043223977089, 0.04121033474802971, -0.05293473228812218, 0.025118563324213028, 0.06819918006658554, 0.07013922184705734, 0.061826564371585846, 0.046463754028081894, -0.018733449280261993, -0.04475165158510208, 0.05796780064702034, 0.0286349318921566, 0.012882568873465061], [-0.05826609209179878, -0.03501063585281372, 0.012972238473594189, -0.007765497546643019, 0.044450074434280396, 0.01998385600745678, 0.04451604187488556, -0.034056778997182846, 0.06333799660205841, 0.000718379975296557, -0.008710366673767567, -0.025519872084259987, -0.02797938883304596, 0.014892077073454857, 0.015888636931777, 0.03724299743771553, 0.07045799493789673, 0.022827638313174248, -0.04151863604784012, 0.014129629358649254, -0.054904963821172714, -0.06466848403215408, 0.03415581211447716, 0.02660689316689968, 0.0026120077818632126, -0.07120951265096664, -0.012330367229878902, -0.03049711510539055, -0.05318160355091095, -0.06321291625499725, 0.04117443412542343, -0.04999377205967903, -0.060941874980926514, -0.0032264357432723045, -0.06737546622753143, -0.04727468267083168, 0.04557768628001213, -0.03978193178772926, 0.021081572398543358, 0.04933112859725952, -0.04119794815778732, -0.005987474694848061, 0.05810545012354851, -0.04913339391350746, 0.00687919557094574, 0.04551173374056816, 0.021607039496302605, -0.04581991955637932, 0.07142076641321182, 0.007608037907630205, 0.068446584045887, 0.065833680331707, 0.04609692096710205, -0.03741081804037094, 0.05439376458525658, 0.04581565782427788, -0.014309261925518513, 0.04723375663161278, 0.01908537559211254, -0.03839137777686119, 0.041115764528512955, -0.03584565222263336, 0.061867933720350266, 0.024491792544722557, -0.05951812118291855, 0.0657881423830986, -0.034904032945632935, 0.025484606623649597, 0.03753141313791275, 0.04269843548536301, 0.00871310755610466, 0.009994136169552803, -0.012513830326497555, 0.0308670774102211, 0.07350961118936539, 0.023656783625483513, 0.07090537250041962, -0.05498050898313522, -0.04172920435667038, -0.013849535025656223, 0.028128953650593758, -0.02984548732638359, -0.052887409925460815, 0.05783898010849953, 0.016059167683124542, -0.025896811857819557, 0.009916038252413273, -0.07057458162307739, 0.031031150370836258, 0.04960347339510918, -0.062236487865448, 0.004814090207219124, -0.04905017092823982, 0.007664349861443043, -0.03221846744418144, 0.047081880271434784, -0.0698084831237793, -0.03074542060494423, -0.037370067089796066, -0.05994490161538124], [0.005503834690898657, 0.05878777429461479, 0.013791839592158794, -0.0068342797458171844, 0.03058367408812046, 0.00027967686764895916, -0.011892755515873432, 0.023193063214421272, 0.04004867002367973, -0.024617429822683334, -0.06660612672567368, 0.04169163852930069, -0.0436447449028492, 0.04776281490921974, 0.0560346283018589, -0.047336917370557785, -0.03009773977100849, -0.02880200929939747, -0.05517134815454483, -0.06063906103372574, 0.06533373892307281, 0.03948419541120529, 0.05655043199658394, -0.044316116720438004, -0.0011602404993027449, -0.056542471051216125, -0.0428781732916832, 0.026496117934584618, -0.039747510105371475, -0.06152227893471718, 0.06600695103406906, -0.034820884466171265, 0.021004121750593185, -0.07061067968606949, 0.05230275169014931, 0.04260208085179329, 0.026444368064403534, 0.06930427253246307, 0.04432150349020958, -0.009845438413321972, -0.02842729724943638, -0.019701162353157997, 0.007806147914379835, 0.05207383632659912, -0.004678664728999138, 0.024359986186027527, 0.01471878495067358, 0.01588089019060135, 0.005036624148488045, -0.04019133374094963, -0.025843774899840355, -0.07188810408115387, 0.056456632912158966, -0.035065170377492905, -0.016665048897266388, -0.0185297429561615, 0.03511502966284752, -0.014505749568343163, 0.04473673552274704, -0.05674730986356735, -0.007932882755994797, -0.037147991359233856, -0.0630766749382019, -0.05371136590838432, -0.03833291307091713, -0.0554736889898777, 0.056593362241983414, -0.009429756551980972, -0.06617000699043274, 0.030819471925497055, -0.0676194578409195, 0.06439479440450668, -0.00045088425395078957, -0.006053421180695295, 0.025702713057398796, 0.044651590287685394, -0.04461079090833664, -0.024891993030905724, -0.012456094846129417, 0.04709727317094803, -0.057208944112062454, 0.044448163360357285, 0.042649511247873306, -0.03291553258895874, 0.0006898155552335083, 0.059711892157793045, 0.008555326610803604, 0.053034622222185135, 0.07315262407064438, 0.04139623045921326, -0.02411055564880371, 0.04303842410445213, -0.06999319046735764, -0.06935301423072815, -0.030153820291161537, -0.05452897027134895, -0.06263069808483124, 0.019493602216243744, 0.04117666557431221, -0.008834971114993095], [0.01633431948721409, -0.03136744722723961, -0.059236668050289154, -0.05533917248249054, -0.037739820778369904, 0.048559945076704025, 0.06708408147096634, -0.060525599867105484, 0.046202100813388824, -0.06797819584608078, -0.008960944600403309, 0.03452891483902931, -0.06673974543809891, -0.06421192735433578, -0.06394189596176147, -0.061982572078704834, -0.046384312212467194, -0.04324610158801079, -0.0637185201048851, -0.05361924320459366, -0.0008616468985565007, 0.019358834251761436, 0.04099934175610542, 0.06050660088658333, -0.030946897342801094, -0.03491697087883949, 0.03070872649550438, -0.025894057005643845, 0.05939330905675888, -0.006387289613485336, -0.008000954054296017, 0.0434911735355854, -0.03706337884068489, -0.051358841359615326, -0.07324870675802231, 0.05064712092280388, 0.03827790543437004, -0.012133614160120487, -0.013802816160023212, -0.04508841782808304, 0.06426593661308289, -0.06257230788469315, -0.05123009532690048, 0.013151570223271847, 0.06663639098405838, -0.04308367148041725, 0.04526495188474655, -0.05834290012717247, 0.056185729801654816, 0.00966522004455328, -0.06297918409109116, -0.05460917204618454, 0.0527864433825016, 0.02258509397506714, 0.0302298404276371, 0.05982333794236183, -0.0009344768477603793, 0.05388079211115837, 0.0716598853468895, -0.037528425455093384, -0.03713511303067207, 0.06874646991491318, 0.06515025347471237, 0.04173222556710243, 0.04719662293791771, -0.05559532716870308, -0.025447653606534004, -0.050245095044374466, 0.06728141009807587, -0.009013339877128601, 0.021973488852381706, 0.03815261647105217, -0.05860627442598343, -0.04594385251402855, -0.0588986799120903, -0.03418426960706711, -0.05168164148926735, 0.028877904638648033, -0.04574389010667801, -0.046553537249565125, 0.004378126468509436, -0.0031109859701246023, 0.029963424429297447, -0.054324671626091, 0.014668724499642849, -0.05666200444102287, -0.0011244176421314478, 0.03047599084675312, 0.06623523682355881, 0.01678750105202198, 0.014003976248204708, -0.014640334993600845, 0.052767351269721985, -0.062396641820669174, -0.0074927532114088535, -0.057658761739730835, -0.008207365870475769, 0.03261183574795723, 0.06909918785095215, 0.024169517681002617], [0.0032152789644896984, 0.042656708508729935, 0.015174763277173042, 0.04363458976149559, 0.045162543654441833, 0.06455039978027344, 0.016041653230786324, 0.043213024735450745, -0.06580089777708054, 0.057910528033971786, -0.06860274821519852, 0.042801305651664734, -0.03935125470161438, 0.04053970053792, -0.0029151488561183214, 0.040751319378614426, 0.06414000689983368, 0.022695695981383324, 0.04974234849214554, -0.04838603362441063, 0.006945646367967129, 0.012989447452127934, -0.03596366569399834, 0.001296478440053761, 0.00659355241805315, -0.03242185711860657, -0.039465587586164474, -0.0655374675989151, 0.012156952172517776, 0.03947760537266731, -0.04891349375247955, 0.05155196413397789, -0.04130431264638901, -0.007927321828901768, 0.04276132956147194, -0.04184139519929886, -0.041485000401735306, -0.008016504347324371, -0.06987297534942627, -0.0038521485403180122, 0.0164205152541399, -0.06364814192056656, -0.05486596003174782, -0.005496815778315067, -0.030664430931210518, -0.056924041360616684, 0.054298751056194305, -0.01244944054633379, -0.029135391116142273, -0.06398823112249374, 0.07020679861307144, -0.0036177216097712517, -0.0007843964849598706, 0.03391990810632706, 0.03654113784432411, -0.06437372416257858, -0.021258728578686714, -0.009580748155713081, -0.028785645961761475, 0.014816098846495152, 0.02381915971636772, 0.009952466003596783, -0.03990180045366287, -0.05643007531762123, 0.04000905901193619, -0.018306562677025795, 0.05785668268799782, -0.03062359057366848, 0.043965648859739304, -0.02044091373682022, 0.03852596879005432, -0.02556382678449154, -0.06600935757160187, -0.038758713752031326, 0.020328612998127937, -0.007930883206427097, -0.009109682403504848, -0.07350938767194748, 0.00037219596561044455, -0.015866905450820923, 0.016823729500174522, -0.014684861525893211, -0.004599982872605324, -0.05042263865470886, 0.01415182650089264, -0.04494256153702736, 0.009411817416548729, -0.021879976615309715, -0.05879557505249977, 0.058730535209178925, 0.06492454558610916, 0.027033861726522446, -0.03298766911029816, -0.060541607439517975, 0.0642070546746254, 0.040401995182037354, 0.0031493683345615864, 0.04856754466891289, 0.049315985292196274, 0.009235969744622707], [0.007654009852558374, 0.05803956091403961, -0.06820347905158997, 0.07027295976877213, 0.03166139870882034, -0.019718633964657784, -0.07346852123737335, 0.004304057918488979, -0.015543452464044094, -0.01040313858538866, -0.07044148445129395, 0.06267255544662476, 0.06622113287448883, -0.07105883955955505, -0.048780087381601334, -0.06545187532901764, 0.05432587489485741, 0.044661350548267365, -0.031452689319849014, 0.05724666267633438, 0.021444717422127724, -0.004057753831148148, -0.024298522621393204, 0.020000239834189415, 0.02292863465845585, 0.04051791504025459, 0.03858001530170441, -0.0007535162731073797, 0.029003946110606194, 0.03805992752313614, 0.041618168354034424, -0.019030654802918434, 0.030161969363689423, -0.028389858081936836, -0.0348099060356617, 0.012606521137058735, 0.037620093673467636, -0.03563239425420761, -0.02727573551237583, -0.0686168223619461, -0.0007944362587295473, 0.0041693588718771935, -0.05602690950036049, -0.008939878083765507, -0.010933567769825459, -0.021882131695747375, 0.05124390497803688, 0.05087911710143089, -0.06637732684612274, -0.014006606303155422, -0.004878551233559847, -0.015097279101610184, -0.05908694863319397, 0.04019859805703163, -0.04207282513380051, -0.0023281630128622055, 0.03906737640500069, 0.07340148091316223, 0.06042783707380295, -0.021721716970205307, -0.005154911894351244, -0.04636148363351822, 0.07077770680189133, 0.056861355900764465, 0.011003242805600166, -0.013646895065903664, 0.01829127036035061, 0.0625995323061943, 0.015216220170259476, -0.055267516523599625, 0.00676034577190876, 0.05345921590924263, -0.07248298078775406, -0.015855010598897934, 0.013312000781297684, 0.005786396563053131, -0.046747658401727676, 0.03000170923769474, 0.018984638154506683, -0.06669509410858154, 0.03739587590098381, 0.017504990100860596, -0.06731986999511719, 0.046586256474256516, -0.06322187930345535, 0.07208779454231262, -0.0573190338909626, 0.05301715061068535, 0.03753593936562538, -0.004242198076099157, 0.04024200886487961, -0.045368392020463943, -0.06274919211864471, 0.046172965317964554, -0.03653009608387947, 0.025310171768069267, 0.037371132522821426, -0.029514629393815994, 0.03686275705695152, -0.0643451139330864], [-0.06054268404841423, 0.04857590049505234, 0.03819798678159714, -0.022428149357438087, -0.015641354024410248, 0.0348721481859684, -0.03484993800520897, -0.029802167788147926, 0.053162842988967896, -0.06271997094154358, 0.015482865273952484, -0.07301504909992218, -0.0674825981259346, -0.06889165192842484, -0.06342002749443054, 0.042247023433446884, -0.05777155980467796, 0.046774543821811676, 0.012336522340774536, 0.06613991409540176, -0.022301282733678818, -0.06990287452936172, -0.060434550046920776, -0.007501495070755482, -0.05898277461528778, -0.04189824312925339, 0.06800637394189835, -0.021761488169431686, -0.06876114755868912, 0.023250462487339973, -0.04051182419061661, 0.0543917641043663, 0.06702416390180588, -0.044972945004701614, 0.02467692829668522, 0.06791865825653076, -0.009464086033403873, -0.06063833087682724, 0.06636187434196472, 0.0556110218167305, -0.02121264860033989, 0.04951620474457741, -0.029530487954616547, -0.065218985080719, 0.04507826641201973, 0.019229326397180557, -0.03433549776673317, 0.0122333113104105, -0.011804581619799137, -0.04795811325311661, 0.0681011825799942, -0.022420689463615417, -0.07094557583332062, -0.007163256872445345, -0.03862971439957619, 0.026621002703905106, 0.005711610894650221, 0.018781667575240135, -0.061272621154785156, 0.008835453540086746, 0.06493178009986877, -0.050072990357875824, -0.0414322093129158, -0.06405141204595566, 0.002155838068574667, -0.029167305678129196, -0.0662849098443985, 0.07128515839576721, -0.0015336244832724333, 0.03700163960456848, 0.07354995608329773, 0.059183165431022644, -0.02160448208451271, 0.038997773081064224, 0.07209505885839462, -0.07204093039035797, 0.034144409000873566, -0.051499951630830765, -0.018263740465044975, 0.0534212663769722, 0.04003151133656502, 0.07382620871067047, -0.01664884015917778, -0.06398803740739822, 0.05578583851456642, 0.016059082001447678, -0.05852573364973068, -0.053413283079862595, 0.0626903623342514, -0.03906025364995003, -0.03854617476463318, 0.055892083793878555, 0.061638496816158295, 0.0055104405619204044, -0.006978493183851242, 0.021287702023983, 0.006068715825676918, 0.01574970968067646, 0.025655100122094154, -0.041720084846019745], [0.00784650631248951, -0.00869899895042181, 0.014608257450163364, -0.030375652015209198, 0.013004944659769535, -0.0724051296710968, -0.01840251311659813, -0.07261840254068375, 0.005278660450130701, 0.010396095924079418, -0.03838944062590599, 0.019368736073374748, 0.053514160215854645, 0.02194882184267044, 0.01214634533971548, -0.07092991471290588, -0.059985991567373276, -0.06454730033874512, 0.014928092248737812, -0.04016656428575516, -0.0664709061384201, 0.05828772485256195, -0.022415297105908394, -0.043733805418014526, 0.004166897386312485, 0.05812670662999153, -0.04578697308897972, -0.005874450318515301, 0.066221684217453, 0.0688902735710144, 0.06475913524627686, 0.05494924262166023, 0.047573067247867584, -0.04830222576856613, 0.045549143105745316, -0.051431406289339066, -0.018538177013397217, 0.05309488996863365, 0.011860214173793793, -0.016329240053892136, -0.03447386622428894, 0.020496271550655365, -0.01879197545349598, -0.024192756041884422, 0.06147957593202591, 0.02904294617474079, 0.06773737818002701, -0.004203466698527336, 0.02902621030807495, -0.0525408536195755, -0.020291179418563843, -0.005313499830663204, -0.05111397057771683, 0.05200131982564926, -0.0003913066175300628, -0.06951949000358582, -0.04350528120994568, -0.05558685585856438, 0.0645189881324768, -0.029113680124282837, -0.018025783821940422, 0.014458383433520794, -0.07021986693143845, 1.2435853932402097e-05, 0.03538138046860695, 0.06604031473398209, 0.038843099027872086, 0.02601017989218235, -0.02259356714785099, 0.047750066965818405, 0.054615482687950134, -0.05455774441361427, -0.01894901506602764, 0.021950019523501396, 0.04128338024020195, 0.024849412962794304, -0.06905694305896759, -0.056225840002298355, -0.0006256472552195191, 0.061028409749269485, -0.022585824131965637, -0.015961075201630592, 0.0076659987680613995, -0.072083979845047, 0.01873890310525894, -0.06244151294231415, 0.007545005530118942, 0.010240712203085423, -0.03766604885458946, 0.021435635164380074, 0.02401699870824814, -0.06789330393075943, -0.06599229574203491, 0.05148419737815857, 0.04553733393549919, 0.05157206207513809, -0.03201083466410637, -0.0030092070810496807, 0.017956800758838654, 0.051971204578876495], [0.000809137593023479, -0.030778391286730766, -0.01925557106733322, -0.021203849464654922, -0.029596194624900818, -0.053134363144636154, 0.045209165662527084, -0.014897940680384636, 0.06341506540775299, 0.015766974538564682, -0.06710179895162582, -0.03888097405433655, -0.044181741774082184, 0.03253167122602463, 0.028910992667078972, 0.07009462267160416, 0.036902088671922684, -0.019500745460391045, -0.014636142179369926, -0.012654460966587067, 0.02163671888411045, -0.054088152945041656, 0.02238728664815426, 0.0014703486813232303, 0.07177028059959412, -0.008436460047960281, 0.04587859660387039, 0.04738740995526314, -0.030962524935603142, 0.0075195785611867905, 0.00778481038287282, 0.011906483210623264, -0.05413636937737465, -0.04276609048247337, 0.051637910306453705, 0.019282376393675804, -0.05594044551253319, 0.012201908975839615, 0.061315324157476425, 0.06856594979763031, 0.03712749853730202, -0.0009533716947771609, 0.04472490772604942, -0.015856392681598663, -0.06302709877490997, 0.06836072355508804, -0.06120261922478676, 0.06681112945079803, 0.07005716860294342, 0.01466662622988224, 0.0655253604054451, 0.006103109568357468, 0.016812259331345558, -0.01929054968059063, -0.03164560720324516, -0.0716499388217926, -0.011714675463736057, -0.03608907759189606, 0.06857174634933472, -0.05988532677292824, -0.039252739399671555, 0.04482833296060562, -0.024105986580252647, -0.032757747918367386, 0.03848690912127495, 0.028327325358986855, -0.0350065641105175, -0.0023289350792765617, 0.04678560048341751, -0.004125301726162434, 0.007532173302024603, -0.02991439215838909, 0.056156180799007416, 0.0645940974354744, -0.03463078290224075, -0.045569002628326416, -0.04083291068673134, -0.017982879653573036, -0.03184208646416664, 0.06028794124722481, 0.06972155719995499, -0.04886408522725105, 0.0010372600518167019, 0.005800357088446617, -0.032325394451618195, -0.05689750611782074, 0.06161518394947052, -0.035848334431648254, 0.008814680390059948, 0.017238855361938477, -0.06471498310565948, 0.015904927626252174, -0.03961971029639244, 0.047422248870134354, 0.005640827585011721, -0.047169361263513565, 0.04133348912000656, 0.020808139815926552, 0.05349282920360565, -0.021084818989038467], [0.03480565920472145, -0.031150393187999725, 0.002265957649797201, -0.05672948807477951, -0.014359760098159313, 0.06533529609441757, -0.05913229286670685, 0.013654599897563457, -0.049843188375234604, -0.017303843051195145, 0.07036885619163513, 0.014706245623528957, 0.02010771632194519, -0.031792424619197845, 0.05461481586098671, 0.009253999218344688, -0.05983402580022812, -0.039343636482954025, 0.03048212267458439, -0.06104273721575737, 0.0542832650244236, 0.00647162739187479, -0.0010104681132361293, -0.05842306464910507, 0.053081072866916656, 0.05413881316781044, 0.04159494489431381, 0.02130470983684063, 0.051354844123125076, -0.07316552102565765, 0.034348513931035995, 0.03948434069752693, 0.06409474462270737, 0.037156857550144196, 0.05693339183926582, -0.06727468222379684, -0.00719882408156991, -0.026283644139766693, -0.017450105398893356, -0.01649555377662182, -0.03952906280755997, 0.04713362827897072, 0.030598320066928864, 0.046972498297691345, -0.043635062873363495, -0.03175131604075432, -0.04879427328705788, 0.04297890141606331, 0.06081952527165413, 0.06655752658843994, -0.056214623153209686, -0.03275241702795029, 0.056678153574466705, 0.032430604100227356, 0.06471554934978485, -0.04421946033835411, -0.016638778150081635, 0.02613627165555954, -0.04067631810903549, -0.01839296519756317, 0.0440974161028862, 0.02148647978901863, 0.042216915637254715, 0.006747945677489042, 0.04238579422235489, -0.026947755366563797, -0.04566875472664833, -0.0022459712345153093, -0.02660958655178547, -0.045014817267656326, 0.06363584846258163, 0.01895182579755783, 0.01898770220577717, -0.050934720784425735, 0.03993752598762512, 0.032649241387844086, 0.024830296635627747, -0.051226407289505005, 0.03476157784461975, 0.0664023607969284, 0.03817787021398544, -0.057903558015823364, -0.03996879234910011, -0.07057726383209229, -0.012724136002361774, -0.040000203996896744, -0.013446858152747154, -0.008866540156304836, 0.045721542090177536, 0.071734718978405, -0.05513197183609009, 0.06601818650960922, -0.051703501492738724, -0.06326358020305634, -0.07129742950201035, -0.005328977946192026, 0.03341687098145485, 0.0738479420542717, 0.010401379317045212, -0.0457560159265995], [-0.00701539870351553, 0.06822772324085236, 0.06899413466453552, -0.05279690399765968, 0.04289553686976433, 0.057615820318460464, -0.04609892517328262, 0.03306509554386139, 0.05954638868570328, 0.005610485561192036, -0.05240684375166893, 0.005344976205378771, 0.06675863265991211, 0.059820689260959625, 0.06865207105875015, -0.04452584311366081, 0.05691447854042053, -0.033976659178733826, -0.030171440914273262, 0.03737281635403633, -0.05581687390804291, 0.00017889712762553245, 0.06801504641771317, -0.05359583720564842, 0.008584813214838505, -0.001118569285608828, 0.03430160880088806, -0.018851500004529953, -0.05669026076793671, -0.046001434326171875, -0.0017903660191223025, -0.00123478879686445, -0.053760040551424026, -0.0019078691257163882, -0.006458400748670101, 0.023711787536740303, 0.049312494695186615, 0.027478964999318123, -0.06545435637235641, -0.017832018435001373, -0.045322999358177185, 0.005139189772307873, -0.043264761567115784, -0.004856079816818237, -0.000546735362149775, -0.07151700556278229, 0.040016110986471176, 0.06889427453279495, 0.05136364325881004, 0.07107601314783096, -0.04666488617658615, 0.01668715476989746, 0.04180373623967171, -0.029986029490828514, -0.07336117327213287, -0.053598303347826004, 0.038877520710229874, -0.03398177772760391, -0.040821876376867294, 0.06820863485336304, -0.009085862897336483, 0.0049099400639534, 0.07178162038326263, 0.03278077766299248, 0.02266004867851734, 0.04059918224811554, 0.05262883007526398, -0.04682885855436325, 0.02692846581339836, 0.06631536781787872, -0.06255541741847992, 0.02589689940214157, 0.004210907034575939, -0.011177477426826954, 0.06084451079368591, 0.024385377764701843, 0.07324887067079544, 0.01341644860804081, 0.07181307673454285, -0.03616398572921753, 0.02454104833304882, 0.05782901868224144, 0.07157040387392044, -0.03790903463959694, -0.043522998690605164, -0.04661720246076584, -0.06232849135994911, -0.02814754657447338, -0.04636116325855255, 0.035399429500103, 0.0011362162185832858, 0.06170932576060295, -0.053758881986141205, -0.03167015314102173, -0.05254855379462242, -0.04678671061992645, -0.016477124765515327, 0.015231708064675331, -0.05824172869324684, -0.03206132352352142], [0.034978728741407394, 0.055211469531059265, 0.06422368437051773, -0.05635066702961922, 0.003928591031581163, 0.047751642763614655, 0.06982965022325516, -0.006738635711371899, 0.028106095269322395, 0.021239349618554115, -0.047748882323503494, 0.04713676497340202, -0.04827475920319557, 0.00804892461746931, -0.042505279183387756, 0.04686509817838669, -0.006442316807806492, 0.01911403425037861, -0.06757016479969025, 0.05484217032790184, 0.002325572306290269, -0.009755601175129414, 0.04810962453484535, 0.03642696514725685, -0.01680789329111576, -0.03927693888545036, 0.018318332731723785, 0.02542869932949543, 0.051078204065561295, 0.03516201674938202, -0.04314609616994858, 0.032129257917404175, 0.06794524937868118, -0.006612191908061504, -0.035860493779182434, -0.037374190986156464, 0.06346724927425385, 0.06254284828901291, 0.036015406250953674, 0.028637424111366272, -0.01086879801005125, -0.03765028342604637, -0.062138013541698456, 0.0020855895709246397, 0.04941844940185547, 0.00885846745222807, 0.04029496759176254, 0.05131860822439194, 0.013472599908709526, 0.04986236244440079, 0.0237876083701849, 0.04090139642357826, -0.060189127922058105, -0.07122460007667542, 0.0527864471077919, 0.020528845489025116, 0.04096386209130287, -0.010924872942268848, -0.03777410462498665, 0.06017479673027992, 0.07236205786466599, -0.039229460060596466, -0.0299637783318758, -0.0634802058339119, -0.02434002049267292, 0.02879909612238407, -0.02589292638003826, 0.01558669749647379, -0.025925077497959137, -0.05350256338715553, -0.038988493382930756, -0.02244655042886734, -0.045944757759571075, -0.07070287317037582, 0.06269711256027222, -0.00069764896761626, -0.04002714529633522, 0.02094387635588646, -0.033603645861148834, -0.022543838247656822, 0.06839317828416824, -0.06484219431877136, 0.007688228040933609, -0.07017571479082108, -0.06502892822027206, -0.058666080236434937, 0.0716191902756691, 0.031214501708745956, -0.06646015495061874, -0.024639902636408806, 0.05023537203669548, 0.05413708835840225, -0.007167883682996035, 0.057282157242298126, -0.030989378690719604, 0.023291107267141342, 0.056325580924749374, -0.010010048747062683, -0.0702650249004364, -0.005282038822770119], [0.05029702186584473, -0.04202856495976448, -0.05025468021631241, 0.016641464084386826, 0.05521811544895172, 0.04633299261331558, -0.07154038548469543, -0.051272060722112656, 0.00801803357899189, -0.00513003533706069, 0.07297759503126144, 0.06275361776351929, -0.06717999279499054, -0.025691788643598557, 0.018836667761206627, 0.04030805081129074, -0.03683902695775032, -0.06069159135222435, -0.02002512849867344, -0.03948964178562164, -0.032829366624355316, 0.024431193247437477, 0.028684556484222412, 0.06510291248559952, 0.0031676520593464375, -0.02866976149380207, -0.030036475509405136, 0.03562432900071144, -0.02855941653251648, -0.004017754923552275, -0.06390430778265, -0.005734679289162159, 0.03719956427812576, -0.04990305379033089, -0.0014865697594359517, -0.009480591863393784, -0.03640517592430115, -0.03967965021729469, -0.044590190052986145, -0.03327067196369171, -0.0397234782576561, -0.025885704904794693, 0.008970202878117561, 0.045734044164419174, -0.06310493499040604, -0.005732678342610598, -0.055848218500614166, -0.009665252640843391, 0.0379391610622406, 0.0026622929144650698, 0.0010505585232749581, -0.006874149665236473, -0.05076773464679718, 0.008554037660360336, -0.03169206157326698, 0.06398160755634308, -0.0034194623585790396, -0.053867682814598083, 0.033169254660606384, -0.02489018440246582, 0.02777811698615551, -0.04386609420180321, -0.006558328401297331, 0.030459342524409294, -0.008731367997825146, 0.06604868173599243, 0.03665025532245636, 0.002116110874339938, 0.0251724012196064, 0.03144009783864021, -0.02262687496840954, -0.034610338509082794, -0.00516144884750247, -0.00647822767496109, 0.02281685173511505, 0.006973910145461559, 0.030234744772315025, 0.06204546242952347, 0.018074514344334602, 0.03146735951304436, 0.011289460584521294, -0.008116141892969608, -0.06080199405550957, 0.005908163730055094, 0.06232538819313049, -0.008704671636223793, 0.002156778471544385, -0.017380813136696815, -0.01842697523534298, 0.0018143735360354185, -0.012759511359035969, -0.045198582112789154, -0.06421411782503128, -0.028134925290942192, 0.013895823620259762, 0.0021605396177619696, -0.07117636501789093, 0.06277725100517273, 0.032909270375967026, -0.013649805448949337], [0.013680553995072842, -0.04060559347271919, 0.02780953422188759, 0.0019534816965460777, 0.031710345298051834, 0.032673388719558716, -0.0072801182977855206, -0.0708378329873085, 0.05496658384799957, -0.06893275678157806, -0.06478762626647949, -0.0225408673286438, 0.028002237901091576, -0.005014071706682444, -0.015505371615290642, 0.0012735865311697125, -0.036441292613744736, -0.00900335144251585, -0.055498261004686356, -0.05207766219973564, -0.06554846465587616, -0.008458846248686314, 0.028150061145424843, 0.00757990125566721, -0.005421267822384834, -0.04979841783642769, 0.025154339149594307, -0.019767412915825844, 0.010946627706289291, 0.025168731808662415, 0.03249312564730644, 0.07028663158416748, -0.0623883493244648, 0.017027074471116066, 0.002183211036026478, 0.02697743847966194, 0.0020734460558742285, 0.05918952450156212, -0.029670177027583122, -0.036701686680316925, -0.03698117658495903, 0.002971238223835826, 0.05396481975913048, 0.02810736745595932, -0.004549187142401934, -0.017616670578718185, -0.06108244135975838, 0.03309309110045433, -0.04559193179011345, 0.030004359781742096, -0.06950713694095612, 0.057814329862594604, -0.035972412675619125, 0.03218940272927284, 0.02202548086643219, -0.02760784700512886, 0.0244651660323143, 0.020428525283932686, -0.016927408054471016, 0.02217078022658825, -0.01069522276520729, 0.002012713812291622, 0.03878926485776901, 0.01195496041327715, 0.0287222508341074, 0.008121640421450138, 0.05716923996806145, 0.0723867192864418, -0.06570469588041306, -0.029831452295184135, -0.029541058465838432, 0.05479176715016365, 0.040376584976911545, -0.012662923894822598, -0.013264317065477371, 0.059153348207473755, -0.06686127930879593, 0.03149940446019173, 0.056450825184583664, 0.007725509814918041, 0.025066666305065155, 0.07233195006847382, -0.035659078508615494, -0.042643848806619644, -0.03408700227737427, 0.002876223297789693, 0.06969106942415237, -0.06296897679567337, -0.0257477518171072, 0.05155808851122856, -0.06758173555135727, 0.036438826471567154, 0.06118287518620491, 0.004843500442802906, -0.06431413441896439, 0.027086595073342323, -0.07156089693307877, -0.02975853718817234, -0.005675962660461664, 0.010578998364508152], [-0.004733749199658632, 0.013513583689928055, 0.009216133505105972, -0.03535807877779007, -0.013667834922671318, 0.036412663757801056, -0.03356102108955383, -0.00966716930270195, -0.02054639160633087, -0.008420082740485668, -0.005113330204039812, -0.07125616818666458, -0.06173044443130493, 0.03844546526670456, -0.04402754828333855, 0.061057738959789276, 0.037881482392549515, 0.0013212262419983745, -0.03571178764104843, -0.05522802844643593, -0.03650974854826927, 0.010260278359055519, -0.029509609565138817, 0.05478304624557495, -0.04082545265555382, -0.07191525399684906, 0.0032757618464529514, -0.057803601026535034, -0.0321025587618351, -0.062351226806640625, 0.04827569052577019, -0.0739373043179512, -0.038586944341659546, 0.01475879829376936, -0.05286756530404091, 0.025657476857304573, -0.06519974768161774, 0.027343200519680977, -0.051276933401823044, -0.037742409855127335, 0.0036934292875230312, 0.00841539166867733, -0.05001581087708473, 0.016209693625569344, 0.07264268398284912, 0.029876703396439552, -0.04073639586567879, -0.011321261525154114, 0.0026229750365018845, -0.01460375264286995, 0.02066933549940586, 0.009759416803717613, -0.006742086261510849, -0.0269742701202631, 0.04966181889176369, 0.04652004688978195, 0.02943861298263073, 0.04990682378411293, -0.03841455653309822, 0.02871965803205967, 0.04715391620993614, -0.06450977176427841, 0.009226107969880104, 0.026443181559443474, -0.030292902141809464, 0.05562588572502136, 0.04927824065089226, -0.037013940513134, 0.036853935569524765, -0.05078091472387314, 0.041111670434474945, 0.014539201743900776, -0.013627713546156883, -0.061570968478918076, 0.01675310730934143, -0.06555938720703125, -0.04087464511394501, 0.0499303862452507, -0.0461939312517643, 0.009319359436631203, 0.007643545046448708, -0.00906907208263874, 0.031323373317718506, -0.014346673153340816, -0.06635303795337677, -0.01656879298388958, -0.0570220872759819, -0.03429893031716347, 0.024507174268364906, -0.0006745558930560946, 0.015275316312909126, 0.0027951360680162907, 0.046211980283260345, -0.020658187568187714, -0.07009198516607285, -0.0308607779443264, -0.07003732025623322, -0.062384698539972305, 0.006639721803367138, 0.011151966638863087], [-0.01944461651146412, 0.05000003054738045, 0.06705231219530106, -0.03932709991931915, -0.0012618605978786945, -0.024889515712857246, 0.01961343176662922, -0.007708140183240175, 0.06448685377836227, -0.020548002794384956, -0.046930067241191864, 0.02735551819205284, 0.01768375001847744, 0.009412878192961216, -0.032281626015901566, -0.03322507068514824, 0.02416427806019783, -0.02008715644478798, -0.025448067113757133, -0.06006627157330513, -0.052285145968198776, 0.051718130707740784, 0.07180893421173096, 0.06432196497917175, -0.027161145582795143, 0.06740294396877289, -0.01512699481099844, 0.06093935668468475, -0.05484023317694664, -0.05322936177253723, -0.05469440668821335, 0.01356983557343483, 0.05360005795955658, 0.04365004226565361, 0.01129528321325779, -0.07319793850183487, -0.04392853379249573, -0.03242102637887001, 0.029270419850945473, 0.02316395938396454, 0.06908634305000305, 0.019856352359056473, -0.017210636287927628, 0.04519214481115341, 0.017682010307908058, -0.06997907161712646, -0.01881696842610836, -0.011257526464760303, -0.04978384077548981, 0.04312705621123314, -2.660609970916994e-05, -0.05767671391367912, -0.016211651265621185, 0.010615483857691288, 0.05811082199215889, 0.003466737223789096, 0.03826495632529259, -0.06573762744665146, -0.03359133377671242, 0.03561091795563698, -0.06943458318710327, -0.005417775362730026, 0.0035312653053551912, 0.04982127994298935, -0.04846716299653053, -0.037040047347545624, 0.04218282178044319, 0.011932061053812504, 0.029608333483338356, -0.06307335942983627, -0.034630049020051956, -0.013738676905632019, -0.030773749575018883, 0.06946074962615967, 0.05798023194074631, -0.05809521675109863, 0.07178942859172821, 0.07179304957389832, -0.05345954746007919, 0.017375262454152107, 0.04540638253092766, 0.026142623275518417, -0.028673382475972176, 0.0027175811119377613, -0.04463593661785126, -0.045292310416698456, -0.04267473891377449, 0.02580280601978302, 0.030089562758803368, -0.04050268232822418, -0.029215479269623756, 0.026408661156892776, -0.028659412637352943, 0.028889575973153114, 0.002385055646300316, 0.021941550076007843, 0.0432223342359066, -0.04580995440483093, 0.041639067232608795, 0.050980035215616226], [0.05766098201274872, -0.011481116525828838, -0.030668828636407852, -0.01082910131663084, -0.007928907871246338, 0.009723580442368984, 0.0486166886985302, 0.002624611370265484, 0.04524986445903778, -0.0644221231341362, 0.025640610605478287, 0.05935824289917946, -0.0727715939283371, -0.005395377986133099, -0.04949880391359329, 0.0388592965900898, 0.06801614165306091, -0.032067738473415375, -0.055792152881622314, -0.009188060648739338, 0.01210035290569067, 0.023742131888866425, -0.06952767074108124, 0.04972738400101662, -0.02838701568543911, -0.023140395060181618, 0.04167716205120087, 0.04178784042596817, 0.0437651127576828, -0.05730726942420006, 0.060966528952121735, -0.014514626935124397, 0.06490540504455566, -0.022642938420176506, 0.009106927551329136, 0.010369530878961086, 0.05944911390542984, 0.010423810221254826, 0.07279586046934128, 0.023014288395643234, -0.010164092294871807, -0.05476512014865875, -0.01907304860651493, -0.006871344521641731, -0.053700678050518036, -0.019432228058576584, -0.027895372360944748, -0.004066144116222858, 0.005737533327192068, -0.01660820282995701, 0.008729745633900166, 0.04475897178053856, 0.05824810639023781, 0.06542591750621796, 0.047108449041843414, 0.07254558056592941,