{"ent_embeddings.weight": [[-0.10440146923065186, -0.1472751498222351, 0.08762213587760925, 0.05489680916070938, 0.11450489610433578, -0.09024635702371597, 0.08972593396902084, -0.05692973732948303, -0.10123041272163391, -0.01842343807220459, 0.05329864099621773, 0.04275147616863251, -0.013744845986366272, 0.03523483872413635, -0.13940319418907166, 0.018296649679541588, -0.04291124641895294, -0.1154937818646431, 0.06573260575532913, -0.026166612282395363, 0.01394956186413765, -0.10104436427354813, -0.04217244312167168, 0.041528332978487015, 0.11292798072099686, -0.0402928926050663, -0.03938823193311691, 0.11833237111568451, -0.16541652381420135, -0.02445041574537754, 0.02761610597372055, -0.025137238204479218, -0.0752803385257721, -0.05161407217383385, -0.027468040585517883, 0.09135886281728745, 0.1043512225151062, -0.05610805004835129, 0.04300437122583389, 0.09663622081279755, 0.11409169435501099, -0.07179100066423416, -0.06755228340625763, -0.0011990979546681046, 0.03865068405866623, 0.12469825893640518, 0.0775795429944992, -0.011920217424631119, -0.0808158591389656, 0.03981523960828781, 0.06588435918092728, -0.09804828464984894, -0.09826899319887161, 0.043434564024209976, 0.004194935318082571, 0.10213753581047058, -0.11549977958202362, -0.06657228618860245, -0.026517489925026894, -0.13068895041942596, -0.05017605051398277, 0.08463407307863235, 0.06654026359319687, 0.08819679915904999, -0.018676331266760826, -0.07079552114009857, -0.03534901514649391, -0.09000753611326218, 0.005775582045316696, -0.07338938862085342, 0.014117587357759476, 0.05646279454231262, 0.02070002071559429, 0.006835144013166428, 0.03534728288650513, 0.05817079916596413, -0.022497376427054405, 0.045124854892492294, 0.029513461515307426, 0.07001792639493942, -0.14991238713264465, 0.0315609909594059, 0.034812621772289276, 0.08769255876541138, 0.10535188019275665, -0.1328953057527542, 0.08178264647722244, -0.019621161743998528, -0.09030882269144058, -0.06553541868925095, -0.14672042429447174, 0.018693434074521065, 0.12696075439453125, 0.08091672509908676, 0.0400637648999691, -0.016935240477323532, -0.05951356515288353, -0.07014639675617218, 0.060355592519044876, 0.16735172271728516], [-0.11299838870763779, -0.12157817929983139, -0.02324780635535717, 0.0688227042555809, 0.11697968095541, -0.05165024846792221, 0.11213219165802002, -0.07528350502252579, 0.00044174690265208483, -0.014135342091321945, 0.07944836467504501, 0.06962767988443375, 0.03833070769906044, 0.06874863058328629, -0.12101581692695618, 0.01954014040529728, -0.005475327372550964, -0.09594467282295227, 0.05381032079458237, -0.023423895239830017, -0.010093213059008121, -0.07216252386569977, 0.09756740182638168, 0.044158514589071274, 0.12268184125423431, 0.050641536712646484, 0.06833485513925552, 0.11652664840221405, -0.14291249215602875, -0.004723189398646355, 0.050224460661411285, 0.0031043021008372307, 0.0036529116332530975, 0.029171274974942207, -0.02488919347524643, 0.107947938144207, -0.07118792831897736, -0.07436390966176987, 0.046729572117328644, -0.09078509360551834, 0.13257840275764465, -0.06725116074085236, -0.07369668781757355, -0.06665511429309845, -0.028312580659985542, 0.13915273547172546, -0.009663738310337067, 0.018608657643198967, -0.09515928477048874, 0.015782782807946205, 0.04234834760427475, -0.019529670476913452, -0.0809660404920578, 0.07237230986356735, 0.02032501995563507, 0.08703702688217163, -0.13522624969482422, 0.06891925632953644, -0.02119958959519863, -0.1403212696313858, 0.01597270928323269, -0.07868985086679459, -0.03542377054691315, -0.15654583275318146, 0.0662616565823555, -0.048469603061676025, 0.020838230848312378, -0.051063429564237595, -0.07024341076612473, 0.0067465417087078094, -0.0351555272936821, -0.048475317656993866, -0.01321575976908207, -0.0016903878422454, -0.04966161400079727, 0.09408944845199585, 0.04262847825884819, -0.022964416071772575, 0.06306479126214981, -0.008297974243760109, -0.1686512976884842, 0.0031384401954710484, 0.0660327896475792, 0.0451245941221714, -0.11713015288114548, -0.14064431190490723, 0.08195216208696365, -0.02846965566277504, 0.04531136527657509, -0.02622264251112938, -0.1519845426082611, 0.002825079020112753, 0.13526996970176697, -0.0477144680917263, -0.05974038317799568, -0.019843818619847298, -0.08096486330032349, -0.026774631813168526, 0.040777985006570816, 0.13966237008571625], [-0.05239942669868469, -0.08826588094234467, -0.08193600922822952, 0.08188938349485397, 0.07828725129365921, -0.03453792259097099, -0.03692782670259476, -0.09818105399608612, -0.029112428426742554, -0.009698132984340191, 0.09974811226129532, 0.03127269819378853, 0.028709130361676216, 0.0923444926738739, -0.09368357807397842, 0.0425933375954628, 0.04973495379090309, -0.07245410233736038, 0.100679911673069, -0.14815852046012878, -0.03810341656208038, -0.07802452892065048, 0.07455997914075851, -0.03529632091522217, 0.1362571120262146, 0.032896507531404495, 0.01587560772895813, 0.1337309032678604, -0.11803431063890457, 0.019719745963811874, 0.07757052034139633, 0.072699636220932, -0.04275953397154808, -0.03769434988498688, -0.03615538775920868, 0.12206780910491943, -0.04956891015172005, -0.09627793729305267, 0.04005831852555275, -0.08209656178951263, 0.11769044399261475, -0.07651142030954361, -0.031668465584516525, 0.06415600329637527, 0.037985909730196, 0.15849798917770386, -0.05541238933801651, 0.0895463079214096, -0.04821415990591049, -0.043759603053331375, 0.021503420546650887, -0.042135465890169144, -0.05534677952528, 0.08936676383018494, 0.03645395115017891, 0.07130398601293564, -0.1432150900363922, -0.039087582379579544, 0.09138282388448715, -0.15777316689491272, 0.0372479073703289, -0.05748757719993591, -0.014009160920977592, -0.13852781057357788, 0.004293413832783699, -0.01360396109521389, 0.0283369030803442, 0.019675198942422867, -0.018069162964820862, 0.07819212973117828, -0.012539779767394066, 0.046761929988861084, -0.009278316050767899, 0.03066767193377018, 0.006121102720499039, 0.12364649027585983, -0.046596698462963104, 0.010655058547854424, 0.12903250753879547, 0.046038996428251266, -0.1867935061454773, -0.035007789731025696, 0.05963164195418358, 0.06085796281695366, -0.11044994741678238, -0.0012320257956162095, 0.036358367651700974, -0.015521600842475891, -0.04540044069290161, 0.06548859179019928, 0.031268682330846786, -0.013582654297351837, 0.1432005763053894, -0.058688901364803314, 0.021402711048722267, -0.023261310532689095, -0.0330742672085762, 0.02876691333949566, 0.026437701657414436, 0.11966845393180847], [-0.06823083758354187, -0.03699174150824547, 0.027636520564556122, 0.1073460578918457, 0.036033995449543, -0.020551493391394615, -0.05241259187459946, -0.11747834086418152, -0.09248421341180801, -0.0008799831848591566, 0.11599694192409515, 0.07964719086885452, 0.027658876031637192, 0.1248992308974266, -0.017184114083647728, 0.012246939353644848, -0.05344406142830849, -0.04715854674577713, 0.08371669054031372, -0.16817261278629303, -0.055415865033864975, -0.08550367504358292, 0.03938844054937363, -0.054072197526693344, 0.1448596715927124, 0.01239033229649067, 0.03350939601659775, 0.12629124522209167, -0.05038871988654137, 0.04801720753312111, 0.08806484937667847, 0.029521532356739044, -0.01887776330113411, 0.04322744160890579, -0.11881037801504135, 0.1364186704158783, -0.02363162860274315, -0.08039629459381104, 0.02648591808974743, 0.07333157956600189, 0.13296331465244293, -0.09681974351406097, -0.03222857415676117, -0.05514892190694809, -0.01987113058567047, 0.09231366217136383, -0.08214376866817474, 0.11876298487186432, -0.06903959065675735, -0.07246477156877518, -0.0057335905730724335, -0.060716982930898666, -0.0038622631691396236, 0.10753288120031357, 0.04760095104575157, -0.05436170473694801, -0.1602194458246231, 0.06058524549007416, 0.07942532002925873, -0.17034786939620972, 0.026990389451384544, -0.014400379732251167, -0.1292927861213684, -0.12564262747764587, 0.061773885041475296, 0.029764899984002113, -0.021655824035406113, -0.04162529110908508, -0.003347462974488735, 0.10689222067594528, 0.010221336968243122, -0.062408965080976486, 0.0024500894360244274, 0.01949312537908554, -0.03309527412056923, 0.15012119710445404, -0.03143228963017464, -0.0328153558075428, 0.16618496179580688, 0.015538545325398445, -0.000537254149094224, -0.07148849964141846, -0.07173177599906921, 0.10653731226921082, -0.1063142791390419, -0.020734461024403572, -0.16350242495536804, -0.022011319175362587, -0.012669656425714493, -0.04498529061675072, 0.14205552637577057, 0.06306114047765732, 0.14525271952152252, -0.024397170171141624, 0.04205317422747612, -0.022208718582987785, 0.05259941145777702, 0.07766949385404587, 0.033731598407030106, 0.09797155112028122], [-0.071536585688591, -0.011689539067447186, -0.007334570400416851, 0.024684544652700424, 0.040274038910865784, -0.06058013066649437, -0.027103671804070473, -0.13710537552833557, -0.10850255936384201, 0.00872836820781231, 0.07117791473865509, 0.034973178058862686, 0.07727479189634323, -0.006092440336942673, 0.03815341368317604, 0.1323411762714386, -0.030076198279857635, -0.018554987385869026, 0.06043478846549988, -0.16917023062705994, 0.0362517386674881, -0.08303026854991913, -0.007997510023415089, 0.027127740904688835, -0.023338640108704567, 0.05042567849159241, -0.04054023697972298, 0.1086554005742073, 0.010532813146710396, 0.06944137811660767, -0.06582579761743546, 0.055004093796014786, 0.06849883496761322, 0.06868166476488113, -0.12690314650535583, 0.14502310752868652, 0.031981177628040314, -0.09732521325349808, 0.1404733508825302, 0.11553900688886642, 0.1480836272239685, -0.10338664054870605, -0.053152911365032196, 0.06490641087293625, 0.05633995309472084, 0.01921241544187069, 0.09110559523105621, 0.13596996665000916, -0.0780053660273552, -0.08646272867918015, -0.01943231001496315, -0.07678337395191193, 0.042541421949863434, 0.0077437954023480415, -0.08452949672937393, -0.09659148752689362, -0.16773885488510132, 0.019164742901921272, 0.08151832967996597, 0.11794453859329224, -0.003881189040839672, 0.02549954690039158, -0.10306178033351898, -0.10726133733987808, 0.06090943515300751, 0.0747193768620491, -0.08463987708091736, -0.11262063682079315, 0.01656828075647354, -0.02534140646457672, 0.0023557664826512337, 0.0256955623626709, 0.16308476030826569, 0.0015237269690260291, -0.026626883074641228, 0.08794370293617249, 0.0013763904571533203, 0.009166266769170761, 0.13235540688037872, -0.04064133018255234, 0.04426904022693634, 0.04878546670079231, -0.0839570015668869, 0.11639551818370819, -0.08594951033592224, -0.033493924885988235, -0.1508721113204956, -0.031129015609622, 0.00789753720164299, -0.04360685124993324, 0.13787704706192017, -0.021746043115854263, -0.04126264527440071, -0.07642959803342819, -0.028517229482531548, -0.029674582183361053, 0.06893512606620789, 0.07553893327713013, 0.08513786643743515, 0.07460439950227737], [0.08473698794841766, 0.014445038512349129, 0.05284913256764412, 0.04641520977020264, 0.04987727850675583, -0.04943723604083061, 0.018298842012882233, 0.06763370335102081, -0.036964260041713715, -0.0496051050722599, 0.08334264904260635, 0.0337473563849926, 0.052986979484558105, -0.04598095268011093, 0.07159299403429031, 0.15096430480480194, 0.0011546473251655698, 0.020958110690116882, 0.03303707763552666, -0.18147923052310944, 0.009734217077493668, 0.06308945268392563, -0.03988740220665932, -0.04778534546494484, -0.12953859567642212, 0.03232550621032715, 0.04226924106478691, 0.10377240926027298, 0.02976616472005844, 0.07979665696620941, -0.0488910973072052, -0.018783336505293846, -0.015861526131629944, 0.04606097564101219, -0.13564400374889374, 0.15820568799972534, 0.04512684792280197, -0.10838498920202255, 0.13021652400493622, 0.12639309465885162, 0.16757890582084656, 0.08108220249414444, 0.02168842777609825, 0.0454024076461792, 0.01097475178539753, 0.03235718235373497, 0.07565000653266907, 0.15317142009735107, -0.10401290655136108, -0.017340626567602158, -0.13073116540908813, -0.09116377681493759, 0.07953555881977081, 0.017349693924188614, -0.07143191993236542, -0.1337963044643402, 0.10723457485437393, -0.034117985516786575, 0.021458901464939117, 0.11059650033712387, -0.03359993174672127, 0.06833388656377792, -0.08566714823246002, -0.028620680794119835, 0.08195361495018005, 0.11065521836280823, -0.010605571791529655, -0.09019984304904938, -0.07899457216262817, -0.011881265789270401, 0.0269037876278162, -0.01626424305140972, 0.17610906064510345, -0.005460716784000397, 0.03153878450393677, 0.10814590007066727, 0.07879292219877243, -0.016999835148453712, 0.07280883938074112, 0.032433297485113144, 0.020934687927365303, 0.022418571636080742, -0.09807215631008148, 0.12984757125377655, -0.0702124759554863, -0.056554537266492844, -0.16748982667922974, -0.03343987092375755, -0.020392989739775658, -0.08713848888874054, 0.1605149507522583, 0.07109371572732925, -0.037651896476745605, 0.061062201857566833, 0.024583900347352028, -0.03343898802995682, -0.08895144611597061, 0.020829400047659874, 0.09674143046140671, -0.008107004687190056], [0.07089392095804214, -0.14442645013332367, 0.042320847511291504, 0.06801328808069229, 0.05635051056742668, -0.038714900612831116, 0.0474558100104332, 0.04558306187391281, -0.05431490018963814, -0.07951731979846954, 0.10752170532941818, 0.04964718595147133, 0.06147637963294983, -0.02291024662554264, 0.08478561788797379, 0.16552971303462982, 0.03843405097723007, 0.047446101903915405, 0.011328475549817085, -0.1890285611152649, -0.01184803806245327, 0.06267246603965759, -0.061460942029953, -0.06616885960102081, -0.12324567139148712, 0.013148797675967216, 0.06327857077121735, 0.11558622866868973, -0.12795552611351013, 0.03032059408724308, -0.030041271820664406, -0.030367540195584297, -0.018247589468955994, -0.06376846134662628, -0.12487921118736267, 0.1683807075023651, -0.15708646178245544, 0.1284504532814026, 0.11580082774162292, 0.14066608250141144, 0.18707285821437836, 0.0879877358675003, 0.03394372761249542, -0.05272892117500305, -0.045843902975320816, -0.09522637724876404, 0.08632645756006241, 0.14853566884994507, -0.11752790957689285, -0.019209174439311028, -0.14818958938121796, -0.08584124594926834, 0.10699740797281265, -0.04738621413707733, 0.058384113013744354, -0.14783871173858643, 0.10130893439054489, 0.0384955108165741, 0.002708563581109047, 0.09578150510787964, 0.039439719170331955, 0.09575974196195602, -0.06148678436875343, 0.09874807298183441, 0.007414696272462606, 0.13183221220970154, 0.01913728006184101, -0.06723714619874954, 0.06586507707834244, 0.012459194287657738, 0.053477730602025986, -0.004858510568737984, 0.17980672419071198, -0.030309850350022316, -0.005433706566691399, 0.018500572070479393, -0.023074256256222725, 0.04983608424663544, 0.024704186245799065, 0.02047477662563324, -0.03505095839500427, 0.00020721007604151964, -0.10519639402627945, 0.10429681092500687, -0.05611478164792061, -0.07182473689317703, -0.15762865543365479, -0.047907754778862, 0.024981508031487465, 0.046676747500896454, 0.2005172222852707, 0.0038184314034879208, -0.02754504792392254, 0.07254082709550858, 0.022020798176527023, -0.03651579096913338, -0.06727827340364456, -0.055444326251745224, 0.07085580378770828, -0.035533782094717026], [0.05976676940917969, -0.16578255593776703, -0.04414497688412666, 0.09689482301473618, 0.05286261811852455, -0.02851274237036705, 0.07178523391485214, -0.05854680389165878, -0.03259918838739395, 0.0034514120779931545, 0.1184253990650177, 0.046970196068286896, 0.05292479693889618, 0.01322397030889988, -0.060742899775505066, 0.1436573714017868, 0.06138288974761963, 0.06719262152910233, -0.07076932489871979, -0.19185064733028412, -0.04798419773578644, 0.053123269230127335, -0.08407086879014969, 0.03605883941054344, -0.11272675544023514, -0.031186310574412346, 0.01373930275440216, 0.09492983669042587, -0.10491210222244263, 0.03489882871508598, 0.005358477123081684, 0.0004174432251602411, 0.030290568247437477, 0.0408659353852272, -0.11584104597568512, -0.054736118763685226, -0.14408062398433685, 0.11271271854639053, 0.052428051829338074, -0.09573568403720856, 0.18747588992118835, 0.14889076352119446, 0.039728954434394836, -0.06644240021705627, 0.03348580375313759, -0.07630659639835358, 0.05070590227842331, 0.15316934883594513, -0.1164509579539299, 0.05509902909398079, -0.16138166189193726, 0.025138327851891518, 0.12675563991069794, -0.03027980588376522, 0.09950996190309525, -0.15039300918579102, 0.024719690904021263, 0.03772520646452904, -0.01150099653750658, 0.083285853266716, 0.030963432043790817, 0.11695754528045654, -0.018985366448760033, 0.11589764058589935, 0.07150384783744812, 0.142973855137825, -0.06466563791036606, -0.12056595832109451, -0.010557292960584164, -0.05823782458901405, 0.07749157398939133, 0.056390732526779175, -0.11642729490995407, -0.0575491301715374, -0.00926009938120842, 0.04736550152301788, -0.0616275928914547, -0.055411674082279205, -0.0721583142876625, 0.05870119854807854, -0.05129779130220413, -0.028787707909941673, -0.10291345417499542, 0.09373686462640762, -0.03826532140374184, -0.10463233292102814, -0.1295766532421112, -0.044376619160175323, -0.04178046062588692, -0.034457333385944366, 0.2012225091457367, -0.04129722714424133, -0.015815306454896927, 0.026202240958809853, -0.056549154222011566, -0.10342712700366974, -0.022264085710048676, 0.055960673838853836, -0.08701106905937195, -0.009779024869203568], [0.03980082646012306, -0.20739006996154785, -0.008040521293878555, 0.11945689469575882, 0.03190416842699051, -0.015182312577962875, 0.09251216799020767, -0.0809120312333107, -0.0546247698366642, 0.049479350447654724, 0.1385023593902588, 0.014918643981218338, 0.03290554881095886, 0.04246235266327858, -0.04261990636587143, 0.15887360274791718, -0.016773859038949013, -0.10565192997455597, -0.08930923789739609, -0.1965983659029007, -0.06971419602632523, 0.008124339394271374, -0.04495823010802269, -0.06249300017952919, -0.10093528032302856, -0.02150571346282959, -0.02662457711994648, -0.0810723826289177, -0.08919913321733475, -0.04192512109875679, 0.036500077694654465, -0.07480648159980774, -0.053643930703401566, 0.029958020895719528, -0.08723574131727219, -0.04889865592122078, -0.13386455178260803, 0.08830384910106659, -0.011989107355475426, -0.09539958834648132, -0.17379389703273773, 0.1405194252729416, -0.0449819453060627, 0.04163351282477379, -0.002692120149731636, -0.06072792410850525, -0.023886902257800102, 0.09562595188617706, -0.019883083179593086, 0.033453699201345444, -0.1758294254541397, 0.007249289192259312, -0.006730200722813606, -0.015636621043086052, 0.11104964464902878, 0.011547081172466278, 0.012701037339866161, 0.05987897142767906, -0.05461210012435913, 0.06856446713209152, 0.058960482478141785, -0.09057880192995071, 0.004364512860774994, 0.0853462964296341, -0.05836943909525871, -0.005269445478916168, 0.04345876723527908, -0.11818808317184448, 0.004142351448535919, -0.03761009871959686, 0.10681614279747009, 0.0293617881834507, -0.10718241333961487, -0.07721884548664093, 0.06582338362932205, 0.0787711888551712, -0.003335491754114628, -0.05985591933131218, -0.10410203039646149, -0.06261856108903885, -0.002825220115482807, -0.04086747765541077, -0.1037294790148735, 0.0991215780377388, -0.19902552664279938, -0.12288303673267365, -0.11281237006187439, 0.019586123526096344, -0.03188469260931015, 0.07161857187747955, 0.19775578379631042, -0.07936779409646988, -0.00827579852193594, -0.04571795091032982, -0.06742283701896667, -0.10593793541193008, 0.008047698065638542, -0.027793552726507187, -0.11693068593740463, 0.07147172838449478], [-0.002034529112279415, -0.1936049610376358, 0.04016968980431557, 0.10851951688528061, 0.014524882659316063, -0.041544850915670395, -0.11137780547142029, -0.10758598893880844, -0.06195328012108803, -0.023942627012729645, 0.15401606261730194, -0.00399163318797946, -0.03560532256960869, 0.0712079182267189, -0.027985932305455208, 0.15752583742141724, 0.021524563431739807, -0.18775148689746857, 0.055718131363391876, -0.19713161885738373, -0.09087519347667694, -0.014755659736692905, 0.09558656811714172, -0.025113215669989586, -0.08496827632188797, 0.03257444500923157, -0.026140641421079636, -0.08847608417272568, -0.06254862248897552, -0.03557473421096802, 0.057547617703676224, -0.015081731602549553, 0.06175684556365013, -0.04454207420349121, 0.16749882698059082, -0.04084635525941849, -0.11627523601055145, 0.06978289037942886, -0.08787576854228973, -0.1607217788696289, -0.16600215435028076, 0.13815686106681824, 0.06645713746547699, -0.029149482026696205, -0.053431279957294464, -0.0293637216091156, -0.06987668573856354, 0.1113993301987648, 0.11832930147647858, -0.03571157902479172, -0.0028784917667508125, 0.09204619377851486, 0.014285912737250328, 0.0033344593830406666, 0.11647085100412369, 0.013976531103253365, -0.0022706100717186928, 0.024197202175855637, 0.04820222780108452, 0.046945009380578995, 0.0677100270986557, -0.06784244626760483, 0.020693691447377205, -0.013563307002186775, -0.016042165458202362, -0.011441058479249477, -0.04696439951658249, -0.09561534970998764, -0.01912880688905716, -0.02200057916343212, 0.12546195089817047, 0.07819198071956635, -0.10064093768596649, 0.0022796448320150375, -0.05730706453323364, 0.11632837355136871, -0.04280398041009903, 0.045089609920978546, -0.12644807994365692, -0.06410475075244904, -0.019316352903842926, -0.05675537884235382, -0.056988757103681564, 0.10254015028476715, -0.18582674860954285, -0.13374483585357666, -0.07491820305585861, 0.0498066321015358, -0.03280695155262947, -0.054894737899303436, 0.1957373172044754, -0.039625976234674454, 0.006041135638952255, -0.026061788201332092, -0.005442924331873655, -0.10347047448158264, 0.035841647535562515, -0.004166739527136087, -0.13449916243553162, 0.046690117567777634], [-0.017741763964295387, -0.17908145487308502, -0.005444973241537809, -0.1125035360455513, -0.18393199145793915, -0.03290539234876633, -0.09030667692422867, 0.02816329151391983, -0.08096443861722946, -0.059010010212659836, 0.17113694548606873, -0.03807000815868378, -0.05225880444049835, 0.09089041501283646, -0.011091530323028564, 0.010330229066312313, 0.050129856914281845, -0.19054435193538666, 0.03622524067759514, -0.20186635851860046, 0.09277945756912231, -0.022866958752274513, 0.0740639865398407, 0.06335229426622391, -0.06966178864240646, 0.012156009674072266, -0.039767075330019, -0.10162244737148285, -0.04550528898835182, -0.020809924229979515, 0.06346116214990616, 0.021179936826229095, -0.05070402845740318, 0.04755901172757149, 0.1634519398212433, -0.03332317993044853, -0.09503223747015, 0.044040266424417496, -0.10116478055715561, -0.17360739409923553, -0.15409855544567108, 0.13177409768104553, -0.06711195409297943, -0.057534415274858475, 0.021976089105010033, -0.012358234263956547, -0.09339988976716995, -0.12691831588745117, 0.11283032596111298, 0.002962159225717187, -0.014555137604475021, 0.07171197980642319, 0.038724642246961594, 0.028258880600333214, 0.009752499870955944, 0.006355440244078636, -0.01648639142513275, -0.025044111534953117, 0.020240167155861855, 0.03413453325629234, -0.021891770884394646, -0.1050833910703659, 0.038654785603284836, 0.001152730779722333, 0.039949558675289154, -0.12213293462991714, 0.07905218005180359, -0.07207019627094269, -0.009091420099139214, -0.03401445969939232, -0.07189187407493591, 0.018518583849072456, -0.09633339196443558, -0.016641125082969666, 0.028546633198857307, 0.13510236144065857, -0.04018324986100197, 0.08105260133743286, 0.08895809948444366, 0.015426747500896454, -0.033034391701221466, -0.06975708901882172, 0.0016398732550442219, 0.09432835131883621, -0.16941873729228973, -0.15008382499217987, -0.05016190931200981, 0.041130322962999344, 0.0465710423886776, 0.03445784002542496, 0.18718408048152924, -0.012700576335191727, -0.006172573193907738, 0.03722376748919487, -0.052129313349723816, -0.014253283850848675, -0.01631162129342556, 0.0025569708086550236, -0.0026050203014165163, 0.01818915084004402], [-0.03208132088184357, -0.15382850170135498, -0.04954325035214424, -0.11232507973909378, -0.1837630271911621, -0.02670646272599697, -0.055565159767866135, 0.005150584504008293, -0.08521568030118942, -0.017078345641493797, -0.06032675877213478, -0.044899266213178635, 0.06615094095468521, 0.08159242570400238, 0.03811999037861824, 0.02401454746723175, 0.07827462255954742, -0.17102594673633575, 0.016868676990270615, -0.1588270515203476, 0.055423494428396225, -0.06100476533174515, 0.041538845747709274, 0.01896449364721775, -0.025046586990356445, 0.01588265411555767, -0.06340153515338898, -0.09592463821172714, -0.003689158707857132, 0.005883913487195969, 0.08497243374586105, 0.03426896035671234, 0.04566101357340813, 0.016862111166119576, 0.14990204572677612, 0.023491542786359787, -0.04624026268720627, 0.01959317922592163, -0.11477939784526825, -0.18532028794288635, -0.16928955912590027, 0.08831275254487991, -0.04869592934846878, 0.02849440835416317, -0.0665273368358612, 0.011449994519352913, 0.043948110193014145, -0.0950559452176094, 0.09776586294174194, -0.011082389391958714, 0.029956072568893433, 0.0640874132514, 0.08847063779830933, 0.05988946557044983, 0.00803681742399931, 0.02607170306146145, 0.005202425178140402, 0.0037801694124937057, 0.04051300138235092, 0.025788478553295135, -0.04712715744972229, -0.06798594444990158, 0.04936038702726364, 0.021615101024508476, -0.025386134162545204, -0.11374158412218094, 0.011148082092404366, -0.0025758431293070316, -0.023078138008713722, -0.03002200461924076, -0.06714308261871338, -0.0037407707422971725, 0.037882424890995026, -0.027812309563159943, -0.011704159900546074, 0.15449406206607819, 0.005286595784127712, -0.0325908400118351, 0.08010520040988922, -0.05483551695942879, -0.06457965075969696, -0.05213506147265434, 0.05743478238582611, 0.08040381222963333, -0.13960985839366913, -0.12302666157484055, -0.04229719564318657, 0.011453971266746521, -0.04044531285762787, 0.0481099896132946, 0.16494296491146088, -0.0015575519064441323, -0.022850969806313515, 0.06259340792894363, -0.05389733240008354, 0.01631592959165573, 0.01010049693286419, 0.06413067132234573, 0.012437633238732815, -0.012297390028834343], [-0.04358105733990669, -0.13112817704677582, 0.00157662492711097, -0.15055081248283386, -0.17589862644672394, -0.013546046800911427, -0.034251436591148376, -0.01645037904381752, -0.10049057751893997, -0.06619317084550858, -0.0622374452650547, -0.04976243898272514, 0.0640939250588417, -0.08475107699632645, 0.0556061826646328, 0.039891909807920456, 0.07478795200586319, -0.1494642198085785, -0.013889901340007782, -0.1522032916545868, 0.02555687725543976, -0.11957486718893051, 0.025886191055178642, 0.061595622450113297, -0.011423412710428238, 0.034309450536966324, -0.06239466741681099, -0.10568832606077194, 0.04098102077841759, 0.019016841426491737, 0.10890871286392212, 0.058773983269929886, -0.037416525185108185, 0.0117435147985816, 0.1405559480190277, 0.0646575316786766, -0.027552340179681778, 0.04178837686777115, -0.11979369074106216, -0.1821446567773819, -0.15468837320804596, -0.015376750379800797, -0.054574109613895416, 0.06717947125434875, -0.06439989060163498, -0.038693755865097046, 0.02077498845756054, -0.06884774565696716, -0.10223618149757385, -0.031439054757356644, 0.018877604976296425, 0.08447515964508057, 0.11170395463705063, 0.0842628926038742, 0.0202256441116333, 0.053457386791706085, 0.032801855355501175, 0.02641213871538639, -0.006836889311671257, 0.14753840863704681, -0.07408623397350311, 0.05351565405726433, -0.1438242346048355, 0.04103800281882286, 0.061643388122320175, -0.09542437642812729, 0.0371832400560379, 0.07086995244026184, -0.05454513430595398, -0.11067156493663788, -0.14740276336669922, 0.003272680565714836, 0.09431397914886475, -0.04512394219636917, 0.0019508992554619908, -0.06948230415582657, -0.06759282946586609, 0.06561295688152313, 0.0528697744011879, -0.03055942989885807, -0.07944277673959732, 0.03884046897292137, 0.05094963312149048, 0.0847669243812561, -0.11634451895952225, 0.04386337846517563, -0.11816426366567612, 0.00926242396235466, 0.057444486767053604, -0.04071342945098877, 0.15164202451705933, 0.004283551126718521, -0.019065439701080322, -0.043393272906541824, 0.06122693419456482, 0.02178315818309784, 0.08037581294775009, 0.06139688938856125, 0.06070461496710777, -0.007034643553197384], [0.07791507244110107, -0.09174388647079468, 0.019096994772553444, -0.13816381990909576, -0.1666959673166275, 0.0047731781378388405, -0.09029515087604523, -0.06689740717411041, 0.0051138512790203094, 0.0870177373290062, -0.06911502033472061, -0.020780673250555992, -0.009199237450957298, -0.07007022202014923, 0.08778266608715057, 0.050130560994148254, 0.04181467369198799, -0.12662525475025177, -0.030812157317996025, -0.15471577644348145, -0.02315998636186123, -0.1430235207080841, 0.004631713964045048, -0.05660337954759598, 0.008429966866970062, -0.0296709593385458, 0.020913975313305855, 0.124913290143013, 0.059710122644901276, 0.029159193858504295, 0.04550033435225487, -0.022204823791980743, -0.004704355727881193, -0.006412773858755827, 0.12786400318145752, 0.07852676510810852, -0.01542268693447113, 0.03147616982460022, -0.13408535718917847, -0.17393431067466736, -0.14046792685985565, -0.06750195473432541, -0.04876331239938736, -0.07092735916376114, -0.035235632210969925, -0.06072470173239708, -0.045574434101581573, 0.03227575123310089, -0.11261723935604095, -0.05385090038180351, -0.0014899822417646646, 0.06365485489368439, 0.11794392019510269, 0.07130845636129379, 0.030387820675969124, 0.06889473646879196, 0.008583537302911282, 0.004845267161726952, 0.0006506426725536585, 0.14052940905094147, -0.01765454187989235, 0.08097922801971436, -0.1260475218296051, 0.0525115430355072, -0.040763698518276215, -0.06396569311618805, -0.007758626714348793, 0.10373581200838089, 0.06162599101662636, -0.10201310366392136, -0.1284455806016922, 0.01336840819567442, 0.10726190358400345, -0.06918908655643463, 0.05926687642931938, -0.038221728056669235, -0.04967309907078743, -0.03983565792441368, 0.026468032971024513, -0.061047300696372986, -0.0636386126279831, 0.012292671017348766, 0.040532827377319336, 0.08989562094211578, -0.011363636702299118, 0.0905974954366684, -0.12371356040239334, -0.0004647283349186182, 0.00862637348473072, 0.011075479909777641, 0.13664363324642181, 0.008696288801729679, -0.051685988903045654, -0.04540536552667618, 0.03685478866100311, 0.02185971289873123, 0.1086118072271347, 0.0029394757002592087, 0.03873387351632118, -0.03006216138601303], [0.06901172548532486, 0.06442371010780334, 0.018545115366578102, -0.11151894927024841, 0.09230411797761917, 0.017746737226843834, -0.06893473118543625, -0.0930311307311058, -0.012990598566830158, 0.0978444516658783, -0.04819442704319954, -0.015345459803938866, -0.03965156152844429, -0.04111974313855171, 0.10580894351005554, -0.014953384175896645, -0.03825469687581062, -0.10101133584976196, 0.026739416643977165, -0.15513695776462555, -0.054250866174697876, -0.1486189365386963, 0.05004403367638588, -0.010834669694304466, 0.01990744285285473, -0.016674185171723366, -0.06055106967687607, 0.11204865574836731, -0.10330728441476822, 0.013291225768625736, 0.06751016527414322, -0.004149871878325939, -0.020127933472394943, 0.02772372029721737, 0.037218354642391205, 0.09391500800848007, -0.1338350623846054, 0.1381390243768692, -0.14070889353752136, -0.16467107832431793, -0.11947896331548691, -0.07859223335981369, -0.01286294125020504, 0.01458650454878807, -0.06339459866285324, -0.045643895864486694, -0.0724179819226265, 0.054991215467453, 0.0773477628827095, -0.07430990785360336, -0.02616092935204506, 0.03636590763926506, 0.13444054126739502, 0.0656866505742073, 0.049400269985198975, 0.05590745434165001, -0.007719961926341057, -0.05548790842294693, -0.06108298897743225, 0.12278741598129272, 0.03835873678326607, -0.06070726737380028, -0.11081529408693314, 0.07065695524215698, -0.03743671625852585, -0.027609437704086304, 0.02283475361764431, 0.019596952944993973, -0.06916346400976181, -0.08625178039073944, -0.0959227904677391, 0.05598374828696251, 0.11527775228023529, -0.09152699261903763, -0.0035324753262102604, -0.009517799131572247, 0.03090815432369709, -0.0013132733292877674, -0.0009014705428853631, -0.040737178176641464, 0.0332479402422905, -0.016793902963399887, -0.0370834618806839, -0.15753328800201416, 0.02305675484240055, 0.10795267671346664, -0.13831351697444916, 0.15675309300422668, 0.0032737557776272297, -0.06681400537490845, 0.1313105821609497, 0.01842908374965191, -0.04381677508354187, 0.05506220459938049, -0.01241198182106018, 0.02886592410504818, 0.00265158386901021, 0.041154954582452774, 0.010253299959003925, 0.011421486735343933], [0.05731072276830673, 0.1036081537604332, 0.02702530287206173, 0.0026422645896673203, 0.10032575577497482, 0.0889424979686737, -0.10890336334705353, -0.1300331950187683, -0.10252192616462708, 0.027379656210541725, -0.05362045392394066, -0.035652343183755875, 0.07605258375406265, 0.026193557307124138, 0.013044391758739948, 8.076021913439035e-05, -0.08846688270568848, -0.07137151807546616, 0.024290945380926132, -0.13835856318473816, -0.07528118044137955, -0.1413719356060028, 0.020405370742082596, 0.021948471665382385, 0.02521582879126072, -0.0218973271548748, -0.028314707800745964, 0.07478182017803192, -0.09004978835582733, 0.006304943934082985, 0.08530274778604507, -0.05775083974003792, -0.0098862424492836, -0.010907558724284172, -0.13646471500396729, 0.10083676129579544, -0.1380830556154251, 0.11998876929283142, -0.1167764738202095, -0.15748316049575806, -0.0700339674949646, -0.09079574793577194, 0.0067366017028689384, -0.024415289983153343, 0.089725062251091, -0.019580181688070297, -0.03225063532590866, 0.08083867281675339, 0.09236606955528259, -0.052354734390974045, -0.07200788706541061, -0.05459993705153465, 0.09690187871456146, -0.019902437925338745, 0.065015509724617, 0.08907853811979294, 0.08641927689313889, -0.02240782417356968, -0.046353530138731, 0.10368853807449341, -0.049656596034765244, -0.051528673619031906, -0.087163046002388, 0.043988000601530075, -0.07282009720802307, 0.021946381777524948, -0.02079661935567856, 0.054731082171201706, 0.020324671640992165, -0.1276496797800064, -0.02499251440167427, -0.08543242514133453, 0.11695494502782822, -0.1364448070526123, 0.040113937109708786, 0.045727312564849854, -0.05382651835680008, -0.05600890889763832, -0.030461708083748817, -0.0682518258690834, 0.03324563801288605, 0.09667359292507172, -0.03442506119608879, -0.16148428618907928, 0.03449869900941849, 0.14037945866584778, -0.11025991290807724, 0.16113753616809845, -0.04315314441919327, -0.03246898576617241, 0.08096643537282944, 0.02515200339257717, -0.058240775018930435, -0.01725435070693493, -0.023736000061035156, 0.0718769058585167, 0.004622827284038067, 0.046712085604667664, -0.020356616005301476, -0.029547477141022682], [0.04044400900602341, -0.05677912384271622, -0.004817844834178686, 0.023445457220077515, 0.08240438997745514, 0.10493425279855728, -0.08692094683647156, -0.1537458747625351, -0.1174384281039238, -0.04563108831644058, -0.035202134400606155, 0.06836258620023727, -0.057756852358579636, 0.04896710440516472, 0.02759629301726818, 0.020124565809965134, -0.054000940173864365, -0.11531627178192139, 0.01122032105922699, -0.14607813954353333, -0.09560931473970413, -0.1404932588338852, 0.001008634571917355, -0.022617759183049202, 0.03006495162844658, -0.05638541653752327, 0.04521993175148964, -0.010103452950716019, -0.07222230732440948, 0.020451823249459267, -0.004309331998229027, -0.03154228255152702, 0.03174009546637535, 0.06876808404922485, -0.14780904352664948, 0.10092793405056, -0.12192220240831375, 0.09124726802110672, -0.13000191748142242, -0.1451137661933899, -0.041704170405864716, -0.03606335073709488, 0.006265060044825077, -0.05658041685819626, -0.05267580598592758, -0.0003669062862172723, 0.0072447918355464935, 0.08060900866985321, 0.08215226978063583, 0.010711988434195518, -0.08999007940292358, -0.0795493945479393, 0.00014517793897539377, -0.10819932818412781, 0.07389935851097107, 0.07874184846878052, 0.09577792882919312, -0.015657510608434677, 0.01836613565683365, 0.07073128968477249, 0.06071832776069641, -0.021310899406671524, -0.070053331553936, 0.058191657066345215, 0.034781597554683685, 0.03003675490617752, 0.03894603252410889, 0.07722817361354828, 0.012488054111599922, -0.10160225629806519, 0.020666860044002533, 0.02129959687590599, 0.1226084753870964, -0.1594938486814499, -0.0047574653290212154, 0.07315225899219513, -0.022021381184458733, 0.02641960419714451, 0.07887274771928787, 0.030266163870692253, 0.16105662286281586, 0.06927110999822617, -0.03496578335762024, -0.1444314867258072, 0.05089915916323662, 0.12343816459178925, -0.08613003045320511, 0.15622621774673462, -0.014155816286802292, -0.010231886059045792, 0.06483221799135208, 0.061637032777071, -0.08448946475982666, 0.055962081998586655, -0.004267461597919464, 0.07546994090080261, 0.030471304431557655, 0.06512706726789474, 0.0768282413482666, -0.06559070199728012], [0.02141241356730461, -0.03138217702507973, -0.02360476925969124, 0.043145984411239624, 0.0870300754904747, 0.13176369667053223, -0.06440357118844986, -0.1772330403327942, -0.14260977506637573, -0.03541688993573189, 0.016844598576426506, 0.001977594569325447, -0.05064795911312103, 0.07669906318187714, 0.06680424511432648, 0.03829959034919739, -0.009228220209479332, -0.14389783143997192, 0.03576105087995529, -0.086176298558712, -0.12026653438806534, -0.04377726837992668, -0.12134920805692673, 0.021983446553349495, 0.026340102776885033, -0.03748844563961029, -0.04291317239403725, -0.02348971739411354, -0.05159468948841095, -0.11289214342832565, 0.014363212510943413, 0.026543648913502693, -0.04040215536952019, 0.018005821853876114, -0.17482075095176697, 0.10306788980960846, -0.11141704022884369, 0.02268834598362446, -0.14344976842403412, -0.12972407042980194, 0.03551904112100601, 0.06735246628522873, 0.03192409127950668, -0.06385263055562973, 0.05924239754676819, 0.016702914610505104, -0.02100995182991028, 0.09029664844274521, 0.0773201510310173, 0.0022274330258369446, -0.10467338562011719, 0.08128149807453156, 0.02235649712383747, -0.10156038403511047, 0.005196933634579182, 0.06374341249465942, 0.09708411991596222, -0.02135842852294445, -0.02028530277311802, 0.04400571063160896, -0.06612568348646164, 0.01946672797203064, -0.08280650526285172, 0.07603587955236435, 0.006656506098806858, 0.0447794534265995, -0.03160007297992706, -0.03874673321843147, 0.05565771833062172, -0.07098691910505295, 0.061968058347702026, 0.04636679217219353, 0.0913148894906044, -0.06426364928483963, 0.0002209960948675871, 0.1074758768081665, -0.043109893798828125, -0.00013825029600411654, 0.056493137031793594, -0.01582447998225689, 0.17356328666210175, 0.03377346694469452, -0.03621046990156174, -0.1421961933374405, 0.06677044183015823, 0.1073167696595192, 0.046314582228660583, 0.15069390833377838, -0.06004054471850395, 0.06319329887628555, -0.06241321936249733, -0.018431155011057854, -0.08304549753665924, -0.04671632871031761, 0.013170439749956131, 0.06394744664430618, 0.05059276148676872, 0.013631744310259819, 0.06798722594976425, -0.12266683578491211], [-0.043829742819070816, -0.004585343413054943, 0.046424951404333115, 0.03072756715118885, 0.0966104120016098, 0.14080940186977386, -0.015506802126765251, -0.18303053081035614, -0.06888877600431442, -0.02147848904132843, 0.09013677388429642, 0.05654139816761017, -0.000831889221444726, 0.05629085376858711, 0.09629432111978531, 0.06741995364427567, 0.027153607457876205, -0.1272173374891281, 0.028265122324228287, 0.10671684890985489, -0.13409490883350372, -0.04206519573926926, -0.14407293498516083, -0.023482173681259155, 0.0009231428848579526, 0.005327987484633923, 0.0027071130461990833, 0.06731418520212173, -0.029855892062187195, -0.0967758372426033, -0.028140448033809662, -0.04193652421236038, -0.0597296766936779, -0.0018843422876670957, -0.18471331894397736, -0.10531838238239288, -0.08691909164190292, -0.017101150006055832, -0.15420320630073547, -0.11530754715204239, 0.052757132798433304, 0.05150217562913895, -0.060889340937137604, 0.031825512647628784, -0.028394417837262154, 0.036141131073236465, -0.061349090188741684, -0.14742816984653473, 0.07103732228279114, -0.04408014938235283, -0.11928217113018036, 0.05862383916974068, 0.09878256916999817, -0.1093340516090393, 0.015787655487656593, 0.054604560136795044, 0.09080124646425247, -0.06866300851106644, -0.06452430784702301, 0.025296976789832115, -0.05085010826587677, 0.04905807226896286, -0.14615286886692047, 0.08097957074642181, 0.07018934190273285, 0.03874281048774719, 0.03522992134094238, -0.0033550523221492767, 0.06850636750459671, -0.03559447079896927, 0.09131938219070435, -0.05584080517292023, 0.0917920172214508, -0.07332531362771988, -0.06753569096326828, 0.12276216596364975, 0.031551018357276917, 0.011391378939151764, 0.03192425146698952, 0.07411278039216995, 0.16077446937561035, -0.005431171506643295, -0.03038417547941208, -0.1201387345790863, 0.07697390019893646, 0.08258464932441711, 0.09181127697229385, 0.13652600347995758, 0.009948136284947395, 0.011763876304030418, -0.07320649921894073, 0.05904477834701538, -0.06783761829137802, 0.06229216977953911, 0.004964066669344902, -0.06424470245838165, -0.09557835757732391, -0.04085831716656685, 0.04257984086871147, -0.1482432633638382], [-0.043965619057416916, 0.03649906814098358, 0.011685911566019058, 0.05468090623617172, 0.0934612974524498, 0.14595936238765717, 0.02651856653392315, -0.1848069727420807, -0.08042072504758835, -0.003102606162428856, 0.11431489884853363, 0.01897432468831539, -0.05181900039315224, -0.10658283531665802, 0.11968530714511871, 0.08792098611593246, 0.03987922519445419, -0.09632128477096558, 0.10335300862789154, 0.11545567214488983, -0.14795133471488953, -0.044835977256298065, -0.1599508821964264, 0.038508880883455276, 0.006644203327596188, -0.01983972266316414, -0.02411636710166931, 0.04705300182104111, -0.07656212896108627, -0.08430669456720352, -0.0049544936046004295, -0.017106706276535988, -0.029414653778076172, 0.05212472751736641, -0.18770428001880646, -0.1265643835067749, -0.06793191283941269, -0.07992269843816757, -0.16304562985897064, -0.09523926675319672, 0.07838957011699677, 0.029278744012117386, -0.021689947694540024, -0.049812037497758865, -0.0021853800863027573, 0.04804800823330879, -0.08881522715091705, -0.1321323662996292, 0.05475418269634247, -0.0045365141704678535, -0.06322555989027023, 0.030119318515062332, 0.11643055081367493, -0.08508767932653427, -0.026782730594277382, 0.04689834266901016, 0.07211881875991821, -0.00375327467918396, -0.014025401324033737, 0.023997969925403595, -0.006085265893489122, -0.031736232340335846, -0.1309812366962433, -0.0008629112271592021, 0.050429824739694595, 0.04474158585071564, -0.08825373649597168, 0.03362279757857323, 0.029642891138792038, -0.0010137093486264348, 0.11227535456418991, -0.013372079469263554, 0.1392139494419098, -0.09135676920413971, -0.019603975117206573, 0.06795607507228851, -0.013514126650989056, 0.04815513640642166, -0.008496677502989769, -0.06225063279271126, 0.13783220946788788, -0.03915100544691086, -0.03020515851676464, -0.08520971238613129, 0.08447754383087158, -0.07416867464780807, 0.14603441953659058, 0.02552287094295025, 0.07134536653757095, 0.027736950665712357, -0.07969985157251358, 0.013379234820604324, 0.11400526762008667, -0.006294752936810255, -0.02942507714033127, -0.06770212203264236, -0.08154142647981644, 0.04571211710572243, 0.020318103954195976, 0.06694278866052628], [0.1078704446554184, 0.05592328682541847, -0.028763102367520332, 0.08846689760684967, 0.09062500298023224, -0.143584743142128, 0.04598533362150192, 0.024292273446917534, 0.12157893180847168, 0.0007885780651122332, 0.13662751019001007, 0.0005391171434894204, 0.03941842541098595, -0.12778829038143158, 0.13502715528011322, 0.10452111065387726, -0.05255747213959694, -0.07404348254203796, 0.08685143291950226, 0.10824515670537949, 0.004791170358657837, -0.10930250585079193, -0.12237793952226639, 0.05528699606657028, 0.019294988363981247, 0.06448505818843842, -0.02303445152938366, 0.03653889521956444, -0.06538262218236923, -0.06866759806871414, 0.0465645007789135, 0.006616652011871338, -0.009480807930231094, -0.013960378244519234, -0.1915373057126999, -0.1183130070567131, 0.031103288754820824, -0.1062488928437233, -0.1272869110107422, -0.07586271315813065, 0.09116721898317337, -0.035029150545597076, 0.03830736130475998, 0.01700461469590664, -0.004766788333654404, -0.1361568719148636, -0.07027754932641983, -0.11288518458604813, 0.04461607709527016, -0.013577038422226906, -0.07743221521377563, -0.04652329161763191, 0.11835932731628418, -0.0564761757850647, -0.020202182233333588, 0.07185586541891098, -0.06099965050816536, 0.035752493888139725, 0.002194956410676241, 0.044972676783800125, -0.07317176461219788, 0.0008027168223634362, -0.11378628760576248, -0.014398545026779175, 0.0004924342501908541, 0.05636410042643547, 0.025077862665057182, -0.026460882276296616, -0.03714105859398842, 0.01995816081762314, -0.13509869575500488, -0.00910657923668623, 0.14923518896102905, 0.050591010600328445, -0.027594946324825287, 0.09285153448581696, 0.05434420332312584, 0.06260278820991516, -0.033649202436208725, -0.07692770659923553, 0.12036202847957611, 0.012378405779600143, -0.0308490302413702, -0.06039801985025406, 0.04470644146203995, -0.08905482292175293, 0.16948896646499634, 0.02165958285331726, -0.00020018802024424076, 0.00990239903330803, -0.08286236226558685, 0.04750601947307587, 0.12212073057889938, 0.0433494858443737, 0.04976837709546089, -0.07163365930318832, -0.0969332829117775, 0.0032946174032986164, -0.0010780106531456113, 0.04465745389461517], [0.10348522663116455, 0.08205694705247879, -0.05609512701630592, 0.11955739557743073, -0.13123726844787598, -0.1331852674484253, -0.12913528084754944, 0.013287140056490898, 0.10414883494377136, -0.024999868124723434, 0.15529608726501465, -0.04346686229109764, 0.028011776506900787, -0.10516150295734406, 0.14967451989650726, -0.06075788289308548, 0.023541854694485664, -0.019059831276535988, 0.10319224745035172, 0.10230641812086105, -0.008630450814962387, -0.1278086155653, -0.12105375528335571, 0.011325936764478683, 0.05025012791156769, 0.06420895457267761, -0.004529350902885199, 0.019592763856053352, -0.0754721537232399, -0.05907132476568222, 0.0831250324845314, 0.023920182138681412, -0.02433513104915619, 0.050202447921037674, 0.03978205844759941, -0.11373066902160645, 0.054674550890922546, -0.1315837949514389, -0.036803487688302994, -0.04006760194897652, 0.04118889942765236, -0.06917458772659302, -0.03444063290953636, 0.0566900372505188, 0.042298320680856705, -0.1272592693567276, 0.022055525332689285, -0.08574189245700836, 0.035042185336351395, 0.027191372588276863, -0.09165413677692413, -0.0695374384522438, 0.13217638432979584, -0.024558717384934425, -0.009458564221858978, 0.0861060842871666, -0.07585812360048294, 0.02696099691092968, 0.032096657902002335, 0.04688020795583725, 0.022272195667028427, -0.02345120720565319, -0.10002937912940979, -0.07078404724597931, -0.04413027688860893, 0.06292637437582016, 0.041593119502067566, -0.0030634207651019096, -0.04259629547595978, -0.07550012320280075, -0.11804235726594925, 0.0480068139731884, 0.15048310160636902, 0.03722155839204788, -0.02783771976828575, 0.10257513076066971, -0.00445970892906189, 0.022672655060887337, -0.06276298314332962, 0.019045688211917877, 0.05980720371007919, -0.010633035562932491, -0.034849926829338074, -0.008357279002666473, -0.1766725480556488, -0.1092161163687706, 0.19645051658153534, 0.0023694979026913643, 0.034900300204753876, 0.03624553605914116, -0.06377506256103516, 0.016203124076128006, 0.13101401925086975, 0.054218839854002, 0.040143899619579315, -0.06935924291610718, -0.07925556600093842, -0.012759242206811905, -0.024588482454419136, -0.011859435588121414], [0.09351488947868347, 0.0682624876499176, 0.06532355397939682, 0.14127060770988464, -0.12245302647352219, -0.1256614625453949, -0.11310400068759918, -0.004630411043763161, 0.08738026022911072, -0.02143259532749653, 0.16750717163085938, -0.07424069941043854, -0.041098736226558685, -0.0695992037653923, 0.16406495869159698, -0.03471580147743225, 0.051248300820589066, 0.057240329682826996, 0.09529171884059906, 0.10475289076566696, 0.023089725524187088, -0.1411784440279007, -0.11529228836297989, 0.0699550211429596, 0.11642203480005264, -0.04554671794176102, -0.011708995327353477, 0.008318915031850338, -0.06250166893005371, -0.04858361557126045, 0.11576317250728607, 0.027204083278775215, 0.015354368835687637, 0.0511946938931942, 0.1149510070681572, -0.10629762709140778, 0.06546447426080704, 0.07425893098115921, -0.04581710696220398, -0.029853729531168938, 0.051584288477897644, -0.08080296963453293, -0.07317179441452026, 0.03280607610940933, -0.026503784582018852, -0.10920312255620956, -0.0021502492018043995, -0.05696866661310196, 0.013488724827766418, 0.009417153894901276, -0.10052984952926636, 0.11848261207342148, 0.15097327530384064, -0.10995955020189285, -0.011954324319958687, 0.08627887815237045, -0.08548587560653687, 0.023577429354190826, 0.06380794942378998, 0.040796909481287, -0.06631357967853546, 0.00969021301716566, -0.08920346945524216, -0.13822992146015167, 0.0473581999540329, -0.09851245582103729, 0.004277221858501434, 0.02412332594394684, 0.03440473973751068, -0.05482912436127663, -0.08159375190734863, 0.015951743349432945, 0.029268208891153336, 0.030241306871175766, -0.028003796935081482, -0.015517061576247215, 0.06429945677518845, 0.02535998821258545, -0.0843627005815506, -0.05034445971250534, 0.012175459414720535, -0.031005529686808586, -0.045675430446863174, 0.028506923466920853, -0.16916394233703613, -0.12672162055969238, 0.21496690809726715, -0.006906707771122456, 0.018597187474370003, 0.027590155601501465, -0.0650729313492775, -0.042358629405498505, 0.12875837087631226, 0.017933601513504982, -0.016007104888558388, -0.06023500859737396, -0.04804767668247223, 0.03389701247215271, -0.059131503105163574, -0.04150776565074921], [0.08062335103750229, 0.05915726721286774, 0.02661718986928463, -0.11109844595193863, -0.11235202103853226, -0.10934130847454071, -0.09438829123973846, 0.03814832866191864, 0.07016260921955109, -0.029091686010360718, -0.15107226371765137, -0.03789009526371956, -0.030137650668621063, -0.01990201510488987, 0.14939065277576447, -0.024127932265400887, 0.011441965587437153, 0.08659905940294266, 0.17348335683345795, 0.1011175662279129, 0.006859177723526955, -0.1437940150499344, 0.0005656558787450194, -0.023083457723259926, 0.12759967148303986, 0.05364518240094185, 0.01045752502977848, 0.08321932703256607, -0.16592693328857422, -0.03753677010536194, 0.07640907913446426, -0.0438491515815258, -0.0451168492436409, -0.00789356604218483, 0.12542672455310822, -0.10328637808561325, 0.08269648998975754, 0.06556961685419083, 0.005420368164777756, -0.033615842461586, 0.0628238171339035, -0.030730390921235085, 0.046798475086688995, 0.027607746422290802, -0.04665444791316986, -0.09537017345428467, 0.09525694698095322, -0.0188222024589777, 0.0012541488977149129, -0.02392474375665188, -0.11083575338125229, 0.09633830189704895, 0.014019734226167202, -0.08831053227186203, -0.021957919001579285, 0.11589550971984863, -0.09017440676689148, -0.03312161564826965, 0.05745002627372742, 0.03587617725133896, -0.0008352410513907671, 0.03912770003080368, -0.1680625081062317, -0.12419025599956512, 0.04293148219585419, -0.09040621668100357, 0.033741991966962814, -0.04032796993851662, -0.06710721552371979, -0.03150016814470291, -0.04413751885294914, -0.028549155220389366, 0.016959888860583305, 0.058695659041404724, -0.028516365215182304, 0.006316259503364563, 0.06413983553647995, -0.0020811399444937706, 0.009395096451044083, -0.03553280234336853, -0.022372465580701828, -0.0039886655285954475, -0.05200575664639473, 0.08892780542373657, -0.15456876158714294, -0.1365353912115097, 0.1241866946220398, -0.022296862676739693, 0.020068177953362465, 0.02488790638744831, -0.05495484918355942, -0.027333687990903854, -0.18818965554237366, -0.022573767229914665, -0.011306148022413254, 0.114186130464077, -0.0049364035949110985, 0.004946991801261902, -0.08412322402000427, -0.01303017232567072], [0.0662858709692955, -0.007001718506217003, 0.027350790798664093, -0.08670184016227722, -0.08218910545110703, -0.05196153745055199, 0.012461043894290924, 0.014810342341661453, 0.03764311596751213, -0.08140812069177628, -0.12860654294490814, 0.01080227643251419, 0.0371737964451313, 0.041884224861860275, 0.12438007444143295, -0.003165371250361204, 0.03724192827939987, 0.111353799700737, 0.1582552045583725, 0.09293834120035172, -0.011136066168546677, -0.1426752656698227, -0.019783806055784225, -0.025287102907896042, -0.07637178152799606, 0.05644698813557625, 0.06976407766342163, 0.07277461886405945, -0.1490023136138916, -0.18528492748737335, 0.0941852554678917, 0.011899814009666443, 0.0027783140540122986, -0.04923766478896141, 0.12778668105602264, -0.09714387357234955, 0.0878521278500557, 0.11147990077733994, -0.005774760618805885, -0.07375585287809372, 0.04776257649064064, -0.036689773201942444, 0.0024236636236310005, 0.03503318130970001, 0.06149081885814667, -0.0788406953215599, 0.06620961427688599, 0.010196007788181305, -0.008837981149554253, -0.052949853241443634, 0.07700211554765701, 0.07787887752056122, 0.04689710587263107, -0.06835348904132843, -0.05156056210398674, 0.1062702164053917, -0.09560450911521912, -0.04594703018665314, 0.026957301422953606, 0.13841821253299713, -0.029237059876322746, 0.07266157120466232, -0.14388661086559296, -0.03037363477051258, 0.021687541157007217, -0.07041299343109131, 0.046448104083538055, -0.013860542327165604, 0.04011895880103111, -0.009060165844857693, -0.0038513513281941414, -0.016716498881578445, -0.004108737222850323, 0.037453025579452515, 0.01864740252494812, 0.0280233696103096, 0.06372842192649841, 0.014750711619853973, -0.021263200789690018, 0.05408160015940666, -0.048089031130075455, -0.02863701619207859, -0.0739004984498024, 0.10798130184412003, -0.14242064952850342, 0.06450595706701279, 0.12571173906326294, -0.024197055026888847, 0.01238098181784153, 0.004729146137833595, -0.02975783683359623, -0.07239200174808502, -0.1836514174938202, -0.07366334646940231, 0.013968007639050484, 0.11603206396102905, 0.022561436519026756, -0.04087955132126808, -0.11328791826963425, -0.03928656503558159], [0.05846606567502022, 0.017653346061706543, 0.01091100461781025, -0.0659879818558693, -0.004845904186367989, 0.015609960071742535, 0.052705660462379456, -0.006906846538186073, 0.08070773631334305, -0.006074629724025726, -0.11266672611236572, 0.003516005352139473, 0.04976487159729004, 0.07502997666597366, -0.16614027321338654, 0.017623797059059143, -0.08929834514856339, 0.031006064265966415, 0.16126510500907898, 0.16024400293827057, -0.030240412801504135, -0.13979314267635345, -0.04122985154390335, -0.043843142688274384, -0.07051385939121246, -0.002571826335042715, -0.018544377759099007, 0.14507991075515747, -0.13562045991420746, -0.17928193509578705, -0.04287638142704964, -0.03127766773104668, 0.041028011590242386, -0.009285354986786842, 0.11674737185239792, -0.14689533412456512, 0.10287375748157501, 0.09100708365440369, -0.017163148149847984, -0.0659792497754097, -0.03451499342918396, -0.04056981950998306, -0.002129707019776106, 0.032222211360931396, -0.08542847633361816, -0.06509434431791306, 0.11067061126232147, 0.07099735736846924, -0.027014363557100296, -0.04437001049518585, 0.06475453078746796, 0.06256113201379776, 0.1014067605137825, -0.07603505998849869, -0.04597098380327225, 0.0902751088142395, -0.09326482564210892, -0.015856405720114708, 0.01587553694844246, 0.13142113387584686, 0.021227532997727394, 0.10094659775495529, -0.11094462126493454, 0.003363915253430605, -0.020913267508149147, -0.04234052076935768, -0.0007253254298120737, 0.0019033571006730199, 0.02849060483276844, -0.10198763012886047, 0.05378333851695061, -0.04200289025902748, -0.003528245724737644, 0.025897566229104996, 0.02513938397169113, -0.01468939520418644, 0.007115896791219711, 0.05718463286757469, -0.08389856666326523, 0.04319417104125023, -0.06664761900901794, 0.0916488841176033, -0.08490462601184845, 0.11808953434228897, -0.14794591069221497, 0.0548686757683754, -0.1071443036198616, -0.031643614172935486, 0.02584247663617134, 0.0026988890022039413, -0.027195775881409645, 0.05825582891702652, -0.17849445343017578, 0.0593390092253685, 0.05686982721090317, 0.11459812521934509, -0.08719710260629654, -0.006865919567644596, -0.14225049316883087, -0.05603259801864624], [0.139287069439888, 0.04286760836839676, 0.064448282122612, -0.04738999530673027, 0.030999280512332916, 0.027433205395936966, 0.07085124403238297, -0.026066342368721962, 0.14575159549713135, 0.0367560088634491, -0.09184744954109192, -0.015379494056105614, 0.07174214720726013, 0.09824120998382568, -0.15664014220237732, 0.023951977491378784, -0.08572633564472198, -0.05575152114033699, 0.13913114368915558, 0.16164813935756683, -0.0366518534719944, -0.12792813777923584, -0.05981157347559929, 0.049177005887031555, -0.058299627155065536, 0.01997549831867218, 0.07962462306022644, 0.13825565576553345, -0.17663177847862244, -0.16460193693637848, -0.014164181426167488, -0.046273406594991684, -0.013974495232105255, -0.0642365887761116, 0.10098458081483841, -0.1485321968793869, 0.09942977875471115, 0.05347049981355667, 0.03489040583372116, -0.053279273211956024, -0.02875675819814205, 0.09886032342910767, 0.02269776165485382, 0.016012098640203476, 0.031407568603754044, -0.14372119307518005, 0.08357539027929306, 0.10256209969520569, -0.042997539043426514, -0.051055751740932465, 0.05124073475599289, 0.047804925590753555, 0.11947450786828995, -0.04746558517217636, -0.03738652914762497, -0.07012611627578735, 0.1351436972618103, -0.046604834496974945, -0.04242635890841484, 0.11495447903871536, 0.033151451498270035, 0.12256640195846558, -0.06607715040445328, 0.0201256163418293, 0.043684106320142746, -0.021239053457975388, -0.0732058435678482, 0.02493417076766491, 0.05720840021967888, -0.08534007519483566, 0.08104149252176285, -0.0051627131178975105, -0.1168908178806305, 0.09483623504638672, 0.026204973459243774, 0.011548842303454876, -0.0751822218298912, 0.004575017839670181, -0.10541576892137527, -0.020475126802921295, -0.08155128359794617, 0.06730452179908752, -0.08732596784830093, -0.0746472179889679, -0.13447098433971405, 0.045171499252319336, -0.09056421369314194, -0.03448883444070816, -0.0534614622592926, 0.06352832168340683, -0.033848974853754044, -0.03677435591816902, -0.16959016025066376, -0.003157022874802351, -0.002029402181506157, 0.11199714988470078, -0.061209384351968765, -0.06501105427742004, -0.16164277493953705, 0.07267414778470993], [0.13271689414978027, 0.087840236723423, -0.04078352078795433, -0.03070652298629284, 0.055684152990579605, 0.04046550393104553, -0.029935913160443306, -0.005165544338524342, 0.12957321107387543, 0.03222346305847168, -0.08221879601478577, -0.058578141033649445, 0.0640161857008934, -0.026691971346735954, -0.15192832052707672, -0.03177990764379501, -0.059248775243759155, -0.03034433349967003, 0.11715323477983475, 0.1668916791677475, -0.05748899653553963, 0.10777966678142548, -0.04707898944616318, -0.06151410564780235, -0.04850541800260544, -0.02082323469221592, 0.055414650589227676, 0.12905779480934143, -0.1730014532804489, -0.152979776263237, 0.03718532621860504, -0.08457391709089279, 0.04059747979044914, 0.06942552328109741, 0.09339576214551926, -0.14420132339000702, 0.10822800546884537, 0.0009055971167981625, 0.12863677740097046, 0.1403753012418747, -0.14149466156959534, 0.09124226123094559, 0.008427495136857033, 0.024538351222872734, -0.02918216772377491, -0.1388755887746811, 0.054094456136226654, 0.1289605349302292, -0.0524822361767292, -0.04866107553243637, 0.041978053748607635, 0.029401514679193497, -0.034334007650613785, 0.020238222554326057, -0.023238757625222206, -0.09176423400640488, 0.13151827454566956, -0.02990877255797386, 0.041434433311223984, 0.10420011729001999, 0.05598803982138634, 0.07477940618991852, -0.11190073192119598, 0.040340885519981384, -0.004318236839026213, -0.008959365077316761, 0.00867060013115406, -0.09592995047569275, 0.03264445438981056, -0.07269890606403351, 0.10793450474739075, 0.02520417980849743, -0.11038513481616974, 0.08202946186065674, 0.012125497683882713, 0.055842746049165726, -0.00429339986294508, 0.06289250403642654, -0.10390613228082657, -0.0068771569058299065, 0.015376564115285873, 0.039601895958185196, -0.08855732530355453, -0.06558086723089218, -0.14119046926498413, -0.051217999309301376, -0.0693282037973404, 0.04600418359041214, -0.012892650440335274, -0.0058186594396829605, -0.04677513241767883, -0.05992180481553078, -0.1595843881368637, 0.02894633077085018, -0.022249117493629456, 0.11336074769496918, -0.0051644593477249146, 0.03252209350466728, 0.011685527861118317, 0.04562295600771904], [0.11754073947668076, 0.10680816322565079, 0.017741868272423744, -0.009274454787373543, 0.06866341084241867, -0.1444663554430008, -0.10508885979652405, 0.08524520695209503, 0.11132485419511795, 0.04073498398065567, -0.06428146362304688, 0.008558208122849464, -0.06624923646450043, -0.003363808384165168, -0.14125202596187592, -0.013701304793357849, -0.028359269723296165, -0.08290477097034454, 0.06380675733089447, 0.1622326821088791, -0.07607082277536392, 0.10521727055311203, -0.062416739761829376, -0.013143104501068592, -0.08709819614887238, -0.02865401841700077, -0.015187809243798256, 0.1730615496635437, -0.1569863259792328, -0.12680590152740479, 0.06377174705266953, -0.06032645329833031, 0.04794330522418022, 0.008003095164895058, 0.05507613718509674, -0.13180136680603027, 0.12172769010066986, -0.02617197483778, 0.11227735131978989, 0.14626958966255188, -0.12629283964633942, 0.08019490540027618, -0.04337729513645172, -0.03735929727554321, -0.04721596837043762, -0.18211190402507782, 0.017266225069761276, 0.1495194137096405, -0.06481344252824783, 0.06012142077088356, 0.17281408607959747, -0.0031623132526874542, -0.01618257164955139, 0.04664403572678566, -0.018556328490376472, -0.10270573943853378, -0.13167040050029755, 0.03604625537991524, 0.045110274106264114, 0.05765401944518089, 0.019529037177562714, 0.09353858977556229, -0.0933109000325203, 0.0583907775580883, -0.01620943658053875, 0.005528025329113007, -0.00872040819376707, -0.06635229289531708, -0.012203020974993706, -0.054226070642471313, -0.10438289493322372, 0.0625225082039833, 0.036309175193309784, 0.05923926830291748, 0.02710302732884884, 0.08214126527309418, 0.029078284278512, 0.017713351175189018, -0.07344698160886765, -0.024797184392809868, 0.009487532079219818, 0.12207753956317902, 0.13954998552799225, -0.04848485440015793, -0.12621386349201202, -0.06540929526090622, -0.04921117052435875, 0.12519507110118866, 0.030867924913764, -0.06508250534534454, -0.058426015079021454, 0.06601602584123611, -0.138750821352005, 0.018495965749025345, 0.06266093254089355, 0.10366065055131912, 0.0638621523976326, 0.01224229484796524, 0.05577313154935837, -0.008196502923965454], [0.07978236675262451, 0.13160671293735504, -0.053112003952264786, 0.018130414187908173, 0.08027461171150208, -0.13153162598609924, -0.08452039211988449, 0.06520338356494904, 0.10953360795974731, -0.05504291504621506, -0.023970451205968857, -0.02739640697836876, -0.03967981040477753, 0.02911108173429966, -0.10963684320449829, -0.0195404514670372, -0.09469141811132431, -0.07104482501745224, 0.03097030706703663, 0.1615356206893921, -0.09767661243677139, 0.013747937977313995, -0.07998643815517426, -0.0729353204369545, -0.09085796773433685, 0.02346261776983738, -0.0563555546104908, 0.15871377289295197, -0.15010106563568115, -0.09891340136528015, -0.01912551186978817, 0.07052884250879288, -0.008298097178339958, -0.013801606371998787, -0.06470105051994324, -0.11766116321086884, 0.12914296984672546, 0.1483076512813568, 0.0907505676150322, 0.14900803565979004, -0.09795448929071426, 0.05532641336321831, -0.03277457877993584, -0.044118732213974, 0.07443281263113022, -0.16627077758312225, -0.0230586938560009, 0.15955862402915955, -0.08414561301469803, -0.024119548499584198, 0.1633235067129135, -0.02299904264509678, -0.0010210733162239194, -0.013290993869304657, -0.008660497143864632, -0.10690490156412125, -0.14877250790596008, 0.08403225243091583, 0.02111121267080307, -0.053688835352659225, -0.007429026998579502, -0.0498981699347496, -0.08177904784679413, 0.079984650015831, -0.0005867991130799055, 0.019938506186008453, 0.05434712395071983, -0.03222215920686722, 0.07495710998773575, -0.008877085521817207, -0.08836165070533752, -0.050597187131643295, 0.055396948009729385, 0.08275102823972702, -0.012603452429175377, 0.1099291443824768, -0.0015892178053036332, 0.057797301560640335, -0.07707075774669647, 0.010710649192333221, -0.004232795909047127, 0.1018049493432045, 0.14463713765144348, 0.14084087312221527, -0.11750975251197815, -0.09862694144248962, -0.011660783551633358, 0.12390635162591934, -0.05832916870713234, 0.046058107167482376, -0.12999431788921356, 0.0285037849098444, -0.0023054727353155613, 0.0298079252243042, 0.04218816012144089, 0.07951734215021133, 0.09463825076818466, 0.06854336708784103, 0.04294905811548233, -0.05595589056611061], [0.014670822769403458, 0.15953150391578674, -0.0074914367869496346, 0.06999009102582932, 0.0894244909286499, -0.11547528207302094, -0.020125186070799828, -0.0137576162815094, 0.09263084828853607, 0.03977891057729721, 0.013354072347283363, 0.007271816022694111, 0.036088727414608, -0.0087101049721241, -0.09051350504159927, -0.08031397312879562, -0.06683052331209183, -0.04835433512926102, 0.010980061255395412, 0.15377412736415863, -0.11844140291213989, -0.003371860831975937, -0.10499398410320282, -0.0007930152351036668, -0.09087348729372025, -0.0031642382964491844, -0.0526508130133152, 0.14384771883487701, -0.13428691029548645, -0.08272738754749298, 0.00024392688646912575, 0.09684266149997711, 0.03010987490415573, -0.02490912564098835, -0.06870903819799423, -0.1011044979095459, 0.1394924372434616, 0.12214891612529755, 0.07122659683227539, -0.10230521112680435, -0.05636660009622574, 0.041114408522844315, 0.030300376936793327, 0.01885824277997017, 0.045322831720113754, -0.15073846280574799, -0.055231064558029175, -0.06740324944257736, -0.09594429284334183, -0.05546630173921585, 0.15445628762245178, 0.062117159366607666, -0.0006344954017549753, 0.009302642196416855, 0.007263108156621456, -0.01889112964272499, -0.1566612869501114, -0.04462049528956413, -0.005601590499281883, -0.0706363171339035, 0.027600452303886414, -0.0301961749792099, -0.06530247628688812, 0.0990244671702385, 0.015065213665366173, -0.023472435772418976, -0.003154439851641655, 0.004908660426735878, -0.06656032800674438, 0.04721297696232796, -0.09492578357458115, 0.017630912363529205, 0.06169641390442848, 0.06446371972560883, -0.03880787268280983, 0.1385069191455841, 0.06174328550696373, -0.07037711888551712, -0.001903905184008181, 0.05221417918801308, -0.018694451078772545, 0.08231887221336365, 0.14585018157958984, 0.15635709464550018, -0.10286369174718857, -0.11595594137907028, 0.01593588851392269, 0.12334344536066055, 0.005940929986536503, 0.030307238921523094, -0.1455579549074173, 0.010892512276768684, 0.05605243518948555, -0.011263124644756317, -0.05281968414783478, 0.015165352262556553, -0.002893939847126603, 0.02390272729098797, 0.021294057369232178, -0.07731404900550842], [0.007889969274401665, 0.17438015341758728, -0.007403668016195297, 0.1030726432800293, 0.08567439019680023, -0.03549659252166748, 0.012906357645988464, -0.08693832159042358, 0.04719996824860573, -0.01032816618680954, 0.02848118729889393, 0.006084263324737549, 0.054054200649261475, 0.005557727068662643, -0.05056122690439224, -0.06492036581039429, -0.03583066910505295, -0.07714658230543137, 0.10039009153842926, 0.1509188860654831, -0.08889196813106537, -0.008109793066978455, -0.09898190200328827, 0.007813941687345505, -0.09078358113765717, 0.051318924874067307, -0.03877520188689232, 0.12382461130619049, -0.10982531309127808, -0.06582368165254593, -0.04251683130860329, -0.02154308557510376, 0.06460786610841751, -0.030144114047288895, 0.12853804230690002, -0.040488775819540024, 0.03635333105921745, 0.09296473860740662, -0.0700015276670456, -0.09409458190202713, 0.08924250304698944, 0.03713131695985794, -0.029731180518865585, -0.07558976858854294, -0.05332352593541145, -0.1300838142633438, 0.0465688481926918, -0.043627530336380005, -0.10255210101604462, -0.07696280628442764, 0.14721231162548065, 0.05044766142964363, 0.018981674686074257, 0.022529462352395058, 0.0255839042365551, -0.10257674753665924, -0.15898357331752777, -0.06875982135534286, -0.06300576776266098, -0.08136548101902008, -0.023392297327518463, 0.0016265158774331212, -0.04159417003393173, 0.11830604076385498, -0.047986388206481934, -0.02024957723915577, 0.0748659148812294, 0.03370044380426407, -0.06320406496524811, 0.06146544963121414, -0.07126756757497787, 0.005950614809989929, -0.011079391464591026, 0.00875870231539011, -0.0003356647212058306, 0.07015979290008545, 0.011325149796903133, 0.03336780145764351, 0.10612951219081879, -0.05833779275417328, -0.0362095944583416, 0.14600370824337006, 0.13932345807552338, 0.16644150018692017, -0.07816464453935623, -0.1290370374917984, 0.035351257771253586, 0.1219840943813324, 0.05366699397563934, 0.054606299847364426, -0.1512525975704193, 0.06331097334623337, 0.06750936806201935, -0.013341160491108894, 0.04078966751694679, 0.02281280793249607, 0.010749517008662224, 0.036063022911548615, 0.09050508588552475, 0.003983272239565849], [0.1258855015039444, -0.051865626126527786, 0.04115809500217438, 0.12387687712907791, 0.008244308643043041, 0.012110299430787563, 0.05427044630050659, -0.11245052516460419, -0.006663358770310879, -0.06654534488916397, -0.04870600998401642, 0.029157942160964012, -0.004682195372879505, -0.01940528303384781, -0.030980529263615608, -0.04360929876565933, 0.011942988261580467, -0.05437739938497543, 0.07806503027677536, 0.12820634245872498, -0.11085538566112518, -0.01573924720287323, -0.11066846549510956, 0.05205317586660385, -0.1390545666217804, -0.023531323298811913, -0.07168271392583847, -0.09066738188266754, -0.0815364345908165, -0.03690866008400917, -0.01706746406853199, -0.08420606702566147, -0.00960402749478817, -0.006448095664381981, 0.12437207996845245, -0.03088187612593174, 0.05081756412982941, 0.00977014284580946, -0.0885234922170639, -0.001292587723582983, 0.12155302613973618, 0.031069369986653328, -0.04317963495850563, -0.007186125032603741, -0.02115749381482601, 0.05357455834746361, 0.031509801745414734, -0.00791061483323574, -0.11501479893922806, 0.0026612156070768833, 0.133966326713562, 0.03647365793585777, 0.035802047699689865, 0.047798097133636475, 0.06462190300226212, -0.12176303565502167, -0.15242600440979004, -0.007702402770519257, 0.04088174179196358, -0.0916963517665863, 0.06968910247087479, 0.03347630426287651, -0.018220853060483932, 0.13240335881710052, -0.00354215782135725, -0.04855997487902641, -0.010991532355546951, 0.06473274528980255, 0.06101249158382416, -0.021712608635425568, -0.04321250692009926, 0.0033341683447360992, -0.005232105031609535, -0.09112795442342758, 0.048472803086042404, 0.08853375166654587, 0.02840014360845089, 0.04166417941451073, 0.08227963745594025, 0.043201301246881485, -0.04643315449357033, 0.1196107342839241, 0.07939374446868896, 0.12238648533821106, -0.05067811906337738, -0.010873851366341114, 0.05997045338153839, 0.11868321150541306, -0.0640493854880333, -0.044349607080221176, -0.1569398045539856, -0.05967482551932335, 0.0711633712053299, -0.04278479516506195, 0.020190034061670303, 0.057426292449235916, 0.03617853298783302, 0.028960691764950752, 0.06569576263427734, 0.08763152360916138], [0.11614721268415451, -0.03550373762845993, -0.03632727265357971, 0.07457909733057022, 0.14084193110466003, 0.07547766715288162, 0.0745711550116539, -0.13486194610595703, -0.09312955290079117, -0.053955141454935074, -0.028043121099472046, 0.019842825829982758, -0.05182640627026558, 0.0006011216901242733, -0.010773316025733948, 0.020035022869706154, 0.04136986657977104, -0.034194376319646835, -0.08175942301750183, 0.14484387636184692, -0.13575103878974915, -0.02009391412138939, -0.032910872250795364, -0.034155745059251785, -0.13246122002601624, -0.032248832285404205, -0.05520953983068466, -0.11040199548006058, 0.0020966457668691874, -0.008098642341792583, 0.006631337106227875, -0.0609661303460598, 0.06005827710032463, -0.06239115819334984, 0.12537848949432373, -0.020293885841965675, 0.06107112020254135, -0.024759629741311073, 0.14614424109458923, 0.005630142986774445, 0.1358739286661148, 0.02030382864177227, 0.02457980252802372, 0.02243511565029621, 0.03274181857705116, 0.07345505803823471, 0.04559984430670738, 0.025160113349556923, -0.12144593894481659, -0.012820323929190636, 0.12030516564846039, 0.11252696067094803, -0.14521874487400055, 0.0714665874838829, 0.08129715174436569, -0.13359259068965912, -0.1521969884634018, 0.04826318845152855, 0.04685017466545105, -0.032082635909318924, 0.029834777116775513, 0.062369752675294876, 0.05025068297982216, 0.15036436915397644, 0.03279167041182518, -0.037758998572826385, -0.006864896044135094, 0.04954361915588379, -0.07347498834133148, 0.004312514327466488, -0.011656060814857483, -0.055149145424366, 0.004033401608467102, -0.11683133244514465, 0.03482253849506378, -0.03231821581721306, 0.012920424342155457, -0.05797256901860237, 0.033725518733263016, 0.008067290298640728, -0.001559124793857336, 0.09841114282608032, -0.08054786175489426, 0.13055947422981262, 0.0592174232006073, -0.008893849328160286, -0.07331693172454834, 0.11483129113912582, -0.019299428910017014, -0.008800952695310116, -0.13430222868919373, 0.038699034601449966, -0.15519042313098907, -0.04196485877037048, -0.054713618010282516, 0.06723583489656448, -0.07768844813108444, 0.0018282030941918492, -0.07977841049432755, 0.06526970118284225], [-0.003219151869416237, -0.02837360091507435, -0.06287757307291031, 0.06773660331964493, 0.14438652992248535, 0.08852937072515488, 0.04025974124670029, -0.12443828582763672, -0.1124122366309166, 0.004661846905946732, -7.041753269731998e-05, -0.0267940666526556, 0.029972750693559647, 0.05111061409115791, 0.0005335232708603144, 0.04103408753871918, 0.03107643686234951, -0.009696328081190586, -0.10201069712638855, 0.13267681002616882, -0.14555683732032776, 0.12070305645465851, -0.04614021256566048, -0.060886282473802567, -0.12051479518413544, -0.03714243322610855, -0.04946710169315338, -0.11990216374397278, 0.021976318210363388, 0.010896818712353706, -0.13723202049732208, -0.043932050466537476, -0.02391410619020462, 0.01695709489285946, 0.13449954986572266, -0.04834040626883507, 0.0718766376376152, 0.13599418103694916, 0.12501615285873413, 0.012511364184319973, 0.1488724946975708, 0.10168123990297318, -0.06301450729370117, 0.06291025131940842, -0.0487530454993248, -0.15233862400054932, 0.09833663702011108, 0.04627838730812073, -0.12651534378528595, 0.037223171442747116, 0.0470379963517189, 0.16946646571159363, -0.1122567281126976, 0.09291071444749832, -0.16526217758655548, -0.1344168484210968, -0.0053811161778867245, 0.059384673833847046, -0.03713789954781532, 0.14310555160045624, 0.0026774611324071884, 0.0908021405339241, 0.0645575001835823, 0.14077964425086975, -0.05492129176855087, -0.017100395634770393, -0.032163213938474655, 0.06311000883579254, 0.06465470045804977, 0.02680504135787487, 0.03751637414097786, -0.06799647957086563, 0.037369366735219955, -0.134436696767807, 0.036179069429636, -0.016328664496541023, 0.051450762897729874, -0.013314529322087765, -0.014001745730638504, 0.031885672360658646, -0.005994532257318497, 0.047094978392124176, -0.08019445836544037, 0.10439220815896988, 0.0858122706413269, -0.01752442494034767, -0.15076348185539246, 0.11243590712547302, -0.024134766310453415, 0.08125695586204529, 0.02194041758775711, 0.013584161177277565, -0.1582028716802597, -0.015068421140313148, -0.033692002296447754, 0.10249160975217819, -0.05065625160932541, -0.018698735162615776, -0.10228785872459412, 0.037379488348960876], [-0.06085999310016632, -0.015056519769132137, -0.044322580099105835, -0.13529232144355774, -0.07045935839414597, 0.07570198178291321, -0.07455345243215561, -0.14134681224822998, 0.11590749770402908, 0.03231275454163551, 0.021822640672326088, 0.018797339871525764, -0.017289042472839355, 0.08940977603197098, 0.00962769240140915, 0.060189541429281235, 0.05836673825979233, -0.0795336365699768, -0.12852780520915985, 0.13340315222740173, 0.08219113200902939, 0.13674013316631317, -0.06433054804801941, -0.0618436299264431, -0.12282480299472809, 0.011568528600037098, 0.06861469149589539, -0.1391710788011551, 0.03251546248793602, -0.046532951295375824, -0.13213780522346497, -0.02833583950996399, 0.01001969538629055, -0.045396916568279266, 0.13422565162181854, -0.03809191659092903, 0.08593512326478958, 0.11677592247724533, 0.10476577281951904, 0.09090831875801086, 0.14640893042087555, 0.09899960458278656, -0.04337425157427788, 0.0558130219578743, -0.02364976890385151, -0.1918925642967224, 0.09099195897579193, 0.037934478372335434, -0.13902857899665833, 0.06840579211711884, 0.038149841129779816, 0.17221301794052124, -0.08471854031085968, 0.11359148472547531, -0.17012275755405426, -0.13790620863437653, 0.11531206965446472, 0.07102325558662415, 0.04532017931342125, 0.14464235305786133, -0.026240577921271324, -0.05967899411916733, -0.03654169663786888, 0.12796756625175476, -0.06358717381954193, 0.006227507255971432, -0.06349937617778778, -0.08362995088100433, -0.020783090963959694, -0.0589611642062664, 0.08869023621082306, -0.04230891168117523, 0.06992249935865402, -0.03661889210343361, 0.04347538575530052, -0.050865236669778824, 0.015788817778229713, 0.05069427564740181, -0.04252869263291359, 0.003928235732018948, -0.01756947487592697, 0.015595491975545883, -0.05264436453580856, 0.09581585228443146, 0.10690388828516006, -0.007130784913897514, -0.15043969452381134, 0.10947204381227493, -0.0071074021980166435, -0.00941636972129345, 0.019234107807278633, -0.04304640367627144, -0.1659165918827057, -0.030924176797270775, 0.019101489335298538, 0.10078810155391693, -0.03145957738161087, 0.014299869537353516, -0.12846311926841736, -0.053446076810359955], [-0.07277211546897888, -0.1791420727968216, 0.03939998149871826, -0.10669197887182236, -0.07346580922603607, 0.07272405922412872, -0.05229870229959488, -0.13296501338481903, 0.09838694334030151, -0.059911709278821945, 0.0386982299387455, 0.04748724400997162, -0.02505299262702465, 0.11199867725372314, -0.09464004635810852, 0.07885294407606125, 0.04057345539331436, -0.058617979288101196, 0.18373596668243408, 0.12635767459869385, 0.05835992470383644, 0.13236168026924133, 0.07350972294807434, 0.016502564772963524, -0.11370665580034256, -0.03617512062191963, 0.04038267582654953, -0.15189461410045624, 0.044762611389160156, -0.027939118444919586, -0.1148863211274147, -0.05128852650523186, -0.043652791529893875, 0.015823114663362503, 0.12548916041851044, -0.03429270163178444, 0.09627480059862137, 0.08194419741630554, 0.058921247720718384, 0.10020135343074799, -0.010437602177262306, 0.08804789185523987, 0.06494782865047455, 0.03647834435105324, -0.026957882568240166, -0.17587654292583466, 0.04776399955153465, 0.06148572638630867, -0.15681149065494537, 0.03599926084280014, 0.03467154502868652, 0.15922024846076965, -0.058351270854473114, 0.051580317318439484, -0.16249607503414154, -0.14196832478046417, 0.1097421646118164, 0.001828953274525702, -0.04945063591003418, 0.12873466312885284, 0.03125040978193283, -0.023136641830205917, -0.034916702657938004, 0.10948863625526428, 0.05924176424741745, 0.01911667361855507, 0.05735102295875549, -0.06484945118427277, -0.03785555809736252, -0.029894430190324783, 0.11258096992969513, -0.040434885770082474, 0.1222415640950203, -0.06456756591796875, -0.012074731290340424, -0.052102990448474884, -0.06565165519714355, -0.04732611030340195, -0.06603756546974182, 0.0733025074005127, 0.10027244687080383, -0.012902939692139626, 0.09120946377515793, 0.01372319832444191, 0.04666996747255325, 0.005431856028735638, -0.1511446237564087, 0.10373028367757797, 0.022815419360995293, -0.010007847100496292, 0.00955905206501484, -0.03889075294137001, -0.15431690216064453, -0.02672349475324154, -0.0695500373840332, 0.0063246916979551315, -0.02205023542046547, -0.030857982113957405, -0.11834533512592316, -0.0795106440782547], [-0.08047495782375336, -0.1571885347366333, 0.046152230352163315, -0.08657775819301605, -0.07399855554103851, -0.18072886765003204, -0.025105014443397522, 0.07029629498720169, 0.07858524471521378, -0.04786267131567001, 0.03717663511633873, 0.0032182219438254833, -0.021722786128520966, -0.18366697430610657, -0.08615096658468246, 0.09073709696531296, 0.06463105231523514, -0.04116620123386383, 0.16241586208343506, 0.11916591972112656, -0.03355465456843376, 0.13163886964321136, 0.06021741032600403, -0.03160596638917923, -0.0998699739575386, -0.05767305567860603, -0.04638076201081276, -0.13402195274829865, -0.0816865935921669, -0.011474739760160446, -0.09000041335821152, 0.030036751180887222, 0.03878827765583992, 0.027044173330068588, 0.014158357866108418, -0.025082997977733612, 0.1100408211350441, -0.01193501241505146, 0.030315732583403587, -0.1660557985305786, 0.0041709179058671, 0.07154043763875961, -0.0074219126254320145, -0.015975110232830048, -0.010573849081993103, -0.1617765575647354, -0.004357526078820229, 0.082818403840065, -0.17276380956172943, 0.010954740457236767, 0.031743522733449936, 0.14120422303676605, -0.030361464247107506, 0.07558058202266693, -0.14923390746116638, -0.14400900900363922, 0.09903066605329514, -0.027349300682544708, -0.03595566749572754, 0.11813616007566452, -0.025996219366788864, 0.007146766409277916, -0.19276063144207, 0.07838506251573563, 0.027974098920822144, 0.03301146999001503, -0.05407339334487915, -0.04831201583147049, -0.058156002312898636, -0.009988299570977688, -0.10555024445056915, 0.01823297142982483, 0.13580931723117828, -0.09854497015476227, -0.013267518021166325, -0.0759240984916687, -0.0733499675989151, 0.031207198277115822, -0.0867706909775734, -0.04667627066373825, 0.0883251279592514, -0.018447870388627052, 0.10114391148090363, 0.02277638018131256, 0.06030682474374771, -0.002713813679292798, -0.14288634061813354, 0.09352762252092361, -0.041517794132232666, -0.012347055599093437, 0.00034230551682412624, 0.03411600738763809, -0.1451558768749237, -0.014612745493650436, 0.04531589150428772, -0.05561477318406105, 0.0026650470681488514, -0.043052732944488525, 0.12118273973464966, -0.10501006990671158], [-0.09720807522535324, -0.132583349943161, 0.07349997013807297, -0.049273110926151276, -0.06915570795536041, -0.1735389232635498, 0.009938269853591919, 0.05446261540055275, -0.05348677560687065, -0.03367410972714424, -0.017193151637911797, -0.07428573071956635, 0.019500121474266052, -0.1688835173845291, -0.0701548159122467, 0.1077418252825737, -0.07883518934249878, -0.014782892540097237, 0.1450318694114685, 0.09325435012578964, -0.057213686406612396, -0.033682290464639664, 0.04894714429974556, -0.01616622880101204, -0.09486965835094452, -0.05186064913868904, 0.04174621030688286, -0.1382600963115692, -0.06670339405536652, 0.05291580781340599, -0.006217539310455322, 0.06093921884894371, 0.05462425574660301, 0.03675399720668793, 0.0014274056302383542, -0.020631788298487663, -0.14855563640594482, -0.045501790940761566, -0.047818757593631744, -0.15987727046012878, 0.01604606956243515, 0.06369657069444656, 0.02966146543622017, 0.01802518032491207, -0.022345924749970436, -0.14243806898593903, -0.037909965962171555, 0.035836003720760345, -0.17780610918998718, 0.006518561393022537, 0.019218288362026215, 0.11818131059408188, 0.0007129135774448514, 0.1024433821439743, 0.1025925949215889, -0.0798989087343216, 0.08821629732847214, -0.017983239144086838, 0.034257400780916214, 0.07683676481246948, -0.06632202118635178, 0.03640424460172653, -0.17532441020011902, -0.10510562360286713, -0.06809410452842712, 0.013629217632114887, -0.019964339211583138, -0.016961276531219482, 0.037677373737096786, 0.029329938814044, -0.0777730941772461, -0.028889821842312813, 0.13888508081436157, -0.11772758513689041, 0.03345648944377899, -0.06246066838502884, -0.06397917866706848, 0.014136891812086105, -0.11648180335760117, 0.04635339602828026, 0.07162108272314072, -0.03223704546689987, 0.09793952852487564, 0.020744046196341515, 0.07530071586370468, -0.01606771908700466, -0.12053317576646805, 0.08376103639602661, -0.007281791418790817, -0.06371434777975082, -0.004648478701710701, 0.05464513599872589, 0.003364410251379013, 0.025726813822984695, 0.029680855572223663, -0.059182196855545044, 0.02816152200102806, -0.029576033353805542, 0.1035514548420906, 0.11891992390155792], [-0.0457046814262867, -0.1152588278055191, -0.011824257671833038, 0.07580767571926117, -0.06643351167440414, -0.15632963180541992, -0.05978378653526306, 0.03150393068790436, -0.11269097775220871, -0.044559527188539505, -0.0051545025780797005, 0.06008337065577507, 0.025914225727319717, -0.14524459838867188, -0.08822298794984818, 0.09930980950593948, -0.04841959848999977, 0.010600792244076729, 0.1127784475684166, 0.051106784492731094, -0.03526134416460991, -0.041953977197408676, 0.02346651814877987, -0.03306769207119942, -0.07001575827598572, -0.03283091261982918, -0.01444910652935505, -0.14073680341243744, -0.03950640559196472, 0.09287223219871521, 0.03243091329932213, 0.09138684719800949, 0.036538515239953995, -0.0035252729430794716, 0.16275657713413239, -0.05145518109202385, -0.13277025520801544, -0.10116934031248093, -0.07253150641918182, -0.14863203465938568, 0.015813203528523445, 0.047434043139219284, 0.020416786894202232, -0.026049954816699028, -0.03550455719232559, -0.05270668491721153, 0.0397372841835022, 0.04907318204641342, -0.1842566728591919, -0.03062112256884575, 0.04034370556473732, 0.10426215082406998, 0.03532955422997475, 0.12943145632743835, 0.12547087669372559, -0.08804941177368164, 0.05965079367160797, 0.03452415019273758, -0.049156367778778076, 0.05357792600989342, -0.055023934692144394, 0.08655112236738205, -0.1534940004348755, -0.08191271871328354, -0.058725256472826004, 0.0330047570168972, 0.012670263648033142, 0.08349459618330002, -0.07494677603244781, 0.0731668546795845, -0.008357984945178032, -0.05869382992386818, -0.18972443044185638, -0.14743754267692566, -0.07101991772651672, -0.15488260984420776, 0.055587027221918106, -0.055277276784181595, -0.05957511067390442, -0.010736817494034767, 0.06658507138490677, 0.036458320915699005, 0.11357851326465607, 0.0222697164863348, 0.08696495741605759, -0.03580578789114952, -0.09837163984775543, 0.0412604883313179, -0.04470110312104225, -0.0014184840256348252, -0.1355101466178894, 0.011094367131590843, 0.023839391767978668, 0.06851881742477417, 0.06152809038758278, -0.06455671787261963, 0.006742442958056927, 0.03561936691403389, 0.06693904846906662, 0.11125583201646805], [-0.055361345410346985, -0.15698042511940002, 0.06541600078344345, 0.09915468841791153, -0.060044270008802414, -0.1194763258099556, -0.028974393382668495, 0.011494212783873081, -0.12581932544708252, -0.05387856066226959, 0.016932925209403038, 0.021160611882805824, 0.027589142322540283, -0.11881668865680695, -0.07189232110977173, 0.11154897511005402, -0.007086386904120445, 0.03144335746765137, 0.0516679473221302, -0.09256447106599808, -0.09397070854902267, -0.044050656259059906, -0.0045776283368468285, -0.062396202236413956, -0.054516009986400604, -0.02749098464846611, -0.02511652000248432, -0.15425969660282135, -0.011640221811830997, 0.10584907978773117, 0.056466035544872284, -0.042879458516836166, -0.02991374582052231, -0.03189922124147415, 0.1513383984565735, -0.04225955903530121, 0.017296647652983665, -0.12039961665868759, -0.08369889110326767, -0.021362699568271637, 0.0017611434450373054, 0.03255176544189453, -0.030628954991698265, -0.019310658797621727, -0.018557477742433548, -0.03991277143359184, 0.005325336009263992, 0.06244485452771187, -0.18448282778263092, -0.04785282537341118, 0.027129562571644783, 0.07493529468774796, 0.05556761845946312, 0.14389130473136902, 0.13687992095947266, -0.10191217064857483, -0.04732430353760719, 0.034602388739585876, -0.04582821950316429, 0.1876721978187561, 0.02040139213204384, 0.11618510633707047, -0.13451671600341797, -0.061253778636455536, 0.0419941283762455, 0.05888260155916214, -0.05878596007823944, 0.11720284074544907, -0.039980143308639526, 0.0943930596113205, 0.08883101493120193, -0.0635141134262085, -0.18082647025585175, -0.030418911948800087, 0.025576362386345863, -0.1216149553656578, 0.025766173377633095, -0.06299030780792236, -0.010821477510035038, -0.0019915876910090446, 0.12341853231191635, 0.00019706063903868198, 0.10863616317510605, -0.1044747605919838, 0.10022241622209549, -0.13686047494411469, -0.06319890171289444, 0.06209637597203255, -0.058029480278491974, 0.012154413387179375, -0.14961384236812592, 0.0696687176823616, -0.055105485022068024, 0.060730062425136566, -0.014474254101514816, -0.02753506600856781, 0.0351661741733551, 0.04229789227247238, 0.04248278588056564, 0.09478988498449326], [-0.05929556488990784, -0.1396908015012741, 0.002367880195379257, 0.11758303642272949, -0.05601074919104576, -0.019637059420347214, 0.03148413822054863, 0.0037133884616196156, 0.11524520069360733, -0.08198792487382889, 0.03691612556576729, -0.052874788641929626, -0.02126443013548851, -0.09144533425569534, -0.055367253720760345, 0.12386125326156616, 0.021797185763716698, -0.15531931817531586, -0.016298823058605194, -0.0997001975774765, -0.11917338520288467, -0.048032645136117935, -0.01752638630568981, 0.00797145627439022, 0.0016445335932075977, -0.027825500816106796, -0.04177318140864372, -0.16496022045612335, 0.04207267239689827, 0.11675307899713516, 0.07956650853157043, -0.012824092991650105, 0.06894881278276443, 0.04826120287179947, 0.1444033831357956, -0.03191612660884857, 0.05241898074746132, -0.013778905384242535, 0.0046271663159132, 0.0864424929022789, 0.015101870521903038, 0.021241823211312294, 0.07958076149225235, 0.06728295981884003, 0.028773082420229912, -0.0998452752828598, -0.03046254999935627, -0.09299112111330032, -0.12424854934215546, -0.024652373045682907, 0.006415351293981075, 0.030265452340245247, 0.03332430496811867, 0.13257776200771332, -0.015122449025511742, -0.115412637591362, -0.06124277412891388, -0.0023017339408397675, -0.013381455093622208, 0.18892794847488403, -0.0017986666643992066, 0.14551818370819092, -0.10836417227983475, 0.013442371040582657, -0.07809010148048401, 0.07807501405477524, 0.00443427637219429, 0.15019376575946808, -0.05587581917643547, -0.11458130925893784, 0.12935183942317963, 0.03695474565029144, -0.17181268334388733, -0.04640304297208786, 0.05153786018490791, -0.09875886142253876, 0.003676287829875946, -0.01919562928378582, -0.034322503954172134, 0.035903263837099075, 0.11055273562669754, -0.07492028921842575, 0.11367752403020859, -0.09230906516313553, -0.07229577749967575, -0.1582828313112259, -0.01789100281894207, 0.16714037954807281, 0.03507860377430916, -0.025822479277849197, -0.1768336147069931, 0.03404651954770088, -0.04473218321800232, -0.028491295874118805, -0.0073540546000003815, -0.009045330807566643, 0.06300408393144608, -0.04663871228694916, 0.020936399698257446, 0.06822743266820908], [-0.041669558733701706, -0.1136312410235405, -0.07237372547388077, 0.05608826130628586, -0.0624120719730854, -1.3843877241015434e-05, 0.06429362297058105, -0.0029501449316740036, 0.09774963557720184, -0.07369174063205719, 0.06390021741390228, 0.01725267618894577, 0.04109596088528633, -0.05622187629342079, -0.0335472971200943, 0.06339193135499954, 0.04763564094901085, -0.13208775222301483, -0.07345052808523178, 0.09302390366792679, 0.030193544924259186, -0.05384776368737221, 0.12782810628414154, 0.05259013921022415, 0.01604010909795761, -0.03769858181476593, -0.039515748620033264, -0.11240654438734055, 0.07783179730176926, 0.13278226554393768, 0.1024741530418396, 0.011181596666574478, 0.036047112196683884, -0.03764675185084343, 0.020793158560991287, 0.07658111304044724, 0.06714802235364914, -0.03901486098766327, -0.010265315882861614, 0.0965510681271553, 0.029614433646202087, 0.01595786027610302, -0.022028081119060516, 0.06075625866651535, -0.006184875965118408, -0.08705948293209076, -0.05929659307003021, -0.10248202830553055, -0.1354278028011322, -0.046202778816223145, -0.008978134021162987, -0.0544627346098423, 0.06046329438686371, 0.13708247244358063, -0.011487387120723724, -0.12978358566761017, -0.07339861989021301, -0.02901691384613514, 0.016452692449092865, 0.1820141077041626, 0.030916845425963402, 0.12134729325771332, 0.10407976806163788, 0.06473032385110855, -0.052914418280124664, 0.09784137457609177, -0.013564125634729862, -0.06432322412729263, -0.00923166237771511, -0.09430015087127686, 0.1623254269361496, 0.017507784068584442, 0.06969339400529861, -0.051649026572704315, 0.055441148579120636, -0.07570064067840576, 0.05176382139325142, 0.015376593917608261, -0.0649498775601387, -0.0365978479385376, 0.059590134769678116, -0.1097831204533577, 0.11252067238092422, 0.07616451382637024, -0.059269703924655914, -0.17620298266410828, 0.05695809796452522, 0.16343402862548828, 0.08972149342298508, 0.05144142359495163, -0.1854393184185028, 0.028751293197274208, 0.046129219233989716, -0.05340190604329109, -0.0027576517313718796, -0.006786850281059742, 0.09392985701560974, 0.06580310314893723, 0.11985155940055847, 0.0283184964209795], [0.05672372877597809, -0.09400846064090729, 0.034374043345451355, 0.07729887962341309, -0.05661657452583313, 0.016518233343958855, 0.0863645002245903, 0.025866925716400146, 0.07430443912744522, 0.014860043302178383, 0.08627219498157501, 0.015341144055128098, 0.029728930443525314, -0.029765663668513298, -0.011306245811283588, 0.06968045234680176, 0.03659544512629509, -0.11053910106420517, -0.09187907725572586, 0.09122920036315918, 0.012777535244822502, -0.05911684408783913, 0.11049048602581024, -0.015473486855626106, -0.06276725977659225, -0.04566803202033043, 0.0004943131934851408, -0.12141837924718857, 0.0997711718082428, 0.14478209614753723, -0.0629056915640831, 0.01387576200067997, 0.002939500380307436, -0.00658738799393177, 0.09941855818033218, 0.08555088937282562, -0.09110336750745773, -0.062047842890024185, -0.028989681974053383, 0.09954317659139633, 0.054438862949609756, 0.07472439110279083, 0.07419688999652863, 0.0777384415268898, -0.017524683848023415, -0.06714130938053131, 0.057650014758110046, -0.08739970624446869, -0.14711280167102814, -0.06608686596155167, 0.08049441128969193, -0.0740666314959526, 0.08834591507911682, -0.05790543183684349, -0.004670759662985802, -0.1400422304868698, 0.11125744879245758, 0.014195894822478294, 0.06615962833166122, 0.1666591912508011, -0.009690606035292149, 0.14737458527088165, 0.12610279023647308, 0.08253726363182068, 0.03550656884908676, 0.0577884279191494, 0.060219597071409225, -0.038727499544620514, -0.03050387091934681, -0.07469219714403152, 0.184611976146698, -0.07052848488092422, 0.0818837359547615, 0.0576256662607193, -0.032790251076221466, -0.044309187680482864, -0.06631112098693848, 0.012676816433668137, -0.09914229810237885, 0.0037158671766519547, -0.07778816670179367, -0.13919688761234283, 0.11050482094287872, 0.09212575852870941, 0.0884513333439827, -0.1879536658525467, 0.08407659828662872, 0.1562650352716446, -0.04636299982666969, 0.0636187270283699, -0.19304783642292023, -0.006849308498203754, 0.057766519486904144, -0.0478023923933506, -0.0022631585597991943, 0.0033144522458314896, 0.11960306018590927, -0.050752684473991394, 0.09796059876680374, -0.0036751204170286655], [0.05660776421427727, -0.07618353515863419, -0.06077156215906143, 0.1217215433716774, -0.06340393424034119, 0.012437039986252785, 0.10703760385513306, 0.05037272348999977, 0.03437687084078789, -0.05947839468717575, 0.11012820899486542, 0.015768568962812424, 0.016868459060788155, -0.022556910291314125, 0.07599729299545288, 0.08785056322813034, 0.04018893465399742, 0.08117709308862686, -0.10685547441244125, 0.0926428884267807, 0.0662345290184021, -0.05285727605223656, 0.025584276765584946, 0.040721114724874496, -0.11168453097343445, 0.04904633015394211, 0.06877020746469498, -0.10319047421216965, 0.12335377186536789, 0.1191483587026596, -0.04554278776049614, 0.07366324216127396, -0.01069492194801569, 0.025373507291078568, 0.08542057126760483, 0.12740689516067505, -0.08845385164022446, 0.07941937446594238, -0.056992337107658386, -0.0338800773024559, 0.10411280393600464, 0.09296460449695587, 0.0085581224411726, 0.03586123511195183, 0.01112767867743969, -0.05516131594777107, 0.025031186640262604, -0.06682425737380981, -0.1351483315229416, -0.08867309987545013, 0.07563936710357666, -0.10282580554485321, 0.12214739620685577, -0.0350637249648571, -0.010926238261163235, -0.08622929453849792, 0.10179848223924637, 0.01758124679327011, 0.02579643577337265, 0.1356995403766632, -0.000318324426189065, -0.0833955928683281, 0.1367504894733429, 0.0457041896879673, 0.003468689974397421, 0.029798023402690887, -0.06787021458148956, -0.09187285602092743, -0.035817403346300125, 0.008001042529940605, 0.08980295807123184, 0.06551788747310638, 0.07078943401575089, 0.032369859516620636, -0.0719681829214096, -0.015659455209970474, -0.0648624375462532, 0.022321945056319237, 0.13885225355625153, -0.034421902149915695, -0.12408459931612015, 0.048744458705186844, 0.10001504421234131, 0.1280151754617691, 0.09685596823692322, -0.10276713222265244, 0.09864849597215652, 0.0507081039249897, 0.036206264048814774, 0.07011888176202774, -0.17114830017089844, -0.011961821466684341, 0.008028696291148663, -0.021886106580495834, 0.005458880215883255, 0.014544196426868439, 0.127235546708107, 0.033978719264268875, 0.06754517555236816, -0.0430142842233181], [0.046625424176454544, -0.056115105748176575, -0.015933142974972725, 0.14482662081718445, -0.05518358200788498, -0.1516800969839096, -0.1265152543783188, 0.10594674944877625, 0.018384452909231186, -0.0021855500526726246, 0.12688595056533813, -0.0131586454808712, -0.0630938932299614, 0.003320793155580759, 0.08633920550346375, 0.09983205795288086, 0.03713121637701988, 0.10749474167823792, -0.07239231467247009, 0.08126182854175568, 0.04342709109187126, -0.051125675439834595, 0.0035135350190103054, 0.0355200357735157, -0.16759862005710602, -0.012501218356192112, 0.06171960011124611, -0.11571350693702698, 0.1430562287569046, -0.12897756695747375, -0.01909637823700905, 0.08056305348873138, 0.022980263456702232, 0.06056683510541916, 0.0765283852815628, 0.13590064644813538, -0.07009005546569824, 0.049668990075588226, -0.0671653300523758, -0.03671131283044815, 0.12044073641300201, 0.11088993400335312, 0.05382009968161583, -0.03636782616376877, 0.03494236618280411, -0.03746521845459938, -0.009645506739616394, -0.046915702521800995, -0.1502046138048172, 0.02420089766383171, 0.06150765344500542, -0.12220793962478638, 0.15001894533634186, -0.013165951706469059, -0.0007049572886899114, -0.09308924525976181, 0.09276307374238968, -0.04118268936872482, 0.010930312797427177, 0.12547321617603302, -0.021127430722117424, -0.05194934457540512, -0.16498784720897675, 0.03065584972500801, -0.030910460278391838, 0.04092288762331009, 0.044370271265506744, -0.06075739488005638, -0.055520880967378616, 0.02655082754790783, 0.11461957544088364, 0.06217614933848381, -0.14385905861854553, 0.01354163233190775, 0.05896947532892227, -0.013193020597100258, 0.07094550132751465, -0.03749316185712814, 0.11365050077438354, 0.07793881744146347, -0.14107561111450195, 0.02467801608145237, 0.09740240126848221, 0.14073994755744934, 0.04411488398909569, -0.11494078487157822, -0.020565679296851158, -0.04374155402183533, 0.038047242909669876, 0.0067706238478422165, 0.1853819489479065, -0.03228175640106201, 0.019746551290154457, 0.0020380555652081966, 0.03531302139163017, 0.019410662353038788, 0.1373666375875473, 0.06319308280944824, 0.04385014995932579, -0.06297708302736282], 