{"ent_embeddings.weight": [[-0.07313432544469833, 0.029096735641360283, -0.1025875136256218, 0.01130148209631443, 0.08608012646436691, 0.01136184111237526, 0.10350341349840164, 0.02750181220471859, 0.056566089391708374, -0.20291399955749512, 0.02961382083594799, 0.06041591614484787, -0.1545962244272232, -0.013482378795742989, -0.06524433195590973, 0.06148989498615265, 0.05021120607852936, 0.20847728848457336, 0.0258167814463377, -0.03569988161325455, 0.06968669593334198, 0.01275584101676941, 0.07578623294830322, 0.048887088894844055, -0.14875969290733337, 0.07790146768093109, -0.19177667796611786, 0.037236399948596954, -0.04210171103477478, 0.028725145384669304, -0.042358651757240295, -0.031153326854109764, 0.14502567052841187, 0.00664164125919342, -0.04847203195095062, -0.0034524239599704742, -0.23271971940994263, -0.05296028405427933, 0.15685009956359863, 0.01619250699877739, -0.011872980743646622, 0.05077250301837921, -0.04671558737754822, 0.027292920276522636, -0.042507603764534, 0.07938364893198013, 0.058758653700351715, 0.19946600496768951, 0.050397180020809174, -0.027212006971240044], [-0.072264164686203, -0.027702150866389275, -0.12716086208820343, 0.058477893471717834, 0.08323197066783905, -0.013464551419019699, 0.09443577378988266, 0.005719522014260292, 0.024120425805449486, -0.13515864312648773, 0.026309026405215263, -0.05288242548704147, -0.1455364227294922, -0.07500582933425903, -0.014462228864431381, -0.09871840476989746, -0.06379823386669159, 0.1721397191286087, 0.04359527677297592, 0.04440298676490784, 0.016421537846326828, -0.000561840832233429, 0.10065604746341705, 0.007225021719932556, -0.13741984963417053, 0.0726471096277237, -0.18869225680828094, 0.06023271754384041, -0.05415869504213333, 0.0020727161318063736, -0.09069329500198364, 0.0052670929580926895, 0.12998048961162567, 0.040524233132600784, 0.022838367149233818, -0.040069885551929474, -0.30204808712005615, 0.03711943328380585, 0.17857983708381653, 0.038665011525154114, -0.06431819498538971, 0.034780874848365784, -0.034559667110443115, -0.03806479275226593, 0.014624487608671188, -0.10084077715873718, -0.01932474598288536, -0.010344834998250008, 0.008850151672959328, -0.030319293960928917], [-0.09559395164251328, 0.0053070057183504105, -0.11549273878335953, 0.1859404444694519, 0.05275506526231766, -0.04651663452386856, 0.07425825297832489, -0.08839081972837448, -0.01735006831586361, -0.12476498633623123, -0.025279907509684563, -0.08548378944396973, -0.14432385563850403, -0.09869980067014694, -0.010909387841820717, -0.059236206114292145, -0.050034500658512115, 0.0745127946138382, 0.0509604886174202, -0.008584083989262581, 0.014034207910299301, 0.07909078150987625, 0.09502646327018738, -0.042939893901348114, -0.12682823836803436, -0.008204972371459007, 0.002677353098988533, 0.13431020081043243, 0.005806894972920418, 0.07527752965688705, -0.04268680512905121, 0.025011396035552025, 0.10251476615667343, 0.057513438165187836, 0.013131584972143173, -0.039830245077610016, -0.26896777749061584, -0.05463443696498871, 0.18210549652576447, -0.054761774837970734, -0.0677918940782547, 0.003816397860646248, -0.02499142847955227, -0.07063113152980804, 0.08594345301389694, -0.05659814924001694, 0.09204424917697906, -0.16658179461956024, 0.024133985862135887, 0.09535136073827744], [-0.13900968432426453, 0.041743598878383636, -0.0015206336975097656, 0.1700841188430786, 0.03430279344320297, -0.009356999769806862, 0.13136203587055206, 0.02120308205485344, -0.02466837875545025, -0.1101037934422493, 0.015572253614664078, 0.02401014231145382, -0.11922211945056915, -0.09824549406766891, -0.05520894378423691, -0.028930192813277245, -0.04066094756126404, 0.1001783013343811, 0.07511395215988159, 0.045568257570266724, -0.05321279913187027, 0.03657831251621246, 0.03974168002605438, -0.06397458165884018, 0.07657922059297562, -0.07930631935596466, 0.17919011414051056, 0.22045256197452545, -0.03762122243642807, 0.021642757579684258, 0.015103701502084732, 0.03881304711103439, 0.104244165122509, 0.12262499332427979, 0.07580529898405075, -0.01763821765780449, -0.2530684173107147, -0.06387799978256226, 0.15246747434139252, -0.05728090554475784, -0.009403714910149574, 0.07027211040258408, 0.011372540146112442, -0.030613845214247704, 0.04408525675535202, -0.03280697762966156, -0.048285022377967834, -0.21450361609458923, -0.038194261491298676, 0.0619993582367897], [-0.05493492633104324, -0.0064859408885240555, -0.026884643360972404, 0.17076300084590912, 0.033886440098285675, 0.015911834314465523, 0.11297616362571716, -0.06095843017101288, -0.09665551781654358, -0.06710721552371979, -0.0277822595089674, -0.061189211905002594, -0.08622519671916962, -0.0013828296214342117, -0.0016610324382781982, -0.15308253467082977, -0.06217785179615021, 0.05424569547176361, -0.020691730082035065, 0.09263928979635239, -0.0493987500667572, -0.013786237686872482, 0.038597047328948975, 0.06954457610845566, -0.018179940059781075, -0.13353028893470764, 0.2734340727329254, 0.2903118133544922, -0.07969128340482712, 0.04693228751420975, -0.07071267813444138, 0.06904181838035583, 0.15418025851249695, -0.01140645518898964, 0.15463009476661682, 0.0769076943397522, -0.2676811218261719, 0.02713015489280224, 0.13040581345558167, 0.00609995424747467, 0.08713232725858688, 0.05761981010437012, -0.053067341446876526, 0.004334235563874245, 0.013438301160931587, -0.022877296432852745, 0.04107227921485901, -0.20981109142303467, 0.03948410600423813, -0.0110845435410738], [-0.030818356201052666, -0.03633259981870651, 0.12205696851015091, 0.1423429548740387, 0.008074773475527763, 0.04769305884838104, 0.15855444967746735, 0.07568328082561493, -0.009462425485253334, -0.028535595163702965, -0.053258225321769714, 0.04469809681177139, 0.16371600329875946, 0.0048866868019104, -0.04683329910039902, -0.1375914365053177, -0.036466650664806366, 0.061131734400987625, 0.07429831475019455, -0.05655939131975174, 0.032424069941043854, -0.030747955664992332, 0.003536367788910866, -0.07840659469366074, -0.04495862498879433, -0.1091204285621643, 0.30172476172447205, 0.2749934494495392, 0.005130767822265625, 0.0017200000584125519, -0.12386370450258255, 0.06447815895080566, 0.1848294585943222, -0.04294750466942787, 0.16841207444667816, 0.006533602252602577, -0.24811887741088867, -0.03965295851230621, 0.06703483313322067, -0.07862149178981781, 0.06511881947517395, 0.13203975558280945, 0.0171499066054821, -0.04360363632440567, -0.028045078739523888, -0.002883048728108406, 0.05782931298017502, -0.06555218994617462, 0.040166787803173065, -0.05443932116031647], [-0.08350177854299545, 0.04055662453174591, 0.07858477532863617, 0.09429910033941269, 0.10416442155838013, -0.017156774178147316, -0.04449266940355301, 0.038168057799339294, 0.17445263266563416, -0.0043417662382125854, 0.06933267414569855, 0.04478777199983597, 0.14535392820835114, -0.018514292314648628, 0.027417553588747978, -0.07231909036636353, 0.04896324872970581, 0.012350749224424362, -0.021161828190088272, -0.08352397382259369, -0.06631787121295929, 0.00332537479698658, 0.021613476797938347, 0.056752823293209076, -0.1478201150894165, -0.10753124952316284, 0.235963836312294, 0.2648910582065582, -0.006771685555577278, 0.029552960768342018, -0.09359786659479141, 0.04191861301660538, 0.16930824518203735, -0.07283789664506912, 0.13460589945316315, -0.00495389848947525, -0.09981609135866165, 0.07465305179357529, -0.0008102878928184509, 0.029103105887770653, -0.022999698296189308, 0.1395609974861145, 0.02274029515683651, -0.026525838300585747, -0.011721460148692131, 0.04479121416807175, 0.012522164732217789, -0.08082354813814163, -0.05911584198474884, -0.06802245229482651], [-0.12026363611221313, 0.05172529071569443, 0.04944898560643196, 0.030588356778025627, 0.135945662856102, -0.01281413622200489, -0.06118502840399742, 0.07022193819284439, 0.2033844143152237, -0.04285313934087753, -0.04653692990541458, 0.06583217531442642, 0.1236417293548584, 0.053512316197156906, -0.016705837100744247, -0.11265386641025543, 0.01364978589117527, -0.018236897885799408, -0.019267108291387558, 0.03651241958141327, 0.011333126574754715, 0.014513332396745682, 0.0369916632771492, -0.020244751125574112, -0.1668906956911087, -0.08792029321193695, 0.1494070589542389, 0.24927963316440582, -0.010199496522545815, 0.0443931519985199, -0.07275280356407166, 0.01621740311384201, 0.164486363530159, -0.04251813143491745, 0.03754208981990814, -0.01729133166372776, -0.02046417072415352, 0.052941761910915375, 0.0015944018959999084, 0.01176517829298973, 0.09562613070011139, 0.16029265522956848, 0.001806335523724556, -0.009455801919102669, 0.06228774040937424, 0.0259524118155241, -0.01992582157254219, -0.06221072003245354, 0.050478190183639526, 0.006278665736317635], [-0.23318351805210114, 0.07801290601491928, 0.03991612046957016, -0.02634330466389656, 0.06410891562700272, 0.030260423198342323, -0.004528075456619263, -0.06726066768169403, 0.19883881509304047, -0.09042444825172424, 0.005427727475762367, 0.053912028670310974, 0.10354451835155487, 0.14466533064842224, -0.07346835732460022, 0.07508878409862518, -0.07832321524620056, -0.03191278129816055, -0.00967688299715519, 0.0440220981836319, -0.043976545333862305, 0.019403021782636642, 0.11329518258571625, 0.07911913841962814, -0.2222631424665451, -0.026300599798560143, 0.1951775997877121, 0.2717076539993286, 0.028831733390688896, -0.019158493727445602, -0.05432542413473129, 0.179487943649292, 0.13252626359462738, -0.04630710184574127, 0.03534560650587082, 0.032744139432907104, -0.049367755651474, 0.007040688768029213, 0.018493708223104477, -0.003604041412472725, 0.215129092335701, 0.025428859516978264, 0.07966236025094986, -0.04257940500974655, 0.020530831068754196, -0.04285158962011337, -0.0323677733540535, -0.08521443605422974, -0.04025603085756302, -0.009848782792687416], [-0.25617295503616333, 0.05317617207765579, -0.06345973163843155, 0.017737533897161484, -0.05510079860687256, 0.014807227998971939, 0.07761403173208237, -0.0049092937260866165, 0.14956404268741608, 0.007401883602142334, 0.03218674659729004, 0.0654306560754776, 0.07138140499591827, 0.13184507191181183, 0.013384383171796799, 0.11150385439395905, 0.032824620604515076, -0.07021744549274445, -0.022824136540293694, -0.018995914608240128, 0.027198148891329765, 0.044410012662410736, 0.09471171349287033, 0.0612652525305748, -0.19763308763504028, -0.08877648413181305, 0.1677873581647873, 0.18046045303344727, 0.03071644715964794, -0.08771175146102905, 0.053077638149261475, 0.18162690103054047, 0.14755778014659882, -0.009925568476319313, -0.19131971895694733, 0.07505800575017929, 0.09589792042970657, -0.07460910826921463, 0.041721321642398834, 0.014757025986909866, 0.17369601130485535, 0.0017369259148836136, -0.042407259345054626, 0.030816560611128807, -0.030987946316599846, -0.06368940323591232, 0.033500708639621735, -0.10755933821201324, 0.03449077904224396, -0.018980812281370163], [-0.1990709751844406, 0.04316876828670502, -0.09333597868680954, 0.10413866490125656, -0.08066298812627792, 0.007346780970692635, 0.07059898227453232, 0.00882663019001484, 0.07193446904420853, -0.0006957054138183594, 0.07854865491390228, 0.04457830637693405, 0.021138202399015427, 0.14320257306098938, -0.0450439453125, 0.07579902559518814, -0.03248921036720276, -0.003963790833950043, 0.027479832991957664, -0.05782771855592728, -0.016740787774324417, -0.07881466299295425, 0.1387619972229004, 0.050596415996551514, -0.24747048318386078, -0.043427400290966034, 0.19691786170005798, -0.16303439438343048, 0.0010446477681398392, -0.11296036839485168, -0.002101624384522438, 0.13454364240169525, 0.03287329524755478, -0.021313561126589775, -0.1625863015651703, 0.026817848905920982, 0.16461756825447083, 0.011486444622278214, 0.020757662132382393, -0.0723748654127121, 0.029411619529128075, -0.021444374695420265, -0.045833662152290344, 0.1574212908744812, -0.02655108831822872, -0.07997880131006241, -0.0784497931599617, -0.08330295234918594, -0.013239968568086624, 0.023712722584605217], [-0.19131015241146088, -0.00010003149509429932, -0.13363443315029144, 0.06216290965676308, -0.11542931944131851, 0.06951861083507538, -0.002628074958920479, 0.04336819052696228, -0.11816507577896118, 0.021332811564207077, 0.030977776274085045, -0.07169399410486221, -0.04452109336853027, 0.03307364135980606, -0.06682095676660538, -0.08470480144023895, -0.025788797065615654, 0.004680722951889038, -0.0003463253378868103, -0.04421089589595795, 0.0745106190443039, 0.0025862976908683777, 0.14321854710578918, -0.018771391361951828, -0.23210768401622772, 0.05463667958974838, 0.2666977345943451, -0.19429270923137665, -0.010466055944561958, -0.12506628036499023, -0.008541420102119446, -0.0938885286450386, -0.05739516019821167, 0.042320121079683304, -0.16382832825183868, 0.06944349408149719, 0.17918512225151062, -0.00708606094121933, -0.025808241218328476, 0.004933364689350128, -0.004686558619141579, -0.010058358311653137, -0.011718783527612686, 0.20264407992362976, 0.03400697559118271, -0.11391782015562057, -0.05501924455165863, 0.019451532512903214, -0.018004493787884712, 0.018097365275025368], [-0.06822101026773453, 0.020322244614362717, -0.11380139738321304, -0.07153602689504623, -0.10070713609457016, -0.05087660253047943, -0.13843601942062378, 0.04124513268470764, -0.11686655133962631, -0.01950235292315483, 0.01640370860695839, -0.03923998028039932, -0.18086513876914978, -0.007040368393063545, -0.05051984637975693, -0.0878530889749527, -0.06090473383665085, -0.014436740428209305, -0.03536710888147354, -0.02002161368727684, 0.007951119914650917, 0.05277540534734726, 0.13787128031253815, -0.050535887479782104, -0.21638043224811554, -0.056470490992069244, 0.2572042942047119, 0.002740493044257164, -0.03932086378335953, -0.13722747564315796, -0.07038538157939911, -0.14034979045391083, -0.03426755219697952, 0.0758417621254921, -0.05782676115632057, -0.061144888401031494, 0.18350864946842194, -0.06202382594347, -0.059195052832365036, -0.0755603015422821, -0.07296883314847946, 0.06312134116888046, 0.033883802592754364, 0.13335900008678436, 0.059663332998752594, -0.052724454551935196, 0.0463520810008049, 0.1052321344614029, 0.04727394878864288, -0.07578293979167938], [-0.04279007017612457, 0.012777682393789291, -0.022922096773982048, -0.12089794874191284, -0.10499731451272964, 0.02696518413722515, -0.2048780769109726, -0.03586111217737198, -0.12997736036777496, -0.11175161600112915, 0.028901545330882072, 0.04492400586605072, -0.20263975858688354, -0.0010836031287908554, 0.05464667081832886, -0.005590254440903664, 0.01579393818974495, 0.04260645806789398, 0.03402942419052124, 0.07060026377439499, 0.01612849161028862, 0.02996808849275112, 0.12903383374214172, -0.026006942614912987, -0.1624186933040619, -0.026122426614165306, 0.19628019630908966, 0.07293898612260818, -0.02043325826525688, -0.10034939646720886, -0.011635081842541695, -0.12947389483451843, -0.03733009845018387, -0.18339523673057556, -0.04178600013256073, -0.060546502470970154, 0.1759834885597229, -0.01966206356883049, -0.05354529619216919, -0.049629032611846924, 0.044818975031375885, 0.07350199669599533, -0.010571865364909172, 0.15074388682842255, -0.05861271917819977, -0.10738148540258408, -0.0656026154756546, 0.16322176158428192, -0.055196963250637054, -0.05831702798604965], [-0.0949234738945961, 0.042663827538490295, 0.006258951500058174, -0.033339135348796844, -0.005573950707912445, 0.014948952943086624, -0.21831446886062622, -0.050704002380371094, -0.12509040534496307, -0.14269083738327026, 0.03419899195432663, -0.044729165732860565, -0.12088140100240707, 0.15149039030075073, -0.060370996594429016, -0.011273639276623726, -0.02757037989795208, 0.05793481320142746, -0.020632874220609665, -0.03814295679330826, -0.018093783408403397, -0.026379330083727837, 0.08878133445978165, 0.012928780168294907, -0.20030148327350616, -0.01327437162399292, 0.09178877621889114, 0.20985428988933563, 0.01957711949944496, -0.1173444464802742, -0.07920007407665253, -0.040884315967559814, -0.08739300817251205, -0.16875548660755157, -0.04011659324169159, 0.021789101883769035, 0.007868798449635506, 0.06060386449098587, -0.08627036958932877, -0.0013375096023082733, 0.07236716151237488, 0.13347603380680084, -0.009737705811858177, 0.07829185575246811, -0.07870284467935562, -0.08326558023691177, -0.01914091408252716, 0.07761780172586441, 0.028375698253512383, -0.0737922415137291], [-0.18119758367538452, 0.004535125568509102, 0.053860992193222046, -0.07057733833789825, 0.026910176500678062, 0.05684360861778259, -0.33735933899879456, 0.028151651844382286, -0.11918825656175613, -0.19600462913513184, 0.07424958050251007, -0.04986222833395004, -0.08866679668426514, 0.13856510818004608, -0.008382683619856834, -0.014528188854455948, 0.06340905278921127, 0.05520891398191452, -0.036911338567733765, 0.03744734823703766, -0.015938587486743927, -0.07221787422895432, 0.09175699204206467, 0.012756269425153732, -0.1448395997285843, -0.04234036058187485, 0.09672001004219055, 0.212404265999794, -0.033654846251010895, -0.13708242774009705, 0.10253570228815079, 0.06381238996982574, -0.10533055663108826, -0.20484726130962372, 0.028506411239504814, -0.01192421093583107, -0.1285400092601776, 0.008232878521084785, -0.06824830174446106, 0.047859542071819305, 0.09787093102931976, 0.10077384859323502, 0.0016410592943429947, -0.09885118156671524, -0.028518659994006157, -0.0031387731432914734, -0.024482382461428642, -0.0821412205696106, 0.07532994449138641, -0.027371084317564964], [-0.0635656788945198, 0.031128710135817528, -0.0006392132490873337, -0.04078073799610138, 0.05086211860179901, -0.06280426681041718, -0.30030953884124756, -0.008681485429406166, -0.04196950048208237, -0.17999127507209778, 0.017619330435991287, -0.0512261837720871, 0.0050946567207574844, 0.14931781589984894, 0.002893669530749321, 0.08169998973608017, -0.008785316720604897, 0.03745870292186737, 0.03148815780878067, 0.06171506643295288, -0.017473869025707245, 0.037659160792827606, 0.08312025666236877, 0.0051577333360910416, -0.050724826753139496, -0.05065540224313736, 0.0672638788819313, 0.2198699414730072, -0.010734321549534798, 0.04458025097846985, 0.07536524534225464, 0.06167462840676308, -0.029310261830687523, -0.14169229567050934, -0.14145487546920776, 0.04013896733522415, -0.09497224539518356, 0.03788822889328003, -0.02378966473042965, -0.042783722281455994, 0.0893951803445816, -0.017188260331749916, 0.017123859375715256, -0.09969978779554367, 0.06143084168434143, -0.016818758100271225, 0.024465641006827354, -0.10314334183931351, 0.06698620319366455, -0.034634098410606384], [-0.05612156540155411, 0.004310863092541695, -0.03581301122903824, 0.022505974397063255, -0.002266116440296173, 0.023779524490237236, -0.2390608787536621, -0.03262149542570114, 0.0011900365352630615, -0.13217118382453918, 0.05817040055990219, -0.047129787504673004, 0.10943377017974854, 0.07675354182720184, 0.05153282731771469, -0.04387921839952469, 0.06391580402851105, 0.03984004631638527, -0.047384388744831085, -0.05571160465478897, -0.06357333809137344, 0.024565665051341057, 0.08814248442649841, 0.026642819866538048, -0.17181989550590515, 0.056900523602962494, 0.07150230556726456, 0.12816950678825378, 0.06421651691198349, 0.07756811380386353, -0.0275502260774374, 0.0938933864235878, 0.0009483695030212402, -0.21205955743789673, -0.10602368414402008, 0.0592825785279274, -0.2025284767150879, 0.041615456342697144, -0.0023123249411582947, 0.007799359038472176, 0.07932094484567642, -0.035239994525909424, -0.011235995218157768, -0.12663519382476807, -0.07479701936244965, -0.04739628732204437, -0.014963200315833092, -0.14640165865421295, 0.00396348163485527, 0.05342578887939453], [-0.06981600821018219, -0.006073040887713432, -0.1027291938662529, 0.032805152237415314, -0.0839608907699585, -0.04896799474954605, -0.23261815309524536, -0.05391324311494827, 0.09733309596776962, -0.09358935803174973, 0.04821762442588806, 0.03164009749889374, 0.08022815734148026, 0.06002847105264664, 0.024835875257849693, -0.05491563677787781, 0.05306874215602875, 0.08122476190328598, -0.04650328308343887, -0.06148241460323334, 0.037258580327034, -0.047884829342365265, 0.0683632418513298, -0.05674710124731064, -0.16453638672828674, 0.10912083089351654, 0.058890365064144135, 0.14492793381214142, -0.002428479492664337, 0.09852193295955658, -0.05498610436916351, 0.09746383875608444, -0.026074925437569618, -0.22264672815799713, -0.10906174033880234, -0.008243655785918236, -0.27774229645729065, -0.0755782350897789, -0.026005400344729424, 0.0008950140327215195, 0.016986051574349403, -0.030841810628771782, 0.029104692861437798, -0.05068276822566986, 0.04378966987133026, -0.18140310049057007, 0.03372933715581894, -0.1456187665462494, -0.022425642237067223, 0.05398322641849518], [-0.0983048677444458, -0.05124641954898834, -0.018171314150094986, 0.1272854208946228, -0.0032492652535438538, -0.05664683133363724, -0.17346230149269104, 0.004823051393032074, 0.18277676403522491, 0.009196022525429726, 0.030027827247977257, 0.03132372349500656, 0.16556501388549805, 0.13390567898750305, 0.033755041658878326, -0.02520519122481346, -0.05714207887649536, 0.06591171026229858, 0.04152984172105789, -0.03241874277591705, 0.07059325277805328, 0.060193389654159546, -0.06329984962940216, 0.07485289871692657, -0.17674048244953156, 0.044480837881565094, 0.07352843135595322, 0.11768822371959686, 0.06468845158815384, -0.06244014948606491, -0.04598768800497055, 0.170815110206604, 0.02659481391310692, -0.16917449235916138, -0.23007458448410034, 0.07464569061994553, -0.2655980885028839, -0.07202763110399246, 0.044430747628211975, 0.020070914179086685, -0.1386328488588333, -0.02912505529820919, -0.02875208668410778, 0.028166038915514946, -0.024897566065192223, -0.1417815238237381, -0.005020841956138611, -0.16362622380256653, -0.006997520104050636, -0.04773246496915817], [-0.12167606502771378, -0.03545580059289932, -0.05209225416183472, 0.10566774010658264, -0.1193634495139122, 0.011396916583180428, -0.12766091525554657, -0.06339255720376968, 0.22650831937789917, 0.06484444439411163, -0.03366975486278534, 0.009501056745648384, 0.19035948812961578, 0.16808739304542542, 0.0494341179728508, -0.014089170843362808, 0.018256839364767075, 0.07806216925382614, 0.016613487154245377, 0.011157555505633354, 0.0801059678196907, 0.06722738593816757, -0.07169710099697113, -0.009828286245465279, -0.027500087395310402, 0.07759710401296616, 0.171779602766037, 0.2486838847398758, -0.031580641865730286, -0.05415753275156021, -0.0627012625336647, 0.10928495228290558, 0.09481457620859146, -0.13984332978725433, -0.22361162304878235, 0.0441448837518692, -0.22253209352493286, -0.03417252004146576, 0.13326726853847504, 0.04569750279188156, -0.185589000582695, 0.0017725173383951187, 0.08104807138442993, 0.03166437894105911, -0.0001836642622947693, -0.12797138094902039, -0.050477951765060425, 0.0425235852599144, -0.029644465073943138, 0.05869933217763901], [-0.11664178967475891, -0.06720104068517685, 0.008713873103260994, 0.14195111393928528, -0.12321922183036804, -0.06448013335466385, -0.1686927080154419, -0.04003167897462845, 0.131928488612175, -0.04313205927610397, -0.028282975777983665, -0.0008499473333358765, 0.21114209294319153, 0.16074472665786743, -0.0036972258239984512, 0.14112401008605957, 0.06196269392967224, 0.07428332418203354, 0.0696733295917511, -0.0702035129070282, -0.08494231104850769, -0.0412934273481369, -0.010887688025832176, -0.04328719526529312, 0.047359563410282135, 0.09266741573810577, 0.11455762386322021, 0.279357373714447, -0.009957948699593544, -0.02003989741206169, -0.021732358261942863, 0.0719597265124321, 0.07567401975393295, -0.1369534134864807, -0.21906916797161102, 0.0250468160957098, -0.11496560275554657, -0.04921461641788483, 0.12403793632984161, -0.0878497064113617, -0.04751535505056381, -0.10980545729398727, -0.06136195361614227, -0.02047254517674446, 0.05548352003097534, -0.12071793526411057, -0.032999999821186066, 0.09314568340778351, 0.017854508012533188, 0.04168510437011719], [-0.16655023396015167, 0.03616322576999664, 0.020114440470933914, 0.03472064062952995, -0.12387457489967346, 0.06202264130115509, -0.21919851005077362, 0.08428926765918732, 0.02280367724597454, -0.06407603621482849, 0.07711910456418991, -0.04055525362491608, 0.15785717964172363, 0.20105881989002228, -0.03475095331668854, 0.16295196115970612, 0.02572883479297161, -0.06287918984889984, -0.0075453538447618484, -0.07524216920137405, 0.014073316007852554, -0.03477080911397934, 0.1773587018251419, -0.03827759623527527, 0.08507862687110901, 0.04273669421672821, -0.0674133151769638, 0.24450379610061646, 0.019938059151172638, 0.03907855227589607, -0.019636813551187515, 0.0358547642827034, -0.10709960758686066, -0.15833553671836853, -0.19509026408195496, 0.05166752636432648, -0.15345275402069092, 0.01771310716867447, -0.01086311787366867, 0.05229300260543823, -0.06267617642879486, -0.15645481646060944, 0.04615446925163269, 0.011131206527352333, 0.018646318465471268, -0.09580180048942566, 0.003932604566216469, -0.044008202850818634, -0.0473480224609375, -0.06067778915166855], [-0.09142892807722092, -0.07799491286277771, -0.04533775895833969, 0.0007002800703048706, -0.08635414391756058, -0.059688545763492584, -0.19732537865638733, 0.03332445025444031, -0.05338574945926666, 0.028607485815882683, -0.01154639944434166, 0.04842408001422882, 0.03203918784856796, 0.17355521023273468, -0.06496863067150116, 0.0944928303360939, -0.0485108345746994, -0.11475884914398193, 0.04430156946182251, -0.038819894194602966, 0.01560002937912941, -0.021692564710974693, 0.17326606810092926, -0.057935409247875214, 0.05623020976781845, 0.06992640346288681, -0.19421860575675964, 0.07988715916872025, -0.034758061170578, 0.09550308436155319, 0.06114728003740311, 0.023790931329131126, -0.07384937256574631, -0.2111329734325409, -0.09707341343164444, -0.020528029650449753, -0.03710485249757767, 0.08116396516561508, -0.17046168446540833, 0.027917413040995598, -0.00013187527656555176, -0.12290697544813156, -0.08157944679260254, 0.17232009768486023, -0.011743638664484024, -0.12385179847478867, -0.03040534071624279, -0.07144293189048767, -0.01184220239520073, -0.044311389327049255], [-0.12538187205791473, -0.00596281886100769, 0.12031768262386322, 0.05235018581151962, -0.022033287212252617, -0.004616633057594299, -0.2566831707954407, 0.06411255896091461, -0.0796857699751854, 0.08574028313159943, 0.05609135329723358, -0.037121713161468506, 0.023917576298117638, 0.2739660441875458, 0.09128845483064651, 0.09305337071418762, -0.009902337566018105, -0.12408149987459183, -0.007556924596428871, -0.07366105914115906, -0.03041587956249714, -0.03152281790971756, 0.13127940893173218, 0.03925246745347977, -0.16151125729084015, 0.03949277102947235, -0.18380850553512573, 0.11739453673362732, 0.09267473220825195, 0.0042074304074049, -0.09045055508613586, 0.06990305334329605, -0.06523288786411285, -0.23712626099586487, -0.0033489391207695007, -0.030715759843587875, 0.14454275369644165, 0.002719305455684662, -0.21003247797489166, 0.04139617830514908, -0.01029653288424015, -0.039556220173835754, 0.0450405478477478, 0.19327691197395325, -0.028333088383078575, -0.11648210138082504, -0.0054392218589782715, -0.10478167235851288, -0.046257488429546356, 0.034390322864055634], [-0.13022401928901672, -0.043081700801849365, 0.1833713799715042, 0.08145943284034729, 0.0713808536529541, 0.03205118328332901, -0.238969087600708, 0.047956183552742004, -0.08777187764644623, 0.08995100855827332, -0.00912061519920826, -0.011770013719797134, 0.024504490196704865, 0.23800621926784515, -0.059414222836494446, 0.07527187466621399, 0.04052957147359848, -0.16251303255558014, -0.039329223334789276, 0.012397754937410355, -0.06678314507007599, 0.033726729452610016, 0.09926153719425201, 0.03306525945663452, -0.17031782865524292, -0.031683459877967834, -0.2138194441795349, 0.11303089559078217, -0.05880025774240494, -0.008895592764019966, -0.04335407912731171, 0.10887587070465088, 0.1056784987449646, -0.2512398660182953, 0.06270153820514679, -0.049035146832466125, 0.17106682062149048, -0.04678481072187424, -0.17211280763149261, 0.047264792025089264, 0.014758508652448654, 0.01247156411409378, -0.045048654079437256, 0.09137408435344696, -0.05591288208961487, -0.15324483811855316, -0.07449197769165039, 0.02605673298239708, 0.04789777100086212, 0.010376619175076485], [-0.12330587208271027, -0.030572867020964622, 0.15589086711406708, 0.13344936072826385, 0.0992455780506134, 0.0520026832818985, -0.21888305246829987, -0.003170141950249672, 0.10928420722484589, 0.010050849989056587, 0.04946732521057129, 0.01501762866973877, 0.006788656115531921, 0.25787296891212463, -0.06396155059337616, 0.045401304960250854, 0.07121387869119644, -0.1179576888680458, -0.061372846364974976, -0.02954181097447872, -0.0076430793851614, 0.028802914544939995, 0.0190105140209198, 0.0014364738017320633, -0.12575799226760864, -0.04502057284116745, -0.019204962998628616, 0.1467178463935852, 0.03409957140684128, 0.004145994782447815, -0.022045258432626724, 0.11437342315912247, 0.14386509358882904, -0.24872197210788727, -0.06474010646343231, 0.015454087406396866, 0.21594275534152985, -0.033446431159973145, 0.03665950894355774, 0.022387167438864708, 0.06001543253660202, 0.03396454453468323, -0.013385865837335587, 0.06905011087656021, 0.005778038874268532, -0.1674138754606247, -0.05988752841949463, 0.051102302968502045, 0.040837690234184265, -0.056860603392124176], [-0.11833745986223221, -0.0516471266746521, 0.16174672544002533, 0.12467800825834274, 0.12527821958065033, -0.08375106006860733, -0.15754657983779907, 0.014304554089903831, 0.10828641057014465, -0.15300703048706055, 0.07034024596214294, -0.06217217445373535, 0.03481259569525719, 0.22570496797561646, -0.047183215618133545, 0.02980337105691433, -0.021215055137872696, -0.010051267221570015, 0.031189510598778725, -0.04559110105037689, 0.010011451318860054, -0.01754124090075493, 0.027062203735113144, -0.0605199858546257, -0.012850018218159676, 0.08043951541185379, 0.13242927193641663, 0.21602526307106018, 0.07992017269134521, -0.013204768300056458, 0.0326586589217186, 0.1601376235485077, 0.21214210987091064, -0.09548620879650116, -0.03688661381602287, -0.07871662825345993, 0.1910412758588791, -0.05847868323326111, 0.0427725575864315, 0.05900503695011139, 0.1127215027809143, 0.05195566639304161, 0.04392483830451965, 0.007656626403331757, -0.0825127363204956, 0.020060356706380844, 0.06296540796756744, 0.07363270223140717, 0.014591304585337639, -0.04619088023900986], [-0.16220612823963165, -0.05996911972761154, 0.004483425989747047, 0.1294475793838501, 0.09366625547409058, -0.07078065723180771, -0.1788191795349121, 0.05240648239850998, 0.07651333510875702, -0.16157512366771698, 0.06747842580080032, -0.036418505012989044, 0.04589046537876129, 0.23143160343170166, -0.05348169803619385, -0.0032806415110826492, 0.05030057579278946, 0.1071336418390274, -0.004072904586791992, -0.0465238094329834, 0.004373639822006226, 0.04536685347557068, -0.02268952690064907, -0.0015380755066871643, 0.11570295691490173, 0.057758647948503494, 0.16193552315235138, 0.22151456773281097, -0.039106689393520355, -0.017708521336317062, -0.007069313898682594, 0.1789897233247757, 0.23392988741397858, -0.06209924444556236, -0.0335274301469326, 0.04177603870630264, -0.10589569807052612, -0.009623920544981956, 0.06283438950777054, 0.031561970710754395, 0.09650585055351257, 0.0024028699845075607, 0.009563615545630455, -0.024577375501394272, -0.06726487725973129, 0.045475512742996216, -0.03499707579612732, 0.11739714443683624, -0.017056602984666824, -0.08228132128715515], [-0.04516742378473282, 0.05639515072107315, -0.06080366671085358, 0.23856966197490692, 0.00635790079832077, -0.01720898225903511, -0.18486565351486206, -0.053621865808963776, 0.028839407488703728, -0.18141330778598785, 0.038040898740291595, -0.05125882476568222, 0.019799116998910904, 0.1472768932580948, 0.059952571988105774, -0.05586118996143341, -0.0632271096110344, 0.05795037001371384, 0.015030298382043839, 0.07946567237377167, 0.02789774350821972, -0.04354607313871384, -0.001167498528957367, -0.014780785888433456, 0.17044824361801147, 0.036432862281799316, 0.15727294981479645, -0.023237934336066246, -0.05370978266000748, 0.021428439766168594, -0.06914421170949936, 0.17147019505500793, 0.2798699140548706, -0.012469196692109108, 0.06835423409938812, 0.06096842885017395, -0.1159016564488411, 0.04360213875770569, 0.15011116862297058, -0.054340802133083344, 0.07369071245193481, -0.1149245947599411, 0.03652883321046829, -0.037028126418590546, 0.01000618189573288, -0.033382222056388855, 0.029714850708842278, 0.033726148307323456, -0.0560845285654068, 0.05496906489133835], [-0.05083635449409485, 0.0190386064350605, -0.0709349662065506, 0.2628673315048218, -0.026332329958677292, -0.030025852844119072, -0.17721706628799438, 0.05106034874916077, 0.009135285392403603, -0.24810069799423218, 0.04209394007921219, 0.06327594071626663, -0.12456917017698288, 0.09561344236135483, 0.05424126982688904, -0.06337440758943558, -0.012201577425003052, -0.061931103467941284, 0.0468519926071167, 0.058263085782527924, -0.006123838946223259, 0.021826988086104393, 0.018451903015375137, -0.03180668503046036, 0.1841125637292862, -0.08344900608062744, 0.17270256578922272, -0.07419296354055405, 0.02008381113409996, -0.06616739928722382, -0.02040131762623787, 0.16444821655750275, 0.2569030523300171, 0.015473755076527596, 0.07761792093515396, 0.005639025941491127, -0.13583242893218994, -0.07072073221206665, 0.1101323813199997, -0.04862957447767258, 0.06100406497716904, -0.10363815724849701, 0.030036894604563713, -0.05899566411972046, 0.024628018960356712, -0.09349925071001053, 0.061275459825992584, -0.10609441995620728, -0.03604777902364731, 0.012141093611717224], [-0.020965058356523514, 0.03899262100458145, -0.04683324322104454, 0.2468205988407135, 0.02559872716665268, -0.03373955935239792, -0.16859330236911774, 0.04089514911174774, -0.0804552212357521, -0.17167916893959045, 0.06413320451974869, -0.04956194758415222, -0.048758216202259064, 0.0643158107995987, 0.05744733661413193, -0.04507716745138168, -0.02335796318948269, -0.06592333316802979, 0.025401068851351738, 0.06493916362524033, -0.04423517733812332, -0.03698015213012695, -0.03132667392492294, -0.0501554012298584, 0.1823902130126953, 0.08721242845058441, 0.21595023572444916, -0.16947509348392487, -0.0289312731474638, -0.2412671595811844, 0.017426107078790665, 0.19828425347805023, 0.24153785407543182, -0.013578200712800026, 0.06914473325014114, 0.059708066284656525, 0.11140692234039307, -0.024147076532244682, 0.06570377945899963, 0.03143751621246338, -0.1130407527089119, -0.03846539556980133, 0.06158142536878586, -0.03671460598707199, 0.05704677850008011, -0.11765961349010468, 0.010152408853173256, -0.1498163938522339, -0.00025916099548339844, -0.0031975526362657547], [-0.02406720630824566, -0.02278107963502407, 0.05116764456033707, 0.15232734382152557, 0.09837903827428818, 0.015936177223920822, -0.1741008162498474, -0.03377123177051544, -0.1028938964009285, -0.20704954862594604, -0.04381237179040909, 0.048389703035354614, -0.012963710352778435, 0.006929250434041023, 0.0033219680190086365, 0.08927828073501587, -0.015041667968034744, -0.11573687940835953, 0.06894131004810333, -0.010474903509020805, -0.010423457249999046, 0.07408124953508377, -0.15828318893909454, 0.021159056574106216, 0.17523406445980072, 0.08772057294845581, 0.1561666578054428, -0.1665438562631607, 0.04722624272108078, -0.19081705808639526, 0.001543186604976654, 0.21341624855995178, 0.003025861456990242, 0.01553504541516304, -0.12068245559930801, -0.005396842956542969, 0.09733251482248306, -0.004842923954129219, -0.05770399421453476, -0.01891373284161091, -0.08408229053020477, 0.02694343589246273, 0.004212820902466774, -0.014564396813511848, 0.05106905847787857, -0.16248944401741028, 0.03932365030050278, -0.165460467338562, -0.0678381621837616, -0.012205207720398903], [-0.01368682086467743, -0.022362304851412773, 0.10532994568347931, -0.10033935308456421, 0.09236277639865875, -0.04547888785600662, -0.16748395562171936, 0.0034713149070739746, -0.00885910727083683, -0.18848171830177307, -0.019138339906930923, 0.012950282543897629, -0.043308354914188385, -0.09867817163467407, -0.07037185877561569, -0.008477622643113136, 0.0569457933306694, -0.10660649836063385, -0.07503659278154373, -0.03227878361940384, -0.0561537966132164, 0.0015931744128465652, -0.20689833164215088, -0.06425482034683228, 0.10651160031557083, 0.01813037320971489, 0.1121969223022461, -0.1520317643880844, 0.036965206265449524, -0.16676384210586548, -0.03385075926780701, 0.2682993710041046, -0.05693338066339493, -0.049544356763362885, -0.13619674742221832, -0.052444301545619965, 0.009023787453770638, 0.02063734456896782, -0.1479964256286621, 0.07582002878189087, -0.11698111146688461, 0.07817171514034271, -0.015303220599889755, 0.030652619898319244, -0.02633260004222393, -0.1718965619802475, -0.030963001772761345, -0.16736812889575958, -0.06711678206920624, 0.04722817987203598], [-0.009754875674843788, 0.05978208780288696, 0.014189491048455238, -0.11710669845342636, -0.011257212609052658, -0.053130075335502625, -0.1067129597067833, -0.02442662976682186, 0.014419179409742355, -0.20778502523899078, -0.01901213452219963, 0.028980305418372154, -0.0862511396408081, -0.1619354635477066, -0.0033961720764636993, 0.0418146550655365, -0.041398122906684875, -0.09703600406646729, 0.041494786739349365, -0.07199627161026001, -0.0026062801480293274, -0.019487548619508743, -0.19267064332962036, 0.03074696473777294, -0.08672038465738297, 0.011959340423345566, -0.2293686419725418, -0.1649007648229599, 0.02456679753959179, -0.1584606021642685, -0.04369077831506729, 0.28057822585105896, -0.04858125001192093, -0.08854003250598907, -0.15186379849910736, -0.034691907465457916, 0.05090005695819855, 0.046171121299266815, -0.14290852844715118, 0.042474642395973206, -0.09185758233070374, 0.02113918960094452, 0.009437920525670052, 0.12544558942317963, 0.06851191818714142, -0.06690089404582977, -0.0441584438085556, -0.1419069766998291, 0.027882834896445274, 0.034782879054546356], [-0.08791380375623703, 0.05847325176000595, 0.03233574330806732, -0.058383502066135406, -0.06190052628517151, -0.03528265655040741, -0.07982993870973587, -0.07655158638954163, 0.019176060333848, -0.1798415333032608, -0.037225086241960526, -0.046675823628902435, -0.08796845376491547, -0.11293592303991318, 0.051389530301094055, 0.04402823746204376, -0.022200103849172592, -0.057819806039333344, -0.011815493926405907, -0.01443697139620781, 0.06467888504266739, -0.034341804683208466, 0.1580936312675476, 0.0007739290595054626, -0.16128845512866974, -0.026456696912646294, -0.2105346918106079, -0.14560353755950928, 0.00046486593782901764, -0.11365312337875366, -0.04290274530649185, 0.2534409463405609, -0.023649929091334343, -0.07255976647138596, -0.12200457602739334, 0.03125832974910736, 0.04796905815601349, -0.03470323607325554, -0.12086134403944016, -0.06256212294101715, -0.05053804814815521, 0.017190229147672653, 0.0442676767706871, 0.12318361550569534, 0.07185260206460953, 0.19093015789985657, 0.07081717252731323, 0.07714517414569855, -0.0288904570043087, -0.038468100130558014], [-0.14529292285442352, -0.058070674538612366, -0.0022216904908418655, 0.053149305284023285, -0.07428441196680069, 0.05115664005279541, 0.026719722896814346, -0.044450365006923676, 0.03215929865837097, -0.03905773162841797, 0.028617283329367638, -0.02750270999968052, -0.04042794555425644, -0.15669715404510498, -0.07358004152774811, 0.023778988048434258, 0.053930193185806274, 0.04049014300107956, -0.0634172111749649, 0.05120481550693512, -0.07160806655883789, 0.02203327976167202, 0.176238551735878, 0.03939055651426315, -0.19204042851924896, -0.09652991592884064, -0.266422837972641, -0.036884408444166183, 0.05356525629758835, -0.046583011746406555, 0.03878282010555267, 0.11346176266670227, -0.0012925192713737488, -0.03543739765882492, -0.03732803463935852, 0.047578707337379456, 0.17637892067432404, -0.04614537954330444, -0.028219429776072502, -0.0029853377491235733, -0.033824168145656586, -0.10085015743970871, -0.011346060782670975, 0.0686645358800888, -0.04318729788064957, 0.24121464788913727, -0.07210520654916763, 0.10614614188671112, 0.059687353670597076, 0.0333007350564003], [-0.16729073226451874, 0.03262502700090408, -0.08480526506900787, -0.07373697310686111, 0.020815450698137283, -0.07999290525913239, 0.04856022447347641, 0.050943151116371155, 0.006106123328208923, -0.08123299479484558, -0.039430148899555206, 0.06889210641384125, 0.030251627787947655, -0.16125528514385223, -0.05169518291950226, 0.08380310237407684, 0.052053265273571014, 0.07656154036521912, -0.0546451136469841, 0.027963703498244286, 0.05124378949403763, 0.0469856932759285, 0.19051170349121094, 0.03208772838115692, 0.017431478947401047, -0.20073312520980835, -0.18004179000854492, 0.06267862766981125, -0.009450303390622139, -0.0388459786772728, -0.011023344472050667, 0.13962018489837646, 0.07764578610658646, -0.034514352679252625, -0.04947996884584427, 0.016050584614276886, 0.2705831825733185, 0.03722064942121506, 0.0804758295416832, 0.049894534051418304, -0.02250818721950054, -0.1308567076921463, -0.0009379219263792038, 0.012779589742422104, -0.054379455745220184, 0.2323528379201889, -0.0927368551492691, 0.1114281564950943, -0.0506751611828804, -0.06534616649150848], [-0.20016133785247803, -0.03509362041950226, -0.0751490592956543, -0.180294930934906, -0.010131487622857094, 0.0704033374786377, 0.042481325566768646, -0.06611257791519165, -0.0551566481590271, -0.03365691751241684, 0.01402449980378151, 0.041490063071250916, 0.0842466950416565, -0.12386173009872437, -0.029548784717917442, -0.059959348291158676, -0.01295841857790947, 0.06208576261997223, -0.08323115110397339, 0.027870235964655876, -0.019036974757909775, 0.016479182988405228, 0.2196355015039444, -0.03372339904308319, 0.02078825607895851, -0.20670250058174133, -0.0048254020512104034, 0.20170344412326813, 0.053403183817863464, -0.0594157874584198, 0.02787364087998867, 0.03950008004903793, 0.10340994596481323, -0.04835651069879532, -0.10447453707456589, 0.0029287654906511307, 0.25183361768722534, -0.016007449477910995, 0.17005643248558044, -0.0368991419672966, -0.0703715831041336, -0.15737441182136536, -0.06083918362855911, -0.06049862504005432, 0.021232355386018753, 0.2718227207660675, 0.04669136554002762, 0.03754075616598129, 0.01814410462975502, 0.018733080476522446], [-0.1429533213376999, -0.035064734518527985, -0.1130593866109848, -0.10758677124977112, 0.0661873072385788, 0.06338497996330261, 0.0067299846559762955, -0.06330597400665283, -0.10053721815347672, 0.050877995789051056, -0.02416505478322506, -0.08181396126747131, 0.0319056510925293, 0.047192588448524475, 0.024542761966586113, -0.07717026770114899, -0.0402839258313179, -0.03398429602384567, -0.021909719333052635, 0.020777609199285507, 0.027957791462540627, -0.02528063766658306, 0.15826429426670074, -0.027567652985453606, -0.10270246863365173, -0.025875447317957878, 0.09814801812171936, 0.232219859957695, -0.05935405194759369, 0.029609879478812218, 0.03930051624774933, 0.0410677045583725, -0.11170598864555359, -0.16255563497543335, -0.06212028115987778, -0.05477181077003479, 0.2225155383348465, -0.056912295520305634, 0.11813900619745255, 0.03838159143924713, -0.06508901715278625, 0.06391209363937378, -0.030992528423666954, 0.07178184390068054, 0.04792659729719162, 0.17952777445316315, 0.010829096660017967, -0.09054742753505707, 0.047527216374874115, 0.014507303014397621], [-0.10671457648277283, 0.006623677909374237, -0.1493605673313141, -0.08813207596540451, 0.056132081896066666, 0.023522106930613518, 0.03311670199036598, -0.011252235621213913, -0.1018722802400589, 0.13948316872119904, 0.041488975286483765, 0.04539307951927185, 0.08945279568433762, 0.06626711785793304, -0.055043354630470276, -0.04669836163520813, -0.07134806364774704, 0.014621498063206673, -0.013846192508935928, 0.04003167152404785, -9.164214134216309e-07, 0.012143705040216446, 0.12051637470722198, 0.03469090163707733, -0.12381825596094131, 0.22550050914287567, 0.1550317108631134, 0.26073363423347473, -0.07205703109502792, 0.02881288342177868, 0.052692804485559464, 0.008487790822982788, -0.13256767392158508, -0.15391559898853302, -0.039933059364557266, -0.05187328904867172, 0.26036858558654785, 0.05355487018823624, 0.0835101380944252, 0.0242753978818655, -0.03852885216474533, 0.12310557067394257, 0.047042667865753174, 0.09314635396003723, -0.05449770390987396, 0.1311538964509964, -0.03273466229438782, -0.0586710199713707, 0.01902061328291893, -0.06105349212884903], [-0.06669015437364578, -0.06762135028839111, -0.04265790432691574, -0.0395357608795166, 0.07608573883771896, -0.009171849116683006, 0.07042942941188812, -0.05659603327512741, -0.15835048258304596, 0.15402735769748688, -0.05618571490049362, -0.0647306963801384, 0.1556256115436554, 0.09726724773645401, 0.06617321074008942, 0.08334310352802277, -0.060795508325099945, -0.022344088181853294, 0.009150439873337746, -0.013979610055685043, -0.05947781354188919, -0.005022155120968819, 0.03852294385433197, -0.06373755633831024, -0.0495789498090744, 0.23111921548843384, 0.18904133141040802, 0.21519425511360168, -0.030731385573744774, -0.18149639666080475, -0.0341256782412529, 0.049594491720199585, -0.10218735039234161, -0.2234502136707306, 0.03230404108762741, 0.06785288453102112, 0.1373395025730133, -0.023921934887766838, 0.016356725245714188, -0.03385120630264282, -0.025139985606074333, -0.06843950599431992, 0.05927368253469467, -0.020276639610528946, -0.07163432985544205, 0.07721494138240814, -0.051005080342292786, -0.09458927810192108, -0.0009593777358531952, 0.05097629874944687], [-0.05822736769914627, 0.03538479655981064, 0.085500068962574, 0.134428933262825, 0.00265655480325222, -0.04061976075172424, 0.11003444343805313, -0.042794860899448395, -0.16939114034175873, -0.1223437711596489, 0.015922868624329567, 0.06991158425807953, 0.2181108444929123, 0.028736932203173637, 0.024971071630716324, 0.14897280931472778, 0.018836263567209244, 0.025084804743528366, 0.00046806782484054565, -0.10427667945623398, 0.012031596153974533, 0.02086932584643364, 0.0647503063082695, -0.09122958779335022, -0.025310901924967766, 0.20327696204185486, 0.21028870344161987, 0.06838468462228775, 0.02364993467926979, -0.11954353004693985, -0.038034792989492416, 0.057461127638816833, -0.1012769415974617, -0.21281592547893524, -0.04014874994754791, -0.011494802311062813, 0.1631082445383072, -0.05974646657705307, 0.052583321928977966, -0.033888496458530426, -0.019592177122831345, -0.04939093440771103, 0.024262411519885063, -0.031275637447834015, -0.056478582322597504, 0.10634883493185043, 0.01562909409403801, -0.04104958474636078, -0.036459147930145264, -0.01096547581255436], [-0.06867026537656784, 0.03274841606616974, 0.1095404401421547, 0.22817201912403107, 0.04358190298080444, -0.0020724255591630936, 0.10707798600196838, -0.011285264045000076, -0.17096850275993347, -0.1499045044183731, -0.08383960276842117, 0.012692023068666458, 0.19223102927207947, -0.1743297129869461, 0.04261103272438049, 0.08421173691749573, -0.0563647523522377, 0.008451523259282112, 0.047941721975803375, -0.05380970984697342, 0.040846504271030426, -0.05358504503965378, -0.11371497809886932, 0.05457709729671478, -0.07777800410985947, 0.14414574205875397, 0.23760263621807098, 0.042503781616687775, 0.021984359249472618, -0.041339173913002014, -0.02600940875709057, 0.12186536937952042, -0.06214582175016403, -0.16403262317180634, -0.07267660647630692, -0.0416359007358551, 0.2100752294063568, 0.06056847423315048, 0.08576317876577377, 0.04456278681755066, 0.03525117412209511, -0.07009968161582947, 0.052559517323970795, -0.02402193658053875, -0.017030011862516403, 0.11406402289867401, 0.05717074126005173, -0.041698433458805084, -0.032849423587322235, 0.02158377133309841], [-0.07427000999450684, 0.0755031630396843, 0.12919068336486816, 0.2714153230190277, 0.004579493775963783, 0.03182277828454971, 0.004891598597168922, 0.06221678853034973, 0.11918997019529343, -0.15943515300750732, 0.044623807072639465, 0.048975199460983276, 0.08916166424751282, -0.19202959537506104, 0.024828439578413963, -0.0107767004519701, -0.006116429343819618, -0.02595200575888157, 0.028649693354964256, -0.06396898627281189, -0.046239979565143585, -0.00824236124753952, -0.1612953096628189, -0.021310849115252495, -0.12183953821659088, 0.10046971589326859, 0.21840070188045502, 0.0883011668920517, 0.025369903072714806, 0.061253055930137634, -0.08194559812545776, 0.14317114651203156, 0.17632853984832764, -0.11889040470123291, -0.030666986480355263, 0.0642518624663353, 0.2655811011791229, 0.04547889530658722, 0.17525072395801544, 0.030765516683459282, 0.049178317189216614, -0.0959281474351883, 0.08108260482549667, 0.028070678934454918, 0.04543174058198929, 0.07126631587743759, -0.06106109172105789, 0.06785782426595688, -0.018167417496442795, 0.013825032860040665], [-0.032720454037189484, 0.024667343124747276, 0.15822149813175201, 0.2650091052055359, -0.017277440056204796, -0.06842982023954391, -0.03133947402238846, -0.028375862166285515, 0.164974644780159, -0.13653744757175446, -0.009958269074559212, 0.052125655114650726, -0.0656810849905014, -0.17280465364456177, 0.06944801658391953, -0.08337458968162537, -0.014883950352668762, -0.05612976849079132, -0.04040617495775223, 0.026894589886069298, 0.05902043730020523, 0.014206267893314362, -0.169927179813385, 0.025350509211421013, -0.14156320691108704, 0.01922672614455223, -0.11302518844604492, 0.1629202663898468, -0.05656733363866806, 0.11422151327133179, 0.07499203085899353, 0.1196988970041275, 0.21542592346668243, -0.129683718085289, 0.002880774438381195, 0.004183392971754074, 0.2523893117904663, 0.029338737949728966, 0.2062230259180069, -0.03333616256713867, -0.018897224217653275, -0.041747838258743286, 0.055785343050956726, 0.03759443014860153, 0.045912064611911774, -0.040374673902988434, -0.04115323722362518, 0.14573787152767181, -0.06521681696176529, 0.000573083758354187], [-0.0637231320142746, 0.027855275198817253, 0.12907171249389648, 0.30285659432411194, -0.054749876260757446, -0.004246128723025322, -0.025182044133543968, -0.06961968541145325, 0.1498083770275116, -0.1402447670698166, -0.04642637073993683, 0.03743526339530945, -0.10818091034889221, -0.02421879582107067, -0.0038919541984796524, -0.07096477597951889, 0.031634002923965454, -0.009216899052262306, -0.03420177847146988, -0.04968028515577316, -0.05484127253293991, -0.03901967406272888, 0.10088340193033218, -0.020836856216192245, -0.11796803027391434, -0.006548130884766579, -0.19467490911483765, 0.18095222115516663, -0.0627080500125885, 0.1361522674560547, -0.0467386394739151, 0.10473120957612991, 0.1929795891046524, -0.17400577664375305, 0.011796277016401291, -0.01982961967587471, 0.25605133175849915, 0.01666514202952385, 0.1350303590297699, 0.07522589713335037, -0.016757065430283546, -0.08800284564495087, 0.07681933790445328, 0.05235767364501953, 0.0017670169472694397, -0.03329534828662872, 0.06513768434524536, 0.12532483041286469, 0.03323113173246384, 0.04856331646442413], [-0.17886599898338318, 0.06995007395744324, 0.07580682635307312, 0.31806832551956177, -0.07104484736919403, 0.009076563641428947, 0.10637862980365753, 0.06410857290029526, 0.09505487233400345, -0.14781737327575684, 0.011448036879301071, -0.025431839749217033, -0.13873937726020813, 0.01447308249771595, 0.006091700866818428, -0.1490030288696289, 0.002191813662648201, 0.0055236611515283585, 0.025223320350050926, -0.06507096439599991, -0.01622850075364113, 0.006111660972237587, 0.08152299374341965, -0.06672061234712601, -0.04441976547241211, 0.007394740357995033, -0.19398470222949982, 0.008992630988359451, -0.010461864992976189, 0.1539640724658966, 0.06072268635034561, 0.03956969827413559, 0.19860601425170898, -0.19038058817386627, -0.050741322338581085, 0.03433981537818909, 0.17210723459720612, -0.0032420847564935684, 0.06929492950439453, 0.028783028945326805, -0.07225727289915085, -0.057148367166519165, -0.04617578536272049, 0.04850781708955765, -0.02227707765996456, -0.02520686201751232, 0.03779907524585724, 0.08161165565252304, -0.06373599916696548, 0.05590534955263138], [-0.19731460511684418, -0.04819481074810028, -0.13147997856140137, 0.3539654016494751, -0.09090250730514526, 0.04158560186624527, 0.10829973220825195, 0.04605529457330704, 0.0006427764892578125, -0.10788701474666595, -0.0017262939363718033, -0.024802615866065025, -0.10166748613119125, -0.004849076271057129, 0.023227570578455925, -0.15681369602680206, -0.07434969395399094, 0.07778815180063248, 0.011755401268601418, 0.06392110139131546, 0.015426244586706161, -0.06434963643550873, -0.03824715316295624, -0.02215815894305706, 0.0010830983519554138, 0.040258556604385376, -0.1874065101146698, -0.051978155970573425, -0.06196898967027664, 0.16774336993694305, 0.12060397118330002, 0.06462206691503525, 0.18336927890777588, -0.24797950685024261, -0.11659226566553116, -0.030751092359423637, 0.1675785928964615, 0.04133741557598114, -0.0623670369386673, -0.06656944006681442, -0.15860332548618317, 0.03907978534698486, -0.0598742812871933, 0.014993170276284218, 0.01330908015370369, -0.05139961093664169, -0.06149979680776596, 0.017229672521352768, -0.03536147624254227, -0.041216231882572174], [-0.23413299024105072, -0.06466299295425415, -0.19349798560142517, 0.333659291267395, -0.08962148427963257, 0.009471191093325615, -0.020748894661664963, -0.04458613693714142, -0.16097797453403473, -0.1042616069316864, 0.030104657635092735, 0.02657437138259411, -0.04422774910926819, 0.02229863777756691, -0.04851020127534866, -0.17113953828811646, 0.09246575832366943, 0.12704232335090637, 0.07564225792884827, 0.05286818742752075, 0.048255838453769684, 0.023535413667559624, -0.05111134797334671, -0.007877545431256294, -0.011491969227790833, -0.03641706705093384, -0.18250936269760132, -0.0690913200378418, -0.00547289103269577, 0.19542475044727325, -0.05731659755110741, 0.0014143306761980057, 0.15346629917621613, -0.23504632711410522, -0.06522375345230103, -0.0838785320520401, -0.12011650204658508, 0.004568951204419136, -0.08793488144874573, 0.0160553939640522, -0.13461051881313324, 0.04228346794843674, -0.037536099553108215, 0.04553165286779404, 0.004588194191455841, -0.036195170134305954, 0.04696422815322876, 0.04110211133956909, -0.015624713152647018, 0.0030864253640174866], [-0.2100537270307541, 0.03005407564342022, -0.04387015849351883, 0.29371288418769836, -0.12015915662050247, 0.015079718083143234, -0.06054127961397171, 0.04789368808269501, -0.19205711781978607, 0.023886321112513542, -0.02100997045636177, -0.02898561768233776, -0.041701436042785645, -0.17031416296958923, -0.02388889156281948, -0.07673149555921555, 0.08126336336135864, 0.10728668421506882, -0.054169684648513794, 0.022952934727072716, -0.01444779708981514, 0.02242146246135235, -0.02890220284461975, 0.03876597434282303, -0.1016480103135109, -0.012332895770668983, -0.10071410983800888, -0.016569670289754868, 0.08806269615888596, 0.1150854155421257, 0.05742495507001877, -0.083575040102005, 0.11268815398216248, -0.2303493618965149, -0.07658100128173828, 0.052956677973270416, -0.1447586566209793, -0.011460874229669571, 0.044723764061927795, -0.04121009260416031, -0.18411678075790405, 0.04428882896900177, -0.060392171144485474, 0.118940569460392, -0.06340401619672775, 0.06588582694530487, 0.03275042772293091, 0.0066963061690330505, -0.027247099205851555, -0.08271795511245728], [-0.22565694153308868, 0.0723867416381836, -0.013883862644433975, 0.15374396741390228, 0.10752464830875397, 0.053756266832351685, -0.03949073702096939, 0.05954614281654358, -0.18233300745487213, 0.21118514239788055, 0.025185873731970787, -0.04436131566762924, 0.06096193939447403, -0.1896611899137497, 0.05569649487733841, -0.07176904380321503, -0.05378503352403641, -0.03958737105131149, 0.038404665887355804, 0.04458354413509369, 0.041941456496715546, 0.0026689562946558, -0.1850159466266632, -0.017840642482042313, -0.1334494799375534, -0.060316212475299835, -0.02493039332330227, -0.05926431715488434, 0.03917782008647919, -0.026698177680373192, 0.001020774245262146, -0.03182918578386307, 0.01623440533876419, -0.24130959808826447, -0.01539759710431099, 0.07124842703342438, -0.1973639279603958, -0.05574486404657364, 0.17150938510894775, -0.003176085650920868, -0.1516413539648056, -0.05999308079481125, 0.0063975099474191666, -0.01251833513379097, 0.01289122924208641, 0.04434463381767273, 0.03203912079334259, 0.028182102367281914, -0.007055202499032021, 0.0578809455037117], [-0.2057211697101593, 0.028280174359679222, -0.04892270267009735, -0.2520034909248352, 0.03713875263929367, 0.07307949662208557, -0.034855522215366364, 0.009387457743287086, -0.18524859845638275, 0.17599943280220032, -0.026148078963160515, 0.02852335385978222, 0.13607558608055115, -0.19203166663646698, -0.048299580812454224, -0.01979975774884224, 0.008844198659062386, 0.0025747884064912796, 0.03626762330532074, 0.017318222671747208, -0.06362661719322205, -0.047162123024463654, -0.15653108060359955, -0.01377546414732933, -0.14354397356510162, 0.004005881026387215, 0.171495258808136, -0.03576173633337021, -0.023771507665514946, -0.04559159278869629, 0.009504811838269234, -0.017497088760137558, 0.07414518296718597, -0.26245078444480896, -0.15514487028121948, 0.03451993316411972, -0.2242163121700287, -0.0334952250123024, 0.12560223042964935, 0.074969083070755, -0.11463911831378937, -0.063937708735466, 0.0035794228315353394, -0.05144907161593437, -0.043946847319602966, 0.03760804980993271, 0.005179673433303833, 0.13347801566123962, -0.06122756004333496, 0.022220125421881676], [-0.1971561163663864, 0.009696045890450478, -0.035008251667022705, -0.2440718561410904, -0.008552215993404388, 0.05858946591615677, -0.017997825518250465, -0.0734018012881279, 0.04862158000469208, 0.18891549110412598, -0.04342162609100342, -0.02599540911614895, 0.09770085662603378, -0.13520699739456177, -0.02424546144902706, -0.045334912836551666, 0.0347544401884079, 0.018725160509347916, -0.03721176087856293, 0.001963231712579727, -0.06163693219423294, -0.06369829177856445, -0.1152004823088646, -0.021598486229777336, 0.13211007416248322, 0.0077068377286195755, 0.2603064775466919, -0.039431966841220856, -0.06348766386508942, -0.12921865284442902, 0.06816281378269196, -0.05466859042644501, -0.027279285714030266, -0.2398359328508377, -0.20340000092983246, -0.0518336221575737, -0.2257310450077057, -0.0314330980181694, 0.025468716397881508, 0.00925602950155735, -0.11631595343351364, -0.03730934113264084, -0.037668727338314056, -0.0970366820693016, 0.04564730077981949, -0.014857584610581398, 0.00598568469285965, 0.08707482367753983, 0.005402715876698494, 0.04177995026111603], [-0.19208961725234985, -0.0900031179189682, -0.02374325320124626, -0.27383846044540405, -0.050367772579193115, 0.0004516616463661194, 0.0035252291709184647, 0.017268527299165726, 0.046330831944942474, 0.1270647495985031, 0.0044129882007837296, -0.03032325766980648, 0.08344050496816635, -0.1472988724708557, 0.08139297366142273, -0.11399627476930618, 0.03101121447980404, -0.019821342080831528, -0.02412131242454052, -0.04057016968727112, 0.050215281546115875, 0.04834764450788498, -0.07459706813097, -0.06664613634347916, 0.14946141839027405, 0.02367975562810898, 0.2331245094537735, -0.03413506597280502, -0.034827955067157745, -0.11756136268377304, 0.0999889150261879, 0.09170063585042953, -0.14302030205726624, -0.24167555570602417, -0.18578501045703888, 0.024016907438635826, -0.22886988520622253, -0.03816930949687958, -0.05865805596113205, 0.005682431161403656, -0.018775831907987595, 0.01597260870039463, -0.031801722943782806, -0.07580510526895523, -0.07003321498632431, -0.005544820800423622, -0.010236682370305061, 0.11819950491189957, -0.047253504395484924, -0.04760264605283737], [-0.09748142212629318, -0.07400446385145187, 0.008822696283459663, -0.23960913717746735, -0.0803447887301445, 0.04655636101961136, -0.025245366618037224, -0.021825706586241722, 0.14220693707466125, 0.10203563421964645, 0.0619727224111557, 0.04526056349277496, 0.058001503348350525, -0.08881660550832748, 0.007399294525384903, -0.07969849556684494, 0.004892788827419281, -0.043449729681015015, -0.009752223268151283, 0.0669013187289238, 0.05912277102470398, -0.0012064501643180847, -0.06931385397911072, -0.06811453402042389, -0.11577049642801285, 0.020125683397054672, 0.20674094557762146, -0.01289353147149086, 0.009883388876914978, -0.1150381788611412, 0.07677551358938217, 0.07945690304040909, -0.20333723723888397, -0.19086408615112305, -0.15181951224803925, -0.018723513931035995, -0.20442776381969452, 0.03927650302648544, -0.10536622256040573, 0.007268378511071205, 0.0525396391749382, 0.0040777940303087234, -0.07183385640382767, -0.07057144492864609, -0.022168105468153954, -0.03049737773835659, 0.0021064449101686478, -0.12756052613258362, -0.0451057106256485, -0.06600421667098999], [0.051608145236968994, -0.006606556475162506, 0.0852775126695633, -0.22939813137054443, -0.05975265055894852, -0.02589285746216774, -0.14610907435417175, 0.03182624280452728, 0.17755985260009766, -0.06380384415388107, 0.05435837805271149, 0.06768810749053955, 0.052115365862846375, -0.06543191522359848, -0.04375815391540527, 0.06781196594238281, 0.0026339590549468994, -0.07715330272912979, 0.05864933133125305, -0.00789160281419754, -0.06919243186712265, 0.04487819969654083, 0.13422036170959473, 0.02615601383149624, -0.16188684105873108, -0.04908531904220581, -0.003488415852189064, 0.047083780169487, 0.011431032791733742, -0.08455375581979752, 0.02572697587311268, -0.0038579776883125305, -0.30173543095588684, -0.20003445446491241, -0.025433888658881187, -0.0028074607253074646, -0.20381934940814972, -0.001063220202922821, -0.12589658796787262, -0.10139831155538559, 0.08801723271608353, -0.038519300520420074, -0.027374226599931717, -0.11156394332647324, 0.019843224436044693, -0.12386371940374374, 0.0429888591170311, -0.1619061380624771, -0.03657985478639603, -0.04512041062116623], [0.15882223844528198, -0.06061980128288269, 0.1426800638437271, -0.21724067628383636, -0.07285173237323761, 0.016077276319265366, -0.13048763573169708, 0.059244513511657715, -0.05116082727909088, -0.17424367368221283, 0.07934118062257767, 0.06794007867574692, 0.036680854856967926, -0.059888970106840134, -0.017333250492811203, 0.05906186252832413, 0.039652302861213684, -0.11005092412233353, 0.007621794939041138, -0.03926838934421539, 0.06483188271522522, 0.0627598837018013, 0.12252597510814667, 0.04345005005598068, -0.13327647745609283, -0.07923926413059235, -0.01973765715956688, 0.06536109000444412, -0.05425295978784561, 0.04409408941864967, -0.02330642007291317, -0.019361335784196854, -0.32369890809059143, -0.2134537696838379, 0.11068625003099442, -0.04008643329143524, -0.18333964049816132, 0.025643019005656242, -0.15636086463928223, 0.011188449338078499, 0.13278493285179138, -0.011920997872948647, -0.012597892433404922, -0.04024448245763779, -0.002569034695625305, -0.15057942271232605, -0.02777804248034954, -0.11136114597320557, 0.06654123216867447, -0.05096590518951416], [0.18267051875591278, 0.06550104916095734, 0.15171656012535095, -0.14954830706119537, -0.0494748055934906, -0.02555183880031109, -0.07902826368808746, -0.04989714175462723, -0.05329042673110962, -0.2908742129802704, -0.018965672701597214, 0.015948163345456123, 0.08108658343553543, -0.13704746961593628, 0.06918587535619736, 0.10824576765298843, -0.014286022633314133, -0.12359556555747986, 0.07490411400794983, -0.04944751411676407, -0.062237754464149475, -0.017842115834355354, 0.13874506950378418, 0.011968772858381271, -0.0655519962310791, -0.06154898554086685, 0.06869174540042877, 0.05893852561712265, 0.07513299584388733, 0.048565782606601715, 0.017966078594326973, -0.129329651594162, -0.24635300040245056, -0.16160306334495544, 0.0922934040427208, -0.07508794218301773, -0.020306121557950974, -0.04222818464040756, -0.1217123419046402, 0.02261590026319027, 0.14228785037994385, -0.0582083985209465, -0.015830034390091896, -0.029885059222579002, -0.014593573287129402, -0.1750909984111786, -0.07937361299991608, 0.13696874678134918, -0.06238700449466705, -0.046747542917728424], [0.13039395213127136, 0.025564951822161674, 0.06854048371315002, -0.017520183697342873, -0.0030032042413949966, -0.02383158914744854, -0.0996631532907486, 0.04330088198184967, 0.08987416326999664, -0.28562989830970764, -0.017670664936304092, 0.011000016704201698, 0.03508876636624336, -0.09451363980770111, 0.0029680822044610977, 0.10035939514636993, -0.028387179598212242, -0.13314789533615112, -0.07301253825426102, 0.0896608829498291, 0.06457572430372238, 0.02075234428048134, 0.14545069634914398, -0.027565544471144676, 0.19931139051914215, -0.056206248700618744, 0.06002451106905937, 0.07181882113218307, 0.03918519616127014, 0.07708276808261871, -0.019408147782087326, -0.1399528533220291, -0.06310354173183441, 0.1448407918214798, -0.020862828940153122, -0.04531262069940567, 0.08935405313968658, 0.037516720592975616, -0.14369724690914154, 0.08524374663829803, 0.11401680111885071, -0.056359678506851196, 0.02784956805408001, -0.060757189989089966, 0.06699497997760773, -0.1837538778781891, -0.039924487471580505, 0.15519212186336517, 0.03364624083042145, -0.005579361692070961], [-0.22521692514419556, -0.03168623894453049, 0.17659977078437805, 0.050915926694869995, -0.055393144488334656, 0.07150577008724213, -0.07391994446516037, 0.028608856722712517, 0.07383415102958679, -0.28297823667526245, 0.038984499871730804, 0.04516104608774185, 0.14650008082389832, -0.13678540289402008, -0.08023696392774582, 0.0683765783905983, -0.07924064248800278, -0.13383612036705017, 0.037463270127773285, 0.05826790630817413, 0.01566709205508232, 0.04929784685373306, 0.007252182811498642, 0.08526043593883514, 0.18109552562236786, -0.07400302588939667, 0.10654090344905853, 0.07635635882616043, -0.09352939575910568, 0.10126053541898727, -0.03841039538383484, -0.08243437856435776, 0.00490492582321167, 0.2470446676015854, -0.022405242547392845, 0.0521312952041626, 0.1751093715429306, 0.006790215149521828, 0.03691386431455612, 0.010882150381803513, 0.20705553889274597, -0.08391536772251129, 0.040911197662353516, -0.1388918161392212, -0.01650308445096016, -0.15187270939350128, -0.04386343061923981, 0.05305197834968567, -0.08391767740249634, -0.042994722723960876], [-0.21466489136219025, -0.07326211035251617, 0.13803553581237793, 0.027026547119021416, -0.0270069669932127, -0.08487067371606827, -0.04817576706409454, -0.06450187414884567, 0.01422225870192051, -0.05086744576692581, 0.007826440036296844, 0.049809530377388, 0.10732746124267578, -0.19177493453025818, 0.027912622317671776, 0.04046354442834854, 0.08448135852813721, -0.090817391872406, 0.0004012882709503174, 0.05765090137720108, 0.016497638076543808, 0.02307385765016079, 0.07628138363361359, -0.032333001494407654, -0.08318174630403519, -0.06108827888965607, 0.1434476226568222, 0.20973700284957886, -0.02891824208199978, -0.06987114250659943, 0.037890173494815826, -0.022953154519200325, 0.02423246018588543, 0.17343993484973907, 0.042492277920246124, -0.06281501799821854, 0.13242405652999878, 0.028874317184090614, 0.04555092751979828, -0.04704035818576813, 0.1525045484304428, -0.07361702620983124, 0.06426894664764404, -0.07390175014734268, 0.02955533377826214, -0.11998365074396133, 0.0643855407834053, 0.01353912428021431, -0.020909223705530167, -0.057472795248031616], [-0.21756550669670105, -0.003849165514111519, 0.10763007402420044, 0.06677623093128204, -0.05254111811518669, -0.004034603014588356, 0.002139223739504814, -0.05665411055088043, -0.046846985816955566, -0.009338723495602608, -0.032216042280197144, -0.01482124999165535, -0.028854915872216225, -0.31195691227912903, 0.04127069562673569, 0.00157243013381958, -0.03397000581026077, -0.025458065792918205, -0.06320895999670029, -0.03954564034938812, -0.015641387552022934, 0.03367742896080017, 0.10677164793014526, 0.0376460924744606, -0.05893712118268013, -0.04999756067991257, 0.15760956704616547, 0.23541943728923798, 0.037393078207969666, -0.14827048778533936, -0.013770552352070808, 0.06898558139801025, 0.006173409521579742, 0.15743941068649292, 0.08588115870952606, 0.013818446546792984, 0.06644001603126526, -0.02941090427339077, 0.14873449504375458, 0.07035676389932632, 0.12223130464553833, -0.10424018651247025, 0.032430119812488556, -0.07664011418819427, 0.04884149134159088, -0.11342412233352661, -0.01869204267859459, -0.11548516899347305, 0.06567464768886566, 0.05491805076599121], [-0.1698945015668869, -0.07230215519666672, 0.18466217815876007, 0.09411191195249557, -0.07505939900875092, -0.04021432250738144, 0.023501884192228317, 0.08003400266170502, -0.04633631557226181, -0.01501632109284401, -0.013117466121912003, -0.06530552357435226, -0.11783601343631744, -0.32721057534217834, 0.03908807039260864, 0.0309839379042387, -0.02884315513074398, -0.03763478994369507, 0.027499040588736534, -0.04942351579666138, 0.03193958103656769, 0.05768144130706787, 0.09040296077728271, -0.010105486959218979, -0.0883028581738472, 0.03485362231731415, 0.20163796842098236, 0.2942901849746704, 0.040090128779411316, -0.13331133127212524, 0.05395390838384628, 0.12518683075904846, -0.22834303975105286, -0.11853086948394775, 0.06386865675449371, -0.001273076981306076, 0.0335184782743454, 0.049190156161785126, 0.17143648862838745, -0.02286560647189617, 0.1920960694551468, -0.1822889894247055, 0.015327926725149155, -0.04876688867807388, 0.04651526361703873, -0.008665487170219421, 0.0370384156703949, -0.14971989393234253, -0.013702813535928726, -0.01815769076347351], [-0.03115934692323208, -0.0019484777003526688, 0.17727570235729218, 0.1618146151304245, -0.12902432680130005, 0.0007425826042890549, 0.01754509098827839, -0.05536508560180664, 0.003437347710132599, 0.0062937866896390915, 0.011805128306150436, -0.047632403671741486, -0.10976255685091019, -0.3412565290927887, 0.018019165843725204, 0.0718155950307846, -0.04918970912694931, 0.054032936692237854, 0.07097027450799942, 0.01637757197022438, 0.03239995986223221, 0.052735716104507446, 0.03865405172109604, -0.01133173331618309, -0.054376550018787384, 0.10132376104593277, -0.08752229064702988, 0.25419214367866516, 0.005555188283324242, -0.0699787437915802, 0.008880114182829857, -0.10126153379678726, -0.2534642517566681, -0.07435797899961472, -0.06229811906814575, -0.06827707588672638, 0.022090410813689232, 0.01044485904276371, 0.09637702256441116, -0.0701972246170044, 0.1601090282201767, -0.0584305003285408, -0.05113578587770462, 0.03814756125211716, -0.020634572952985764, 0.032451801002025604, 0.02566157840192318, 0.0009332243353128433, -0.014167319983243942, -0.03126973658800125], [-0.04336833953857422, -0.04040487855672836, 0.11326105892658234, 0.17451342940330505, -0.1299770176410675, -0.021038059145212173, 0.02778181992471218, -0.03527158498764038, -0.0320575013756752, -0.051680274307727814, -0.005803270265460014, 0.02604012005031109, -0.06847712397575378, -0.2959980368614197, 0.031121661886572838, 0.006495162844657898, 0.03492540121078491, 0.018961403518915176, -0.07939914613962173, 0.03640984743833542, -0.020131517201662064, -0.04411694407463074, 0.05416177213191986, -0.0514865443110466, -0.030034905299544334, 0.03687175363302231, -0.04820507764816284, -0.05163674056529999, -0.006929738447070122, -0.07046382129192352, -0.002247922122478485, -0.2445622831583023, -0.20242643356323242, -0.06102229654788971, -0.18466080725193024, 0.03004474751651287, 0.03806816413998604, 0.02485242299735546, 0.04101914167404175, -0.024948595091700554, 0.14743973314762115, 0.14251849055290222, 0.004383528605103493, 0.05076869577169418, 0.010258520022034645, 0.06413878500461578, 0.053265705704689026, 0.07072221487760544, -0.057040199637413025, -0.02020292356610298], [0.06640977412462234, -0.0207982175052166, 0.06935153156518936, 0.18573735654354095, -0.114254891872406, 0.07900001108646393, 0.13784083724021912, 0.005537025630474091, -0.03622644394636154, -0.11593930423259735, 0.028361661359667778, 0.06305412203073502, -0.009268658235669136, -0.28455227613449097, 0.03769931197166443, -0.06878367811441422, 0.021604618057608604, -0.013852957636117935, 0.01193385198712349, 0.03477763384580612, 0.08292555809020996, 0.07965011894702911, 0.07658986002206802, 0.016609176993370056, -0.04557190090417862, 0.046597205102443695, 0.014867350459098816, -0.0039071980863809586, 0.0405503585934639, -0.014660710468888283, 0.08325556665658951, -0.2543916702270508, 0.11209965497255325, -0.03300759196281433, -0.202428936958313, 0.07037025690078735, -0.00981164164841175, 0.03988727927207947, 0.03847924619913101, -0.04902338236570358, -0.010658131912350655, 0.15212395787239075, -0.06332456320524216, 0.06839455664157867, -0.06382139027118683, 0.06970322132110596, -0.016222193837165833, 0.10118504613637924, 0.032295867800712585, 0.040546782314777374], [0.07250525802373886, -0.06980404257774353, 0.018570076674222946, 0.21079877018928528, -0.07191997021436691, 0.007276695221662521, 0.17326170206069946, -0.02126470021903515, -0.00684029795229435, -0.10937216132879257, 0.08160174638032913, 0.047104403376579285, 0.022790459915995598, -0.08940702676773071, 0.09109202772378922, -0.06730619817972183, 0.09126100689172745, -0.07044730335474014, 0.010247798636555672, 0.03713546693325043, 0.03065367601811886, 0.024077756330370903, 0.21023452281951904, -0.014830533415079117, 0.010418223217129707, 0.015216503292322159, 0.043199896812438965, 0.10437056422233582, 0.05955595523118973, 0.11936859786510468, 0.09832412004470825, -0.1839701384305954, 0.15918667614459991, 0.0163864903151989, -0.18538548052310944, -0.037948206067085266, 0.015186639502644539, -0.024060135707259178, 0.0636812075972557, -7.003545761108398e-05, -0.07259197533130646, 0.1543625146150589, 0.04046693444252014, 0.08600828796625137, -0.003189854323863983, 0.021891316398978233, 0.05502365529537201, -0.026703735813498497, -0.04844672232866287, -0.02345307730138302], [-0.0593956783413887, 0.07234752923250198, 0.01497218944132328, 0.11301439255475998, -0.05891378968954086, -0.03004240058362484, 0.16255909204483032, -0.024713603779673576, 0.15807518362998962, -0.08996420353651047, -0.0010852962732315063, -0.05775131285190582, -0.0882764384150505, -0.04871688038110733, 0.0050965044647455215, -0.1458595246076584, 0.048165611922740936, -0.02489199861884117, 0.005136111751198769, 0.029310470446944237, 0.050143927335739136, -0.005480105057358742, 0.2637324929237366, -0.022193973883986473, 0.059630900621414185, 0.01051819883286953, 0.04092478007078171, 0.11451713740825653, 0.05197744816541672, 0.12285152822732925, -0.005310684442520142, -0.1548800766468048, 0.18387523293495178, -0.018367210403084755, -0.031609319150447845, -0.008950503543019295, 0.048015810549259186, 0.048517338931560516, 0.059347786009311676, 0.04856134206056595, -0.10615701228380203, 0.09228228777647018, 0.07789924740791321, 0.13028475642204285, -0.021166663616895676, 0.013520115986466408, -0.04975557327270508, 0.015414159744977951, 0.018689509481191635, 0.02387753687798977], [-0.0659145712852478, -0.019239988178014755, 0.004779040813446045, 0.03483964502811432, -0.10892101377248764, 0.05443376302719116, 0.24279041588306427, -0.03898642212152481, 0.1765671968460083, -0.13378426432609558, 0.019813161343336105, 0.04212681204080582, -0.1399407535791397, 0.009019965305924416, 0.015516828745603561, -0.14194197952747345, -0.06654342263936996, 0.13254967331886292, 0.0575300008058548, 0.02554822713136673, -0.0564349964261055, 0.0682428851723671, 0.17231495678424835, 0.03409358859062195, 0.053979501128196716, 0.03704746440052986, -0.0452137216925621, 0.1457822322845459, -0.051620543003082275, 0.15355420112609863, 0.0050003789365291595, -0.08027980476617813, 0.1686173528432846, 0.0823616236448288, 0.031014328822493553, -0.005699941888451576, 0.036780305206775665, -0.032038092613220215, -0.04970899969339371, -0.03340686112642288, -0.050133757293224335, -0.14423470199108124, 0.016597822308540344, 0.02651878073811531, -0.032817989587783813, -0.07886024564504623, -0.04700201749801636, 0.008822271600365639, -0.05345539003610611, -0.03255310654640198], [-0.030223457142710686, 0.028619175776839256, 0.032263822853565216, 0.050801604986190796, -0.1528089940547943, -0.02718270570039749, 0.25511252880096436, -0.006939200684428215, 0.17410193383693695, -0.1360325813293457, -0.01736275479197502, 0.060486048460006714, -0.15990665555000305, 0.1000615581870079, 0.04031277447938919, -0.14151126146316528, -0.04206918925046921, 0.16670793294906616, 0.0026754140853881836, -0.04570569843053818, 0.02364409528672695, -0.020252209156751633, 0.17377027869224548, -0.05512087047100067, 0.01761782541871071, 0.0072935838252305984, 0.06954634189605713, 0.15973733365535736, -0.03173533082008362, 0.1918906718492508, 0.028586475178599358, -0.12170302122831345, 0.10919546335935593, 0.04773261398077011, 0.022986864671111107, 0.041063033044338226, 0.031253665685653687, -0.006293589249253273, -0.09214477986097336, 0.03987529128789902, 0.0853433832526207, -0.149619460105896, -0.03730695694684982, -0.12813052535057068, -0.08815766870975494, -0.10250061005353928, 0.022785915061831474, -0.007498519495129585, 0.010206582024693489, -0.017619889229536057], [0.04849095642566681, -0.012021820992231369, -0.07589773088693619, -0.016039777547121048, -0.1107671707868576, -0.05532374978065491, 0.2914208769798279, -0.012130971997976303, 0.12511934340000153, -0.04208090528845787, -0.00851559080183506, -0.006144249811768532, 0.027458231896162033, 0.16987229883670807, -0.050869472324848175, -0.09449461102485657, -0.01478174701333046, 0.1493951678276062, 0.0646810308098793, 0.0006538610905408859, -0.024584775790572166, 0.017269369214773178, 0.10925045609474182, 0.0045823100954294205, -0.13765273988246918, 0.04536936432123184, 0.016321148723363876, 0.21059660613536835, -0.02486574463546276, 0.12433885037899017, 0.09973755478858948, -0.06739997863769531, 0.06388118118047714, 0.1542317420244217, -0.02538473717868328, -0.029253197833895683, 0.02355056069791317, 0.019771412014961243, -0.12300709635019302, 0.041900694370269775, 0.09385830163955688, -0.07239142060279846, -0.025612561032176018, -0.17065103352069855, 0.04313003271818161, -0.06355022639036179, 0.03481411933898926, 0.11785496771335602, 0.06669671833515167, -0.003818674013018608], [0.04264805465936661, 0.002239050343632698, -0.11134003102779388, 0.040985606610774994, 0.04623086750507355, 0.0061559248715639114, 0.27537623047828674, 0.011586908251047134, 0.05691042169928551, -0.030809147283434868, 0.07065021246671677, -0.043641187250614166, 0.0302207600325346, 0.21660031378269196, 0.006606727838516235, 0.0038381386548280716, -0.030180765315890312, 0.05875932425260544, 0.0018143244087696075, 0.01535191759467125, 0.030054917559027672, 0.03473350405693054, 0.05031206086277962, -0.02445857785642147, -0.20598942041397095, 0.030527645722031593, -0.15134519338607788, 0.23477783799171448, 0.07268278300762177, 0.11266055703163147, -0.005256997421383858, -0.06574597954750061, 0.0533650666475296, 0.12179473787546158, -0.01936184987425804, -0.07470758259296417, 0.07260926812887192, -0.015446130186319351, -0.16369348764419556, 0.007258126512169838, 0.057007234543561935, -0.09205109626054764, 0.023199958726763725, 0.01448848471045494, -0.01723143458366394, -0.018232855945825577, -0.03233462572097778, 0.02858675643801689, -0.06277742236852646, -0.055455125868320465], [-0.03785354644060135, 0.04222647845745087, -0.10537224262952805, 0.15233157575130463, 0.013997072353959084, 0.008447885513305664, 0.1101578027009964, 0.06273990869522095, 0.02861914597451687, 0.210354283452034, 0.047929733991622925, -0.0036607682704925537, 0.07110518217086792, 0.2805559039115906, 0.06231456249952316, -0.012516621500253677, 0.0041556525975465775, 0.11498893052339554, 0.0470513179898262, -0.010157743468880653, -0.009735124185681343, 0.005461245775222778, 0.035794757306575775, 0.0427916944026947, -0.20115873217582703, 0.0575665682554245, -0.17262835800647736, 0.22130265831947327, -0.0672166645526886, 0.06460777670145035, 0.001599060371518135, -0.1178772896528244, 0.08289505541324615, 0.1292848140001297, -0.035540468990802765, -0.012098338454961777, -0.11436063051223755, -0.01834810897707939, -0.1666158139705658, 0.03966889530420303, -0.03695235401391983, -0.0934281274676323, -0.05109383165836334, -0.021467309445142746, 0.008562378585338593, 0.00758093036711216, 0.06410752236843109, -0.012415686622262001, -0.021742945536971092, -0.036231935024261475], [-0.11438009142875671, 0.03625015914440155, -0.1398901343345642, 0.15850110352039337, -0.009464124217629433, -0.028221873566508293, 0.08260942995548248, -0.029851621016860008, 0.023791836574673653, 0.17171610891819, 0.06508765369653702, 0.0016045588999986649, 0.06862285733222961, 0.31799638271331787, 0.04724879562854767, -0.01902450993657112, -0.02112206071615219, 0.13363774120807648, -0.026370493695139885, -0.01731494441628456, 0.0361776128411293, -0.028047366067767143, -0.036511313170194626, 0.006918827071785927, -0.20455974340438843, 0.03496653214097023, -0.08789865672588348, 0.23674899339675903, -0.054694876074790955, -0.008628210052847862, -0.0751340240240097, -0.12656204402446747, 0.08641558885574341, 0.03404346853494644, -0.015699375420808792, -0.03182103484869003, -0.12530778348445892, 0.00901203416287899, -0.18977387249469757, 0.04197635501623154, -0.03311799839138985, -0.09977595508098602, -0.07449201494455338, -0.03496168553829193, -0.032795242965221405, -0.08011047542095184, -0.04794260114431381, -0.05278586968779564, 0.00046750158071517944, 0.029212618246674538], [-0.07095196843147278, -0.026683522388339043, -0.145285964012146, 0.18078649044036865, 0.09210936725139618, -0.0652482807636261, -0.1499565988779068, 0.027333607897162437, 0.020395997911691666, 0.17638976871967316, -0.0036056414246559143, 0.030490873381495476, 0.03335317224264145, 0.30331313610076904, -0.05269179493188858, -0.006136180832982063, -0.045534901320934296, 0.10768510401248932, 0.006139518693089485, 0.05787377059459686, 0.01932101510465145, 0.08392778038978577, -0.028904687613248825, 0.07871107012033463, -0.18025489151477814, 0.12596629559993744, -0.1000056117773056, 0.16297651827335358, -0.03684195131063461, -0.10028306394815445, -0.0839226096868515, -0.1417284905910492, 0.1163705363869667, -0.11219075322151184, -0.1542743742465973, -0.06528355181217194, -0.08576395362615585, -0.056840747594833374, -0.1709609031677246, -0.022234050557017326, -0.00938100554049015, -0.0018619317561388016, 0.009579049423336983, -0.057604022324085236, -0.0037211794406175613, -0.18555983901023865, 0.010957261547446251, -0.10208835452795029, -0.019819587469100952, -0.007181430235505104], [-0.011490840464830399, 0.06043383479118347, 0.03827984631061554, 0.22491714358329773, 0.06023158133029938, -0.07553624361753464, -0.14317966997623444, 0.021846657618880272, -0.013636503368616104, 0.1261530965566635, 0.05249990522861481, 0.002531178295612335, -0.07247315347194672, 0.3540480434894562, -0.02911352925002575, -0.13553598523139954, 0.02233993075788021, 0.08853909373283386, 0.047340646386146545, 0.05400749295949936, 0.027016228064894676, -0.05443974584341049, 0.1131538599729538, -0.050856754183769226, 0.03450118005275726, 0.0923265814781189, -0.14122997224330902, 0.06685438752174377, -0.06920573115348816, -0.03203071653842926, -0.07293770462274551, -0.12661296129226685, 0.08078539371490479, -0.17426811158657074, -0.12579016387462616, -0.006793476641178131, -0.04646177589893341, -0.04295261204242706, -0.14699819684028625, -0.017795952036976814, 0.163445383310318, 0.037393830716609955, 0.06507521867752075, -0.029536185786128044, 0.04761373996734619, -0.19800910353660583, 0.008095616474747658, -0.08787262439727783, 0.0676984190940857, -0.011609578505158424], [0.06632231175899506, -0.007869130000472069, -0.0008294451981782913, 0.2612123191356659, -0.0006038099527359009, 0.048024363815784454, -0.09394297003746033, -0.050795502960681915, 0.03086211159825325, -0.12897850573062897, -0.00997091643512249, 0.047764040529727936, -0.08408185839653015, 0.33687010407447815, -0.05610894411802292, -0.12723203003406525, -0.0035397130995988846, 0.03871355950832367, -0.005836939439177513, -0.06747700273990631, 0.0027409810572862625, 0.06603126972913742, 0.14156082272529602, -0.04827674478292465, 0.16298511624336243, 0.06100213900208473, -0.16745249927043915, 0.08391843736171722, 0.04709585756063461, -0.025772592052817345, -0.03011239506304264, -0.044642373919487, 0.1021946519613266, -0.15060874819755554, 0.0006923303008079529, -0.027026591822504997, -0.04847011715173721, 0.07157418131828308, -0.020944159477949142, 0.06336311250925064, 0.20181840658187866, 0.07244245707988739, 0.07451947033405304, -0.02147040329873562, -0.018612917512655258, -0.2098328024148941, 0.019138891249895096, -0.14238040149211884, -0.02183586172759533, -0.0029124487191438675], [0.09362636506557465, -0.024319691583514214, -0.03453609347343445, 0.19759932160377502, 0.14879237115383148, 0.0388057604432106, -0.08134356141090393, 0.015294637531042099, -0.0018655825406312943, -0.18172894418239594, -0.022589286789298058, 0.01813032105565071, -0.0610588937997818, 0.31484296917915344, -0.010977523401379585, -0.08071399480104446, 0.007252516224980354, -0.11371564865112305, -0.004282170906662941, -0.08329510688781738, -0.019659433513879776, 0.01830126717686653, 0.09330853074789047, -0.007995972409844398, 0.10004866868257523, 0.019257280975580215, -0.13268372416496277, 0.07291299104690552, -0.0323147177696228, 0.069446861743927, -0.02827187441289425, 0.04756090044975281, 0.050643786787986755, -0.1243894025683403, 0.18398025631904602, -0.013541575521230698, 0.035193681716918945, -0.04299848526716232, -0.028902923688292503, 0.031575463712215424, 0.14126984775066376, 0.0677473247051239, -0.046682290732860565, 0.10904847085475922, -0.0021661799401044846, -0.11077430844306946, -0.0633280798792839, -0.12430620193481445, 0.02546696923673153, -0.035299234092235565], [0.05306181311607361, -0.010428378358483315, -0.013390850275754929, 0.16438162326812744, 0.10437285155057907, 0.07500520348548889, -0.08262427151203156, 0.002745719626545906, -0.026877297088503838, -0.14861971139907837, 0.03703206777572632, 0.0218427162617445, -0.028746603056788445, 0.2868535816669464, 0.058554403483867645, -0.06937173753976822, -0.06376791000366211, -0.038331225514411926, -0.053691960871219635, -0.05594249814748764, 0.07282133400440216, -0.0515790656208992, 0.09062349051237106, -0.035508088767528534, 0.13494020700454712, 0.04040021449327469, -0.11250942945480347, 0.15715943276882172, 0.027767522260546684, 0.11672993749380112, -0.07202747464179993, 0.10706302523612976, 0.010043332353234291, 0.05539959669113159, 0.23062919080257416, 0.05140284448862076, 0.0989559069275856, -0.010752828791737556, -0.05666830390691757, -0.042472414672374725, 0.0957753136754036, -0.014998752623796463, -0.0059228260070085526, 0.041780777275562286, -0.04259569197893143, 0.05702529102563858, -0.023184916004538536, -0.14361324906349182, -0.06555932760238647, -0.0634855329990387], [0.061309970915317535, 0.035827912390232086, -0.0037959981709718704, 0.04289010167121887, 0.1078711450099945, 0.0366036519408226, -0.04600416123867035, -0.06540339440107346, -0.019316116347908974, -0.17716506123542786, 0.03259041905403137, 0.06989214569330215, -0.08955872058868408, 0.3255821168422699, -0.07276270538568497, -0.022183407098054886, 0.010537201538681984, -0.05946049839258194, 0.05527329444885254, -0.03816816955804825, -0.011253643780946732, -0.03617077320814133, 0.11759747564792633, 0.05588669329881668, 0.15569251775741577, 0.017291368916630745, -0.06781020015478134, 0.16710254549980164, 0.01410069689154625, 0.0659317672252655, -0.026192447170615196, 0.09542477130889893, 0.059325188398361206, 0.1726575642824173, 0.23424434661865234, 0.06386242061853409, 0.09066906571388245, -0.028695201501250267, 0.07247505336999893, 0.011205879971385002, 0.0014985911548137665, 0.011439274996519089, 0.01896657422184944, -0.05937286466360092, -0.07537170499563217, 0.10801044851541519, -0.04226471483707428, -0.13532502949237823, -0.01220059022307396, -0.00733032263815403], [0.10898087173700333, -0.04592115432024002, -0.11179190874099731, -0.0051767248660326, 0.16085250675678253, 0.04902483522891998, 0.010363953188061714, -0.0007279962301254272, -0.005934670567512512, -0.15074656903743744, -0.009486423805356026, -0.028628526255488396, -0.04922129213809967, 0.2719479203224182, 0.004494786262512207, -0.14726921916007996, 0.0035551786422729492, -0.11604009568691254, 0.026039771735668182, 0.007623786106705666, 0.06140151619911194, -0.03964467719197273, 0.12453486025333405, -0.08415798097848892, 0.13097180426120758, -0.03636305034160614, 0.005491824820637703, 0.10657793283462524, 0.08104897290468216, 0.06575067341327667, -0.018850449472665787, 0.08969427645206451, 0.10302780568599701, 0.19454562664031982, 0.2060404270887375, -0.019525960087776184, 0.0584733709692955, 0.08248890191316605, 0.10224603861570358, -0.0637359470129013, -0.12132438272237778, -0.018174920231103897, 0.015026111155748367, -0.0816560760140419, -0.041928842663764954, 0.27283594012260437, -0.021460000425577164, -0.07773377746343613, 0.06387019902467728, -0.0044251009821891785], [0.019278671592473984, -0.07270737737417221, -0.12214172631502151, -0.0348452553153038, 0.08039357513189316, -0.03076973371207714, 0.13113288581371307, 0.01948411390185356, -0.05334172397851944, -0.05151938647031784, -0.03430347144603729, -0.0010024122893810272, 0.08533424139022827, -0.04282335937023163, -0.023320196196436882, -0.09768123179674149, -0.0006170682609081268, -0.06108789145946503, -0.034839928150177, -0.031012943014502525, -0.07744930684566498, 0.00574474036693573, 0.13906176388263702, -0.07950558513402939, 0.11589842289686203, 0.008344173431396484, 0.010803187265992165, 0.08675575256347656, -0.0186358280479908, 0.051937006413936615, -0.008162364363670349, 0.1907065361738205, 0.10060043632984161, 0.20067521929740906, 0.1676718294620514, -0.010330231860280037, 0.0498465821146965, 0.018202316015958786, 0.11243735253810883, 0.007816832512617111, -0.23274818062782288, -0.004407428205013275, -0.008744994178414345, 0.028935564681887627, 0.03283204138278961, 0.27398571372032166, 0.059907570481300354, -0.10287067294120789, 0.04471622407436371, -0.08240849524736404], [-0.15545333921909332, 0.028292542323470116, -0.15964271128177643, -0.01747315004467964, 0.06813865900039673, -0.058352917432785034, 0.22002257406711578, 0.013741100206971169, -0.11037810146808624, -0.022202586755156517, -0.041942477226257324, -0.00901767797768116, 0.07405440509319305, -0.024172766134142876, 0.0185436699539423, -0.10981817543506622, 0.08492311835289001, -0.004993336275219917, 0.07634188234806061, -0.027584826573729515, -0.020769592374563217, 0.05614642798900604, 0.11622633039951324, -0.03858961910009384, 0.17918221652507782, 0.017731014639139175, -0.085283562541008, 0.03812986612319946, -0.02556135319173336, 0.0671425461769104, 0.030249109491705894, 0.2380254864692688, 0.10499100387096405, 0.23796027898788452, 0.12459379434585571, -0.08312860131263733, 0.11030694842338562, 0.0725717544555664, -0.01714545115828514, -0.058867886662483215, -0.24259911477565765, -0.03312624245882034, -0.004184365272521973, 0.0025098565965890884, 0.04880475252866745, 0.08752189576625824, -0.030446020886301994, -0.0997694730758667, 0.028015105053782463, -0.004289165139198303], [-0.14534081518650055, -0.05064938962459564, -0.14330212771892548, 0.009028235450387001, -0.011948991566896439, 0.021718217059969902, 0.19871321320533752, 0.046693556010723114, -0.11456717550754547, -0.04318033903837204, 0.061207473278045654, 0.06203337758779526, 0.13964103162288666, 0.0707961842417717, 0.07042189687490463, -0.09226182103157043, -0.02741899900138378, 0.009507754817605019, -0.025041474029421806, 0.02916412614285946, 0.06293665617704391, 0.011887550354003906, 0.1228848397731781, -0.05051489174365997, 0.1610492616891861, -0.19530239701271057, -0.0889500230550766, 0.12065449357032776, -0.032451122999191284, 0.08256758749485016, 0.08427868783473969, 0.23305244743824005, 0.035601936280727386, 0.22028601169586182, 0.11027296632528305, -0.03150012344121933, 0.1786828339099884, 0.06023527681827545, -0.015083476901054382, 0.05744684487581253, -0.1922796070575714, -0.060934677720069885, -0.03655295819044113, -0.03670649230480194, -0.0622258335351944, 0.06012207642197609, 0.04233314096927643, -0.0449928417801857, -0.04110153764486313, -0.06446462869644165], [0.054076649248600006, -0.032063111662864685, -0.16483838856220245, 0.03944189101457596, 0.027053510770201683, 0.0411650612950325, 0.03420189023017883, 0.05549752712249756, -0.11254359781742096, 0.0345335379242897, -0.06178741902112961, -0.06004142016172409, 0.11944912374019623, 0.07162235677242279, -0.02198244445025921, -0.047548092901706696, -0.0028730183839797974, 0.03637801855802536, -0.06129423528909683, -0.06541524827480316, 0.001665305346250534, 0.02775499038398266, -0.022327622398734093, 0.037846148014068604, 0.08782942593097687, -0.19185827672481537, -0.1468360871076584, 0.15678875148296356, 0.002179102972149849, 0.14308911561965942, 0.08948555588722229, 0.22558219730854034, -0.17725870013237, -0.1467762142419815, 0.125167578458786, -0.002962792292237282, -0.15234819054603577, 0.036879412829875946, -0.06696291267871857, 0.06210531294345856, -0.20549443364143372, -0.03816504776477814, 0.02295440249145031, -0.12368070334196091, -0.05346175283193588, -0.21375343203544617, -0.029462715610861778, -0.048647135496139526, -0.016332410275936127, 0.06785570085048676], [0.06736408174037933, -0.03976672887802124, -0.10401801764965057, 0.025396307930350304, 0.007018813863396645, 0.02689105086028576, 0.04059480130672455, 0.009822411462664604, -0.018157387152314186, 0.043333716690540314, 0.06318997591733932, -0.0023262444883584976, 0.08697198331356049, 0.0645810067653656, 0.03594805300235748, -0.005929678678512573, 0.060781508684158325, 0.028626127168536186, 0.045194052159786224, -0.012179264798760414, -0.0746200680732727, -0.04079175740480423, -0.05831465125083923, -0.0046006180346012115, 0.04384015500545502, -0.15436296164989471, -0.20047320425510406, 0.1764587014913559, -0.01870698854327202, 0.1530328243970871, -0.04457983374595642, 0.1996789425611496, -0.2027858942747116, -0.1343083530664444, -0.008394571021199226, -0.0036360397934913635, -0.18557550013065338, -0.042376548051834106, -0.0790131613612175, 0.05211222171783447, -0.14033111929893494, -0.05374981835484505, -0.044240400195121765, -0.12466464936733246, 0.05267692357301712, -0.24293148517608643, 0.034013450145721436, -0.043922409415245056, 0.05455736070871353, -0.038625575602054596], [0.0733175054192543, 0.09028282016515732, -0.07414370775222778, -0.10193424671888351, -0.0427919402718544, -0.0002314634621143341, 0.052000246942043304, -0.06765881180763245, -0.04549214988946915, 0.021590624004602432, 0.02176920883357525, -0.004365600645542145, 0.15153685212135315, 0.009411448612809181, -0.10075090080499649, 0.1068095713853836, -0.007482059299945831, 0.00266113318502903, 0.008073868229985237, 0.07172039151191711, 0.01466716080904007, -0.0006081201136112213, -0.08672468364238739, -0.013112645596265793, -0.009761558845639229, 0.02074282243847847, -0.19728991389274597, 0.2550193667411804, 0.004631685093045235, -0.08205672353506088, -0.046864718198776245, 0.20395232737064362, -0.11126421391963959, -0.055590078234672546, -0.007384518161416054, 0.01215144619345665, -0.13405565917491913, 0.026484129950404167, -0.05499078333377838, 0.0406184121966362, -0.12420240789651871, -0.17895708978176117, 0.021677201613783836, 0.0930924266576767, -0.043297283351421356, -0.1869540810585022, 0.001791439950466156, 0.0667198896408081, 0.008555280044674873, -0.03325267881155014], [0.017021019011735916, -0.0174015574157238, -0.08108805865049362, -0.1253860592842102, -0.03611457347869873, 0.046740323305130005, 0.08939816802740097, -0.043541841208934784, -0.017920423299074173, 0.03395453095436096, -0.00785333663225174, 0.04527632147073746, 0.20045006275177002, -0.005710400640964508, 0.06021825969219208, 0.11955764889717102, -0.041813187301158905, 0.04527151957154274, -0.015526842325925827, -0.014749031513929367, 0.023915579542517662, -0.03272683173418045, -0.13407255709171295, -0.006226824596524239, -0.10501669347286224, 0.09162536263465881, -0.20812682807445526, 0.23899202048778534, 0.03234162926673889, -0.11720045655965805, -0.09374411404132843, 0.17582236230373383, -0.11954963952302933, -0.00653117336332798, -0.04569520056247711, 0.01172586902976036, 0.13366524875164032, 0.0639977753162384, 0.13822896778583527, 0.051134638488292694, -0.06361814588308334, -0.20255425572395325, -0.05512293428182602, 0.1542518138885498, 0.022093867883086205, 0.058590956032276154, 0.07406226545572281, 0.04706142097711563, -0.018400225788354874, -0.023435479030013084], [0.0076574236154556274, -0.0005782730877399445, -0.09693524241447449, -0.13171134889125824, -0.0010132715106010437, 0.04494265466928482, 0.05429533123970032, 0.026713786646723747, -0.008021170273423195, 0.13924691081047058, 0.07608151435852051, -0.031454697251319885, 0.1129312515258789, 0.04378026723861694, 0.008864747360348701, -0.13506022095680237, 0.005311319604516029, 0.01885804906487465, 0.02995911054313183, 0.05166669934988022, 0.01867123320698738, -0.07564744353294373, -0.06557820737361908, -0.01299716904759407, -0.08382245153188705, 0.02837258391082287, -0.19618403911590576, 0.241385817527771, 0.08000166714191437, -0.07633168995380402, -0.05960182845592499, 0.14991970360279083, -0.058909617364406586, 0.0876307412981987, 0.05608626455068588, -0.011256899684667587, 0.1399237960577011, 0.05180059373378754, 0.0835811123251915, 0.06463325768709183, -0.15356330573558807, -0.1627795696258545, -0.013053309172391891, 0.18307340145111084, -0.03557804971933365, 0.059721074998378754, 0.0593491867184639, -0.16299130022525787, 0.018054146319627762, 0.052477821707725525], [-0.0965506061911583, 0.03015734814107418, -0.13351398706436157, -0.1693299263715744, 0.13558946549892426, -0.015869203954935074, -0.0007488727569580078, 0.025938620790839195, 0.04526326060295105, 0.11730640381574631, -0.06646624952554703, -0.028590945526957512, 0.08625249564647675, -0.04052755981683731, 0.044888004660606384, 0.013838943094015121, 0.06239372491836548, -0.1893773078918457, 0.026087602600455284, 0.04409918189048767, 0.023180020973086357, 0.0020016655325889587, -0.07776708155870438, 0.038706690073013306, -0.1130581870675087, 0.04796065017580986, -0.18775102496147156, 0.2270718216896057, -0.060320138931274414, 0.04171840101480484, 0.017394203692674637, 0.01619570329785347, -0.018207784742116928, 0.1374303251504898, -0.09209496527910233, -0.056341685354709625, -0.11097480356693268, -0.030833600088953972, 0.08097870647907257, -0.033857159316539764, -0.018511701375246048, -0.1026252806186676, 0.0782741978764534, 0.003982173278927803, 0.032427117228507996, 0.189970925450325, -0.0423523411154747, -0.18564437329769135, -0.005855405703186989, 0.057678185403347015], [-0.035571664571762085, -0.020047258585691452, -0.16738592088222504, -0.144154891371727, 0.08895394951105118, 0.07493211328983307, -0.010224780067801476, -0.050447553396224976, 0.012164266780018806, 0.04045884311199188, -0.045085422694683075, -0.024605130776762962, 0.07235153764486313, -0.08852673321962357, -0.05692610889673233, 0.069094717502594, -0.03043532185256481, -0.11472472548484802, 0.06537710875272751, -0.052378810942173004, -0.07427548617124557, -0.05835648626089096, -0.051527462899684906, -0.05928301066160202, -0.1135573610663414, 0.03709261119365692, -0.23408576846122742, 0.24057653546333313, -0.03971264511346817, -0.11447399109601974, 0.027352850884199142, -0.05549169331789017, -0.07915004342794418, 0.10361433774232864, -0.03513532876968384, -0.06137577444314957, -0.06134050339460373, -0.04386979341506958, 0.055168382823467255, 0.0007324088364839554, 0.18260766565799713, -0.10812749713659286, 0.011212656274437904, -0.026213837787508965, 0.005594685673713684, 0.23463226854801178, 