{"ent_embeddings.weight": [[-0.06853873282670975, 0.05752507224678993, 0.01886116713285446, -0.052401624619960785, -0.0061019654385745525, -0.0939066931605339, 0.026894470676779747, 0.009677737951278687, 0.0673631876707077, -0.09015967696905136, -0.021831372752785683, -0.1521526575088501, -0.018073050305247307, -0.1069881021976471, -0.06108187139034271, 0.017824340611696243, 0.13873142004013062, -0.048226457089185715, 0.0977807492017746, 0.04513160139322281, 0.007555563002824783, 0.15503215789794922, 0.11526595056056976, 0.04558991268277168, 0.08058861643075943, 0.01878543198108673, 0.09560821950435638, -0.021165015175938606, -0.15238413214683533, 0.11817395687103271, -0.009274817071855068, 0.03667031601071358, -0.026465579867362976, -0.08212843537330627, 0.04766324907541275, 0.13404928147792816, -0.08860886096954346, 0.09046319127082825, -0.04550560191273689, 0.06944439560174942, 0.10171996057033539, -0.019991803914308548, -0.08830660581588745, 0.021768368780612946, -0.0002723389770835638, 0.0387759730219841, 0.0750202089548111, 0.054893847554922104, -0.020575111731886864, -0.039028510451316833, -0.12560433149337769, -0.002856023143976927, 0.08512693643569946, -0.05226617678999901, -0.033807892352342606, -0.07061171531677246, 0.020165419206023216, -0.012957924045622349, -0.1094340831041336, -0.14810097217559814, 0.0970214381814003, -0.11029914766550064, 0.020853325724601746, 0.027437588199973106, 0.09650971740484238, 0.08461972326040268, -0.029971642419695854, 0.03411940485239029, 0.015434831380844116, 0.05354592949151993, -0.09169764816761017, 0.010140735656023026, -0.06416497379541397, 0.07831273227930069, -0.02784246951341629, -0.09009804576635361, -0.0900665819644928, -0.007755957543849945, 0.025479592382907867, 0.004233988933265209, -0.1373799592256546, 0.08432002365589142, -0.013300221413373947, 0.14098623394966125, -0.0400192067027092, -0.08884736895561218, 0.05395716801285744, -0.05716544762253761, -0.001990754157304764, -0.07394877821207047, 0.025233307853341103, -0.03084411285817623, 0.015078825876116753, 0.10913261026144028, -0.10948710888624191, 0.13465455174446106, 0.004897088743746281, -0.04807846248149872, -0.027205681428313255, -0.09865007549524307], [-0.0918501541018486, 0.11287272721529007, -0.07250530272722244, -0.07329996675252914, 0.002576818224042654, 0.19623689353466034, -0.06437253952026367, 0.03281071037054062, -0.13663379848003387, -0.06607136875391006, 0.004740973934531212, -0.1323152631521225, -0.06645212322473526, -0.1227828860282898, -0.04092412441968918, -0.0396587960422039, 0.16035369038581848, -0.07096195220947266, 0.08849529922008514, -0.06684775650501251, -0.03861389681696892, 0.12926122546195984, 0.09003548324108124, 0.0028391117230057716, -0.11339754611253738, 0.04173317551612854, -0.0667448490858078, 0.006835676729679108, -0.13113299012184143, -0.1919907182455063, -0.058275651186704636, -0.07336816936731339, -0.009439891204237938, 0.04066722095012665, 0.0615931861102581, 0.11079613864421844, 0.04289097338914871, -0.07508860528469086, -0.07726509869098663, 0.04533742740750313, 0.08576659858226776, -0.04495842009782791, -0.05781964585185051, -0.009609878063201904, -0.024984942749142647, 0.04654339328408241, 0.053703613579273224, 0.02135619707405567, -0.03186558932065964, -0.0394073911011219, -0.1282901167869568, 0.06571845710277557, 0.10433802753686905, -0.05115777999162674, -0.05121782049536705, -0.06439462304115295, 0.0942244827747345, 0.0027148532681167126, -0.10636389255523682, -0.13958948850631714, 0.059909041970968246, -0.12058527767658234, 0.047718483954668045, 0.0041174618527293205, 0.04868311434984207, -0.0395665317773819, -0.038875091820955276, 0.031579118221998215, -0.048550695180892944, 0.07122699916362762, 0.042720552533864975, 0.004178681410849094, -0.062086641788482666, 0.059539444744586945, -0.0665169283747673, -0.07063812762498856, -0.060966551303863525, 0.017899606376886368, 0.026819663122296333, -0.03299233317375183, -0.1394985020160675, 0.0626237541437149, 0.025133607909083366, 0.1470620334148407, -0.049182768911123276, 0.02763853222131729, 0.02309338189661503, 0.007500652223825455, 0.03401374816894531, -0.16799569129943848, 0.04810600355267525, 0.04497143626213074, -0.009580357000231743, 0.11319367587566376, -0.1330234855413437, 0.15298259258270264, -0.04900126904249191, -0.16173267364501953, 0.03106405772268772, -0.1052999496459961], [-0.12343950569629669, 0.11868833750486374, -0.043259233236312866, -0.03442138805985451, 0.05256573110818863, 0.17866939306259155, 0.00674484483897686, 0.00039156863931566477, -0.14742645621299744, -0.023704735562205315, -0.01105254702270031, -0.1074206754565239, -0.01342175155878067, -0.01847059465944767, 0.09953149408102036, 0.09936460852622986, 0.04840146005153656, -0.10292655229568481, 0.07970350235700607, -0.041343871504068375, 0.08549564331769943, 0.0812574028968811, -0.014022879302501678, 0.00968792662024498, -0.09178532660007477, 0.03978581726551056, -0.0631372332572937, 0.0870571956038475, -0.08988193422555923, -0.1917756199836731, -0.035245154052972794, -0.00569367129355669, 0.015222270041704178, -0.0006027224007993937, 0.0008507727179676294, 0.08501444011926651, 0.03676792234182358, -0.05386640876531601, -0.10301529616117477, 0.014968853443861008, -0.07588434219360352, -0.07263147830963135, 0.09016987681388855, -0.01642177440226078, 0.129691019654274, 0.003850021865218878, -0.014393990859389305, 0.04325147345662117, 0.04659862816333771, 0.070524200797081, -0.13705118000507355, 0.08122029155492783, 0.11001190543174744, 0.07723721861839294, -0.07406529039144516, -0.049306564033031464, 0.07769270241260529, 0.004572960548102856, -0.09708762168884277, -0.11871751397848129, 0.12407544255256653, -0.11707983911037445, 0.08694063872098923, -0.007091101258993149, -0.08685092628002167, -0.08725576102733612, 0.013451125472784042, -0.06978460401296616, 0.0022910498082637787, 0.08287348598241806, 0.08977635949850082, 0.003504218067973852, -0.050822965800762177, 0.03217102587223053, 0.060742102563381195, -0.040918607264757156, 0.05687740817666054, 0.07850631326436996, -0.0028672656044363976, -0.056024305522441864, -0.13893365859985352, -0.015876412391662598, -0.017211345955729485, 0.14761658012866974, -0.02965029887855053, -0.03847738355398178, -0.050098467618227005, 0.023805923759937286, -0.00848853774368763, -0.16274918615818024, -0.016477039083838463, -0.0960889533162117, 0.046633295714855194, -0.09595074504613876, -0.04179217666387558, 0.014467304572463036, 0.012870119884610176, -0.1439783275127411, 0.02082793228328228, -0.10298312455415726], [-0.0769808366894722, 0.10418398678302765, -0.022924862802028656, 0.009505484253168106, -0.04169377312064171, 0.1620762050151825, 0.02432047389447689, 0.02243977040052414, -0.15509164333343506, 0.00968199037015438, -0.018820730969309807, -0.0815901905298233, 0.011699777096509933, -0.013305697590112686, 0.1379646509885788, -0.01350468024611473, -0.00809765700250864, -0.1289939284324646, 0.08396218717098236, -0.027825433760881424, -0.026203017681837082, 0.01385641098022461, -0.04867705702781677, -0.1670307070016861, -0.07090660184621811, 0.022037923336029053, -0.04504961520433426, 0.11533337086439133, -0.05723947659134865, -0.19730901718139648, -1.7084414139389992e-05, -0.009071224369108677, 0.0370505228638649, 0.035702746361494064, -0.04115571826696396, 0.06936964392662048, 0.006215939298272133, -0.009757458232343197, -0.042576003819704056, -0.005750522017478943, -0.09731359034776688, -0.09586980193853378, 0.005899392068386078, 0.07361721992492676, 0.10889976471662521, 0.08642396330833435, -0.047877825796604156, 0.06316948682069778, 0.045547861605882645, 0.1294955313205719, -0.13245347142219543, -0.0005908535094931722, 0.13317134976387024, 0.004328214563429356, 0.14598268270492554, -0.028809238225221634, 0.06910727918148041, 0.019288476556539536, -0.06252254545688629, -0.07849453389644623, 0.12831708788871765, -0.12468090653419495, 0.08982852101325989, 0.014715982601046562, 0.01408999040722847, -0.06637761741876602, -0.03607479855418205, 0.043439410626888275, -0.013131910935044289, 0.10778678208589554, -0.047475606203079224, 0.12204326689243317, -0.035672202706336975, 0.01984069123864174, 0.04706933721899986, -0.0019732266664505005, 0.10218566656112671, 0.105122871696949, -0.0398867167532444, 0.050826966762542725, -0.13520832359790802, -0.004880289547145367, -0.03641355782747269, 0.061574626713991165, -0.04202408716082573, -0.025915201753377914, -0.07753609120845795, 0.02145531214773655, 0.03972233459353447, -0.15066757798194885, 0.09039385616779327, 0.029349777847528458, 0.021464914083480835, -0.07192966341972351, -0.06631899625062943, 0.03772096708416939, -0.03700604662299156, -0.12089823931455612, 0.006881102919578552, -0.09720978885889053], [-0.10167130827903748, 0.07972443848848343, 0.050224918872117996, -0.021512620151042938, -0.049204021692276, 0.13358277082443237, -0.07615398615598679, 0.039070162922143936, -0.14979739487171173, 0.041189610958099365, 0.00879279337823391, -0.04980669915676117, -0.03645357862114906, 0.016824422404170036, 0.16330692172050476, 0.005316304042935371, -0.01907920278608799, -0.14402367174625397, 0.06524284183979034, 0.06894608587026596, 0.041658297181129456, -0.05372227728366852, -0.011313001625239849, -0.146998330950737, -0.04087785258889198, -0.16740506887435913, -0.030113238841295242, 0.13564512133598328, -0.039213936775922775, -0.19002288579940796, 0.01576853357255459, -0.02052471414208412, -0.021733004599809647, 0.051942579448223114, -0.07387150824069977, 0.05196360871195793, -0.012853296473622322, 0.031476739794015884, -0.04243633896112442, 0.08211436867713928, -0.025869155302643776, 0.13758361339569092, -0.00456729531288147, -0.0520632378757, 0.08195983618497849, 0.009141786023974419, -0.07956882566213608, 0.08552815765142441, 0.044052086770534515, 0.14039771258831024, 0.11952534317970276, -0.055798377841711044, 0.14993956685066223, 0.029762208461761475, 0.1304793655872345, -0.010384241119027138, 0.09406484663486481, 0.03372484818100929, -0.008136799558997154, 0.004676985088735819, 0.11955466866493225, -0.03915882110595703, 0.11004364490509033, -0.022033318877220154, 0.029806852340698242, -0.031210383400321007, 0.005326408892869949, 0.003169497475028038, -0.025463175028562546, 0.11838463693857193, 0.03559225797653198, 0.11181985586881638, -0.02401617541909218, 0.013177478685975075, 0.046345122158527374, 0.03731520473957062, 0.12855319678783417, -0.08681967109441757, -0.08841229230165482, 0.1145213320851326, -0.11241595447063446, -0.03995070978999138, -0.08108265697956085, 0.06945688277482986, -0.1302194446325302, -0.058577947318553925, 0.007877184078097343, -0.03301027789711952, 0.0002617571735754609, -0.032517023384571075, -0.04296393692493439, -0.008342189714312553, -0.0750323235988617, -0.053020574152469635, -0.08021404594182968, 0.04948277771472931, -0.02136024832725525, -0.094917893409729, -0.045739177614450455, -0.024234367534518242], [-0.13171830773353577, 0.08615323156118393, -0.04265769571065903, -0.07697609812021255, -0.01088753156363964, 0.10820551961660385, 0.06482589989900589, -0.06525754928588867, -0.13884864747524261, 0.06223262473940849, 0.03743577003479004, -0.027370989322662354, -0.016376134008169174, 0.004386933520436287, 0.19021271169185638, 0.014905080199241638, 6.36387849226594e-05, -0.16834579408168793, 0.0535493865609169, 0.022896403446793556, -0.016934514045715332, -0.09048501402139664, -0.03973548486828804, -0.1356344223022461, -0.004085118416696787, -0.17907820641994476, -0.020105652511119843, 0.09325916320085526, -0.0359027162194252, -0.17563460767269135, 0.02565845474600792, 0.04010492563247681, -0.009030566550791264, -0.01145140640437603, 0.01235207449644804, 0.03293241560459137, -0.08589166402816772, 0.036101650446653366, 0.10257989168167114, 0.06966124475002289, -0.035077836364507675, 0.11681830137968063, 0.06771285086870193, -0.07050223648548126, 0.05532510578632355, 0.02776690572500229, -0.10819946229457855, -0.0034864144399762154, 0.04708770662546158, 0.15027208626270294, 0.12089993059635162, -0.03062601573765278, 0.05808425694704056, -0.041481539607048035, 0.1105339527130127, 0.08034110069274902, 0.08051128685474396, 0.04912302643060684, 0.1775490939617157, 0.014885837212204933, 0.11040688306093216, -0.04216330498456955, 0.10100851207971573, -0.053601376712322235, 0.05593565106391907, -0.06643424928188324, 0.053668539971113205, 0.03954389691352844, -0.012833831831812859, 0.13388973474502563, 0.050649259239435196, -0.11506999284029007, -0.01589059643447399, 0.0014736533630639315, -0.05530310422182083, 0.14522822201251984, 0.16126199066638947, -0.060574062168598175, 0.03800496459007263, 0.0857759490609169, -0.09750758111476898, -0.04164963215589523, 0.02111976221203804, 0.07946984469890594, -0.1094268336892128, -0.005606709513813257, -0.011456262320280075, -0.04913634806871414, 0.003715385217219591, -0.014643280766904354, -0.06674366444349289, 0.038598958402872086, 0.03944174200296402, 0.017576174810528755, -0.0616016648709774, -0.060810189694166183, -0.06335260719060898, -0.06507349759340286, -0.06482454389333725, -0.02375234104692936], [-0.1521235555410385, -0.06208522245287895, 0.05072053149342537, -0.10290168225765228, 0.03936827555298805, 0.08683940023183823, -0.03714946284890175, 0.006438182666897774, -0.11782748997211456, 0.08353037387132645, 0.039483148604631424, -0.09958986192941666, -0.025420647114515305, -0.04145164042711258, 0.20438385009765625, 0.014369489625096321, 0.006566772237420082, -0.15981438755989075, 0.028502879664301872, -0.007663882803171873, 0.05449064448475838, -0.1269918829202652, -0.06578758358955383, -0.1009351834654808, 0.043413273990154266, -0.18299035727977753, -0.006030854769051075, -0.01109379529953003, -0.010991777293384075, -0.16054528951644897, 0.03228890150785446, 0.026922835037112236, 0.03821898251771927, -0.07449229061603546, 0.012258806265890598, 0.002470074687153101, -0.1321457326412201, -0.02430431731045246, 0.08635452389717102, 0.05405581742525101, -0.05784590542316437, 0.06533021479845047, -0.05983351171016693, 0.028242357075214386, 0.026892170310020447, -0.015280906111001968, -0.12436152249574661, -0.006980414502322674, 0.05444914475083351, 0.15092089772224426, 0.11702265590429306, -0.03536532446742058, 0.06800313293933868, -0.08462566882371902, 0.06237437203526497, 0.08420934528112411, 0.046991538256406784, 0.07753157615661621, 0.18164756894111633, 0.01698172651231289, 0.04299197718501091, -0.06372762471437454, 0.07146801054477692, 0.0392511822283268, -0.058364782482385635, 0.0088981157168746, 0.08625500649213791, 0.06660913676023483, 0.014786260202527046, 0.14448797702789307, 0.007519274950027466, -0.11658642441034317, 0.06228349357843399, 0.09760051220655441, 0.022626439109444618, 0.1593024879693985, 0.17760109901428223, -0.027617862448096275, -0.012211412191390991, 0.03821165859699249, -0.08835718780755997, -0.04955895617604256, 0.08492806553840637, 0.06257759779691696, -0.08540088683366776, -0.01764831691980362, -0.03638073429465294, -0.10822949558496475, -0.010487137362360954, -0.008844119496643543, 0.04993531480431557, -0.019209077581763268, -0.04690161347389221, 0.04834681376814842, -0.07680467516183853, -0.03847162052989006, -0.016025424003601074, -0.013561507686972618, -0.016963351517915726, -0.02866644226014614], [-0.1708431988954544, -0.026562677696347237, 0.011543386615812778, -0.10851846635341644, -0.0379621759057045, 0.1191638857126236, -0.043223582208156586, 0.0046856217086315155, 0.039514463394880295, 0.09491633623838425, -0.1315932422876358, -0.07534057646989822, 0.07130136340856552, -0.0539628230035305, 0.18171600997447968, 0.007694259285926819, -0.062001362442970276, -0.15128794312477112, 0.018266452476382256, -0.025673354044556618, -0.05721024051308632, -0.14415356516838074, -0.089739128947258, -0.07640095800161362, 0.06889279931783676, -0.19125962257385254, 0.0024218102917075157, 0.010284313932061195, 0.009837133809924126, -0.1451018899679184, -0.0545949824154377, -0.06847019493579865, 0.05555157735943794, -0.00667264498770237, -0.03974975273013115, -0.020670082420110703, -0.1504584550857544, -0.02982029691338539, 0.011340643279254436, 0.0868898406624794, -0.08326832950115204, 0.01856749691069126, 0.04263786971569061, 0.001703396555967629, 0.0020645346958190203, 0.002749484032392502, 0.09239060431718826, -0.04203541576862335, 0.18827348947525024, 0.15748631954193115, 0.11794301867485046, 0.003972772508859634, -0.047615792602300644, -0.04046260192990303, 0.04017084091901779, 0.0946437269449234, 0.01200796663761139, 0.09657525271177292, 0.18101535737514496, 0.005507202818989754, 0.03477129712700844, -0.07962740212678909, 0.09998524934053421, 0.016463834792375565, 0.05493229627609253, -0.06065575033426285, 0.05038340762257576, 0.03888470679521561, 0.020082412287592888, 0.15490120649337769, 0.008215097710490227, -0.11711396276950836, 0.06449776887893677, 0.07737703621387482, 0.03571631386876106, 0.16766461730003357, -0.10828405618667603, 0.0029118191450834274, -0.04547368362545967, -0.08344049751758575, -0.08784058690071106, -0.04854185879230499, -0.05317922681570053, -0.04236346483230591, -0.05552905052900314, 0.029624439775943756, -0.0053466614335775375, -0.10204267501831055, -0.04451283439993858, -0.1652555912733078, 0.01303265430033207, 0.008473699912428856, -0.04051334783434868, 0.05994017422199249, -0.015566807240247726, -0.01688091643154621, 0.062410105019807816, 0.040010083466768265, -0.04454983398318291, -0.033829379826784134], [0.1736522912979126, 0.01953860931098461, -0.05273813754320145, -0.138410747051239, -0.005560431629419327, 0.11362376064062119, 0.0805182084441185, 0.02953464537858963, 0.1216093972325325, -0.07513123750686646, -0.10902319103479385, 0.0219411700963974, -0.021071920171380043, 0.1433909684419632, 0.12128007411956787, -0.0651259645819664, -0.05023246631026268, 0.0077805109322071075, 0.004398896358907223, 0.06653568148612976, 0.03606138005852699, -0.149703249335289, -0.05642718821763992, -0.029586469754576683, 0.09331953525543213, -0.20493848621845245, 0.011714405380189419, -0.08630648255348206, 0.03577789291739464, -0.11423349380493164, -0.09575396776199341, 0.004359975457191467, 0.08147620409727097, -0.023027488961815834, -0.04286181554198265, -0.045303504914045334, -0.17153185606002808, -0.0388270728290081, 0.06243661418557167, 0.07244071364402771, -0.10272479057312012, -0.01384674571454525, 0.06747814267873764, 0.04541831091046333, -0.005818689242005348, -0.046608101576566696, 0.07419075071811676, -0.023356743156909943, 0.19479931890964508, 0.1646689623594284, 0.11060184985399246, 0.03972913324832916, -0.015081888064742088, 0.05346374213695526, 0.02110867388546467, 0.10425543040037155, -0.027742592617869377, 0.14008580148220062, 0.1843397319316864, -0.11238788068294525, 0.018723415210843086, -0.09326371550559998, 0.13282471895217896, -0.017266545444726944, -0.06120239198207855, 0.0016494296723976731, -0.039707329124212265, -0.003711555153131485, 0.027593322098255157, 0.010115574114024639, -0.04640296474099159, -0.12002519518136978, 0.07182116061449051, 0.049724362790584564, 0.0054857488721609116, 0.18468645215034485, -0.08599181473255157, 0.035426028072834015, -0.049800485372543335, -0.13604721426963806, -0.06708433479070663, 0.06586391478776932, 0.03753385320305824, -0.05277670547366142, -0.02533126249909401, 0.06891857832670212, -0.02367508038878441, -0.10171236097812653, 0.017481980845332146, -0.16357114911079407, 0.0466994009912014, 0.06304437667131424, 0.048807308077812195, 0.0026194164529442787, -0.038745537400245667, 8.874735794961452e-05, -0.037082865834236145, 0.06820453703403473, 0.057179540395736694, -0.07004228979349136], [0.1537390798330307, -0.08405376970767975, 0.018458109349012375, 0.03142859414219856, 0.0292170662432909, 0.11325716227293015, 0.07138299196958542, -0.07737834751605988, 0.12116096913814545, -0.06717202067375183, -0.0948256105184555, 0.04784012958407402, 0.03781929984688759, 0.11621983349323273, 0.13775961101055145, 0.028551125898957253, -0.026884179562330246, -0.015504958108067513, 0.10340942442417145, -0.045648135244846344, -0.05948252230882645, -0.08931119740009308, -0.041898343712091446, 0.05832270160317421, 0.044070642441511154, -0.2025470733642578, 0.07327243685722351, -0.06734222918748856, 0.05376076325774193, -0.079637810587883, -0.05527734383940697, 0.02004300430417061, 0.09941954165697098, 0.02907254360616207, 0.06938114017248154, -0.05735006555914879, -0.12865681946277618, 0.012711985968053341, 0.04465878754854202, 0.03511008992791176, 0.0757797509431839, -0.030135728418827057, 0.01809115707874298, 0.062149662524461746, -0.007752422243356705, 0.024628790095448494, 0.0380006767809391, 0.02394486777484417, 0.19335022568702698, 0.15753282606601715, 0.10103873908519745, -0.0033743507228791714, 0.016714775934815407, 0.05738659203052521, 0.010163986124098301, 0.10692299157381058, -0.07957904785871506, 0.16134227812290192, 0.0021779900416731834, -0.151916041970253, 0.01923159323632717, -0.10158334672451019, 0.059225745499134064, -0.020361563190817833, 0.023062612861394882, -0.0009946302743628621, -0.003359326161444187, 0.003063518088310957, 0.022069649770855904, 0.021240465342998505, -0.021181844174861908, -0.11164945363998413, 0.0006070241797715425, -0.0004828397650271654, -0.03372702747583389, 0.13172763586044312, -0.045219916850328445, 0.05755568668246269, -0.03274758532643318, -0.1632435917854309, -0.037063322961330414, -0.034296128898859024, 0.012838070280849934, -0.04142050817608833, -0.0031205490231513977, -0.06371741741895676, -0.041767362505197525, 0.042423315346241, -0.017882101237773895, -0.15350516140460968, 0.04578413441777229, 0.006196286994963884, 0.04337956756353378, 0.012305077165365219, -0.05249982699751854, 0.025895316153764725, 0.03042234294116497, 0.004592243582010269, 0.020784525200724602, -0.08868518471717834], [0.12801942229270935, -0.1015259176492691, 0.03334367647767067, 0.008352753706276417, 0.011710059829056263, 0.08866161853075027, 0.0032041158992797136, 0.037400271743535995, 0.12126603722572327, -0.04155511036515236, -0.10445179045200348, -0.18863213062286377, 0.004853932186961174, 0.03219934180378914, 0.14627708494663239, -0.06867581605911255, -0.006869092583656311, -0.038397494703531265, 0.09302183985710144, -0.03238815814256668, 0.0170228723436594, -0.09760408103466034, -0.07471020519733429, 0.09595903754234314, 0.05770151689648628, 0.06288725137710571, 0.08375371247529984, -0.04687648266553879, -0.05675787106156349, 0.0700092613697052, -0.023679379373788834, 0.0682605728507042, 0.11455480009317398, -0.00954164657741785, -0.01931634172797203, 0.024665283039212227, 0.009412119165062904, -0.04917926713824272, 0.02677091211080551, -0.11328598856925964, 0.06083452329039574, -0.024924036115407944, -0.010234950110316277, -0.04255731403827667, 0.07312899827957153, -0.013111701235175133, 0.015834040939807892, 0.051729608327150345, 0.18706847727298737, 0.1533259153366089, 0.05382903292775154, 0.0531291626393795, 0.03467415273189545, -0.05236606299877167, 0.09521172195672989, 0.11037157475948334, -0.10494402796030045, 0.17563657462596893, -0.001756482059136033, -0.14211958646774292, 0.016622347757220268, 0.1495245397090912, -0.06910689920186996, -0.04532542824745178, 0.05773860216140747, -0.019161978736519814, -0.028192009776830673, 0.0008769871201366186, 0.051694225519895554, 0.04280254989862442, -0.0309742484241724, 0.14881886541843414, 0.005637750960886478, -0.052942223846912384, 0.0043893177062273026, 0.13334569334983826, 0.02957136556506157, -0.11953791975975037, 0.10107970982789993, -0.1143956258893013, -0.006992269307374954, 0.022052690386772156, 0.09064013510942459, -0.028794653713703156, 0.026899734511971474, -0.000548176234588027, -0.06982800364494324, 0.04491420462727547, 0.0477108471095562, 0.052922800183296204, -0.041402965784072876, -0.030055060982704163, 0.036277562379837036, 0.02562500163912773, -0.02955954149365425, 0.04808960109949112, 0.029122663661837578, -0.0062917862087488174, 0.029858551919460297, -0.10690480470657349], [0.10639496147632599, -0.06607668101787567, 0.016439171507954597, -0.024969302117824554, 0.05448344349861145, 0.02527589537203312, -0.0844278410077095, 0.02358764037489891, 0.11497404426336288, -0.011355741880834103, -0.08267442882061005, -0.17542202770709991, -0.05980083718895912, -0.02762410417199135, 0.06430963426828384, -0.03502828627824783, 0.013598771765828133, -0.08172190189361572, 0.08233287930488586, -0.05463339388370514, -0.02510048635303974, -0.09694264084100723, -0.04358670860528946, 0.13102400302886963, 0.07262217998504639, 0.0630030408501625, 0.039324842393398285, -0.01281968504190445, -0.035555239766836166, 0.08129993081092834, 0.03493499383330345, -0.06576715409755707, 0.06815878301858902, -0.00033805251587182283, 0.05081891268491745, 0.006641974672675133, 0.00669638067483902, 0.04636680707335472, -0.0020390585996210575, -0.13983608782291412, 0.04357396066188812, -0.03316324204206467, -0.035329144448041916, 0.017806729301810265, 0.0532723031938076, 0.04655835032463074, -0.022105325013399124, 0.09217797219753265, 0.012105404399335384, 0.093747079372406, 0.15110307931900024, -0.016827384009957314, -0.04167012497782707, 0.06520956754684448, 0.07460953295230865, 0.034198399633169174, 0.019971001893281937, 0.18506872653961182, -0.01590740494430065, -0.12354785203933716, 0.013733115047216415, 0.13906888663768768, -0.037904638797044754, -0.07834167778491974, 0.0011568684130907059, 0.05949486047029495, 0.009102128446102142, -0.02095658704638481, 0.00796484760940075, 0.05076219514012337, -0.019046170637011528, 0.15624605119228363, 0.06552029401063919, -0.09565550833940506, 0.028242062777280807, 0.13018958270549774, 0.065408855676651, -0.09191267192363739, 0.042455438524484634, -0.12290681898593903, 0.04139610007405281, 0.0598284937441349, -0.0263067614287138, -0.004235364496707916, 0.05980786681175232, -0.04603860154747963, -0.09071113914251328, 0.043383292853832245, 0.0042929137125611305, 0.06138677895069122, 0.04170655459165573, 0.028899921104311943, -0.050781507045030594, 0.03974088281393051, -0.03906751796603203, 0.05844653397798538, 0.023105183616280556, 0.012541355565190315, -0.009537126868963242, -0.12195578217506409], [0.13055548071861267, -0.071166031062603, 0.08241988718509674, -0.05210448428988457, 0.07999903708696365, -0.05377776175737381, -0.045988794416189194, -0.06939495354890823, 0.10213170200586319, 0.012736991047859192, -0.04344693943858147, -0.13971997797489166, -0.060010407119989395, -0.050373151898384094, 0.07714102417230606, -0.04260706156492233, -0.05070172995328903, -0.10124845057725906, 0.07731808722019196, -0.0071381088346242905, 0.023993734270334244, -0.06919202953577042, -0.0709090605378151, 0.1498630791902542, -0.1449946165084839, -0.018995264545083046, 0.04829356074333191, 0.03739197924733162, -0.011089328676462173, -0.10083995759487152, 0.06374163180589676, 0.012402582913637161, 0.08100777864456177, 0.024271586909890175, -0.036162927746772766, -0.019733473658561707, -0.005936222150921822, 0.04680582508444786, -0.026723917573690414, -0.15738582611083984, 0.025498274713754654, -0.011188984848558903, -0.04016362875699997, 0.04688233882188797, 0.02566509135067463, -0.045356567949056625, -0.03776121512055397, 0.11782623082399368, 0.011541278101503849, 0.04338359832763672, 0.14915801584720612, 0.04641824960708618, -0.025760531425476074, -0.07891251891851425, 0.047689005732536316, 0.022240206599235535, 0.12006355077028275, 0.19348275661468506, -0.01856142096221447, 0.12162914127111435, 0.01171901449561119, 0.1337355673313141, -0.01148294284939766, -0.09704925119876862, -0.028242573142051697, -0.017736384645104408, -0.05344845727086067, 0.00989071186631918, 0.01977241039276123, -0.16153942048549652, 0.06087569147348404, 0.15357385575771332, 0.07269266992807388, -0.11651702225208282, -0.05048774555325508, 0.13681724667549133, -0.005687378346920013, -0.05528334155678749, 0.003422939218580723, -0.14259956777095795, 0.06332153081893921, 0.041069887578487396, -0.014782886952161789, 0.13754305243492126, -0.05129697546362877, 0.019515173509716988, -0.11332295835018158, -0.08685356378555298, 0.03752278536558151, -0.04740718752145767, 0.021000036969780922, -0.04615871235728264, -0.047513447701931, 0.050088927149772644, -0.03719961643218994, 0.07203160226345062, 0.010983875021338463, 0.035100750625133514, -0.06259465962648392, -0.11381220072507858], [0.14311866462230682, -0.01412477158010006, 0.0756918340921402, -0.07268042117357254, 0.00045248609967529774, -0.08411697298288345, 0.005035309586673975, -0.0480424240231514, 0.09505542367696762, -0.015133226290345192, 0.04710564762353897, -0.09488499909639359, -0.05033870413899422, -0.0766490250825882, 0.09383230656385422, 0.01705552451312542, -0.04558657482266426, -0.12391331791877747, 0.07312577962875366, -0.044210486114025116, 0.014584558084607124, -0.08705487102270126, 0.04373308643698692, 0.17137034237384796, -0.12104149907827377, -0.03372463583946228, 0.05945901200175285, 0.0915275514125824, 0.01388282235711813, -0.08792924135923386, -0.0135127492249012, 0.0700998604297638, -0.026332618668675423, -0.013515902683138847, -0.05715712159872055, -0.04519404098391533, -0.01698208786547184, 0.02130150981247425, -0.05012765899300575, -0.026402821764349937, 0.13961292803287506, -0.029963385313749313, -0.0603671595454216, 0.06738065928220749, -0.005437477491796017, -0.041693951934576035, -0.05808884650468826, 0.1434849053621292, 0.008637825027108192, 0.019830267876386642, 0.1428086757659912, 0.05168112739920616, 0.0034695900976657867, -0.07044224441051483, 0.003115477040410042, -0.031861674040555954, 0.10654696822166443, 0.14744509756565094, -0.017828484997153282, 0.13520680367946625, 0.005083223804831505, 0.1235150620341301, 0.00865370873361826, 0.0014391362201422453, 0.03150129318237305, 0.04281431809067726, -0.07581920921802521, 0.058120276778936386, 0.06604107469320297, -0.14670740067958832, -0.025868287310004234, 0.1512443721294403, 0.08170200139284134, 0.11068756133317947, 0.04089060425758362, 0.1452486664056778, -0.004391340538859367, -0.005981188267469406, -0.013923225924372673, 0.10768166184425354, 0.08933811634778976, -0.061210088431835175, -0.058518074452877045, 0.15542617440223694, -0.027099767699837685, 0.010562576353549957, 0.09260872006416321, -0.08018196374177933, -0.005508594214916229, -0.04218016564846039, 0.034532491117715836, 0.06542997807264328, -0.015112483873963356, 0.06793193519115448, -0.04955924674868584, 0.08809000253677368, -0.05131763219833374, 0.059149157255887985, 0.023259617388248444, -0.0010773340472951531], [0.12250621616840363, -0.02389959618449211, 0.014036117121577263, -0.02468813583254814, -0.09955453127622604, -0.11353149265050888, 0.054853376001119614, 0.027939938008785248, 0.018779894337058067, -0.04797741398215294, 0.0772276222705841, -0.054608702659606934, -0.08066549897193909, 0.12601181864738464, -0.08614428341388702, 0.029853999614715576, -0.03586256504058838, -0.14092455804347992, 0.06254204362630844, -0.08182938396930695, 0.028376618400216103, -0.10237152129411697, 0.01736631989479065, 0.05704035982489586, -0.08442576974630356, -0.047058943659067154, 0.06669038534164429, 0.11719930917024612, 0.03678789734840393, -0.011617676354944706, 0.014122843742370605, 0.007343083620071411, -0.0049263108521699905, -0.0456000454723835, -0.010622445493936539, 0.16620731353759766, 0.10335748642683029, -0.058788545429706573, -0.07381368428468704, -0.040083784610033035, 0.12971161305904388, 0.061987411230802536, -0.04378647729754448, 0.04854421690106392, -0.0339382104575634, -0.020754991099238396, -0.07869460433721542, 0.15673774480819702, 0.1519278883934021, -0.09593562036752701, -0.006191767752170563, 0.02432115562260151, 0.027876276522874832, -0.008841002359986305, -0.06370007246732712, -0.16314589977264404, 0.08478514105081558, 0.13866445422172546, -0.0012676644837483764, 0.07562711089849472, 0.0029526101425290108, 0.10632545500993729, 0.034622449427843094, -0.02076706849038601, 0.023995142430067062, 0.0003666894044727087, -0.09514167904853821, 0.07100927084684372, -0.03292598947882652, -0.12799806892871857, -0.016871841624379158, 0.14847074449062347, 0.09030096232891083, 0.0912344753742218, -0.017753764986991882, 0.15620574355125427, 0.02146178111433983, 0.047988325357437134, -0.05102096498012543, 0.07553093135356903, -0.056177154183387756, -0.030167322605848312, -0.04836258664727211, 0.16671830415725708, -0.009549730457365513, 0.042398225516080856, 0.06450149416923523, -0.058831702917814255, 0.002789792139083147, 0.07386862486600876, 0.059381432831287384, 0.014102332293987274, 0.029114559292793274, 0.0847804844379425, -0.06894885003566742, -0.07068025320768356, -0.05851678550243378, 0.07351221889257431, -0.04599261283874512, 0.008562484756112099], [0.07370130717754364, 0.02976435422897339, -0.0031417286954820156, -0.04424091801047325, -0.07010560482740402, -0.14250697195529938, -0.026818426325917244, -0.05140504240989685, 0.00021571246907114983, -0.04625384509563446, 0.10147339105606079, -0.059597596526145935, 0.07756023108959198, 0.1265585571527481, -0.06658463180065155, 0.08465218544006348, -0.021838143467903137, -0.1602776050567627, 0.053333085030317307, 0.02614176645874977, -0.006099790334701538, 0.03207017481327057, 0.0044748857617378235, 0.004901033826172352, -0.06373284757137299, -0.07266607135534286, 0.07005616277456284, 0.13896113634109497, 0.06524927914142609, 0.0200850497931242, -0.13393326103687286, -0.08642290532588959, 0.015880830585956573, -0.01984136924147606, 0.025273628532886505, 0.15333405137062073, 0.12057371437549591, -0.018485501408576965, -0.09539420157670975, 0.08526640385389328, 0.12680219113826752, 0.04522160813212395, 0.06298337876796722, 0.08636587858200073, -0.08697935193777084, -0.016149643808603287, -0.09652836620807648, 0.18007168173789978, 0.1651531159877777, -0.09770690649747849, -0.009596414864063263, 0.0069008441641926765, 0.045034926384687424, 0.015989180654287338, -0.11060307919979095, -0.1753029227256775, 0.058174874633550644, -0.1121019646525383, 0.07926618307828903, 0.06926113367080688, 0.02600434049963951, 0.09093970060348511, 0.06247249245643616, -0.046101540327072144, -0.0074812257662415504, -0.06763356178998947, -0.061268292367458344, -0.08375579118728638, -0.009094285778701305, -0.08511149883270264, 0.0485706701874733, 0.14207369089126587, 0.09557420015335083, 0.09806616604328156, 0.029408171772956848, 0.147513747215271, 0.05356667935848236, 0.08340933918952942, -0.0864303931593895, 0.009828146547079086, -0.047813933342695236, -0.08861058950424194, -0.044938985258340836, 0.06782232969999313, 0.02024439349770546, 0.046062566339969635, 0.0110695268958807, 0.046570803970098495, 0.03403948247432709, 0.10413067787885666, -0.05021307244896889, 0.04964741691946983, 0.03357173129916191, 0.09824378043413162, -0.03603150695562363, -0.06158965826034546, -0.017909523099660873, 0.09597771614789963, 0.00590925570577383, 0.01995317079126835], [0.03130718320608139, 0.01975484937429428, 0.03508732467889786, -0.07205995917320251, -0.027268826961517334, 0.03247233107686043, 0.0018599288305267692, 0.04777269810438156, 0.0012456221738830209, -0.026360055431723595, 0.062358103692531586, -0.042039353400468826, 0.016014687716960907, 0.10467541962862015, -0.04005403816699982, -0.011890877038240433, -0.0038493676111102104, -0.17174126207828522, 0.04101589322090149, -0.05757613107562065, -0.0016490594716742635, 0.009988613426685333, -0.027520887553691864, 0.02950894646346569, -0.09354224056005478, -0.08239281922578812, 0.079288050532341, 0.0748717337846756, 0.08490613847970963, 0.026402203366160393, -0.10482523590326309, 0.05122902989387512, 0.028809258714318275, 0.06566502898931503, -0.0699245035648346, 0.1331573724746704, 0.10344758629798889, 0.02178509533405304, -0.11302649229764938, 0.06842820346355438, 0.12570828199386597, 0.023053791373968124, 0.027551090344786644, 0.03033294714987278, -0.10875821858644485, 0.0039075626991689205, -0.11624957621097565, 0.1444246768951416, 0.16190007328987122, -0.09716524928808212, 0.06139432266354561, -0.04725237935781479, -0.08000922948122025, 0.03681119158864021, -0.12774135172367096, -0.16912147402763367, 0.03415302187204361, -0.10081876069307327, 0.07182840257883072, 0.0713062733411789, 0.11058593541383743, 0.08073298633098602, -0.06357921659946442, -0.07480821758508682, -0.0690738707780838, -0.06302568316459656, -0.02720695734024048, 0.03696012496948242, -0.004231777507811785, -0.06687376648187637, -0.04270567744970322, 0.137041836977005, 0.09389156103134155, 0.07994884252548218, -0.06032579764723778, 0.07797129452228546, 0.01986352540552616, 0.05474354699254036, 0.005473915487527847, -0.04362925514578819, -0.029948294162750244, -0.07200314849615097, 0.06959047168493271, -0.07875081896781921, 0.033533975481987, -0.0343000628054142, -0.01991768553853035, 0.05060425400733948, -0.011813513934612274, 0.11188007891178131, -0.05182051286101341, -0.05317074805498123, 0.029818963259458542, 0.11596234142780304, -0.05881277471780777, -0.036125726997852325, -0.05947783961892128, -0.14273804426193237, -0.02158321440219879, 0.028372367843985558], [-0.03247412294149399, 0.009283596649765968, 0.03541462868452072, -0.09856002032756805, 0.022736722603440285, 0.011387620121240616, 0.04884403198957443, 0.007810803130269051, -0.003919895272701979, -0.12211500108242035, 0.08059277385473251, 0.05315900593996048, -0.001995672471821308, 0.08111852407455444, -0.01419946737587452, 0.04457986727356911, 0.020625831559300423, -0.18406066298484802, 0.03375370055437088, -0.03596999868750572, -0.0007354237604886293, -0.011849906295537949, -0.05780523642897606, 0.04738153889775276, -0.0758359283208847, -0.09035624563694, -0.020500779151916504, 0.0858643427491188, 0.11256054788827896, 0.02258257381618023, -0.06891478598117828, -0.014253620058298111, -0.10983188450336456, -0.05398969724774361, -0.07016700506210327, 0.11034543812274933, 0.08511533588171005, 0.006489084102213383, -0.12064935266971588, 0.06285031884908676, 0.10808069258928299, 0.0007157308282330632, -0.016887906938791275, -0.010037340223789215, 0.17256517708301544, 0.0342024564743042, -0.13893280923366547, 0.16327303647994995, 0.16188883781433105, -0.08653288334608078, 0.07485965639352798, 0.06350956857204437, -0.1096477136015892, -0.04597068578004837, -0.15193605422973633, -0.16305851936340332, 0.009233525954186916, -0.08862568438053131, 0.07534287869930267, 0.06928667426109314, 0.11670226603746414, 0.033493850380182266, -0.09885171800851822, -0.09988138824701309, -0.06545569747686386, 0.033309098333120346, -0.05212712660431862, 0.006979944184422493, 0.004637791775166988, -0.0422234907746315, 0.04462510347366333, 0.12651585042476654, 0.09877095371484756, 0.05908797308802605, 0.06971897929906845, 0.08453483879566193, 0.04516434296965599, 0.08185995370149612, -0.020228076726198196, -0.1196528822183609, -0.1526901125907898, -0.0009384724544361234, 0.020094268023967743, -0.07360813766717911, 0.0537261888384819, -0.036108072847127914, -0.0526665560901165, 0.05235309898853302, -0.00758393295109272, -0.06524433940649033, -0.0060259755700826645, 0.028362950310111046, -0.0686970055103302, -0.038531746715307236, -0.07635221630334854, 0.01142389141023159, -0.006909077987074852, -0.1340579092502594, 0.05993393436074257, 0.09544800221920013], [-0.06513737887144089, 0.06372819095849991, -0.02089245244860649, -0.10592019557952881, 0.03793346881866455, -0.05831960588693619, 0.04288959503173828, -0.0543019063770771, -0.018094900995492935, -0.09577891230583191, 0.10539282858371735, 0.10600703209638596, -0.011275537312030792, -0.018397944048047066, -0.10394319146871567, -0.07198837399482727, 0.03785989433526993, -0.16683095693588257, 0.1473551094532013, -0.028897235170006752, -0.05875639617443085, -0.046378981322050095, -0.09612733125686646, 0.07484268397092819, -0.05113062262535095, -0.011813581921160221, -0.11167555302381516, -0.10079607367515564, 0.13678570091724396, 0.039134133607149124, 0.0023694876581430435, 0.011276153847575188, -0.09205499291419983, 0.0019088677363470197, 0.04676835238933563, 0.07555688917636871, 0.05905516445636749, 0.03102634660899639, -0.12007225304841995, 0.05063196271657944, 0.10473453253507614, -0.02112172357738018, -0.013081056997179985, 0.020649729296565056, 0.15326261520385742, -0.03148088604211807, -0.1553647816181183, 0.1684151440858841, 0.14328113198280334, -0.08247353881597519, 0.08220519870519638, 0.022236637771129608, -0.0986647829413414, -0.03624019771814346, -0.17748421430587769, -0.1495751142501831, -0.02691386081278324, -0.06942052394151688, 0.07134206593036652, -0.03397713601589203, 0.11218906939029694, 0.009739761240780354, -0.11071064323186874, 0.083901546895504, -0.059458404779434204, 0.010786939412355423, -0.006615323945879936, -0.04113643988966942, -0.04682982712984085, -0.016307326033711433, -0.06826004385948181, 0.16493983566761017, 0.004189095459878445, 0.015037594363093376, -0.007000681012868881, 0.08488450199365616, 0.09131571650505066, 0.09666011482477188, -0.06771934032440186, -0.15037785470485687, -0.1319274753332138, 0.023620402440428734, 0.05326478183269501, -0.05834313854575157, -0.09438446164131165, -0.06970816105604172, 0.06875047832727432, 0.039168380200862885, 0.049838319420814514, -0.06949502229690552, -0.06072358787059784, -0.029498353600502014, -0.004919865168631077, -0.018778979778289795, -0.0946178212761879, 0.0568811297416687, 0.021417761221528053, -0.11802145093679428, -0.021404510363936424, 0.10891357809305191], [-0.07085895538330078, 0.012215957045555115, -0.04045708850026131, -0.1259700208902359, -0.015797574073076248, -0.1324387639760971, -0.07285239547491074, -0.03441784903407097, -0.022733597084879875, 0.008029957301914692, -0.07049615681171417, 0.12537574768066406, 0.06602977216243744, -0.041262365877628326, -0.1423189491033554, -0.06087037920951843, 0.08339478075504303, 0.13930180668830872, 0.1338467299938202, -0.0209859237074852, 0.018067145720124245, -0.07256954908370972, 0.012806722894310951, 0.10090181231498718, -0.0108533576130867, -0.010905854403972626, -0.10691909492015839, -0.07772082835435867, 0.1489161103963852, -0.06661130487918854, 0.05763184651732445, 0.029625166207551956, -0.06172908842563629, 0.07689542323350906, 0.000678664306178689, -0.03449399769306183, 0.0417962372303009, -0.06269744038581848, -0.12490982562303543, -0.003049217164516449, 0.09363216161727905, 0.022699063643813133, -0.054499831050634384, -0.06296681612730026, 0.11453412473201752, 0.01816655322909355, -0.17171144485473633, 0.1584145575761795, -0.12937864661216736, -0.07901667058467865, 0.09036538749933243, 0.0319720022380352, -0.08041179180145264, -0.02664315141737461, -0.18713463842868805, -0.11949800699949265, -0.03087385930120945, -0.07125568389892578, 0.0705917552113533, -0.05298114940524101, 0.10654564946889877, 0.05152808502316475, -0.12845006585121155, 0.06087779626250267, 0.004828227683901787, 0.05383293703198433, 0.07373850792646408, -0.05147825926542282, 0.037169430404901505, -0.008514325134456158, 0.0771479606628418, 0.16811612248420715, -0.0035879756323993206, -0.022396834567189217, 0.04123908653855324, 0.09169697016477585, 0.11582792550325394, 0.12076584994792938, -0.0833580419421196, -0.1623649001121521, -0.09794154763221741, -0.03202458843588829, -0.04355153068900108, -0.029623419046401978, -0.07068470120429993, -0.04810095950961113, 0.046731818467378616, -0.011760931462049484, -0.007410246878862381, -0.04808023199439049, 0.08171175420284271, -0.026672499254345894, -0.07015212625265121, -0.02134966105222702, -0.10901115834712982, 0.10161367058753967, -0.02559906616806984, -0.0796349048614502, -0.018698427826166153, 0.11398588120937347], [-0.039517566561698914, -0.042154617607593536, 0.011934811249375343, -0.14438174664974213, 0.026731887832283974, -0.15931512415409088, -0.045509085059165955, -0.0717191994190216, 0.0469902902841568, 0.05786477029323578, -0.039649952203035355, 0.14729127287864685, 0.051445890218019485, 0.08471092581748962, -0.14737485349178314, 0.005752988159656525, 0.10734173655509949, 0.12486804276704788, 0.00723209697753191, 0.048715945333242416, -0.042623601853847504, -0.09099709242582321, -0.02184363827109337, 0.12268712371587753, 0.010035917162895203, -0.005492472089827061, -0.09800707548856735, -0.04345100745558739, -0.05386929214000702, -0.06701543927192688, 0.08841449022293091, -0.01505250297486782, -0.037227123975753784, 0.0706387609243393, -0.05140123888850212, -0.062136199325323105, 0.02636033110320568, -0.01199720986187458, -0.12416887283325195, -0.03494149073958397, 0.1438399702310562, -0.0008314339211210608, -0.04893506318330765, 0.0068090688437223434, 0.08921327441930771, 0.04347972944378853, 0.014795718714594841, -0.13322444260120392, -0.1399431824684143, -0.0764324739575386, 0.09325990825891495, -0.05386997014284134, -0.09380850195884705, -0.010397335514426231, -0.17415109276771545, -0.04686759412288666, -0.042287468910217285, -0.054233625531196594, 0.07544057816267014, -0.0475422665476799, 0.11080044507980347, 0.04841995611786842, -0.10528310388326645, 0.09758854657411575, -0.03132957965135574, -0.04511174559593201, 0.11541377007961273, -0.019309360533952713, 0.006871945224702358, -0.013001136481761932, -0.004917846992611885, 0.16117040812969208, -0.002853765618056059, -0.036648984998464584, 0.0437893308699131, -0.05242016538977623, 0.016289694234728813, -0.03615383431315422, 0.044282518327236176, -0.18163570761680603, -0.0543447881937027, -0.005420921370387077, -0.0024763341061770916, 0.006372386589646339, -0.036737196147441864, -0.009687568992376328, 0.01800938881933689, -0.00737786665558815, 0.034723974764347076, -0.034277766942977905, 0.006928788498044014, 0.06358248740434647, -0.042257919907569885, 0.0021052020601928234, 0.05022750422358513, 0.12483369559049606, -0.005132988095283508, -0.047529350966215134, 0.0031442116014659405, 0.1167728453874588], [-0.06698797643184662, -0.019148927181959152, -0.03148500248789787, -0.1366589367389679, -0.04571206867694855, -0.11362612992525101, -0.013998538255691528, -0.0757736936211586, 0.06837709248065948, 0.09853523224592209, -0.016977649182081223, 0.07531949132680893, 0.009363435208797455, 0.06656045466661453, -0.1281241774559021, 0.035597171634435654, 0.12833793461322784, 0.10170572996139526, -0.008217494934797287, 0.006320055574178696, -0.05750436335802078, -0.10200072824954987, 0.06997448205947876, 0.14745637774467468, -0.013775138184428215, -0.012685218825936317, -0.08748535066843033, -0.006072663702070713, -0.0357259102165699, -0.06634732335805893, 0.109094999730587, 0.03861508145928383, -0.006908474490046501, -0.0520513653755188, -0.04606311395764351, -0.09682421386241913, 0.009733558632433414, -0.018255559727549553, -0.1357543170452118, -0.0651465356349945, 0.1321583241224289, -0.04484739899635315, 0.028510374948382378, -0.03999054431915283, 0.05994381383061409, -0.03860205039381981, -0.015475609339773655, -0.1169019490480423, -0.1435769498348236, -0.07645545154809952, 0.11609196662902832, 0.04714567959308624, -0.10767176002264023, -0.045946795493364334, -0.08308808505535126, -0.019737636670470238, -0.05501772463321686, -0.036307528614997864, 0.0771653801202774, -0.04355568811297417, 0.1264563947916031, 0.0671314001083374, -0.07724086195230484, 0.06928150355815887, 0.03421150520443916, 0.014642216265201569, -0.02570430189371109, -0.0575263611972332, 0.06924997270107269, -0.034969262778759, -0.03814307972788811, 0.0785987377166748, 0.009868539869785309, -0.01540377363562584, -0.07356741279363632, -0.04307962954044342, 0.028912650421261787, -0.0056514982134103775, 0.02476508729159832, -0.005144020542502403, 0.005651719868183136, -0.04177103564143181, 0.05380142852663994, 0.01772434264421463, 0.009820500388741493, -0.00408425135537982, -0.008840790018439293, 0.0015407551545649767, -0.010736375115811825, -0.021266963332891464, -0.03768349438905716, 0.0781707838177681, 0.06306694447994232, 0.02781357616186142, 0.048055894672870636, 0.14449357986450195, -0.03143785521388054, 7.088168058544397e-05, -0.07699903845787048, 0.11696846783161163], [-0.08322716504335403, -0.04968937858939171, -0.03237235173583031, -0.15143677592277527, 0.012561054900288582, -0.12953005731105804, -0.003411354497075081, 0.06803218275308609, 0.06820192188024521, 0.12522061169147491, 0.011501247063279152, 0.09987971186637878, -0.06101779639720917, 0.03799601271748543, -0.09543785452842712, -0.015853311866521835, 0.07920544594526291, 0.07906828820705414, -0.021505853161215782, 0.0013460667105391622, -0.043509211391210556, -0.08232449740171432, 0.02678658254444599, 0.16890335083007812, -0.15272077918052673, 0.0033142520114779472, -0.07683080434799194, 0.018766621127724648, -0.0005294301081448793, -0.05084111541509628, -0.0764620378613472, 0.055063646286726, 0.0174504816532135, -0.034013427793979645, -0.026159126311540604, -0.11083521693944931, -0.0027900850400328636, 0.012154998257756233, -0.14745841920375824, -0.09959575533866882, 0.10960447788238525, -0.07417510449886322, -0.07799780368804932, -0.013093426823616028, 0.045292701572179794, 0.004711344838142395, -0.043698541820049286, -0.08599469810724258, -0.14540211856365204, -0.07154581695795059, 0.12113255262374878, 0.06210378184914589, -0.09662637859582901, -0.06433374434709549, -0.01930309273302555, -0.008379404433071613, -0.06989651918411255, -0.00810018740594387, 0.07414332777261734, -0.04031047970056534, 0.18763680756092072, 0.14941057562828064, -0.0823538675904274, 0.03880475088953972, 0.05444123223423958, -0.03282460570335388, -0.021525083109736443, -0.0009047036292031407, 0.016658920794725418, -0.023695582523941994, 0.06536330282688141, 0.06372948735952377, 0.003381319809705019, -0.027424536645412445, 0.030568724498152733, 0.10567401349544525, -0.1499919593334198, 0.07939287275075912, 0.08474794775247574, -0.02851242572069168, 0.04421846568584442, -0.05622401461005211, -0.05277406796813011, 0.02590586245059967, 0.03792375326156616, -0.03231779485940933, -0.04320509731769562, 0.0038244016468524933, -0.05258629098534584, -0.011769118718802929, 0.00019291241187602282, -0.054353829473257065, -0.03407912328839302, 0.04150969535112381, 0.03638831153512001, -0.027129290625452995, 0.06764375418424606, 0.026242010295391083, -0.025129441171884537, 0.11393936723470688], [-0.02616335079073906, 0.0312053095549345, 0.010765055194497108, -0.1726885437965393, 0.060806646943092346, -0.12740132212638855, 0.05642929673194885, 0.04029746353626251, 0.07585263252258301, -0.04738768935203552, -0.16801385581493378, 0.12237177789211273, -0.01914041116833687, 0.017640167847275734, -0.04339315742254257, 0.0598347969353199, 0.09432186186313629, 0.048101022839546204, 0.13834930956363678, -0.03099113143980503, -0.06981301307678223, 0.09785899519920349, -0.027199894189834595, -0.15795764327049255, -0.13459546864032745, 0.14337696135044098, -0.09725826233625412, -0.11713676154613495, 0.04258840158581734, -0.030907412990927696, -0.0590176098048687, -0.06350640207529068, 0.04303095489740372, -0.02382354438304901, -0.027502968907356262, -0.045662932097911835, -0.020485222339630127, 0.025509458035230637, 0.03266066685318947, -0.13443498313426971, -0.019033266231417656, -0.10445857048034668, -0.03400357812643051, -0.03959423676133156, 0.06552305817604065, 0.024690033867955208, -0.08357897400856018, 0.03559514507651329, -0.14849743247032166, -0.06105334311723709, 0.11939126253128052, -0.014697561040520668, -0.0794207826256752, 0.026752294972538948, 0.004064382053911686, 0.00794258527457714, 0.016150526702404022, 0.015952978283166885, 0.06270284205675125, -0.03552260622382164, 0.1885138899087906, 0.1427268385887146, -0.051570020616054535, -0.004790270701050758, 0.06780428439378738, 0.019009942188858986, -0.05915915593504906, 0.0572146400809288, -0.015939556062221527, -0.007913593202829361, -0.07251665741205215, 0.041115377098321915, -0.06688334792852402, 0.045488446950912476, 0.04356042668223381, 0.13321982324123383, -0.14006412029266357, 0.1035667359828949, 0.07563337683677673, -0.0551421232521534, 0.06243782117962837, 0.05266375094652176, 0.059482142329216, -0.060919567942619324, 0.06654328852891922, -0.05876278132200241, -0.07053610682487488, 0.009861763566732407, -0.0644187182188034, 0.0001083004754036665, -0.07233747094869614, 0.055969562381505966, 0.05744305998086929, -0.05768420547246933, 0.016555892303586006, -0.030064024031162262, -0.03687954321503639, 0.047944776713848114, -0.025636978447437286, 0.10702976584434509], [0.0028200822416692972, 0.018696341663599014, -0.06470496952533722, 0.024937426671385765, 0.06957991421222687, -0.09811576455831528, 0.04718548059463501, 0.042007554322481155, 0.08627939224243164, -0.016199322417378426, -0.14250141382217407, 0.14159776270389557, -0.04220978170633316, -0.0037333816289901733, 0.06468698382377625, -0.005288304761052132, 0.10869454592466354, 0.012644065544009209, 0.12433566153049469, -0.017830463126301765, 0.006727177649736404, 0.11830669641494751, -0.05991867557168007, -0.13813439011573792, -0.1147739514708519, 0.1413564383983612, -0.09032634645700455, -0.09501153230667114, 0.06352701783180237, -0.022666534408926964, -0.02939470484852791, -0.03351696580648422, 0.0592450387775898, 0.06964907795190811, 0.05890607833862305, -0.06184836104512215, -0.046306073665618896, -0.0430242195725441, 0.0715479701757431, -0.1575789600610733, -0.03768802434206009, -0.13233743607997894, 0.0402129702270031, -0.009282509796321392, 0.044727589935064316, 0.00945950485765934, -0.11031080782413483, 0.06925225257873535, -0.07959175109863281, -0.059335771948099136, 0.0742124393582344, -0.051554061472415924, -0.06105918437242508, 0.05484771728515625, 0.11091051995754242, 0.016106219962239265, -0.005986155942082405, 0.038054004311561584, -0.12274414300918579, -0.03162669762969017, 0.185384139418602, 0.06871113926172256, -0.018570926040410995, -0.033200569450855255, -0.003365200012922287, -0.07709044218063354, -0.05530085414648056, -0.0036626411601901054, -0.01962369494140148, 0.011640127748250961, -0.054941326379776, -0.08693739026784897, -0.10556424409151077, 0.02293209359049797, 0.026665223762392998, 0.147897407412529, -0.139536514878273, 0.007471286691725254, 0.05921272188425064, -0.005576025228947401, -0.013973567634820938, -0.056889213621616364, -0.0022458797320723534, -0.05470212176442146, 0.08845020830631256, 0.018227966502308846, -0.09875848144292831, -0.016894349828362465, -0.06348532438278198, -0.02541474625468254, -0.03011927381157875, -0.023617662489414215, -0.06734037399291992, -0.0462864451110363, -0.010927781462669373, -0.020215624943375587, -0.030407866463065147, -0.044019393622875214, -0.03364008292555809, 0.032042402774095535], [-0.016864057630300522, -0.06940244138240814, -0.02474738098680973, 0.01330011896789074, 0.05414349213242531, -0.11878203600645065, 0.0808698832988739, 0.0030753575265407562, 0.1361352801322937, 0.0341484509408474, -0.11426758021116257, -0.03963854908943176, 0.016307717189192772, 0.1500573754310608, 0.0919051393866539, -0.026865145191550255, 0.1263795644044876, -0.046007849276065826, 0.10024218261241913, 0.051239974796772, -0.025402145460247993, 0.10084658861160278, 0.015040569007396698, -0.124515600502491, -0.1141357496380806, 0.13623373210430145, -0.0593375600874424, -0.03999459370970726, 0.08432488888502121, 0.11215023696422577, 0.0007948934799060225, 0.08141294121742249, 0.08195405453443527, 0.04903845861554146, 0.07825080305337906, -0.07353691756725311, -0.10109701007604599, -0.005014171823859215, 0.20388305187225342, -0.17901982367038727, -0.0063242232427001, -0.08377902954816818, -0.02629340998828411, -0.017811480909585953, -0.02259252779185772, -0.01417049951851368, -0.13570848107337952, 0.09733498096466064, -0.04299888014793396, -0.04491828754544258, 0.0373573824763298, -0.08366189897060394, -0.048553455621004105, 0.02706294320523739, 0.08938834816217422, 0.014744022861123085, -0.022301731631159782, 0.06002483889460564, -0.13376937806606293, -0.021816067397594452, 0.18227903544902802, 0.043242890387773514, 0.0344771109521389, -0.04850689321756363, -0.006599999964237213, -0.016999172046780586, -0.02846653200685978, 0.018124548718333244, 0.07889726012945175, -0.037314850836992264, 0.030099064111709595, -0.1674865484237671, -0.11003876477479935, 0.0001013254513964057, 0.048196107149124146, 0.15882311761379242, -0.11216479539871216, 0.027114180848002434, 0.04214007034897804, -0.0265401192009449, -0.029969017952680588, 0.06960580497980118, -0.006451904773712158, -0.04535876214504242, -0.10132670402526855, -0.0346064418554306, -0.12289999425411224, -0.03171919286251068, 0.09285957366228104, -0.022267283871769905, 0.003220643848180771, -0.054608650505542755, 0.0416383221745491, -0.041483767330646515, -0.04083101451396942, -0.002301967702805996, 0.0010385062778368592, -0.03617832437157631, -0.0840044915676117, -0.043556295335292816], [0.03504672646522522, 0.04237387329339981, -0.06774762272834778, -0.005541225895285606, 0.011886178515851498, -0.14381127059459686, 0.0015238071791827679, 0.0390876829624176, 0.13352806866168976, 0.061414964497089386, -0.07786502689123154, -0.020264090970158577, 0.008331097662448883, 0.12395283579826355, 0.003451382042840123, -0.06381769478321075, -0.10125935822725296, -0.09831657260656357, 0.05863574147224426, 0.0591670423746109, -0.032204657793045044, 0.07273423671722412, -0.008113905787467957, -0.1056855320930481, -0.08832342177629471, 0.1298106461763382, -0.01348017156124115, 0.01908230036497116, -0.022386690601706505, 0.12322778254747391, -0.08982867747545242, -0.061408236622810364, 0.09930706024169922, 0.06661524623632431, 0.01743931695818901, 0.06753111630678177, -0.11400837451219559, -0.01649860292673111, 0.192000150680542, -0.1925509124994278, -0.0220970269292593, -0.10300378501415253, -0.02770339325070381, -0.001780239981599152, -0.09943601489067078, 0.014278749004006386, 0.040085580199956894, -0.0028919223695993423, -0.04667394608259201, -0.04056632146239281, 0.033885326236486435, -0.009041856974363327, -0.03055953048169613, -0.026878898963332176, 0.0581979863345623, 0.013006245717406273, 0.030604828149080276, 0.07725003361701965, -0.1315896213054657, -0.020657513290643692, 0.17401760816574097, 0.020466962829232216, 0.06602538377046585, 0.0548456609249115, -0.05502839386463165, 0.005536239594221115, 0.009292865172028542, -0.029988039284944534, -0.01404925063252449, -0.024940460920333862, -0.02498507685959339, -0.17060795426368713, -0.09977023303508759, 0.09382325410842896, -0.007109584286808968, 0.17123834788799286, -0.08383212983608246, -0.013678587973117828, 0.011627398431301117, -0.05465392395853996, -0.023320980370044708, -0.04332805052399635, -0.0628739595413208, -0.03700563311576843, -0.07590201497077942, -0.036734290421009064, -0.09083149582147598, -0.03157373517751694, 0.048548828810453415, -0.01194175984710455, -0.05709650367498398, 0.02571455016732216, -0.01307479478418827, -0.17400026321411133, -0.06703922897577286, 0.02335904724895954, -0.013651899993419647, -0.013341597281396389, 0.01694508083164692, -0.05066647753119469], [0.010561609640717506, 0.0724174752831459, -0.022291408851742744, -0.03380627557635307, 0.05467885732650757, -0.1680465191602707, 0.06505094468593597, -0.0541560985147953, 0.1287495493888855, -0.04690903425216675, -0.04013524204492569, 0.0008391945157200098, -0.035067785531282425, 0.10391179472208023, 0.03250258415937424, -0.045500513166189194, -0.08326021581888199, -0.12816518545150757, 0.042673394083976746, 0.004236903972923756, -0.035145651549100876, 0.041166041046381, -0.004036686848849058, -0.1338154673576355, -0.003725176677107811, 0.07381872087717056, 0.04233497008681297, 0.06026036664843559, -0.002245924901217222, 0.13067954778671265, -0.07291675359010696, 0.004948207177221775, -0.018689408898353577, -0.015721268951892853, 0.05924241989850998, 0.05132260546088219, -0.11649098247289658, 0.04531319439411163, 0.18555954098701477, -0.13775278627872467, -0.044394951313734055, -0.12357009947299957, 0.05157160758972168, 0.05180257931351662, -0.13463769853115082, 0.05754507705569267, 0.017037414014339447, 0.00824076309800148, -0.007151118479669094, -0.12265940755605698, 0.03055674396455288, -0.04794212430715561, -0.012382207438349724, -0.022580506280064583, -0.01238737441599369, -0.040258459746837616, 0.028681734576821327, 0.09464509040117264, -0.019573066383600235, -0.011970456689596176, 0.17012271285057068, -0.00627964548766613, 0.04423484206199646, 0.028909843415021896, 0.07197262346744537, -0.0018613050924614072, -0.014424797147512436, -0.07295169681310654, 0.013254817575216293, -0.0041004084050655365, 0.009524717926979065, -0.1742633730173111, 0.024118617177009583, 0.07245603203773499, 0.06327223777770996, 0.1800377368927002, -0.03514910116791725, 0.011354060843586922, -0.05047902464866638, 0.1260381042957306, 0.004873008467257023, 0.0010170574532821774, -0.059263408184051514, -0.02269521914422512, -0.04767785966396332, -0.04879675805568695, -0.10966303199529648, -0.03352348506450653, 0.00331717636436224, 0.002048973459750414, 0.059172142297029495, -0.0493256151676178, 0.018749671056866646, -0.16714076697826385, 0.09699944406747818, 0.03773000091314316, 0.06248639151453972, -0.01454499177634716, -0.06349115818738937, -0.06260764598846436], [-0.02398861199617386, 0.08208376914262772, 0.0663900077342987, -0.05497996136546135, -0.003389129415154457, -0.1903284788131714, -0.022165920585393906, -0.07747355848550797, -0.04257519543170929, -0.02180345170199871, 0.025267377495765686, 0.026888476684689522, -0.06190451607108116, 0.022177455946803093, 0.05287070944905281, 0.012564605101943016, -0.06110542267560959, -0.14516575634479523, 0.07832399755716324, 0.027251508086919785, -0.0010597981745377183, 0.015340127050876617, -0.032180897891521454, -0.10986953973770142, 0.03266509994864464, 0.024660998955368996, 0.05354825034737587, 0.07969371229410172, -0.041027896106243134, -0.03211642801761627, -0.0642608255147934, -0.04483088478446007, -0.12763911485671997, -0.08179938793182373, -0.008958708494901657, 0.03382121026515961, -0.09556493163108826, -0.03627012297511101, 0.16283294558525085, -0.14842382073402405, -0.09651324898004532, -0.08324265480041504, -0.010672132484614849, -0.04382653161883354, -0.1568409502506256, -0.022753821685910225, -0.006181962788105011, 0.01599612645804882, -0.0043083974160254, -0.15796349942684174, 0.06223699077963829, -0.064598448574543, 0.012128022499382496, -0.0005393398460000753, -0.04977845028042793, -0.09829293936491013, 0.007187391631305218, 0.10596875101327896, 0.04138610512018204, -0.007316901348531246, 0.15547554194927216, -0.028607146814465523, 0.07378269731998444, 0.0013265885645523667, 0.03690435364842415, 0.07227160781621933, 0.024519458413124084, 0.005007781088352203, 0.08165477961301804, 0.03267737105488777, -0.07828472554683685, -0.013302060775458813, 0.03308730944991112, -0.050019972026348114, -0.05393913388252258, 0.18763630092144012, 0.0027463389560580254, 0.0392744280397892, -0.04131503030657768, 0.09526333957910538, 0.022596845403313637, 0.049208465963602066, 0.033917415887117386, 0.017143407836556435, 0.0021348465234041214, -0.012396864593029022, 0.054967015981674194, -0.103033147752285, -0.029674533754587173, 0.005165698006749153, -0.03785526752471924, -0.052170608192682266, 0.019064029678702354, -0.14819495379924774, 0.07149464637041092, 0.03719073161482811, -0.03440425172448158, 0.010785479098558426, 0.010304076597094536, -0.09832444787025452], [-0.05842066928744316, 0.05839556083083153, -0.004692623391747475, -0.08717836439609528, 0.0415337048470974, -0.19719409942626953, -0.06006510183215141, -0.01673148013651371, -0.05047322437167168, 0.005972354672849178, 0.052985161542892456, -0.12223701179027557, 0.016072312369942665, -0.007956601679325104, 0.06955480575561523, -0.03510575369000435, -0.019285865128040314, -0.15832294523715973, 0.06207659840583801, 0.08742353320121765, 0.08403074741363525, -0.0324820838868618, -0.06122476980090141, -0.07988458126783371, 0.07107603549957275, -0.05572997033596039, -0.04845171421766281, 0.09894628822803497, -0.018160320818424225, -0.03975110873579979, -0.0319671705365181, 0.05259178578853607, -0.10114826261997223, -0.060510046780109406, -0.06015448644757271, -0.0067633213475346565, -0.10346901416778564, -0.05043896660208702, 0.1497877687215805, -0.049051620066165924, -0.1289648562669754, -0.04382126405835152, 0.011890118941664696, -0.01766623929142952, 0.1015646904706955, -0.04689599573612213, -0.04363175109028816, -0.0383412130177021, -0.006396889220923185, -0.1613365262746811, 0.12211649864912033, 0.06144246459007263, 0.026679040864109993, 0.042585138231515884, -0.06920414417982101, -0.1040186807513237, -0.0005513413343578577, 0.10827206075191498, 0.06024375557899475, 0.01593259535729885, -0.012961668893694878, -0.04622062295675278, 0.07973004132509232, -0.016443273052573204, -0.019123606383800507, 0.004939809441566467, -0.02634904347360134, 0.010400891304016113, 0.03042970411479473, 0.06887809932231903, -0.04007386788725853, -0.11613091826438904, 0.0022035520523786545, -0.0861496776342392, 0.01729532703757286, 0.18751037120819092, 0.027255572378635406, -0.1115274578332901, 0.01682242564857006, 0.0654546320438385, 0.04775708168745041, -0.012138476595282555, -0.04408368840813637, 0.036400433629751205, 0.06359631568193436, 0.05635690316557884, 0.021240195259451866, -0.10998103767633438, -0.0662715807557106, -0.07604878395795822, 0.014866173267364502, -0.036144427955150604, -0.005694672465324402, -0.12262051552534103, 0.04418003186583519, 0.04477846249938011, -0.04194873943924904, 0.06718873977661133, 0.06953109055757523, -0.1012771874666214], [-0.08664155006408691, -0.06110760197043419, 0.04598964750766754, -0.1086253672838211, 0.044598713517189026, 0.09778467565774918, 0.018789540976285934, 0.03807821869850159, -0.06677306443452835, 0.039013173431158066, 0.06619482487440109, -0.09622397273778915, 0.015962298959493637, -0.024692131206393242, -0.07610943168401718, -0.00966660026460886, 0.04448840767145157, 0.12138306349515915, 0.04598867520689964, -0.02440120279788971, 0.01612088829278946, -0.0828244686126709, -0.09277511388063431, -0.055337220430374146, 0.09595609456300735, -0.05408453196287155, -0.08935155719518661, 0.10090412199497223, 0.01290072686970234, -0.03588728979229927, -0.0029475102201104164, 0.0489453449845314, -0.07741004228591919, 0.06218666210770607, 0.0387345515191555, -0.032241933047771454, -0.11790299415588379, 0.07401934266090393, 0.1397518366575241, -0.06563059240579605, -0.15028567612171173, -0.0726265087723732, -0.04625191539525986, -0.013281715102493763, 0.08083178848028183, -0.0602630190551281, -0.0693628117442131, -0.017105767503380775, -0.08722065389156342, -0.1605023443698883, 0.14024357497692108, 0.014993501827120781, 0.048114266246557236, 0.02422698214650154, -0.03277106210589409, -0.10144561529159546, -0.023027339950203896, 0.07743608206510544, 0.062466613948345184, 0.05788080394268036, -0.019152941182255745, -0.05221714824438095, 0.07574815303087234, -0.04600290209054947, -0.04078363999724388, 0.05670957639813423, 0.016686420887708664, 0.016263209283351898, -0.04227442666888237, 0.09878624230623245, 0.05098108947277069, -0.12338046729564667, 0.004276597872376442, -0.10795892775058746, 0.02120002545416355, 0.19137661159038544, -0.10028679668903351, -0.0972825139760971, -0.0008834482869133353, 0.03293181210756302, 0.0672750473022461, -0.049601953476667404, -0.05346444994211197, 0.04901231452822685, 0.07616115361452103, -0.0021857251413166523, -0.016714902594685555, -0.10355257242918015, 0.016952132806181908, -0.07533073425292969, 0.019591867923736572, 0.029602013528347015, -0.006246302276849747, -0.09840615093708038, 0.023740343749523163, 0.06061973422765732, 0.030522624030709267, 0.08592840284109116, 0.019478902220726013, -0.09851038455963135], [-0.10675515234470367, -0.08815762400627136, 0.03195884823799133, -0.12939950823783875, -0.038838885724544525, 0.18149107694625854, 0.03643360733985901, 0.05781053379178047, -0.08739281445741653, 0.06331047415733337, -0.11636718362569809, -0.06503519415855408, -0.02269672602415085, -0.005392776802182198, -0.05204419046640396, -0.07502558827400208, 0.09089871495962143, 0.0961698442697525, -0.04611174762248993, -0.0157459769397974, -0.010908207856118679, -0.10564789921045303, 0.12350404262542725, -0.030255785211920738, 0.11566510796546936, 0.057363566011190414, -0.09435417503118515, -0.054849136620759964, 0.06465508788824081, -0.028924455866217613, 0.020789451897144318, 0.034611500799655914, 0.005404278635978699, 0.001654982683248818, -0.0249344389885664, -0.05702011287212372, 0.15995372831821442, 0.0030472115613520145, 0.12569621205329895, -0.08075133711099625, -0.1641102433204651, -0.09606069326400757, 0.032594744116067886, 0.046640120446681976, 0.0723985806107521, -0.005382169969379902, -0.09207575768232346, 0.005453865975141525, -0.09006385505199432, -0.16242419183254242, 0.15552401542663574, -0.035249363631010056, 0.05054946616292, 0.03743467852473259, -0.037327297031879425, -0.09495362639427185, 0.0656633973121643, 0.08016654849052429, 0.0597822368144989, 0.06253833323717117, -0.02806459739804268, -0.06231014057993889, 0.004484058823436499, -0.07644855231046677, 0.00042064825538545847, -0.02104002796113491, 0.058782633394002914, 0.041794996708631516, 0.06745130568742752, 0.12430623173713684, -0.012079033069312572, -0.12617240846157074, -0.035523030906915665, 0.07062993943691254, -0.06814761459827423, 0.14044873416423798, -0.08046082407236099, -0.07033621519804001, -0.0631541907787323, 0.0054183416068553925, 0.044617969542741776, 0.06535691767930984, -0.009788891300559044, 0.05820466950535774, 0.09445374459028244, -0.008603226393461227, -0.054106567054986954, -0.10019063204526901, -0.0310551468282938, -0.05950295552611351, -0.028453221544623375, -0.025192921981215477, -0.06532633304595947, -0.06455554068088531, 0.0322081632912159, 0.07028239965438843, 0.013412417843937874, -0.023854685947299004, -0.05109168216586113, -0.012749475426971912], [-0.12382028251886368, -0.09998119622468948, 0.003496728837490082, -0.04609442129731178, -0.0037277466617524624, 0.16464045643806458, -0.05753764882683754, 0.03296442702412605, -0.09105139225721359, -0.02626749314367771, -0.0903066024184227, -0.04039561003446579, -0.021807946264743805, 0.025309646502137184, -0.019171325489878654, 0.0010441105114296079, 0.1168491542339325, 0.07954105734825134, -0.058125995099544525, -0.06836660951375961, 0.06731932610273361, 0.017188167199492455, 0.09492006152868271, -0.005490714684128761, -0.07754670828580856, 0.05768156796693802, -0.08509024232625961, -0.037778738886117935, 0.0970386415719986, 0.11376752704381943, -0.0031374304089695215, -0.016261059790849686, 0.07056323438882828, 0.046510349959135056, 0.0712500661611557, -0.08243484050035477, 0.1442713886499405, -0.04640853777527809, 0.1571490466594696, -0.017768967896699905, -0.15142802894115448, -0.11862443387508392, -0.038268499076366425, -0.028225407004356384, 0.06785866618156433, 0.03369343280792236, -0.05950971692800522, 0.045467160642147064, 0.11071667075157166, -0.1616775095462799, 0.1625998318195343, -0.057059723883867264, 0.06489873677492142, 0.03773899003863335, 0.0021201337222009897, 0.005754566751420498, 0.045739613473415375, -0.005829747766256332, 0.05580152943730354, -0.018290936946868896, -0.03005761280655861, -0.0694170817732811, 0.0323701947927475, -0.10325721651315689, 0.019589634612202644, 0.05386319383978844, -0.04220156744122505, -0.02643601782619953, 0.05095948278903961, 0.14362575113773346, -0.06947106868028641, -0.13088642060756683, -0.020735280588269234, 0.11001937091350555, -0.05090798810124397, -0.20108190178871155, -0.057574156671762466, -0.04055650159716606, 0.00609467551112175, -0.02260485664010048, 0.07056812196969986, -0.03712102398276329, 0.06544329226016998, -0.00981578603386879, 0.11629491299390793, -0.008774250745773315, -0.08088013529777527, -0.09540543705224991, -0.06626565754413605, -0.0490475557744503, 0.06856264173984528, 0.04724651202559471, -0.04233531653881073, 0.00978573877364397, -0.0006368739996105433, 0.07868434488773346, 0.04304909706115723, -0.10947868227958679, 0.053780920803546906, 0.000142223434522748], [0.019245637580752373, 0.03289816156029701, -0.05858246237039566, -0.0658370852470398, 0.038193508982658386, 0.15484802424907684, 0.010642565786838531, -0.07475833594799042, 0.0340549536049366, -0.003147509880363941, -0.055630944669246674, -0.0081745944917202, 0.04838063195347786, 0.012805427424609661, 0.008535778149962425, -0.0745176449418068, 0.14018304646015167, -0.031423069536685944, 0.005966832861304283, -0.05869549512863159, -0.006626361981034279, 0.006076042540371418, 0.05991821736097336, 0.010860646143555641, -0.05623618885874748, 0.06036261469125748, -0.087693952023983, -0.017837202176451683, 0.11805926263332367, 0.14268870651721954, 0.021911483258008957, 0.023787416517734528, -0.13586638867855072, -0.06479082256555557, 0.0333031564950943, 0.15188783407211304, 0.13240444660186768, 0.06180409714579582, 0.14245253801345825, -0.029907237738370895, -0.09628715366125107, -0.14957652986049652, -0.05925506353378296, 0.03400235250592232, 0.046811673790216446, -0.02304222248494625, -0.07956190407276154, 0.06791464239358902, 0.11423923075199127, -0.15492625534534454, 0.1633923053741455, 0.04925880581140518, -0.0076178256422281265, 0.05335131287574768, -0.019502023234963417, 0.09121450036764145, 0.023429952561855316, 0.0069473618641495705, -0.008105998858809471, -0.040267087519168854, -0.03550387918949127, 0.0002059547696262598, 0.07335110753774643, 0.03632869943976402, 0.0043412260711193085, -0.011420851573348045, -0.06993851065635681, 0.014687934890389442, 0.06707611680030823, 0.16465510427951813, -0.011136386543512344, 0.10387973487377167, -0.0025353552773594856, 0.10397300124168396, 0.04042695462703705, -0.1964544802904129, -0.16084431111812592, -0.004493718966841698, -0.009833581745624542, -0.053004730492830276, 0.09723100066184998, 0.031355347484350204, -0.04323194548487663, 0.03401035815477371, 0.1010538786649704, 0.05305803567171097, -0.06247328966856003, -0.08609185367822647, -0.10610514879226685, -0.028301866725087166, -0.037277255207300186, -0.04031672701239586, -0.010094333440065384, 0.035895414650440216, -0.03945891186594963, 0.09165774285793304, -0.026997486129403114, -0.09451279044151306, -0.05574462190270424, -0.0031688616145402193], [-0.004192762076854706, 0.013934122398495674, -0.07106201350688934, 0.10451986640691757, 0.07081807404756546, 0.13626399636268616, 0.03637291118502617, 0.0500645749270916, 0.02851272188127041, 0.027005041018128395, -0.010771164670586586, 0.012637341395020485, 0.07683412730693817, -0.00567815825343132, -0.16733300685882568, 0.006941898725926876, 0.1565549224615097, -0.0478280633687973, -0.012093965895473957, -0.01236044056713581, -0.04840211197733879, 0.019001075997948647, 0.011472505517303944, -0.009395338594913483, -0.026064809411764145, 0.06755977123975754, -0.07921645045280457, -0.09528707712888718, 0.014453629031777382, 0.14475944638252258, 0.04588855057954788, 0.04799681901931763, -0.11475532501935959, 0.07584177702665329, 0.030649764463305473, 0.1258375644683838, -0.09945807605981827, 0.031000928953289986, 0.11349570751190186, -0.04843626171350479, -0.1107700914144516, -0.04651244729757309, 0.02598521113395691, 0.046773966401815414, 0.005477002821862698, -0.035410474985837936, -0.10590649396181107, -0.07599461823701859, 0.11011103540658951, -0.1339171677827835, 0.1523529291152954, 0.07123498618602753, 0.014628419652581215, 0.020376581698656082, -0.05507556349039078, 0.10244939476251602, -0.032532159239053726, 0.027773018926382065, -0.016093851998448372, -0.08653435856103897, -0.03148052096366882, 0.103080615401268, 0.10063353180885315, 0.01566397026181221, -0.03115982748568058, -0.035859815776348114, -0.029660813510417938, 0.03656575083732605, -0.07285559177398682, -0.1356274038553238, -0.05202263966202736, 0.09737066924571991, 0.011831628158688545, 0.14760977029800415, 0.07862209528684616, -0.18682999908924103, -0.1376269906759262, 0.03378421440720558, 0.055388111621141434, -0.08002115786075592, -0.07383006811141968, 0.031189674511551857, 0.02867257036268711, 0.04253847151994705, 0.10356111824512482, -0.041091807186603546, -0.01860462687909603, -0.07940180599689484, 0.030845312401652336, 0.054941121488809586, 0.006455660797655582, 0.02686944045126438, 0.021310273557901382, 0.05264216288924217, -0.06551028043031693, -0.0631205290555954, 0.031363848596811295, -0.08409614115953445, -0.04502854868769646, 0.005362739786505699], [-0.04333394765853882, -0.02887582592666149, 0.024276314303278923, 0.08107616752386093, -0.051547080278396606, 0.11319581419229507, -0.07031058520078659, 0.019509147852659225, 0.02391359955072403, 0.05780024826526642, 0.04617290198802948, 0.0500965341925621, 0.006953625474125147, 0.14245544373989105, -0.14461448788642883, 0.0022465712390840054, -0.02145441621541977, 0.01749473437666893, -0.14052200317382812, -0.021658558398485184, 0.05464114993810654, -0.004251494072377682, 0.010495197027921677, 0.010993153788149357, -0.006050541065633297, 0.06485725939273834, -0.07158748805522919, -0.10112413018941879, 0.03334686532616615, 0.15344592928886414, 0.005958680994808674, -0.053708601742982864, -0.09642385691404343, -0.05871354788541794, 0.026640472933650017, 0.10142172873020172, -0.1493595987558365, -0.06542348116636276, 0.08616145700216293, -0.06814172863960266, -0.1296514868736267, -0.06315076351165771, -0.011227201670408249, 0.04020579904317856, -0.016489828005433083, 0.07613584399223328, -0.12818104028701782, -0.05181369185447693, 0.13323217630386353, 0.10336443781852722, 0.08435206860303879, -0.018897755071520805, 0.030756549909710884, -0.031359657645225525, -0.08352097868919373, 0.10786137729883194, -0.06520280241966248, 0.04473750293254852, -0.01797712966799736, -0.0769519954919815, 0.03856651857495308, 0.0959952101111412, 0.010669716633856297, 0.010214116424322128, 0.05161058530211449, 0.002017403021454811, 0.0007472240831702948, 0.009418152272701263, 0.00207328237593174, -0.11934804916381836, 0.014642192050814629, 0.08421606570482254, 0.030903464183211327, 0.13207167387008667, 0.003957603592425585, -0.17616967856884003, -0.11598451435565948, 0.06384644657373428, 0.004139354452490807, 0.1311706006526947, -0.1152382493019104, -0.03988909721374512, 0.04857458919286728, -0.07124463468790054, 0.12447784841060638, 0.01385425217449665, -0.04430803284049034, -0.07968791574239731, 0.07993645966053009, 0.08371438831090927, -0.048832789063453674, -0.06152724102139473, -0.0649929791688919, 0.07012466341257095, -0.0848579853773117, -0.04806852713227272, 0.015262071043252945, -0.06899609416723251, -0.010737195611000061, 0.0039186300709843636], [-0.07145118713378906, -0.036955300718545914, -0.012707868590950966, 0.005039729177951813, -0.02635880559682846, 0.07783138006925583, -0.06619638949632645, -0.052309345453977585, 0.0030545536428689957, 0.0788838118314743, 0.08354005217552185, 0.09476176649332047, -0.005171336233615875, 0.13517536222934723, -0.11626889556646347, -0.0038284678012132645, 0.0005778369959443808, 0.024190472438931465, -0.15411829948425293, 0.033375296741724014, 0.05009963735938072, -0.026499465107917786, 0.1095280572772026, 0.05536530911922455, -0.13481390476226807, 0.05956258997321129, -0.058391910046339035, -0.09517839550971985, 0.04596790671348572, -0.00013265490997582674, -0.09334384649991989, -0.06740852445363998, -0.07465250790119171, 0.05188821628689766, 0.055746372789144516, 0.0683039203286171, -0.16363419592380524, 0.02104664407670498, 0.0452229306101799, -0.08564572781324387, -0.13522137701511383, 0.004827199503779411, 0.01370653510093689, 0.04041566327214241, -0.043381597846746445, -0.019612431526184082, 0.007043933495879173, -0.001870727282948792, 0.1318601667881012, 0.10782396793365479, 0.08074896037578583, 0.05050269514322281, 0.04248546436429024, 0.03783771023154259, -0.10564949363470078, 0.08439400047063828, -0.08524588495492935, 0.058285437524318695, 0.1755755990743637, 0.013688379898667336, 0.04776665195822716, 0.08259131759405136, 0.021786469966173172, 0.025119539350271225, 0.02934012934565544, 0.041886135935783386, -0.09937641024589539, -0.00045436457730829716, 0.07642131298780441, -0.09361463040113449, -0.023065736517310143, -0.08143723756074905, 0.15792033076286316, 0.1014588251709938, 0.03341497853398323, -0.15909238159656525, -0.09561654180288315, -0.0759454220533371, -0.06512527912855148, 0.09561562538146973, -0.0894661620259285, -0.02054024301469326, -0.06979453563690186, -0.06014876812696457, 0.0833139717578888, 0.017299886792898178, -0.07045712321996689, -0.11513809114694595, 0.04739842563867569, 0.09814011305570602, 0.02870967797935009, -0.01983875036239624, -0.03683315962553024, -0.12674769759178162, -0.10516365617513657, -0.013108311221003532, 0.025496069341897964, -0.06791192293167114, 0.014448236674070358, 0.01583724655210972], [-0.09507812559604645, 0.05040924623608589, 0.07522726058959961, -0.05063790827989578, 0.007859427481889725, 0.0392475351691246, -0.006238010711967945, 0.045393429696559906, -0.006819220259785652, 0.10350494086742401, 0.11282475292682648, 0.1297655999660492, -0.0330718494951725, 0.11928387731313705, -0.0787726566195488, 0.05938111990690231, 0.025393500924110413, 0.12465349584817886, -0.1708367019891739, -0.029062526300549507, 0.009597202762961388, -0.04991403594613075, 0.11743034422397614, 0.0866640955209732, -0.11577832698822021, 0.04210030287504196, -0.04546194523572922, -0.08450730890035629, -0.018932363018393517, -0.19704097509384155, -0.06762581318616867, 0.023271458223462105, -0.06548908352851868, -0.0027203946374356747, -0.05320082604885101, 0.030845770612359047, -0.18025434017181396, 0.019952500239014626, 0.005646016448736191, 0.03276633098721504, -0.05978098511695862, -0.01945139467716217, -0.04157797247171402, 0.06345314532518387, -0.06937497109174728, 0.0628962516784668, -0.011852007359266281, 0.07101058214902878, 0.12701824307441711, 0.10107786953449249, 0.09360669553279877, 0.05275376886129379, -0.14574086666107178, 0.03785138204693794, -0.13186593353748322, 0.043162453919649124, 0.10106224566698074, 0.06337609142065048, 0.17602968215942383, 0.11686546355485916, 0.04685179516673088, 0.07228530198335648, 0.043562717735767365, 0.0030461468268185854, 0.06803140789270401, -0.06699887663125992, -0.07209524512290955, -0.03973603993654251, -0.029783140867948532, -0.07685954868793488, 0.017719127237796783, -0.07987932115793228, 0.17037802934646606, 0.02857803925871849, -0.031858738511800766, -0.14855465292930603, -0.07096675783395767, -0.04565653204917908, 0.01310390792787075, 0.06613699346780777, -0.04653231427073479, -0.053071364760398865, -0.04142384976148605, -0.04576554521918297, -0.026846973225474358, -0.06758411228656769, -0.096779964864254, -0.13666781783103943, 0.09947584569454193, 0.11229917407035828, -0.05995308235287666, -0.01925765350461006, 0.03523537889122963, -0.11103522777557373, -0.13231110572814941, 0.038463179022073746, 0.05828924849629402, -0.0487525574862957, 0.0302065871655941, 0.08816196769475937], [0.09255780279636383, 0.03702918440103531, 0.01121603511273861, -0.06693244725465775, -0.028792837634682655, 0.017178284004330635, -0.00466497428715229, -0.014512313529849052, -0.009611997753381729, 0.04551933333277702, 0.1367943286895752, 0.14877451956272125, -0.031059330329298973, 0.10340970009565353, 0.015639938414096832, 0.035071078687906265, 0.044858817011117935, 0.10686252266168594, -0.17911186814308167, -0.03251199796795845, -0.011113449931144714, 0.04355407878756523, 0.08410972356796265, 0.10504323989152908, -0.09375028312206268, -0.1405605673789978, 0.06788349151611328, -0.07870476692914963, 0.001012745895422995, -0.19194169342517853, -0.029044225811958313, -0.037682730704545975, -0.09015394747257233, -0.025399163365364075, 0.0639142245054245, -0.02865036018192768, 0.014457697048783302, -0.024863937869668007, -0.11046095937490463, 0.013661365956068039, -0.05126660689711571, -0.05513826757669449, 0.03492002189159393, -0.008062031120061874, -0.10405593365430832, -0.002849441021680832, -0.03718587011098862, 0.097472183406353, -0.12493395805358887, -0.017832592129707336, 0.08794770389795303, 0.029133634641766548, -0.12365473806858063, -0.003661142662167549, -0.07139565795660019, 0.02768022008240223, 0.0987224131822586, 0.06935414671897888, 0.1762690544128418, 0.11710336059331894, 0.03868502750992775, 0.05733353644609451, -0.1003858894109726, 0.11385571956634521, 0.03308040648698807, 0.04617038741707802, -0.07088526338338852, -0.002775907050818205, 0.01963762193918228, -0.054891642183065414, 0.021258551627397537, -0.013476945459842682, 0.1699010133743286, -0.010239599272608757, 0.055048711597919464, -0.11725172400474548, 0.0405859537422657, -0.016666242852807045, 0.02193629741668701, 0.024969378486275673, 0.039009127765893936, 0.057344257831573486, 0.0678558275103569, -0.028474731370806694, -0.0022870399989187717, 0.05934079736471176, 0.04994754120707512, -0.13108837604522705, 0.06129978597164154, 0.12492416799068451, 0.039435140788555145, -0.06556670367717743, 0.025620993226766586, -0.08877737075090408, -0.1503317654132843, 0.058161813765764236, -0.0214214026927948, -0.033632922917604446, 0.05704860761761665, 0.08525459468364716], [0.06291195005178452, 0.06750617921352386, 0.035277701914310455, 0.10776513814926147, 0.02769678458571434, -0.01866990141570568, 0.05532386153936386, -0.04068046063184738, -0.05058995634317398, 0.0629027858376503, 0.14761832356452942, 0.0682719275355339, -0.05545179918408394, 0.18343693017959595, 0.061797793954610825, -0.05509096011519432, 0.069334976375103, 0.07554476708173752, -0.17385037243366241, 0.07546035200357437, -0.04190393537282944, 0.039343349635601044, 0.0370698980987072, -0.0898984894156456, -0.10431825369596481, -0.15548813343048096, 0.13596279919147491, -0.05496159568428993, 0.031891196966171265, -0.19039863348007202, 0.055555906146764755, 0.055072296410799026, -0.07416929304599762, 0.015982627868652344, 0.01914372853934765, -0.08151859045028687, 0.00598332192748785, 0.053046613931655884, -0.14527134597301483, 0.006117085926234722, -0.021160809323191643, -0.11332547664642334, -0.048369601368904114, 0.06440500915050507, -0.1306723803281784, 0.046557486057281494, -0.0668419823050499, 0.09315399080514908, -0.14610354602336884, -0.04309660941362381, -0.1686924397945404, -0.003314622677862644, -0.09777325391769409, -0.0018818556563928723, -0.05885159224271774, 0.02026103250682354, 0.07638103514909744, 0.07851803302764893, 0.16508589684963226, -0.0331621952354908, -0.16657504439353943, 0.022277189418673515, -0.06274936348199844, 0.08492565155029297, 0.051770035177469254, 0.01894794963300228, -0.04085736349225044, -0.034288033843040466, 0.008582960814237595, -0.06801474094390869, -0.04493798315525055, 0.15732048451900482, 0.15963180363178253, -0.04651780426502228, -0.03494397923350334, -0.057692378759384155, 0.0698956772685051, 0.054136425256729126, 0.013132771477103233, -0.03830346092581749, 0.06607462465763092, -0.0079649081453681, -0.025021925568580627, -0.015675954520702362, 0.030350245535373688, 0.016126224771142006, 0.02046867273747921, -0.12916505336761475, 0.009308815002441406, 0.13817095756530762, 0.03227495774626732, -0.06226207688450813, -0.0376637764275074, -0.015235550701618195, -0.16270090639591217, 0.07115369290113449, 0.006445683538913727, -0.02272629179060459, -0.010191874578595161, 0.07252070307731628], [0.03127859905362129, -0.04925180971622467, -0.06474248319864273, 0.07810431718826294, 0.019491802901029587, -0.00710922759026289, 0.03600538149476051, 0.0021430402994155884, -0.05982738360762596, 0.0896245464682579, 0.09434112906455994, 0.07877641171216965, -0.0578894317150116, 0.16408495604991913, 0.08406107872724533, -0.021227266639471054, 0.08238539099693298, 0.052663274109363556, -0.1821110099554062, -0.03357129171490669, -0.032454200088977814, 0.027019059285521507, -0.05918250232934952, -0.07102877646684647, -0.08211120218038559, -0.16178058087825775, 0.14158320426940918, -0.024620039388537407, 0.06756939738988876, -0.18233320116996765, 0.08014021813869476, -0.05042915418744087, -0.05172324553132057, -0.0594969280064106, -0.06685820966959, -0.10054676979780197, -0.001506790635176003, -0.042023710906505585, -0.16640828549861908, -0.013035421259701252, 0.037338439375162125, -0.13314805924892426, -0.023636655882000923, -0.012807229533791542, -0.03142175450921059, 0.02159840613603592, -0.08820091187953949, -0.1397351175546646, -0.15090790390968323, -0.04222309961915016, -0.17151758074760437, 0.0103556327521801, -0.07867978513240814, -0.06552986055612564, -0.03432025760412216, 0.01731526479125023, 0.04865211993455887, 0.08908811956644058, 0.1641988456249237, -0.02384531870484352, -0.17373760044574738, 0.005719844251871109, 0.0060591259971261024, 0.02774815261363983, 0.059735242277383804, 0.005517950747162104, 0.0018846524180844426, -0.01323351077735424, 0.0027658320032060146, -0.1078406497836113, 0.060127656906843185, 0.15150897204875946, 0.14540749788284302, -0.03363365679979324, 0.021410778164863586, -0.02239479310810566, -0.13719937205314636, 0.11459800601005554, 0.06750734150409698, -0.06758958846330643, 0.09787123650312424, 0.02249886468052864, 0.055832985788583755, -0.009132091887295246, 0.10122933238744736, 0.02808889001607895, -0.006436782889068127, -0.12417370080947876, -0.05261070281267166, 0.1484755426645279, 0.058496687561273575, 0.06916768848896027, 0.054238952696323395, 0.003266584128141403, 0.1718399077653885, -0.006686842069029808, -0.03164030611515045, -0.06934108585119247, -0.0690201073884964, -0.0012938418658450246], [-0.01738080196082592, 0.009406057186424732, 0.029715780168771744, 0.044552724808454514, 0.057134851813316345, -0.020938627421855927, 0.039208006113767624, 0.01792876236140728, -0.0616610012948513, 0.11956527084112167, -0.01355438120663166, -0.07342548668384552, 0.03214959800243378, 0.14323121309280396, 0.058299582451581955, 0.03568604215979576, 0.12441609799861908, 0.020555010065436363, -0.18876546621322632, 0.04620656371116638, 0.007815680466592312, 0.01912553794682026, -0.0881994292140007, -0.05088375136256218, -0.055194418877363205, -0.1623276025056839, 0.14406180381774902, 0.026636799797415733, 0.0898328348994255, -0.17472194135189056, -0.042482890188694, 0.05994488671422005, -0.031834643334150314, -0.020572274923324585, 0.013947008177638054, -0.12073023617267609, 0.017411816865205765, -0.022923897951841354, -0.18144233524799347, -0.029394827783107758, 0.025701332837343216, -0.02841312624514103, 0.02300604246556759, -0.0521666593849659, -0.017872894182801247, 0.04383159801363945, 0.0006049179937690496, -0.1323421597480774, -0.14542533457279205, -0.05621353164315224, -0.1742268055677414, 0.00805954821407795, -0.08596868067979813, 0.01259211078286171, -0.04065733402967453, 0.02424420416355133, -0.010041138157248497, 0.12255242466926575, 0.15439440310001373, 0.1586984395980835, -0.17887535691261292, -0.03254811093211174, 0.05774736776947975, -0.044017188251018524, 0.03314673900604248, -0.07328146696090698, 0.049565013498067856, -0.0463932640850544, -0.07156138867139816, -0.08663379400968552, -0.03521011769771576, -0.11034977436065674, 0.1441512107849121, -0.058228377252817154, -0.040871456265449524, 0.043227534741163254, -0.12497732788324356, 0.14540138840675354, 0.03275642916560173, -0.05359962210059166, 0.11335714161396027, 0.0076966844499111176, 0.03175727277994156, 0.001123579335398972, 0.1278025060892105, 0.0035505350679159164, -0.04044867679476738, -0.05061919614672661, -0.05286039784550667, 0.1586652249097824, -0.012792812660336494, 0.05915103107690811, -0.022381244227290154, -0.08858270198106766, 0.14543452858924866, 0.008963149972259998, -0.03365013375878334, -0.05023011937737465, 0.055696889758110046, -0.035217687487602234], [-0.050878215581178665, 0.07037513703107834, 0.06029585376381874, -0.07410544902086258, -0.04506055265665054, -0.04356902465224266, -0.0673263743519783, -0.02198287844657898, -0.07234835624694824, -0.03766413405537605, -0.03896143659949303, -0.06237975135445595, 0.051581695675849915, 0.11930964887142181, 0.050379447638988495, -0.05633522942662239, 0.1536131054162979, -0.0005400760564953089, -0.1818450540304184, 0.004846389405429363, -0.039590995758771896, 0.0014672159450128675, -0.04592160880565643, -0.02788436971604824, -0.02399035170674324, -0.0009857617551460862, 0.11859966814517975, 0.054499849677085876, 0.03788268193602562, -0.170222207903862, -0.06571074575185776, 0.0364941842854023, -0.011949309147894382, -0.04603959619998932, 0.058257292956113815, -0.14269708096981049, 0.0284848902374506, -0.05571494624018669, -0.1981591284275055, -0.04914543405175209, 0.013264864683151245, -0.04010959714651108, -0.019991952925920486, 0.028924228623509407, -0.037833452224731445, 0.07700010389089584, -0.02150377631187439, -0.1199634000658989, -0.11169769614934921, -0.09793208539485931, -0.020171985030174255, 0.024976948276162148, -0.06902340799570084, -0.0541129894554615, 0.06865154951810837, 0.022015247493982315, -0.027571044862270355, 0.1424034833908081, 0.03797933831810951, 0.17092224955558777, -0.19178970158100128, -0.04519513621926308, 0.09146016836166382, -0.08672121912240982, 0.013875532895326614, -0.05109124630689621, 0.08744706213474274, -0.0067947302013635635, -0.0037939539179205894, -0.056051261723041534, -0.02810962125658989, -0.11107086390256882, 0.1487707644701004, -0.09650865197181702, 0.061305537819862366, 0.08948295563459396, -0.10165099054574966, -0.04387935996055603, -0.030826134607195854, -0.08159760385751724, 0.1395236998796463, 0.04134783521294594, 0.04337870702147484, -0.0013026319211348891, 0.14404208958148956, 0.04593252018094063, -0.06481815874576569, -0.0409524142742157, -0.0720023661851883, 0.13781669735908508, -0.06056518107652664, -0.00731026753783226, -0.006978947669267654, -0.0652107372879982, 0.10786329209804535, 0.04783067852258682, -0.08268158882856369, 0.014746410772204399, -0.03903541713953018, -0.048815809190273285], [-0.06565883755683899, 0.07917767763137817, 0.0029244767501950264, -0.12866859138011932, -0.036328136920928955, -0.06280197203159332, 0.037997934967279434, -0.047951698303222656, -0.09098225086927414, -0.009036087431013584, -0.01314365305006504, -0.12385869771242142, 0.03766647353768349, 0.08843718469142914, 0.07349688559770584, -0.03224077820777893, 0.17920978367328644, 0.016275065019726753, -0.05232866853475571, 0.010565478354692459, 0.057394251227378845, -0.015379171818494797, -0.07757066190242767, -0.007746849209070206, 0.0021885670721530914, 0.001320956740528345, 0.11884936690330505, -0.16807296872138977, 0.06234264001250267, -0.16544154286384583, -0.04315817728638649, 0.06776480376720428, -0.0339406281709671, 0.0679856464266777, -0.07415710389614105, -0.1637907177209854, 0.023896105587482452, 0.04122326150536537, -0.21620269119739532, -0.07011222094297409, -0.003960279747843742, -0.06661815196275711, 0.03220042586326599, -0.04968338459730148, -0.06245580315589905, -0.0568290576338768, -0.03930933028459549, -0.13940122723579407, -0.10694016516208649, -0.0952058956027031, -0.02191496640443802, 0.03705214336514473, -0.04493216052651405, -0.00804009847342968, 0.057882923632860184, 0.030910955742001534, -0.011714882217347622, 0.16001363098621368, 0.061421021819114685, 0.1758885234594345, -0.19787493348121643, -0.07010605931282043, 0.1133497804403305, -0.11723785102367401, -0.012131567113101482, -0.07709209620952606, -0.008798941969871521, 0.052856072783470154, -0.06252450495958328, -0.03317224234342575, -0.05334357172250748, 0.012876005843281746, 0.15779921412467957, -0.12164461612701416, 0.06551329791545868, 0.10501812398433685, -0.07656865566968918, -0.025466041639447212, -0.08329691737890244, -0.05313340201973915, 0.16279886662960052, 0.029618490487337112, -0.07227633893489838, 0.0011424358235672116, 0.07292191684246063, 0.0391772985458374, 0.004329899325966835, -0.0337713360786438, -0.11276153475046158, 0.1453825980424881, -0.0087679922580719, 0.00543077290058136, 0.014942018315196037, 0.007462875917553902, 0.057991232722997665, 0.07264607399702072, 0.04796576499938965, 0.03531823679804802, 0.04994678497314453, -0.0455680787563324], [-0.08919422328472137, 0.011870428919792175, -0.06522579491138458, -0.1539958268404007, 0.035093676298856735, -0.07085766643285751, -0.07965173572301865, 0.08797365427017212, -0.108230359852314, 0.09430740773677826, 0.03283090516924858, -0.07699540257453918, -0.004874812439084053, -0.003653099061921239, 0.06475119292736053, -0.054385941475629807, 0.02639424055814743, 0.009218020364642143, 0.05289342626929283, 0.004467664286494255, 0.06603354960680008, -0.039038073271512985, 0.05735330283641815, 0.03235611319541931, 0.022822171449661255, -0.06427548080682755, 0.01987323723733425, -0.13203337788581848, 0.0825372189283371, -0.10579340904951096, -0.009350412525236607, -0.005776715464890003, -0.01354113407433033, 0.08774417638778687, 0.04235721379518509, -0.15040454268455505, -0.0018987199291586876, -0.017485618591308594, -0.19851568341255188, -0.031941741704940796, -0.011150190606713295, -0.06438318639993668, -0.009319819509983063, 0.036909736692905426, -0.08185094594955444, -0.05152823403477669, -0.07618933171033859, -0.11327774077653885, -0.07999519258737564, -0.06325758248567581, -0.02247776836156845, 0.010616976767778397, -0.014296801760792732, -0.013344574719667435, -0.011571954935789108, -0.041426267474889755, -0.012378254905343056, 0.1585930734872818, 0.07437045127153397, 0.04213939979672432, 0.09044504910707474, -0.08248472213745117, -0.04514927789568901, -0.04530217871069908, -0.05260293930768967, -0.018759865313768387, -0.024945097044110298, 0.04604703187942505, 0.037424203008413315, 0.026878125965595245, 0.08088906854391098, 0.039271000772714615, 0.13784748315811157, -0.14033229649066925, 0.08745922148227692, 0.10503491014242172, -0.13040125370025635, -0.002642182633280754, 0.04739022254943848, -0.048373784869909286, 0.16540856659412384, 0.03336038067936897, 0.0026879217475652695, 0.004544044844806194, 0.09024599194526672, 0.02200947515666485, -0.022310826927423477, 0.030453717336058617, -0.0949111133813858, 0.14374178647994995, 0.08406605571508408, 0.04451550170779228, -0.06531767547130585, 0.06463354080915451, -0.03135696053504944, -0.04082547873258591, 0.006898181512951851, -0.09507226198911667, 0.015417840331792831, -0.03674604371190071], [-0.10793761909008026, -0.03107830323278904, 0.013487234711647034, -0.1729813516139984, -0.02611103095114231, -0.0961189717054367, 0.01381058618426323, 0.06180630996823311, -0.13122466206550598, 0.1235370934009552, 0.05303097888827324, -0.033155132085084915, 0.02146625891327858, -0.046363599598407745, 0.06659067422151566, -0.045989811420440674, 0.04689691588282585, -0.013026632368564606, 0.16636598110198975, -0.023562485352158546, 0.04377056285738945, 0.12753437459468842, 0.026265909895300865, 0.06066374480724335, 0.04584796354174614, -0.06931132078170776, 0.08367642015218735, -0.10763683915138245, 0.09596439450979233, -0.09806577861309052, -0.0271600354462862, 0.03201120346784592, 0.0067914146929979324, -0.04649452865123749, 0.01771298237144947, -0.1585848331451416, -0.01726832054555416, -0.011495092883706093, -0.21715882420539856, -0.04615156352519989, 0.13462406396865845, 0.013453610241413116, 0.05661585181951523, 0.013317426666617393, -0.06559004634618759, -0.040147386491298676, -0.10743843019008636, -0.09136717021465302, -0.07072626799345016, -0.01296522468328476, 0.048518430441617966, -0.04741305112838745, 0.009966682642698288, 0.008343720808625221, -0.04558820277452469, -0.03609895333647728, 0.07779593020677567, 0.09926483780145645, 0.07479395717382431, 0.06331709772348404, 0.09708516299724579, -0.08917219191789627, -0.01790172979235649, -0.07112890481948853, -0.008417438715696335, -0.0220792256295681, 0.0038484318647533655, -0.029748383909463882, -0.05069437623023987, 0.04355860501527786, 0.06286890804767609, 0.03825712203979492, -0.0710279792547226, -0.06216222420334816, -0.012487193569540977, 0.047191232442855835, -0.10840509831905365, 0.028756992891430855, 0.03098479099571705, -0.07258132845163345, -0.0848289355635643, -0.04539335146546364, 0.03562741354107857, 0.012849567458033562, 0.11167384684085846, 0.023920413106679916, -0.045424822717905045, 0.03855350241065025, -0.08854170143604279, 0.15327239036560059, 0.00472339428961277, -0.03438711166381836, 