{"ent_embeddings.weight": [[-0.16934949159622192, 0.030029242858290672, 0.013466160744428635, 0.19084493815898895, -0.028464457020163536, -0.06696923077106476, -0.13913671672344208, 0.20135045051574707, -0.22118142247200012, -0.06816000491380692, 0.10081283748149872, 0.18853192031383514, -0.03167746216058731, 0.1531059592962265, 0.1765850931406021, -0.07057545334100723, 0.09755299240350723, -0.10532137006521225, -0.010917970910668373, -0.11994805186986923, 0.22177638113498688, 0.14979307353496552, -0.2537117600440979, 0.1318211555480957, -0.26653754711151123, -0.11448061466217041, 0.03409285843372345, -0.03212717920541763, -0.10352644324302673, 0.0664651170372963, -0.038220249116420746, 0.1028892993927002, 0.10303567349910736, -0.03376452624797821, -0.04276673495769501, -0.15582241117954254, -0.09689363837242126, -0.09869866073131561, -0.16116780042648315, 0.14855912327766418, -0.1606113612651825, -0.06689728051424026, -0.10959804803133011, -0.12693333625793457, -0.16712339222431183, 0.05626232922077179, 0.16729335486888885, -0.0004760362207889557, -0.08123504370450974, -0.2509841024875641], [-0.18234293162822723, -0.059431567788124084, -0.1238730326294899, 0.08617523312568665, 0.06725059449672699, -0.017515655606985092, -0.10656861960887909, 0.1476486772298813, -0.18594537675380707, -0.1257622390985489, 0.15900568664073944, 0.011298518627882004, 0.08757181465625763, 0.11963333934545517, -0.015263359993696213, 0.171574205160141, 0.14972324669361115, 0.016955221071839333, 0.014577094465494156, -0.01697683520615101, -0.012506794184446335, 0.20042888820171356, -0.12446784228086472, -0.07614723592996597, -0.1434958428144455, 0.1866605430841446, -0.09721606224775314, -0.2005540281534195, -0.08424194157123566, -0.19648393988609314, 0.15170800685882568, 0.01367558166384697, 0.13096171617507935, 0.007029714062809944, -0.05887552350759506, -0.18618105351924896, -0.2238217294216156, 0.005666179582476616, -0.03901059925556183, -0.20013710856437683, -0.14851829409599304, 0.03267461061477661, -0.10758256912231445, -0.1869698166847229, -0.15364499390125275, -0.007024860009551048, 0.0968467965722084, -0.06357067078351974, -0.16607560217380524, -0.30045008659362793], [-0.04401422291994095, 0.03948802873492241, -0.06631848216056824, -0.013790380209684372, -0.12021584063768387, 0.023281199857592583, 0.13765333592891693, 0.1346123218536377, -0.09536635875701904, -0.16261324286460876, 0.08912457525730133, -0.1260177046060562, 0.025154244154691696, -0.07472356408834457, 0.08793561905622482, -0.020914573222398758, -0.0969357118010521, 0.13250260055065155, 0.021610943600535393, -0.18995387852191925, -0.0329144224524498, 0.31232449412345886, -0.18468359112739563, -0.21183213591575623, 0.04277113080024719, 0.029923340305685997, -0.03620162606239319, -0.03157910704612732, 0.0019457396119832993, -0.22886453568935394, 0.23332306742668152, 0.04945293813943863, 0.12017268687486649, -0.09664607048034668, -0.19159117341041565, -0.1886029690504074, -0.025679174810647964, -0.1185375303030014, 0.08243127912282944, -0.043744295835494995, 0.19088910520076752, -0.19110406935214996, -0.08464217931032181, -0.1448792666196823, -0.25418850779533386, -0.14571577310562134, 0.010720867663621902, -0.1320810168981552, -0.11774984747171402, -0.2828333377838135], [-0.27925556898117065, 0.08993571996688843, 0.0402098074555397, 0.26460564136505127, -0.08237669616937637, 0.08693911135196686, 0.01563749834895134, -0.0067022815346717834, 0.059123486280441284, -0.11371875554323196, 0.08066214621067047, -0.21335479617118835, 0.07877656072378159, -0.0702238380908966, 0.037369661033153534, 0.016442013904452324, -0.17078489065170288, -0.2738085389137268, -0.06843551248311996, -0.07845195382833481, -0.1632218211889267, 0.025256114080548286, -0.09946643561124802, -0.13456714153289795, 0.2384263128042221, -0.04719403386116028, 0.07230324298143387, -0.11406344175338745, -0.15242263674736023, -0.21575771272182465, 0.11570612341165543, -0.09786155074834824, 0.07951732724905014, 0.18556803464889526, 0.09702111035585403, -0.22265200316905975, -0.19346179068088531, 0.1656382828950882, 0.19881869852542877, 0.031079886481165886, 0.13912078738212585, -0.1172977015376091, -0.11300446093082428, -0.23833680152893066, 0.026957323774695396, 0.238276407122612, 0.004018191248178482, 0.12080603092908859, 0.02341741882264614, -0.27939191460609436], [-0.2616828382015228, 0.14717935025691986, 0.1407492756843567, 0.27601906657218933, 0.0735832005739212, 0.1462388038635254, 0.04552619159221649, -0.07007244229316711, 0.1260385364294052, 0.19019541144371033, 0.031216448172926903, -0.2869543135166168, 0.24156604707241058, -0.03866329789161682, -0.08468656986951828, -0.12811915576457977, -0.08300429582595825, -0.21378396451473236, 0.1636711061000824, 0.026635317131876945, -0.015567749738693237, -0.01498158648610115, -0.017710763961076736, -0.18448813259601593, -0.10417379438877106, 0.08245620876550674, 0.19080255925655365, 0.13110782206058502, -0.23756790161132812, 0.18142803013324738, 0.041369177401065826, 0.1542067974805832, 0.03394249081611633, 0.08862476050853729, -0.03043549321591854, -0.1442231833934784, 0.009940743446350098, 0.07036752998828888, -0.21308064460754395, 0.1022719144821167, 0.0739673376083374, -0.00039795786142349243, 0.09777826815843582, -0.18281704187393188, -0.07353769242763519, 0.11329704523086548, 0.17880003154277802, -0.025473622605204582, -0.04961085319519043, 0.197835311293602], [-0.2039474993944168, 0.13648942112922668, 0.24729271233081818, 0.12163907289505005, 0.13051791489124298, 0.13939620554447174, 0.06837907433509827, 0.033342864364385605, 0.21982364356517792, 0.18658936023712158, -0.113054558634758, 0.2394142597913742, 0.08770443499088287, 0.04113846644759178, -0.11961502581834793, -0.052175119519233704, -0.056922901421785355, -0.04300317540764809, 0.07491312175989151, 0.15934528410434723, -0.099836066365242, 0.06951211392879486, -0.2062980681657791, 0.1359991431236267, 0.03711012005805969, -0.09991863369941711, 0.10455354303121567, 0.1577744483947754, 0.20012125372886658, 0.16250114142894745, 0.04675142467021942, -0.003881433978676796, -0.10323762893676758, -0.12057943642139435, 0.03383823111653328, -0.23393182456493378, 0.08600980788469315, -0.0655708909034729, -0.1297885775566101, 0.024755394086241722, 0.16438117623329163, -0.18153949081897736, 0.014632944017648697, -0.04552706331014633, 0.113750159740448, -0.015269201248884201, -0.008764967322349548, 0.19554676115512848, 0.04958699271082878, 0.06468945741653442], [-0.07248406112194061, 0.27597030997276306, 0.3024536669254303, -0.05898229032754898, -0.2934061586856842, -0.22766602039337158, -0.044215843081474304, 0.11045805364847183, -0.0858197882771492, 0.18637152016162872, -0.06549983471632004, 0.19307895004749298, -0.06517723202705383, 0.08835811913013458, -0.14386050403118134, 0.21874357759952545, 0.04271165281534195, 0.04415052384138107, -0.015975894406437874, -0.029440393671393394, -0.02747654728591442, -0.02938244305551052, -0.08579811453819275, 0.032199252396821976, 0.045688048005104065, -0.29744312167167664, -0.24378398060798645, 0.06392268091440201, 0.05957423895597458, 0.10951805114746094, 0.06776998937129974, 0.008756225928664207, -0.12654493749141693, -0.10211148858070374, -0.08890752494335175, 0.07958261668682098, 0.03682988882064819, -0.2157815396785736, -0.06909637898206711, -0.16206686198711395, -0.03437233716249466, -0.14282558858394623, -0.0015060901641845703, 0.00432702898979187, 0.13439077138900757, 0.053316034376621246, -0.004343139007687569, -0.09370914846658707, 0.2131810337305069, -0.049456045031547546], [0.04571716487407684, 0.02871168591082096, -0.16517764329910278, -0.20351138710975647, -0.19591005146503448, -0.1119891107082367, -0.0071076396852731705, -0.13992471992969513, -0.15464244782924652, 0.18724419176578522, 0.11822036653757095, 0.09352996945381165, 0.06351815164089203, -0.0169733427464962, -0.06247005611658096, 0.06263609230518341, 0.1417446732521057, 0.16692885756492615, 0.04943078011274338, 0.07338551431894302, 0.03094485215842724, -0.2292928248643875, 0.04510185867547989, -0.07923008501529694, 0.055895499885082245, -0.2784174382686615, -0.09935673326253891, -0.06566524505615234, -0.09801892191171646, 0.0777135118842125, -0.03259345889091492, -0.08705027401447296, 0.05146665871143341, -0.20878267288208008, -0.11664369702339172, -0.034994930028915405, -0.005389191210269928, -0.0946246087551117, -0.16013529896736145, -0.1801593005657196, -0.1438589096069336, -0.004960307851433754, -0.0500982329249382, 0.13668110966682434, -0.037011727690696716, -0.028277739882469177, 0.126505509018898, -0.06926742196083069, -0.27432283759117126, -0.18082943558692932], [-0.09795604646205902, -0.23403146862983704, -0.229752317070961, -0.26682835817337036, -0.05454934015870094, -0.047208357602357864, -0.055711980909109116, -0.049100037664175034, -0.1038808524608612, 0.16088515520095825, -0.06146558001637459, -0.08752235770225525, 0.01788446493446827, -0.01600703038275242, -0.045621953904628754, -0.09137595444917679, 0.0035699456930160522, -0.18725603818893433, -0.05302511528134346, 0.12518934905529022, -0.12688876688480377, -0.1308642029762268, 0.07027535140514374, -0.08137482404708862, -0.11186255514621735, 0.10655467212200165, -0.013182628899812698, -0.13429337739944458, -0.16033948957920074, 0.11150723695755005, 0.1961880624294281, -0.19081808626651764, 0.05719010904431343, 0.003996521234512329, -0.11179915070533752, -0.1314718872308731, 0.06945005804300308, -0.13665871322155, -0.26796290278434753, -0.05848543345928192, -0.06253807246685028, 0.09166247397661209, -0.12356315553188324, 0.22364598512649536, 0.14382077753543854, -0.12303771823644638, 0.14535334706306458, -0.1561543047428131, -0.28090742230415344, -0.07815979421138763], [-0.10110538452863693, -0.1321331411600113, -0.15355588495731354, -0.18167462944984436, 0.08658396452665329, 0.07884586602449417, -0.04307360202074051, -0.04005986452102661, 0.0032530073076486588, -0.02685566060245037, 0.04219120740890503, -0.13301095366477966, 0.12361567467451096, 0.04220620542764664, 0.004279531538486481, 0.0831509530544281, -0.058282963931560516, -0.23291067779064178, -0.15370182693004608, -0.2771797776222229, -0.035395920276641846, -0.04383338987827301, -0.02880934439599514, 0.2031952142715454, 0.08717852830886841, -0.10485715419054031, 0.058545127511024475, 0.0005639269948005676, -0.09353656321763992, 0.09859790652990341, 0.09914106875658035, 0.020323436707258224, -0.011397847905755043, -0.13419684767723083, -0.013815494254231453, 0.18210484087467194, 0.10001040250062943, -0.22409753501415253, -0.22509042918682098, -0.1437654346227646, 0.14049026370048523, 0.1817973554134369, -0.16798463463783264, -0.12115249782800674, 0.04894685745239258, -0.1496019810438156, 0.07460593432188034, 0.16902585327625275, -0.13585814833641052, -0.10309717804193497], [0.08966878801584244, 0.032359518110752106, -0.021289890632033348, -0.13747932016849518, 0.22325004637241364, 0.13126784563064575, -0.1703745275735855, -0.09179002046585083, 0.03785967826843262, -0.049475811421871185, -0.21477648615837097, 0.15831494331359863, 0.016612613573670387, 0.0036713723093271255, 0.03851532191038132, -0.1077709048986435, 0.04197850823402405, -0.14086176455020905, -0.07471499592065811, -0.12474802881479263, -0.04524530470371246, -0.09117322415113449, -0.07471953332424164, 0.14072756469249725, -0.017539173364639282, -0.17700156569480896, -0.11446621268987656, 0.015007419511675835, 0.06802903115749359, 0.12289168685674667, -0.01588692143559456, 0.09391765296459198, -0.13563163578510284, -0.17692439258098602, 0.270113468170166, 0.12285136431455612, 0.09724532067775726, -0.12026622146368027, -0.11699595302343369, -0.048113614320755005, -0.0853864923119545, 0.187428280711174, -0.24316099286079407, -0.21404686570167542, -0.09360798448324203, -0.2521994709968567, -0.13304288685321808, 0.0832720473408699, -0.048992618918418884, -0.12342376261949539], [0.1758788675069809, 0.14307370781898499, 0.05466282367706299, -0.2224707305431366, 0.2826378047466278, 0.056573376059532166, -0.15874239802360535, -0.10423996299505234, -0.04358886927366257, -0.10605746507644653, -0.02540445141494274, 0.09149005264043808, 0.04662147909402847, -0.008167997002601624, 0.08655343949794769, -0.11775188893079758, 0.14221860468387604, -0.053566522896289825, 0.30078545212745667, 0.009444376453757286, -0.2318839430809021, 0.014938440173864365, -0.0047013480216264725, 0.036481261253356934, -0.23797807097434998, -0.26426616311073303, 0.010344216600060463, -0.03795461356639862, -0.04308946430683136, 0.2263442426919937, -0.058772772550582886, 0.0736924260854721, -0.1834867149591446, -0.01699107512831688, 0.14856421947479248, -0.008836714550852776, 0.2269703894853592, 0.058746106922626495, -0.01790485717356205, 0.050724148750305176, -0.24182386696338654, -0.06566634774208069, 0.1367504745721817, -0.0448763370513916, 0.18837210536003113, 0.08520399034023285, -0.2812138497829437, -0.0184263177216053, -0.2113393247127533, -0.11909417808055878], [-0.026625430211424828, 0.10712240636348724, -0.23356737196445465, 0.13357891142368317, -0.1377454549074173, -0.0713769942522049, -0.12476406246423721, 0.1829676330089569, -0.02666199766099453, -0.15178607404232025, 0.06965073943138123, 0.018834900110960007, 0.16475167870521545, 0.052221860736608505, -0.07356680184602737, 0.09562607854604721, 0.002908669412136078, -0.1807447224855423, 0.22430449724197388, 0.1446278989315033, -0.12972775101661682, 0.13810376822948456, 0.136921688914299, -0.05694285035133362, -0.07235901057720184, -0.0691121369600296, 0.14084522426128387, 0.07496704161167145, -0.1075330451130867, 0.24501962959766388, 0.16069084405899048, -0.0067299846559762955, -0.08929237723350525, -0.12931208312511444, 0.039598822593688965, -0.10259558260440826, 0.12526723742485046, -0.03373811021447182, 0.1108851432800293, 0.1545475721359253, -0.1781027615070343, -0.05785199999809265, 0.2143482118844986, -0.018327366560697556, 0.09497816860675812, -0.05507177487015724, -0.1867467314004898, -0.07824250310659409, -0.2085396647453308, 0.04397004842758179], [-0.18466496467590332, -0.055066950619220734, -0.1593363881111145, 0.20867927372455597, -0.07579904794692993, -0.027463188394904137, -0.11379379034042358, 0.23301240801811218, -0.1508783996105194, -0.22044633328914642, 0.0814385861158371, -0.012405145913362503, -0.05258669704198837, -0.22970491647720337, 0.06655894219875336, -0.015413742512464523, 0.10818788409233093, -0.0596429705619812, 0.03241422772407532, 0.11880746483802795, 0.01638113334774971, -0.10749537497758865, 0.20604906976222992, -0.11837263405323029, 0.12589780986309052, -0.20252296328544617, 0.23093190789222717, -0.15726259350776672, 0.031148815527558327, 0.2121768593788147, 0.019011419266462326, -0.08515392243862152, -0.05236729979515076, -0.06460940837860107, -0.14548160135746002, 0.05083056539297104, -0.1911904513835907, -0.09821724891662598, -0.04886818677186966, 0.07575812190771103, -0.07606738805770874, -0.12146692723035812, 0.21603748202323914, 0.09318376332521439, 0.07145123183727264, 0.022458640858530998, -0.14975181221961975, -0.05129091441631317, -0.1952642947435379, -0.024886000901460648], [-0.19368720054626465, 0.06122630089521408, -0.14162424206733704, 0.17770981788635254, -0.07917076349258423, -0.006607040762901306, 0.08761400729417801, 0.07145244628190994, -0.0870460495352745, -0.1579258143901825, -0.2616320848464966, 0.16649194061756134, -0.01105419173836708, -0.2693636119365692, 0.18401531875133514, 0.14056159555912018, 0.170810729265213, -0.08958233147859573, 0.12808117270469666, -0.019324105232954025, -0.0040085408836603165, -0.06579533219337463, -0.10677829384803772, -0.10300295054912567, 0.22305865585803986, -0.025794466957449913, 0.16601260006427765, -0.17365503311157227, -0.10327740013599396, 0.13528117537498474, -0.003290971741080284, -0.019872818142175674, 0.09601128101348877, -0.2271934151649475, -0.04734175652265549, -0.1747068464756012, 0.12389100342988968, -0.18575839698314667, 0.0026890281587839127, 0.2136537730693817, -0.07480133324861526, -0.1192733496427536, 0.12883302569389343, -0.009514646604657173, 0.16022531688213348, 0.19634467363357544, -0.039484016597270966, -0.06116442382335663, -0.08649297803640366, -0.06410826742649078], [-0.11220681667327881, 0.0724017471075058, -0.18015527725219727, 0.1800655722618103, -0.042587295174598694, -0.18874776363372803, 0.168796569108963, 0.07857631146907806, 0.032677918672561646, -0.025830615311861038, -0.1328718513250351, 0.03394654393196106, -0.19077028334140778, -0.22067078948020935, 0.020192023366689682, 0.30793365836143494, -0.0027707312256097794, -0.10629619657993317, 0.0011033564805984497, 0.0018928572535514832, 0.0710407942533493, 0.02177601121366024, 0.06165006011724472, -0.17187394201755524, -0.15614210069179535, -0.08740891516208649, -0.08485887944698334, 0.05056212097406387, -0.22444921731948853, 0.049958616495132446, 0.17889991402626038, 0.16997380554676056, 0.01011042669415474, -0.04940453916788101, -0.04831308871507645, 0.24604834616184235, -0.17185918986797333, -0.07624369114637375, 0.09568050503730774, 0.3029714822769165, -0.1067652702331543, -0.017307670786976814, 0.04118391126394272, 0.1507905274629593, 0.04492514580488205, 0.05527092516422272, -0.06601139903068542, -0.04534488916397095, 0.10597382485866547, -0.14001555740833282], [-0.14969637989997864, 0.05319690704345703, -0.17779134213924408, 0.16986636817455292, -0.0027509480714797974, -0.1387900859117508, -0.0029214490205049515, 0.010371321812272072, 0.06418544799089432, -0.1589520275592804, 0.008229861035943031, -0.04084228724241257, -0.06356865912675858, -0.1486627608537674, 0.12492244690656662, -0.0547073632478714, 0.020516980439424515, -0.10571998357772827, -0.10522279143333435, -0.0935482531785965, -0.11423875391483307, -0.03815922141075134, -0.06277550756931305, 0.15468235313892365, 0.04724683612585068, 0.07893774658441544, -0.0901179239153862, -0.02920362912118435, 0.02228519879281521, -0.021338244900107384, 0.19096332788467407, 0.052557237446308136, -0.07528115063905716, -0.19884325563907623, 0.054299503564834595, 0.10043031722307205, 0.1111123338341713, -0.17055635154247284, 0.01699482835829258, 0.2876807749271393, -0.2671325206756592, 0.12612347304821014, 0.006415830925107002, -0.19600047171115875, 0.1694931536912918, 0.09150747209787369, -0.2389170378446579, 0.08350520581007004, 0.16046038269996643, -0.1624019294977188], [-0.13543765246868134, -0.2974778413772583, -0.12882395088672638, 0.08549601584672928, -0.19546765089035034, 0.11863210052251816, 0.09292787313461304, 0.18419618904590607, 0.1271478235721588, -0.279451847076416, 0.1280801147222519, -0.1324944943189621, 0.11147871613502502, -0.05880254507064819, 0.06875325739383698, 0.1969727724790573, 0.07213829457759857, 0.025094425305724144, -0.07874717563390732, -0.04578187316656113, 0.009327540174126625, 0.09842059016227722, 0.10072145611047745, 0.08993609249591827, 0.2822926640510559, 0.2542886435985565, 0.0008742604404687881, 0.18703153729438782, -0.05738134682178497, 0.015780912712216377, 0.053490348160266876, 0.054703667759895325, 0.13602136075496674, 0.04498913884162903, 0.018652040511369705, -0.03437204658985138, -0.0802801325917244, 0.050907135009765625, -0.07070272415876389, 0.03619023412466049, 0.013468965888023376, 0.14089982211589813, -0.010037964209914207, -0.030720343813300133, 0.1825617402791977, -0.04453962296247482, -0.16643887758255005, -0.07702561467885971, -0.1584499329328537, 0.25218725204467773], [0.16144131124019623, -0.14334926009178162, -0.035952337086200714, -0.01443680003285408, -0.12207495421171188, 0.13939033448696136, 0.15660250186920166, 0.23796501755714417, 0.1830296367406845, -0.30803170800209045, 0.06703085452318192, -0.1687937080860138, -0.14745837450027466, 0.042483456432819366, -0.15419408679008484, 0.06604678928852081, -0.18409951031208038, -0.1627892553806305, -0.08665014803409576, -0.044654570519924164, -0.19688260555267334, 0.054622113704681396, -0.1453409194946289, -0.0426354706287384, 0.14664101600646973, 0.1878276914358139, -0.015829842537641525, -0.08075575530529022, -0.22524785995483398, 0.07524444907903671, -0.02335338108241558, -0.05439573526382446, 0.0008112099021673203, -0.0315806120634079, -0.09443064033985138, 0.23623444139957428, 0.22428074479103088, -0.11024787276983261, 0.036551304161548615, -0.23275768756866455, -0.08566459268331528, 0.08807260543107986, -0.01132897473871708, 0.10889741778373718, 0.08657290786504745, -0.15455098450183868, 0.0022730324417352676, -0.0229372289031744, -0.2564430832862854, 0.15400853753089905], [-0.079717256128788, -0.016926240175962448, 0.1238667443394661, -0.05909714847803116, -0.044465385377407074, 0.15562045574188232, 0.16175960004329681, 0.21016372740268707, 0.21769048273563385, -0.3171393573284149, -0.05436602234840393, 0.08823089301586151, -0.18686170876026154, -0.15683235228061676, 0.13842760026454926, -0.1189589723944664, -0.10445276647806168, -0.13485561311244965, -0.09163052588701248, 0.09631281346082687, 0.04246969521045685, 0.07096436619758606, -0.029899243265390396, -0.008455097675323486, 0.15705913305282593, 0.10562814772129059, 0.08603484183549881, 0.11160021275281906, -0.0019765757024288177, 0.12848100066184998, 0.045248255133628845, 0.0685897022485733, -0.15697063505649567, -0.13422001898288727, 0.26986634731292725, 0.1832122504711151, -0.09803948551416397, -0.18689341843128204, -0.17430788278579712, -0.0589560866355896, -0.20642037689685822, 0.19843527674674988, -0.004583979025483131, -0.1318873018026352, 0.06864048540592194, 0.15978527069091797, -0.0452679768204689, 0.06625190377235413, -0.15764908492565155, 0.08225543051958084], [-0.10322733968496323, 0.10536012053489685, 0.09027470648288727, 0.020676489919424057, -0.0818067416548729, -0.09851404279470444, -0.18587619066238403, 0.23505282402038574, 0.17865309119224548, -0.3270944356918335, -0.17166613042354584, 0.05773824453353882, -0.05288371443748474, -0.24883542954921722, -0.14583367109298706, 0.0697186067700386, -0.09673693031072617, -0.20661865174770355, -0.12063557654619217, 0.25846394896507263, -0.14288946986198425, 0.2137918472290039, -0.09783896058797836, -0.08508443832397461, -0.08531587570905685, -0.09089954197406769, 0.022694868966937065, 0.038227230310440063, -0.11689494550228119, -0.17085768282413483, 0.126581072807312, 0.2686953842639923, -0.20420947670936584, -0.239447221159935, 0.19959896802902222, 0.07032260298728943, 0.11939380317926407, -0.19983947277069092, -0.10225997120141983, 0.09572694450616837, 0.21206755936145782, 0.2685144543647766, 0.17836898565292358, 0.0005094967782497406, -0.055674321949481964, 0.14638255536556244, 0.09877678751945496, 0.11800093203783035, -0.049965668469667435, -0.04195992648601532], [0.15203185379505157, -0.23335492610931396, 0.005203047767281532, 0.15789048373699188, 0.006354646757245064, -0.027623703703284264, -0.19370397925376892, -0.13736042380332947, 0.2056197077035904, -0.28737494349479675, -0.09383340179920197, 0.16937410831451416, 0.025407372042536736, -0.15652133524417877, 0.0014329291880130768, -0.013819236308336258, -0.042146362364292145, -0.21355953812599182, -0.040263183414936066, -0.06722763925790787, -0.0748138502240181, 0.23599731922149658, 0.1037745550274849, -0.2161940187215805, 0.07184132188558578, 0.02535884641110897, 0.12592332065105438, -0.02231576107442379, 0.021195072680711746, -0.1975964456796646, -0.008201153948903084, 0.17091824114322662, 0.24689720571041107, 0.1786268949508667, 0.0711209774017334, 0.0016452223062515259, 0.04479300230741501, 0.1541995257139206, -0.006152721121907234, 0.22928009927272797, 0.01682828739285469, -0.09099437296390533, 0.11106226593255997, 0.11895548552274704, -0.15848833322525024, 0.005519084632396698, 0.2834119498729706, 0.1488325297832489, 0.01698511466383934, 0.21491359174251556], [0.1705896258354187, -0.12848784029483795, -0.12682519853115082, 0.04649462178349495, 0.008654238656163216, 0.10485184192657471, -0.16630733013153076, -0.13185380399227142, 0.2580849528312683, -0.32765600085258484, 0.06964406371116638, 0.026565805077552795, -0.013602245599031448, -0.12386787682771683, 0.01963747851550579, -0.0013315323740243912, 0.06024067848920822, -0.052551086992025375, 0.242472842335701, 0.12019331008195877, 0.13597708940505981, 0.313846617937088, 0.0019717104732990265, -0.29454079270362854, -0.09665882587432861, -0.1717279702425003, -0.02756263129413128, 0.08881521970033646, 0.0635611042380333, -0.21401937305927277, 0.07327777147293091, 0.019271370023489, 0.1806209236383438, 0.044446080923080444, 0.12264665216207504, -0.07970601320266724, -0.03030792623758316, 0.07060221582651138, 0.15453387796878815, -0.00970163382589817, -0.15556372702121735, 0.03384827449917793, 0.1885085105895996, -0.032458215951919556, -0.2745838165283203, 0.012760456651449203, 0.2125706970691681, -0.09835191816091537, -0.2112947255373001, 0.1465199738740921], [0.12021822482347488, 0.015894349664449692, -0.05059348791837692, -0.058679744601249695, 0.107635498046875, 0.21043434739112854, -0.07587698101997375, -0.17420132458209991, 0.08428098261356354, -0.2451321929693222, 0.06349990516901016, -0.106120765209198, 0.09009359776973724, -0.035324372351169586, -0.013261448591947556, 0.00047925859689712524, -0.13023433089256287, 0.05622146278619766, 0.22581709921360016, -0.1140814870595932, -0.07290138304233551, 0.07465211302042007, -0.10218937695026398, -0.17914047837257385, -0.05046702176332474, 0.20384535193443298, 0.1456064134836197, 0.06961430609226227, -0.10745464265346527, 0.0323515459895134, -0.04465252906084061, 0.10364676266908646, -0.16407056152820587, -0.1145140677690506, 0.1447211503982544, -0.1276371330022812, 0.1566762924194336, 0.015597078949213028, 0.21369007229804993, 0.06330318748950958, 0.017976444214582443, 0.19340269267559052, 0.11770132929086685, 0.07058744877576828, -0.09535717219114304, 0.021325288340449333, 0.1298440545797348, -0.11100517213344574, -0.057090744376182556, 0.03245661407709122], [-0.012735936790704727, -0.09264899790287018, 0.010910877957940102, -0.13568562269210815, 0.14111950993537903, 0.26758110523223877, 0.024208886548876762, -0.09562665224075317, -0.04547096788883209, 0.16697461903095245, 0.10349464416503906, 0.03721535950899124, 0.08533953875303268, 0.0120147205889225, 0.11319860816001892, -0.09213363379240036, -0.07533883303403854, 0.13129952549934387, 0.1924017071723938, 0.046011753380298615, 0.04166121035814285, 0.1364084780216217, -0.058534443378448486, -0.2144453525543213, -0.13539038598537445, 0.03763829916715622, -0.1272498369216919, -0.12740068137645721, -0.02814088575541973, -0.10898466408252716, -0.04416678100824356, -0.04474332183599472, 0.14709675312042236, -0.0046466439962387085, -0.022097809240221977, -0.03999697417020798, -0.09396548569202423, -0.06792976707220078, 0.25814688205718994, 0.16919463872909546, -0.14383268356323242, 0.2945047616958618, 0.007641434669494629, -0.0874873623251915, 0.09655307978391647, -0.079802006483078, -0.20761272311210632, 0.10720571875572205, 0.044053032994270325, -0.0008846819400787354], [0.054962269961833954, -0.0019424892961978912, 0.0890248566865921, -0.1596275120973587, 0.13062816858291626, 0.28489407896995544, 0.049471281468868256, -0.05285758525133133, -0.0002466738224029541, 0.13941305875778198, 0.14660564064979553, -0.013815656304359436, 0.1989649087190628, -0.08178433775901794, -0.1565200388431549, -0.15956152975559235, -0.03213594853878021, 0.05550879240036011, 0.08523686230182648, 0.16828393936157227, -0.0879523977637291, 0.1465827375650406, -0.1605246663093567, -0.08637744188308716, -0.16550993919372559, -0.16199973225593567, 0.0002605915069580078, -0.048027604818344116, 0.014897767454385757, -0.18600831925868988, -0.17401033639907837, 0.09932922571897507, 0.12663258612155914, -0.13975386321544647, -0.13612808287143707, -0.06473113596439362, -0.11798227578401566, 0.10277954488992691, -0.20091594755649567, 0.1749361902475357, 0.24754886329174042, -0.18287374079227448, -0.08478018641471863, 0.0032534003257751465, 0.013471703976392746, -0.07750364392995834, -0.22882823646068573, -0.13577663898468018, -0.10063760727643967, -0.0011432468891143799], [0.006803395226597786, 0.1576032042503357, 0.18394455313682556, -0.12129265815019608, -0.033804528415203094, 0.24297423660755157, 0.07338635623455048, 0.036651261150836945, -0.0890016257762909, 0.20947052538394928, 0.2205270230770111, -0.023699043318629265, 0.2664506733417511, 0.006965765729546547, 0.08729003369808197, 0.07643567770719528, 0.08996778726577759, 0.020375553518533707, 0.030955521389842033, -0.14846688508987427, 0.182846799492836, 0.1549054980278015, -0.10353182256221771, 0.19485703110694885, 0.027433795854449272, 0.1731659322977066, 0.12609437108039856, -0.04556284099817276, 0.07130451500415802, -0.17292118072509766, -0.06902910023927689, 0.0645185261964798, 0.06737693399190903, 0.030169351026415825, -0.11111743748188019, -0.020323380827903748, 0.08736176788806915, -0.00942782312631607, -0.16655859351158142, 0.1803349256515503, 0.1422690451145172, -0.08462916314601898, 0.24136491119861603, 0.12462320178747177, -0.04444248974323273, -0.0904923677444458, -0.08501957356929779, 0.13819152116775513, 0.038545772433280945, 0.3164159655570984], [0.042411498725414276, 0.27211350202560425, 0.21934713423252106, 0.2197730541229248, 0.09379534423351288, -0.2952386438846588, 0.07781992107629776, 0.08343764394521713, -0.07242731750011444, 0.21236202120780945, -0.11403486132621765, 0.01238911971449852, -0.06817581504583359, 0.10154896229505539, 0.052773162722587585, 0.042329542338848114, 0.1702943593263626, 0.15714837610721588, -0.03205130994319916, -0.022594032809138298, 0.15508367121219635, 0.2535640597343445, 0.00991101749241352, 0.11899379640817642, -0.0048186201602220535, -0.02429766021668911, -0.22583311796188354, 0.011682434007525444, 0.05075860023498535, -0.1155751422047615, 0.018281158059835434, -0.08427110314369202, -0.0030346233397722244, -0.07263965904712677, -0.20987246930599213, -0.08477403968572617, 0.16502845287322998, 0.0936487689614296, -0.07396862655878067, 0.16644664108753204, 0.2318941354751587, 0.022452687844634056, 0.17965327203273773, -0.09074929356575012, 0.15058256685733795, -0.211839959025383, 0.06899658590555191, 0.14969785511493683, -0.1739400029182434, 0.20270462334156036], [-0.20110857486724854, -0.14733891189098358, 0.06108134239912033, 0.14142262935638428, 0.0256227757781744, -0.23171573877334595, -0.0726214200258255, -0.055384211242198944, -0.19785156846046448, 0.18073487281799316, -0.133018359541893, -0.05106448382139206, -0.02966478280723095, 0.11781414598226547, -0.1260257363319397, 0.04918929934501648, -0.21946977078914642, 0.23687295615673065, -0.009677821770310402, 0.1108979657292366, -0.015541385859251022, 0.2967697083950043, 0.17938090860843658, 0.09007169306278229, 0.16410304605960846, -0.18865680694580078, -0.11211428046226501, 0.09112762659788132, 0.11671524494886398, -0.15892687439918518, -0.05717633664608002, -0.2017463892698288, 0.05075924098491669, -0.03881048411130905, 0.09152515977621078, 0.10347489267587662, -0.1287500560283661, 0.20924097299575806, 0.03059758059680462, -0.010004544630646706, 0.05499236285686493, -0.10847635567188263, -0.13400913774967194, -0.1092156320810318, -0.0009560734033584595, -0.09844435006380081, 0.20059220492839813, 0.0405571386218071, -0.07641855627298355, 0.11286784708499908], [-0.15081244707107544, -0.014512985944747925, 0.019477006047964096, 0.13972413539886475, 0.1564258337020874, -0.23622296750545502, -0.21026504039764404, -0.13005585968494415, -0.2030220329761505, 0.06990425288677216, -0.09113417565822601, 0.18149881064891815, 0.09279128909111023, 0.03317105025053024, -0.1051887795329094, 0.030139869078993797, -0.19917728006839752, 0.26109758019447327, -0.18639303743839264, 0.094215527176857, 0.0015339702367782593, 0.23263365030288696, 0.08886858820915222, 0.01730319857597351, 0.02602049522101879, -0.02464231662452221, 0.03618444502353668, -0.06946955621242523, 0.009770931676030159, -0.17480327188968658, -0.05370446667075157, 0.022695651277899742, -0.2359938621520996, 0.195715069770813, -0.09128561615943909, 0.046307407319545746, -0.0599895641207695, 0.14949917793273926, 0.08935360610485077, 0.043679844588041306, 0.050074249505996704, 0.04442019760608673, -0.047765299677848816, 0.08683377504348755, 0.05591884255409241, 0.16435693204402924, -0.14766375720500946, -0.07807749509811401, 0.10560833662748337, -0.045529574155807495], [-0.12161717563867569, 0.08948586881160736, 0.01651257649064064, 0.049441203474998474, 0.24165411293506622, -0.24355415999889374, -0.285139799118042, -0.11475523561239243, -0.21584978699684143, 0.07423087954521179, -0.045992061495780945, 0.10214029252529144, -0.02994404546916485, -0.15207745134830475, -0.21112258732318878, -0.08462774753570557, -0.11572503298521042, -0.0045765470713377, -0.13396629691123962, 0.1724703460931778, 0.014135632663965225, -0.018417205661535263, 0.0475277379155159, -0.0005219504237174988, -0.09907038509845734, 0.1436346471309662, -0.03619540482759476, 0.1566440761089325, -0.011086979880928993, -0.1160978153347969, -0.16378149390220642, -0.07636738568544388, 0.1345316469669342, 0.08377811312675476, -0.18894121050834656, -0.05504892021417618, 0.10296367108821869, -0.04026345908641815, 0.01725047267973423, 0.14336135983467102, -0.021902887150645256, 0.13018974661827087, 0.1848718672990799, -0.12411447614431381, 0.04563593864440918, -0.02628304995596409, -0.08738286793231964, 0.13626113533973694, 0.24759350717067719, -0.15577483177185059], [-0.16378772258758545, 0.028904570266604424, 0.1378629207611084, -0.07968570291996002, 0.019052427262067795, -0.15673823654651642, -0.25129416584968567, -0.07500509917736053, -0.24243195354938507, -0.10644814372062683, 0.050111323595047, 0.19178366661071777, -0.06953005492687225, -0.11163932085037231, -0.02463614009320736, -0.05893117934465408, -0.23148386180400848, 0.05493900179862976, -0.1478949636220932, -0.04022236913442612, 0.192626491189003, 0.14462727308273315, 0.027371739968657494, 0.14627689123153687, 0.09413720667362213, -0.022665252909064293, 0.06106026470661163, -0.03914932161569595, -0.15544795989990234, 0.09941687434911728, -0.31113898754119873, 0.11032205820083618, 0.09995923191308975, -0.015223074704408646, 0.10270214825868607, 0.055712275207042694, -0.11871836334466934, -0.22410817444324493, 0.1196565255522728, -0.012313824146986008, -0.07108349353075027, 0.19143719971179962, 0.188686341047287, -0.10884721577167511, -0.039821699261665344, -0.14291711151599884, -0.05452646315097809, 0.11275426298379898, -0.08775286376476288, 0.10424190014600754], [-0.1395525187253952, -0.0878361389040947, -0.13935744762420654, -0.09874708950519562, 0.1097712516784668, -0.029576262459158897, 0.09479795396327972, -0.012850496917963028, -0.26051241159439087, -0.13209110498428345, 0.22248810529708862, 0.161661297082901, 0.07055626809597015, -0.20322281122207642, -0.12237771600484848, 0.1650027632713318, -0.1848633736371994, -0.18007804453372955, -0.03913404792547226, 0.0835963562130928, 0.16435693204402924, 0.2439420074224472, 0.029066747054457664, 0.08668206632137299, -0.1611817181110382, -0.22450190782546997, -0.18385830521583557, 0.13601593673229218, 0.11784730106592178, 0.20184296369552612, -0.01478547789156437, 0.017007607966661453, 0.015368420630693436, -0.16490329802036285, 0.18051032721996307, -0.05459563061594963, -0.13597241044044495, -0.32543742656707764, 0.09981294721364975, 0.05287065729498863, -0.020725060254335403, 0.10024528950452805, 0.13590726256370544, -0.02612919919192791, -0.2148897498846054, 0.15016023814678192, 0.061742935329675674, -0.029550006613135338, 0.08174256980419159, 0.05829215794801712], [-0.056605659425258636, -0.290702760219574, 0.10938134044408798, -0.0648891031742096, 0.10854442417621613, -0.05601751059293747, 0.14333966374397278, -0.029184645041823387, -0.18263781070709229, 0.050048790872097015, -0.016014467924833298, 0.08743159472942352, -0.1922902911901474, 0.04525912553071976, 0.181786447763443, -0.16439731419086456, -0.0903216078877449, -0.04562561959028244, -0.00943363644182682, 0.22470149397850037, -0.07045185565948486, 0.24795173108577728, -0.2404138743877411, -0.07386210560798645, 0.10574597120285034, -0.02695946954190731, -0.18236388266086578, 0.009209109470248222, 0.0819476768374443, 0.21274544298648834, -0.12377770245075226, -0.12244310230016708, 0.01357467845082283, -0.21020929515361786, 0.017884578555822372, -0.12503793835639954, -0.10931569337844849, 0.13481256365776062, 0.20852424204349518, -0.1918511986732483, -0.006229354068636894, 0.1611630618572235, -0.06233236938714981, 0.006522925570607185, -0.2790633738040924, -0.006976358592510223, -0.10972636193037033, -0.15937741100788116, 0.10492517054080963, -0.008806604892015457], [0.1400967687368393, -0.14652402698993683, 0.16670642793178558, -0.055532678961753845, 0.11619362980127335, -0.014211725443601608, 0.02681839093565941, -0.10352528840303421, -0.15331541001796722, 0.02982238493859768, 0.17276397347450256, 0.026098841801285744, -0.08219023793935776, 0.051546745002269745, -0.11762062460184097, 0.08009009063243866, 0.07318959385156631, -0.0044576916843652725, -0.05678604543209076, 0.24082615971565247, 0.15201012790203094, 0.08908330649137497, -0.061562128365039825, -0.1370275616645813, 0.02477121166884899, -0.05770879238843918, -0.004437180235981941, 0.19415220618247986, 0.20002929866313934, 0.18718019127845764, -0.21640118956565857, 0.1876692771911621, 0.13431715965270996, -0.30447888374328613, 0.2072368562221527, 0.08294152468442917, -0.2219301164150238, 0.2446921020746231, -0.2891394793987274, -0.04348821938037872, 0.07063360512256622, 0.03933074325323105, -0.15219779312610626, -0.08689693361520767, 0.17483222484588623, 0.12969383597373962, -0.012836877256631851, 0.16793563961982727, -0.027758082374930382, -0.09282650053501129], [0.047766491770744324, -0.0382387638092041, -0.09509596228599548, 0.08517850935459137, 0.20775973796844482, 0.10526452958583832, 0.0334649458527565, -0.0017713308334350586, 0.057856492698192596, -0.005874015390872955, 0.22689075767993927, -0.03514640033245087, 0.05056774616241455, 0.1221110001206398, -0.04543231427669525, -0.05045505613088608, -0.047224849462509155, 0.07288524508476257, -0.1231708824634552, -0.18294429779052734, -0.036198511719703674, -0.23841552436351776, -0.008471548557281494, -0.1656932383775711, 0.12476194649934769, 0.16110296547412872, 0.11509909480810165, -0.06142507493495941, 0.2222052365541458, 0.18270543217658997, 0.2689184546470642, 0.1193336695432663, 0.11499875783920288, 0.11720854789018631, 0.09132189303636551, -0.004677554592490196, -0.20167295634746552, 0.12500350177288055, -0.24276064336299896, 0.07126888632774353, -0.08556367456912994, 0.11194780468940735, -0.20351268351078033, 0.03734058141708374, 0.054259829223155975, 0.07092231512069702, 0.10237735509872437, 0.08273319900035858, 0.06564700603485107, 0.0012219920754432678], [0.16128484904766083, 0.09292952716350555, -0.009174058213829994, -0.06383426487445831, 0.0341360941529274, -0.06239777058362961, 0.07177437841892242, 0.022608239203691483, 0.15611004829406738, -0.17943397164344788, 0.20280668139457703, -0.17640848457813263, -0.025570949539542198, 0.08782298117876053, -0.03465377539396286, 0.05285549908876419, -0.03438448905944824, 0.16395628452301025, -0.19714805483818054, -0.058366745710372925, -0.010297989472746849, -0.29477477073669434, 0.015559244900941849, -0.1874718964099884, -0.11099077761173248, 0.03215140104293823, -0.32779660820961, 0.1098385900259018, 0.1775909960269928, 0.1332777887582779, 0.23229515552520752, 0.266395628452301, -0.05178266018629074, 0.011334853246808052, 0.07102552056312561, 0.11483272910118103, 0.1275433450937271, -0.013402614742517471, -0.1747632473707199, -0.021333737298846245, 0.01052979938685894, 0.17390677332878113, -0.23932479321956635, 0.16732406616210938, -0.04062742739915848, -0.09620874375104904, -0.06371354311704636, -0.06304451078176498, 0.21415241062641144, -0.16953235864639282], [0.039569467306137085, 0.06860875338315964, 0.05609719455242157, 0.21927404403686523, 0.15346543490886688, -0.0105216596275568, 0.03548777848482132, 0.05009167641401291, 0.23768019676208496, -0.17842400074005127, 0.2723090946674347, -0.2181449681520462, 0.09603539109230042, -0.16064126789569855, 0.050462596118450165, 0.005656786262989044, -0.16544382274150848, -0.0871235728263855, 0.1093485951423645, 0.09053350239992142, -0.2159421592950821, -0.20564642548561096, 0.167117640376091, 0.03425282984972, 0.10533210635185242, 0.12239011377096176, -0.2026268094778061, 0.1455858200788498, 0.11095680296421051, -0.1630176603794098, 0.16736476123332977, 0.08196636289358139, -0.07362939417362213, 0.03380771726369858, 0.17626909911632538, 0.00787373073399067, 0.05413211137056351, 0.10020243376493454, -0.06633219122886658, -0.041072264313697815, 0.009380081668496132, -0.10679355263710022, -0.24702362716197968, 0.10398408770561218, -0.03376392275094986, -0.22763700783252716, -0.040610700845718384, -0.024200832471251488, 0.10457926243543625, -0.08643703162670135], [0.09713779389858246, -0.068288654088974, 0.08077572286128998, 0.1491195559501648, 0.248247429728508, -0.12360454350709915, -0.30598184466362, 0.013366423547267914, -0.2278725653886795, -0.1472993940114975, 0.2602594792842865, -0.14611724019050598, -0.0028569549322128296, -0.14017410576343536, -0.15832339227199554, -0.16882891952991486, -0.1003560721874237, -0.05854565650224686, 0.0743466317653656, 0.06267620623111725, 0.0548366978764534, -0.13739876449108124, -0.27630072832107544, 0.011959951370954514, 0.15403109788894653, 0.0379280224442482, -0.10232432186603546, 0.19990544021129608, 0.002892211079597473, -0.14589564502239227, 0.05643386393785477, -0.07789477705955505, -0.025531617924571037, -0.11612870544195175, 0.21446514129638672, -0.054548248648643494, -0.13171882927417755, -0.013188447803258896, 0.07512355595827103, 0.0333457887172699, 0.09658898413181305, 0.015043217688798904, -0.11590049415826797, 0.1807073950767517, -0.11950204521417618, -0.036650948226451874, 0.06104010343551636, -0.15548519790172577, -0.11563768237829208, -0.12431099265813828], [0.0022544115781784058, -0.0005609653890132904, 0.08895236998796463, 0.01405404694378376, 0.1758614331483841, -0.018277207389473915, -0.28525957465171814, 0.015752160921692848, -0.18531818687915802, -0.1734800785779953, 0.2502267062664032, -0.15795202553272247, 0.12444926053285599, 0.042641639709472656, 0.13371430337429047, 0.07518995553255081, -0.30681365728378296, 0.024741007015109062, 0.23108705878257751, -0.09824332594871521, -0.12333960086107254, -0.0412616953253746, -0.07606685906648636, -0.03218872845172882, -0.09048107266426086, 0.08017228543758392, -0.19940249621868134, -0.08629284799098969, 0.16698646545410156, -0.006477991119027138, -0.010259933769702911, 0.01346231997013092, -0.009125426411628723, -0.24464593827724457, 0.07725467532873154, 0.15070654451847076, -0.22227174043655396, 0.048266395926475525, 0.1871299296617508, 0.11688040941953659, 0.08517763018608093, 0.1441270262002945, -0.1244959905743599, -0.15767280757427216, -0.13253912329673767, -0.04518508166074753, -0.03585156053304672, -0.0984264686703682, 0.025831645354628563, -0.2799287736415863], [0.03469014912843704, -0.13530690968036652, 0.09154234826564789, -0.057313792407512665, -0.14642149209976196, 0.06485164165496826, -0.2960377037525177, 0.04453917592763901, -0.11891245096921921, -0.050584517419338226, -0.14498218894004822, -0.14259225130081177, 0.04807640612125397, 0.13523954153060913, 0.0067358966916799545, -0.1559145301580429, -0.2728210985660553, 0.11808232218027115, 0.13840706646442413, -0.03046826831996441, 0.13179190456867218, -0.01735832914710045, 0.08243615925312042, -0.11987806856632233, 0.13710258901119232, 0.016907643526792526, -0.15052644908428192, 0.11091558635234833, 0.06050954759120941, 0.0575602725148201, -0.09531326591968536, -0.08322878181934357, 0.03789512813091278, 0.2014467418193817, -0.0891202986240387, 0.16975370049476624, 0.015557434409856796, -0.03362751752138138, 0.22137680649757385, -0.09242910146713257, -0.0861450731754303, 0.23895998299121857, 0.11779234558343887, 0.030499929562211037, -0.01137324795126915, -0.18576879799365997, 0.07232923805713654, -0.07748420536518097, 0.09692207723855972, 0.0007087737321853638], [-0.10279610008001328, -0.11785181611776352, 0.15958449244499207, -0.05383039265871048, -0.10641747713088989, -0.23548223078250885, -0.19535228610038757, 0.07051675021648407, -0.10743933916091919, -0.02224787138402462, -0.12567465007305145, -0.20300991833209991, 0.15906721353530884, 0.08777865767478943, 0.04654540866613388, 0.10947898775339127, -0.200725719332695, 0.2061351090669632, 0.01811087504029274, 0.05743043124675751, -0.07605041563510895, -0.2136913537979126, 0.08249221742153168, 0.02099345065653324, 0.16357991099357605, -0.17145827412605286, -0.022251849994063377, 0.2389347404241562, 0.17648003995418549, 0.08653397858142853, -0.08593291789293289, -0.24326331913471222, 0.0304167028516531, 0.05939387530088425, 0.18374775350093842, 0.0425388440489769, 0.1654301881790161, 0.05794712156057358, -0.10259636491537094, 0.07487260550260544, -0.006349580362439156, -0.0696806088089943, -0.005213527008891106, 0.12582719326019287, -0.028943466022610664, 0.06497251987457275, -0.10785030573606491, 0.020362894982099533, -0.07104607671499252, 0.07440609484910965], [-0.005887523293495178, 0.010089533403515816, -0.09525652974843979, -0.08232677727937698, -0.052454590797424316, -0.11507850140333176, -0.17332254350185394, 0.08878537267446518, -0.22460967302322388, 0.050044476985931396, -0.002104872837662697, 0.13538765907287598, 0.2807118892669678, 0.10239607095718384, -0.03864320367574692, 0.10908050835132599, -0.0844048410654068, -0.019650163128972054, -0.09890077263116837, 0.03443139046430588, -0.027749767526984215, -0.14444835484027863, -0.1773180067539215, 0.03878621384501457, -0.034318722784519196, 0.03491794317960739, 0.12193077057600021, -0.12739820778369904, 0.13714522123336792, 0.06306467205286026, 0.058542631566524506, -0.32263028621673584, 0.05025240778923035, -0.058897510170936584, 0.18265306949615479, -0.10889960825443268, -0.07984685152769089, 0.14620016515254974, -0.03882688283920288, -0.04072117805480957, 0.06215564161539078, 0.05410201847553253, 0.17833787202835083, 0.22506962716579437, -0.17608442902565002, -0.053259097039699554, 0.057348914444446564, -0.05315640568733215, 0.08581722527742386, -0.03003116510808468], [0.10179664939641953, -0.006198907271027565, 0.0016279276460409164, 0.12778916954994202, -0.2700076103210449, -0.17578619718551636, -0.056831203401088715, -0.18004915118217468, -0.21197323501110077, 0.2784782648086548, 0.13221387565135956, 0.027361920103430748, -0.14016373455524445, -0.06244644522666931, 0.07217003405094147, 0.04421534389257431, 0.16673758625984192, 0.04662293195724487, 0.030746040865778923, -0.13835230469703674, 0.12070461362600327, -0.04850003868341446, -0.042977578938007355, 0.017457740381360054, -0.10952528566122055, -0.09773366898298264, 0.11254645138978958, -0.10335513204336166, 0.2153167426586151, -0.03446779400110245, -0.04478500783443451, -0.23167212307453156, 0.04221451282501221, 0.001774640753865242, 0.1069110706448555, -0.20255881547927856, 0.07779999822378159, 0.1037958636879921, 0.15809425711631775, 0.09227829426527023, -0.13825540244579315, 0.07476101070642471, 0.09234227985143661, 0.10032401233911514, -0.2685460150241852, 0.017198139801621437, 0.07554586976766586, 0.014769520610570908, -0.01087249256670475, -0.03094487078487873], [0.059931546449661255, 0.05415823310613632, 0.22602736949920654, 0.03610164672136307, -0.19780147075653076, -0.05008050799369812, 0.057208381593227386, -0.22207777202129364, -0.07182424515485764, 0.2182805836200714, 0.22715039551258087, -0.13676072657108307, -0.005254589021205902, 0.04273612052202225, 0.022645285353064537, -0.03998249024152756, -0.2515541911125183, 0.15675488114356995, -0.04460398107767105, 0.09192409366369247, 0.006709525361657143, 0.0428229421377182, -0.04757276922464371, -0.11359082907438278, -0.1182924136519432, 0.04809799790382385, -0.12507638335227966, -0.01868978515267372, 0.03356765955686569, -0.12295707315206528, 0.08906403928995132, -0.10797875374555588, -0.031131187453866005, 0.04764588922262192, 0.06040627509355545, -0.295819491147995, -0.007466964423656464, 0.175364151597023, -0.07459259778261185, 0.2668810784816742, -0.20983758568763733, 0.11497168242931366, 0.02273561619222164, 0.20380477607250214, -0.12373223155736923, 0.13052663207054138, 0.15969569981098175, -0.06258783489465714, -0.1855778843164444, -0.09045246243476868], [0.09899189323186874, -0.1741168051958084, 0.2007591724395752, 0.01851276494562626, -0.06410335004329681, 0.09415903687477112, 0.22412066161632538, -0.18551301956176758, 0.13137878477573395, 0.2261272519826889, 0.1865682601928711, 0.08376464247703552, 0.06455433368682861, 0.15573528409004211, -0.12811090052127838, 0.04568713158369064, -0.2026844620704651, 0.25181087851524353, -0.04249493032693863, 0.21454153954982758, 0.05102870613336563, -0.14776234328746796, 0.13377663493156433, -0.18687781691551208, -0.009998882189393044, 0.18485912680625916, -0.030167153105139732, 0.14283572137355804, -0.049397848546504974, -0.11111067235469818, -0.04398173838853836, 0.2659186124801636, 0.05608885735273361, -0.09297671914100647, 0.20623674988746643, -0.1470971703529358, -0.0984206423163414, 0.0758805051445961, 0.012947974726557732, 0.12413685768842697, 0.1569690704345703, 0.1569570153951645, -0.057678744196891785, -0.12010297924280167, 0.20277631282806396, -0.03035782091319561, 0.1824486404657364, 0.1422368586063385, -0.23286385834217072, 0.12655162811279297], [0.15809223055839539, -0.0670473724603653, 0.23955190181732178, 0.011928733438253403, 0.03449143469333649, -0.24508266150951385, 0.25376784801483154, -0.011357676237821579, 0.22781091928482056, 0.12472466379404068, 0.05319107323884964, 0.1898876130580902, 0.18081066012382507, 0.24066972732543945, -0.08275327831506729, 0.08675836026668549, -0.06547805666923523, -0.05304758995771408, -0.0668245181441307, 0.0393819585442543, -0.0176248736679554, -0.04892095923423767, -0.12220171838998795, -0.26684728264808655, -0.007819630205631256, 0.1175568625330925, 0.07759963721036911, -0.023075846955180168, 0.1793016493320465, -0.03256053477525711, -0.1428450644016266, 0.27131912112236023, -0.023472720757126808, 0.2848705053329468, 0.03735138475894928, -0.15554974973201752, -0.2070206254720688, -0.03471708297729492, 0.09201452136039734, 0.04958409070968628, -0.03859905153512955, 0.20591261982917786, 0.03925900161266327, -0.020394746214151382, 0.18291698396205902, -0.10533268004655838, -0.024430157616734505, -0.1463036984205246, -0.10333836823701859, 0.15532663464546204], [-0.07514315098524094, 0.053163159638643265, 0.05723201110959053, -0.09214769303798676, -0.2548266053199768, -0.28038907051086426, 0.28964176774024963, 0.1823168694972992, 0.01236855797469616, 0.10914058983325958, 0.028736596927046776, 0.13007423281669617, -0.17455819249153137, 0.11752953380346298, 0.03281228989362717, 0.02755451761186123, 0.042318493127822876, 0.09860210120677948, -0.10667391866445541, -0.1330188661813736, -0.17504382133483887, 0.051918018609285355, -0.01078132726252079, -0.11756774038076401, -0.1234571635723114, -0.05818096920847893, 0.0738043561577797, 0.11417420953512192, 0.12901684641838074, 0.11504022032022476, 0.05994594097137451, 0.2174822837114334, -0.01375715620815754, 0.20477883517742157, 0.08197271823883057, -0.015333162620663643, -0.046682313084602356, -0.12130201607942581, -0.24860458076000214, 0.1637098491191864, 0.02185504510998726, 0.2931130826473236, 0.19446870684623718, -0.05914880707859993, -0.008757190778851509, -0.11378016322851181, -0.29978272318840027, 0.10323802381753922, 0.04482469707727432, 0.21546979248523712], [-0.18882553279399872, 0.202067032456398, -0.20229339599609375, -0.14136338233947754, -0.1239013597369194, -0.17568111419677734, 0.24850820004940033, 0.20448864996433258, 0.05426128953695297, -0.1372286081314087, -0.034800782799720764, 0.04422071576118469, -0.1696716547012329, 0.1600155085325241, -0.008423522114753723, 1.2703239917755127e-05, 0.18737336993217468, 0.2292492687702179, -0.04339085519313812, 0.01619882322847843, 0.047358155250549316, 0.10721127688884735, 0.15262660384178162, 0.04725514352321625, -0.10253579914569855, -0.24421612918376923, -0.1352178007364273, 0.11571181565523148, -0.03038944862782955, 0.07129986584186554, 0.12537352740764618, 0.030131325125694275, 0.11848758906126022, 0.009881490841507912, -0.049355752766132355, 0.018981751054525375, -0.16099666059017181, 0.19736075401306152, -0.1520223617553711, -0.15367238223552704, 0.10390263050794601, 0.07183658331632614, 0.09327133744955063, 0.0027798879891633987, -0.14381276071071625, 0.07929379492998123, -0.10501114279031754, -0.027766970917582512, -0.1266106814146042, 0.08271782845258713], [-0.19806210696697235, -0.06884102523326874, -0.08906883746385574, -0.16435611248016357, 0.00883013941347599, 0.21076197922229767, 0.20643632113933563, 0.17984680831432343, 0.1372060775756836, -0.13386370241641998, 0.030701471492648125, -0.0680198222398758, -0.0618336945772171, 0.10541853308677673, -0.21143294870853424, 0.17911432683467865, -0.04236840456724167, -0.10679341107606888, 0.17892836034297943, 0.1261427253484726, 0.09255215525627136, -0.05167490243911743, 0.14534726738929749, 0.12313462048768997, -0.20254045724868774, 0.1778550148010254, -0.028419626876711845, 0.06245990842580795, 0.12049425393342972, -0.22430013120174408, 0.022539671510457993, -0.13660632073879242, 0.11407303810119629, -0.11054381728172302, -0.12790274620056152, 0.05503752827644348, 0.17526324093341827, 0.22600775957107544, -0.0719408467411995, -0.056836433708667755, -0.10100524872541428, 0.15752027928829193, -0.03481866419315338, 0.058970578014850616, -0.271742045879364, 0.1348211169242859, 0.10320031642913818, 0.12621109187602997, 0.02550007961690426, -0.08738913387060165], [-0.16886930167675018, -0.044410333037376404, 0.09979785233736038, -0.2178298532962799, 0.14135678112506866, 0.28588762879371643, -0.03775180131196976, 0.18447721004486084, 0.08546945452690125, 0.16701526939868927, 0.11016982048749924, -0.1287313997745514, 0.018465500324964523, 0.1655273139476776, -0.1988685429096222, -0.05783287435770035, 0.01527130976319313, -0.20233899354934692, 0.11193574219942093, -0.029576508328318596, -0.07634256780147552, 0.037620097398757935, -0.13511429727077484, 0.0980805829167366, -0.04593188315629959, -0.02884814515709877, -0.13992014527320862, 0.20953579246997833, 0.1615688055753708, -0.27735406160354614, -0.010025465860962868, 0.17001646757125854, 0.11132515221834183, 0.23469729721546173, -0.010780749842524529, 0.016255516558885574, -0.10134727507829666, 0.10072626918554306, -0.06671898066997528, 0.06111171841621399, -0.06581660360097885, -0.1568983942270279, 0.05500078201293945, 0.0849667489528656, -0.016739817336201668, 0.07848270982503891, 0.2049894630908966, -0.11385124921798706, 0.15218034386634827, -0.20980411767959595], [-0.040797874331474304, 0.07094218581914902, 0.20265495777130127, 0.06787063181400299, 0.10776588320732117, 0.07299588620662689, -0.034599799662828445, -0.21471986174583435, 0.15899159014225006, 0.13102923333644867, -0.25767195224761963, -0.17890898883342743, 0.04433427006006241, 0.1864660382270813, -0.0057845450937747955, -0.05582822114229202, 0.1249099150300026, -0.15644678473472595, -0.02197260968387127, -0.22049769759178162, 0.07650186866521835, 0.1120004951953888, 0.02878042869269848, 0.030632903799414635, 0.15680716931819916, -0.22880440950393677, -0.14340868592262268, -0.05313223600387573, 0.008361168205738068, -0.25354304909706116, 0.21352550387382507, 0.08697083592414856, -0.19013941287994385, 0.244773730635643, -0.007340829819440842, -0.07203254103660583, 0.19153743982315063, 0.20599226653575897, 0.16343022882938385, 0.21179433166980743, -0.12423761188983917, 0.035131052136421204, 0.03744456171989441, -0.20562760531902313, 0.0678902417421341, -0.032819971442222595, 0.09679560363292694, 0.14180149137973785, -0.0985790342092514, -0.07137499004602432], [-0.07360784709453583, 0.1374719887971878, -0.04123643785715103, 0.05773725360631943, 0.11277516931295395, -0.04983343183994293, 0.08288948982954025, -0.1057519018650055, 0.17452387511730194, 0.051125697791576385, -0.2595978379249573, -0.23026405274868011, -0.0358276441693306, 0.18108201026916504, 0.10041388124227524, 0.05928254872560501, 0.1420029103755951, -0.2980028986930847, -0.023242099210619926, -0.14612361788749695, -0.0389549657702446, 0.05353566259145737, -0.15864096581935883, 0.18039926886558533, 0.0096809733659029, -0.061682768166065216, -0.1610107570886612, -0.05066649615764618, 0.12875574827194214, -0.20286360383033752, 0.157789945602417, -0.07102678716182709, -0.06089065223932266, 0.07450083643198013, -0.1424260139465332, -0.021027307957410812, -0.05488123744726181, 0.07499674707651138, 0.1279948502779007, 0.11192625015974045, -0.05948130786418915, 0.14489126205444336, 0.02656327746808529, -0.21019479632377625, -0.0984640046954155, 0.07823164016008377, 0.07209279388189316, 0.08343493193387985, -0.15457920730113983, 0.12024649232625961], [-0.11010812222957611, 0.15449917316436768, -0.013576757162809372, -0.04635651409626007, 0.2293243557214737, -0.008784675970673561, 0.109126016497612, 0.13657554984092712, -0.11140988767147064, 0.0008529890328645706, -0.1286335587501526, -0.30891990661621094, 0.10328354686498642, 0.07957134395837784, 0.16016951203346252, -0.10236082226037979, -0.32071781158447266, -0.18941925466060638, -0.14333337545394897, -0.044490642845630646, 0.1934528946876526, 0.1284206062555313, 0.028616489842534065, 0.13665764033794403, -0.039375029504299164, 0.126702681183815, -0.045353032648563385, 0.12875954806804657, 0.009744318202137947, 0.01042180322110653, 0.04748011380434036, 0.08504877239465714, 0.06468464434146881, -0.07066619396209717, -0.11653969436883926, -0.052752651274204254, 0.1621984988451004, -0.0062165576964616776, -0.1346207857131958, 0.03033353202044964, -0.12146417051553726, -0.18487034738063812, -0.025872593745589256, -0.05843670666217804, -0.22630652785301208, 0.0035884808748960495, 0.18401175737380981, -0.0026382189244031906, -0.04176337271928787, 0.012706559151411057], [-0.15808212757110596, 0.2677520513534546, -0.07461288571357727, -0.07772068679332733, -0.06638159602880478, -0.07277924567461014, 0.19378861784934998, 0.17859062552452087, -0.08143562823534012, -0.02946428768336773, -0.009299496188759804, 0.13673314452171326, -0.07797302305698395, 0.08592362701892853, 0.0644596740603447, 0.055729955434799194, -0.24428537487983704, -0.09504782408475876, 0.16833241283893585, -0.2402448207139969, -0.023885337635874748, -0.06670280545949936, 0.21545100212097168, 0.29273855686187744, 0.14340682327747345, -0.07067587971687317, -0.10534050315618515, -0.05157741159200668, -0.17958156764507294, 0.07995520532131195, -0.04699185490608215, -0.0316682904958725, 0.17708885669708252, -0.18848900496959686, 0.15576255321502686, -0.0012057572603225708, -0.0934060737490654, 0.20431068539619446, -0.026624342426657677, -0.01212797500193119, -0.0622604638338089, -0.13078869879245758, -0.07950939238071442, 0.12666216492652893, -0.08149058371782303, -0.11101661622524261, -0.09327670186758041, -0.11853126436471939, 0.11342848837375641, -0.07720153778791428], [-0.06411833316087723, -0.1286497563123703, -0.28019800782203674, -0.12044549733400345, -0.10482911020517349, 0.16922694444656372, 0.16923339664936066, 0.07085245847702026, -0.09453427046537399, -0.0648200586438179, 0.040105678141117096, 0.05917074531316757, 0.01484009250998497, 0.19094710052013397, 0.1868322789669037, 0.10367035120725632, -0.07654425501823425, -0.12093297392129898, 0.04954284429550171, -0.10776747018098831, 0.06366439163684845, 0.04689910262823105, 0.10664968192577362, 0.21417135000228882, 0.08479948341846466, 0.25346463918685913, 0.005291467532515526, 0.12140046805143356, 0.07582603394985199, -0.17487500607967377, -0.13379807770252228, 0.13959865272045135, 0.08348555117845535, -0.22556576132774353, 0.011412793770432472, -0.06987078487873077, 0.1764584183692932, 0.27714377641677856, 0.05119158327579498, 0.09748953580856323, 0.06247594207525253, -0.025810664519667625, 0.15938450396060944, 0.03716811537742615, 0.20330899953842163, -0.28419142961502075, -0.06994389742612839, 0.13594256341457367, 0.17317570745944977, 0.036413419991731644], [-0.02011393941938877, -0.3554544150829315, -0.1585923582315445, -0.008735740557312965, -0.046312715858221054, 0.24106033146381378, 0.19279758632183075, -0.015120748430490494, -0.05589112266898155, -0.013798762112855911, 0.10461755841970444, -0.002914413809776306, 0.14432786405086517, -0.09844374656677246, -0.07191227376461029, -0.05428680032491684, 0.0550125315785408, -0.030491141602396965, -0.020598504692316055, -0.016786227002739906, -0.1351783275604248, 0.14869020879268646, -0.09138024598360062, 0.15293586254119873, -0.18835122883319855, 0.03877149522304535, 0.15189433097839355, -0.14192047715187073, -0.07104359567165375, -0.038532912731170654, -0.06400333344936371, -0.060482922941446304, -0.06059608608484268, 0.25679343938827515, 0.006849074736237526, -0.06421039998531342, 0.07991448044776917, 0.160795196890831, 0.1492367833852768, 0.23418574035167694, -0.12884564697742462, 0.03190670162439346, 0.06779427826404572, -0.2624363899230957, 0.06868863850831985, -0.10444290935993195, -0.040474433451890945, 0.1246805414557457, 0.10663875937461853, 0.15757182240486145], [0.11658183485269547, -0.23915430903434753, -0.009701397269964218, -0.05652884393930435, 0.04003501683473587, -0.13053737580776215, 0.10434497892856598, 0.02720763348042965, 0.01670507714152336, -0.06430291384458542, 0.18448573350906372, 0.13165684044361115, 0.007226759567856789, -0.019092712551355362, -0.016711365431547165, 0.0012508537620306015, -0.08719047904014587, -0.0020941663533449173, 0.1838960498571396, -0.08385351300239563, 0.039567507803440094, -0.27593994140625, -0.11364054679870605, 0.016334783285856247, -0.09852393716573715, 0.2613027095794678, -0.092246875166893, 0.052789926528930664, 0.10417302697896957, -0.012941017746925354, -0.17986157536506653, -0.17436233162879944, -0.1502053141593933, 0.0989096537232399, -0.10563275218009949, -0.17016012966632843, -0.009017338976264, 0.011825064197182655, -0.14338168501853943, 0.2868635356426239, -0.043023526668548584, 0.14452843368053436, 0.0025803446769714355, -0.13340118527412415, -0.07362030446529388, -0.25769054889678955, 0.11511094123125076, -0.01358850672841072, 0.13878905773162842, 0.0252810250967741], [0.19133464992046356, -0.18698033690452576, -0.001571517437696457, 0.020512420684099197, 0.03249020874500275, -0.0722195953130722, 0.18089987337589264, -0.003236211836338043, 0.039450716227293015, -0.06581741571426392, 0.1209518238902092, 0.07542219012975693, 0.09682359546422958, 0.17684495449066162, -0.02275066450238228, -0.029369376599788666, -0.14232011139392853, 0.0797770693898201, 0.046743135899305344, 0.037801437079906464, 0.20597663521766663, -0.2455979734659195, 0.04782850295305252, -0.08686427772045135, -0.06446804106235504, 0.10083120316267014, 0.04217532277107239, 0.034855425357818604, -0.034170448780059814, 0.036598220467567444, -0.1514374315738678, 0.18056334555149078, -0.1725882589817047, -0.10307660698890686, -0.09927026927471161, -0.24110352993011475, -0.055719055235385895, -0.015249360352754593, -0.04151737689971924, 0.22789061069488525, 0.18323154747486115, -0.06759712100028992, -0.0946078896522522, -0.10915473103523254, 0.15031036734580994, 0.007526800036430359, -0.11461517214775085, 0.12449914962053299, -0.19796937704086304, -0.09545177221298218], [0.12661747634410858, -0.029134346172213554, 0.04129994660615921, -0.15397249162197113, -0.048342809081077576, -0.06615691632032394, 0.153499573469162, -0.011868994683027267, 0.10909458249807358, 0.08029603213071823, -0.020617078989744186, 0.06517057865858078, -0.2492716759443283, 0.22213423252105713, 0.28031545877456665, -0.060949645936489105, 0.013451898470520973, -0.04445730894804001, 0.14562414586544037, 0.16972798109054565, -0.02721557579934597, -0.08606720715761185, 0.2728869318962097, -0.19864077866077423, -0.020117122679948807, 0.009152526035904884, -0.1076296716928482, -0.12461800128221512, -0.02672397904098034, -0.00513361394405365, 0.14193235337734222, -0.007470251992344856, 0.04055183380842209, -0.32825785875320435, -0.13115808367729187, -0.31784775853157043, 0.06872018426656723, 0.16750198602676392, 0.10442241281270981, 0.021353399381041527, 0.23740868270397186, -0.08763642609119415, 0.15417039394378662, 0.0373828187584877, -0.002665402367711067, -0.18858405947685242, 0.11710748821496964, -0.03211599588394165, -0.06691347807645798, -0.23037299513816833], [0.21895954012870789, -0.29289886355400085, 0.09368643909692764, -0.1951373964548111, 0.09079798310995102, 0.019820842891931534, -0.14432084560394287, 0.06710135191679001, 0.23872169852256775, 0.07492289692163467, 0.0015854742377996445, -0.024330010637640953, -0.1464337408542633, 0.2634580433368683, -0.10900400578975677, 0.028555897995829582, -0.06674714386463165, 0.04564313590526581, 0.021573567762970924, 0.22870835661888123, -0.035799503326416016, 0.11316782236099243, 0.16933967173099518, 0.27771350741386414, -0.2059943825006485, -0.1992102563381195, -0.06015978008508682, -0.10344278067350388, -0.025952434167265892, 0.01599578745663166, 0.0821419432759285, -0.041330061852931976, 0.13311457633972168, -0.19477243721485138, 0.0015426147729158401, -0.30766555666923523, -0.0434839203953743, 0.020970458164811134, 0.11786545068025589, 0.07092904299497604, 0.09942387789487839, 0.10857922583818436, 0.19643360376358032, -0.17856988310813904, -0.10099739581346512, 0.23766545951366425, 0.015403438359498978, -0.1100211888551712, 0.039139650762081146, 0.023979416117072105], [0.16764289140701294, -0.15193995833396912, 0.1632392406463623, 0.23350030183792114, 0.23128190636634827, 0.034296631813049316, -0.14205814898014069, 0.09320570528507233, 0.28136780858039856, 0.0734582170844078, 0.06722767651081085, -0.03666231781244278, -0.0106069166213274, 0.0761103630065918, 0.12222302705049515, -0.17615646123886108, -0.0005911439657211304, 0.14638838171958923, -0.06526094675064087, 0.03753885626792908, 0.20920489728450775, 0.21157272160053253, 0.14894922077655792, 0.24835653603076935, -0.13785229623317719, 0.010943079367280006, 0.09115176647901535, 0.10533823072910309, 0.008330347016453743, 0.048041827976703644, 0.20104661583900452, -0.18674571812152863, 0.050324179232120514, -0.07860661298036575, -0.13173702359199524, 0.21547992527484894, 0.013897012919187546, -0.09316861629486084, 0.2022322118282318, -0.09752286225557327, -0.07426779717206955, -0.1065635159611702, 0.13435277342796326, -0.31018543243408203, -0.02839886210858822, 0.12004947662353516, 0.049700990319252014, 0.0401780903339386, -0.16755178570747375, 0.1600482314825058], [0.05362875014543533, -0.02165667526423931, 0.04341666400432587, 0.1831231713294983, 0.24083001911640167, 0.03517712652683258, -0.17715172469615936, 0.07629874348640442, 0.2198244333267212, 0.23089611530303955, 0.14118900895118713, 0.008268654346466064, -0.1728549301624298, 0.013331089168787003, -0.02904636226594448, 0.000794464722275734, 0.14099429547786713, -0.1586787849664688, -0.19562911987304688, 0.12497299164533615, 0.012134049087762833, -0.2698644697666168, -0.11316952109336853, 0.1616969257593155, 0.083167165517807, -0.0016748476773500443, 0.19662101566791534, 0.06875679641962051, -0.07046777009963989, 0.08053110539913177, 0.1796075850725174, -0.0552518367767334, -0.026716789230704308, -0.026701755821704865, -0.012321243062615395, 0.1524975299835205, 0.2244613766670227, -0.16168561577796936, 0.12391243129968643, -0.09841036796569824, -0.1916794329881668, -0.22277502715587616, -0.15310005843639374, -0.17872564494609833, -0.06661568582057953, 0.08018363267183304, 0.015630703419446945, -0.012711349874734879, -0.0476754829287529, -0.02025749161839485], [0.17915590107440948, 0.15074265003204346, -0.156853586435318, 0.03483021631836891, 0.07831361144781113, -0.005796663463115692, -0.20991776883602142, -0.2516101598739624, 0.09107356518507004, 0.30147358775138855, 0.1321263164281845, 0.19397670030593872, -0.09801239520311356, -0.17916452884674072, -0.06548215448856354, 0.18304528295993805, -0.025431958958506584, -0.10301262140274048, -0.039857134222984314, 0.14176397025585175, -0.15069320797920227, -0.3142867982387543, -0.019049491733312607, 0.007487827911973, 0.0889306366443634, 0.10837505012750626, 0.06006748974323273, -0.0655568465590477, -0.18737812340259552, 0.01080523245036602, 0.12113683670759201, -0.14461535215377808, 0.09611589461565018, 0.0326554998755455, -0.10963260382413864, 0.19145898520946503, -0.05468404293060303, 0.019243638962507248, 0.20322750508785248, 0.03604992479085922, 0.05065295100212097, -0.16830818355083466, -0.1990620344877243, -0.21656633913516998, 0.04234800487756729, -0.03522022068500519, 0.02852536551654339, 0.11934853345155716, -0.001916969195008278, 0.07007697969675064], [0.15396800637245178, 0.2554718255996704, -0.12930139899253845, -0.19759804010391235, -0.12333573400974274, 0.056918613612651825, -0.2023543417453766, -0.24937108159065247, 0.03820978105068207, 0.23760347068309784, 0.22519753873348236, -0.065037801861763, 0.07449804991483688, -0.1773090660572052, -0.15265214443206787, -0.06671177595853806, 0.09200221300125122, 0.04503943771123886, -0.16025829315185547, -0.22928696870803833, -0.11806035786867142, -0.1588076800107956, 0.17651261389255524, -0.07189840078353882, -0.07227500528097153, 0.066152423620224, -0.15765471756458282, -0.059343546628952026, -0.11003246903419495, -0.02041318640112877, 0.11038462817668915, 0.11279913783073425, 0.041402801871299744, -0.057946547865867615, 0.09929659962654114, 0.20515933632850647, 0.020096484571695328, 0.09541785717010498, -0.07365898787975311, 0.18880149722099304, 0.10236489772796631, -0.0073973145335912704, -0.2539174556732178, -0.046212173998355865, -0.09227724373340607, 0.15860916674137115, -0.033708274364471436, 0.04106641560792923, -0.08351248502731323, -0.02321469597518444], [0.03419011831283569, 0.0031073763966560364, -0.06776358932256699, -0.28723591566085815, -0.0064113810658454895, 0.11641692370176315, -0.09198547154664993, -0.1997680515050888, -0.09494561702013016, 0.13676494359970093, -0.02718832902610302, 0.0881800651550293, 0.05154246836900711, -0.12359001487493515, 0.11176177859306335, -0.0849250853061676, 0.14527441561222076, 0.12340842932462692, -0.05471770465373993, -0.11235205084085464, 0.03814295679330826, -0.047691747546195984, -0.013691607862710953, 0.055767692625522614, 0.1618826687335968, 0.025213664397597313, -0.06758357584476471, 0.15366896986961365, 0.2322484254837036, 0.012016799300909042, -0.03504597395658493, -0.0797606036067009, -0.0537109300494194, -0.20913206040859222, -0.047316715121269226, 0.11702851206064224, -0.001574421301484108, -0.02003839984536171, 0.04805280268192291, 0.2207503616809845, -0.08327923715114594, -0.0145677849650383, -0.25200626254081726, -0.15069934725761414, -0.17874988913536072, 0.045689620077610016, -0.09613741934299469, -0.05295991897583008, 0.07673246413469315, 0.1924401819705963], [0.09641583263874054, 0.0673806369304657, -0.10775820165872574, -0.060671620070934296, -0.065174400806427, 0.05514312535524368, 0.04877827316522598, -0.15152892470359802, -0.0922427773475647, 0.005437873303890228, -0.06220174580812454, -0.01320989616215229, -0.22818560898303986, -0.18460723757743835, 0.12130878120660782, 0.1606207937002182, 0.0023197028785943985, 0.17191429436206818, -0.04054752737283707, -0.17201510071754456, -0.13139782845973969, 0.1294926404953003, 0.13471102714538574, 0.020511412993073463, -0.06160241365432739, -0.15384091436862946, -0.004686832427978516, -0.1785426288843155, 0.1742275357246399, -0.01420990563929081, -0.1461804062128067, -0.240046426653862, -0.14144465327262878, 0.22933857142925262, 0.20496580004692078, 0.022787874564528465, 0.08592671155929565, -0.0660882368683815, 0.013535093516111374, 0.29942086338996887, 0.04407569020986557, -0.1649114489555359, -0.12656739354133606, 0.012399787083268166, -0.07248843461275101, 0.039124637842178345, -0.052061840891838074, -0.15987801551818848, -0.17458651959896088, 0.11741665750741959], [0.16841650009155273, -0.01732688769698143, -0.06365706771612167, -0.15839990973472595, 0.12653976678848267, 0.03377779573202133, 0.07453243434429169, 0.11543723195791245, -0.04638946056365967, -0.20459063351154327, 0.029825305566191673, -0.10878027230501175, -0.2991209626197815, -0.21176932752132416, 0.178583025932312, 0.06117609888315201, -0.022756045684218407, 0.17695973813533783, 0.19789184629917145, -0.020713750272989273, -0.038760244846343994, 0.2133854776620865, 0.039529480040073395, -0.02436080016195774, 0.021583808586001396, 0.16965362429618835, 0.017048435285687447, -0.22337161004543304, 0.23840710520744324, 0.04559594392776489, -0.19949884712696075, 0.10256295651197433, -0.1871996372938156, 0.10379118472337723, 0.05497285723686218, -0.02631857618689537, -0.10977791249752045, 0.09714686125516891, 0.009187871590256691, 0.0475216805934906, 0.19349609315395355, -0.04901261627674103, -0.16658104956150055, 0.19445490837097168, -0.16828352212905884, 0.19704225659370422, 0.11238586902618408, 0.09332896769046783, -0.14048391580581665, 0.03263457864522934], [0.11535558849573135, 0.055558860301971436, 0.06957270205020905, -0.17554785311222076, 0.2437007874250412, 0.017065105959773064, -0.06554863601922989, 0.2461274415254593, 0.17649157345294952, -0.2387416809797287, -0.09339594095945358, -0.12540464103221893, -0.18859747052192688, -0.147323340177536, 0.12317290157079697, 0.15655505657196045, 0.023605164140462875, 0.2435113936662674, 0.10904158651828766, -0.09069008380174637, 0.10031328350305557, 0.015984367579221725, -0.21402429044246674, 0.11738582700490952, -0.07113412022590637, 0.04113695025444031, 0.10836723446846008, -0.046166010200977325, 0.128862202167511, -0.05621778219938278, 0.008432822301983833, 0.13539010286331177, 0.07976266741752625, -0.09267108142375946, -0.07080932706594467, -0.12085985392332077, -0.0704045295715332, 0.08307765424251556, -0.033821433782577515, 0.11012871563434601, 0.16699327528476715, -0.012543575838208199, 0.17623001337051392, -0.004377640783786774, -0.1431012600660324, 0.06806798279285431, -0.22618447244167328, 0.1949053853750229, -0.16729365289211273, 0.19571155309677124], [6.80387020111084e-05, 0.01733517087996006, 0.1565246880054474, -0.051140688359737396, 0.28640133142471313, 0.08539294451475143, -0.12968659400939941, 0.28984150290489197, 0.2562972903251648, -0.19899316132068634, -0.042483679950237274, -0.22218264639377594, -0.15648487210273743, 0.020022356882691383, -0.12976399064064026, 0.07231360673904419, 0.1367068886756897, -0.21372950077056885, -0.009142788127064705, 0.03408140689134598, -0.09882839024066925, 0.0930086001753807, -0.1809203028678894, 0.03859300911426544, 0.18254470825195312, 0.06733401864767075, 0.22691784799098969, -0.18179240822792053, 0.04791625589132309, -0.10431474447250366, -0.11259708553552628, -0.0027936790138483047, 0.1311149150133133, 0.14042818546295166, 0.1979762464761734, 0.20390085875988007, -0.13096000254154205, 0.05126785486936569, 0.04401704668998718, 0.08302270621061325, -0.033014558255672455, -0.19497400522232056, 0.19108249247074127, 0.16665524244308472, -0.15266156196594238, -0.06610918790102005, -0.10846634209156036, -0.14153799414634705, -0.20016522705554962, 0.09106580913066864], [0.1410105973482132, 0.1362573355436325, -0.11867441982030869, -0.0637623518705368, -0.26665690541267395, 0.2146526724100113, -0.09291674941778183, 0.3008863627910614, 0.3066103160381317, 0.038965046405792236, 0.07358522713184357, -0.03798658400774002, -0.02716304175555706, 0.058096639811992645, 0.16622088849544525, -0.032720692455768585, 0.2488904893398285, -0.12106206268072128, -0.12357635051012039, -0.060432903468608856, -0.20101898908615112, 0.08371817320585251, 0.0023345574736595154, -0.05653081089258194, -0.16381379961967468, -0.12444505840539932, -0.19630461931228638, -0.17114143073558807, -0.11463331431150436, -0.06948820501565933, -0.24249997735023499, -0.026459043845534325, -0.12879346311092377, -0.0048997048288583755, 0.04711627960205078, 0.15785105526447296, -0.09196852892637253, -0.03818131238222122, 0.158244788646698, -0.006873035803437233, 0.04443904012441635, -0.14622104167938232, 0.28488588333129883, -0.16138114035129547, 0.2833002805709839, 0.027715319767594337, -0.03831605613231659, 0.166279599070549, -0.08628164976835251, 0.010052552446722984], [0.15577201545238495, 0.22064734995365143, -0.12942373752593994, -0.13087116181850433, -0.11963049322366714, 0.10727089643478394, 0.03119766339659691, 0.008561849594116211, -0.1023910790681839, -0.08011823892593384, 0.022667204961180687, 0.006332153454422951, -0.28782373666763306, 0.07819482684135437, 0.08905266225337982, -0.13459552824497223, -0.08280386030673981, -0.036317430436611176, -0.16272763907909393, 0.06638669967651367, -0.20625154674053192, -0.24674725532531738, 0.16142843663692474, 0.03874784708023071, -0.039917394518852234, 0.04163484275341034, -0.09211898595094681, -0.07619427144527435, -0.017294395714998245, -0.1663760542869568, 0.044111497700214386, -0.11201344430446625, -0.2195541262626648, -0.011277120560407639, -0.09501428157091141, 0.15291789174079895, 0.10955609381198883, 0.16751570999622345, 0.24786587059497833, -0.14102540910243988, -0.045762524008750916, -0.1318284571170807, 0.23118466138839722, -0.15267786383628845, 0.13958033919334412, -0.11522367596626282, 0.13403025269508362, 0.08304265141487122, -0.21315322816371918, -0.012014266103506088], [0.09818518906831741, 0.2797356843948364, -0.023619160056114197, 0.14455130696296692, 0.08031032234430313, -0.19917497038841248, 0.13274016976356506, 0.05792707949876785, 0.001537734642624855, 0.0171787291765213, 0.04902828484773636, -0.10123611241579056, -0.136044442653656, 0.07100566476583481, 0.10205389559268951, 0.1438148021697998, 0.02758469246327877, 0.062382280826568604, -0.018280381336808205, 0.17801979184150696, 0.09436805546283722, -0.13726215064525604, 0.09606033563613892, -0.027649875730276108, -0.03481282293796539, 0.0671660378575325, 0.07655460387468338, 0.11448821425437927, -0.03332643210887909, -0.21756599843502045, -0.0674404427409172, 0.06589400768280029, 0.25855979323387146, 0.19003459811210632, -0.201400026679039, 0.10662910342216492, 0.07575917989015579, 0.009132053703069687, 0.08546054363250732, 0.003350706771016121, -0.15374688804149628, -0.07737018167972565, 0.14345254004001617, -0.09096713364124298, -0.01141447201371193, -0.2198217660188675, -0.03283876180648804, -0.1611158400774002, -0.19015713036060333, 0.18091581761837006], [0.14152568578720093, 0.30122530460357666, 0.19095756113529205, 0.04759213328361511, 0.17352984845638275, -0.1635890007019043, -0.04761812090873718, -0.1590421050786972, -0.047316886484622955, -0.12538254261016846, -0.04442451149225235, -0.07530171424150467, -0.0014987103641033173, -0.16037730872631073, -0.04169046878814697, 0.11553149670362473, -0.007924364879727364, -0.10655134171247482, -0.0775822326540947, -0.21304641664028168, 0.006140256300568581, -0.12081293016672134, 0.2510024905204773, 0.04394315928220749, -0.09722992777824402, 0.16817054152488708, 0.0626591295003891, 0.03743169456720352, -0.13241596519947052, -0.16660279035568237, -0.19411620497703552, 0.006576944142580032, 0.24227236211299896, 0.09431394934654236, -0.06627370417118073, 0.04611223191022873, -0.026436446234583855, -0.13999147713184357, -0.17457613348960876, 0.013062374666333199, 0.10819578915834427, -0.007239647209644318, 0.02612474374473095, -0.007969237864017487, 0.07638975977897644, -0.16683170199394226, 0.038949161767959595, -0.026862910017371178, -0.09342994540929794, 0.14812898635864258], [0.1707543283700943, -0.24636389315128326, 0.22117601335048676, -0.016771458089351654, 0.1430031955242157, -0.1261262148618698, -0.14931897819042206, -0.20331649482250214, 0.014337863773107529, -0.09206841886043549, -0.03977597504854202, -0.08915236592292786, -0.1629454642534256, 0.13635015487670898, -0.08822673559188843, -0.045671381056308746, -0.2943764925003052, 0.020550798624753952, -0.11040185391902924, -0.12815508246421814, 0.05439482629299164, -0.09649030864238739, -0.03849007189273834, 0.011840352788567543, -0.235171377658844, 0.0557267889380455, -0.17828726768493652, 0.2255166620016098, -0.2217477560043335, -0.03369707614183426, 0.18784792721271515, -0.07305248081684113, 0.1317969709634781, 0.28910672664642334, -0.05600018799304962, -0.06340299546718597, 0.14057892560958862, -0.08845079690217972, -0.08825887739658356, 0.09857068955898285, -0.04255996644496918, 0.06968297064304352, -0.1007908433675766, 0.16819126904010773, 0.0020903516560792923, 0.18289005756378174, 0.17513097822666168, 0.008666720241308212, -0.07623133063316345, 0.045228101313114166], [-0.04589948058128357, -0.15953639149665833, 0.20517697930335999, 0.04161619395017624, -0.11077108234167099, -0.02778550051152706, -0.1702251434326172, -0.22552582621574402, -0.26936620473861694, -0.06759338825941086, -0.05702536553144455, -0.1492277979850769, -0.04489189386367798, 0.13381487131118774, 0.21482406556606293, -0.028575388714671135, -0.17389996349811554, 0.12689854204654694, -0.22534339129924774, -0.24028335511684418, -0.05233055353164673, -0.29059547185897827, 0.13128066062927246, -0.0851842537522316, -0.0820566937327385, -0.13232025504112244, -0.04864811897277832, -0.1685800403356552, -0.06201641634106636, 0.04049648344516754, 0.0217543076723814, 0.06904217600822449, -0.20359539985656738, 0.19231943786144257, -0.13180607557296753, 0.04896043241024017, -0.07435086369514465, -0.21912986040115356, -0.1913525015115738, 0.0018302295356988907, -0.10449276864528656, 0.16864457726478577, -0.2168029099702835, -0.002449735999107361, 0.15126129984855652, 0.188665971159935, 0.08748458325862885, 0.06095501035451889, 0.07829628139734268, 0.12084833532571793], [-0.1405699998140335, -0.01343340054154396, 0.1091332733631134, -0.02600087784230709, 0.0542120486497879, 0.059454865753650665, -0.11920206993818283, -0.18469303846359253, -0.20868708193302155, 0.05258335918188095, -0.1388741284608841, -0.13317546248435974, 0.1416870504617691, 0.004919514060020447, 0.14917001128196716, 0.029169099405407906, -0.05998430401086807, 0.0013179201632738113, 0.026254964992403984, -0.17693203687667847, -0.1393771469593048, -0.21534664928913116, -0.12256031483411789, -0.01596047356724739, 0.15765465795993805, -0.17525866627693176, -0.22326652705669403, -0.05441387742757797, 0.1418527364730835, 0.08139541745185852, -0.10014514625072479, -0.12537561357021332, -0.2579866647720337, 0.20188681781291962, 0.18772079050540924, 0.2114298790693283, -0.12756195664405823, -0.2382088452577591, -0.1390247344970703, 0.03813401609659195, -0.14866779744625092, -0.23909825086593628, -0.1845422238111496, -0.025264447554945946, 0.027351139113307, -0.04168856143951416, 0.029255332425236702, -0.17001329362392426, 0.20261789858341217, 0.1984262317419052], [-0.03248143941164017, 0.06189987435936928, 0.09898553043603897, -0.11223816126585007, -0.12029081583023071, -0.20513346791267395, 0.10564085841178894, -0.1340152621269226, -0.12501773238182068, 0.17285513877868652, -0.07701370865106583, -0.17747542262077332, -0.1931401789188385, 0.0395878441631794, 0.0786643922328949, -0.03949204087257385, 0.0301688052713871, 0.1212872639298439, -0.018419241532683372, -0.07539073377847672, -0.23576386272907257, -0.14804580807685852, 0.07360510528087616, 0.16563169658184052, 0.11488092690706253, 0.053702130913734436, -0.07368793338537216, -0.03200061619281769, 9.893253445625305e-05, -0.06084255129098892, -0.032955728471279144, 0.06823991239070892, -0.2086167335510254, 0.08596967905759811, 0.06247570365667343, 0.23464734852313995, -0.17716915905475616, -0.31035616993904114, 0.17512139678001404, 0.11109988391399384, 0.15452535450458527, -0.15100926160812378, -0.173259899020195, 0.11953076720237732, 0.24895058572292328, -0.16042882204055786, 0.11670341342687607, 0.16185413300991058, 0.01768549717962742, 0.06338964402675629], [0.11342677474021912, 0.12847165763378143, -0.2085675448179245, 0.09351177513599396, -0.019979506731033325, -0.12098398804664612, 0.16795603930950165, -0.18736279010772705, -0.04437994956970215, 0.17268513143062592, -0.04104865714907646, -0.2570335268974304, -0.03076520934700966, 0.09839765727519989, -0.1671731024980545, 0.10941441357135773, 0.12466178834438324, 0.14603139460086823, -0.0401209220290184, 0.017876233905553818, -0.1356460452079773, -0.1811559647321701, 0.02213629148900509, 0.00474955141544342, 0.07071090489625931, -0.084610216319561, -0.012281680479645729, -0.055632345378398895, -0.21736249327659607, -0.13307274878025055, 0.007060961797833443, -0.038947731256484985, -0.12514787912368774, 0.09851572662591934, -0.04403723031282425, 0.18609808385372162, 0.11202839761972427, 0.13230545818805695, 0.07889403402805328, -0.05449945479631424, 0.01250581257045269, 0.013083193451166153, -0.1772816926240921, 0.23004712164402008, 0.13469873368740082, 0.15041565895080566, -0.2072535753250122, 0.013785537332296371, 0.10338757932186127, -0.13109757006168365], [-0.09258998185396194, -0.02152274362742901, -0.19217391312122345, -0.18823561072349548, 0.0200522281229496, -0.1994706690311432, 0.11195703595876694, -0.19116686284542084, -0.06264925748109818, 0.08417969197034836, -0.005264952778816223, -0.2673310339450836, 0.02526703290641308, 0.22310887277126312, -0.10047712177038193, 0.02682325802743435, 0.1931963413953781, -0.21461910009384155, 0.023754563182592392, 0.17578062415122986, -0.11796306818723679, -0.13918909430503845, -0.1928020566701889, -0.10463570803403854, -0.03336847573518753, -0.12388204783201218, -0.0966949537396431, 0.07964539527893066, 0.15612530708312988, -0.1216391995549202, -0.09942791610956192, 0.05387341231107712, -0.12857085466384888, -0.0040572453290224075, 0.18342243134975433, 0.06460212916135788, -0.025686217471957207, -0.026458969339728355, 0.1935955435037613, -0.06322239339351654, 0.014735369011759758, 0.06855180114507675, -0.21779869496822357, 0.12228331714868546, 0.08355855941772461, 0.04436677694320679, -0.1209656372666359, 0.028776666149497032, -0.18748265504837036, -0.1840168833732605], [-0.014041531831026077, 0.07779621332883835, -0.07196136564016342, 0.14336800575256348, -0.24383509159088135, -0.24695171415805817, 0.04477471858263016, -0.16248324513435364, -0.1282704472541809, 0.10090407729148865, 0.03834693878889084, -0.20278912782669067, 0.17476189136505127, 0.24719206988811493, -0.14351698756217957, 0.09935875982046127, 0.279652863740921, -0.15391090512275696, 0.06423977762460709, 0.19159653782844543, -0.0992552638053894, -0.202458456158638, 0.0288616344332695, 0.05451900511980057, 0.06757998466491699, 0.20796626806259155, 0.07069343328475952, 0.04129251092672348, 0.022188840433955193, 0.0825362354516983, 0.09369173645973206, 0.005165433511137962, -0.11858763545751572, 0.06161370873451233, 0.03931048512458801, -0.07455124706029892, -0.06702753156423569, -0.0997101441025734, -0.24551238119602203, 0.010410213842988014, -0.07831426709890366, 0.11217062920331955, -0.14463430643081665, -0.1541047841310501, -0.06387834995985031, -0.08962877839803696, -0.09299064427614212, 0.1286405473947525, -0.08755414932966232, 0.06620484590530396], [0.04574768245220184, 0.07323413342237473, -0.1635410636663437, 0.212145134806633, -0.16763772070407867, -0.1739646941423416, 0.016978735104203224, -0.034844543784856796, -0.2704406678676605, 0.2308225929737091, 0.1427585333585739, 0.17297056317329407, -0.09593969583511353, 0.1770222783088684, 0.17003557085990906, 0.20481501519680023, 0.2201450616121292, -0.049644459038972855, -0.08008170127868652, -0.11117738485336304, -0.10088526457548141, -0.07481005787849426, 0.21063841879367828, -0.03773166239261627, 0.12078545242547989, 0.07359781861305237, 0.19640286266803741, 0.23775456845760345, 0.0831383466720581, -0.006536573171615601, -0.049657613039016724, -0.13028274476528168, -0.1169496402144432, 0.1325576901435852, -0.04647037386894226, 0.26214897632598877, -0.1579732745885849, 0.2100001722574234, -0.1310514509677887, -0.08466920256614685, 0.10232450067996979, 0.21200312674045563, -0.17869612574577332, -0.07624983787536621, -0.15934577584266663, 0.2104453295469284, 0.06922569870948792, -0.1753533035516739, -0.20397035777568817, 0.035777747631073], [-0.11696170270442963, 0.18443527817726135, -0.04796091094613075, 0.08541776239871979, -0.30520492792129517, -0.005429968237876892, -0.19709616899490356, -0.040612123906612396, -0.21067088842391968, 0.28515681624412537, -0.1651499718427658, 0.13031958043575287, -0.027636302635073662, 0.21685945987701416, 0.028436293825507164, 0.18638163805007935, -0.07938805967569351, 0.11886820942163467, -0.1922818124294281, -0.14108268916606903, 0.09841406345367432, 0.037483759224414825, 0.14335481822490692, -0.15477634966373444, -0.022628290578722954, -0.11699801683425903, 0.25288859009742737, -0.05484239012002945, -0.0672466903924942, 0.01824835129082203, -0.0781085193157196, -0.038647592067718506, -0.0349653922021389, 0.012226872146129608, -0.16927079856395721, 0.1444055736064911, 0.1755208820104599, 0.020627398043870926, -0.16157130897045135, 0.03033723495900631, -0.10773254930973053, -0.10820768773555756, 0.06194872409105301, 0.035256654024124146, -0.08052777498960495, 0.08335474878549576, -0.05785772576928139, -0.13769294321537018, -0.18258138000965118, -0.07680792361497879], [-0.15675142407417297, -0.10258924216032028, 0.15470363199710846, -0.06721442192792892, -0.23012623190879822, 0.08588330447673798, -0.19062168896198273, -0.003552684560418129, -0.17009112238883972, 0.2536611557006836, -0.18809497356414795, -0.0756978839635849, 0.05861344188451767, 0.21357771754264832, 0.11415121704339981, -0.02353687398135662, 0.05192103981971741, 0.006350390613079071, 0.17279422283172607, -0.07839901000261307, -0.10049088299274445, 0.1599133312702179, 0.14075417816638947, -0.26969239115715027, 0.04440837353467941, 0.29757368564605713, -0.04734719544649124, -0.1419832408428192, -0.05468699336051941, 0.004263097420334816, -0.16507360339164734, 0.2820384204387665, 0.018583716824650764, 0.13073481619358063, 0.13897138833999634, 0.11643397063016891, -0.12404307723045349, -0.10850194096565247, -0.05283582955598831, 0.11321054399013519, 0.04950945824384689, -0.0051880814135074615, 0.010414713993668556, 0.17623761296272278, -0.23313087224960327, -0.09284783154726028, 0.1104876920580864, 0.05622732639312744, -0.02849082462489605, 0.030816776677966118], [-0.1291075199842453, 0.008388031274080276, 0.2088892161846161, 0.16822707653045654, -0.16790704429149628, 0.06319349259138107, -0.09978459030389786, 0.11146989464759827, -0.041978150606155396, -0.02254979871213436, -0.1442766785621643, -0.1697777360677719, -0.06003422290086746, 0.1606357991695404, -0.15343713760375977, 0.18556734919548035, -0.12937523424625397, 0.024192681536078453, 0.11479328572750092, 0.06620515137910843, 0.08890489488840103, -0.12005534023046494, 0.18961533904075623, -0.15337006747722626, 0.19976912438869476, 0.12241404503583908, -0.1291421502828598, -0.06521296501159668, 0.17199492454528809, 0.22677196562290192, -0.22459450364112854, 0.14278417825698853, 0.014257717877626419, 0.04492015391588211, 0.029861776158213615, 0.0812019482254982, 0.010683251544833183, 0.05759696662425995, -0.04120747745037079, 0.0957227349281311, 0.1726176142692566, 0.10868166387081146, -0.06853224337100983, -0.17343619465827942, 0.025600163266062737, -0.25934311747550964, -0.0426376610994339, 0.12528713047504425, 0.0993620976805687, -0.11089897900819778], [-0.14858782291412354, 0.11493080854415894, 0.1398356705904007, 0.11202069371938705, -0.1283569633960724, -0.20786376297473907, 0.14312629401683807, 0.036817051470279694, -0.014669355005025864, -0.05314084142446518, -0.12508143484592438, 0.03809072822332382, 0.105110302567482, -0.07578692585229874, -0.10848233103752136, -0.11095315217971802, -0.047670260071754456, 0.08161748200654984, 0.07148120552301407, 0.24417653679847717, -0.014716904610395432, -0.12929806113243103, 0.29605552554130554, -0.07102865725755692, -0.14749830961227417, 0.08710455149412155, -0.07837462425231934, 0.013435427099466324, 0.036940932273864746, 0.20423109829425812, -0.08607113361358643, -0.028757119551301003, -0.06599694490432739, -0.052424900233745575, 0.15305711328983307, -0.06846824288368225, -0.2179127037525177, -0.002028331160545349, 0.03503749519586563, -0.23752781748771667, 0.05465863645076752, 0.2383081018924713, -0.19182056188583374, -0.05532476305961609, 0.3381458818912506, 0.1594400554895401, 0.10155872255563736, -0.045614369213581085, 0.24039147794246674, -0.21215879917144775], [-0.06860607862472534, -0.04313911497592926, -0.14476600289344788, -0.11419838666915894, -0.09125462919473648, -0.14442157745361328, 0.14519371092319489, 0.08765992522239685, 0.08633922040462494, -0.09006379544734955, -0.04695878177881241, 0.05913028493523598, 0.21824267506599426, -0.07743595540523529, -0.043279752135276794, -0.012260520830750465, 0.04867178201675415, 0.13198871910572052, 0.007274560630321503, 0.2736000716686249, -0.09205572307109833, -0.17408953607082367, 0.2132100611925125, -0.14647498726844788, -0.07858011871576309, -0.08746261894702911, -0.10710105299949646, 0.17282302677631378, 0.1335475742816925, 0.15635982155799866, 0.10066454112529755, 0.0666293203830719, 0.21900765597820282, 0.1623278707265854, 0.011470766738057137, -0.15303677320480347, -0.15864667296409607, -0.13617296516895294, 0.09788711369037628, -0.14592920243740082, -0.004792140796780586, 0.08643678575754166, 0.2370542287826538, -0.12130147963762283, 0.2428233027458191, 0.02512255124747753, 0.09628023207187653, -0.1846499890089035, -0.11392597109079361, -0.2259344756603241], [-0.12511473894119263, 0.07638850808143616, -0.06511349976062775, -0.20308181643486023, 0.1233258917927742, 0.0226504635065794, 0.15780287981033325, 0.10045288503170013, 0.14874659478664398, -0.21839052438735962, 0.052657678723335266, 0.024076467379927635, -0.15482141077518463, 0.03669743239879608, -0.12597554922103882, -0.20827321708202362, -0.15801645815372467, -0.12460847944021225, -0.10137864947319031, 0.03402050584554672, -0.15007328987121582, -0.15642212331295013, 0.15685191750526428, 0.01144896075129509, 0.033486977219581604, 0.08107846230268478, -0.17157956957817078, 0.01665731891989708, -0.06915047764778137, 0.12485668808221817, -0.06301421672105789, 0.15798330307006836, 0.2329423874616623, 0.06089823693037033, 0.15668395161628723, -0.2583293914794922, -0.08956439048051834, -0.234529048204422, 0.175273597240448, -0.2012634426355362, -0.1484818011522293, 0.12912221252918243, 0.15988965332508087, -0.177768275141716, 0.08877931535243988, 0.08097414672374725, 0.11220812052488327, 0.14532768726348877, 0.02651171199977398, 0.12251612544059753], [-0.04153267294168472, -0.10762053728103638, 0.07767939567565918, -0.27265042066574097, 0.19639503955841064, 0.12420560419559479, -0.13580602407455444, 0.12364143878221512, -0.09906312078237534, -0.19469834864139557, 0.022389430552721024, 0.028428351506590843, -0.03139812499284744, -0.2498590648174286, -0.12363720685243607, 0.038915980607271194, -0.15740197896957397, -0.03949294239282608, -0.19447343051433563, -0.024637961760163307, 0.017209529876708984, -0.07421522587537766, -0.0817730724811554, -0.03126610070466995, 0.1205248087644577, -0.10298049449920654, -0.10078668594360352, 0.019448991864919662, 0.14269240200519562, -0.08998380601406097, 0.1868055760860443, 0.003569941967725754, 0.1940230429172516, -0.05798143520951271, 0.04116968810558319, 0.13015256822109222, -0.14481039345264435, -0.24667252600193024, 0.23392866551876068, -0.19919297099113464, -0.07088854163885117, -0.2748415470123291, 0.12086009979248047, -0.0029708240181207657, -0.14557568728923798, -0.06952562928199768, 0.0897054523229599, -0.053653717041015625, 0.16123047471046448, 0.12154816836118698], [0.07704572379589081, 0.07914336025714874, 0.058615151792764664, -0.3174498379230499, 0.099886953830719, -0.05011686682701111, -0.0010118819773197174, -0.06169222667813301, 0.06979954987764359, -0.03756776452064514, 0.021309340372681618, -0.017149100080132484, 0.08660301566123962, -0.24114777147769928, 0.0384821742773056, -0.00663389265537262, -0.18965370953083038, -0.1155037209391594, -0.04453609138727188, 0.10462270677089691, 0.02941318042576313, -0.08896847069263458, -0.10065514594316483, -0.05244956910610199, -0.2424025684595108, -0.18529734015464783, -0.012691114097833633, 0.18287688493728638, 0.020535960793495178, -0.15640448033809662, 0.09812004119157791, -0.19742298126220703, 0.18709242343902588, -0.05035687983036041, 0.13619302213191986, 0.07491172105073929, 0.04752689599990845, -0.13158151507377625, 0.19899241626262665, -0.12108517438173294, 0.08916277438402176, -0.14540047943592072, 0.027704093605279922, 0.13689912855625153, 0.19771383702754974, 0.17099858820438385, 0.1720367670059204, 0.050100430846214294, 0.3001076579093933, 0.06301993876695633], [-0.06045267730951309, 0.20616650581359863, 0.05375295132398605, -0.19935844838619232, 0.16547128558158875, 0.047637730836868286, 0.004461782053112984, 0.016788136214017868, 0.07713440805673599, 0.12817694246768951, -0.27150213718414307, -0.1321050524711609, -0.18105675280094147, -0.2787371277809143, 0.109874427318573, -0.03254866600036621, -0.05759017914533615, -0.0019463244825601578, -0.12438958138227463, 0.06123696267604828, -0.15692409873008728, -0.07398458570241928, 0.09902637451887131, -0.09641166031360626, -0.08227107673883438, -0.11218924820423126, -0.07636125385761261, -0.11570196598768234, 0.1263720691204071, -0.22488059103488922, -0.01898641511797905, -0.03862527012825012, 0.06028258055448532, -0.09266025573015213, -0.005203718319535255, 0.021704768761992455, 0.06341159343719482, 0.12106340378522873, -0.20537304878234863, 0.00800846703350544, -0.13991612195968628, -0.020938534289598465, -0.044613465666770935, 0.254832923412323, 0.12312763184309006, 0.15409225225448608, -0.29206332564353943, 0.11078763008117676, -0.09001953899860382, 0.04285635054111481], [-0.2953748106956482, 0.0031981952488422394, 0.04588092863559723, -0.16153918206691742, 0.1843014508485794, 0.1402858942747116, -0.047891851514577866, 0.11961754411458969, 0.1206781342625618, 0.062081046402454376, -0.12866267561912537, -0.16574159264564514, -0.04420986771583557, -0.317928284406662, 0.0005372017621994019, -0.17406730353832245, 0.06640206277370453, 0.08319951593875885, -0.25306859612464905, 0.12332135438919067, 0.07141502946615219, -0.2616994380950928, 0.046567246317863464, -0.23450489342212677, 0.11534877121448517, 0.12096812576055527, 0.10093840956687927, -0.004279883578419685, -0.08897396922111511, -0.006052330136299133, 0.0339101143181324, -0.16444361209869385, -0.11449865996837616, -0.09212817996740341, -0.09060709178447723, -0.05644916370511055, 0.14086365699768066, 0.07829271256923676, -0.16318686306476593, 0.19812408089637756, -0.023159382864832878, -0.03511674329638481, -0.16009925305843353, 0.07952819019556046, 0.04623224213719368, 0.0912611186504364, -0.0908338874578476, -0.06358004361391068, 0.07677335292100906, 0.15160399675369263], [-0.20475566387176514, 0.10553231090307236, 0.12269248813390732, -0.1613655835390091, 0.20890584588050842, 0.08330031484365463, -0.0010010041296482086, 0.08801816403865814, 0.15723496675491333, -0.005948076024651527, 0.04725974053144455, 0.187864750623703, 0.09028259664773941, -0.16887186467647552, -0.136428564786911, -0.149995818734169, 0.1461326777935028, 0.1616980880498886, 0.0038532856851816177, -0.15081480145454407, -0.12299402803182602, -0.1601599156856537, -0.16449499130249023, 0.20367318391799927, -0.11643628031015396, -0.055486977100372314, 0.19524075090885162, -0.03971082717180252, -0.06984517723321915, -0.04210997372865677, -0.1240755245089531, 0.17682236433029175, -0.04572045058012009, 0.03466745465993881, 0.21551156044006348, -0.05218784511089325, -0.07284077256917953, 9.941495954990387e-05, -0.022544270381331444, -0.002589106559753418, 0.02710541896522045, 0.000522613525390625, 