{"ent_embeddings.weight": [[0.05508700758218765, 0.055906377732753754, -0.07105148583650589, -0.06405038386583328, 0.0017771903658285737, 0.038070838898420334, 0.05812722072005272, 0.0253154207020998, 0.01637692004442215, 0.0036777672357857227, 0.05887005478143692, -0.021384289488196373, -0.00950611662119627, -0.03774713724851608, 0.045414235442876816, -0.04711043834686279, -0.016611304134130478, 0.014596388675272465, -0.009432939812541008, -0.010705888271331787, -0.0469210222363472, 0.019541319459676743, -0.030982261523604393, 0.06815092265605927, 0.05602463707327843, 0.019415685907006264, -0.08163892477750778, 0.06900522857904434, -0.0034196695778518915, -0.008315249346196651, 0.03237373009324074, 0.06717899441719055, -0.057882994413375854, -0.06914045661687851, -0.06760124862194061, -0.01568620093166828, -0.022255808115005493, -0.052161287516355515, -0.008250615559518337, 0.06467859447002411, 0.023394666612148285, -0.018245715647935867, 0.03708537667989731, -0.024072319269180298, 0.026294542476534843, 0.08471328765153885, -0.03648123890161514, -0.07427573949098587, -0.05917314812541008, 0.046520333737134933, 0.040429625660181046, -0.04621849209070206, 0.019128378480672836, -0.035378169268369675, 0.036322761327028275, 0.022077539935708046, -0.07366333901882172, 0.0794837549328804, -0.062104687094688416, -0.0606377087533474, 0.0010312777012586594, 0.02779640257358551, -0.022352274507284164, -0.013141817413270473, 0.05505821853876114, -0.036574192345142365, -0.020144544541835785, -0.023154471069574356, 0.05171528831124306, -0.06498976796865463, 0.03952578827738762, -0.012399207800626755, -0.036093708127737045, 0.017277739942073822, 0.04826156795024872, 0.03320084512233734, -0.09007278084754944, -0.04014827683568001, -0.10121898353099823, -0.013215910643339157, -0.04907523840665817, -0.05944732576608658, -0.042971424758434296, 0.026060188189148903, 0.022835051640868187, 0.07443114370107651, -0.07820819318294525, -0.004537879955023527, 0.061578378081321716, -0.0530351884663105, 0.011180518195033073, 0.023373672738671303, 0.007606568746268749, 0.030880199745297432, -0.03255799412727356, -0.012080905959010124, -0.04971951246261597, -0.08835969865322113, 0.05476933345198631, -0.07976564764976501], [0.059221964329481125, -0.05824154615402222, -0.06526195257902145, -0.03065478429198265, 0.01252761296927929, 0.04619739577174187, 0.020521938800811768, 0.045919518917798996, 0.0012652762234210968, -0.06463777273893356, -0.048967111855745316, 0.0718865916132927, 0.009987696073949337, 0.06900087743997574, -0.019596761092543602, 0.02055787667632103, 0.05439646542072296, 0.04110492393374443, 0.055905409157276154, 0.024164820089936256, -0.02954227663576603, -0.010303054004907608, 0.0465402789413929, -0.059032585471868515, 0.007613968104124069, 0.06143534556031227, 0.0057754130102694035, 0.07274935394525528, -0.0151065057143569, 0.06638190150260925, 0.0642646998167038, 0.0614360086619854, -0.05460744351148605, -0.029157187789678574, 0.07266897708177567, -0.06965874880552292, 0.08906378597021103, 0.04583766683936119, -0.057387351989746094, 0.026894740760326385, 0.025215663015842438, -0.015778161585330963, -0.007303830701857805, 0.060311220586299896, -0.04441601037979126, 0.09796544164419174, -0.008149348199367523, -0.08869818598031998, 0.010218614712357521, 0.01936865597963333, 0.01974361576139927, -0.01695150136947632, 0.03900013118982315, -0.04356228560209274, 0.03554721549153328, 0.02479913830757141, -0.050123658031225204, -0.024952061474323273, -0.02070324681699276, 0.04607098549604416, 0.019057001918554306, -0.015053226612508297, -0.04370332509279251, -0.05729369819164276, -0.048397891223430634, 0.0035158779937773943, -0.06079564988613129, 0.022727740928530693, -0.022169804200530052, -0.02230612374842167, 0.03544555604457855, 0.01391704473644495, 0.045475542545318604, -0.06293120235204697, 0.020103581249713898, 0.058516085147857666, -0.08282681554555893, -0.03684874251484871, -0.09135362505912781, 0.016278930008411407, -0.016712266951799393, -0.03233193978667259, -0.03928119316697121, 0.04238801449537277, 0.07476804405450821, 0.054514672607183456, -0.056191448122262955, -0.03981053829193115, 0.039689332246780396, 0.010676229372620583, -0.010921498760581017, -0.0359002947807312, -0.00823925156146288, 0.034072648733854294, 0.009419509209692478, -0.021937500685453415, -0.015368707478046417, -0.05938839539885521, 0.03901807591319084, -0.07232246547937393], [0.0543198436498642, -0.06237306445837021, -0.00868717860430479, -0.09501831978559494, -0.011327870190143585, -0.04450543224811554, 0.0537966713309288, 0.058677058666944504, 0.0628385916352272, -0.035106394439935684, -0.07215095311403275, 0.009662811644375324, -0.03530106693506241, 0.016782673075795174, -0.05697327479720116, 0.04266694188117981, -0.026506081223487854, 0.06904785335063934, -0.03528059646487236, -0.052354373037815094, -0.022889861837029457, 0.002281834138557315, 0.008684505708515644, 0.04261709004640579, -0.013985238038003445, 0.006289276294410229, -0.018886379897594452, 0.09441214054822922, -0.028501249849796295, -0.06429421156644821, 0.023843655362725258, 0.023607654497027397, -0.04978235438466072, 0.01952904835343361, 0.007569738198071718, -0.028860459104180336, 0.08325735479593277, -0.0015633435687050223, -0.020284516736865044, 0.005829880479723215, -0.0031444767955690622, 0.005666251294314861, -0.03924207389354706, 0.027908405289053917, -0.013268895447254181, -0.042459551244974136, 0.01480127964168787, -0.09673658013343811, -0.06792858242988586, -0.003890460357069969, -0.0418718196451664, 0.03443723917007446, -0.050145283341407776, -0.04361480847001076, -0.001465173321776092, 0.02203546278178692, -0.030228417366743088, 0.0830657109618187, -0.031744591891765594, -0.04654725641012192, 0.05700235813856125, -0.06960022449493408, -0.039827339351177216, -0.0224464051425457, -0.02919919230043888, 0.06050107628107071, -0.005750076845288277, 0.03712811693549156, -0.05581105872988701, 0.007649676408618689, -0.07604410499334335, 0.047988347709178925, -0.03362114727497101, 0.007143294904381037, -0.0668838769197464, -0.008910421282052994, -0.07801169157028198, 0.06499307602643967, -0.08925267308950424, -0.012748852372169495, 0.004791188985109329, -0.05742936208844185, -0.06759095191955566, -0.0022858274169266224, -0.03143163397908211, -0.047426920384168625, 0.050745639950037, -0.0384468212723732, -0.029813045635819435, 0.062000520527362823, -0.04452748969197273, 0.033988941460847855, -0.007624180056154728, 0.008673238568007946, -0.015753110870718956, -0.0219260323792696, 0.014639620669186115, -0.023741304874420166, -0.06159467250108719, -0.033137764781713486], [0.06476698815822601, -0.023244449868798256, -0.016857922077178955, -0.08939551562070847, 0.05555474013090134, -0.03669442608952522, -0.0044463262893259525, 0.03511922061443329, 0.07052633166313171, 0.021905945613980293, -0.04716464504599571, -0.007575763389468193, -0.021399175748229027, 0.039186783134937286, 0.05116606503725052, 0.07329180091619492, -0.05599577724933624, 0.02958386018872261, 0.014689074829220772, 0.044733669608831406, 0.07793556898832321, 0.018866311758756638, -0.05228671804070473, 0.005257896147668362, 0.030847890302538872, 0.03562160208821297, 0.020159685984253883, -0.08639945089817047, -0.018411630764603615, -0.02415383979678154, 0.06450532376766205, -0.01391515601426363, -0.03715500608086586, 0.045341432094573975, 0.0004802893672604114, -0.0021809409372508526, 0.06027122959494591, -0.027929378673434258, -0.05254629626870155, 0.030826054513454437, 0.06753797084093094, -0.07191305607557297, 0.03159242123365402, -0.0044975895434618, 0.07250528037548065, -0.02453809604048729, 0.02321435511112213, 0.049462322145700455, -0.0382256917655468, 0.03354531526565552, -0.04547959193587303, 0.060529857873916626, 0.0313013456761837, 0.05114142969250679, 0.03535602241754532, 0.023497220128774643, -0.03694700449705124, 0.09096778929233551, -0.018025366589426994, -0.015888268128037453, 0.07712436467409134, -0.0032619088888168335, -0.04855505749583244, -0.005333357490599155, -0.022856097668409348, -0.062341440469026566, -0.06710629910230637, -0.033572614192962646, 0.05044913291931152, 0.05598070099949837, 0.03011849895119667, -0.05445640906691551, 0.022267336025834084, 0.059733208268880844, 0.0755162388086319, 0.014621821232140064, -0.05246362462639809, 0.05938293784856796, -0.06572703272104263, 0.01974014937877655, 0.0548737607896328, -0.010561075061559677, -0.06399683654308319, -0.04242187365889549, 0.021262232214212418, -0.012692887336015701, 0.05180343613028526, -0.06918572634458542, -0.012221011333167553, 0.0375845842063427, 0.06238571181893349, 0.034459199756383896, -0.018097320571541786, -0.0017916434444487095, -0.06244448572397232, 0.002114349976181984, -0.0382416769862175, 0.016684938222169876, -0.006754524540156126, -0.004417304880917072], [0.07283264398574829, 0.035231079906225204, -0.04586280137300491, -0.04804757982492447, -0.06094055250287056, 0.013155963271856308, 0.004329271148890257, -0.03897140175104141, 0.01806887984275818, 0.024551115930080414, 0.021748242899775505, 0.02857300639152527, -0.01663713902235031, 0.04114450141787529, -0.060996443033218384, 0.02423485554754734, -0.015531008131802082, 0.05895096808671951, -0.00138561031781137, -0.011748265475034714, 0.08268430083990097, 0.047397300601005554, 0.022500040009617805, -0.059189844876527786, 0.0503242053091526, -0.006237668450921774, -0.00017650306108407676, -0.0736566036939621, 0.0005225163185968995, -0.0022799381986260414, -0.00469208974391222, -0.04047847166657448, -0.06900887936353683, 0.07968255877494812, 0.05143638327717781, 0.026779428124427795, 0.039406877011060715, 5.635573688778095e-05, 0.015039640478789806, -0.06341707706451416, 0.06940790265798569, -0.058779217302799225, -0.009174334816634655, -0.03714464232325554, 0.0050890385173261166, -0.010215479880571365, 0.06946875154972076, 0.011300534941256046, -0.04090089350938797, -0.03077050670981407, -0.0025796438567340374, 0.037491872906684875, 0.012687555514276028, 0.026111090555787086, 0.04212262108922005, 0.04010326787829399, -0.027793386951088905, -0.039559997618198395, 0.06295330822467804, 0.01178157702088356, 0.0982164591550827, -0.006857898086309433, -0.006224645301699638, 0.013602415099740028, 0.04477818310260773, 0.06657923012971878, 0.019407503306865692, -0.05496792495250702, 0.05464816838502884, 0.0033970519434660673, -0.02357865683734417, -0.021676233038306236, -0.0038772006519138813, 0.034378405660390854, -0.05058485269546509, 0.021817827597260475, 0.014282502233982086, 0.0506858192384243, -0.02204519882798195, -0.05707491561770439, 0.014587861485779285, 0.059058841317892075, -0.027501774951815605, -0.030435146763920784, 0.07113168388605118, 0.04297458752989769, 0.0015475265681743622, -0.04674530774354935, 0.002914058044552803, 0.015917105600237846, 0.07587409764528275, -0.04987326264381409, -0.06113255396485329, 0.03334434702992439, -0.015276601538062096, -0.03390445187687874, -0.05591822788119316, -0.09237837046384811, -0.02085030823945999, -0.05319112166762352], [-0.03136438503861427, -0.059096794575452805, -0.039955269545316696, 0.000696984410751611, -0.0717724934220314, -0.0030347867868840694, -0.008598607033491135, -0.04395202919840813, 0.05629263445734978, -0.022957423701882362, 0.043856389820575714, 0.018150856718420982, -0.0015920466976240277, -0.0326911024749279, 0.0031338841654360294, 0.04894717410206795, -0.008705654181540012, 0.04836983606219292, 0.04723257198929787, -0.02976394072175026, 0.09327107667922974, -0.019753897562623024, 0.04220515117049217, -0.05623872950673103, -0.05656304955482483, -0.04759901389479637, -0.046611011028289795, -0.06381549686193466, -0.012828494422137737, -0.0416848324239254, 0.023088086396455765, -0.0008052880875766277, -0.09724505245685577, 0.09413059055805206, 0.0005996378022246063, -0.02537969872355461, -0.022160381078720093, 0.001113948062993586, 0.027045056223869324, -0.03412093594670296, 0.024668266996741295, 0.03216535970568657, -0.05415746197104454, 0.031186044216156006, 0.048902880400419235, 0.006663639098405838, -0.006755688227713108, -0.024629516527056694, 0.05014563351869583, -0.030345067381858826, 0.0018786891596391797, -0.04067043960094452, -0.06699398905038834, -0.02205386944115162, 0.07050227373838425, 0.044103432446718216, -0.005082019604742527, 0.024904990568757057, 0.007687286473810673, 0.03510823845863342, 0.045483630150556564, -0.05411793291568756, -0.055285561829805374, -0.027035636827349663, 0.06951373815536499, -0.033445943146944046, 0.021288545802235603, 0.03443611413240433, -0.04095800966024399, 0.046568915247917175, 0.055227167904376984, -0.016808388754725456, 0.056340888142585754, 0.022319819778203964, -0.011685045436024666, 0.03608888387680054, 0.03554549440741539, 0.038009896874427795, -0.014088248834013939, 0.04648007079958916, -0.04606792330741882, 0.0032935375347733498, 0.07309482991695404, 0.029170028865337372, -0.056370895355939865, 0.07389090955257416, -0.015402360819280148, 0.02589021623134613, -0.08936765044927597, 0.03639805689454079, -0.040199488401412964, -0.015526807866990566, -0.0564606636762619, 0.010534013621509075, -0.06427969038486481, 0.0354042574763298, 0.020024498924613, -0.06819611042737961, 0.020661668851971626, -0.0546569898724556], [-0.03768591582775116, -0.070180244743824, 0.021225597709417343, 0.02966971881687641, 0.06021662428975105, -0.030536871403455734, -0.06393445283174515, 0.035787370055913925, 0.06557484716176987, -0.017675166949629784, 0.051008690148591995, 0.018572328612208366, 0.006847444921731949, -0.016704276204109192, 0.024939339607954025, 0.06229415908455849, -0.006853267550468445, -0.030542030930519104, 0.04555387794971466, 0.04415658116340637, 0.080410897731781, 0.0033033208455890417, -0.06782127171754837, -0.049545373767614365, 0.023447778075933456, 0.0086184311658144, -0.07365477085113525, 0.06506921350955963, -0.03399648144841194, 0.03274211287498474, -0.05575915798544884, -0.025520693510770798, 0.07348214089870453, -0.07411139458417892, 0.04641247168183327, -0.045875515788793564, -0.05957045406103134, -0.03346185386180878, -0.033370260149240494, 0.01759682223200798, -0.033041588962078094, 0.05466185137629509, -0.08123098313808441, -0.0023052822798490524, -0.041664108633995056, -0.030804019421339035, -0.020687313750386238, -0.051226843148469925, -0.024516930803656578, 0.04874220862984657, 0.0518391914665699, 0.01023621391505003, -0.04027077928185463, -0.03634630888700485, 0.051081523299217224, -0.08705298602581024, -0.04312825947999954, 0.038421276956796646, -0.06641983985900879, -0.0720762386918068, -0.075252003967762, -0.05696753412485123, -0.0119516272097826, -0.09270638972520828, 0.06305576860904694, 0.0682249665260315, 0.027763262391090393, 0.00865854974836111, -0.038541991263628006, 0.07776378840208054, 0.0035002559889107943, 0.016126472502946854, -0.05279665067791939, -0.06697531044483185, 0.05716293677687645, 0.013630577363073826, 0.028161896392703056, 0.018892288208007812, 0.08484461903572083, -0.020021453499794006, 0.06766192615032196, 0.061104826629161835, 0.08966594934463501, 0.010292279534041882, -0.024727072566747665, 0.09351084381341934, -0.07198980450630188, 0.027675772085785866, -0.07471176236867905, 0.01247249636799097, -0.008121680468320847, -0.04191337898373604, -0.06094710901379585, -0.018176153302192688, -0.0860888659954071, 0.029664993286132812, 0.02117917686700821, 0.015550964511930943, -0.05015097185969353, -0.02974841184914112], [-0.033350758254528046, -0.015844980254769325, -0.029572146013379097, 0.01402992196381092, -0.004456271883100271, -0.01922968588769436, -0.045429181307554245, 0.06337108463048935, 0.07677711546421051, -0.025386188179254532, -0.0019004469504579902, -0.03551482409238815, 0.07362133264541626, 0.03439796343445778, 0.06825088709592819, -0.06292849779129028, 0.054257333278656006, 0.07069625705480576, -0.07418745011091232, -0.005211937241256237, 0.027991512790322304, -0.021985722705721855, 0.06356652081012726, -0.05189382657408714, 0.07044566422700882, -0.029396919533610344, -0.10038742423057556, 0.08160382509231567, -0.05196802318096161, -0.060783207416534424, 0.06931846588850021, 0.0037948815152049065, 0.09983663260936737, -0.056186314672231674, -0.03976520150899887, -0.03879239410161972, -0.007513793651014566, 0.0400102362036705, 0.06822985410690308, -0.053100310266017914, -0.029666777700185776, 0.038725581020116806, -0.03647438436746597, 0.06898695230484009, 0.030798504129052162, -0.028522701933979988, 0.0016475823940709233, -0.0774141401052475, 0.07469003647565842, 0.03352547436952591, 0.0049660056829452515, 0.038200411945581436, 0.0037307993043214083, -0.051229529082775116, 0.026888368651270866, -0.08806638419628143, -0.023728832602500916, 0.05763544887304306, -0.05011998116970062, 0.001860323129221797, -0.058329027146101, -0.009365696460008621, -0.039825767278671265, -0.08037213236093521, -0.004983654245734215, -0.05121327564120293, 0.019378099590539932, -0.0738842785358429, -0.039896588772535324, 0.004210572224110365, -0.01892154850065708, 0.0469394214451313, -0.07096394896507263, 0.04928409308195114, 0.036668337881565094, 0.03826448321342468, 0.0054686469957232475, 0.012277720496058464, 0.10151629894971848, 0.06751640886068344, -0.029929151758551598, -0.05440176650881767, 0.002925286768004298, 0.0007682090508751571, 0.015095535665750504, 0.021264879032969475, -0.052199169993400574, -0.022012513130903244, -0.022970721125602722, 0.10990508645772934, -0.05135950818657875, -0.059590667486190796, 0.050112150609493256, -0.008364476263523102, -0.06867062300443649, 0.023875605314970016, 0.0692867562174797, 0.002938695950433612, 0.01991715095937252, 0.04075264930725098], [-0.02210153453052044, -0.03790063038468361, 0.06938914954662323, 0.02540627308189869, -0.007798461709171534, 0.006990429013967514, -0.01689760759472847, -0.029263461008667946, 0.026797639206051826, -0.0019855001010000706, 0.034770794212818146, -0.038713403046131134, -0.09556593745946884, -0.03762068226933479, 0.05718478560447693, -0.03360104188323021, -0.021470848470926285, -0.03924056887626648, -0.055797480046749115, -0.02431865967810154, 0.02189386636018753, 0.008615951053798199, 0.06307221204042435, 0.0075868829153478146, 0.03636183962225914, 0.029509620741009712, -0.0042969826608896255, 0.0930103063583374, -0.07381729781627655, 0.02254088595509529, -0.0347030945122242, -0.012071262113749981, 0.07082422077655792, -0.031929463148117065, -0.039521895349025726, 0.023576876148581505, 0.04194410517811775, 0.002656200435012579, -0.011392026208341122, -0.0019770748913288116, -0.006195892579853535, -0.024106604978442192, -0.06534340977668762, 0.054281752556562424, 0.021905653178691864, -0.052436042577028275, 0.04886979982256889, -0.03218625858426094, -0.055996719747781754, -0.002406079089269042, -0.02611975558102131, 0.006110902410000563, 0.062004100531339645, -0.05905711650848389, 0.004770944360643625, -0.06791964918375015, 0.029914764687418938, 0.0441863089799881, -0.07915801554918289, -0.053131770342588425, 0.021857239305973053, 0.014689906500279903, -0.01181898545473814, -0.005374351050704718, -0.007610236294567585, 0.028686903417110443, -0.014476386830210686, 0.02794192172586918, -0.010846643708646297, 0.0433083213865757, 0.00815311074256897, -0.058958690613508224, -0.06240120157599449, 0.008044176734983921, 0.006944458931684494, 0.031894609332084656, -0.06743695586919785, 0.04912445321679115, 0.03281806409358978, -0.012014055624604225, -0.014997672289609909, -0.049577660858631134, 0.02549729309976101, 0.07186689227819443, 0.03732859715819359, 0.040939513593912125, -0.002872784622013569, 0.02347925305366516, -0.012149997055530548, 0.08264733105897903, -0.011799296364188194, -0.05279473960399628, -0.07962565869092941, -0.023505963385105133, 0.10402572900056839, 0.03691589832305908, -0.040471646934747696, 0.008745520375669003, -0.006429628934711218, 0.044305622577667236], [-0.0707414522767067, -0.03492498770356178, 0.008066224865615368, -0.06352541595697403, 0.0570836141705513, 0.06462527811527252, -0.06490296125411987, -0.05062747374176979, -0.01810755766928196, -0.003487983252853155, 0.07229047268629074, 0.014082995243370533, -0.0799667164683342, 0.029268380254507065, 0.010893421247601509, 0.03310125693678856, -0.04447107017040253, -7.467416435247287e-05, -0.03101406805217266, -0.05038147792220116, 0.02342505380511284, 0.023017505183815956, 0.005843819119036198, 0.031239375472068787, 0.03784247487783432, 0.03829969838261604, -0.046666987240314484, -0.026271209120750427, 0.04199683666229248, 0.047374505549669266, -0.03543149679899216, -0.01928395964205265, -0.039894185960292816, -0.011800030246376991, 0.010652229189872742, -0.04053131118416786, -0.008275509811937809, -0.029096053913235664, -0.0019417897565290332, 0.049410175532102585, 0.06455767899751663, -0.0225385632365942, -0.04170513153076172, 0.08643537014722824, 0.01415368914604187, -0.08439084887504578, -0.018533486872911453, -0.006354519631713629, 0.0413522869348526, 0.028955118730664253, 0.01841399259865284, -0.0619291290640831, 0.04954969137907028, -0.02097807079553604, 0.048223573714494705, 0.00040473067201673985, -0.061712637543678284, 0.04972708597779274, -0.005880415905267, -0.029953528195619583, 0.04079226404428482, 0.01808229647576809, 0.01752040907740593, -0.09360840171575546, -0.032211143523454666, 0.023510050028562546, 0.0431709848344326, -0.04258112609386444, 0.03393589332699776, 0.048843011260032654, -0.04824322834610939, -0.03947886824607849, -0.02017771452665329, -0.07397463917732239, 0.042878881096839905, 0.06124575436115265, -0.05125463381409645, 0.07731317728757858, 0.029208127409219742, -0.04849846288561821, -0.07398318499326706, -0.05330172926187515, 0.02864987589418888, -0.05321440473198891, 0.0634160041809082, 0.06569533795118332, -0.02484462410211563, 0.0667191743850708, 0.03239361196756363, 0.05710940062999725, 0.0191828403621912, -0.02656368538737297, -0.04608764871954918, -0.03824528679251671, 0.07447116076946259, 0.018901607021689415, 0.0344737209379673, 0.03727295249700546, 0.01640794239938259, 0.03191674128174782], [-0.09311585128307343, -0.04066499322652817, -0.039030250161886215, -0.01791132427752018, -0.01913496106863022, 0.06020160764455795, -0.06730010360479355, 0.05277471989393234, -0.023206517100334167, -0.03263149783015251, -0.06901460886001587, 0.057781022042036057, -0.03908871114253998, 0.044368844479322433, 0.028810637071728706, -0.008549386635422707, 0.003381848568096757, -0.009678843431174755, 0.037518687546253204, -0.06376387923955917, -0.005684444680809975, 0.05246085301041603, 0.02728087082505226, 0.046306438744068146, 0.07385960221290588, 0.055504851043224335, -0.07874830067157745, -0.01325092650949955, 0.01622137613594532, 0.011320437304675579, 0.06352270394563675, -0.015294797718524933, -0.052483052015304565, 0.017529424279928207, 0.018097851425409317, 0.03969193249940872, -0.06675027310848236, -0.06948500126600266, 0.020761525258421898, 0.09210504591464996, 0.0696975588798523, 0.01739705540239811, 0.1124282106757164, 0.07381519675254822, -0.04368504881858826, -0.07831965386867523, -0.047213032841682434, 0.04236355423927307, 0.0636649876832962, -0.036310628056526184, 0.07870695739984512, -0.060002248734235764, -0.011199072003364563, 0.037109293043613434, 0.002748396946117282, 0.04587194696068764, -0.006035653408616781, -0.03938122093677521, -0.04606661945581436, 0.011072459630668163, 0.05358469486236572, -0.04614439979195595, 0.06539206206798553, -0.07208817452192307, -0.03921053558588028, -0.04055057838559151, 0.018448039889335632, 0.05919608846306801, 0.04830413684248924, 0.010114070028066635, 0.042948026210069656, -0.014916790649294853, -0.00585626857355237, -0.07333444058895111, 0.04560868442058563, -0.04472045600414276, 0.03894438594579697, 0.07322841882705688, 0.03530440479516983, 0.004549982026219368, 0.035024646669626236, -0.018694162368774414, 0.06716333329677582, -0.02101103961467743, 0.07942008972167969, -0.04328613728284836, -0.05963769182562828, 0.08576774597167969, 0.0445258729159832, 0.029590139165520668, 0.04405444487929344, -0.009368951432406902, 0.06737394630908966, 0.04271942749619484, 0.07248632609844208, 0.011742966249585152, -0.02471250481903553, 0.04719175770878792, -0.04856124892830849, -0.05235309898853302], [-0.09088503569364548, -0.04602036997675896, 0.06166299059987068, 0.025946488603949547, 0.027586016803979874, 0.06695622950792313, -0.009220772422850132, -0.010563936084508896, -0.028422072529792786, -0.020842641592025757, -0.04997289925813675, -0.03866255283355713, 0.05131831392645836, -0.02363993600010872, -0.05078832805156708, 0.05043679103255272, 0.018821807578206062, -0.021142488345503807, 0.0549134723842144, 0.010308782570064068, -0.011449769139289856, -0.020058613270521164, -0.031544748693704605, 0.06052863970398903, -0.070485420525074, 0.03568527102470398, -0.0809723436832428, -0.033429183065891266, 0.0017252397956326604, -0.006984089035540819, 0.04646690934896469, 0.08176140487194061, 0.06623851507902145, -0.07318344712257385, 0.01540295872837305, -0.014506950974464417, -0.09039239585399628, -0.0385197177529335, -0.021006904542446136, 0.02975258231163025, -0.036654431372880936, 0.04113693907856941, 0.0841461643576622, 0.04048142954707146, 0.0008857442298904061, 0.003824806772172451, -0.03800998255610466, 0.0047598788514733315, -0.06839602440595627, -0.01690630055963993, 0.016616005450487137, -0.03512764349579811, 0.05501866713166237, 0.04564499855041504, -0.00887218490242958, 0.05832841992378235, -0.0557468943297863, -0.07299523800611496, -0.03496083617210388, -0.02751436084508896, -0.026235194876790047, 0.051545292139053345, -0.05412007123231888, 0.012349535711109638, -0.012453633360564709, 0.06889249384403229, 0.037057001143693924, -0.02311156503856182, -0.03888246789574623, 0.047992534935474396, -0.047163546085357666, -0.06097985431551933, -0.03264803811907768, -0.011143308132886887, 0.03517964854836464, 0.05430915206670761, -0.057269543409347534, 0.06363362818956375, 0.04351899027824402, -0.010677134618163109, 0.003543898928910494, -0.06817720830440521, 0.09087841212749481, -0.07194871455430984, 0.011216285638511181, -0.0242413692176342, -0.05716903880238533, 0.09896683692932129, 0.057144198566675186, 0.008877268061041832, -0.043061964213848114, 0.07038042694330215, -0.06936123967170715, 0.07197712361812592, 0.05040619522333145, -0.002911227522417903, -0.03344195336103439, -0.028241753578186035, 0.06547855585813522, 0.0545937679708004], [-0.07653293758630753, -0.0558113157749176, -0.04465707391500473, 0.07780332863330841, 0.00892649032175541, -0.026512285694479942, -0.032619282603263855, 0.02427687682211399, 0.013945074751973152, -0.015674766153097153, -0.00087331811664626, 0.005331567022949457, 0.06134951487183571, -0.02694355696439743, -0.008108298294246197, -0.05267181992530823, -0.017634641379117966, -0.039213523268699646, -0.07131999731063843, 0.060799021273851395, -0.005157123785465956, 0.005975296255201101, 0.06597133725881577, 0.046715665608644485, 0.05122235789895058, -0.0008370727300643921, -0.033355310559272766, -0.04042566940188408, -0.017664868384599686, 0.011574053205549717, 0.0022978894412517548, 0.05805611237883568, 0.068674735724926, -0.08678014576435089, 0.08008058369159698, 0.057188935577869415, -0.038316357880830765, -0.06580296158790588, 0.03179735317826271, 0.055749695748090744, 0.01411883719265461, -0.0011871623573824763, 0.04656582325696945, 0.01815367303788662, -0.0003395459789317101, 0.0306288693100214, -0.059911299496889114, -0.03991810977458954, -0.06986373662948608, 0.007503625936806202, 0.05673188716173172, 0.06888450682163239, -0.06281719356775284, 0.03703685104846954, 0.06626047939062119, 0.053608737885951996, -0.042996715754270554, -0.07790105044841766, 0.02007431723177433, -0.07157418131828308, -0.0270374808460474, 0.011851618997752666, -0.037740856409072876, 0.04120783880352974, -0.018406162038445473, 0.045477598905563354, 0.044986292719841, -0.07257290184497833, 0.01708618365228176, -0.0303367730230093, -0.06711025536060333, -0.039050761610269547, 0.06421969830989838, 0.06424105167388916, -0.07044726610183716, -0.032236892729997635, -0.04560496285557747, 0.030514884740114212, 0.047491319477558136, -0.012768534943461418, -0.013989873230457306, -0.05076764523983002, 0.09926003962755203, -0.021985391154885292, 0.0563245452940464, -0.06857804954051971, 0.010877612046897411, 0.022768573835492134, -0.015513156540691853, 0.003108904231339693, 0.0269132349640131, 0.01996764913201332, 0.03300634026527405, 0.019733814522624016, -0.02323809452354908, -0.013763015158474445, 0.006510041654109955, -0.003924477845430374, 0.05017472803592682, -0.07926773279905319], [-0.0689593106508255, 0.05444019287824631, 0.03746862709522247, 0.06892236322164536, -0.053739484399557114, -0.019431088119745255, 0.021422896534204483, -0.006667987909168005, 0.050418805330991745, -0.001994033809751272, 0.04477620869874954, 0.03528425469994545, 0.071214459836483, 0.03929917886853218, 0.021589871495962143, 0.004697074647992849, 0.05762963369488716, -0.024708040058612823, 0.026311559602618217, 0.007253470830619335, 0.0511910580098629, 0.04773181304335594, 0.0044466545805335045, -0.058667030185461044, 0.021347742527723312, 0.042616769671440125, -0.05900632217526436, -0.03688277676701546, -0.036167897284030914, 0.006881045177578926, -0.013514735735952854, 0.02148185856640339, 0.046500660479068756, -0.016776688396930695, 0.03590923920273781, -0.0263268630951643, 0.02808425948023796, 0.023746013641357422, 0.01513861957937479, 0.09187986701726913, 0.015849674120545387, -0.06688005477190018, -0.02700996957719326, 0.04070958122611046, -0.02157580293715, -0.07189855724573135, -0.031017057597637177, -0.07771911472082138, -0.004770655184984207, -0.06217985227704048, -0.016780877485871315, 0.019727816805243492, -0.015805287286639214, 0.04045862331986427, -0.02147817239165306, 0.06422143429517746, -0.07130146026611328, -0.07225904613733292, 0.048509933054447174, -0.02321019396185875, 0.05457725748419762, 0.050810620188713074, -0.07918219268321991, 0.042508576065301895, -0.00807599164545536, 0.0059672086499631405, -0.05319293960928917, -0.006460357457399368, -0.03476610779762268, 0.010677355341613293, -0.05086963623762131, 0.03744420409202576, -0.015627717599272728, -0.06047586724162102, 0.01535816304385662, 0.012499864213168621, -0.04625580459833145, -0.010507529601454735, 0.04837288334965706, 0.022141166031360626, 0.002616307232528925, 0.0014887425350025296, 0.10403144359588623, 0.014669334515929222, 0.04412681609392166, -0.053534213453531265, -0.00013154784392099828, -0.025523507967591286, -0.007154149003326893, -0.026271970942616463, 0.01095650065690279, 0.05923312157392502, -0.07491837441921234, 0.05847844481468201, 0.05914869159460068, -0.0012257343623787165, -0.012601014226675034, 0.04041103646159172, -0.02246248908340931, 0.04972474277019501], [-0.06300095468759537, -0.05364864692091942, -5.488691385835409e-05, 0.06145607680082321, 0.05136832222342491, -0.04939650371670723, -0.053081169724464417, -0.012874534353613853, 0.043848615139722824, -0.008366391994059086, 0.05435352399945259, -0.01802322454750538, 0.0074883983470499516, 0.05078771337866783, 0.05264084041118622, -0.021468209102749825, 0.07128868252038956, 0.05464823916554451, -0.015818540006875992, -0.05450616031885147, 0.044994108378887177, 0.07761410623788834, -0.042376648634672165, -0.0045943898148834705, -0.047287002205848694, -0.007618386298418045, 0.03083229996263981, -0.05650772526860237, 0.04050843417644501, 0.061774659901857376, -0.016597645357251167, -0.03793779015541077, 0.01638478972017765, 0.023619018495082855, -0.058880746364593506, 0.020539190620183945, -0.01783561147749424, 0.014012504369020462, 0.0031889849342405796, 0.056522514671087265, -0.05265310779213905, -0.04523485526442528, 0.00792648270726204, 0.009347354993224144, 0.04611441120505333, -0.08270376175642014, 0.030941491946578026, -0.009823032654821873, -0.013573824428021908, -0.0014382872032001615, -0.02380223013460636, -0.07564396411180496, -0.01578645221889019, 0.061273351311683655, 0.0028432582039386034, 0.0620395801961422, -0.03881647065281868, 0.01217627339065075, 0.05164908617734909, 0.032689180225133896, -0.031681425869464874, 0.06616297364234924, 0.061796046793460846, 0.059410374611616135, 0.05780097469687462, -0.021910883486270905, 0.07234013825654984, -0.06584323197603226, 0.0723775252699852, -0.05923067778348923, -0.04702858254313469, -0.03377353772521019, 0.04071018099784851, 0.048296719789505005, -0.00019383181643206626, -0.07326368242502213, -0.05309140682220459, -0.034945402294397354, -0.08961109071969986, 0.0635523572564125, 0.007422251161187887, 0.007380048278719187, 0.12036696076393127, 0.04966702684760094, -0.07236437499523163, -0.059304267168045044, 0.04223264753818512, 0.02234913408756256, 0.004574911668896675, -0.04899833723902702, -0.016825491562485695, -0.0024698602501302958, -0.005471425596624613, -0.07222331315279007, 0.06494764983654022, -0.06894709914922714, 0.05379116162657738, 0.050863221287727356, -0.008898652158677578, 0.05394751578569412], [-0.039218708872795105, -0.021331528201699257, -0.00883715320378542, -0.020427878946065903, 0.06790979951620102, -0.0058179278858006, -0.07817339897155762, -0.01714152842760086, -0.055663950741291046, -0.03540154919028282, -0.03772970661520958, -0.01793038658797741, 0.018131136894226074, 0.04159202054142952, 0.06864132732152939, 0.014576839283108711, 0.016753261908888817, -0.050184302031993866, 0.0474238283932209, -0.0005170821095816791, -0.015668177977204323, -0.1011073961853981, 0.034360941499471664, 0.07069462537765503, -0.07283742725849152, -0.05750497058033943, 0.024620085954666138, -0.07282572984695435, 0.04438244551420212, 0.05776296183466911, 0.003877329872921109, -0.05503116175532341, -0.018619479611516, 0.014382915571331978, 0.019714664667844772, -0.02509562112390995, -0.04435339197516441, -0.004562342073768377, 0.050252776592969894, -0.04941122233867645, -0.06569384038448334, -0.013175380416214466, 0.0585956908762455, 0.025296004489064217, 0.03060021810233593, -0.07722856104373932, 0.07513797283172607, -0.03258577734231949, -0.028501074761152267, 0.0016975941834971309, 0.013820677995681763, -0.047777578234672546, 0.020816251635551453, 0.03170102462172508, 0.06619293242692947, 0.033953212201595306, 0.028214415535330772, 0.07208994776010513, 0.044040799140930176, 0.009493844583630562, -0.0011159147834405303, 0.07414282113313675, 0.0004247297765687108, -0.0855279490351677, 0.037903957068920135, 0.02241813950240612, 0.021506210789084435, 0.014226734638214111, -0.011034815572202206, -0.013890031725168228, 0.04264329746365547, -0.00687015987932682, 0.0750693827867508, 0.06472371518611908, 0.009470377117395401, 0.026917321607470512, -0.040415599942207336, 0.07132715731859207, -0.08234070241451263, -0.06443072855472565, 0.062001265585422516, -0.020596804097294807, -0.005556649994105101, 0.05672212317585945, -0.06033938750624657, -0.035665158182382584, 0.019446397200226784, -0.030866289511322975, 0.03303086385130882, -0.07286185771226883, 0.0691031739115715, 0.07165880501270294, -0.04949505627155304, 0.07094544172286987, 0.020350411534309387, -0.0974566861987114, 0.055294644087553024, 0.08608518540859222, 0.023212675005197525, 0.025221804156899452], [-0.013470782898366451, -0.03713658079504967, -0.04781660810112953, -0.012199710123240948, 0.017624519765377045, 0.04983022063970566, -0.005364748649299145, -0.054470501840114594, 0.042798981070518494, -0.027848931029438972, -0.006302875932306051, -0.05872974917292595, -0.017520342022180557, -0.04872762784361839, 0.02810816466808319, 0.052247002720832825, 0.07672984898090363, -0.046913329511880875, -0.04385872930288315, -0.03697219118475914, -0.03544297069311142, -0.07847943902015686, 0.016545210033655167, -0.03509390354156494, -0.05866287276148796, 0.009395993314683437, 0.05737932398915291, -0.06846027821302414, 0.03171691298484802, 0.0229936670511961, -0.02860558032989502, -0.07280080020427704, -0.035165175795555115, -0.018208378925919533, 0.022700494155287743, -0.035403843969106674, 0.03280162066221237, -0.03547467291355133, -0.017820730805397034, -0.002870883559808135, 0.06700283288955688, 0.02957996167242527, 0.06122193485498428, -0.006347913760691881, 0.018948912620544434, -0.05515430122613907, -0.0503607839345932, -0.057845134288072586, 0.0387243926525116, -0.06287524849176407, 0.010688426904380322, -0.05481268838047981, -0.04892110824584961, 0.013436916284263134, -0.027849117293953896, 0.008224299177527428, 0.06475353986024857, 0.0784858763217926, -0.03066062368452549, 0.010151843540370464, 0.005029766820371151, 0.018777279183268547, -0.024438509717583656, -0.06307815760374069, 0.0014938508393242955, 0.00902438722550869, -0.043915603309869766, -0.046498313546180725, 0.05181724578142166, -0.006595183629542589, -0.05293932929635048, 0.0219444390386343, 0.07679186761379242, -0.006569058168679476, 0.0009189336560666561, 0.047375649213790894, -0.07605350017547607, 0.06592836230993271, -0.06666675955057144, 0.05562537536025047, -0.0381862111389637, -0.02217014692723751, -0.050194207578897476, 0.039747241884469986, -0.058939043432474136, -0.010058616288006306, 0.02110016904771328, 0.020734965801239014, 0.046614695340394974, -0.08810728043317795, -0.013810951262712479, -0.0719016045331955, 0.034825704991817474, 0.06813462823629379, -0.025867130607366562, -0.025603776797652245, 0.0003756540536414832, -0.03483552485704422, 0.023262662813067436, 0.016950499266386032], [-0.009071269072592258, -0.0464300662279129, -0.02957860752940178, 0.01655302196741104, 0.0636909082531929, 0.01552664302289486, -0.059390682727098465, 0.04710542783141136, 0.029484257102012634, 0.004026846960186958, 0.006444375962018967, -0.07031171768903732, -0.07892245054244995, 0.055853359401226044, 0.02677229791879654, -0.06590413302183151, -0.05749387666583061, -0.07126086950302124, -0.03301349654793739, 0.052708905190229416, -0.006039934232831001, -0.04643407091498375, 0.06723330914974213, 0.06237941235303879, 0.062384601682424545, -0.04275423660874367, 0.02506919763982296, 0.005945447366684675, -0.04345039650797844, -0.07380026578903198, 0.052641067653894424, -0.09378878772258759, 0.045019350945949554, 0.041841957718133926, -0.003098767949268222, -0.0008619499858468771, -0.019030140712857246, -0.04894126206636429, 0.06754965335130692, -0.05635698139667511, 0.07355991750955582, -0.024647701531648636, 0.03127346187829971, -0.07137253135442734, 0.03822717070579529, -0.02205643616616726, -0.040149711072444916, -0.09657671302556992, 0.006881632376462221, -0.04720013216137886, 0.032059136778116226, 0.009276499040424824, -0.06241350620985031, 0.018040435388684273, 0.006954512093216181, 0.0182342566549778, 0.018062420189380646, 0.029914235696196556, -0.06600590795278549, -0.042231857776641846, 0.016380630433559418, -0.03300334885716438, 0.014450724236667156, -0.013754253275692463, 0.03538191691040993, -0.0640597939491272, 0.01991920918226242, 0.024363551288843155, 0.0569254532456398, 0.04120367765426636, 0.07182154804468155, -0.04208340495824814, 0.05791383236646652, -0.017831917852163315, 0.007852554321289062, -0.028037890791893005, -0.08595137298107147, 0.04999338462948799, -0.0570431686937809, -0.026305461302399635, -0.0044475425966084, -0.07164474576711655, -0.05540380999445915, 0.0013425115030258894, -0.0312141552567482, 0.03501230105757713, -0.012399211525917053, 0.020042454823851585, 0.006386920344084501, -0.019559431821107864, -0.0032142929267138243, 0.033754754811525345, -0.017086731269955635, -0.057802412658929825, -0.052710629999637604, -0.00648741889744997, 0.062049973756074905, 0.021146006882190704, -0.04510854557156563, -0.049348052591085434], [-0.051487792283296585, -0.02096489816904068, -0.041880328208208084, 0.008350592106580734, 0.0670386478304863, -0.016375379636883736, 0.009146464057266712, -0.0360182486474514, -0.03141767531633377, 0.02968919463455677, 0.0008620023145340383, 0.021420210599899292, -0.07078967243432999, 0.012309359386563301, -0.049948208034038544, 0.006369226146489382, 0.05244988203048706, -0.037000127136707306, -0.03310449421405792, -0.06592084467411041, -0.007343576289713383, -0.016628390178084373, 0.03683604300022125, -0.07419849932193756, 0.040997207164764404, -0.07406872510910034, -0.04398912936449051, 0.01551762130111456, 0.05295948311686516, 0.06056084856390953, 0.00437583215534687, 0.08519798517227173, 0.01633390411734581, 0.05172096937894821, -0.0020237199496477842, 0.04675653949379921, 0.0513724647462368, -0.08006148040294647, 0.020241042599081993, -0.016115035861730576, 0.07310813665390015, 0.017491191625595093, 0.06869402527809143, -0.10106941312551498, 0.04923129081726074, -0.016639873385429382, 0.006807430647313595, 0.08858221024274826, 0.045336682349443436, 0.045963168144226074, -0.053708259016275406, -0.02976563386619091, 0.06408856064081192, -0.02019388973712921, 0.04218728840351105, -0.06438174843788147, 0.08086717128753662, 0.037690237164497375, 0.06900232285261154, 0.05858197435736656, -0.03998476266860962, -0.028647789731621742, 0.07689432799816132, 0.034240271896123886, 0.03274909034371376, 0.03502372279763222, -0.016945425420999527, 0.0066222078166902065, 0.06519012153148651, 0.005113301333039999, -0.006760324817150831, -0.014148902148008347, -0.018014071509242058, 0.0447656475007534, -0.029878707602620125, -0.0007802056497894228, 0.08478471636772156, 0.04665374755859375, -0.040598250925540924, 0.04469803720712662, -0.04240499064326286, -0.034138914197683334, -0.04868484288454056, -0.06476901471614838, 0.015090631321072578, 0.03625597059726715, 0.02488173358142376, -0.019974544644355774, -0.0460641123354435, -0.03308672457933426, 0.03427233174443245, -0.039727866649627686, 0.012455543503165245, -0.01152690127491951, -0.09996316581964493, -0.02481773868203163, -0.021674558520317078, 0.04723096266388893, -0.07963166385889053, -0.04268041253089905], [-0.06534238159656525, -0.00813471619039774, 0.049640849232673645, 0.038271185010671616, 0.033293116837739944, -0.03809799998998642, -0.001528332126326859, -0.07023245096206665, 0.05214754119515419, 0.0557994470000267, 0.03482914716005325, -0.05011116713285446, -0.04390103369951248, 0.06421545147895813, 0.07573004812002182, 0.05974320322275162, -0.014318837784230709, -0.007447464857250452, 0.04921437054872513, -0.051803190261125565, -0.07911963760852814, 0.04566461220383644, -0.07242316752672195, -0.07757756859064102, -0.062333736568689346, -0.03681276738643646, -0.07077119499444962, 0.03174253925681114, 0.031407665461301804, -0.0714595690369606, 0.04007607325911522, 0.06636118143796921, -0.02648576721549034, -0.09909223765134811, -0.05248131603002548, -0.03375377506017685, 0.05204680934548378, -0.005247540306299925, -0.07503924518823624, -0.04391246661543846, 0.05720740556716919, 0.06154308468103409, 0.029859066009521484, -0.08094969391822815, -0.040847163647413254, -0.09711495786905289, -0.0008856868953444064, 0.04957299306988716, 0.04849294573068619, 0.03547900915145874, -0.03929613158106804, -0.07116736471652985, -0.018565690144896507, -0.04431156814098358, 0.003665229305624962, -0.04736161604523659, 0.06722342222929001, 0.053130440413951874, -0.014339263550937176, 0.025234991684556007, -0.035250090062618256, 0.022553086280822754, 0.04712612181901932, 0.058666523545980453, 0.027362816035747528, 0.01634041592478752, -0.049375273287296295, -0.02024354785680771, -0.021769534796476364, 0.044729579240083694, 0.06900609284639359, 0.01373379211872816, 0.025698956102132797, -0.07609307020902634, 0.05821675807237625, -0.037382822483778, 0.07898394018411636, 0.03428751230239868, 0.07268211990594864, -0.024582620710134506, 0.009379648603498936, 0.04344789683818817, -0.06088963523507118, 0.0438489206135273, -0.07814095914363861, -0.011509201489388943, -0.05959073454141617, -0.00626037921756506, 0.02437254786491394, 0.07321116328239441, -0.04806496202945709, 0.018237855285406113, -0.012052885256707668, -0.029279684647917747, -0.05359667167067528, -0.035880327224731445, -0.04766504094004631, 0.06427082419395447, 0.04970589652657509, -0.026895826682448387], [-0.06986868381500244, 0.0212861355394125, -0.020096799358725548, 0.04780026897788048, -0.018460609018802643, -0.06339118629693985, -0.0421476885676384, 0.02171172760426998, -0.06731841713190079, 0.07406961917877197, 0.06755188852548599, 0.0537174828350544, 0.005465654190629721, 0.039627689868211746, -0.06636892259120941, 0.08957207202911377, 0.05691636726260185, 0.00024648275575600564, 0.002792222425341606, 0.03439383953809738, -0.08455851674079895, 0.035685569047927856, 0.016749786213040352, 0.02963145822286606, -0.05300652235746384, -0.09249435365200043, -0.04699999466538429, 0.04995077848434448, -0.0018367799930274487, 0.0053892601281404495, 0.06131565943360329, -0.05144893005490303, -0.05107539892196655, -0.0897454172372818, 0.004334501456469297, -0.06851375848054886, 0.018900936469435692, -0.024209097027778625, 0.05126192048192024, -0.0027992629911750555, -0.026507768779993057, -0.017732778564095497, 0.05854732543230057, 0.04620543494820595, 0.035882651805877686, -0.09063529968261719, -0.024293171241879463, 0.02223920449614525, -0.037415556609630585, 0.06715774536132812, -0.07154286652803421, -0.004373024683445692, 0.011561945080757141, -0.06722535938024521, 0.023636870086193085, -0.03704453632235527, -0.05112285912036896, 0.007989165373146534, -0.017887983471155167, -0.041250694543123245, -0.004130116198211908, -0.013518151827156544, 0.037249211221933365, 0.07799802720546722, 0.013617252930998802, -0.03143518790602684, 0.05232499912381172, 0.03765758499503136, -0.03188135847449303, 0.032095469534397125, -0.031218087300658226, 0.05412513390183449, 0.07098031789064407, -0.07128942012786865, -0.013319808058440685, -0.037763744592666626, 0.06925629824399948, 0.030634619295597076, 0.08728622645139694, 0.059864792972803116, 0.0014985353918746114, -0.011884225532412529, -0.07481434941291809, 0.039971914142370224, -0.03485861048102379, -0.045013345777988434, 0.01081185694783926, -0.01681988313794136, -0.034702036529779434, 0.0547671802341938, 0.03327508643269539, -0.02569553069770336, -0.029044050723314285, -0.015683630481362343, -0.06302450597286224, 0.03328770026564598, -0.0613224059343338, -0.009212270379066467, 0.05686028301715851, -0.01433715969324112], [-0.06615905463695526, 0.03581802546977997, 0.04664941504597664, -0.04800758510828018, -0.013039115816354752, -0.017576659098267555, 0.0492786206305027, 0.007937205955386162, 0.0484173446893692, -0.0961463451385498, 0.06507093459367752, -0.006734448950737715, 0.0019306517206132412, -0.03156176581978798, -0.025552742183208466, 0.015362954698503017, -0.05677314102649689, 0.06111736595630646, 0.023678984493017197, -0.06331535428762436, -0.08161027729511261, 0.053162313997745514, -0.010427565313875675, -0.05261685326695442, 0.05659490451216698, 0.022734101861715317, 0.057325586676597595, 0.061782918870449066, -0.004081094171851873, -0.05431577190756798, 0.04899492859840393, -0.05216206610202789, 0.029505888000130653, -0.05788940191268921, 0.042740706354379654, 0.02485543116927147, -0.011092961765825748, -0.02989848144352436, -0.01390647329390049, -0.011613814160227776, -0.06698571890592575, -0.002102616708725691, 0.011888979002833366, 0.04818057641386986, 0.042588505893945694, -0.07576341927051544, 0.0182697344571352, -0.04842139035463333, 0.056839484721422195, -0.037928711622953415, 0.05702454596757889, 0.06639090925455093, -0.05332537367939949, -0.03760932385921478, 0.021692387759685516, -0.02827298454940319, 0.039488159120082855, 0.010389170609414577, 0.05983804538846016, -0.059219781309366226, -0.0010486847022548318, 0.06931900978088379, -0.044401865452528, 0.09646575897932053, -0.003937677945941687, -0.05486452206969261, -0.03155660629272461, -0.06568953394889832, 0.05544114112854004, 0.07045727968215942, 0.03228902071714401, 0.08708912879228592, 0.06143059581518173, 0.05059124156832695, 0.055531807243824005, -0.04026027396321297, 0.07095612585544586, 0.03513140231370926, 0.09743344038724899, -0.03908371180295944, -0.00782186072319746, 0.02281832881271839, -0.08342451602220535, -0.05110393837094307, 0.013236070051789284, 0.02902376838028431, 0.05800556018948555, -0.0322585366666317, -0.032090649008750916, 0.03587042912840843, 0.052886392921209335, -0.0649116113781929, -0.03779827803373337, 0.06863731890916824, 0.06688690930604935, 0.03204525262117386, 0.017186610028147697, 0.01502720545977354, 0.07434341311454773, -0.026903392747044563], [-0.02398734912276268, -0.021686403080821037, 0.0016852780245244503, -0.09148931503295898, 0.01612832397222519, -0.056869786232709885, -0.020143713802099228, 0.005000926088541746, 0.025937477126717567, -0.08572705090045929, 0.07186686992645264, -0.036012206226587296, -0.07973261922597885, 0.05915065109729767, 0.057807423174381256, 0.006517432630062103, -0.06604285538196564, -0.02440691739320755, -0.02798445336520672, -0.004526278469711542, -0.09805934876203537, -0.046099837869405746, -0.06247572973370552, 0.02134394831955433, -0.057097017765045166, -0.04239852726459503, 0.031206663697957993, 0.05054325610399246, -0.043942444026470184, -0.07333727180957794, -0.020020535215735435, -0.08739787340164185, -0.006174399983137846, 0.002837885171175003, 0.037676889449357986, 0.020330602303147316, -0.05764561891555786, -0.03795536607503891, -0.053930215537548065, 0.043451372534036636, 0.04397599771618843, 0.05922915041446686, -0.015000997111201286, -0.061431050300598145, 0.052752554416656494, -0.05846047028899193, 0.07222104072570801, -0.06305062770843506, 0.02521265670657158, -0.0677291676402092, 0.06270235776901245, 0.06788205355405807, -0.005082221236079931, -0.03311127796769142, -0.018166907131671906, 0.015193509869277477, 0.03467445820569992, 0.015103486366569996, -0.030536122620105743, -0.011676767840981483, 0.026577388867735863, -0.005366448312997818, -0.06631942838430405, 0.0978328138589859, -0.012084119021892548, -0.036291077733039856, -0.003555302508175373, 0.04170047864317894, 0.007488675881177187, -0.04697541147470474, 0.0027200488839298487, 0.03572666272521019, -0.037353284657001495, 0.033263761550188065, -0.011871866881847382, 0.008337455801665783, 0.03957795724272728, 0.027493374422192574, 0.09827091544866562, 0.012483377009630203, -0.001900275470688939, -0.006055566947907209, -0.05703512951731682, 0.043735820800065994, -0.09447340667247772, -0.017209012061357498, 0.04750312119722366, -0.033254656940698624, -0.008447770029306412, 0.02898622862994671, 0.054671499878168106, -0.010047503747045994, -0.0444922037422657, 0.040537673979997635, 0.05589127540588379, 0.03260568156838417, -0.02906343713402748, 0.015910139307379723, -0.0006321841501630843, -0.06369596719741821], [0.024834679439663887, 0.0706397220492363, 0.013384080491960049, -0.04957640916109085, -0.006448694970458746, 0.012601691298186779, 0.0516635961830616, 0.015931421890854836, -0.04468946158885956, -0.08333440124988556, -0.07452384382486343, -0.0009911702945828438, -0.0667610913515091, -0.017671095207333565, 0.06138191372156143, -0.025279315188527107, 0.021284209564328194, -0.056681353598833084, -0.0658407211303711, -0.06495855748653412, -0.08739296346902847, -0.005045402329415083, 0.057091906666755676, -0.004969317000359297, -0.038468897342681885, -0.08122539520263672, 0.0018755941418930888, 0.07396110892295837, 0.03978081792593002, -0.037564367055892944, -0.040481533855199814, -0.09715933352708817, -0.01751549169421196, 0.025512361899018288, 0.017389971762895584, 0.058935124427080154, -0.09530313313007355, -0.06582453101873398, -0.013493494130671024, -0.009599918499588966, -0.07651668041944504, -0.058936718851327896, 0.04177955910563469, -0.08715557307004929, 0.0485042929649353, -0.017574738711118698, 0.06533590704202652, 0.04232999309897423, -0.013915270566940308, 0.016784202307462692, -0.022244835272431374, 0.04213650897145271, -0.05136171355843544, -0.04734933003783226, -0.05999300628900528, 0.005843667779117823, 0.05366654694080353, 0.04349585250020027, 0.026929182931780815, -0.05147356912493706, 0.0632031112909317, 0.033102381974458694, 0.05904126539826393, 0.10653971880674362, -0.03232310339808464, 0.04544837772846222, -0.04444705694913864, 0.06989238411188126, 0.05207929387688637, -0.0026949020102620125, -0.036781057715415955, -0.10454171895980835, 0.04314985126256943, 0.031413484364748, 0.02969626896083355, -0.027320193126797676, 0.015695348381996155, 0.044908761978149414, 0.003389450954273343, 0.05435450002551079, -0.01929008960723877, 0.06953635811805725, -0.048056796193122864, -0.015594299882650375, -0.04218481853604317, -0.06278187036514282, 0.04480324313044548, -0.013970641419291496, 0.011313367635011673, -0.04245951026678085, -0.014118032529950142, -0.029534760862588882, -0.008940687403082848, 0.02493828348815441, 0.05102433264255524, -0.0317324735224247, 0.004049315582960844, 0.0419645830988884, 0.02738313004374504, -0.057218920439481735], [-0.05743828043341637, -0.037266552448272705, 0.034628596156835556, -0.031870897859334946, 0.04208283871412277, 0.04324210807681084, 0.08385337889194489, 0.05253186449408531, 0.0016988032730296254, -0.06560135632753372, -0.051648203283548355, -0.07562084496021271, 0.0017427480779588223, 0.041014790534973145, -0.06448336690664291, 0.04175473377108574, 0.04850510135293007, -0.04995955899357796, 0.07360106706619263, -0.0020941791590303183, -0.08823180943727493, 0.024164004251360893, 0.007189653348177671, -0.03429323062300682, 0.03369225189089775, 0.06755773723125458, -0.0008092302596196532, 0.0812564417719841, 0.021699748933315277, 0.005872055422514677, 0.03814920783042908, -0.03031451627612114, 0.0363311730325222, 0.007449603173881769, -0.06197952851653099, 0.03258313238620758, 0.023526569828391075, -0.10209400206804276, 0.04088384658098221, 0.03401021286845207, -0.08464872092008591, -0.056195344775915146, 0.01406219694763422, -0.019401852041482925, 0.03090379759669304, 0.028859194368124008, -0.05331350490450859, 0.004816768225282431, 0.005129198078066111, 0.04133227840065956, -0.016928020864725113, 0.004940599203109741, 0.014521973207592964, 0.05696588009595871, -0.0033799607772380114, -0.05024779215455055, -0.06229859218001366, 0.05515730008482933, 0.05740400031208992, -0.023645224049687386, 0.061550021171569824, -0.05270450562238693, -0.0016654832288622856, 0.01360329333692789, -0.06339159607887268, -0.062240272760391235, 0.0029193332884460688, -0.01223018392920494, -0.05780249461531639, -0.04093761742115021, -0.0033941164147108793, -0.09252455830574036, -0.05611811578273773, 0.008391471579670906, 0.030354788526892662, -0.060882434248924255, -0.009512683376669884, 0.03999438136816025, 0.014860241673886776, 0.013388475403189659, -0.037959806621074677, -0.019250385463237762, 0.05103736370801926, 0.02503306232392788, 0.0022998442873358727, -0.04837460815906525, 0.03905756399035454, 0.014981190674006939, -0.014004011638462543, -0.020503683015704155, 0.058869827538728714, -0.01651088148355484, 0.010746904648840427, 0.07820300757884979, -0.03487816080451012, -0.06286845356225967, 0.005439592991024256, -0.015716904774308205, -0.050113532692193985, -0.06544611603021622], [0.015324569307267666, 0.03155400976538658, -0.01979532651603222, -0.0015219731722027063, 0.029051197692751884, -0.054055191576480865, 0.018957594409585, 0.02055799961090088, 0.052183035761117935, -0.0021919345017522573, -0.03049398958683014, 0.06410958617925644, 0.03860703855752945, 0.034339968115091324, -0.04835463687777519, 0.09103070944547653, 0.015937140211462975, -0.038784656673669815, -0.04450051859021187, -0.06107035651803017, -0.09522633999586105, -0.08023805171251297, 0.02747189626097679, 0.05848919227719307, -0.04156993702054024, 0.02013191394507885, -0.04378866031765938, 0.0878296047449112, -0.00010188105079578236, -0.07555817812681198, -0.007013597525656223, -0.012472152709960938, 0.008680452592670918, 0.04050976783037186, -0.0643618255853653, 0.046953871846199036, -0.024800891056656837, 0.0702841579914093, 0.06012973561882973, 0.09077080339193344, -0.08217117190361023, -0.025905245915055275, -0.011333823204040527, 0.06850414723157883, -0.057122040539979935, 0.04860597848892212, 0.010789175517857075, -0.04495658352971077, -0.00804007425904274, -0.06218809634447098, 0.01372629962861538, -0.029905645176768303, -0.01030698325484991, 0.10971876978874207, -0.00380130996927619, -0.01656457968056202, -0.06116437166929245, 0.04315643757581711, -0.05957120656967163, -0.05347374081611633, -0.10562710464000702, -0.06341724097728729, -0.03103886917233467, 0.03591065853834152, -0.0642051100730896, 0.035183798521757126, -0.0008553844527341425, 0.05227738991379738, -0.015118525363504887, -0.012051830068230629, 0.008868835866451263, -0.07209312170743942, 0.03585488721728325, -0.006764603778719902, -0.0645897388458252, 0.018623027950525284, -0.017715584486722946, -0.05706027150154114, 0.026508871465921402, -0.045408137142658234, -0.018896276131272316, 0.019002413377165794, 0.08752819150686264, -0.07944407314062119, 0.03221478685736656, -0.07492039352655411, -0.049713220447301865, 0.023641131818294525, -0.05562125891447067, -0.014226875267922878, 0.019636468961834908, 0.037955403327941895, 0.05876721814274788, -0.0585637167096138, -0.0626540407538414, -0.062039416283369064, -0.016465602442622185, 0.007834195159375668, 0.020032454282045364, -0.05080001801252365], [0.032892562448978424, -0.06788117438554764, 0.032246582210063934, -0.009588957764208317, -0.0653255507349968, 0.028101326897740364, 0.026487939059734344, 0.06975553929805756, -0.013539808802306652, 0.06225639581680298, 0.006159603130072355, -0.020347580313682556, 0.062007542699575424, -0.042166270315647125, -0.031534820795059204, 0.04348941519856453, -0.005046101752668619, 0.07553628087043762, -0.009771730750799179, -0.04553871601819992, -0.09924700111150742, -0.11309946328401566, 0.054031725972890854, 0.034687772393226624, 0.05738894268870354, -0.015310769900679588, 0.06118042394518852, 0.08220446109771729, 0.022091463208198547, -0.033215273171663284, -0.039236944168806076, -0.029130861163139343, 0.051925987005233765, -0.04941153526306152, 0.04325621947646141, -0.06376279890537262, -0.009452770464122295, 0.03875527158379555, 0.016812456771731377, -0.07220663875341415, -0.023138487711548805, 0.0199750903993845, 0.00772083317860961, 0.041978031396865845, 0.04282056912779808, 0.0701882466673851, 0.012304769828915596, -0.046750590205192566, 0.03749643638730049, 0.023831354454159737, -0.015363297425210476, 0.042463526129722595, 0.04338838905096054, 0.08921846002340317, 0.06611471623182297, -0.01589568518102169, 0.03293900936841965, -0.051705535501241684, -0.05442154407501221, -0.05071793496608734, -0.10604523122310638, 0.025696296244859695, -0.022077390924096107, -0.04448347166180611, -0.08176585286855698, -0.06562688946723938, 0.018996942788362503, 0.06450845301151276, -0.046111397445201874, 0.03591212257742882, 0.037014372646808624, -0.04541001096367836, -0.0310716200619936, -0.021798374131321907, -0.01765359565615654, -0.07070867717266083, 0.0001959524379344657, -0.022837236523628235, -0.08076729625463486, -0.06014275178313255, 0.030009973794221878, -0.02232573926448822, 0.09640756249427795, -0.03851183503866196, -0.02734922431409359, -0.04312178120017052, 0.05985967442393303, 0.0640668049454689, -0.033550091087818146, -0.05774529278278351, -0.0021751374006271362, -0.00033342104870826006, -0.052789781242609024, 0.04112626239657402, -0.05226897448301315, 0.010862263850867748, 0.03748417645692825, 0.06106001138687134, -0.012512465007603168, -0.09576478600502014], [0.024732500314712524, -0.055347006767988205, -0.005135746672749519, 0.0194146279245615, -0.023735135793685913, 0.0003576924209482968, 0.0722552090883255, 0.035481423139572144, 0.03972400724887848, -0.0012229409767314792, -0.05986327305436134, 0.0035061503294855356, 0.07245021313428879, -0.06184085085988045, 0.01231540646404028, 0.020813150331377983, 0.03169843181967735, 0.020770741626620293, -0.007495415396988392, -0.03477202728390694, -0.10023728013038635, -0.08839389681816101, 0.053836096078157425, -0.019899722188711166, -0.006140068639069796, 0.007115156389772892, 0.062250636518001556, -0.06403139233589172, 0.034731023013591766, 0.021539470180869102, -0.00968250073492527, -0.05081447213888168, 0.030689090490341187, -0.002014924306422472, -0.05269332975149155, 0.001544567639939487, -0.050477221608161926, -0.023325445130467415, -0.03225988894701004, -0.09257683902978897, -0.02117863856256008, 0.05217232555150986, 0.02106698974967003, 0.01934613287448883, -0.05075499787926674, 0.03354261443018913, -0.039383552968502045, 0.0856345072388649, -0.0008399387006647885, 0.07465054094791412, 0.02585609070956707, -0.05646580830216408, -0.013317818753421307, 0.07446296513080597, 0.006959451828151941, 0.038829505443573, 0.0012791064800694585, -0.05894659832119942, -0.0745440423488617, 0.031342118978500366, -0.08901940286159515, -0.01222504023462534, -0.04282619431614876, 0.03078545071184635, -0.07189535349607468, -0.026937289163470268, 0.04169236123561859, 0.0445343516767025, 0.059969499707221985, -0.03559325635433197, -0.048888806253671646, -0.05585593357682228, -0.04866143316030502, -0.000825701339635998, 0.010412379167973995, 0.061445385217666626, 0.08620449900627136, -0.03563685342669487, -0.07226106524467468, 0.010613268241286278, 0.0011410471051931381, 0.04533534124493599, 0.017842218279838562, -0.026453692466020584, 0.009268056601285934, -0.004024329595267773, -0.01862432062625885, 0.0073974826373159885, -0.054185450077056885, -0.08174533396959305, -0.04723171889781952, -0.07777811586856842, -0.06483306735754013, -0.0214165598154068, 0.035691048949956894, -0.012436466291546822, -0.010592558421194553, -0.053071651607751846, -0.062268760055303574, -0.07554104924201965], [-0.03208204358816147, 0.00912395492196083, -0.04179752618074417, -0.07782309502363205, -0.039359964430332184, -0.00811233464628458, 0.010372970253229141, 0.05037296935915947, -0.047715939581394196, -0.005548831075429916, -0.04355406388640404, -0.0511026456952095, 0.0379599966108799, -0.0011335067683830857, -0.06818807870149612, 0.056774068623781204, 0.02129463106393814, -0.022799814119935036, 0.007083917036652565, -0.043692633509635925, 0.0015878209378570318, -0.07130023837089539, 0.03585301339626312, -0.05013294517993927, -0.05623779073357582, -0.03170435130596161, 0.040254175662994385, -0.0949477106332779, -0.02071245014667511, 0.018473459407687187, 0.006118527613580227, 0.030569693073630333, 0.056089114397764206, 0.029655182734131813, 0.06951944530010223, -0.023174086585640907, -0.06299344450235367, 0.05123305320739746, 0.028744956478476524, -0.04560007527470589, -0.01521022617816925, -0.08638200908899307, -0.018143050372600555, 0.0660206526517868, 0.03075575828552246, -0.06410622596740723, 0.012492909096181393, 0.05300972983241081, -0.07400495558977127, 0.030063588172197342, 0.033488839864730835, -0.052443359047174454, 0.04433262348175049, -0.028499361127614975, 0.06318259984254837, 0.0553598515689373, 0.036043498665094376, -0.056036654859781265, -0.06191699206829071, -0.05729673430323601, -0.07839490473270416, 0.0022291236091405153, -0.026388036087155342, 0.03917219117283821, -0.0021441932767629623, 0.04144333302974701, -0.004924211651086807, 0.07036938518285751, -0.0647096112370491, 0.014232522808015347, -0.0326993428170681, -0.02354094758629799, -0.036457911133766174, 0.05443397909402847, 0.003789949230849743, -0.05964719131588936, 0.09579839557409286, -0.05669586732983589, -0.028252488002181053, 0.033062197268009186, -0.055899638682603836, -0.03380127251148224, 0.018743295222520828, -0.05431915447115898, 0.019157100468873978, 0.05246540904045105, -0.06828213483095169, 0.05968955531716347, -0.041758500039577484, -0.031670890748500824, 0.05479513853788376, 0.01145913451910019, 0.03321553021669388, 0.01020029280334711, -0.02953985519707203, -0.03936612978577614, 0.043121956288814545, 0.025754248723387718, -0.0174466110765934, -0.06785251945257187], [0.03177967295050621, -0.0630674809217453, -0.04118191450834274, -0.05870989337563515, 0.03031066246330738, -0.02565542608499527, 0.014095110818743706, -0.054216619580984116, 0.006776268128305674, 0.008733438327908516, -0.07833553850650787, 0.03708498552441597, 0.05653156340122223, 0.04488088935613632, -0.009940676391124725, 0.058834921568632126, 0.04129505529999733, -0.004467422142624855, -0.015226620249450207, 0.027464624494314194, 0.0631767138838768, 0.04609732702374458, -0.03907867521047592, -0.018059678375720978, -0.04027332738041878, -0.06620964407920837, -0.03706512227654457, -0.09494748711585999, -0.03249845281243324, 0.05933217331767082, 0.0013708459446206689, 0.023712439462542534, 0.04535294324159622, 0.01915745623409748, -0.023329630494117737, 0.02027628757059574, 0.05775439366698265, 0.017415907233953476, -0.07521453499794006, 0.018798094242811203, -0.003351703053340316, -0.07135438919067383, -0.04373983293771744, 0.015725702047348022, 0.03944673389196396, 0.015415574423968792, 0.06556953489780426, -0.027824440971016884, 0.041044577956199646, 0.05324617400765419, 0.023460283875465393, -0.04854924976825714, 0.019839685410261154, 0.008144709281623363, 0.081523098051548, 0.07227722555398941, 0.06358804553747177, -0.04844639077782631, 0.061581533402204514, -0.02433120459318161, -0.07447858899831772, -0.005014694761484861, 0.04348944500088692, 0.05989443510770798, 0.01604290120303631, 0.05791101232171059, 0.0019955069292336702, -0.0020926170982420444, -0.0015403713332489133, 0.05741724371910095, -0.0015307783614844084, 0.016778048127889633, 0.07723341882228851, -0.06146956607699394, 0.05518680810928345, 0.059677835553884506, 0.06320736557245255, -0.04555794969201088, -0.007076097186654806, 0.04752160236239433, -0.003955675754696131, -0.04882628843188286, 0.03106846660375595, -0.07954926043748856, -0.04314492270350456, 0.0068977647460997105, 0.05085455998778343, 0.1009577289223671, 0.009734439663589, -0.04644287750124931, 0.004634322598576546, 0.036354418843984604, -0.04553980007767677, -0.05045764520764351, -0.02638360485434532, 0.02130206674337387, -0.06335365772247314, 0.047886334359645844, -0.028413375839591026, 0.004482041113078594], [0.07348335534334183, -0.00911384355276823, 0.04289473593235016, -0.028557097539305687, -0.06821724027395248, 0.01882072351872921, -0.045328106731176376, -0.013855606317520142, -0.021306661888957024, 0.03887022286653519, -0.07261066138744354, -0.004606179427355528, -0.009512721560895443, 0.06413859128952026, -0.057258933782577515, 0.05636165291070938, -0.07177652418613434, 0.007044367492198944, 0.06842684745788574, -0.006695011630654335, 0.0606347881257534, 0.08694335073232651, 0.0770769789814949, 0.07610601931810379, -0.005319815594702959, -0.05159483104944229, -0.06050020456314087, -0.07479259371757507, -0.057038795202970505, -0.006194150075316429, 0.01883346028625965, 0.01857670396566391, 0.01304358895868063, -0.04508257284760475, 0.06696013361215591, -0.07295069098472595, 0.01934538409113884, 0.0164046511054039, -0.04604232311248779, 0.042283374816179276, 0.003880108706653118, -0.04607037082314491, 0.08008299022912979, -0.01835702732205391, 0.05435791239142418, 0.017681173980236053, 0.08593594282865524, 0.038496002554893494, -0.04489653557538986, -0.014798738993704319, -0.007048486731946468, 0.02783156931400299, -0.05110165849328041, 0.0025216136127710342, 0.06289231777191162, 0.0941428691148758, -0.05738583579659462, 0.0312725231051445, -0.009035704657435417, 0.04554295912384987, -0.05445766821503639, 0.060216858983039856, -0.0638870894908905, 0.03985562548041344, 0.01921210065484047, 0.05560086667537689, 0.01165186520665884, -0.04603039100766182, -0.028583629056811333, -0.06289786845445633, -0.05459749326109886, 0.04789215698838234, -0.002334337215870619, 0.07082913815975189, -0.006664966233074665, -0.004149435553699732, 0.029050415381789207, 0.04522762820124626, -0.012245451100170612, 0.050084520131349564, -0.05887255072593689, -0.048785023391246796, -0.046984583139419556, 0.07641657441854477, -0.01834561862051487, -0.03672012686729431, -0.010996343567967415, 0.10906238108873367, 0.020486485213041306, -0.026822473853826523, 0.0493396520614624, -0.0521671436727047, -0.03007529303431511, 0.052575163543224335, 0.10150643438100815, 0.024375207722187042, 0.0030097763519734144, -0.034786514937877655, -0.06618345528841019, 0.04533962160348892], [0.08854283392429352, 0.0343744121491909, 0.016967307776212692, 0.022921569645404816, -0.05832577496767044, -0.013078832998871803, -0.07951521128416061, 0.05837434157729149, 0.040219586342573166, 0.04543190449476242, -0.04728799685835838, -0.010186373256146908, 0.021636946126818657, -0.01245597843080759, 0.05081913247704506, -0.09023859351873398, -0.03345746174454689, 0.024683188647031784, -0.011751553043723106, -0.023953545838594437, 0.05786588042974472, 0.1076541543006897, -0.04436160624027252, -0.04947658255696297, -0.02997189201414585, -0.02819330245256424, -0.034435782581567764, 0.04947604611515999, 0.037302903831005096, -0.04332462698221207, -0.04640495032072067, 0.010177768766880035, -0.017029890790581703, -0.02365228161215782, -0.002323652384802699, -0.06302843242883682, 0.040212806314229965, 0.023562844842672348, -0.015586239285767078, -0.018541788682341576, -0.06829151511192322, -0.07955766469240189, 0.03269604593515396, 0.019236115738749504, -0.05876602604985237, 0.02047858014702797, -0.045312222093343735, 0.02177507057785988, 0.04176342859864235, 0.03672955557703972, -0.04531122371554375, 0.03826061636209488, 0.03855680301785469, -0.026502545922994614, 0.05747779458761215, 0.08824651688337326, 0.01121212262660265, 0.0536135658621788, -0.017996923997998238, 0.0019076279131695628, 0.031651824712753296, -0.0595846064388752, -0.05048507824540138, 0.04509177431464195, -0.03746785223484039, 0.021656431257724762, 0.05871886387467384, 0.06633917987346649, 0.061172232031822205, -0.014265588484704494, 0.03333807364106178, 0.01941794902086258, 0.04284362494945526, 0.04279213398694992, 0.017587292939424515, 0.029795223847031593, 0.014775920659303665, -0.04416821897029877, 0.05783861130475998, 0.02778644487261772, -0.07003374397754669, -0.00691048102453351, -0.047921035438776016, 0.06850610673427582, -0.026188425719738007, -0.03882056102156639, 0.06162736564874649, 0.1134231686592102, 0.04214532673358917, -0.00019851491379085928, 0.07087448239326477, 0.049546193331480026, 0.023224107921123505, -0.05458315089344978, 0.05609218031167984, -0.03224834427237511, 0.0719093605875969, -0.006478836294263601, 0.03177148476243019, 0.05679061636328697], [0.08693348616361618, 0.04160722717642784, -0.06246320158243179, 0.052771564573049545, 0.07469938695430756, 0.04868827387690544, -0.010242023505270481, 0.04262503981590271, 0.04945984482765198, -0.0285672377794981, -0.04134771227836609, 0.021327584981918335, 0.044833071529865265, -0.05722787603735924, -0.06918615102767944, -0.032365307211875916, 0.046144116669893265, 0.04792205989360809, -0.0510987713932991, 0.0015760522801429033, 0.05863861367106438, 0.043051429092884064, -0.002142974641174078, 0.014491633512079716, 0.014089507050812244, -0.06724277883768082, -0.06152226775884628, 0.04713723435997963, -0.07988160848617554, -0.049695514142513275, -0.023211516439914703, -0.007423337083309889, -0.028471659868955612, -0.019532136619091034, 0.03929601609706879, -0.054265376180410385, -0.02630019560456276, -0.010112646035850048, -0.006810649298131466, -0.04895186051726341, -0.06027558445930481, -0.0640043094754219, -0.0034663111437112093, 0.012624229304492474, 0.054777950048446655, -0.061956316232681274, 0.012647250667214394, -0.018553156405687332, -0.014792240224778652, 0.04559427872300148, 0.013704216107726097, -0.046220190823078156, 0.014125004410743713, 0.056012507528066635, -0.00898120366036892, 0.08903928101062775, -0.04622308537364006, 0.05992351099848747, 0.03320527449250221, -0.06918615847826004, 0.0493960939347744, 0.044049184769392014, -0.05475560575723648, 0.06427974253892899, 0.07596328854560852, -0.07086999714374542, -0.06781790405511856, -0.02440512552857399, -0.04880353808403015, 0.02773517370223999, -0.06130930036306381, 0.05417495593428612, 0.028059637174010277, -0.028122466057538986, -0.0019504212541505694, -0.01581856794655323, -0.07437242567539215, -0.06504406780004501, 0.03360762819647789, 0.0484994575381279, -0.03079395741224289, 0.051591258496046066, -0.02213272638618946, -0.0701269805431366, -0.014741431921720505, -0.09900552034378052, -0.058261312544345856, 0.08487053215503693, 0.051555439829826355, 0.10126755386590958, 0.042575400322675705, 0.04689180478453636, 0.03737575560808182, -0.04606347903609276, 0.014961383305490017, -0.045161448419094086, -0.03595414385199547, 0.020217912271618843, 0.014506518840789795, -0.057460229843854904], [-0.004361922387033701, 0.0243391003459692, 0.015578611753880978, 0.06529177725315094, -0.007217872887849808, -0.023144595324993134, 0.07111793756484985, 0.0071282642893493176, -0.0412692129611969, 0.01973322220146656, -0.02008787728846073, -0.07523319125175476, 0.017370102927088737, -0.03673644736409187, 0.012142481282353401, 0.03344443440437317, 0.02444283291697502, 0.026237420737743378, 0.05892583727836609, -0.028976857662200928, 0.06099380552768707, -0.03817743808031082, -0.05745449662208557, -0.02820381335914135, 0.027392098680138588, -0.08053135126829147, -0.07827594131231308, 0.0406283400952816, -0.07406041026115417, 0.009022478945553303, 0.031506218016147614, -0.0021179786417633295, -0.06381895393133163, 0.039204299449920654, -0.011318190954625607, -0.06739243865013123, 0.05542341247200966, 0.007725585717707872, 0.06518438458442688, -0.06878093630075455, -0.06620930135250092, -0.05981825664639473, 0.10417921841144562, 0.026394475251436234, 0.0357864648103714, -0.05085606127977371, -0.017568843439221382, -0.05950784683227539, 0.022807147353887558, -0.037722647190093994, -0.04280605912208557, -0.037647172808647156, -0.03928470239043236, -0.0626230463385582, -0.005728873424232006, 0.04049253091216087, 0.030889376997947693, 0.06330457329750061, 0.001953747356310487, -0.04163533076643944, 0.0529472790658474, 0.04676515981554985, -0.005553642753511667, -0.06350173056125641, 0.03706030920147896, 0.06051395833492279, -0.0015208799159154296, -0.0686899945139885, -0.02057989500463009, -0.02832694537937641, 0.018807044252753258, 0.052173834294080734, 0.004701096564531326, -0.015296513214707375, 0.013825240544974804, 0.02605804242193699, -0.04551840201020241, 0.010826018638908863, -0.020088963210582733, 0.04778237268328667, -0.015566827729344368, 0.07142695784568787, -0.006331088952720165, -0.0063573140650987625, 0.01563645899295807, -0.07968112081289291, -0.008510387502610683, -0.06758558750152588, 0.04959908872842789, 0.08039388805627823, 0.05672116577625275, -0.003272152505815029, 0.0010790571104735136, -0.04100390151143074, -0.04517068713903427, 0.0322076641023159, -0.03236941993236542, 0.05669992417097092, -0.015713118016719818, -0.061712611466646194], [0.004663427360355854, 0.008458787575364113, 0.03826798498630524, 0.020581087097525597, 0.03290538489818573, 0.004202918615192175, -0.04332157224416733, 0.05039949715137482, 0.00335131143219769, -0.0598672479391098, -0.013972649350762367, -0.034434493631124496, -0.03510211408138275, 0.0286286361515522, 0.07133529335260391, 0.050693947821855545, -0.0308773722499609, 0.06009235605597496, -0.02094702236354351, -0.03448231890797615, -0.03967484086751938, -0.008566985838115215, -0.009426504373550415, -0.0487089566886425, 0.017699571326375008, -0.08106036484241486, -0.09869526326656342, 0.049590133130550385, 0.03627398982644081, -0.07016953825950623, 0.04078651964664459, -0.023907706141471863, -0.08829265087842941, -0.08474016934633255, -0.009928090497851372, -0.019847774878144264, 0.011686384677886963, 0.0636003389954567, 0.037869200110435486, -0.05827631056308746, -0.060064647346735, -0.057390034198760986, 0.07238633930683136, -0.044263727962970734, -0.003288081381469965, -0.06182803958654404, -0.0682121142745018, -0.09496781975030899, -0.06269008666276932, -0.04695462808012962, -0.0273282490670681, 0.00982277188450098, 0.009089873172342777, -0.07828269898891449, -0.0536588616669178, 0.0422748327255249, -0.002091080415993929, -0.04290102794766426, 0.06585893034934998, -0.015173817053437233, -0.08592221140861511, -0.0243260208517313, -0.04548586159944534, -0.04881850257515907, 0.01702888309955597, 0.02264017052948475, 0.027769172564148903, -0.03333169221878052, 0.05684274807572365, 0.031120533123612404, -0.06828632950782776, 0.06172988563776016, 0.025307267904281616, -0.054760899394750595, -0.021451588720083237, -0.043184854090213776, 0.014823788776993752, 0.0019892777781933546, -0.05032718926668167, 0.039170198142528534, -0.008145657368004322, 0.05698772519826889, 0.05390971526503563, 0.04025818407535553, 0.05182885751128197, -0.06838081032037735, 0.004003174602985382, -0.046024587005376816, -0.05134296417236328, 0.05409083515405655, -0.06130174547433853, -0.07630746066570282, -0.034239381551742554, -0.030961904674768448, -0.07238440215587616, 0.022839926183223724, -0.01952802576124668, 0.07466699928045273, -0.012628339231014252, -0.04232672229409218], [0.043562572449445724, -0.04024757072329521, -0.02975538745522499, -0.05948954075574875, 0.06478884071111679, 0.03463728353381157, 0.009564779698848724, 0.02075980231165886, -0.0702197328209877, -0.0420735701918602, 0.005075880326330662, 0.058265913277864456, -0.08383369445800781, 0.06655677407979965, -0.057617466896772385, 0.0035446882247924805, 0.060904256999492645, -0.05675449222326279, 0.04808775708079338, -0.053099408745765686, 0.05499913543462753, 0.0034739726688712835, -0.07032375782728195, -0.01591460220515728, -0.011691111139953136, 0.01976209692656994, 0.09378138929605484, 0.04027658700942993, -0.08027451485395432, 0.05655606836080551, 0.01738988794386387, 0.07201133668422699, 0.034507300704717636, -0.05406719073653221, -0.019907154142856598, -0.04510671645402908, -0.008535362780094147, 0.04498251900076866, 0.055337436497211456, -0.012356339953839779, 0.0680127739906311, -0.05232369154691696, 0.03657989203929901, -0.0765693262219429, -0.04568099603056908, -0.05140593275427818, -0.06504873186349869, 0.05811439827084541, -0.0074596707709133625, 0.017215406522154808, 0.0017079467652365565, -0.00559297576546669, 0.051124799996614456, -0.06643611192703247, 0.03781227022409439, -0.05790846049785614, -0.006511443294584751, 0.012845621444284916, 0.006831724662333727, 0.024723516777157784, -0.06841639429330826, -0.055849283933639526, 0.062473829835653305, -0.03681628406047821, 0.01641746610403061, 0.06834396719932556, -0.03819895163178444, 0.029871778562664986, -0.037353094667196274, -0.034093696624040604, -0.034235239028930664, -0.027025075629353523, -0.005136359483003616, 0.06147732958197594, 0.054699625819921494, -0.03593283146619797, -0.016177812591195107, -0.03568362817168236, 0.055105749517679214, -0.046134211122989655, 0.058956556022167206, -0.015132913365960121, 0.04520173743367195, -0.05320271849632263, 0.08067640662193298, -0.049338147044181824, -0.0031109252013266087, -0.03317445144057274, -0.04741235449910164, 0.030844448134303093, -0.0035033246967941523, 0.019888658076524734, 0.02881302312016487, 0.05046321824193001, 0.04194188863039017, 0.014287156984210014, -0.009671761654317379, 0.08891501277685165, -0.05677342042326927, 0.0022241822443902493], [-0.006451964378356934, 0.031135383993387222, -0.04111827537417412, -0.07806854695081711, 0.045976173132658005, -0.044936440885066986, 0.07981380075216293, -0.058568939566612244, 0.03825414180755615, -0.0455239862203598, 0.036755844950675964, -0.021362928673624992, -0.07499668002128601, -0.04766188561916351, -0.00877377763390541, -0.042909033596515656, -0.023263147100806236, 0.06938259303569794, -0.01292795967310667, 0.05325939506292343, 0.03808824345469475, 0.024551747366786003, 0.06795061379671097, -0.042127180844545364, -0.02760954014956951, 0.02143227681517601, 0.07569289952516556, 0.031860996037721634, -0.08932702988386154, 0.02999379113316536, 0.05461049824953079, 0.08993293344974518, 0.015603686682879925, -0.07983019202947617, -0.004947417415678501, 0.02971838228404522, 0.028793618083000183, -0.03656962141394615, 0.044896192848682404, -0.022143060341477394, 0.06800179183483124, 0.02777109667658806, -0.03946087136864662, 0.023316852748394012, 0.02709437534213066, 0.005416784901171923, -0.012946058996021748, 0.02839912660419941, 0.044363297522068024, 0.019751865416765213, 0.05366072431206703, -0.030414413660764694, 0.05321690812706947, -0.06487740576267242, -0.010224155150353909, -0.05469848960638046, 0.003504967549815774, 0.039206355810165405, 0.04975787550210953, 0.024556290358304977, 0.03672938421368599, 0.06406340003013611, -0.07566359639167786, 0.017742207273840904, 0.00041461142245680094, -0.06407652795314789, 0.06106413155794144, -0.03984804078936577, 0.008840165100991726, -0.019206073135137558, -0.014638331718742847, 0.030345559120178223, 0.011435098014771938, 0.07612651586532593, -0.0591292567551136, -0.0006327943410724401, -0.01376715861260891, -0.04178191348910332, 0.07628539204597473, 0.012146608904004097, -0.017744053155183792, -0.01410729344934225, 0.04510091617703438, -0.05617274343967438, -0.033476926386356354, -0.022668270394206047, 0.02954668179154396, 0.012555327266454697, -0.013739162124693394, 0.07104894518852234, 0.028757398948073387, -0.05603150278329849, 0.008806254714727402, -0.035399265587329865, 0.010922604240477085, -0.02238316461443901, 0.06634201854467392, 0.05490703135728836, 2.7153446353622712e-05, 0.02808881737291813], [0.009921873919665813, 0.0033122049644589424, -0.028409551829099655, -0.04999370872974396, -0.051305584609508514, 0.030246950685977936, -0.07113739103078842, -0.06209767237305641, 0.05442368611693382, -0.03962241858243942, 0.020018933340907097, 0.0665571391582489, -0.05190118029713631, 0.0010956048499792814, 0.01500916201621294, -0.012582555413246155, 0.022587286308407784, -0.030515922233462334, -0.036326952278614044, -0.05398661270737648, 0.07435449957847595, 0.06790507584810257, -0.032245174050331116, -0.04375239461660385, -0.025400519371032715, -0.016431232914328575, 0.05711202695965767, 0.012719601392745972, -0.060185063630342484, -0.06355492025613785, -0.05955442413687706, 0.06483744084835052, -0.004203164018690586, -0.0359068401157856, -0.05781294032931328, 0.050429217517375946, -0.014024212025105953, 0.07927759736776352, 0.01516958698630333, 0.004919800907373428, 0.07758916169404984, 0.008032732643187046, -0.04608115181326866, 0.07866659760475159, -0.010472781956195831, -0.12873885035514832, -0.03944431245326996, 0.012696758843958378, -0.03571009263396263, -0.014770572073757648, 0.03951409459114075, 0.035322155803442, -0.04188038036227226, -0.04559966176748276, -0.057701244950294495, -0.03138250112533569, 0.0553579181432724, 0.0782022550702095, 0.060892216861248016, 0.057156503200531006, 0.0636504516005516, -0.053454454988241196, -0.06216803938150406, 0.055092521011829376, 0.01045080553740263, 0.050375085324048996, -0.04358087480068207, 0.025852859020233154, 0.0036968281492590904, 0.02909700572490692, -0.05894187092781067, 0.018208978697657585, -0.029471831396222115, -0.03377239778637886, -0.022775935009121895, 0.06547949463129044, -0.10057906806468964, -0.0004995099734514952, 0.08348564803600311, 0.004331220872700214, -0.02480342797935009, 0.01774732582271099, 0.0716366320848465, 0.03236958011984825, -0.04688597843050957, -0.0014396361075341702, -0.037799250334501266, 0.040695104748010635, -0.007020241115242243, 0.04605172574520111, 0.0438307486474514, 0.04459211602807045, 0.004953323397785425, 0.02466072328388691, 0.06384449452161789, -0.031523656100034714, 0.036076825112104416, -0.08898429572582245, 0.06982123851776123, 0.06825967133045197], [0.021669017150998116, -0.007373173721134663, 0.01808949001133442, -0.00017668645887169987, -0.021611180156469345, -0.043345674872398376, 0.01725071482360363, -0.028014976531267166, -0.03316941112279892, -0.016560737043619156, 0.04184723645448685, 0.005084697622805834, -0.044198568910360336, 0.06953303515911102, -0.06489358097314835, 0.012927615083754063, 0.0016597951762378216, -0.05588267371058464, -0.05088452249765396, -0.043770790100097656, -0.0527329295873642, 0.09413840621709824, -0.01037352904677391, 0.060673702508211136, 0.05397673696279526, -0.05349809303879738, 0.02735046111047268, -0.0034987623803317547, -0.06258130818605423, 0.0024048439227044582, -0.013826074078679085, -0.06406466662883759, -0.039225149899721146, -0.02813330478966236, -0.04839540272951126, 0.06353254616260529, -0.04647839441895485, 0.04304235428571701, -0.07266058027744293, 0.05287908390164375, -0.008828341960906982, -0.10602538287639618, 0.07929407805204391, 0.037198055535554886, 0.02976379729807377, -0.11326652020215988, 0.05752561613917351, -0.044502515345811844, -0.02983146719634533, 0.03894876316189766, 0.06608647853136063, -0.04371042177081108, -0.01545482873916626, -0.064629465341568, 0.01589406467974186, -0.031382858753204346, -0.00915543083101511, 0.08850741386413574, 0.043500617146492004, 0.0751296728849411, 0.012192458845674992, 0.04058534651994705, 0.0585184209048748, 0.01798640377819538, -0.0009616180323064327, 0.05692867189645767, 0.039277397096157074, 0.018229596316814423, -0.017535442486405373, 0.08707313239574432, 0.03477800264954567, 0.047136224806308746, 0.03731708973646164, 0.011422588489949703, 0.02909998968243599, 0.0026899201329797506, -0.09018617123365402, 0.06276831030845642, 0.04816829413175583, -0.030457669869065285, 0.04025665298104286, -0.05348221957683563, -0.03488002344965935, -0.028396353125572205, 0.0016142568783834577, -0.026950467377901077, -0.04026787355542183, 0.00881902500987053, 0.021975848823785782, -0.026891108602285385, -0.014566644094884396, -0.024579860270023346, 0.045875176787376404, 0.006794221233576536, 0.011862547136843204, -0.07287031412124634, 0.030003763735294342, -0.054645854979753494, 0.06955119222402573, 0.06758636236190796], [-0.041429102420806885, 0.03201700374484062, -0.0005103654111735523, 0.037408873438835144, -0.035862233489751816, -0.005945219658315182, -0.030250122770667076, -0.011825451627373695, 0.06082744896411896, 0.014980507083237171, 0.0456472784280777, -0.020911404862999916, -0.054063890129327774, 0.03106771595776081, -0.016984088346362114, -0.08338334411382675, 0.07162421941757202, -0.011198030784726143, -0.06122874841094017, 0.06189104542136192, 0.007415886968374252, -0.04441414773464203, -0.06677275896072388, -0.060903340578079224, -0.03344953805208206, 0.012376672588288784, 0.0479363277554512, 0.021568309515714645, -0.0720454603433609, 0.02090412750840187, -0.055032018572092056, -0.0888504832983017, -0.04471202567219734, 0.020358184352517128, 0.04049486666917801, 0.044187337160110474, 0.045877180993556976, -0.003249762114137411, -0.026318704709410667, 0.0657864511013031, -0.09210371226072311, -0.08968012034893036, 0.044225551187992096, 0.00703258765861392, 0.05503292754292488, -0.09520984441041946, 0.029742684215307236, 0.03530178591609001, -0.010414238087832928, 0.02440466545522213, 0.06528264284133911, 0.05816270038485527, -0.04005558043718338, -0.07474952191114426, -0.01645861752331257, -0.07083769887685776, -0.036651838570833206, 0.0720767229795456, 0.047694675624370575, 0.007577003911137581, 0.020364798605442047, -0.06824889034032822, 0.062035538256168365, 0.024636700749397278, 0.056152183562517166, -0.04875342175364494, -0.06768462806940079, -0.04901109263300896, 0.05494418367743492, -0.05665602162480354, -0.04204607009887695, 0.07221423834562302, -0.03741338476538658, -0.0024881192948669195, -0.06777756661176682, -0.042626749724149704, -0.07661960273981094, 0.04766004905104637, 0.05912720412015915, -0.05738580971956253, -0.02483130246400833, 0.06354417651891708, -0.0974678099155426, -0.039293598383665085, -0.08462845534086227, -0.02323896624147892, -0.026314930990338326, 0.016242098063230515, 0.019812341779470444, -0.022885765880346298, 0.03258271515369415, 0.027562007308006287, 0.07668120414018631, -0.03530681133270264, -0.024341635406017303, -0.07881564646959305, -0.011456325650215149, 0.057782985270023346, -0.034513816237449646, -0.006288380362093449], [-0.025466470047831535, -0.06594645231962204, -0.019893230870366096, 0.07496485859155655, 0.0373745858669281, 0.028598930686712265, -0.04698234051465988, -0.016538161784410477, 0.055453699082136154, 0.04653789848089218, -0.1015070378780365, 0.059037357568740845, 0.07523225247859955, -0.04914897680282593, -0.0007593694026581943, -0.002409013221040368, -0.049015309661626816, -0.08370982110500336, 0.035094328224658966, -0.022685999050736427, 0.006334253586828709, -0.024633754044771194, -0.05185826122760773, 0.06192609295248985, 0.006534984800964594, -0.032433126121759415, 0.04455304145812988, 0.06923245638608932, -0.04252424091100693, 0.03607216104865074, -0.015897585079073906, -0.10835673660039902, -0.012723195366561413, 0.05895744636654854, 0.007300492841750383, 0.04874853789806366, 0.03660176694393158, -0.03500406816601753, -0.05161955952644348, 0.007946168072521687, -0.10061649233102798, -0.06814408302307129, 2.0999525077058934e-05, -0.027264682576060295, -0.01798930950462818, -0.061156485229730606, -0.00972685031592846, -0.012904818169772625, 0.06363856047391891, 0.03489711880683899, -0.00013550787116400898, 0.050240032374858856, 0.06935993582010269, -0.091559499502182, 0.061093904078006744, -0.05845241621136665, 0.03525503724813461, 0.06190510839223862, -0.044426530599594116, -0.05393494293093681, -0.03384104371070862, 0.0279389638453722, -0.07405947893857956, 0.04778910428285599, -0.03953476995229721, -0.05671803653240204, 0.050723765045404434, -0.011714347638189793, 0.06378346681594849, 0.017749587073922157, 0.028185566887259483, 0.03945058956742287, 0.039778925478458405, 0.021042130887508392, -0.05579661205410957, 0.03099091723561287, -0.06975924223661423, 0.045084841549396515, 0.04296775907278061, 0.05843547731637955, 0.015517611987888813, -0.027971433475613594, -0.08704744279384613, -0.05453459545969963, 0.009697402827441692, -0.009815108962357044, 0.047255437821149826, 0.035767920315265656, 0.016113918274641037, -0.05692705884575844, -0.03504807874560356, -0.003657963825389743, 0.008228001184761524, -0.026487495750188828, 0.06160183995962143, 0.06210477650165558, 0.0068122223019599915, 0.021223528310656548, 0.026481876149773598, -0.017192957922816277], [0.015733135864138603, 0.012758434750139713, -0.0017621208680793643, 0.10143835842609406, -0.04429102689027786, -0.047690678387880325, 0.0022985017858445644, -0.07145286351442337, -0.036310214549303055, 0.05600845441222191, -0.07806996256113052, 0.06938996911048889, 0.1006198450922966, -0.04281247407197952, 0.016676250845193863, 0.06612589210271835, 0.03235626593232155, 0.021297937259078026, 0.04692394286394119, -0.002522258087992668, 0.008610881865024567, 0.002645518397912383, -0.03881537541747093, -0.06399895250797272, -0.00027620361652225256, -0.04685082659125328, 0.04335186630487442, -0.05546974390745163, -0.050551895052194595, -0.04588397219777107, 0.01817385107278824, -0.08712483197450638, 0.018447499722242355, 0.02195998840034008, -0.03602875769138336, 0.012770435772836208, 0.00990474596619606, -0.06884611397981644, 0.03377995267510414, -0.045976586639881134, -0.09831590950489044, -0.015549866482615471, 0.04129715636372566, 0.07329319417476654, -0.020121868699789047, -0.05151648074388504, 0.045803528279066086, 0.02593740075826645, 0.05607917904853821, 0.05913684517145157, -0.044776126742362976, -0.0013492407742887735, -0.04190642386674881, -0.026349764317274094, -0.06761637330055237, 0.03897693380713463, 0.06841383874416351, 0.0166030153632164, 0.009744260460138321, 0.018872655928134918, -0.02949499897658825, 0.022063834592700005, -0.016731416806578636, 0.004181620664894581, -0.0470426119863987, 0.011080511845648289, 0.05434051901102066, 0.02013746090233326, -0.0570487380027771, 0.06176021322607994, 0.04750744625926018, -0.011783910915255547, 0.021908298134803772, 0.05356218293309212, 0.014895860105752945, -0.040562186390161514, -0.0640217736363411, -0.05928431823849678, 0.0279920045286417, -0.07037504762411118, -0.04975806921720505, -0.06416868418455124, -0.06803889572620392, 0.040661752223968506, 0.054192014038562775, -0.009866937063634396, -0.012250327505171299, -0.06542225927114487, 0.060039568692445755, 0.08091261982917786, 0.05823220685124397, -0.0399484820663929, -0.0026419858913868666, -0.06988313049077988, 0.02666970156133175, 0.04934678226709366, 0.06499144434928894, 0.03764793649315834, 0.03766317293047905, -0.007131934631615877], [0.021218353882431984, -0.02218090556561947, -0.001609952305443585, -0.02238263003528118, -0.00896468386054039, 0.05060180276632309, -0.005686209071427584, 0.03963478282094002, 0.021941866725683212, -0.06070162355899811, 0.06890372186899185, 0.05187046155333519, 0.06938110291957855, -0.011040500365197659, -0.01762373372912407, -0.0015049633802846074, 0.05916943401098251, 0.0383954755961895, -0.011677580885589123, -0.05107307806611061, -0.03548763319849968, 0.030846482142806053, -0.052672117948532104, 0.026885919272899628, -0.027894871309399605, -0.09331819415092468, -0.041637443006038666, -0.035863835364580154, -0.015204217284917831, -0.04117538034915924, 0.015432868152856827, 0.007727642077952623, -0.020555010065436363, 0.06314937770366669, 0.008660607039928436, 0.05524970963597298, -0.03508977219462395, -0.08011066168546677, -0.04388319328427315, 0.016674799844622612, 0.04027775302529335, 0.03408678248524666, 0.016685888171195984, 0.03722761571407318, 0.037515878677368164, -0.08470062166452408, -0.006654898636043072, -0.06367509067058563, -0.049659788608551025, 0.07198812067508698, -0.044694315642118454, -0.06349769979715347, -0.03473450243473053, -0.030374187976121902, -0.027052180841565132, 0.05972912535071373, 0.04819025471806526, 0.005426632706075907, 0.03391290083527565, 0.040289126336574554, -0.012576407752931118, 0.01847025379538536, 0.0018997840816155076, -0.024018075317144394, 0.033726152032613754, -0.008023235946893692, -0.03315901756286621, 0.03308022767305374, -0.06552281230688095, 0.07378900051116943, -0.052362214773893356, 0.03345266357064247, -0.03971562907099724, -0.008396044373512268, 0.011519651859998703, 0.05915827676653862, -0.0341251865029335, -0.09001840651035309, 0.013541876338422298, -0.06449208408594131, 0.023180415853857994, 0.0388680100440979, -0.03887935355305672, -0.07403004169464111, -0.08119099587202072, 0.011399242095649242, -0.027316540479660034, -0.06472668796777725, 0.07458018511533737, 0.06141633540391922, -0.06970486044883728, -0.042101871222257614, -0.028807740658521652, -0.016113273799419403, -0.0019456406589597464, 0.039540573954582214, -0.007451380603015423, 0.04282885789871216, 0.047968100756406784, 0.026330523192882538], [0.03166085481643677, -0.0747491717338562, -0.059473916888237, -0.07506700605154037, 0.0564904659986496, -0.026518868282437325, 0.052777066826820374, 0.03171779215335846, -0.013272527605295181, -0.04534795880317688, 0.0889081284403801, -0.020111819729208946, 0.04841027781367302, -0.03394688293337822, -0.05513090267777443, 0.008067291229963303, -0.04550320655107498, -0.049357954412698746, -0.011763670481741428, -0.04799807816743851, -0.0384768545627594, -0.0518575944006443, -0.03324583172798157, -0.015947014093399048, 0.01111278124153614, -0.06773488968610764, 0.05151469632983208, 0.009777628816664219, -0.06576985865831375, -0.03233877569437027, -0.06031011417508125, -0.006762183737009764, -0.050697073340415955, 0.09324578195810318, 0.005039201583713293, 0.015398217365145683, 0.010975847952067852, -0.10602381825447083, -0.046512335538864136, -0.02137807011604309, 0.04044884815812111, 0.08846917003393173, -0.016730275005102158, -0.00043988614925183356, -0.013711066916584969, -0.07220353931188583, -0.004135922994464636, 0.007411342579871416, -0.009101184085011482, -0.008656224235892296, -0.017056401818990707, 0.039027031511068344, -0.03604373708367348, -0.05162694305181503, -0.03559629246592522, 0.0029611955396831036, -0.03198761120438576, 0.005883431993424892, -0.06877810508012772, -0.02907838299870491, 0.0028734509833157063, 0.06503995507955551, -0.07125751674175262, 0.07959704846143723, -0.04840674251317978, -0.03874143585562706, -0.03429996594786644, 0.04901280626654625, 0.02290358953177929, 0.007848471403121948, 0.047060269862413406, 0.06009147688746452, -0.015549945645034313, -0.02554730884730816, 0.05049284175038338, -0.071654312312603, 0.012444990687072277, -0.09461254626512527, -0.017197242006659508, -0.012421860359609127, 0.001566296792589128, 0.038439445197582245, -0.02563643269240856, -0.008046049624681473, -0.02734498865902424, 0.03465746343135834, 0.044624198228120804, -0.08219573646783829, 0.0853329598903656, 0.04316018521785736, -0.05849743261933327, 0.031920552253723145, 0.014313860796391964, 0.020325178280472755, -0.04360883682966232, -0.012303668074309826, 0.07087747752666473, -0.02775314636528492, 0.04316552355885506, 0.04027056694030762], [0.0030056186951696873, -0.00869528204202652, -0.05466556176543236, -0.03328012302517891, -0.027758680284023285, 0.017353588715195656, 0.0703168734908104, 0.028579186648130417, 0.037359509617090225, -0.04657789692282677, 0.003240876831114292, -0.035996414721012115, 0.06340153515338898, -0.01502907369285822, -0.014813176356256008, 0.02226940728724003, -0.03188106790184975, 0.07935323566198349, -0.015833603218197823, 0.029819130897521973, -0.05013876408338547, -0.04968135803937912, -0.009556698612868786, 0.010793807916343212, -0.053707923740148544, -0.018840812146663666, 0.02764349989593029, 0.0035900152288377285, 0.01035799365490675, 0.052206575870513916, 0.04116686433553696, -0.008029703982174397, 0.04925922676920891, 0.1043504849076271, 0.04868701472878456, -0.004601499065756798, 0.037711646407842636, 0.02303447388112545, 0.06104397773742676, 0.016677014529705048, -0.06918980926275253, 0.09827882051467896, -0.029509641230106354, -0.03129648044705391, -0.025617893785238266, -0.056639693677425385, 0.005700866691768169, -0.014117923565208912, -0.07772156596183777, -0.041187211871147156, -0.04571419954299927, 0.0118253817781806, 0.03602384775876999, -0.07989882677793503, 0.06997912377119064, -0.0038407789543271065, 0.04920211434364319, 0.032565437257289886, 0.05184316262602806, -0.025918476283550262, 0.02892441116273403, 0.07272237539291382, -0.058000676333904266, 0.10022658109664917, -0.07960435748100281, 0.03767736628651619, 0.005443523172289133, 0.013525060378015041, -0.007238144986331463, 0.05362590774893761, 0.032685257494449615, -0.1076168641448021, 0.03122047334909439, -0.0425797775387764, 0.000744465331081301, 0.0785612240433693, 0.028361134231090546, -0.09382744133472443, -0.022456547245383263, -0.05401913821697235, -0.07325240969657898, 0.04473540559411049, -0.07011548429727554, -0.04674186185002327, 0.02047215960919857, 0.03266071900725365, 0.05596476048231125, -0.10604756325483322, 0.00017430962179787457, 0.044539857655763626, -0.048783790320158005, -0.0113823302090168, -0.045948222279548645, 0.05997179448604584, -0.04576931148767471, -0.036981090903282166, 0.019488295540213585, 0.005264218896627426, 0.008796065114438534, 0.07435905933380127], [0.006391058210283518, -0.06062568724155426, -0.00013218844833318144, -0.0007691000355407596, -0.05400092527270317, -0.05606566742062569, -0.03827173262834549, -0.05969816818833351, -0.042417608201503754, -0.038265857845544815, -0.0349402017891407, 0.017365388572216034, 0.08345282077789307, -0.042412348091602325, -0.03229188546538353, 0.03547755628824234, 0.025560524314641953, -0.05946393311023712, 0.06085720658302307, 0.009203989990055561, -0.03577328473329544, -0.020342117175459862, 0.039144981652498245, -0.060768354684114456, 0.035695478320121765, 0.04877723753452301, -0.04498371109366417, -0.091063492000103, 0.10466058552265167, -0.036549199372529984, -0.05043473094701767, 0.04293948784470558, 0.05820101872086525, 0.0513993576169014, -0.02983023412525654, -0.013417105190455914, 0.04043807461857796, -0.015959765762090683, 0.014806210063397884, 0.01018274575471878, 0.017134584486484528, 0.01840829849243164, 0.0030806325376033783, -0.0007502473308704793, -0.005962510127574205, -0.035254959017038345, 0.05144207179546356, 0.04635799303650856, 0.010417718440294266, 0.014757679775357246, -0.031084295362234116, -0.04626167193055153, -0.0011355431051924825, -0.08202819526195526, -0.04638015106320381, 