{"ent_embeddings.weight": [[-0.12218556553125381, 0.010813896544277668, -0.05407530441880226, -0.015165113843977451, 0.11258242279291153, 0.07719527930021286, -0.11539638787508011, -0.14224302768707275, -0.19268451631069183, -0.08747299760580063, -0.18600890040397644, 0.04555419832468033, -0.13749860227108002, 0.1188751757144928, -0.12646770477294922, -0.15296509861946106, -0.04917985200881958, -0.11748059839010239, 0.04215103015303612, 0.13277912139892578, -0.019500041380524635, -0.02046702429652214, 0.12703023850917816, 0.23960329592227936, 0.017325328662991524, 0.10392962396144867, -0.06017940863966942, 0.0653490275144577, 0.1471601277589798, -0.09314294159412384, 0.06632276624441147, -0.02922746166586876, 0.03959972783923149, 0.14711682498455048, 0.12042497098445892, -0.028481321409344673, -0.010245016776025295, -0.15788687765598297, 0.20468631386756897, 0.011814640834927559, -0.1024971753358841, 0.15049351751804352, -0.11227686703205109, 0.13952213525772095, -0.02139301970601082, -0.28131765127182007, -0.05233399569988251, 0.057387154549360275, 0.09201833605766296, 0.17714780569076538, 0.0649469718337059, -0.09672168642282486, -0.13185633718967438, 0.18159949779510498, 0.032500576227903366, -0.12114386260509491, -0.04934421926736832, 0.05679876357316971, 0.20666371285915375, 0.01999862678349018, 0.04205131158232689, -0.17892763018608093, -0.04259952902793884, -0.12955869734287262, 0.12624800205230713, -0.08985681086778641, -0.10702812671661377, -0.06742461025714874, 0.22883738577365875, -0.013854281045496464, 0.0942731723189354, -0.07552669197320938, -0.10350512713193893, -0.007891692221164703, 0.16457220911979675, -0.0353069044649601, 0.09551410377025604, -0.095116525888443, -0.16544167697429657, -0.015744563192129135, -0.005611533764749765, 0.1481989026069641, -0.023496976122260094, 0.08065110445022583, -0.11652204394340515, -0.26917463541030884, 0.16472168266773224, -0.06847701221704483, -0.09918513149023056, 0.03506160154938698, 0.07501856982707977, -0.24700166285037994, -0.045604728162288666, 0.05837574228644371, -0.011143021285533905, 0.010843230411410332, -0.06399380415678024, 0.19499653577804565, -0.17589162290096283, 0.08166944980621338], [-0.09467608481645584, 0.10512851178646088, -0.06105610355734825, -0.0828474760055542, -0.1047268882393837, -0.006803189404308796, -0.06902098655700684, -0.10336431115865707, -0.12710781395435333, -0.06643170863389969, -0.11261723935604095, 0.029459631070494652, -0.1964121162891388, 0.08345180004835129, -0.031128527596592903, -0.14786699414253235, -0.042255133390426636, -0.15783286094665527, 0.014148864895105362, 0.21760126948356628, 0.02185201458632946, -0.03391393646597862, -0.13836444914340973, 0.19736842811107635, 0.0654701516032219, 0.1519920825958252, -0.08747811615467072, 0.06505769491195679, 0.08953984081745148, -0.046050116419792175, -0.010192923247814178, -0.03537686541676521, 0.19447191059589386, 0.16488806903362274, 0.16272780299186707, -0.07405887544155121, -0.10106288641691208, -0.10315314680337906, 0.1799412965774536, 0.05567290633916855, 0.005997228901833296, 0.1611107587814331, -0.0715116485953331, 0.1792561113834381, 0.0006563567440025508, -0.23444505035877228, -0.14982441067695618, 0.15204764902591705, 0.09648998081684113, 0.19211281836032867, -0.11586858332157135, -0.1598743498325348, -0.10433908551931381, 0.22223800420761108, 0.10069603472948074, -0.05766044929623604, -0.020932570099830627, 0.09402208030223846, 0.17613378167152405, 0.06793209910392761, 0.06655564904212952, -0.1484692245721817, -0.011105291545391083, -0.05390908941626549, 0.02827899344265461, 0.0004799302259925753, -0.014797741547226906, -0.0277477465569973, 0.251242995262146, -0.044092729687690735, 0.05824262276291847, 0.062211908400058746, -0.010657796636223793, 0.06238051503896713, 0.1265435516834259, -0.00622838269919157, 0.10621631890535355, -0.11927566677331924, -0.17085230350494385, 0.005317263305187225, 0.061232294887304306, 0.16579441726207733, -0.07164693623781204, -0.02990408055484295, -0.03640925511717796, -0.27803835272789, 0.09567152708768845, -0.022131742909550667, -0.060332637280225754, -0.04187905415892601, 0.09527457505464554, -0.2589825987815857, 0.08191761374473572, -0.009401615709066391, 0.05832440033555031, -0.0050821686163544655, -0.09385716915130615, 0.26695749163627625, -0.18704068660736084, 0.22834064066410065], [0.2497452199459076, 0.17918282747268677, -0.09704384952783585, -0.08084354549646378, -0.06783898919820786, -0.08374574035406113, 0.10150302201509476, -0.0245443657040596, -0.0520494319498539, -0.034797828644514084, 0.11874382942914963, 0.043318554759025574, -0.2553865313529968, -0.04067577049136162, -0.03528642654418945, -0.0500493161380291, -0.08835142850875854, -0.17975188791751862, -0.08016858249902725, 0.216477632522583, 0.020756525918841362, -0.009823160246014595, -0.15862120687961578, -0.028593288734555244, -0.12154944986104965, 0.152409166097641, -0.15064816176891327, 0.05626220256090164, -0.03322860598564148, -0.05762484297156334, -0.0046307602897286415, -0.1091785877943039, 0.1383771002292633, 0.1786886304616928, -0.014933443628251553, -0.12308941781520844, -0.19055089354515076, -0.14131873846054077, 0.07009325921535492, 0.041463546454906464, -0.005683236289769411, 0.2127261459827423, -0.04045698791742325, 0.13376502692699432, -0.007209163624793291, -0.17301879823207855, -0.15949639678001404, 0.13792333006858826, 0.04172268882393837, 0.16362912952899933, -0.08939891308546066, -0.16563482582569122, 0.014029933139681816, 0.25233525037765503, 0.04033806547522545, -0.006717493291944265, -0.04058230295777321, 0.07489468902349472, -0.19623494148254395, 0.09723823517560959, 0.04067645221948624, -0.15051880478858948, -0.035030465573072433, -0.07491441816091537, -0.03697485104203224, 0.009285429492592812, 0.00042712566209957004, -0.006522626616060734, 0.2432650625705719, -0.10665877908468246, -0.016329916194081306, 0.08959226310253143, 0.01410591509193182, 0.1512298732995987, 0.09744415432214737, 0.09214542806148529, 0.08678756654262543, -0.08740834146738052, -0.15927989780902863, -0.03532947227358818, 0.1641075313091278, 0.15623053908348083, -0.14119639992713928, -0.05376432090997696, 0.09808395057916641, -0.20601992309093475, 0.10329673439264297, -0.07724232971668243, -0.05543018877506256, -0.09742584824562073, 0.09708702564239502, -0.23272883892059326, 0.11399786919355392, -0.069572813808918, 0.06717739254236221, -0.04221142455935478, -0.13345499336719513, 0.25975289940834045, -0.13358601927757263, 0.22380796074867249], [0.21960116922855377, -0.05020714923739433, -0.1252591907978058, 0.128739595413208, 0.012584177777171135, -0.12632378935813904, 0.0878351479768753, 0.03603601083159447, 0.024287642911076546, 0.011317113414406776, 0.1394282877445221, 0.10829576104879379, -0.2623237669467926, -0.09338582307100296, -0.03766901418566704, -0.10258996486663818, -0.041881635785102844, 0.06062241271138191, -0.05337207019329071, 0.15614546835422516, 0.0048761144280433655, 0.00483663147315383, -0.007625914644449949, -0.05954054370522499, -0.042286466807127, 0.12057548761367798, 0.1174163892865181, 0.005521669052541256, -0.09517329931259155, -0.01207441370934248, 0.00018911814549937844, -0.16221395134925842, 0.10949021577835083, 0.16880924999713898, 0.036551009863615036, 0.03580135852098465, -0.2388700246810913, -0.0484265498816967, 0.11960984021425247, 0.0002577846171334386, -0.08349912613630295, 0.20831090211868286, 0.06042896956205368, 0.15148884057998657, -0.042980045080184937, -0.09270808845758438, -0.0677451565861702, 0.20007532835006714, 0.0017494753701612353, 0.15566185116767883, 0.006272297818213701, 0.27569153904914856, 0.08220937103033066, 0.23864831030368805, -0.01962393894791603, 0.06287429481744766, -0.18627692759037018, 0.08374889940023422, -0.21228525042533875, 0.09244367480278015, 0.025539927184581757, -0.1323438286781311, -0.10226377844810486, -0.09570995718240738, -0.11719652265310287, -0.011073926463723183, 0.018275143578648567, -0.015186013653874397, 0.21502771973609924, -0.12830649316310883, -0.058812402188777924, 0.14988665282726288, -0.0822175145149231, 0.07511720061302185, 0.10543153434991837, -0.044721152633428574, 0.14251556992530823, -0.1277928650379181, -0.11027617752552032, 0.19439445436000824, 0.1678013950586319, -0.08750299364328384, -0.151063933968544, 0.012283618561923504, 0.16180264949798584, -0.20545317232608795, 0.05236315727233887, 0.004992886912077665, -0.045211855322122574, -0.19518187642097473, 0.09685607254505157, -0.2651159465312958, 0.14379960298538208, -0.05888748914003372, 0.11093880236148834, -0.08378131687641144, -0.08322133123874664, 0.2648048996925354, -0.08873248845338821, 0.17343108355998993], [0.18628598749637604, 0.011830815114080906, -0.2052886039018631, 0.09601902216672897, 0.07834827154874802, 0.06652013957500458, 0.07720242440700531, 0.08653908967971802, 0.07018020004034042, -0.08522026240825653, -0.017407046630978584, 0.17391392588615417, 0.12423042953014374, 0.14654004573822021, -0.07361140102148056, 0.14236491918563843, 0.2253296971321106, 0.009481897577643394, -0.018482305109500885, 0.14818258583545685, -0.016222339123487473, 0.05226832628250122, 0.0900309830904007, -0.05172673612833023, 0.052314016968011856, 0.1552663892507553, 0.07549642026424408, 0.05105098336935043, -0.11939076334238052, 0.03806796669960022, 0.05281621962785721, -0.15511544048786163, -0.004624458495527506, -0.0010663580615073442, 0.06923214346170425, 0.06530041247606277, -0.2014683485031128, -0.05180392414331436, 0.07152955234050751, -0.038204800337553024, -0.12685918807983398, 0.15224570035934448, 0.12435523420572281, 0.22333352267742157, -0.11545814573764801, 0.057689014822244644, 0.09007176011800766, 0.24670058488845825, -0.035806961357593536, 0.044603314250707626, 0.11912025511264801, 0.26248812675476074, 0.06988866627216339, 0.22956019639968872, -0.1108105406165123, 0.17379708588123322, -0.15475037693977356, 0.16927491128444672, -0.1737133413553238, 0.24371932446956635, -0.02255798876285553, -0.13860133290290833, -0.06848752498626709, -0.04067685827612877, -0.1792684942483902, 0.07719103246927261, 0.08137115091085434, 0.027238987386226654, 0.15039972960948944, -0.1566629856824875, 0.09395851194858551, 0.15124186873435974, -0.07249550521373749, -0.1409768909215927, 0.05460452288389206, -0.11896414309740067, 0.19407010078430176, -0.18627163767814636, -0.020309003069996834, 0.219485804438591, -0.0717698484659195, -0.0585203692317009, 0.05625919625163078, 0.06356211006641388, 0.1288563758134842, -0.15653742849826813, 0.04404595494270325, 0.07841356098651886, -0.0008960829582065344, -0.2419481873512268, 0.037636835128068924, -0.1643008142709732, 0.09144137799739838, -0.06863386929035187, 0.16909319162368774, -0.09255006909370422, -0.04260248318314552, 0.2878378629684448, 0.051291000097990036, 0.0573246031999588], [0.07829098403453827, 0.0502963624894619, -0.1963784545660019, 0.034395165741443634, 0.11743974685668945, 0.04650641605257988, 0.03182564675807953, 0.14940199255943298, 0.03272499889135361, -0.1532059907913208, -0.05502958595752716, 0.0008045883732847869, 0.07325830310583115, 0.16127996146678925, -0.14822918176651, 0.206185981631279, 0.21604323387145996, -0.04468083381652832, 0.040840357542037964, 0.06284991651773453, -0.07702971994876862, 0.14941050112247467, 0.15199312567710876, -0.06386411935091019, 0.10740628093481064, 0.12175647169351578, -0.10750801116228104, 0.13616004586219788, 0.022029398009181023, 0.11882239580154419, 0.08330720663070679, -0.013489869423210621, -0.040866605937480927, -0.029970603063702583, 0.043940428644418716, 0.154045969247818, -0.1644544154405594, -0.13284234702587128, -0.17575044929981232, 0.23958738148212433, -0.17876583337783813, 0.12063781917095184, 0.030134089291095734, 0.21664081513881683, -0.11725904792547226, 0.10278230905532837, 0.0543980672955513, 0.09507623314857483, -0.12336835265159607, 0.038428571075201035, -0.1586907058954239, 0.21642805635929108, 0.004195205867290497, 0.12326470017433167, -0.15965132415294647, 0.17487786710262299, -0.09042158722877502, 0.13566066324710846, -0.04346948489546776, 0.2071009874343872, -0.04987476021051407, -0.07274699956178665, 0.08196600526571274, 0.09601578861474991, -0.20187440514564514, 0.13722793757915497, 0.12242897599935532, 0.009354399517178535, 0.08726759999990463, -0.12202828377485275, 0.07576148211956024, 0.04694715514779091, 0.11987775564193726, -0.11785874515771866, -0.0025609356816858053, 0.006044119596481323, 0.22373449802398682, -0.1438482254743576, -0.02339450642466545, 0.1603415459394455, -0.08275915682315826, 0.005885427817702293, 0.025063689798116684, 0.10654334723949432, 0.10688348114490509, 0.0013774530962109566, 0.07820386439561844, -0.0747937262058258, 0.04595246911048889, -0.23386044800281525, -0.009336559101939201, 0.15534549951553345, 0.1219533160328865, -0.0755239725112915, 0.10256946086883545, -0.09575862437486649, -0.009462499059736729, 0.16134333610534668, 0.13715434074401855, -0.09213747829198837], [0.07663777470588684, -0.02641166001558304, -0.21135206520557404, 0.029805196449160576, -0.005367455072700977, -0.004730710759758949, 0.04955128952860832, 0.14447320997714996, 0.018796412274241447, -0.17609573900699615, -0.05590377748012543, 0.0496874563395977, -0.027786320075392723, 0.1423850953578949, -0.1057962104678154, 0.23311972618103027, 0.13165642321109772, 0.046321310102939606, 0.0563027523458004, 0.09159795939922333, -0.11039450764656067, 0.15088798105716705, 0.16862212121486664, -0.06922323256731033, 0.09096300601959229, 0.1450340449810028, -0.1544671356678009, 0.12307866662740707, -0.01764504797756672, 0.1120312511920929, -0.017879387363791466, 0.03964807093143463, -0.08728495240211487, -0.025618601590394974, -0.20319068431854248, 0.12102100253105164, 0.04401130601763725, -0.10206154733896255, -0.17935843765735626, 0.23993128538131714, -0.11269742995500565, 0.11838749796152115, -0.020898638293147087, -0.13260631263256073, -0.07713345438241959, 0.11642355471849442, -0.12987330555915833, 0.06857984513044357, -0.11797858029603958, 0.09037753939628601, -0.07608615607023239, 0.2370445728302002, 0.06243966892361641, 0.11072444915771484, -0.15595555305480957, 0.24132803082466125, -0.027302561327815056, 0.13694438338279724, 0.026024913415312767, 0.19512739777565002, 0.12129219621419907, -0.030127577483654022, 0.10401386767625809, 0.13573235273361206, -0.18255075812339783, 0.18105366826057434, 0.13153491914272308, -0.13879908621311188, 0.11746787279844284, -0.1087779775261879, 0.04275010898709297, 0.011036544106900692, 0.1453472375869751, -0.0592382475733757, -0.01926724798977375, 0.04223787784576416, 0.18320998549461365, 0.0726037472486496, -0.01914028823375702, 0.12874338030815125, -0.007811995223164558, 0.0384674109518528, -0.07450244575738907, -0.06944305449724197, 0.17223425209522247, 0.028914038091897964, 0.15528357028961182, -0.005645559169352055, 0.047703199088573456, -0.21404391527175903, -0.13318684697151184, 0.19716352224349976, 0.1601850837469101, -0.10945533961057663, 0.08459445089101791, -0.06033555418252945, -0.007344621233642101, 0.174808531999588, 0.12491407990455627, -0.10507277399301529], [0.03908694162964821, -0.10223653167486191, 0.03340138494968414, 0.0002850651799235493, -0.02705821953713894, 0.001834909780882299, 0.13164624571800232, 0.1491631716489792, -0.023009931668639183, 0.04500022903084755, 0.0792565792798996, 0.07246468961238861, -0.03589924797415733, 0.11319693177938461, -0.041641149669885635, 0.21444441378116608, 0.048119913786649704, 0.014192713424563408, 0.09129048138856888, 0.0008098182734102011, -0.16461239755153656, 0.036175452172756195, 0.2159692496061325, 0.25852450728416443, 0.09476405382156372, 0.11238401383161545, -0.1851101666688919, 0.18730483949184418, -0.025559838861227036, 0.17132069170475006, -0.004484289791435003, 0.15761445462703705, 0.007473901845514774, -0.06951995939016342, -0.24260872602462769, -0.03926634415984154, 0.021105319261550903, -0.12084457278251648, -0.1525619626045227, 0.24013736844062805, -0.08058256655931473, 0.1573217511177063, -0.08553823828697205, -0.05223938077688217, -0.05972883850336075, -0.06070992723107338, -0.17882519960403442, -0.03654622286558151, -0.11041363328695297, 0.10489555448293686, -0.08113367110490799, 0.1705593466758728, 0.012462849728763103, 0.06208441033959389, -0.049944549798965454, 0.20150572061538696, 0.054496560245752335, 0.09541307389736176, 0.08356226235628128, 0.12598171830177307, 0.13872654736042023, 0.08214317262172699, 0.10226453095674515, 0.14229799807071686, -0.19914007186889648, 0.19121307134628296, 0.16442376375198364, -0.09355822950601578, 0.06926462054252625, -0.056188151240348816, 0.013583287596702576, -0.026258248835802078, 0.011953615583479404, -0.031448207795619965, 0.07778522372245789, -0.13089638948440552, 0.19810768961906433, 0.0691409707069397, -0.01962173543870449, 0.09686674922704697, -0.00873054750263691, 0.09793179482221603, -0.12372308224439621, -0.04307910427451134, 0.13517381250858307, 0.040739573538303375, 0.17561988532543182, 0.08635654300451279, -0.043806254863739014, 0.16556447744369507, -0.13294349610805511, 0.1886346936225891, 0.17941051721572876, -0.10483115911483765, -0.04458249732851982, 0.10819802433252335, -0.09644005447626114, 0.12720565497875214, 0.11991193890571594, -0.10895046591758728], [-0.006563887465745211, -0.06875436007976532, 0.07806742191314697, -0.05343598499894142, -0.19243164360523224, -0.050732407718896866, 0.12264212220907211, -0.05547063425183296, 0.04064568132162094, 0.055421438068151474, 0.13029339909553528, 0.16946402192115784, 0.17173464596271515, -0.0029056689236313105, -0.0336228609085083, 0.14998383820056915, -0.04986981302499771, -0.02975918911397457, 0.13876457512378693, -0.08994995802640915, -0.011705733835697174, 0.038785286247730255, 0.16968238353729248, 0.2174696922302246, -0.06618721038103104, 0.11749330908060074, 0.17059040069580078, 0.1772247850894928, 0.09000202268362045, 0.18394672870635986, -0.12344537675380707, 0.11115942895412445, 0.21139095723628998, -0.06916707009077072, -0.21778231859207153, -0.18165867030620575, -0.02499019354581833, -0.052672576159238815, -0.05743720009922981, 0.19316047430038452, -0.00256481789983809, 0.12974607944488525, -0.18749578297138214, 0.05145478621125221, -0.16216136515140533, -0.0029904881957918406, -0.17716169357299805, -0.0991547480225563, -0.08956301957368851, 0.0014021636452525854, -0.024105681106448174, 0.12197726964950562, -0.0004550498561002314, -0.019902829080820084, 0.03431018441915512, 0.17011570930480957, 0.06521663814783096, 0.12809878587722778, 0.07838142663240433, 0.10818513482809067, 0.10259470343589783, 0.10380157083272934, 0.006309801246970892, 0.09690019488334656, -0.27520594000816345, 0.19411461055278778, 0.15159031748771667, 0.07191842794418335, -0.14814333617687225, 0.07107223570346832, -0.05566486716270447, 0.06966444104909897, -0.07054958492517471, -0.026034940034151077, 0.1791064739227295, -0.001473683281801641, 0.19014199078083038, -0.0008583823218941689, -0.0391165129840374, 0.13645415008068085, -0.1804066002368927, 0.17596125602722168, -0.11921725422143936, 0.016306348145008087, 0.1023201197385788, -0.09494291245937347, 0.22240126132965088, 0.1695069968700409, -0.056212667375802994, 0.17000959813594818, -0.07597045600414276, 0.07145339250564575, 0.19039613008499146, -0.10332851856946945, -0.07413851469755173, 0.15412689745426178, -0.21876749396324158, 0.009633315727114677, 0.13357071578502655, 0.009385744109749794], [0.023575445637106895, -0.024813788011670113, 0.11455858498811722, -0.060172952711582184, -0.18759216368198395, -0.06847827881574631, 0.08998384326696396, -0.008743218146264553, 0.036321356892585754, 0.03799644485116005, 0.20743149518966675, 0.18967999517917633, 0.1422426700592041, -0.118979811668396, -0.02815268747508526, 0.12706783413887024, 0.022464999929070473, 0.10839033126831055, 0.13518165051937103, -0.07081460952758789, 0.026906698942184448, 0.0926523506641388, -0.15301068127155304, 0.1610153466463089, -0.013981589116156101, 0.08063822239637375, 0.1587265431880951, 0.11012408137321472, 0.07267197221517563, 0.16233336925506592, -0.051078274846076965, -0.09250921756029129, 0.13672472536563873, -0.04650905728340149, -0.1903708577156067, -0.21033315360546112, -0.04047510772943497, 0.07066826522350311, -0.08152808994054794, 0.20738013088703156, 0.0014674237463623285, 0.15070652961730957, -0.18682850897312164, 0.12551483511924744, -0.1318024843931198, 0.06564826518297195, 0.14140816032886505, -0.059314023703336716, 0.024828428402543068, 0.05957181379199028, 0.0664101392030716, 0.06097506731748581, 0.03958204761147499, -0.16426827013492584, 0.16542069613933563, 0.10426700115203857, 0.0962737649679184, 0.19510391354560852, 0.09091664105653763, 0.13969238102436066, 0.04982873052358627, 0.10897020995616913, -0.020887572318315506, 0.08911658823490143, -0.25437769293785095, 0.24660316109657288, 0.03104352578520775, 0.11178655922412872, -0.21747992932796478, 0.03115089051425457, -0.10777812451124191, 0.052599094808101654, -0.06171320378780365, 0.031565118581056595, 0.18874968588352203, 0.013810471631586552, 0.1413034200668335, -0.049201298505067825, -0.1106642633676529, 0.1153363287448883, -0.14651773869991302, 0.1924300193786621, -0.14882993698120117, 0.1029282733798027, 0.08798611909151077, -0.06587183475494385, 0.2043491154909134, -0.17721882462501526, -0.21277937293052673, 0.08165713399648666, 0.04284854605793953, 0.04559016227722168, 0.01985122077167034, -0.09217595309019089, -0.005816353484988213, 0.12151564657688141, -0.23978839814662933, -0.02368585579097271, 0.09124130010604858, -0.02916402742266655], [0.01366866659373045, 0.05904785916209221, 0.17012633383274078, -0.07372668385505676, -0.08901385962963104, -0.10815708339214325, 0.07748889178037643, 0.008919836953282356, 0.0015575960278511047, -0.020983168855309486, 0.20096462965011597, 0.1236896812915802, 0.07762080430984497, -0.13375255465507507, 0.05213616415858269, 0.05494163930416107, 0.02692093327641487, 0.11506755650043488, 0.14147520065307617, -0.008175232447683811, 0.04361696168780327, 0.08703791350126266, -0.1416720151901245, 0.15149874985218048, 0.06017335131764412, 0.0025843766052275896, 0.03061015158891678, -0.18715298175811768, 0.10629378259181976, 0.08291422575712204, -0.015939103439450264, -0.15852580964565277, 0.049422334879636765, -0.001471025520004332, -0.1555165946483612, -0.09149130433797836, -0.08390040695667267, 0.0687510296702385, -0.13592055439949036, 0.12352907657623291, 0.042014915496110916, 0.16361498832702637, -0.01851091906428337, 0.14219096302986145, -0.10962796956300735, 0.04433776065707207, 0.17705170810222626, -0.0669766291975975, 0.1109728068113327, 0.10607190430164337, 0.1246919333934784, -0.1487172544002533, 0.04449811577796936, -0.17557574808597565, 0.1712692677974701, 0.0634007677435875, 0.0012151927221566439, 0.16901826858520508, 0.15232498943805695, 0.14601759612560272, -0.05407495051622391, 0.07288390398025513, 0.1507387012243271, 0.15219144523143768, -0.141023650765419, 0.2020941972732544, -0.02532859332859516, 0.16342037916183472, -0.24196048080921173, -0.04003400355577469, -0.10479728877544403, -0.013540185056626797, -0.20992176234722137, 0.10326563566923141, 0.18256103992462158, -0.018116788938641548, -0.10607507824897766, -0.1579388827085495, -0.12797586619853973, 0.06708068400621414, -0.19358263909816742, -0.14662237465381622, -0.11258651316165924, 0.1356288194656372, 0.036419544368982315, 0.07937914878129959, 0.12073133140802383, -0.08838997036218643, -0.1891833394765854, -0.13468801975250244, 0.005517158657312393, 0.03827447444200516, -0.01001917663961649, -0.08040467649698257, 0.18971480429172516, 0.05084703490138054, -0.2119065821170807, -0.02768832817673683, 0.040959425270557404, -0.06703012436628342], [0.015457093715667725, 0.0846639946103096, 0.18058568239212036, -0.10292412340641022, -0.02553904987871647, 0.12295260280370712, 0.001731732627376914, 0.05774545669555664, 0.031531013548374176, -0.03298812732100487, 0.22941142320632935, 0.16168253123760223, 0.09496217966079712, -0.18024922907352448, 0.05363044515252113, 0.02680455893278122, 0.17263326048851013, 0.1144372969865799, 0.10921856760978699, -0.027677610516548157, 0.03643017262220383, 0.1380872279405594, -0.10506457835435867, 0.17768451571464539, 0.055086370557546616, 0.009404528886079788, 0.0014309234684333205, -0.16502715647220612, 0.044561177492141724, 0.019861040636897087, 0.04212101548910141, -0.2058098316192627, -0.029276998713612556, 0.021230343729257584, -0.1431533247232437, 0.187382310628891, -0.10086961090564728, 0.049515433609485626, -0.14071232080459595, -0.10595418512821198, 0.12643754482269287, 0.15633416175842285, 0.06985275447368622, -0.13147036731243134, -0.08792891353368759, 0.05207328498363495, 0.14439041912555695, -0.12738516926765442, 0.05086572468280792, 0.1254560947418213, 0.18848711252212524, -0.16925911605358124, -0.014257121831178665, -0.19782504439353943, 0.15331748127937317, 0.059024203568696976, -0.039385437965393066, 0.16773422062397003, 0.1963244080543518, 0.12917079031467438, -0.12073568999767303, 0.09351859241724014, 0.19467715919017792, 0.10814797878265381, -0.1768111139535904, 0.048036977648735046, 0.03560062125325203, 0.03033699095249176, -0.20582012832164764, -0.008697564713656902, -0.11942312121391296, -0.18484361469745636, -0.2294548600912094, 0.1825731247663498, 0.16473418474197388, 0.08275753259658813, -0.0648539587855339, -0.2178618609905243, 0.2138940542936325, 0.09404118359088898, -0.15905432403087616, -0.08727064728736877, -0.1526455283164978, -0.017821339890360832, 0.081639863550663, 0.11030959337949753, 0.04543876275420189, 0.012596522457897663, -0.15531861782073975, -0.11616326123476028, -0.0009927659993991256, 0.08611910045146942, -0.029563434422016144, -0.0865485817193985, 0.21307744085788727, -0.028177576139569283, -0.1166682317852974, 0.03164643049240112, 0.011763643473386765, 0.17121124267578125], [-0.028900086879730225, 0.1034311056137085, 0.10834162682294846, 0.05837326496839523, 0.02446223795413971, 0.04833061248064041, -0.06275210529565811, -0.06992767006158829, -0.07130834460258484, -0.02060258574783802, 0.21465648710727692, 0.16646717488765717, -0.07618141919374466, -0.21796555817127228, -0.04945811629295349, -0.15212519466876984, 0.06038466840982437, -0.06076489016413689, 0.054577965289354324, -0.14125415682792664, 0.16767103970050812, 0.1105629950761795, 0.028168993070721626, 0.12272841483354568, 0.11740322411060333, 0.14499209821224213, -0.08228882402181625, -0.11798498034477234, 0.011821478605270386, 0.07293175160884857, 0.04169733449816704, -0.2241847962141037, -0.10289479047060013, 0.06946573406457901, -0.03198765590786934, 0.1344558298587799, -0.019597191363573074, 0.038627903908491135, -0.0655379518866539, -0.10488655418157578, 0.10357845574617386, 0.05312472581863403, 0.16261787712574005, -0.01332811638712883, 0.013514234684407711, 0.1354866325855255, 0.001376976608298719, -0.19706635177135468, 0.11372717469930649, 0.1374504268169403, 0.1770661175251007, 0.04819149523973465, 0.004325572866946459, 0.17775291204452515, 0.1547786295413971, -0.06568125635385513, -0.03600188344717026, 0.1066044345498085, 0.2385905683040619, 0.0004631534102372825, -0.12311534583568573, 0.02098153717815876, 0.13149872422218323, 0.012983129359781742, -0.17082899808883667, -0.01673082821071148, 0.02662290260195732, 0.011826538480818272, 0.002898277249187231, 0.17877618968486786, -0.13921493291854858, -0.24578969180583954, -0.22910211980342865, 0.24073708057403564, 0.10099034756422043, -0.06986811012029648, -0.02094101905822754, -0.2593136429786682, 0.22051426768302917, -0.07743126153945923, -0.07688066363334656, -0.013827286660671234, -0.12497112900018692, -0.23296375572681427, 0.01796405017375946, 0.2238648533821106, -0.07473663985729218, 0.10947375744581223, 0.014207146130502224, 0.012127699330449104, 0.03650635480880737, 0.13142064213752747, -0.21369622647762299, -0.024078551679849625, 0.2587406635284424, -0.17499689757823944, -0.011557363905012608, 0.1045086532831192, -0.056662414222955704, 0.12046204507350922], [-0.03675214201211929, -0.08983099460601807, 0.04313862696290016, 0.049407970160245895, 0.001210905727930367, -0.05384686589241028, -0.06503809988498688, -0.03914782777428627, -0.10791032761335373, -0.01001967303454876, -0.012204643338918686, 0.19748544692993164, -0.12912186980247498, -0.03446054831147194, -0.12048918753862381, -0.18642301857471466, 0.033766116946935654, -0.09322632104158401, -0.043535783886909485, -0.17077115178108215, 0.07954370975494385, 0.06866822391748428, 0.08077239245176315, 0.10022944957017899, 0.12595736980438232, 0.14476630091667175, -0.07516668736934662, -0.17442210018634796, 0.02047601155936718, 0.07713233679533005, 0.016866017132997513, -0.1984182745218277, -0.11928912997245789, 0.08205950260162354, 0.030708352103829384, 0.08528564125299454, 0.0567525252699852, 0.0927894338965416, -0.057698559015989304, -0.04810590669512749, -0.0140531649813056, 0.02730034664273262, 0.22986796498298645, 0.05738871917128563, 0.06930041313171387, 0.20550034940242767, -0.08614339679479599, -0.17792744934558868, 0.13806423544883728, 0.14361660182476044, -0.03948940336704254, -0.006411099340766668, -0.11823160201311111, 0.22125761210918427, 0.12366755306720734, -0.08329077064990997, -0.02435404621064663, -0.09482358396053314, -0.2218935489654541, -0.06879256665706635, -0.1490495353937149, 0.026135187596082687, 0.10450620204210281, 0.03778781741857529, -7.680957060074434e-05, 0.059015605598688126, -0.09173595160245895, 0.023033924400806427, 0.0743553414940834, 0.2155023068189621, -0.008425199426710606, -0.2471950352191925, -0.23501192033290863, 0.22502031922340393, -0.16438274085521698, -0.13984422385692596, -0.0526123009622097, -0.2799115478992462, 0.22342851758003235, -0.13805168867111206, 0.01299511082470417, 0.03408429026603699, 0.0791030079126358, -0.21759982407093048, -0.008339098654687405, 0.2260236144065857, -0.11926537752151489, 0.005582865793257952, 0.07889685779809952, 0.01315546315163374, 0.05140578746795654, 0.13171209394931793, -0.20998816192150116, -0.019517041742801666, 0.17284852266311646, -0.16526807844638824, -0.046582695096731186, 0.11716638505458832, -0.08376461267471313, 0.11832932382822037], [-0.13234317302703857, -0.049574241042137146, -0.02469021826982498, -0.13873246312141418, -0.005850285291671753, -0.13445517420768738, -0.2109416425228119, -0.01846425235271454, -0.03402208164334297, 0.026453763246536255, -0.17968544363975525, 0.18716149032115936, -0.15955373644828796, -0.0433325357735157, -0.12412167340517044, -0.2328902781009674, -0.017048439010977745, -0.14460574090480804, -0.07239825278520584, 0.025252679362893105, 0.01642093062400818, 0.01986773870885372, 0.06515353173017502, 0.03827501833438873, 0.04142935946583748, 0.11426503956317902, -0.08948858827352524, -0.21969453990459442, 0.005923898424953222, 0.13272331655025482, 0.026807725429534912, 0.06816571950912476, -0.16645188629627228, -0.17133161425590515, 0.01629616692662239, 0.0336495079100132, -0.002831015270203352, 0.062035318464040756, -0.030022846534848213, -0.08468196541070938, -0.06189429387450218, -0.03871924430131912, 0.22468909621238708, 0.1539982110261917, 0.09621960669755936, -0.1983918845653534, -0.11047142744064331, 0.12578487396240234, 0.046905260533094406, 0.09099029749631882, 0.020723262801766396, -0.1407288908958435, -0.11911607533693314, 0.233956977725029, 0.043414827436208725, -0.10797297209501266, 0.03635835275053978, -0.08074982464313507, -0.20769552886486053, -0.14666585624217987, -0.05305080488324165, -0.0313679575920105, 0.1783335655927658, 0.011331173591315746, -0.0067591494880616665, 0.03494305536150932, -0.06979541480541229, -0.022437436506152153, -0.11278846114873886, 0.2518137991428375, 0.009331564418971539, -0.26084110140800476, -0.19914478063583374, 0.13058218359947205, -0.21568399667739868, 0.07889260351657867, 0.030561748892068863, 0.2505643367767334, 0.19856920838356018, -0.15966178476810455, 0.0395565927028656, 0.10472660511732101, 0.03474437817931175, -0.17077015340328217, 0.031936533749103546, 0.1157899796962738, -0.056011099368333817, 0.06751257181167603, 0.1351187378168106, 0.0019458398455753922, 0.0592527836561203, 0.1299220323562622, -0.19794578850269318, -0.014320657588541508, 0.10652073472738266, -0.1348024159669876, 0.05603054538369179, 0.1265973150730133, -0.10137443989515305, 0.015528995543718338], [-0.191310316324234, 0.007238197140395641, -0.07015681266784668, -0.18080830574035645, 0.032484255731105804, -0.185799241065979, -0.2457110583782196, -0.14557938277721405, 0.0137844393029809, 0.02616809867322445, -0.1456385999917984, -0.07764140516519547, 0.08672574162483215, -0.0736369788646698, -0.163640558719635, -0.24479404091835022, -0.0463101789355278, -0.16301755607128143, -0.11909545212984085, 0.040329307317733765, -0.09818863123655319, 0.018196187913417816, 0.09326480329036713, -0.03955204412341118, 0.06651589274406433, 0.10376351326704025, -0.11605772376060486, -0.1891890913248062, 0.003929266706109047, 0.08282595872879028, -0.04906809702515602, 0.13263605535030365, -0.24789218604564667, -0.15035191178321838, -0.06447301805019379, -0.06875380873680115, -0.060974232852458954, 0.05890516936779022, 0.0008905333233997226, -0.10344521701335907, -0.04527021944522858, -0.07865620404481888, 0.20673546195030212, 0.04527668282389641, -0.0063707949593663216, -0.15057547390460968, 0.11828894168138504, 0.18380889296531677, 0.056641656905412674, -0.046256013214588165, 0.07701143622398376, -0.16734826564788818, 0.14116615056991577, 0.23126031458377838, -0.08133506774902344, -0.1666848212480545, 0.06547795236110687, -0.023184234276413918, -0.1968402862548828, -0.1883009672164917, -0.04507134482264519, -0.06347358971834183, 0.1372978240251541, -0.09624262899160385, -0.0244537852704525, -0.03196519613265991, -0.027027739211916924, -0.002084606559947133, -0.10501190274953842, 0.16859346628189087, -0.05190855264663696, -0.27434366941452026, -0.13648024201393127, -0.10785067081451416, -0.15323275327682495, 0.04250318929553032, 0.15607978403568268, 0.2536890506744385, 0.17346353828907013, -0.23535335063934326, 0.10382116585969925, 0.17118799686431885, -0.043515682220458984, -0.09891954809427261, 0.03869505599141121, 0.12658829987049103, 0.07156490534543991, 0.09256403148174286, -0.01804950088262558, -0.050005603581666946, 0.047772716730833054, 0.10949308425188065, -0.12505897879600525, 0.0012709578732028604, -0.06538248807191849, 0.07197766751050949, 0.15469832718372345, 0.11578971892595291, -0.13124096393585205, -0.1267155259847641], [-0.19019244611263275, 0.04112061858177185, -0.16208408772945404, -0.1700541377067566, 0.0988321602344513, -0.24566492438316345, -0.19786761701107025, -0.13493536412715912, -0.05675807222723961, -0.06155599653720856, -0.04650291055440903, -0.17596426606178284, 0.10708349943161011, -0.014587859623134136, 0.020465904846787453, -0.19997087121009827, -0.1470607966184616, -0.16854089498519897, -0.09898442775011063, 0.08554472029209137, -0.16896918416023254, 0.1374482959508896, 0.10536957532167435, -0.04272419214248657, 0.11488572508096695, 0.10705385357141495, -0.07172799855470657, -0.185154989361763, 0.10789205878973007, 0.004319051280617714, -0.043188951909542084, 0.16448132693767548, -0.21863552927970886, -0.1188671886920929, -0.004240620881319046, -0.11960916221141815, -0.15775567293167114, 0.11343523859977722, 0.0058867246843874454, 0.04308681562542915, -0.008354025892913342, 0.1250683218240738, 0.1572260856628418, -0.10774988681077957, -0.052576757967472076, -0.12044878304004669, 0.15106366574764252, -0.018591981381177902, 0.1165735051035881, -0.04637689143419266, 0.12405131012201309, -0.13758347928524017, 0.14304140210151672, 0.21702654659748077, -0.16092458367347717, -0.10786126554012299, 0.0925152525305748, 0.04993024468421936, -0.2098192572593689, -0.14940892159938812, 0.08583559840917587, -0.09866806864738464, 0.13210229575634003, -0.15296296775341034, 0.03774401545524597, -0.07502788305282593, 0.10398989170789719, 0.09710543602705002, -0.03760386258363724, 0.19015491008758545, -0.1002180352807045, -0.14905758202075958, -0.08510234951972961, -0.0773063600063324, -0.05994975194334984, 0.12218154221773148, 0.19513168931007385, 0.13024957478046417, 0.1122991293668747, -0.26026853919029236, 0.07295897603034973, 0.14130590856075287, -0.10467521846294403, 0.014654465019702911, -0.017578022554516792, 0.16829121112823486, 0.05498521775007248, -0.04254378378391266, 0.040671609342098236, -0.10909625142812729, 0.07851891964673996, -0.04064565524458885, -0.1288415938615799, 0.1089911162853241, -0.16090771555900574, 0.07241320610046387, 0.19938813149929047, 0.02266392670571804, -0.15202836692333221, 0.12164048105478287], [-0.16736479103565216, 0.04959380254149437, -0.20227229595184326, 0.150926411151886, 0.09159025549888611, -0.24119146168231964, -0.13425762951374054, -0.03646669536828995, -0.09004490822553635, -0.04110794886946678, 0.09830258786678314, -0.08615225553512573, 0.04332922771573067, -0.04845032840967178, 0.06147428974509239, -0.06656074523925781, -0.17906177043914795, -0.050820834934711456, -0.0435933880507946, 0.0931646004319191, -0.19996361434459686, 0.15264466404914856, 0.13856863975524902, -0.046716295182704926, -0.1724959760904312, 0.08244480937719345, -0.10093799233436584, -0.09863133728504181, 0.06378403306007385, 0.06264910846948624, -0.07063522934913635, 0.10677503794431686, -0.24148978292942047, -0.02864525094628334, 0.11744528263807297, 0.09338320046663284, -0.17158180475234985, 0.14667454361915588, 0.0655876100063324, 0.04392598941922188, -0.06744372844696045, 0.11925411969423294, 0.09788019210100174, -0.05519773066043854, -0.016313599422574043, -0.10620040446519852, 0.14403004944324493, -0.08782742917537689, 0.14804239571094513, 0.1237124428153038, -0.1750696301460266, 0.027534933760762215, 0.07195308059453964, 0.17392703890800476, -0.17283493280410767, -0.0480123832821846, 0.09636170417070389, -0.22828097641468048, -0.1268039494752884, 0.17064638435840607, 0.10791148990392685, -0.031105462461709976, 0.08187305182218552, -0.09919296950101852, 0.07481358200311661, -0.02681131288409233, 0.10498511791229248, 0.032388560473918915, 0.05023195967078209, 0.2176307886838913, -0.17810910940170288, -0.03526175767183304, -0.13639479875564575, -0.017353439703583717, -0.11060763150453568, 0.04300432279706001, 0.16170640289783478, 0.02223093993961811, 0.07857318967580795, -0.23246678709983826, 0.0847233235836029, 0.01833297871053219, -0.12225039303302765, 0.06797933578491211, -0.010075992904603481, 0.16447152197360992, -0.0075440071523189545, 0.0039007088635116816, 0.12054520100355148, -0.11470852792263031, 0.10740330815315247, -0.021368758752942085, -0.06457970291376114, 0.0813753604888916, -0.14105282723903656, 0.06257162988185883, 0.17962023615837097, 0.0071761952713131905, -0.1281186044216156, 0.10979823023080826], [-0.05166095867753029, -0.16573527455329895, -0.15783193707466125, 0.1508132517337799, 0.1684320569038391, 0.004241081420332193, -0.13380306959152222, 0.06993158906698227, -0.07110098749399185, 0.06371648609638214, 0.1377125382423401, -0.029885483905673027, -0.0931655615568161, 0.049871280789375305, 0.08033950626850128, 0.07501017302274704, -0.17255601286888123, -0.08868010342121124, -0.0014340004418045282, 0.015449130907654762, -0.2387525886297226, 0.1084546148777008, 0.12768085300922394, -0.004001026973128319, -0.12579575181007385, 0.07501209527254105, -0.14362341165542603, -0.0490693561732769, -0.019902005791664124, 0.1368730217218399, -0.07519587874412537, 0.13821832835674286, -0.10327531397342682, 0.04841446503996849, 0.21107470989227295, 0.21890607476234436, -0.1452966034412384, 0.08396733552217484, 0.10028845071792603, 0.13473595678806305, -0.09090364724397659, 0.05214518681168556, -0.016457149758934975, -0.09023723751306534, 0.02661854214966297, -0.05252000316977501, 0.11536388099193573, -0.12328296154737473, 0.07762936502695084, 0.11152634769678116, -0.12959258258342743, -0.03958258032798767, -0.05961497128009796, 0.07119587808847427, -0.14725139737129211, 0.01198930386453867, 0.07135913521051407, -0.20907187461853027, -0.09809494763612747, 0.16584329307079315, 0.06119626760482788, 0.09513004869222641, 0.2135528028011322, -0.13747066259384155, 0.041738323867321014, -0.06751435995101929, 0.09585817158222198, 0.025826070457696915, 0.03822295740246773, 0.22441621124744415, -0.18315456807613373, 0.025290466845035553, -0.09923721104860306, 0.08044494688510895, -0.04705636575818062, -0.065433070063591, 0.07877188920974731, -0.047909706830978394, 0.07278986275196075, -0.14250855147838593, 0.10107507556676865, -0.08705263584852219, -0.018792031332850456, 0.11580387502908707, 0.10558195412158966, 0.16583934426307678, -0.015302494168281555, 0.08930293470621109, 0.13343684375286102, -0.15552692115306854, 0.014095013961195946, -0.0033062819857150316, -0.04980233311653137, -0.1322246491909027, -0.11195766925811768, 0.1622920036315918, 0.17248377203941345, -0.178463414311409, -0.1709764301776886, 0.10577715188264847], [-0.08555895835161209, -0.1855354756116867, 0.10410097241401672, 0.100339375436306, 0.20116017758846283, 0.02201194502413273, -0.08227885514497757, 0.062424223870038986, -0.05471527948975563, 0.09880463033914566, 0.15150101482868195, -0.21577709913253784, -0.16758447885513306, 0.03128461539745331, -0.04139181599020958, 0.01525033824145794, 0.057609375566244125, -0.1874888837337494, 0.05746440216898918, -0.032213132828474045, -0.029118839651346207, 0.10449124872684479, 0.13749077916145325, -0.11786220967769623, 0.022345250472426414, 0.04626360908150673, -0.1423880159854889, 0.05469217523932457, -0.14385446906089783, 0.1551816165447235, -0.08722203969955444, 0.06112488731741905, -0.06639392673969269, 0.1555616855621338, 0.21206313371658325, 0.17796266078948975, -0.21801519393920898, 0.021027471870183945, 0.1531137079000473, 0.0867701917886734, -0.061775971204042435, -0.010672085918486118, -0.0913127064704895, -0.020852435380220413, -0.016021961346268654, -0.05369788035750389, 0.08036671578884125, -0.14951294660568237, -0.2085777223110199, 0.011471215635538101, -0.07054819911718369, -0.02900702878832817, -0.06302624195814133, 0.046909380704164505, -0.1523352861404419, -0.04038775712251663, -0.12451174110174179, -0.22679932415485382, -0.03273850679397583, 0.14011648297309875, 0.03976406902074814, 0.11203842610120773, 0.15415985882282257, -0.14101696014404297, -0.015339139848947525, -0.052945055067539215, 0.09858568757772446, 0.03275659680366516, -0.0011899466626346111, 0.17742319405078888, -0.2164943814277649, 0.01915130950510502, -0.12749959528446198, 0.11614088714122772, -0.055655092000961304, -0.030825549736618996, 0.043250106275081635, -0.08021055907011032, 0.011358934454619884, -0.1375521421432495, 0.17240019142627716, -0.23279684782028198, -0.03188402205705643, 0.19117632508277893, 0.046020545065402985, -0.03795560449361801, -0.016913743689656258, 0.06337147206068039, -0.07376519590616226, -0.1515272706747055, 0.051587510854005814, 0.025381533429026604, -0.031614020466804504, -0.1139170229434967, -0.060377977788448334, 0.19276811182498932, 0.15145492553710938, -0.23080118000507355, -0.2027525156736374, 0.03223827853798866], [-0.09183128923177719, -0.19094619154930115, 0.10844343155622482, 0.05433918535709381, 0.24237437546253204, 0.04405689612030983, -0.022124487906694412, 0.1413382738828659, -0.05973202362656593, -0.19773976504802704, 0.05424319952726364, -0.20224495232105255, -0.18883156776428223, 0.14167296886444092, -0.16867108643054962, -0.04935513064265251, 0.21911686658859253, -0.22056500613689423, 0.04764021188020706, 0.0857296884059906, -0.0601179413497448, 0.09907163679599762, 0.10085319727659225, -0.2322075515985489, 0.05835814028978348, 0.017141617834568024, 0.007250250782817602, 0.11057482659816742, -0.1452772170305252, -0.03225294128060341, 0.01228208839893341, 0.048700280487537384, -0.08387535065412521, 0.2021416574716568, 0.12981495261192322, 0.12665921449661255, -0.1879706233739853, -0.02238173969089985, 0.14715023338794708, -0.09183668345212936, -0.005345200654119253, -0.07622487097978592, -0.061570748686790466, 0.023734500631690025, -0.06354179233312607, -0.024828074499964714, -0.11375057697296143, -0.0917554423213005, -0.23044323921203613, -0.1361013501882553, -0.03499796241521835, 0.04596720263361931, -0.03816493600606918, 0.114876389503479, -0.1462024450302124, -0.20292119681835175, -0.1503182351589203, -0.20394101738929749, 0.027047650888562202, 0.1242542713880539, -0.02532029338181019, 0.13968078792095184, 0.10198943316936493, -0.1955510973930359, -0.0796898901462555, -0.02945849299430847, 0.11398427933454514, 0.06643461436033249, -0.048176683485507965, 0.132793128490448, -0.110639788210392, 0.007239654194563627, -0.15567754209041595, -0.02243649773299694, -0.09930958598852158, 0.03521803393959999, -0.060157276690006256, -0.10043935477733612, 0.015348106622695923, -0.03507799655199051, 0.21657229959964752, -0.19363591074943542, 0.03555957227945328, -0.15495099127292633, -0.06972925364971161, -0.07182126492261887, 0.015133550390601158, 0.03094559535384178, -0.03148013353347778, -0.11878520995378494, 0.09632924199104309, 0.10190338641405106, 0.014757352881133556, -0.08900254964828491, 0.009675366804003716, 0.19842931628227234, 0.02007020078599453, -0.2262093871831894, -0.19093842804431915, -0.013710306026041508], [-0.12745527923107147, -0.14801277220249176, 0.06980553269386292, 0.07495583593845367, -0.12186772376298904, 0.0060299960896372795, -0.06509968638420105, -0.22903770208358765, -0.16099384427070618, -0.18613672256469727, -0.0014200833393260837, -0.15804007649421692, 0.09333273023366928, 0.098701111972332, -0.18473881483078003, -0.10867998749017715, 0.20950902998447418, -0.10829439759254456, 0.035827767103910446, 0.11169464141130447, -0.04289904609322548, -0.03458012267947197, 0.08583804219961166, -0.19760742783546448, -0.05702848732471466, -0.013727662153542042, 0.0018377086380496621, 0.14725928008556366, -0.1807929426431656, -0.05460450053215027, 0.08744298666715622, 0.009473800659179688, -0.06943316757678986, 0.214870885014534, 0.014261613599956036, 0.0718538910150528, 0.18589717149734497, 0.17115099728107452, 0.08268067240715027, -0.13992081582546234, 0.03904958814382553, -0.12030982226133347, -0.03592555597424507, 0.09488975256681442, -0.14076057076454163, -0.06252554059028625, -0.11696252226829529, -0.018024049699306488, -0.2723388075828552, -0.15660029649734497, -0.016815638169646263, 0.05059889703989029, -0.028489580377936363, 0.17150744795799255, -0.1405191719532013, -0.2253151684999466, -0.10335785895586014, -0.1913151741027832, 0.10608954727649689, 0.11856457591056824, -0.04972982406616211, 0.07213524729013443, 0.0070338440127670765, -0.10438226908445358, 0.20263466238975525, -0.0022063518408685923, 0.1361473649740219, -0.06721924990415573, 0.04017508029937744, 0.10536984354257584, -0.12979033589363098, -0.031676020473241806, -0.20558787882328033, -0.09030833095312119, -0.12899743020534515, -0.018776914104819298, -0.10192343592643738, -0.11435896903276443, -0.0014640925219282508, 0.018522202968597412, 0.21864356100559235, -0.1381523758172989, 0.02642994001507759, -0.12833596765995026, -0.03028816729784012, -0.06925781071186066, -0.01482834666967392, 0.11333735287189484, 0.08785226941108704, 0.07490371912717819, 0.1401626616716385, 0.13915105164051056, -0.09754402190446854, -0.1057329848408699, 0.0775788277387619, 0.1210315003991127, 0.014757029712200165, -0.21386995911598206, -0.18037112057209015, -0.0480787493288517], [-0.1870313584804535, -0.15947984158992767, 0.04900091513991356, 0.023936698213219643, -0.14959609508514404, -0.07520700246095657, -0.06221914291381836, -0.1935715675354004, -0.19926634430885315, -0.18584121763706207, -4.018488107249141e-05, -0.111262746155262, 0.10399266332387924, 0.029568569734692574, -0.1465957760810852, 0.01893695443868637, 0.19328521192073822, -0.09488937258720398, -0.009897573851048946, 0.08371219038963318, 0.05805295333266258, 0.0874420776963234, 0.06316904723644257, -0.20554690062999725, -0.07053077965974808, -0.06931407004594803, -0.05617178604006767, 0.21817918121814728, -0.16918900609016418, 0.00885089673101902, -0.014766654931008816, -0.051091182976961136, -0.13785973191261292, 0.15276680886745453, -0.09218701720237732, -0.03314944729208946, 0.20984573662281036, 0.160263329744339, 0.06284156441688538, 0.07682782411575317, 0.11524265259504318, 0.22682572901248932, -0.16160190105438232, 0.06053328886628151, -0.21170246601104736, -0.04705863445997238, -0.07226695865392685, 0.06987955421209335, -0.1570887565612793, -0.15379251539707184, 0.030955107882618904, 0.04310464486479759, 0.008826673030853271, 0.1618974804878235, -0.06475059688091278, -0.28318193554878235, -0.07051955163478851, -0.12351332604885101, 0.11217077821493149, -0.04259629175066948, -0.055945154279470444, 0.03800448402762413, -0.1586705893278122, -0.02680397592484951, 0.2497594654560089, 0.00804066564887762, 0.10983449965715408, -0.13844135403633118, 0.09368587285280228, 0.07742703706026077, -0.1718573272228241, -0.03429009020328522, -0.19134677946567535, -0.16625069081783295, -0.10340459644794464, 0.003227613866329193, -0.13710740208625793, -0.0644698366522789, 0.21430718898773193, 0.009888741187751293, 0.2322542369365692, -0.04862090200185776, -0.02855711244046688, -0.05967475101351738, -0.009017903357744217, 0.0075926282443106174, -0.040565043687820435, -0.08548202365636826, 0.1378314048051834, 0.04775908961892128, -0.053286291658878326, 0.09399989247322083, -0.1353369653224945, -0.18006989359855652, -0.0394289568066597, -0.19274577498435974, -0.14576388895511627, -0.0925181582570076, -0.12049812823534012, -0.0737510547041893], [-0.09681243449449539, -0.10603534430265427, 0.26197344064712524, -0.02385444939136505, -0.15512244403362274, -0.08731213212013245, -0.0815412849187851, -0.19785408675670624, -0.15190373361110687, -0.18110787868499756, 0.02981763891875744, -0.07936199754476547, 0.07200244069099426, 0.006434070412069559, -0.1274111419916153, -0.025669941678643227, 0.18768903613090515, 0.013086112216114998, -0.004861152730882168, 0.022018425166606903, 0.004568904172629118, 0.12576359510421753, -0.04036334529519081, -0.11163769662380219, -0.2516867518424988, 0.12795855104923248, -0.12762682139873505, 0.22255761921405792, -0.11330323666334152, -0.025702502578496933, -0.000528912409208715, -0.08957026898860931, -0.15251505374908447, 0.08632714301347733, -0.12484238296747208, -0.09333011507987976, 0.14633402228355408, 0.14531832933425903, 0.051844410598278046, 0.06776893138885498, 0.1313788741827011, 0.21111755073070526, -0.16725784540176392, 0.0008525527082383633, -0.18721820414066315, -0.13061130046844482, -0.01691071130335331, 0.10489767044782639, -0.13423502445220947, -0.14488013088703156, 0.08679983019828796, 0.02509438619017601, -0.03912772610783577, 0.12200871855020523, -0.04488066956400871, -0.25506556034088135, 0.06327378004789352, -0.08725742995738983, 0.03594033420085907, -0.1324922889471054, -0.12618182599544525, 0.012679260224103928, -0.18783171474933624, 0.06250119209289551, 0.2505235970020294, 0.0929645225405693, -0.15159836411476135, -0.07018625736236572, 0.047341905534267426, 0.1404203474521637, -0.016088047996163368, 0.12224476039409637, -0.12949234247207642, -0.0873764380812645, -0.18118397891521454, -0.02830030769109726, -0.1506357491016388, 0.15820632874965668, 0.18849867582321167, -0.0067825922742486, 0.2194184511899948, -0.006670038215816021, 0.03037690557539463, 0.028048846870660782, 0.1226595938205719, 0.034248221665620804, -0.09467609226703644, -0.10004454106092453, 0.15290164947509766, -0.030981291085481644, -0.05056268349289894, -0.07530170679092407, -0.10032161325216293, -0.17925070226192474, -0.0034124788362532854, -0.22157292068004608, -0.16011513769626617, -0.014416887424886227, -0.14659462869167328, -0.06066907197237015], [-0.06295713782310486, -0.03298499807715416, 0.254106730222702, 0.015298701822757721, -0.0935492292046547, -0.1256180703639984, -0.13974028825759888, -0.12492825835943222, -0.14791670441627502, -0.009085043333470821, 0.05878502130508423, -0.01479826495051384, -0.05630197748541832, -0.022418063133955002, -0.11668650805950165, -0.0594048872590065, 0.14731374382972717, -0.010909941047430038, -0.002652448834851384, -0.06805670261383057, -0.02334766276180744, 0.059233345091342926, -0.08470994979143143, 0.01673855632543564, -0.22310055792331696, 0.11630741506814957, -0.1395413875579834, 0.07768421620130539, -0.09081023931503296, -0.1046779528260231, 0.030992085114121437, -0.1040472760796547, -0.210736945271492, -0.019435200840234756, -0.03740895166993141, -0.13397254049777985, 0.04262310639023781, 0.09568370878696442, 0.06422387063503265, -0.005753031466156244, 0.15624430775642395, 0.147658571600914, -0.10038590431213379, 0.028538566082715988, -0.14082883298397064, -0.10833054780960083, 0.11418881267309189, 0.18457728624343872, -0.08471973985433578, -0.10285678505897522, 0.1250612437725067, 0.004211915656924248, -0.15095314383506775, 0.10839753597974777, -0.04858068376779556, -0.22533193230628967, 0.17469476163387299, -0.016408948227763176, 0.06150088459253311, 0.1617431342601776, -0.1703023910522461, -0.08620389550924301, -0.1755383163690567, 0.05218399316072464, 0.25624901056289673, 0.15658000111579895, -0.14059022068977356, -0.16418206691741943, 0.03489868342876434, 0.1610395461320877, 0.06235996633768082, 0.12419990450143814, -0.0863012745976448, 0.027451761066913605, -0.20707575976848602, -0.07517688721418381, -0.1634558141231537, 0.14144569635391235, 0.1719459444284439, -0.020757557824254036, -0.18346641957759857, -0.07973359525203705, 0.03003915585577488, 0.10881441831588745, 0.14377492666244507, 0.07562825083732605, 0.20283135771751404, -0.06032269448041916, 0.1306852400302887, 0.0880303904414177, 0.0009458434651605785, -0.08903036266565323, 0.02349383570253849, -0.14850589632987976, 0.0216233991086483, -0.23646381497383118, -0.17699284851551056, 0.06081134453415871, -0.2080928236246109, -0.03891231492161751], [-0.03824782371520996, -0.02030518837273121, 0.2500447630882263, -0.06710216403007507, -0.05280384421348572, -0.09261749684810638, -0.07556109130382538, -0.024397121742367744, -0.07804828137159348, 0.08569424599409103, 0.07405004650354385, 0.04979206621646881, -0.06209167465567589, 0.1766364574432373, -0.13942047953605652, -0.08146946132183075, 0.09836550056934357, -0.10509482771158218, -0.014072463847696781, -0.08128656446933746, 0.19680725038051605, 0.023237140849232674, -0.0492660291492939, -0.053277164697647095, -0.17142905294895172, 0.02076634019613266, 0.009911376051604748, -0.017036087810993195, -0.04511217772960663, -0.1246129646897316, 0.06636013090610504, -0.10089870542287827, 0.12485624104738235, 0.014311456121504307, 0.00037825654726475477, -0.13634762167930603, 0.00557263009250164, 0.10470398515462875, 0.10986639559268951, -0.10399410128593445, 0.14012223482131958, -0.06786297261714935, -0.13888196647167206, -0.014315303415060043, -0.10343628376722336, -0.041455719619989395, 0.13206814229488373, 0.1720525473356247, -0.057030413299798965, -0.1564529687166214, 0.06565692275762558, -0.02174508012831211, -0.16474072635173798, 0.1163284182548523, -0.034435685724020004, -0.2195691466331482, 0.2200501263141632, -0.025485241785645485, 0.0002950888010673225, 0.14496810734272003, 0.17516057193279266, 0.017720362171530724, -0.07270627468824387, 0.05640685558319092, 0.18625059723854065, 0.17241238057613373, -0.07353044301271439, -0.13151323795318604, 0.0397794172167778, 0.0723901093006134, 0.06373496353626251, -0.040033239871263504, -0.20860792696475983, 0.05000247061252594, -0.2054971158504486, 0.12328599393367767, -0.20440292358398438, 0.056948740035295486, 0.13927653431892395, -0.09473889321088791, -0.21098290383815765, -0.07658376544713974, 0.09005164355039597, 0.1530366986989975, 0.04311339557170868, 0.06277014315128326, 0.17284876108169556, -0.034154899418354034, -0.10350461304187775, 0.1482975333929062, 0.027983006089925766, -0.09675782173871994, 0.1630912572145462, -0.1057148277759552, 0.06637515872716904, -0.23343868553638458, -0.20490103960037231, 0.06137630343437195, -0.22945520281791687, -0.04452089965343475], [0.022305507212877274, 0.038149986416101456, 0.23334260284900665, -0.11807960271835327, -0.0025312972720712423, 0.11762303858995438, -0.11639678478240967, 0.07895751297473907, -0.028985055163502693, 0.09091690927743912, 0.09921150654554367, 0.06910444796085358, -0.06883956491947174, 0.14949440956115723, -0.21166366338729858, -0.09375463426113129, 0.07821965962648392, -0.15965017676353455, -0.05341016873717308, -0.1194872185587883, 0.1621042937040329, -0.1533610224723816, -0.05979999154806137, -0.13781526684761047, -0.09492569416761398, -0.012205629609525204, -0.02435087412595749, 0.04578664153814316, -0.005375246051698923, -0.1215120181441307, 0.03982922434806824, 0.18762889504432678, 0.12197303026914597, 0.033760908991098404, -0.052187979221343994, -0.109418123960495, -0.019505800679326057, 0.05319646745920181, 0.1542428433895111, -0.10625755041837692, 0.0404168926179409, -0.10471613705158234, -0.09886819869279861, -0.12338301539421082, -0.039354950189590454, -0.04652576521039009, 0.21296720206737518, 0.07024630904197693, -0.021120507270097733, -0.1914043128490448, 0.06889405101537704, -0.009980580769479275, -0.17781268060207367, 0.08625268936157227, -0.10393748432397842, -0.1983335167169571, 0.2265787124633789, 0.04265448823571205, 0.014492260292172432, 0.08326137065887451, 0.11680290848016739, 0.03666728362441063, -0.04958254098892212, -0.21754121780395508, 0.1218898743391037, 0.13636602461338043, -0.06635250896215439, 0.03862028196454048, 0.025809457525610924, -0.04022883623838425, 0.06283584982156754, 0.01961643248796463, -0.23954035341739655, 0.04636576026678085, -0.1691771000623703, -0.01980424113571644, -0.22900153696537018, 0.02360599674284458, 0.06781607866287231, -0.10348877310752869, -0.14655321836471558, -0.09638212621212006, 0.08757750689983368, 0.1397942751646042, -0.06928732991218567, 0.05438010394573212, 0.1971260905265808, -0.16881179809570312, -0.030626418069005013, 0.15214267373085022, 0.05259807035326958, -0.011580787599086761, 0.1741342395544052, -0.05206713452935219, 0.04401295259594917, -0.2695455253124237, -0.18024151027202606, 0.19846762716770172, -0.19641192257404327, -0.13389883935451508], [0.047899432480335236, 0.029644828289747238, 0.18789179623126984, -0.15033265948295593, -0.037108778953552246, 0.13818994164466858, -0.1507251113653183, 0.14463740587234497, -0.0997103825211525, -0.2066107541322708, 0.1386755406856537, -0.1531754583120346, -0.0656047984957695, 0.115991972386837, -0.21880684792995453, 0.020601622760295868, -0.007724786642938852, -0.19884490966796875, -0.04267778992652893, 0.047326188534498215, -0.02462800219655037, -0.12310018390417099, -0.040832266211509705, -0.22844670712947845, -0.04305648431181908, -0.07953581213951111, -0.08653777092695236, 0.05148022249341011, -0.021480487659573555, -0.052673935890197754, -0.026260560378432274, 0.21965737640857697, 0.0695091262459755, 0.09381487220525742, -0.1646573543548584, 0.0017980271950364113, 0.003971020691096783, -0.04901261255145073, 0.16817423701286316, -0.1115533784031868, -0.0043984055519104, -0.1620364785194397, 0.10795813798904419, -0.04425647482275963, -0.009452025406062603, 0.03535151109099388, 0.2175525724887848, -0.03147973120212555, 0.07715624570846558, -0.1239200159907341, 0.10685069113969803, -0.07538478076457977, -0.1962868571281433, 0.05495058000087738, -0.07706186175346375, -0.17093990743160248, 0.2718927264213562, 0.07987383753061295, 0.08430583775043488, -0.009735112078487873, 0.04292694106698036, 0.07364009320735931, 0.02080099657177925, -0.26979750394821167, 0.10757530480623245, -0.04397075995802879, -0.12774236500263214, 0.06881682574748993, -0.07235980033874512, -0.050825320184230804, 0.03187112137675285, 0.015894271433353424, -0.18455955386161804, -0.202340230345726, -0.16825518012046814, 0.07574839890003204, -0.27099472284317017, -0.003328899387270212, 0.09430082142353058, -0.12296456098556519, 0.09038309752941132, -0.07395058125257492, 0.06341254711151123, 0.14275193214416504, -0.06949669122695923, -0.20691026747226715, 0.21390612423419952, -0.16274026036262512, 0.07166542112827301, 0.11549224704504013, 0.037396129220724106, 0.18114927411079407, 0.1714344173669815, -0.01835820823907852, 0.10070376098155975, -0.25022873282432556, -0.1456001251935959, 0.22340820729732513, 0.09836437553167343, -0.15555676817893982], [0.10388634353876114, -0.03372175619006157, 0.1518050581216812, -0.08856038004159927, -0.046132829040288925, 0.06881289929151535, 0.1303217113018036, 0.19330263137817383, -0.15037256479263306, -0.12287697941064835, 0.17568819224834442, -0.11810171604156494, -0.1004975438117981, 0.008796975016593933, 0.13904663920402527, -0.04299258068203926, -0.15388230979442596, -0.2063341587781906, -0.10391584783792496, -0.03236095979809761, -0.11799950152635574, -0.06787649542093277, 0.01185787096619606, 0.16780246794223785, -0.013623596169054508, -0.05254070833325386, -0.14296360313892365, 0.053085099905729294, -0.003169942181557417, -0.012273265048861504, -0.03706422075629234, 0.1604442447423935, 0.01305141020566225, 0.16752703487873077, -0.16228395700454712, 0.14894111454486847, 0.044727761298418045, -0.17739365994930267, 0.13394100964069366, -0.10215361416339874, 0.015775613486766815, -0.09513188153505325, 0.16370613873004913, 0.10064562410116196, -0.06453640013933182, 0.13714499771595, -0.11672565340995789, 0.042323265224695206, 0.1542016863822937, 0.1457935869693756, 0.07099727541208267, -0.08880067616701126, -0.10848212987184525, 0.021873360499739647, 0.11884193867444992, -0.21242448687553406, 0.21806390583515167, 0.1155509278178215, 0.11209449172019958, -0.07895772904157639, 0.02308027446269989, 0.11314938962459564, -0.005706559866666794, -0.24477490782737732, 0.04384779930114746, -0.08141876012086868, -0.11803895980119705, 0.02224958874285221, -0.1476932018995285, 0.024125143885612488, -0.10764691978693008, -0.14005868136882782, -0.1397554725408554, -0.16994722187519073, -0.19925814867019653, -0.03242625668644905, -0.25126218795776367, -0.05326290428638458, 0.09240510314702988, -0.043030887842178345, 0.14488017559051514, -0.004685594700276852, 0.16162998974323273, 0.15756922960281372, -0.000847421120852232, -0.1796184629201889, 0.16461263597011566, -0.07256641983985901, -0.11204399168491364, 0.10018551349639893, 0.0684078186750412, 0.11650400608778, 0.16660675406455994, 0.1072242259979248, 0.12559863924980164, -0.04603629931807518, -0.1635318249464035, 0.22133122384548187, 0.12327875196933746, 0.03901359811425209], [0.14096027612686157, -0.07465415447950363, 0.12456803023815155, -0.025593755766749382, -0.03354475647211075, -0.06034907326102257, 0.13959944248199463, 0.10615536570549011, -0.14828723669052124, -0.08132615685462952, 0.18648654222488403, -0.07920649647712708, -0.13281254470348358, -0.06231280043721199, 0.14755837619304657, -0.04659407213330269, -0.20687495172023773, -0.06802000105381012, -0.10624975711107254, 0.011196732521057129, -0.19617655873298645, -0.0716659352183342, 0.04343675449490547, 0.11847509443759918, -0.04970615729689598, -0.08122636377811432, -0.19918392598628998, 0.0540158674120903, -0.009180357679724693, -0.007062091957777739, 0.09549517184495926, 0.15313535928726196, -0.03958715870976448, -0.02756134793162346, -0.14261817932128906, 0.09836915135383606, 0.04710187762975693, -0.1870521903038025, -0.12471060454845428, -0.09738117456436157, 0.046213552355766296, 0.023278480395674706, 0.1869693100452423, 0.19985699653625488, -0.05898779630661011, -0.01521767396479845, -0.15298323333263397, 0.01940816640853882, 0.20664915442466736, 0.16190794110298157, 0.10246564447879791, -0.10389091819524765, -0.01662338338792324, -0.02548087202012539, 0.1351546347141266, 0.020426759496331215, 0.22958798706531525, 0.16368307173252106, 0.17732834815979004, -0.1346779763698578, -0.05413176119327545, 0.13209028542041779, 0.024326534941792488, -0.1592651754617691, 0.021875865757465363, 0.0285747479647398, -0.14560967683792114, 0.07622549682855606, -0.19888067245483398, 0.1743616759777069, -0.14305949211120605, -0.1571349799633026, 0.016665775328874588, -0.1325712651014328, -0.1980287879705429, 0.11777009814977646, -0.18569324910640717, -0.10588810592889786, 0.08289192616939545, -0.12242337316274643, 0.05303969979286194, 0.04575561732053757, 0.09650607407093048, 0.17825885117053986, -0.037962041795253754, -0.20083732903003693, 0.13637350499629974, -0.06352865695953369, -0.2207840532064438, 0.07068169862031937, 0.12314508110284805, 0.10960281640291214, 0.16373540461063385, 0.06198718771338463, 0.13608603179454803, -0.05861677974462509, -0.1345052719116211, 0.12027453631162643, 0.08482755720615387, 0.0748329758644104], [0.14240750670433044, -0.1365332305431366, 0.11483421921730042, 0.12031769007444382, -0.017663124948740005, -0.05460987240076065, 0.08277885615825653, 0.01255335658788681, -0.1432756930589676, -0.058507584035396576, 0.13686144351959229, -0.02646687440574169, 0.18051780760288239, -0.1073792353272438, 0.09560183435678482, -0.08242778480052948, -0.2642596662044525, 0.08912757784128189, -0.042353685945272446, 0.11664918810129166, -0.2035662829875946, -0.07210806757211685, 0.07560132443904877, 0.04145997017621994, -0.07928098738193512, 0.03843435272574425, -0.23175016045570374, -0.010699566453695297, -0.008876833133399487, -0.014871648512780666, 0.003947095945477486, 0.14256028831005096, -0.09852445125579834, -0.2187056839466095, -0.06348124891519547, 0.04271484538912773, -0.04071114957332611, -0.2400083839893341, -0.11717600375413895, 0.05511941760778427, 0.0282293614000082, 0.09895619004964828, 0.11811631172895432, 0.0597580187022686, -0.06876552850008011, 0.04319896548986435, 0.10193701833486557, 0.024366581812500954, 0.24148482084274292, 0.15319588780403137, 0.15833495557308197, -0.13985635340213776, 0.020826751366257668, -0.05697553977370262, -0.02281874418258667, 0.0998639389872551, 0.1868407279253006, -0.053225357085466385, 0.21551962196826935, 0.025416269898414612, -0.090394526720047, 0.08802981674671173, -0.00357286655344069, -0.15669819712638855, 0.16165636479854584, 0.06892476230859756, -0.1552162617444992, 0.02594045363366604, -0.20568139851093292, 0.18946078419685364, 0.13235671818256378, -0.1420181840658188, 0.07985025644302368, -0.20039144158363342, -0.20984548330307007, 0.03730211406946182, -0.14286398887634277, -0.08786100149154663, 0.11116612702608109, -0.1428057700395584, 0.08913753926753998, 0.10528378933668137, 0.010933584533631802, -0.12300284951925278, -0.09943930804729462, -0.15422087907791138, 0.06703439354896545, -0.1381562054157257, -0.1746264547109604, -0.055611640214920044, 0.12455610930919647, 0.07450663298368454, 0.18712982535362244, 0.0786447674036026, 0.11042796820402145, -0.10657570511102676, -0.2029493898153305, 0.06802638620138168, 0.08817926049232483, 0.0923304632306099], [0.10526040941476822, -0.1233137845993042, 0.0403139591217041, 0.0634954646229744, 0.06847727298736572, -0.038933075964450836, 0.039380982518196106, 0.10184977948665619, -0.14676810801029205, 0.0482637956738472, -0.06344364583492279, -0.03991231322288513, 0.2045413851737976, -0.17808519303798676, -0.049810606986284256, 0.15199977159500122, -0.12949778139591217, 0.11479464173316956, 0.09241087734699249, 0.1432148963212967, -0.22598983347415924, -0.007117895875126123, 0.14713969826698303, -0.04034492373466492, -0.09790617972612381, 0.050599176436662674, -0.004683501087129116, 0.05325724184513092, -0.1603328138589859, 0.016435323283076286, 0.0798613652586937, 0.0878354161977768, -0.1750660240650177, -0.20643316209316254, 0.11425073444843292, 0.033499233424663544, 0.010266270488500595, 0.17168563604354858, -0.07964710146188736, -0.005293697584420443, -0.09566087275743484, 0.0941692665219307, -0.016784867271780968, 0.1113867312669754, -0.03682910278439522, 0.14264290034770966, 0.06811415404081345, 0.02565048635005951, 0.23511505126953125, 0.10475324094295502, 0.14922916889190674, -0.15254488587379456, -0.03588525578379631, -0.032771043479442596, -0.03358176350593567, 0.07371944189071655, 0.20030446350574493, -0.0030778045766055584, 0.1711333990097046, -0.0017922227270901203, -0.1576710045337677, 0.054822809994220734, -0.03851614519953728, -0.15758752822875977, 0.17281559109687805, 0.08791422098875046, -0.16272509098052979, -0.033264052122831345, -0.17173437774181366, 0.08894207328557968, 0.05290301516652107, 0.19006142020225525, 0.156622052192688, -0.2169373482465744, -0.0015371310291811824, -0.04911224544048309, -0.07542427629232407, -0.138570174574852, 0.10866708308458328, -0.1323198676109314, -0.23684707283973694, 0.08436305820941925, -0.06363923102617264, -0.12393653392791748, 0.09766742587089539, -0.1415577381849289, -0.11468188464641571, -0.03987879678606987, -0.08208771049976349, -0.1280042976140976, -0.2497415691614151, 0.04505759850144386, 0.17161540687084198, 0.031017467379570007, 0.11469440907239914, -0.08979182690382004, -0.2308342456817627, -0.1290370374917984, -0.04927048087120056, 0.05607445910573006], [-0.05300799012184143, -0.0635078102350235, -0.03311562165617943, -0.0145691754296422, 0.0308738574385643, 0.010755904950201511, -0.018205808475613594, 0.13659769296646118, 0.01701541803777218, 0.11637230217456818, -0.06177062168717384, 0.0055871144868433475, 0.17495211958885193, -0.10975627601146698, 0.045152053236961365, 0.12457220256328583, 0.052351295948028564, 0.07397200167179108, 0.12536028027534485, 0.12128575146198273, -0.25774264335632324, 0.05436118319630623, 0.18782374262809753, -0.04144120216369629, -0.08160486072301865, -0.005438811611384153, -0.017687419429421425, 0.13116039335727692, -0.19665786623954773, 0.028872137889266014, 0.01219204068183899, -0.014134330675005913, -0.2305298000574112, -0.20257407426834106, 0.12306305766105652, 0.0058391401544213295, 0.11664808541536331, 0.13675200939178467, -0.14311014115810394, -0.06017392873764038, -0.11818846315145493, 0.06583719700574875, -0.02771631069481373, -0.08332096040248871, 0.04315117374062538, 0.2261725664138794, 0.03193575143814087, 0.117745041847229, 0.14485983550548553, 0.015022654086351395, -0.006565827876329422, -0.12037704139947891, -0.08645690977573395, 0.015215801075100899, 0.043073929846286774, -0.07152474671602249, 0.10550551116466522, 0.07032563537359238, 0.13609176874160767, -0.04183370620012283, -0.027293235063552856, -0.006047870498150587, -0.01701045222580433, -0.1593269407749176, 0.14842447638511658, 0.18062984943389893, -0.0649159848690033, 0.03682088106870651, 0.07631361484527588, 0.07004160434007645, 0.01723434217274189, 0.2025316059589386, 0.18315967917442322, -0.16352778673171997, 0.0005552330403588712, -0.06309506297111511, -0.034257810562849045, -0.17178352177143097, 0.13138623535633087, 0.18477514386177063, -0.2082882523536682, -0.02327457256615162, -0.15070471167564392, -0.05256985127925873, 0.03567241132259369, -0.12767590582370758, -0.1612115204334259, 0.06530441343784332, 0.03933916985988617, -0.08007491379976273, -0.25073811411857605, 0.13012148439884186, 0.21135374903678894, 0.07026098668575287, 0.05881941691040993, 0.21344858407974243, -0.19759111106395721, -0.1890724003314972, -0.08655877411365509, 0.013959633186459541], [-0.2148396521806717, 0.11016339063644409, -0.12272995710372925, 0.039112962782382965, 0.05697612464427948, 0.09601756930351257, 0.04362925887107849, 0.15269048511981964, 0.17035338282585144, 0.21646195650100708, 0.13592059910297394, -0.11570186913013458, 0.05956654250621796, -0.06897792965173721, -0.06349866837263107, -0.04580070823431015, -0.006658658385276794, 0.07828878611326218, 0.11233076453208923, 0.15675142407417297, 0.027195319533348083, 0.04539420083165169, 0.09671087563037872, -0.009071731939911842, -0.18046216666698456, -0.09588014334440231, 0.06733806431293488, 0.18842269480228424, -0.20069795846939087, -0.0317431278526783, 0.002080764388665557, -0.0798068642616272, -0.21615098416805267, -0.195351243019104, 0.06277623772621155, -0.08382303267717361, 0.15779228508472443, -0.01141493022441864, -0.1683051586151123, -0.11002212762832642, -0.17708458006381989, -0.02573661506175995, 0.13251270353794098, -0.07597625255584717, 0.06590233743190765, -0.04256310686469078, 0.05956481024622917, 0.176674947142601, 0.0104529382660985, 0.023526810109615326, 0.03965841606259346, 0.07037213444709778, -0.15102416276931763, 0.060777220875024796, 0.13976483047008514, -0.0227687768638134, 0.0480801947414875, 0.1297944337129593, 0.052176449447870255, -0.1386425644159317, 0.013850303366780281, 0.04674520343542099, -0.037286803126335144, -0.16202940046787262, 0.027947276830673218, 0.19884921610355377, 0.07422460615634918, 0.09187249094247818, 0.13821424543857574, -0.024938911199569702, 0.11448405683040619, 0.22640080749988556, 0.11358541250228882, -0.09087114036083221, -0.07798480987548828, 0.0656677633523941, 0.10876473039388657, -0.05280561000108719, 0.05626165494322777, 0.26134833693504333, -0.15144532918930054, 0.0037816681433469057, -0.17260107398033142, 0.06895358115434647, 0.024859614670276642, 0.10281971842050552, -0.12398850917816162, 0.17775605618953705, 0.11787429451942444, 0.04544493556022644, -0.2877725660800934, 0.11620642244815826, 0.08055836707353592, -0.032033950090408325, -0.06468809396028519, 0.19275103509426117, -0.10206288844347, -0.18912003934383392, -0.009621303528547287, -0.09830069541931152], [-0.24170954525470734, 0.1688118577003479, -0.099197156727314, -0.006463880185037851, 0.119823157787323, 0.07935447990894318, 0.17188353836536407, 0.15738670527935028, 0.18952739238739014, 0.15883055329322815, 0.13452407717704773, -0.11102575063705444, 0.01487547717988491, -0.05736084654927254, -0.08123411238193512, -0.04628457501530647, -0.03663335740566254, 0.035714924335479736, 0.11495446413755417, 0.15354681015014648, -0.02711283601820469, -0.04929263889789581, 0.10326256603002548, 0.017137933522462845, -0.07930994033813477, -0.11391976475715637, 0.05320299416780472, 0.008496254682540894, -0.2065567821264267, -0.053269289433956146, 0.02856946922838688, 0.017574189230799675, 0.19508971273899078, -0.19748984277248383, 0.13026612997055054, -0.14348798990249634, 0.11123953014612198, -0.021370990201830864, -0.16243480145931244, -0.1776767373085022, -0.1505628526210785, -0.06644514203071594, 0.026845036074519157, -0.11485780775547028, 0.027243182063102722, -0.22612866759300232, 0.054418034851551056, 0.23408210277557373, 0.04618702456355095, 0.08678454160690308, -0.16166335344314575, 0.14915797114372253, 0.029966410249471664, 0.02013230137526989, 0.15186624228954315, 0.05284842848777771, 0.11554024368524551, -0.1332191824913025, 0.06450022011995316, -0.16961348056793213, -0.052689328789711, -0.04258552938699722, -0.08108347654342651, -0.14261460304260254, -0.10957112908363342, 0.07892587780952454, 0.09870488941669464, 0.07397298514842987, 0.1610511988401413, -0.0027716276235878468, 0.07881388813257217, 0.19347353279590607, -0.1978851854801178, -0.3189898431301117, -0.04479527100920677, -0.07828275114297867, 0.08894990384578705, -0.06897298991680145, 0.047652386128902435, 0.2165561318397522, -0.09469930082559586, 0.03750188276171684, 0.13917525112628937, 0.12042545527219772, 0.10106299817562103, 0.07924153655767441, -0.08371464908123016, -0.06353426724672318, -0.11214147508144379, 0.012435367330908775, -0.22885580360889435, 0.050337452441453934, 0.11071690917015076, -0.09429948031902313, -0.08656726777553558, 0.20626933872699738, -0.11750204861164093, -0.18602070212364197, -0.042929574847221375, -0.10541917383670807], [-0.20611128211021423, 0.21982787549495697, -0.10906331241130829, -0.07762731611728668, 0.15906792879104614, 0.19572196900844574, 0.18494637310504913, 0.112977534532547, 0.16218648850917816, 0.11814376711845398, 0.11791422963142395, -0.05463622882962227, -0.013857034035027027, -0.09853291511535645, -0.11599185317754745, 0.06046249344944954, -0.04687657579779625, 0.0017377212643623352, 0.02377394400537014, 0.057664256542921066, -0.038897667080163956, -0.16432195901870728, 0.04813132435083389, 0.03158639743924141, -0.0084624532610178, 0.21630772948265076, 0.15414710342884064, 0.04648302495479584, 0.15139971673488617, -0.04621231555938721, -0.09293418377637863, 0.06396935880184174, 0.13715584576129913, -0.15566787123680115, 0.16570739448070526, 0.1625698357820511, 0.10420017689466476, -0.09870599210262299, -0.17183928191661835, -0.21447941660881042, -0.15545204281806946, -0.1464284360408783, 0.011429673992097378, -0.13108037412166595, -0.2005612850189209, -0.2426324486732483, 0.04833497852087021, 0.06848695129156113, -0.013056104071438313, 0.1448918879032135, -0.06508807837963104, 0.14585253596305847, 0.011061076074838638, -0.05085975304245949, 0.14237765967845917, 0.12148917466402054, 0.09354803711175919, -0.14513859152793884, 0.05078152194619179, -0.2253352403640747, -0.04213862493634224, -0.0011248118244111538, -0.09461405873298645, -0.09584358334541321, -0.13203942775726318, 0.06678226590156555, 0.21559295058250427, 0.0794263705611229, -0.06778105348348618, -0.07521617412567139, 0.058001723140478134, 0.20236149430274963, -0.18479427695274353, -0.25020137429237366, -0.05068635568022728, -0.030226174741983414, 0.03796473890542984, -0.0559626966714859, -0.0336492545902729, 0.14880335330963135, -0.01893782988190651, 0.12049119919538498, 0.10605466365814209, -0.14928428828716278, 0.06780001521110535, 0.0005708584212698042, 0.18283069133758545, -0.01639702543616295, -0.07686381787061691, 0.04126070812344551, -0.17362597584724426, -0.011888851411640644, 0.12250228971242905, 0.03868509829044342, -0.17912283539772034, 0.13961587846279144, -0.14768186211585999, -0.15118743479251862, 0.04906122758984566, -0.11937934905290604], [0.1295226514339447, 0.11986294388771057, -0.0884564071893692, -0.10887925326824188, 0.17392708361148834, 0.21726225316524506, 0.18414542078971863, 0.15673205256462097, 0.13191619515419006, 0.07724468410015106, 0.10083860903978348, -0.03428158909082413, 0.012888103723526001, -0.1022532656788826, 0.034330591559410095, 0.07441134005784988, -0.01634526439011097, -0.018702080473303795, -0.04970822483301163, -0.008403423242270947, -0.052015289664268494, -0.13465048372745514, -0.18073710799217224, 0.026918042451143265, 0.0848928764462471, 0.1904711127281189, 0.14698323607444763, 0.09351301193237305, 0.1844147890806198, -0.017461957409977913, -0.08996271342039108, 0.05929603800177574, 0.0670064240694046, -0.1849183887243271, -0.10595466196537018, 0.118840791285038, 0.17379838228225708, -0.17874722182750702, -0.17683438956737518, 0.06182083114981651, -0.17509764432907104, -0.20239868760108948, -0.048026181757450104, -0.07806646078824997, -0.20528395473957062, -0.20452621579170227, 0.05422215908765793, -0.05285623297095299, -0.012512238696217537, 0.007205497939139605, 0.021873509511351585, 0.13552217185497284, -0.0744873434305191, -0.05500224232673645, 0.021013086661696434, -0.18071040511131287, 0.17944252490997314, -0.11418479681015015, 0.05216290056705475, -0.19320140779018402, -0.0008863052353262901, 0.06157955154776573, -0.11487125605344772, -0.14833420515060425, -0.12527652084827423, 0.023575572296977043, 0.26799944043159485, 0.16505858302116394, -0.12820985913276672, -0.06307557225227356, -0.0029265689663589, -0.02984972484409809, -0.16690564155578613, -0.16461315751075745, -0.09794522076845169, 0.0455918125808239, -0.008195197209715843, -0.050369150936603546, -0.11307711154222488, -0.013243862427771091, 0.08351999521255493, 0.18989931046962738, 0.059270311146974564, -0.18350955843925476, -0.10790318995714188, -0.0653902068734169, 0.1355561912059784, 0.06915569305419922, 0.0782928392291069, 0.031591154634952545, -0.15516403317451477, -0.013688256964087486, 0.1808939278125763, 0.11978095024824142, -0.14428843557834625, 0.17644168436527252, -0.17430348694324493, -0.12761376798152924, 0.13547208905220032, -0.08133456110954285], [0.07457160204648972, 0.05698316544294357, -0.1039000153541565, 0.17675283551216125, 0.19827455282211304, 0.1319756954908371, 0.0994424894452095, 0.14158718287944794, 0.16192947328090668, 0.03925039991736412, 0.10390080511569977, -0.02408657968044281, -0.048721328377723694, -0.11644670367240906, -0.021829897537827492, -0.04897405952215195, 0.1464102864265442, 0.19056889414787292, -0.14796432852745056, 0.09239819645881653, -0.09482526779174805, -0.15742070972919464, -0.15017947554588318, 0.06670558452606201, 0.16431866586208344, 0.1548643559217453, 0.1386413872241974, 0.19206199049949646, 0.15073534846305847, -0.04164430499076843, -0.14510346949100494, 0.053983304649591446, 0.2681606709957123, -0.07878218591213226, -0.023655515164136887, -0.006658076774328947, 0.1487198770046234, -0.1668722927570343, -0.1463678926229477, 0.07839970290660858, -0.12714141607284546, -0.21300441026687622, 0.06612090766429901, -0.05892101302742958, -0.16077673435211182, -0.17831940948963165, 0.0023298626765608788, 0.058740224689245224, -0.0670693889260292, -0.022619346156716347, -0.16382427513599396, 0.10197053849697113, 0.0410020537674427, 0.03273114934563637, -0.17605280876159668, -0.15205153822898865, -0.02026594989001751, -0.056298740208148956, 0.08963920176029205, -9.698014036985114e-05, -0.02853509783744812, 0.001939319889061153, -0.10187787562608719, -0.11525225639343262, -0.12279906868934631, 0.05844578891992569, 0.07024772465229034, -0.11631371825933456, -0.06526768207550049, -0.03534230962395668, -0.11414136737585068, -0.07331042736768723, -0.10251189768314362, -0.052844446152448654, -0.14588123559951782, -0.05780594423413277, -0.0376727394759655, -0.10766228288412094, -0.05248420313000679, -0.07773648947477341, 0.08873790502548218, -0.19370466470718384, 0.07526583224534988, -0.11554712057113647, -0.14929842948913574, -0.191491037607193, 0.04070601984858513, 0.0011660822201520205, 0.01509376522153616, -0.02550595998764038, -0.15964846312999725, 0.021408414468169212, 0.13984879851341248, 0.14483091235160828, -0.15435539186000824, 0.12185890227556229, -0.19405439496040344, -0.08999158442020416, 0.14410388469696045, -0.07435968518257141], [-0.030543522909283638, 0.09275846928358078, -0.11645886301994324, 0.13792315125465393, 0.15102967619895935, 0.08730944246053696, 0.017491726204752922, 0.2013757824897766, 0.07799694687128067, 0.04674628749489784, 0.1895560324192047, -0.05102794989943504, -0.07124980539083481, -0.02806406281888485, -0.16845345497131348, -0.08868000656366348, 0.1628100574016571, 0.1657552719116211, -0.18613626062870026, 0.0972791537642479, -0.13160440325737, -0.1435522586107254, -0.1097138524055481, 0.14227983355522156, 0.0824236199259758, 0.06852488964796066, -0.051991213113069534, 0.24489685893058777, 0.16217516362667084, 0.01223109383136034, -0.1380789577960968, -0.059101592749357224, 0.21737337112426758, -0.0029426144901663065, -0.0032684234902262688, -0.09109746664762497, 0.11558832228183746, -0.16686628758907318, -0.05985661968588829, 0.151662215590477, 0.12333802133798599, -0.1470026671886444, 0.11815494298934937, -0.04234028235077858, -0.15520481765270233, -0.04705221578478813, -0.03077346831560135, 0.14580939710140228, -0.22406046092510223, 0.12990446388721466, -0.0842449739575386, 0.04175184294581413, 0.08990047872066498, 0.012284223921597004, -0.18071340024471283, -0.14832541346549988, -0.11743415147066116, -0.01898447796702385, -0.11633794009685516, -0.077129065990448, -0.043549589812755585, 0.03917369619011879, -0.1598675549030304, -0.07239729911088943, -0.13390086591243744, -0.02058352716267109, 0.0786597728729248, -0.0674288272857666, -0.0256267711520195, 0.11511140316724777, -0.17364908754825592, -0.06803840398788452, 0.16929824650287628, 0.09164055436849594, 0.10542115569114685, 0.004968420602381229, -0.0048589399084448814, 0.08308015763759613, -0.01972861960530281, -0.0682268962264061, 0.1086961030960083, -0.2015235722064972, 0.09900978952646255, -0.06695490330457687, 0.15843091905117035, -0.20967163145542145, 0.04594739153981209, 0.1208091601729393, -0.02624770998954773, -0.015045570209622383, -0.06574390828609467, 0.22121299803256989, 0.11529315263032913, 0.18088336288928986, -0.110877625644207, 0.04222334548830986, -0.0710427388548851, -0.027469880878925323, 0.13972756266593933, -0.14546869695186615], [-0.11057611554861069, 0.10907891392707825, -0.14234405755996704, 0.07608097791671753, -0.158277228474617, 0.06804800778627396, -0.0852263942360878, -0.2086465060710907, 0.08095251768827438, 0.03173630312085152, 0.21694186329841614, -0.15200039744377136, -0.09336390346288681, -0.11943225562572479, -0.25307339429855347, 0.039734791964292526, 0.11524173617362976, 0.1043957844376564, -0.20401695370674133, 0.03122609108686447, -0.2176167368888855, -0.09942959994077682, -0.03118930757045746, 0.07057370990514755, -0.10014749318361282, 0.0737411230802536, -0.08876968920230865, 0.314697265625, 0.10757588595151901, 0.0342247374355793, -0.1045789122581482, -0.1284041851758957, 0.20070649683475494, -0.12237619608640671, 0.021863644942641258, -0.17928452789783478, 0.04797111824154854, 0.13819153606891632, -0.016539832577109337, 0.20099608600139618, 0.09422222524881363, -0.16628555953502655, -0.008135422132909298, -0.08427208662033081, -0.10118679702281952, 0.052688118070364, -0.02526135928928852, 0.09471538662910461, -0.24582237005233765, 0.0965496152639389, 0.006596152670681477, -0.06822506338357925, 0.1353777050971985, 0.021517006680369377, -0.20974686741828918, -0.05721208453178406, -0.09253975749015808, 0.03618714213371277, -0.07900980114936829, -0.12320124357938766, -0.04690266028046608, 0.04204023629426956, -0.18785430490970612, -0.11666308343410492, -0.07522936910390854, -0.04103108495473862, 0.13146112859249115, 0.10494024306535721, 0.004167718347162008, 0.04187079146504402, 0.19646525382995605, -0.11501853168010712, 0.20513688027858734, 0.11466620117425919, 0.09309334307909012, -0.12019781023263931, 0.02285432256758213, 0.07509452849626541, -0.03230739384889603, -0.07383113354444504, 0.19893188774585724, -0.1810939460992813, 0.0711355209350586, -0.0011464986018836498, 0.10615839809179306, -0.1935257762670517, 0.007000560872256756, 0.1928287297487259, 0.047971390187740326, -0.0640556737780571, 0.10126584023237228, 0.260524719953537, -0.07274379581212997, 0.16179277002811432, -0.11911658197641373, -0.10698005557060242, 0.14016737043857574, 0.03969477489590645, 0.04416700080037117, -0.16361549496650696], [-0.08891671150922775, 0.106531523168087, -0.12342031300067902, -0.02647426538169384, -0.0929129496216774, 0.10876636952161789, 0.03843625634908676, -0.23652055859565735, -0.013870513066649437, -0.1173873245716095, 0.17244993150234222, -0.14756165444850922, -0.0013481555506587029, 0.11877605319023132, -0.2239782065153122, 0.1083136796951294, 0.11305974423885345, -0.0011868465226143599, -0.12797695398330688, -0.04442250728607178, -0.21015577018260956, -0.010369890369474888, 0.07316167652606964, -0.0037117914762347937, -0.09678006172180176, 0.053812384605407715, 0.018370522186160088, 0.17324455082416534, 0.04294456169009209, -0.19310596585273743, -0.05968870222568512, -0.17483125627040863, 0.17513436079025269, -0.033175136893987656, 0.01090922113507986, 0.011096141301095486, -0.08202560991048813, 0.11406835913658142, -0.006079430226236582, 0.21112026274204254, 0.05807355046272278, 0.15765061974525452, -0.11068866401910782, -0.03510364517569542, -0.0431395061314106, 0.14949485659599304, -0.02831406518816948, -0.06703014671802521, -0.22964809834957123, 0.08665180951356888, 0.08229082077741623, -0.10948191583156586, 0.17363986372947693, 0.004923601634800434, -0.2047322392463684, 0.011842472478747368, -0.03346291556954384, -0.033828720450401306, -0.05205917730927467, -0.12075457721948624, -0.03890419751405716, 0.051547788083553314, -0.14779721200466156, -0.10837734490633011, -0.008335093036293983, 0.10529288649559021, 0.16308383643627167, 0.09890975803136826, -0.03806539624929428, -0.03642381355166435, 0.17546209692955017, -0.14223748445510864, 0.19706696271896362, 0.07968343794345856, 0.034166157245635986, 0.02512381598353386, 0.029048925265669823, 0.08467915654182434, -0.019479826092720032, -0.05727821961045265, 0.16791415214538574, -0.14561405777931213, -0.003529532579705119, 0.03796619176864624, -0.0365915484726429, -0.2289104461669922, -0.07778776437044144, -0.21541865170001984, 0.07393521815538406, -0.020633768290281296, 0.09823530912399292, 0.20667631924152374, -0.1043493002653122, 0.15175385773181915, -0.10092925280332565, -0.15210431814193726, 0.2293594479560852, 0.08751428127288818, 0.09477909654378891, -0.021005799993872643], [0.039509471505880356, 0.0819954127073288, 0.050187595188617706, -0.021248193457722664, -0.0651252269744873, 0.10368994623422623, 0.05835284665226936, -0.19973224401474, -0.07278692722320557, -0.2048453539609909, 0.11999204754829407, -0.06002933159470558, -0.019358009099960327, 0.06614146381616592, -0.23083630204200745, 0.13643671572208405, -0.05873281508684158, -0.04958371818065643, 0.07221750169992447, -0.16474953293800354, -0.22912372648715973, 0.0018592847045511007, 0.08546794950962067, -0.04809904098510742, -0.06414281576871872, -0.0546877384185791, 0.04824095964431763, -0.015105514787137508, -0.002779311267659068, -0.16172505915164948, 0.04761240631341934, -0.08462158590555191, 0.22386668622493744, 0.09354255348443985, 0.037088751792907715, 0.032756537199020386, -0.11620685458183289, 0.009875399060547352, 0.025658270344138145, 0.2980382442474365, 0.00969223864376545, 0.06300048530101776, -0.015579204075038433, -0.02798258140683174, 0.008035914972424507, 0.17538057267665863, -0.0015346050495281816, -0.14295919239521027, 0.14897413551807404, 0.1105685755610466, 0.0920364186167717, -0.1849859207868576, 0.19203048944473267, -0.0055224960669875145, -0.23369856178760529, 0.009500750340521336, -0.04811156913638115, -0.009990421123802662, -0.030403664335608482, -0.16703718900680542, -0.039789289236068726, -0.05710068345069885, -0.17823265492916107, 0.03289228677749634, 0.030909322202205658, 0.19556432962417603, 0.14809858798980713, 0.1447814553976059, -0.0021844415459781885, -0.2516576051712036, 0.13126003742218018, 0.027188440784811974, 0.256152868270874, 0.07701219618320465, -0.20997057855129242, -0.12942232191562653, -0.04470013454556465, 0.03365706652402878, -0.01723255217075348, -0.02683914080262184, 0.12246538698673248, -0.11553461849689484, -0.0015732331667095423, 0.12388166040182114, -0.19325149059295654, -0.2232760339975357, -0.09101945906877518, -0.15637782216072083, 0.1561153382062912, -0.031908415257930756, 0.062239665538072586, 0.03215776011347771, -0.04189487174153328, 0.17985963821411133, 0.07756511121988297, -0.2232287973165512, 0.2639446258544922, 0.15475942194461823, 0.03910345956683159, 0.093987375497818], [0.1941215991973877, 0.11739293485879898, 0.01793668419122696, 0.18173328042030334, -0.05637853220105171, -0.027329320088028908, 0.13303616642951965, -0.17484578490257263, -0.15427103638648987, -0.2197660505771637, -0.20971117913722992, -0.052069783210754395, -0.0556352399289608, 0.0410592220723629, -0.04996722936630249, 0.06784998625516891, -0.11770204454660416, 0.164736807346344, 0.13554877042770386, -0.11431800574064255, 0.119523786008358, -0.11039773374795914, -0.08264400064945221, -0.04007460176944733, -0.07745666801929474, -0.06677467375993729, 0.04925386235117912, -0.08471272140741348, 0.014371897093951702, -0.11224465817213058, 0.023412145674228668, -0.062340788543224335, 0.22715334594249725, 0.10742813348770142, 0.11282157152891159, -0.07131221890449524, -0.13489510118961334, -0.018223868682980537, -0.01865549571812153, 0.2640083134174347, 0.00263978005386889, 0.027073662728071213, 0.08734682947397232, -0.07099660485982895, 0.045428916811943054, 0.14516350626945496, 0.11194035410881042, -0.14864355325698853, 0.15824127197265625, 0.09435088187456131, -0.0142872529104352, 0.10294001549482346, 0.18722479045391083, -0.026141108945012093, 0.1502334326505661, 0.1348704993724823, -0.04915245994925499, 0.06221861392259598, -0.12820905447006226, -0.20663154125213623, -0.005997347645461559, -0.06208916753530502, -0.1291174292564392, 0.12439868599176407, 0.011118624359369278, 0.20872889459133148, 0.16183318197727203, 0.1366991549730301, 0.0717434212565422, -0.23152793943881989, 0.06575613468885422, 0.010839675553143024, -0.061518363654613495, -0.10740558058023453, -0.2131795436143875, 0.05561215803027153, -0.08664800971746445, -0.012360827997326851, -0.020461881533265114, -0.01965869963169098, -0.0006918162107467651, -0.11501666158437729, -0.07372548431158066, 0.14088138937950134, -0.1596135050058365, -0.19158612191677094, -0.12458737194538116, -0.1265910118818283, 0.05772171542048454, -0.07229984551668167, 0.06333167105913162, 0.06862057745456696, -0.042291585355997086, 0.015402929857373238, 0.055739399045705795, -0.2104363739490509, 0.23320485651493073, 0.10748046636581421, 0.014331665821373463, 0.09762284904718399], [0.2063206136226654, 0.17697425186634064, 0.030118517577648163, 0.16932952404022217, -0.20606598258018494, -0.08894848078489304, 0.17254595458507538, -0.14921411871910095, -0.06498142331838608, -0.24071350693702698, -0.22075895965099335, -0.05268202722072601, -0.08088716119527817, -0.0013978139031678438, -0.019720222800970078, -0.015309796668589115, -0.00905549805611372, 0.12773923575878143, 0.15993987023830414, -0.12889955937862396, 0.11099947243928909, -0.10170775651931763, -0.07896269112825394, 0.12829609215259552, -0.04218462482094765, -0.004442560486495495, 0.048076409846544266, -0.0658188909292221, -0.03361973166465759, -0.0043006278574466705, -0.08871075510978699, -0.02004627138376236, 0.1935424655675888, 0.1474045217037201, 0.04538000747561455, 0.16601744294166565, -0.12414070218801498, 0.04829159751534462, -0.07952842861413956, 0.20621280372142792, -0.018810825422406197, -0.02599511668086052, 0.08701944351196289, -0.0943911001086235, 0.04246557131409645, 0.09648894518613815, 0.1329795867204666, -0.08916095644235611, 0.1367834508419037, -0.14872023463249207, 0.03672923892736435, 0.1315733641386032, 0.15545177459716797, -0.10366256535053253, 0.15012027323246002, 0.21814852952957153, -0.0427471399307251, 0.07834719121456146, -0.1280183494091034, -0.25069352984428406, 0.11572606861591339, -0.09523886442184448, 0.0763092041015625, 0.1947600394487381, 0.015087764710187912, 0.1415136307477951, 0.09489195793867111, 0.09095136821269989, 0.11985699832439423, -0.18796749413013458, -0.026073018088936806, 0.08198985457420349, -0.05580759793519974, -0.07555858045816422, -0.22078847885131836, -0.0647006556391716, -0.06427888572216034, -0.033485133200883865, 0.02049943618476391, -0.08457024395465851, -0.014644758775830269, -0.16052128374576569, 0.04699103906750679, 0.1751752644777298, -0.057281844317913055, -0.14273186028003693, -0.025882167741656303, -0.042271487414836884, 0.08271606266498566, -0.06466188281774521, 0.18035748600959778, 0.04680304601788521, -0.19352129101753235, -0.079915851354599, 0.091936856508255, -0.1861717849969864, 0.2502993047237396, 0.1239093467593193, -0.011446486227214336, -0.07364638894796371], [0.1891663372516632, 0.2378888726234436, -0.007388453930616379, 0.15683545172214508, -0.18235047161579132, -0.10779758542776108, 0.14020679891109467, -0.13449740409851074, 0.0879778191447258, -0.20662568509578705, -0.2062711864709854, -0.09553389996290207, -0.08972419798374176, 0.0335177443921566, -0.00991597305983305, -0.05504019185900688, -0.003212107578292489, 0.03327855095267296, 0.15878787636756897, -0.14488668739795685, 0.07664027065038681, -0.032923560589551926, -0.01613065041601658, 0.10783770680427551, 0.030604658648371696, 0.04722750559449196, 0.0728648453950882, -0.016281234100461006, 0.08633077144622803, 0.009087844751775265, -0.11342483013868332, -0.09885598719120026, 0.17235492169857025, 0.07530833780765533, -0.06219742074608803, 0.1300504356622696, -0.08052182197570801, 0.1277361512184143, -0.056964222341775894, 0.11551550775766373, 0.034006934612989426, -0.021354878321290016, -0.01234052050858736, 0.01766628585755825, -0.1859084516763687, 0.11813440173864365, 0.09235242754220963, -0.0805697813630104, 0.1448238641023636, -0.23457889258861542, -0.03782801330089569, 0.08905509114265442, 0.16567891836166382, -0.13410775363445282, 0.09056288748979568, 0.18959762156009674, -0.05254635959863663, 0.08805257081985474, -0.11394321918487549, 0.03085755743086338, 0.09218451380729675, -0.09597624838352203, 0.003793310606852174, 0.2025119662284851, 0.20748844742774963, 0.013131634332239628, -0.1725935935974121, 0.03026922419667244, 0.1982470154762268, -0.19466224312782288, -0.11837758123874664, 0.10356852412223816, -0.030665256083011627, -0.170179083943367, 0.03549923002719879, -0.07949414849281311, -0.010552472434937954, 0.09924440830945969, -0.004409966990351677, 0.015820123255252838, -0.028207551687955856, -0.22168898582458496, 0.027025524526834488, 0.17860671877861023, -0.05893818289041519, -0.11325546354055405, 0.01132824644446373, -0.13130833208560944, 0.07509706914424896, -0.05244167894124985, 0.17634814977645874, 0.03174346312880516, -0.23637272417545319, -0.013087675906717777, -0.041834257543087006, -0.164188951253891, 0.22931595146656036, 0.03082752227783203, -0.006522509269416332, -0.09861428290605545], [0.21207530796527863, 0.18207992613315582, 0.1781507134437561, 0.07102427631616592, -0.15456345677375793, -0.17756977677345276, -0.16350525617599487, -0.1052059680223465, 0.15240170061588287, -0.17012402415275574, -0.07831913232803345, -0.1583911031484604, 0.1465311348438263, 0.14174853265285492, -0.05256839841604233, -0.03536670655012131, -0.0024815849028527737, -0.02114298939704895, 0.10579798370599747, -0.1865396648645401, -0.0444125160574913, -0.021943099796772003, 0.003565762657672167, 0.06443335860967636, 0.08068395406007767, 0.10784484446048737, 0.13765329122543335, -0.15099798142910004, 0.14776046574115753, 0.06507224589586258, -0.09823107719421387, -0.12842126190662384, 0.14653754234313965, 0.03333336114883423, -0.08592851459980011, -0.03421111777424812, -0.0817032977938652, 0.08901520818471909, -0.02422165498137474, 0.0236916895955801, 0.1461895853281021, -0.00515392329543829, -0.12991853058338165, 0.07339638471603394, -0.2183520644903183, 0.16286009550094604, 0.08911854773759842, -0.0970906913280487, 0.10002245008945465, -0.21369975805282593, -0.015265493653714657, 0.05386669933795929, 0.13832971453666687, -0.1880883425474167, 0.10028459131717682, 0.20810000598430634, -0.052263058722019196, 0.16052091121673584, -0.049194470047950745, 0.04868711903691292, 0.0019196958746761084, -0.028856022283434868, -0.05683061107993126, 0.045594122260808945, 0.2047736644744873, -0.19068606197834015, -0.11882201582193375, 0.10027952492237091, 0.020432543009519577, -0.18051095306873322, -0.15959657728672028, 0.10744248330593109, 0.04650000110268593, -0.10080281645059586, 0.007332949433475733, 0.12641239166259766, -0.030200157314538956, 0.060527168214321136, -0.02102379873394966, 0.002986432984471321, -0.23071731626987457, -0.24621181190013885, 0.17683114111423492, 0.0657472088932991, 0.10406570881605148, -0.0009394942317157984, 0.22962574660778046, -0.10421309620141983, -0.08863284438848495, -0.006485710386186838, 0.17640575766563416, 0.05912730097770691, -0.22535985708236694, -0.03709400072693825, -0.07134483009576797, -0.1839340627193451, 0.21672438085079193, 0.007621448487043381, -0.03873727098107338, -0.13655738532543182], [0.1460508108139038, 0.1596485823392868, 0.15933483839035034, -0.003446988295763731, 0.028117263689637184, 0.01838590018451214, -0.2134944647550583, -0.1687256246805191, -0.04376473277807236, -0.12584157288074493, -0.058027736842632294, -0.1456393003463745, 0.09928261488676071, 0.11541048437356949, -0.08922293782234192, 0.16869571805000305, 0.000900302838999778, -0.06792283803224564, 0.0659588873386383, -0.19837196171283722, -0.1425216943025589, 0.01719047501683235, 0.02792445942759514, 0.0032568860333412886, 0.08133897930383682, 0.18495260179042816, 0.16178078949451447, -0.13328900933265686, 0.1667478382587433, 0.10128076374530792, -0.003695000195875764, -0.11888165026903152, 0.06510370224714279, 0.04480558633804321, -0.09676484018564224, -0.0970475971698761, -0.04056946188211441, 0.03875165805220604, 0.045328278094530106, -0.04361801967024803, 0.1760929375886917, 